{
 "begin_epoch": 0,
 "begin_batch": 140,
 "end_epoch": 0,
 "end_batch": 159,
 "weights": [
  {
   "epoch": 0,
   "batch": 140,
   "loss": 0.7108475038016973,
   "accuracy": 53.39007092198582,
   "input": [
    [
     0.0,
     0.0,
     0.0,
     0.0,
     0.0,
     0.0,
     0.0,
     0.0,
     0.0,
     0.0,
     0.0,
     0.0,
     0.0,
     0.0,
     0.0,
     0.0,
     0.0,
     0.0,
     0.0,
     0.0,
     0.0,
     0.0,
     0.0,
     0.0,
     0.0,
     0.0,
     0.0,
     0.0
    ],
    [
     0.0,
     0.0,
     0.0,
     0.0,
     0.0,
     0.0,
     0.0,
     0.0,
     0.0,
     0.0,
     0.0,
     0.0,
     0.0,
     0.0,
     0.0,
     0.0,
     0.0,
     0.0,
     0.0,
     0.0,
     0.0,
     0.0,
     0.0,
     0.0,
     0.0,
     0.0,
     0.0,
     0.0
    ],
    [
     0.0,
     0.0,
     0.0,
     0.0,
     0.0,
     0.0,
     0.0,
     0.0,
     0.0,
     0.0,
     0.0,
     0.0,
     0.0,
     0.0,
     0.0,
     0.0,
     0.0,
     0.0,
     0.0,
     0.0,
     0.0,
     0.0,
     0.0,
     0.0,
     0.0,
     0.0,
     0.0,
     0.0
    ],
    [
     0.0,
     0.0,
     0.0,
     0.0,
     0.0,
     0.0,
     0.0,
     0.0,
     0.0,
     0.0,
     0.0,
     0.0,
     0.0,
     0.0,
     0.0,
     0.0,
     0.0,
     0.0,
     0.0,
     0.0,
     0.0,
     0.0,
     0.0,
     0.0,
     0.0,
     0.0,
     0.0,
     0.0
    ],
    [
     0.0,
     0.0,
     0.0,
     0.0,
     0.0,
     0.0,
     0.078431373,
     0.439215686,
     0.419607843,
     0.317647059,
     0.729411765,
     0.996078431,
     0.996078431,
     0.996078431,
     1.0,
     0.996078431,
     0.607843137,
     0.533333333,
     0.043137255,
     0.0,
     0.0,
     0.0,
     0.0,
     0.0,
     0.0,
     0.0,
     0.0,
     0.0
    ],
    [
     0.0,
     0.0,
     0.0,
     0.0,
     0.0,
     0.0,
     0.141176471,
     0.992156863,
     0.992156863,
     0.992156863,
     0.992156863,
     0.992156863,
     0.992156863,
     0.992156863,
     0.992156863,
     0.992156863,
     0.992156863,
     0.992156863,
     0.545098039,
     0.0,
     0.0,
     0.0,
     0.0,
     0.0,
     0.0,
     0.0,
     0.0,
     0.0
    ],
    [
     0.0,
     0.0,
     0.0,
     0.0,
     0.0,
     0.0,
     0.141176471,
     0.992156863,
     0.992156863,
     0.756862745,
     0.321568627,
     0.321568627,
     0.321568627,
     0.321568627,
     0.321568627,
     0.321568627,
     0.321568627,
     0.321568627,
     0.309803922,
     0.0,
     0.0,
     0.0,
     0.0,
     0.0,
     0.0,
     0.0,
     0.0,
     0.0
    ],
    [
     0.0,
     0.0,
     0.0,
     0.0,
     0.0,
     0.0,
     0.141176471,
     0.992156863,
     0.992156863,
     0.643137255,
     0.0,
     0.0,
     0.0,
     0.0,
     0.0,
     0.0,
     0.0,
     0.0,
     0.0,
     0.0,
     0.0,
     0.0,
     0.0,
     0.0,
     0.0,
     0.0,
     0.0,
     0.0
    ],
    [
     0.0,
     0.0,
     0.0,
     0.0,
     0.0,
     0.0,
     0.141176471,
     0.992156863,
     0.992156863,
     0.643137255,
     0.0,
     0.0,
     0.0,
     0.0,
     0.0,
     0.0,
     0.0,
     0.0,
     0.0,
     0.0,
     0.0,
     0.0,
     0.0,
     0.0,
     0.0,
     0.0,
     0.0,
     0.0
    ],
    [
     0.0,
     0.0,
     0.0,
     0.0,
     0.0,
     0.0,
     0.141176471,
     0.992156863,
     0.992156863,
     0.450980392,
     0.0,
     0.0,
     0.0,
     0.0,
     0.0,
     0.0,
     0.0,
     0.0,
     0.0,
     0.0,
     0.0,
     0.0,
     0.0,
     0.0,
     0.0,
     0.0,
     0.0,
     0.0
    ],
    [
     0.0,
     0.0,
     0.0,
     0.0,
     0.0,
     0.0,
     0.368627451,
     0.992156863,
     0.992156863,
     0.184313725,
     0.0,
     0.0,
     0.0,
     0.0,
     0.0,
     0.0,
     0.0,
     0.0,
     0.0,
     0.0,
     0.0,
     0.0,
     0.0,
     0.0,
     0.0,
     0.0,
     0.0,
     0.0
    ],
    [
     0.0,
     0.0,
     0.0,
     0.0,
     0.0,
     0.039215686,
     0.823529412,
     0.992156863,
     0.792156863,
     0.082352941,
     0.08627451,
     0.094117647,
     0.356862745,
     0.556862745,
     0.556862745,
     0.556862745,
     0.556862745,
     0.556862745,
     0.556862745,
     0.501960784,
     0.094117647,
     0.02745098,
     0.0,
     0.0,
     0.0,
     0.0,
     0.0,
     0.0
    ],
    [
     0.0,
     0.0,
     0.0,
     0.0,
     0.0,
     0.149019608,
     0.992156863,
     0.992156863,
     0.717647059,
     0.62745098,
     0.952941176,
     0.992156863,
     0.992156863,
     0.992156863,
     0.992156863,
     0.992156863,
     0.992156863,
     0.992156863,
     0.992156863,
     0.992156863,
     0.992156863,
     0.725490196,
     0.129411765,
     0.0,
     0.0,
     0.0,
     0.0,
     0.0
    ],
    [
     0.0,
     0.0,
     0.0,
     0.0,
     0.0,
     0.533333333,
     0.992156863,
     0.992156863,
     0.992156863,
     0.992156863,
     0.992156863,
     0.992156863,
     0.862745098,
     0.760784314,
     0.760784314,
     0.760784314,
     0.37254902,
     0.501960784,
     0.760784314,
     0.898039216,
     0.992156863,
     0.992156863,
     0.756862745,
     0.203921569,
     0.0,
     0.0,
     0.0,
     0.0
    ],
    [
     0.0,
     0.0,
     0.0,
     0.0,
     0.0,
     0.396078431,
     0.992156863,
     0.992156863,
     0.992156863,
     0.88627451,
     0.498039216,
     0.231372549,
     0.101960784,
     0.0,
     0.0,
     0.0,
     0.0,
     0.0,
     0.0,
     0.133333333,
     0.588235294,
     0.992156863,
     0.992156863,
     0.596078431,
     0.0,
     0.0,
     0.0,
     0.0
    ],
    [
     0.0,
     0.0,
     0.0,
     0.0,
     0.0,
     0.011764706,
     0.443137255,
     0.619607843,
     0.494117647,
     0.105882353,
     0.0,
     0.0,
     0.0,
     0.0,
     0.0,
     0.0,
     0.0,
     0.0,
     0.0,
     0.0,
     0.031372549,
     0.588235294,
     0.992156863,
     0.929411765,
     0.054901961,
     0.0,
     0.0,
     0.0
    ],
    [
     0.0,
     0.0,
     0.0,
     0.0,
     0.0,
     0.0,
     0.0,
     0.0,
     0.0,
     0.0,
     0.0,
     0.0,
     0.0,
     0.0,
     0.0,
     0.0,
     0.0,
     0.0,
     0.0,
     0.0,
     0.0,
     0.258823529,
     0.992156863,
     0.992156863,
     0.490196078,
     0.0,
     0.0,
     0.0
    ],
    [
     0.0,
     0.0,
     0.0,
     0.0,
     0.0,
     0.0,
     0.0,
     0.0,
     0.0,
     0.0,
     0.0,
     0.0,
     0.0,
     0.0,
     0.0,
     0.0,
     0.0,
     0.0,
     0.0,
     0.0,
     0.098039216,
     0.850980392,
     0.992156863,
     0.976470588,
     0.074509804,
     0.0,
     0.0,
     0.0
    ],
    [
     0.0,
     0.0,
     0.0,
     0.0,
     0.0,
     0.0,
     0.0,
     0.0,
     0.0,
     0.043137255,
     0.31372549,
     0.02745098,
     0.0,
     0.0,
     0.0,
     0.0,
     0.0,
     0.0,
     0.0,
     0.070588235,
     0.498039216,
     0.992156863,
     0.992156863,
     0.545098039,
     0.0,
     0.0,
     0.0,
     0.0
    ],
    [
     0.0,
     0.0,
     0.0,
     0.0,
     0.0,
     0.0,
     0.0,
     0.0,
     0.054901961,
     0.68627451,
     0.992156863,
     0.043137255,
     0.0,
     0.0,
     0.0,
     0.0,
     0.0,
     0.0,
     0.117647059,
     0.850980392,
     0.992156863,
     0.992156863,
     0.933333333,
     0.109803922,
     0.0,
     0.0,
     0.0,
     0.0
    ],
    [
     0.0,
     0.0,
     0.0,
     0.0,
     0.0,
     0.0,
     0.0,
     0.0,
     0.4,
     0.992156863,
     0.992156863,
     0.043137255,
     0.0,
     0.0,
     0.0,
     0.0,
     0.0,
     0.235294118,
     0.850980392,
     0.992156863,
     0.992156863,
     0.929411765,
     0.282352941,
     0.0,
     0.0,
     0.0,
     0.0,
     0.0
    ],
    [
     0.0,
     0.0,
     0.0,
     0.0,
     0.0,
     0.0,
     0.0,
     0.0,
     0.741176471,
     0.992156863,
     0.992156863,
     0.796078431,
     0.788235294,
     0.788235294,
     0.788235294,
     0.788235294,
     0.788235294,
     0.976470588,
     0.992156863,
     0.992156863,
     0.694117647,
     0.152941176,
     0.0,
     0.0,
     0.0,
     0.0,
     0.0,
     0.0
    ],
    [
     0.0,
     0.0,
     0.0,
     0.0,
     0.0,
     0.0,
     0.0,
     0.0,
     0.231372549,
     0.921568627,
     0.992156863,
     0.992156863,
     0.992156863,
     0.992156863,
     0.992156863,
     0.992156863,
     0.992156863,
     0.992156863,
     0.976470588,
     0.329411765,
     0.047058824,
     0.0,
     0.0,
     0.0,
     0.0,
     0.0,
     0.0,
     0.0
    ],
    [
     0.0,
     0.0,
     0.0,
     0.0,
     0.0,
     0.0,
     0.0,
     0.0,
     0.0,
     0.219607843,
     0.529411765,
     0.756862745,
     0.992156863,
     0.917647059,
     0.529411765,
     0.529411765,
     0.356862745,
     0.066666667,
     0.062745098,
     0.0,
     0.0,
     0.0,
     0.0,
     0.0,
     0.0,
     0.0,
     0.0,
     0.0
    ],
    [
     0.0,
     0.0,
     0.0,
     0.0,
     0.0,
     0.0,
     0.0,
     0.0,
     0.0,
     0.0,
     0.0,
     0.0,
     0.0,
     0.0,
     0.0,
     0.0,
     0.0,
     0.0,
     0.0,
     0.0,
     0.0,
     0.0,
     0.0,
     0.0,
     0.0,
     0.0,
     0.0,
     0.0
    ],
    [
     0.0,
     0.0,
     0.0,
     0.0,
     0.0,
     0.0,
     0.0,
     0.0,
     0.0,
     0.0,
     0.0,
     0.0,
     0.0,
     0.0,
     0.0,
     0.0,
     0.0,
     0.0,
     0.0,
     0.0,
     0.0,
     0.0,
     0.0,
     0.0,
     0.0,
     0.0,
     0.0,
     0.0
    ],
    [
     0.0,
     0.0,
     0.0,
     0.0,
     0.0,
     0.0,
     0.0,
     0.0,
     0.0,
     0.0,
     0.0,
     0.0,
     0.0,
     0.0,
     0.0,
     0.0,
     0.0,
     0.0,
     0.0,
     0.0,
     0.0,
     0.0,
     0.0,
     0.0,
     0.0,
     0.0,
     0.0,
     0.0
    ],
    [
     0.0,
     0.0,
     0.0,
     0.0,
     0.0,
     0.0,
     0.0,
     0.0,
     0.0,
     0.0,
     0.0,
     0.0,
     0.0,
     0.0,
     0.0,
     0.0,
     0.0,
     0.0,
     0.0,
     0.0,
     0.0,
     0.0,
     0.0,
     0.0,
     0.0,
     0.0,
     0.0,
     0.0
    ]
   ],
   "output": 0,
   "conv_layer": {
    "w": [
     [
      [
       [
        0.075415736,
        0.103838856,
        -0.244526186,
        -0.262206685,
        -0.229998195
       ],
       [
        0.147150815,
        -0.030923081,
        0.039121788,
        -0.142525596,
        -0.099805124
       ],
       [
        0.052439228,
        -0.05320348,
        -0.298251518,
        -0.231551036,
        -0.194143741
       ],
       [
        0.215658438,
        0.196481119,
        0.157405655,
        -0.124916132,
        -0.096715163
       ],
       [
        0.344017481,
        0.387768874,
        0.140673893,
        0.310887546,
        0.093224699
       ]
      ]
     ],
     [
      [
       [
        0.104518154,
        0.227802861,
        -0.204540481,
        -0.162705028,
        -0.066802259
       ],
       [
        -0.060378118,
        0.154361445,
        -0.163122472,
        -0.122622301,
        -0.146632096
       ],
       [
        -0.216988241,
        -0.161832842,
        0.158002657,
        0.077080954,
        0.070198151
       ],
       [
        -0.072264946,
        -0.141699682,
        0.044978175,
        -0.192490533,
        -0.195051187
       ],
       [
        -0.184687179,
        0.093385536,
        0.083921918,
        -0.151508006,
        -0.089382408
       ]
      ]
     ],
     [
      [
       [
        0.202455617,
        0.392591663,
        0.349500192,
        0.295179137,
        0.339203193
       ],
       [
        -0.113703785,
        0.154037604,
        0.058667387,
        0.130895393,
        0.163153411
       ],
       [
        0.091457715,
        0.230211649,
        0.171671106,
        0.477582765,
        0.514478434
       ],
       [
        0.01122135,
        0.220251506,
        0.474320848,
        0.730488161,
        0.766816316
       ],
       [
        -0.09088998,
        0.152573059,
        0.59035432,
        0.850128274,
        0.792895749
       ]
      ]
     ],
     [
      [
       [
        0.369924073,
        0.317010469,
        0.070230577,
        0.147246888,
        -0.085928868
       ],
       [
        -0.017999352,
        0.460446,
        0.402424915,
        -0.096970236,
        0.062051045
       ],
       [
        0.11385259,
        0.229925172,
        0.140307836,
        0.17392975,
        -0.087265323
       ],
       [
        0.217656357,
        0.360888238,
        0.37932286,
        0.181281677,
        -0.154927103
       ],
       [
        -0.032854786,
        0.30452309,
        0.237061008,
        -0.058229644,
        -0.062486974
       ]
      ]
     ],
     [
      [
       [
        0.130824472,
        0.178194646,
        -0.003912253,
        0.032219755,
        -0.091791964
       ],
       [
        -0.093368438,
        -0.145067068,
        -0.097330125,
        0.136758471,
        0.246505103
       ],
       [
        -0.132938478,
        0.139291923,
        -0.028509722,
        0.43416404,
        0.448514126
       ],
       [
        -0.169841181,
        -0.005572476,
        0.146200685,
        0.273817454,
        0.314324393
       ],
       [
        0.095984424,
        0.089520072,
        0.057724689,
        0.28833273,
        -0.023797541
       ]
      ]
     ]
    ],
    "b": [
     -0.103648192,
     -0.023181644,
     -0.479305366,
     -0.189015464,
     -0.298902659
    ]
   },
   "dense_layer": {
    "w": [
     [
      0.000113656,
      0.017829338,
      -0.043781379,
      -0.003789371,
      0.079900212,
      0.05997062,
      0.044851342,
      0.004052154,
      0.0213213,
      0.036789837,
      0.03680024,
      5.1607e-05,
      0.010117829,
      0.005089936,
      0.02135533,
      0.017655226,
      0.050959724,
      0.014783992,
      -0.040470484,
      -0.08809735,
      -0.11708474,
      -0.14942506,
      0.044650979,
      0.123331105,
      0.043275809,
      -0.059451589,
      0.015221351,
      -0.076260517,
      -0.055270737,
      -0.163597392,
      -0.017111648,
      0.089488322,
      -0.044657485,
      -0.067746238,
      0.087466871,
      0.092669077,
      -0.010340011,
      -0.091644773,
      -0.082149106,
      0.063434184,
      0.051377484,
      -0.045780186,
      0.225860602,
      0.188221764,
      -0.016865089,
      -0.051246351,
      -0.027313919,
      -0.000177086,
      0.056630969,
      -0.078472551,
      0.049604583,
      0.047048114,
      0.012367224,
      -0.019410116,
      0.040442534,
      0.032224165,
      -0.000216961,
      -0.002441494,
      -0.05145795,
      0.021991104,
      0.04291139,
      0.048346546,
      -0.029584315,
      0.010935967,
      -0.034311646,
      -0.026783961,
      -0.032759308,
      0.020803977,
      -0.021464387,
      0.01195957,
      0.008350946,
      0.037099267,
      -0.037856163,
      -0.036082731,
      -0.035609869,
      0.029896693,
      -0.061153784,
      -0.007258516,
      0.018594949,
      0.007797669,
      0.00445779,
      -0.007249676,
      -0.014918433,
      -0.056868286,
      -0.031263737,
      -0.047610203,
      -0.015250638,
      -0.015369213,
      0.050487474,
      -0.061493718,
      -0.045337553,
      0.072138381,
      0.093172787,
      -0.007677856,
      -0.038054657,
      0.057469764,
      -0.038918794,
      -0.06678209,
      -0.026623305,
      0.072216574,
      0.083281883,
      0.003543203,
      -0.039063668,
      0.069611422,
      0.031372416,
      -0.104868583,
      0.043131478,
      0.023078306,
      -0.010725575,
      -0.060578826,
      -0.004288324,
      0.058971236,
      -0.014993538,
      -0.039553688,
      0.010879295,
      -0.0895544,
      -0.014089794,
      -0.058634905,
      0.032336783,
      0.00051114,
      -0.0245716,
      0.008983352,
      0.046926931,
      -0.010904287,
      -0.019872016,
      0.001543315,
      -0.04631515,
      0.025885575,
      -0.019151198,
      -0.068885376,
      -0.054895651,
      0.098933513,
      0.122826266,
      0.100013085,
      0.018748787,
      -0.012219581,
      -0.037534651,
      -0.046775937,
      0.036602317,
      0.041166889,
      -0.010351782,
      0.085808173,
      0.053117688,
      0.009680207,
      -0.022300044,
      0.014393128,
      0.104123932,
      -0.098778465,
      -0.162184639,
      0.104427046,
      0.262523249,
      -0.004824092,
      0.061115895,
      0.219629695,
      -0.046380142,
      -0.27175328,
      -0.40507529,
      0.058799891,
      0.246765422,
      0.077803257,
      0.142964924,
      0.23543259,
      -0.111060557,
      -0.436845392,
      -0.34069039,
      0.022115262,
      0.206051617,
      0.054623277,
      0.172315214,
      0.232264128,
      0.035781877,
      -0.205307787,
      -0.16629159,
      0.033402225,
      0.088170989,
      0.038228025,
      0.069637605,
      0.227372426,
      0.19441614,
      -0.010115562,
      -0.099781111,
      -0.014281264,
      0.070780684,
      0.012256079,
      0.039665039,
      0.064438685,
      -0.004120586,
      0.000657261,
      0.020432323,
      0.02270669,
      0.015221112,
      0.01310118,
      -0.03554179,
      0.011212087,
      0.036182599,
      0.039826335,
      0.023932987,
      0.01803043,
      0.036400092,
      -0.025887207,
      -0.038383649,
      -0.051989879,
      0.011736464,
      -0.014269948,
      -0.073454153,
      0.000681172,
      0.092096262,
      0.068355758,
      0.055942582,
      0.028531069,
      -0.044814157,
      -0.006167651,
      0.031859639,
      -0.056532551,
      0.089504742,
      0.142071364,
      0.032112164,
      0.033334036,
      0.040825504,
      0.064977176,
      -0.065148216,
      -0.125694613,
      0.115179215,
      0.16839515,
      0.006258968,
      0.071753808,
      0.121553029,
      0.040109164,
      -0.200169474,
      -0.16905522,
      0.028630191,
      0.053978228,
      -0.054422205,
      0.086498158,
      0.179573936,
      0.030652812,
      -0.1046521,
      -0.155372553,
      -0.017918813,
      0.035048188,
      -0.03424083,
      0.042044484,
      0.035508201,
      -0.023398724,
      -0.115755063,
      -0.073141775,
      0.053925004,
      0.056926619,
      0.047758954,
      0.046126277,
      0.063450677,
      -0.012437953,
      0.008185602,
      0.045750484,
      0.018392443,
      0.056301981,
      0.047528429,
      0.044966193,
      -0.018742565,
      0.042792124,
      0.034837618,
      0.007198775,
      -0.010913917,
      -0.012278117,
      -0.035614731,
      0.012390936,
      0.033785046,
      0.029761812,
      8.797e-06,
      0.034635598,
      0.023913492,
      0.02235358,
      -0.026264668,
      0.058043185,
      0.056426166,
      -0.04564752,
      0.011019058,
      0.043675572,
      0.000158298,
      0.03599151,
      0.000149349,
      0.056442454,
      0.052430425,
      -0.054428497,
      -0.115230526,
      -0.017938431,
      0.001911814,
      0.000337695,
      0.057904402,
      0.092766678,
      -0.053387891,
      -0.11996176,
      -0.059955556,
      0.047629837,
      0.03257656,
      -0.004670595,
      0.030815657,
      -0.021224212,
      -0.053808972,
      -0.024309555,
      -0.024120908,
      0.048339676,
      0.074420934,
      0.074847284,
      -0.020044715,
      0.013128203,
      0.062484103,
      -0.03162101,
      0.030897442,
      -0.032565542,
      0.015463781,
      -0.006352881,
      0.002532118,
      0.033171748,
      -0.048042221,
      0.059560147,
      -0.001835893,
      0.062927409,
      0.037814652,
      -0.034611172
     ],
     [
      0.026675374,
      0.004393968,
      0.011940065,
      -0.014024462,
      -0.025803024,
      0.072426763,
      -0.004694539,
      0.001541154,
      -0.066054748,
      -0.045484729,
      -0.104233999,
      -0.101324425,
      -0.000801326,
      -0.063529303,
      -0.059713225,
      -0.021111861,
      -0.010829334,
      -0.04936423,
      -0.058012816,
      -0.097816395,
      0.065271732,
      0.073457549,
      -0.054711516,
      -0.057125304,
      0.001578161,
      -0.063379742,
      -0.076920753,
      -0.141958508,
      0.022161946,
      0.023331593,
      -0.139311831,
      -0.08091975,
      -0.065577265,
      0.017690692,
      -0.032589529,
      -0.128877862,
      0.163246849,
      0.012538387,
      -0.100495206,
      -0.068159675,
      -0.031415377,
      -0.012562697,
      -0.029146311,
      -0.156430611,
      0.165981854,
      -0.035271645,
      -0.123639261,
      -0.072565856,
      0.031685942,
      0.038328372,
      -0.117218983,
      -0.009309488,
      0.116654943,
      0.017491432,
      -0.001082481,
      -0.060289465,
      -0.001132513,
      0.005204874,
      -0.022748351,
      0.038073,
      -0.012336259,
      0.006048382,
      -0.046300596,
      -0.043128043,
      0.006399469,
      0.010553869,
      -0.041589373,
      -0.002689841,
      0.062559301,
      0.021339773,
      0.01566542,
      -0.023967849,
      0.011395871,
      -0.050678286,
      -0.045248698,
      -0.028608132,
      0.108916946,
      -0.016493317,
      -0.023680341,
      -0.039502113,
      0.048242594,
      0.053551143,
      -0.029906093,
      -0.051515501,
      -0.035812112,
      -0.044430979,
      -0.027906313,
      -0.051242467,
      -0.026649395,
      0.0168224,
      -0.006044051,
      -0.048979956,
      -0.026714456,
      -0.016021988,
      -0.009576248,
      0.026177185,
      -0.044903956,
      0.0084881,
      -0.00555685,
      -0.0504406,
      -0.009318983,
      -0.04119656,
      0.030014236,
      -0.051591092,
      0.003736981,
      -0.001870317,
      -0.018372778,
      -0.106609119,
      0.097988966,
      0.001685832,
      -0.076732726,
      -0.049343573,
      -0.025254549,
      0.026021601,
      -0.070568198,
      0.026017765,
      0.043852601,
      -0.023671404,
      0.015846479,
      0.01187254,
      0.040001686,
      0.023793543,
      -0.01683893,
      0.00718955,
      0.039387755,
      0.035689273,
      -0.040653548,
      -0.063625461,
      -0.006714386,
      -0.019181737,
      -0.124713997,
      -0.008154721,
      0.106190737,
      0.079088924,
      -0.022127801,
      -0.054416244,
      -0.046910799,
      -0.165599621,
      -0.266822145,
      0.045051899,
      0.144937594,
      -0.150192861,
      -0.126110345,
      0.017186581,
      -0.047523473,
      -0.224586171,
      -0.403784157,
      0.277987298,
      0.173972142,
      -0.170051459,
      -0.163152879,
      -0.076377615,
      -0.117653479,
      -0.222102517,
      -0.318362648,
      0.238848466,
      0.055195481,
      -0.260051207,
      -0.183098978,
      -0.067964473,
      -0.099743649,
      -0.290610819,
      -0.021286469,
      0.225153378,
      -0.085582383,
      -0.212040878,
      -0.151239202,
      -0.046764046,
      -0.048362745,
      -0.138606139,
      0.018163098,
      0.206306752,
      -0.127134482,
      -0.334278395,
      -0.174405332,
      -0.09606054,
      -0.007427995,
      -0.07349982,
      -0.021433201,
      0.062759788,
      0.009208472,
      -0.157691004,
      -0.100539142,
      -0.043934654,
      -0.010763495,
      -0.060430271,
      -0.0835633,
      -0.089781366,
      -0.091505394,
      -0.06535778,
      -0.098467946,
      -0.023851545,
      0.005534962,
      -0.009297623,
      -0.055018596,
      0.052419211,
      0.032395156,
      0.101147954,
      -0.034795415,
      -0.026517579,
      0.018082496,
      -0.039374645,
      0.006770565,
      -0.086367424,
      0.080088455,
      0.049379413,
      -0.018348449,
      0.020912606,
      -0.03835808,
      0.004417243,
      -0.079170242,
      -0.138994967,
      0.250967944,
      -0.027680028,
      -0.083514364,
      0.005005783,
      -0.018843743,
      0.030245982,
      -0.092239214,
      -0.117605044,
      0.210247663,
      -0.022785761,
      -0.119247681,
      -0.036976197,
      0.010879695,
      0.024226728,
      -0.087041854,
      -0.0441546,
      0.275179431,
      -0.089194459,
      -0.083086727,
      -0.086743958,
      -0.016423662,
      -0.027240516,
      -0.034481669,
      0.091079776,
      0.184783955,
      -0.146229321,
      -0.087800735,
      -0.027553598,
      0.011256297,
      -0.048119615,
      0.027096096,
      0.132372083,
      0.147660099,
      -0.114745666,
      -0.037138908,
      -0.075016508,
      0.000661758,
      -0.002857639,
      -0.026183754,
      0.04969865,
      -0.01335404,
      -0.022750936,
      -0.076444915,
      -0.026313268,
      -0.023326318,
      0.011179034,
      -0.067571836,
      0.029469355,
      0.013586118,
      -0.007662132,
      -0.066008797,
      -0.0829583,
      0.015441769,
      -0.088815891,
      -0.108675308,
      -0.011901347,
      0.087046653,
      0.043863497,
      0.009724912,
      -0.077327241,
      -0.056286371,
      -0.129244919,
      -0.178619889,
      0.017059398,
      0.02805006,
      -0.122611731,
      -0.004703541,
      -0.073567783,
      -0.053313373,
      -0.047955477,
      -0.134104079,
      0.058676457,
      -0.123071821,
      -0.002087257,
      -0.066020337,
      -0.096537433,
      -0.030604018,
      -0.130494284,
      -0.104400456,
      0.036673611,
      -0.05451202,
      -0.05129851,
      -0.0586218,
      -0.000623995,
      -0.015466972,
      -0.086472873,
      -0.000694548,
      -0.016434548,
      -0.121187044,
      -0.068752036,
      -0.042565672,
      -0.00595282,
      -0.035827502,
      -0.011794259,
      -0.033961088,
      -0.003508906,
      -0.059165961,
      -0.132787904,
      -0.07805562,
      -0.017913968,
      -0.079825647,
      0.028373293,
      -0.006197265,
      -0.039504061,
      -0.016795911,
      -0.010025872,
      -0.104490439,
      -0.055101257
     ],
     [
      0.020879563,
      -0.037446522,
      0.071916246,
      0.102777856,
      0.123161278,
      0.025614465,
      0.06750987,
      -0.042945601,
      0.056640012,
      -0.064621909,
      -0.097385135,
      -0.043325927,
      -0.062032831,
      -0.003251044,
      -0.027215021,
      -0.042720442,
      -0.014086155,
      -0.061549292,
      -0.014946719,
      -0.024824165,
      -0.036760438,
      0.028430289,
      0.071199271,
      -0.001271293,
      -0.016073851,
      0.007988114,
      0.014181133,
      -0.016432203,
      -0.03359283,
      -0.037442584,
      0.012304574,
      -0.039216857,
      0.049355971,
      -0.000699707,
      0.057483719,
      0.12055664,
      0.112263275,
      0.01317921,
      0.05376484,
      0.050282893,
      -0.032436433,
      -0.046926956,
      -0.030477309,
      -0.087723064,
      -0.016177132,
      0.068765014,
      0.058524192,
      0.131663225,
      -0.012050505,
      -0.037555459,
      -0.032959091,
      -0.077051931,
      -0.027776778,
      -0.070918222,
      -0.001658262,
      0.035806236,
      0.001255298,
      -0.017625727,
      0.04390412,
      0.034552675,
      0.02239874,
      -0.040963556,
      0.009113013,
      -0.004505944,
      -0.045989256,
      0.023919589,
      0.012381522,
      -0.023582979,
      -0.027614484,
      0.006496893,
      -0.016877678,
      0.032554338,
      0.003851665,
      0.019717101,
      -0.000550498,
      -0.074069327,
      -0.027597723,
      0.04897056,
      0.008775275,
      0.00508117,
      0.003268684,
      0.040972843,
      -0.006069008,
      0.009455483,
      0.057200445,
      -0.015585533,
      0.009826771,
      -0.035097091,
      0.038844875,
      -0.02953533,
      0.09072509,
      0.106288926,
      0.024187952,
      -0.003933287,
      0.050651643,
      -0.029374862,
      -0.002717356,
      0.002955006,
      0.011038896,
      -0.003449674,
      -0.02404512,
      -0.026063512,
      -0.053608164,
      0.013217387,
      -0.004520869,
      -0.007712854,
      -0.027674576,
      -0.038826485,
      -0.094196691,
      -0.026613276,
      -0.028766701,
      -0.034376588,
      -0.045516311,
      0.029595636,
      0.000461637,
      0.035328605,
      0.051643045,
      -0.06040575,
      0.013319352,
      0.092913478,
      -0.030897983,
      0.052844156,
      0.039084139,
      0.068941678,
      -0.036993069,
      0.00126914,
      -0.028200678,
      0.024159813,
      0.037713644,
      0.149249952,
      0.283134753,
      0.265886061,
      0.186112907,
      0.079276108,
      0.022014053,
      -0.014429779,
      -0.011424494,
      0.067295578,
      0.040368933,
      -0.018508467,
      0.115942033,
      0.090872891,
      -0.029044199,
      -0.011127569,
      0.039391543,
      -0.107912825,
      -0.272068241,
      -0.183462962,
      0.047037766,
      0.055937124,
      -0.019768845,
      -0.08563681,
      -0.091122226,
      -0.148197099,
      -0.21533041,
      -0.21150624,
      -0.011858597,
      -0.08980812,
      -0.010763893,
      0.004360508,
      0.122008468,
      0.046860089,
      0.021420268,
      0.101629618,
      0.04592587,
      0.008213637,
      0.080906624,
      -0.015074491,
      0.195322122,
      0.221811201,
      0.24004404,
      0.093075754,
      0.051865465,
      0.170782389,
      0.168700491,
      0.075571453,
      0.04796437,
      0.127482128,
      0.091900725,
      -0.09839592,
      -0.048663758,
      0.108308211,
      0.134124375,
      0.069538549,
      0.058519069,
      0.070229772,
      -0.006597831,
      -0.124737293,
      -0.092377218,
      -0.010096598,
      0.041133129,
      0.071963896,
      0.052040709,
      -0.052113979,
      -0.040336024,
      0.034434374,
      0.083634534,
      0.003478838,
      0.018800511,
      0.030976295,
      0.01836789,
      0.021855774,
      0.077605411,
      0.049914132,
      -0.003701797,
      0.082893488,
      0.050430552,
      0.025329541,
      -0.053968101,
      0.039732227,
      -0.036214342,
      -0.10051401,
      -0.00703854,
      0.044577765,
      0.029352109,
      -0.064939581,
      -0.040290567,
      -0.010141289,
      -0.10124401,
      -0.063531108,
      -0.037363228,
      0.075904011,
      -0.007057536,
      -0.045445319,
      0.040211152,
      0.007769742,
      -0.043740005,
      -0.070414553,
      -0.023920032,
      -0.045565397,
      -0.048762126,
      -0.032749544,
      -0.002971355,
      -0.036329501,
      -0.00235906,
      0.078783655,
      -0.036232331,
      -0.074627301,
      0.025787093,
      0.070816965,
      0.008432226,
      0.041503665,
      0.094779578,
      -0.013292927,
      -0.055145426,
      0.007484363,
      0.134531433,
      0.093749188,
      -0.031294087,
      0.029774754,
      0.053051391,
      -0.056067623,
      -0.112391534,
      -0.027427214,
      0.029518358,
      -0.007864335,
      -0.026839617,
      0.056485026,
      0.061179858,
      0.112535438,
      0.064796739,
      -0.001914717,
      -0.01074635,
      -0.018773075,
      0.01696426,
      0.081444842,
      0.020305906,
      -0.01178876,
      -0.048605279,
      0.026099276,
      -0.05832843,
      0.041342452,
      -0.004808781,
      -0.050713167,
      -0.04196093,
      -0.037367439,
      0.04789762,
      0.018828312,
      -0.076825754,
      0.021490529,
      -0.023394033,
      -0.100063217,
      -0.054722183,
      -0.002021963,
      -0.046501911,
      -0.013479043,
      0.036320871,
      0.020881072,
      0.060771381,
      0.021510619,
      0.019056306,
      0.063919408,
      0.022578636,
      0.039085495,
      -0.00178393,
      -0.016082072,
      0.055744811,
      0.061721478,
      0.107638741,
      0.069739057,
      -0.000178124,
      0.00470062,
      0.071526997,
      -0.008166462,
      0.102466479,
      0.008113263,
      -0.040786337,
      -0.032311687,
      0.049439781,
      0.037931869,
      0.070450522,
      0.017056645,
      0.021224733,
      -0.021347253,
      0.000718042,
      0.024524503,
      -0.023525525,
      -0.043863751,
      0.027125005,
      0.009539967
     ],
     [
      -0.010424026,
      0.065330413,
      0.049266779,
      0.140752351,
      0.073258158,
      0.040168303,
      0.006573427,
      -0.058676183,
      0.007106078,
      -0.005628517,
      -0.032129697,
      -0.07063369,
      0.009842763,
      0.049724363,
      -0.044378274,
      0.006055003,
      -0.039313439,
      -0.047609797,
      0.018208432,
      0.002857257,
      -0.014206115,
      -0.027320317,
      -0.035331772,
      -0.005192026,
      -0.042947783,
      -0.024848076,
      0.018277731,
      -0.101293971,
      -0.064957642,
      0.071983975,
      0.02279722,
      -0.068708124,
      -0.020058667,
      0.049555854,
      -0.080819751,
      -0.093192584,
      -0.094541399,
      0.006241777,
      0.085600976,
      -0.048381802,
      -0.01716463,
      0.12596391,
      0.114961943,
      0.134738914,
      -0.018832703,
      -0.03275406,
      0.053996628,
      0.001829562,
      0.048016894,
      0.000283004,
      0.114426811,
      0.124602186,
      -0.035927366,
      -0.044400409,
      0.050863164,
      -0.050140154,
      0.016508824,
      -0.052582133,
      0.010586805,
      -0.066256387,
      0.016200568,
      -0.040951485,
      -0.033465522,
      0.005941927,
      0.047366166,
      -0.041771302,
      -0.012037024,
      0.067579997,
      -0.002445122,
      0.021908983,
      -0.057747671,
      -0.019498152,
      -0.024312495,
      0.050068143,
      0.007601727,
      -0.086552876,
      -0.024542917,
      -0.004322316,
      -0.033876059,
      -0.036897076,
      -0.015141165,
      0.051351424,
      -0.021476742,
      -0.022157903,
      -0.015361562,
      0.005632607,
      0.01018988,
      -0.00539058,
      -0.008898757,
      -0.006995419,
      0.030643103,
      -0.044930014,
      -0.02242429,
      -0.024089651,
      -0.020460068,
      -0.052615882,
      -0.00228716,
      0.076250886,
      0.058537473,
      -0.050572297,
      0.009593456,
      0.101496708,
      0.049723253,
      0.039852945,
      0.007970311,
      0.003408144,
      0.091063605,
      0.052217921,
      0.0490416,
      0.005548626,
      0.050347945,
      0.045328571,
      0.0517612,
      -0.040691083,
      -0.01950243,
      -0.024855354,
      -0.082985951,
      0.037620993,
      0.012021286,
      -0.037821839,
      -0.02143567,
      -0.02292362,
      0.026118456,
      -0.05744715,
      -0.05246829,
      -0.025198888,
      0.03969476,
      0.027490231,
      0.002596606,
      0.148737621,
      0.250095738,
      0.147832989,
      0.045378349,
      -0.002306382,
      -0.02955857,
      0.024729074,
      0.024945197,
      0.137305966,
      0.057319102,
      -0.017792197,
      0.129237103,
      0.065884518,
      -0.082247717,
      -0.037848128,
      0.026011923,
      -0.180552535,
      -0.092259297,
      0.129119016,
      0.18960739,
      -0.060495805,
      -0.116423084,
      -0.000569481,
      -0.030306118,
      -0.223945045,
      -0.008760133,
      0.021349143,
      0.012186211,
      0.01616574,
      -0.024387467,
      -0.043264429,
      -0.003827858,
      -0.14304396,
      -0.195932742,
      -0.198174504,
      0.081979101,
      0.170668073,
      0.014570746,
      -0.089047737,
      0.11774945,
      0.023974295,
      -0.263961917,
      -0.223249353,
      0.044171877,
      0.091244497,
      0.056073312,
      0.004793597,
      0.150753428,
      0.234251633,
      0.108908743,
      0.035697192,
      0.026969376,
      0.107690293,
      -0.002318106,
      -0.031433619,
      0.042740261,
      0.073798357,
      0.115084126,
      0.04852453,
      0.060230478,
      0.093170127,
      -0.013735674,
      -0.006900859,
      0.012812449,
      0.02101266,
      0.040253366,
      -0.003623413,
      0.002450595,
      0.056690455,
      -0.018163462,
      -0.045671618,
      0.044533513,
      0.058304531,
      0.012411928,
      -0.003498074,
      -0.00968737,
      0.018724613,
      0.026696093,
      -0.050502728,
      0.052439285,
      -0.029162407,
      -0.052274341,
      -0.087899927,
      0.046571174,
      0.125204538,
      0.021991588,
      -0.009613571,
      -0.018973655,
      -0.041011358,
      -0.142829734,
      -0.053944982,
      0.072496651,
      0.032822068,
      -0.032397544,
      -0.07964495,
      0.028798571,
      0.036326931,
      -0.131132373,
      -0.080722735,
      0.003212433,
      0.104224585,
      0.054912591,
      -0.018262409,
      0.011565271,
      -0.001427452,
      -0.081258131,
      -0.039904658,
      -0.117604558,
      0.043724183,
      0.092521098,
      -0.038892722,
      -0.004149167,
      -0.003098959,
      0.06457352,
      -0.007551448,
      -0.077457836,
      0.004517284,
      0.073365959,
      -0.021922695,
      0.023145884,
      0.050003976,
      0.001795994,
      0.017630639,
      -0.001825675,
      0.067404837,
      -0.001910682,
      -0.014225407,
      0.061812992,
      -0.019932824,
      0.048201784,
      0.081557406,
      -0.023080944,
      0.053998797,
      0.053590834,
      0.057934313,
      0.037941541,
      0.154579675,
      0.057667884,
      -0.014301901,
      0.019970745,
      0.004611874,
      0.009750229,
      0.050121382,
      -0.012422063,
      0.011562272,
      -0.051502952,
      0.048267797,
      0.108925748,
      0.008945348,
      -0.03933985,
      0.042957173,
      -0.036538822,
      0.007450872,
      0.04169516,
      0.082101705,
      -0.00952482,
      0.004876579,
      0.030557606,
      0.018472456,
      -0.009841548,
      -0.00068113,
      0.070082166,
      -0.086288127,
      0.020510396,
      0.031355528,
      0.033216588,
      0.039480357,
      0.030648426,
      -0.027350356,
      -0.10297558,
      -0.02174,
      0.015715498,
      0.086876105,
      0.037073537,
      0.040392665,
      0.114788287,
      0.050408751,
      0.048728702,
      -0.005635985,
      0.070614004,
      0.02005488,
      0.047175119,
      -0.028460328,
      -0.015170631,
      0.079946706,
      0.055639327,
      0.024715631,
      0.05671505,
      0.032516557,
      0.06158378,
      -0.022400336
     ],
     [
      0.005490712,
      -0.015255893,
      0.043316911,
      0.026860452,
      -0.035012961,
      -0.059445452,
      0.048469227,
      -0.03514777,
      -0.040915886,
      0.006117642,
      0.039206075,
      0.026687842,
      -0.051905965,
      -0.07933505,
      -0.059161186,
      0.007243465,
      0.03053183,
      0.020984914,
      0.033492673,
      0.055483158,
      -0.03428241,
      -0.000224037,
      0.029759682,
      -0.038061061,
      -0.036686106,
      -0.043458523,
      0.063522897,
      0.087646116,
      -0.026977412,
      0.090037915,
      0.022372244,
      -0.007655222,
      -0.024979929,
      -0.114152205,
      -0.041105984,
      0.071991077,
      -0.065063419,
      0.007225805,
      0.016313519,
      -0.065998999,
      0.032892598,
      0.006212135,
      -0.048251251,
      -0.136886105,
      -0.060091596,
      -0.046146086,
      -0.027029427,
      -0.029726022,
      -0.024251661,
      0.035039322,
      -0.0300388,
      -0.049177499,
      -0.019389488,
      -0.011430189,
      -0.007814885,
      -0.057683344,
      0.026698405,
      0.031208274,
      0.064051127,
      -0.001904597,
      0.009179593,
      0.005509399,
      0.050268953,
      0.045316189,
      -0.031411039,
      -0.047327397,
      -0.040404032,
      -0.016890366,
      0.032673552,
      0.029180194,
      0.080787266,
      0.050947161,
      -0.002242662,
      -0.03321765,
      0.094033687,
      0.112213615,
      0.063314468,
      0.023495061,
      0.071013994,
      0.008380867,
      0.033344133,
      0.018222854,
      0.057684053,
      0.012207759,
      -0.009098822,
      0.026618061,
      -0.033283266,
      -0.050774315,
      0.046521819,
      -0.026842041,
      0.030168342,
      -0.030335955,
      -0.001358115,
      -0.049899608,
      -0.03090081,
      -0.015520139,
      -0.024941019,
      -0.013834254,
      -0.066923746,
      0.009749883,
      -0.084728452,
      -0.053750499,
      -0.033656228,
      -0.050751205,
      -0.018557949,
      -0.059337995,
      -0.004239985,
      0.005513643,
      -0.029395942,
      -0.0141037,
      0.058563189,
      0.035713127,
      -0.015052063,
      -0.010927379,
      0.059994155,
      0.06116637,
      -0.034110938,
      -0.007145573,
      -0.022402016,
      -0.030867606,
      0.045032995,
      -0.009737634,
      0.041725335,
      0.001299704,
      0.003114576,
      -0.025516639,
      -0.017966371,
      0.014577754,
      0.017838396,
      -0.01693293,
      -0.015622011,
      -0.236880987,
      -0.143356898,
      0.082617711,
      0.056848791,
      0.051245482,
      -0.016707413,
      -0.04291103,
      -0.052338723,
      -0.220162805,
      -0.196398129,
      0.068246651,
      0.101209463,
      0.031207189,
      -0.012397324,
      0.130368117,
      0.067210312,
      -0.231105078,
      -0.073056217,
      -0.01905739,
      -0.011901463,
      0.015544075,
      0.052987505,
      0.230328851,
      0.222466732,
      -0.015680652,
      0.083913394,
      0.030529405,
      -0.03077771,
      0.011740342,
      0.025843214,
      0.200178741,
      0.281567543,
      0.152665568,
      0.151867549,
      0.046099303,
      0.03356395,
      -0.042828885,
      -0.037220379,
      -0.084001153,
      -0.067127776,
      0.129089983,
      0.065690303,
      0.003745458,
      0.003933298,
      -0.019290962,
      -0.109272654,
      -0.179883229,
      -0.20537654,
      -0.109583263,
      0.025187943,
      -0.002108272,
      -0.084596493,
      -0.034285545,
      0.028450088,
      -0.087641946,
      -0.185982318,
      -0.120252358,
      -0.026093614,
      -0.04069224,
      -0.040930901,
      0.035863356,
      0.025423573,
      -0.010873986,
      0.011707689,
      0.000433183,
      -0.026907659,
      -0.014979405,
      -0.007466303,
      0.024890613,
      -0.00320589,
      0.005689698,
      0.037991601,
      0.078547357,
      -0.110801981,
      0.009352961,
      0.070501592,
      0.016187419,
      -0.050200177,
      -0.006534921,
      0.088876971,
      0.030721701,
      -0.113144839,
      0.071727035,
      0.035578005,
      0.026372409,
      0.030760254,
      0.011149742,
      0.132170415,
      0.090631867,
      -0.084880782,
      0.070243103,
      0.055830746,
      -0.013427595,
      -0.042725266,
      -0.047857077,
      0.102712056,
      0.090072708,
      0.048791063,
      0.093601765,
      0.060074904,
      -0.059266301,
      -0.04345636,
      -0.055882643,
      0.029626219,
      -0.003996096,
      0.032940515,
      0.060907477,
      -0.039661592,
      -0.050958511,
      0.01801738,
      -0.005524968,
      -0.105391667,
      -0.10064519,
      0.031877773,
      0.066003925,
      -0.027101304,
      -0.051311481,
      0.022584312,
      -0.003058188,
      -0.089989957,
      -0.078585666,
      0.007624487,
      0.048656213,
      -0.016255405,
      0.021168414,
      -0.044243614,
      0.038862673,
      0.013003216,
      -0.036994836,
      -0.025544075,
      0.008706855,
      -0.022779887,
      -0.00085776,
      0.001810921,
      -0.028734148,
      0.029584965,
      -0.107760665,
      -0.0871294,
      0.041305274,
      -0.009935246,
      0.045129788,
      -0.047175499,
      -0.047676277,
      0.022078622,
      -0.073411085,
      -0.024112374,
      0.041816717,
      -0.039856792,
      0.033279298,
      0.042275774,
      0.065828254,
      0.055792546,
      -0.059186716,
      0.078728308,
      0.03914314,
      0.012702013,
      0.052813616,
      -0.017112189,
      0.074142636,
      0.051731056,
      -0.020936882,
      0.02593813,
      -0.054880418,
      -0.006344359,
      -0.044847083,
      0.009886789,
      -0.077699071,
      -0.032867724,
      0.0695837,
      0.04552953,
      -0.020335509,
      -0.002876164,
      -0.026433723,
      -0.005001219,
      -0.070419711,
      -0.022802416,
      -0.007795129,
      0.012176185,
      -0.082910941,
      -0.006303575,
      -0.053426732,
      -0.030584481,
      -0.029979714,
      -0.044452579,
      -0.018275218,
      0.031343955,
      -0.054026962,
      0.002077527,
      -0.056826174
     ],
     [
      0.007167333,
      0.04424105,
      0.037673635,
      0.048959218,
      0.012876059,
      -0.013551931,
      0.057424235,
      0.031780234,
      0.04429291,
      0.020196112,
      -0.045852077,
      0.070099408,
      0.013223357,
      -0.032919755,
      -0.011764237,
      0.062665982,
      0.002167719,
      -0.028647637,
      -0.047360598,
      0.02205884,
      0.050906739,
      0.006834169,
      -0.045020475,
      -0.025886535,
      -0.002678949,
      -0.022339335,
      -0.082073593,
      0.032879431,
      0.095873956,
      0.101614116,
      -0.048713497,
      -0.010012182,
      -0.027794046,
      0.008738732,
      -0.003988733,
      -0.042477772,
      0.02431226,
      0.089665813,
      0.035580184,
      -0.037338676,
      -0.030530995,
      0.048414325,
      0.096139243,
      0.111265953,
      0.004007975,
      0.064156794,
      -0.007610267,
      -0.017238871,
      0.020478929,
      0.048216966,
      0.115163994,
      0.079648655,
      0.01377021,
      -0.027035044,
      0.034429621,
      -0.032119577,
      -0.015245481,
      -0.048680198,
      -0.070363288,
      0.003990274,
      -0.019250075,
      0.041572857,
      0.047828878,
      0.029206893,
      0.021959791,
      -0.015572331,
      0.028300804,
      0.025512009,
      0.007612755,
      -0.011294909,
      0.01700621,
      0.014174662,
      -0.041310088,
      0.010423663,
      -0.039802252,
      0.035306789,
      -0.043550096,
      -0.056545791,
      -0.042916536,
      0.067495916,
      -0.039771069,
      0.02743114,
      0.020344115,
      0.038953891,
      0.028256207,
      0.01837581,
      0.041856778,
      0.052816721,
      0.019259228,
      -0.042511576,
      -0.044917595,
      -0.014068671,
      0.03948926,
      0.018879732,
      -0.06005188,
      -0.008692465,
      0.021936622,
      0.071436372,
      -0.052469714,
      0.06242026,
      0.01090507,
      0.005200734,
      -0.028122838,
      -0.014557626,
      0.017055199,
      -0.004373831,
      0.088061502,
      0.108867555,
      0.040617227,
      0.078538184,
      -0.014893163,
      -0.028135974,
      -0.005003661,
      0.029665149,
      -0.001280885,
      -0.040788961,
      0.004329027,
      0.00954191,
      0.052591751,
      -0.025724382,
      0.019750494,
      -0.019032721,
      0.042186368,
      -0.003703412,
      0.039646863,
      0.04423862,
      0.054951266,
      0.028757359,
      -0.005777565,
      0.034631662,
      -0.043528598,
      0.009727867,
      0.001882042,
      0.087516178,
      0.059319194,
      -0.00200947,
      -0.019637853,
      -0.003382478,
      0.064839782,
      0.069025082,
      0.04144841,
      0.005448459,
      0.137482569,
      0.141332703,
      -0.003687304,
      0.016029693,
      0.192183916,
      0.059784604,
      -0.140489309,
      -0.176118603,
      0.090791764,
      0.0725493,
      -0.058410611,
      0.017546447,
      0.236802032,
      0.094125908,
      -0.043170788,
      -0.150065645,
      -0.102632386,
      -0.01235004,
      -0.00386024,
      -0.000631764,
      -0.002238703,
      -0.055216364,
      -0.059986934,
      -0.020848198,
      -0.070765503,
      -0.039966044,
      0.065996265,
      0.091170709,
      -0.054037863,
      -0.109624526,
      -0.021805891,
      0.060935981,
      0.032070332,
      -0.044682267,
      0.009707924,
      0.110553603,
      0.047049799,
      0.071510681,
      0.053547044,
      0.022317356,
      0.078204506,
      -0.033078219,
      0.015731008,
      0.085219513,
      0.05743312,
      0.056268483,
      0.05154647,
      0.080024903,
      0.001331912,
      -0.033852265,
      -0.006176814,
      0.042222014,
      0.003404306,
      0.030485332,
      -0.033488886,
      -0.01301214,
      0.017105562,
      0.032599665,
      -0.055464373,
      -0.050428135,
      0.008862743,
      0.045072714,
      0.019254799,
      -0.054691295,
      0.032130579,
      0.122496658,
      -0.050447384,
      -0.048023689,
      -0.028286518,
      0.067010738,
      -0.015163908,
      -0.112750761,
      -0.074651288,
      0.088972701,
      0.011313836,
      0.049288855,
      0.066622586,
      0.07256831,
      0.043957731,
      -0.042053895,
      -0.034943596,
      -0.035539897,
      -0.022629687,
      -0.025110444,
      0.036653085,
      0.026397166,
      -0.009703063,
      0.089752352,
      0.049494216,
      -0.023180406,
      -0.041118957,
      0.075345953,
      -0.019538915,
      -0.058050734,
      -0.07392361,
      0.038577479,
      0.010897808,
      -0.030533899,
      -0.053366384,
      0.008526742,
      0.060086711,
      -0.036869746,
      -0.004617842,
      0.016764069,
      0.066923797,
      0.055059009,
      -0.010002805,
      -0.031920713,
      -0.016118882,
      -0.011706397,
      0.024812064,
      0.031944793,
      0.046811769,
      -0.005912155,
      0.024352228,
      -0.055805872,
      0.003766258,
      0.029113192,
      -0.083692975,
      -0.040654805,
      0.04465689,
      0.003235643,
      -0.038036252,
      0.023779785,
      0.012933661,
      0.012476661,
      -0.010893772,
      0.065169004,
      0.077597517,
      0.043493355,
      -0.003441385,
      0.032671391,
      0.083453993,
      0.012974108,
      -0.030807405,
      -0.011720491,
      0.010657265,
      0.117705554,
      -0.041097346,
      0.066467155,
      0.042387951,
      0.033340383,
      -0.01451324,
      -0.043988089,
      -0.031687926,
      0.043528078,
      -0.049250841,
      -0.037912175,
      -0.058032586,
      -0.050828957,
      0.022097881,
      -0.020919515,
      -0.024188341,
      -0.017515132,
      0.070977279,
      -0.010163643,
      -0.05879427,
      0.010150605,
      -7.4236e-05,
      0.067427725,
      -0.029586441,
      -0.020777208,
      0.011997334,
      0.107929583,
      0.078012194,
      -0.007884055,
      0.078746293,
      0.033631679,
      -0.001285502,
      -0.008219893,
      0.033622776,
      0.066770776,
      0.053169137,
      0.029963868,
      0.051807274,
      0.002278591,
      -0.0130097,
      -0.01789754
     ],
     [
      -0.031890253,
      0.019697546,
      -0.024274195,
      -0.082241682,
      -0.072402575,
      -0.037384064,
      0.027036288,
      0.043212995,
      -0.041514217,
      0.008656107,
      -0.014589194,
      -0.041393507,
      -0.097166158,
      -0.113613687,
      -0.091064795,
      0.017804847,
      -0.048004546,
      -0.013035924,
      -0.030338835,
      -0.008278246,
      0.072486317,
      0.067405154,
      -0.046069713,
      0.037956505,
      0.053136566,
      -0.022101162,
      -0.011814099,
      -0.018544299,
      0.062956373,
      0.043190751,
      0.046925908,
      0.00594962,
      -0.042044338,
      0.035459822,
      -0.018848254,
      0.08528359,
      -0.016971314,
      -0.007372884,
      0.010971623,
      0.014491085,
      -0.038548399,
      -0.074585821,
      -0.016980377,
      0.037790359,
      0.030962547,
      -0.051175269,
      0.022726452,
      0.022609698,
      -0.035660421,
      0.064852433,
      -0.127342849,
      -0.1066682,
      -0.101791816,
      -0.045976785,
      0.047327827,
      0.047784951,
      0.012804423,
      -0.006378259,
      0.07693714,
      0.06484382,
      0.00915415,
      -0.025749279,
      -0.007715333,
      0.049474216,
      0.008077927,
      -0.00913608,
      -0.047063913,
      -0.027999575,
      0.051448883,
      -0.002344,
      -0.010073138,
      0.020899734,
      -0.035433863,
      -0.007114748,
      -0.031238648,
      0.013858307,
      0.051705465,
      0.045016747,
      0.050588221,
      -0.048804266,
      -0.018101471,
      0.009872933,
      -0.053326382,
      0.016691386,
      0.026820779,
      0.07036325,
      0.051665377,
      -0.05406461,
      0.049826214,
      0.030432157,
      -0.059375528,
      0.025317411,
      0.013435362,
      -0.017930393,
      -0.028721852,
      -0.005491595,
      0.012412428,
      -0.024988306,
      -0.113200557,
      -0.010341963,
      0.065176597,
      0.015030227,
      0.044477793,
      0.016297957,
      0.016666735,
      -0.059241454,
      -0.063649106,
      -0.098246372,
      -0.075935546,
      -0.074317804,
      0.043845418,
      0.009575194,
      -0.022002516,
      0.019027976,
      -0.040117507,
      0.025641841,
      0.016310387,
      0.039949526,
      0.039003529,
      0.040608697,
      -0.040648642,
      -0.026214607,
      0.055620676,
      0.010258234,
      -0.000962043,
      0.035736586,
      0.024615564,
      -0.013862995,
      -0.026140415,
      -0.032787685,
      0.015809716,
      0.100502344,
      0.173030874,
      0.020973898,
      -0.005333941,
      0.052024504,
      -0.03796644,
      -0.121516845,
      -0.070743767,
      -0.012854258,
      -0.216611723,
      -0.223790186,
      -0.097432867,
      -0.030569886,
      -0.049649432,
      -0.089740936,
      0.065831237,
      -0.084920257,
      -0.299732375,
      -0.304146144,
      -0.091451131,
      -0.070348956,
      -0.003181215,
      0.056777821,
      0.063551581,
      0.020376376,
      -0.105155075,
      -0.025794572,
      0.016250489,
      -0.045046047,
      -0.041081117,
      0.114700778,
      0.231902814,
      0.021889509,
      0.029177765,
      0.21336748,
      0.193364875,
      0.032090828,
      -0.102559886,
      0.050415153,
      0.348367407,
      0.175732361,
      0.119570593,
      0.143642715,
      0.098556359,
      -0.00113489,
      -0.01274396,
      -0.178577538,
      0.00262399,
      -0.004464107,
      -0.045324924,
      -0.010257606,
      0.06314563,
      -0.002859376,
      -0.071507755,
      -0.038597282,
      -0.059460271,
      -0.029854597,
      0.043601497,
      -0.008475204,
      -0.040043088,
      -0.054104909,
      -0.045480271,
      -0.035050248,
      -0.000655375,
      0.073495921,
      0.074033714,
      0.085587582,
      0.027887983,
      -0.030860162,
      0.000681321,
      0.044441027,
      0.021038333,
      0.056049291,
      0.015379442,
      -0.086139971,
      -0.050684837,
      -0.041160624,
      -0.020928051,
      0.030353734,
      -0.025168372,
      0.017549908,
      0.036629333,
      -0.168950295,
      -0.111283945,
      -0.08357798,
      0.01316414,
      0.019465082,
      0.01294638,
      0.046827012,
      0.015807078,
      -0.081102757,
      0.024254741,
      0.034579265,
      0.004455798,
      0.005513046,
      0.049379792,
      0.049459005,
      -0.015825202,
      -0.02366769,
      0.143629326,
      0.056557337,
      -0.003514385,
      -0.040014822,
      0.040901713,
      0.037763244,
      -0.063581771,
      0.030546797,
      0.037085036,
      0.027673077,
      0.019067858,
      -0.008009535,
      0.01490793,
      0.05006051,
      0.01391469,
      -0.023278646,
      0.022669618,
      0.021299661,
      0.041065654,
      -0.058882839,
      -0.066435345,
      -0.112878737,
      -0.066337463,
      0.00342011,
      -0.081431188,
      -0.060851418,
      0.039697399,
      -0.023991772,
      0.068844952,
      0.109282046,
      0.152501891,
      0.115704769,
      -0.040094512,
      0.045324943,
      0.009514588,
      -0.083930191,
      -0.039520499,
      0.001144794,
      -0.014333094,
      0.007861123,
      -0.003318386,
      0.056316443,
      0.026704503,
      -0.061650294,
      -0.045489676,
      0.024675784,
      -0.035774601,
      0.001841981,
      -0.016114541,
      0.007992587,
      0.003123968,
      -0.038684716,
      0.019372821,
      -0.045503219,
      0.045193081,
      0.026477376,
      -0.022493158,
      0.044881845,
      -0.022149271,
      -0.008426013,
      0.021970552,
      0.043751261,
      0.065403935,
      0.10412262,
      0.022798529,
      0.059593898,
      -0.007844296,
      0.003587915,
      0.078910585,
      -0.020146653,
      0.046040768,
      0.081934229,
      0.072214823,
      -0.00950039,
      -0.017503925,
      -0.057231519,
      0.040159898,
      0.051624601,
      0.017255801,
      0.065728757,
      0.06247398,
      0.02088622,
      0.045644723,
      -0.078918877,
      -0.13180808,
      -0.080349708,
      -0.027813992,
      0.018886364,
      0.041328458,
      -0.009863273
     ],
     [
      -0.058207367,
      -0.036442178,
      0.029083511,
      -0.074059077,
      -0.142786729,
      -0.107879949,
      -0.078372737,
      -0.082875259,
      0.054038846,
      0.099367492,
      0.191546633,
      0.198371112,
      0.135242546,
      0.105004869,
      0.091747315,
      -0.018964211,
      0.001719369,
      -0.064600859,
      -0.046639686,
      -0.024239026,
      -0.065816494,
      0.001464452,
      0.005740724,
      0.025732109,
      -0.030075548,
      -0.086478894,
      0.005043284,
      -0.065359823,
      -0.193350968,
      -0.091724734,
      0.07407948,
      -0.015140834,
      -0.047438761,
      0.026625269,
      0.004829357,
      0.01735077,
      -0.108314843,
      -0.064519032,
      -0.045864378,
      -0.032273866,
      -0.05201701,
      0.042137305,
      -0.031581631,
      -0.087448814,
      -0.041026552,
      -0.05527265,
      -0.065972497,
      -0.009178044,
      -0.056100439,
      0.033193855,
      -0.013278846,
      -0.109387174,
      -0.036635251,
      0.035814637,
      -0.00556461,
      -0.033083192,
      -0.059898635,
      -0.042685218,
      -0.02088397,
      -0.003877483,
      0.057277292,
      0.021202751,
      -0.018713505,
      0.016238865,
      0.049708919,
      0.042791289,
      0.04597894,
      -0.0342695,
      -0.052180827,
      -0.039358591,
      -0.002323336,
      0.013415781,
      -0.005838324,
      -0.024685962,
      -0.02007738,
      0.079887288,
      0.016900904,
      0.018260731,
      -0.025113877,
      -0.034053841,
      0.009366454,
      0.009232175,
      -0.074397095,
      -0.104311422,
      -0.055124873,
      -0.076212706,
      -0.070161802,
      -0.023482343,
      0.044795234,
      -0.001975713,
      0.011847415,
      0.014589274,
      -0.00701316,
      -0.061494258,
      0.031293761,
      0.00725081,
      0.001007521,
      0.016783339,
      0.012048482,
      0.089669992,
      -0.009766112,
      -0.088300905,
      -0.053669624,
      -0.021378379,
      0.033295151,
      -0.01872221,
      0.0747398,
      -0.025953934,
      -0.110262233,
      0.026921333,
      -0.036667446,
      -0.016212021,
      -0.02056617,
      0.001249624,
      -0.043428217,
      -0.079546973,
      0.032640311,
      -0.005423974,
      -0.056403377,
      -0.014469078,
      -0.055201947,
      0.006557081,
      -0.012674222,
      -0.001519366,
      -0.078018598,
      -0.042772926,
      0.007685937,
      0.042220219,
      -0.054790815,
      -0.023174846,
      -0.118980101,
      -0.233988548,
      -0.328154776,
      -0.145106882,
      -0.091568418,
      -0.05336529,
      0.120631872,
      0.265921469,
      0.100080645,
      0.076362803,
      0.032585896,
      0.053087786,
      -0.006189492,
      -0.022935535,
      0.116344526,
      0.216819367,
      0.122500539,
      0.012000648,
      0.201296268,
      0.191812257,
      -0.003461297,
      -0.008024539,
      0.021440181,
      -0.01891525,
      -0.111907712,
      -0.199051788,
      0.300311762,
      0.231294816,
      0.043224138,
      0.006680562,
      -0.015973788,
      -0.191973487,
      -0.280444337,
      -0.055038891,
      0.161995626,
      -0.031867452,
      -0.019939419,
      -0.004154572,
      -0.092756371,
      -0.26702535,
      -0.218449691,
      -0.004968196,
      -0.067241929,
      -0.095868971,
      -0.098922043,
      -0.082782439,
      -0.054958371,
      -0.090134109,
      -0.07928069,
      0.053507466,
      -0.013123138,
      -0.050153994,
      -0.133792443,
      -0.035255574,
      0.042041569,
      0.090269726,
      0.095436818,
      0.150481974,
      0.061508499,
      -0.072702498,
      -0.090912544,
      -0.060339795,
      0.030172166,
      -0.025509764,
      -0.018225968,
      -0.020264853,
      -0.110446967,
      -0.085332537,
      -0.02121437,
      -0.051496642,
      0.012056264,
      0.001292274,
      0.026545629,
      -0.006608718,
      -0.058201072,
      -0.035394775,
      -0.059108793,
      -0.00244945,
      0.032845649,
      0.002862335,
      -0.024341392,
      0.041987676,
      -0.04426906,
      0.103429748,
      0.060939313,
      0.017092416,
      0.053931846,
      0.067641641,
      -0.002654729,
      0.005707806,
      -0.054410361,
      0.138112863,
      0.037826339,
      -0.031204147,
      -0.058276643,
      0.045527726,
      0.019184139,
      -0.079185037,
      -0.041358651,
      0.049625498,
      0.059741595,
      -0.048917151,
      -0.023276929,
      -0.068439611,
      -0.071531189,
      -0.062441926,
      0.032204035,
      -0.042008674,
      -0.052780585,
      -0.077542266,
      -0.051577714,
      -0.011414651,
      -0.111143869,
      -0.009532975,
      -0.008175597,
      -0.053148028,
      -0.074979665,
      -0.084045595,
      0.038021779,
      0.036964556,
      -0.02947997,
      0.060888963,
      0.099414859,
      0.01105394,
      -0.044227628,
      -0.068460763,
      0.024144839,
      -0.072266167,
      -0.053661306,
      -0.069012901,
      -0.097622664,
      -0.080840305,
      -0.08578373,
      -0.019533101,
      -0.004503537,
      0.065079198,
      -0.051002098,
      -0.047750045,
      -0.076944722,
      -0.059874157,
      -0.023997879,
      -0.023729865,
      0.071752679,
      0.096793682,
      0.045833893,
      0.034192886,
      0.001017732,
      -0.001293268,
      -0.002792904,
      -0.01280224,
      0.043704224,
      0.016600093,
      -0.018234101,
      -0.133035866,
      0.066156042,
      0.048638929,
      -0.005244376,
      -0.022678315,
      0.013686949,
      -0.003814363,
      -0.133209442,
      -0.012607564,
      0.090531388,
      0.000273632,
      0.024078747,
      0.032241668,
      -0.038952959,
      -0.079342483,
      -0.038587514,
      0.055996012,
      -0.022105119,
      -0.01690924,
      0.01702984,
      -0.009581324,
      -0.085190398,
      -0.052366723,
      0.011973682,
      0.007620273,
      -0.03561328,
      0.030863787,
      -0.101711247,
      -0.060734379,
      -0.036395867,
      0.070835429,
      -0.01457763,
      0.010334783,
      -0.070713183,
      -0.055792472,
      -0.028384889,
      -0.037911955
     ],
     [
      0.062772066,
      0.005200942,
      -0.020116647,
      0.049730519,
      0.102391134,
      0.076803794,
      0.092855567,
      -0.015775467,
      0.030899169,
      0.03494648,
      0.02693948,
      -0.012651686,
      -0.025594672,
      -0.064848673,
      -0.014236767,
      0.030958217,
      0.00191051,
      0.045337239,
      0.04538042,
      0.111667937,
      0.022528989,
      -0.071780133,
      -0.045101743,
      0.044186021,
      -0.04080449,
      -0.047939929,
      -0.045512297,
      -0.000537009,
      0.017785853,
      -0.079300555,
      -0.069442363,
      0.048727364,
      -0.002534445,
      0.063362657,
      -0.045306716,
      -0.085288549,
      0.016438809,
      0.01807541,
      -0.065675411,
      0.022085887,
      -0.008963141,
      -0.05965531,
      -0.004282647,
      0.001364426,
      0.01568108,
      0.024743629,
      -0.044662608,
      -0.054937844,
      0.061873381,
      0.038188614,
      0.0206986,
      0.084431765,
      0.067888358,
      0.00222461,
      0.034838385,
      -0.009589174,
      -0.001913336,
      -0.01214136,
      0.015503087,
      -0.003129717,
      0.000897889,
      0.008993957,
      0.008572332,
      0.00824989,
      -0.038258839,
      0.056389821,
      -0.025003503,
      0.035175147,
      -0.020495629,
      0.010923892,
      0.02739455,
      -0.044908562,
      0.028225791,
      -0.041490141,
      0.014860955,
      -0.001635665,
      0.016318435,
      0.047777822,
      0.022044895,
      0.005820979,
      -0.024944589,
      0.021895579,
      -0.041300348,
      0.029059949,
      -0.015404288,
      0.053049239,
      0.05434382,
      0.043442753,
      0.004687097,
      0.034696625,
      -0.056013654,
      0.061565323,
      -0.029551428,
      0.008473628,
      0.011460398,
      -0.001891635,
      -0.02264184,
      0.052948459,
      -0.029892908,
      -0.026559995,
      0.025568388,
      0.059134137,
      -0.024911707,
      -0.052791202,
      -0.023037176,
      0.062688579,
      -0.050892544,
      0.025358816,
      0.120310909,
      0.046144524,
      -0.022655542,
      -0.044808044,
      0.01393284,
      -0.013810339,
      -0.025755797,
      0.037815215,
      0.030773216,
      -0.012633497,
      -0.009330823,
      0.009024404,
      0.004493743,
      0.010795715,
      -0.010381169,
      0.067133668,
      0.002419815,
      0.010375195,
      -0.043014619,
      -0.03747358,
      0.006515156,
      -0.015042754,
      0.017124501,
      0.134923206,
      0.077744371,
      0.056418722,
      0.059181403,
      -0.013619167,
      -0.029367202,
      0.029076314,
      0.094331637,
      -0.010109499,
      -0.041713156,
      0.062384024,
      0.104831287,
      0.0763756,
      0.038966998,
      0.009905585,
      0.068725689,
      0.01049625,
      -0.000815889,
      0.100972176,
      0.118378519,
      0.003274066,
      -0.085606754,
      -0.136495579,
      0.052908332,
      0.118989879,
      -0.057061078,
      -0.064857047,
      0.005917277,
      0.014673186,
      -0.10342457,
      -0.095546643,
      0.083261181,
      0.10418162,
      -0.027144083,
      -0.108285895,
      -0.043744531,
      -0.04395403,
      -0.040233094,
      0.043186555,
      0.054114358,
      -0.063581677,
      -0.086805053,
      -0.067770627,
      -0.067677161,
      -0.052571268,
      0.010852526,
      -0.030093692,
      0.094519298,
      0.10144014,
      0.045229468,
      0.002245657,
      -0.068874177,
      0.004267007,
      -0.010612135,
      -0.050773689,
      0.027521879,
      0.047434065,
      0.073139962,
      0.010630841,
      0.010135499,
      0.023414961,
      0.030208646,
      0.009045256,
      0.015151438,
      0.055855121,
      -0.014069283,
      0.057112822,
      0.057512223,
      -0.042838244,
      0.019179338,
      0.036883304,
      0.012097718,
      0.062554914,
      -0.009408621,
      0.0357896,
      0.033880206,
      -0.00806391,
      0.047101752,
      0.022614334,
      0.052506806,
      0.060461474,
      -0.022679851,
      0.006391625,
      0.058908055,
      0.027296551,
      0.017763662,
      -0.038986564,
      -0.056820092,
      0.03301782,
      0.029208581,
      -0.095667634,
      -0.001152672,
      -0.038020223,
      0.030299382,
      0.013560206,
      -0.138331121,
      0.090798237,
      0.030750985,
      -0.037125028,
      -0.044597075,
      -0.039955582,
      0.0554112,
      -0.05243681,
      -0.002357815,
      0.017606281,
      0.003246583,
      0.074688763,
      -0.008302139,
      -0.019712319,
      0.009030823,
      -0.073091747,
      0.048967079,
      0.019553632,
      -0.014969776,
      0.012338393,
      0.052166202,
      0.021271902,
      0.038703361,
      0.000554399,
      -0.033857958,
      0.050761589,
      0.024372649,
      0.052994211,
      0.005683459,
      -0.019883914,
      0.059869341,
      0.027009105,
      -0.022099623,
      0.011084524,
      -0.007391865,
      -0.001388347,
      0.046691671,
      -0.026323979,
      0.058167689,
      0.059094402,
      0.070058404,
      0.040420068,
      0.029425182,
      -0.026210199,
      0.052880762,
      -0.013642334,
      0.021258004,
      -0.027663094,
      0.043232213,
      -0.004494739,
      0.057020329,
      0.087200419,
      0.098432065,
      0.051873909,
      0.043947396,
      -0.004430655,
      -0.060691069,
      0.024558734,
      0.020039145,
      0.012124268,
      0.101341618,
      0.041967744,
      -0.007889171,
      -0.017667791,
      0.08257472,
      0.046298579,
      -0.054001917,
      -0.042903441,
      -0.01876841,
      0.031497227,
      -0.016667148,
      0.00703905,
      0.125991089,
      0.010127515,
      0.015156886,
      -0.027629643,
      -0.021470787,
      -0.046405911,
      0.024704888,
      -0.028334858,
      0.045588354,
      0.003758453,
      0.017359277,
      -0.035264247,
      -0.024877369,
      -0.005105708,
      -0.015383358,
      0.047275512,
      0.074417456,
      0.023277598,
      0.03923143,
      0.064999096,
      0.082223521,
      0.001711048
     ],
     [
      0.035108704,
      -0.009186304,
      -0.044097798,
      0.008199335,
      -0.072074542,
      0.004193484,
      0.005844733,
      -0.037156497,
      0.020038997,
      0.0472812,
      0.017123796,
      0.083133483,
      0.168565874,
      0.094634228,
      0.03343849,
      -0.052675314,
      0.049619075,
      -0.018540755,
      -0.000880519,
      -0.062957571,
      -0.042599871,
      0.050758713,
      0.093938574,
      -0.024923326,
      -0.031393393,
      0.013133049,
      0.027758352,
      0.045669502,
      -0.016709889,
      -0.034545361,
      -0.01009605,
      -0.035350956,
      0.003453083,
      -0.036257231,
      0.002450119,
      0.018832489,
      -0.052530931,
      0.016866296,
      -0.046719059,
      -0.068406949,
      0.002260468,
      0.011025858,
      -0.051483373,
      -0.036599565,
      -0.032118707,
      0.042151974,
      -0.000643195,
      0.009750322,
      -0.015808526,
      0.028206035,
      0.053326401,
      -0.06179911,
      -0.005835745,
      0.020740296,
      -0.035595356,
      0.024677019,
      0.046707761,
      -0.023604997,
      0.026064267,
      0.012053603,
      0.036735821,
      0.058448855,
      0.070047165,
      0.045305373,
      -0.048455213,
      -0.023163637,
      0.022880928,
      -0.041134486,
      0.008000945,
      -0.032395208,
      -0.001377545,
      0.022812902,
      0.017326065,
      0.038698317,
      -0.005077528,
      0.050244105,
      0.035644101,
      -0.010720607,
      -0.047703105,
      0.044776196,
      -0.01618462,
      0.046023199,
      0.061015868,
      0.006768182,
      -0.065619432,
      0.070570471,
      -0.011208097,
      0.003899808,
      -0.022124359,
      0.028992161,
      -0.061495456,
      -0.002886251,
      -0.012545779,
      -0.010387508,
      0.040575361,
      -0.025279416,
      -0.045166394,
      0.025679761,
      0.051597784,
      0.048477919,
      -0.087448901,
      -0.05029912,
      -0.021350124,
      -0.001014772,
      0.019824804,
      -0.024749304,
      0.023093808,
      0.026637056,
      0.037443696,
      0.003238422,
      0.04688855,
      -0.044594596,
      -0.021256387,
      -0.031279677,
      0.062488381,
      -0.022055921,
      0.03204097,
      -0.010412094,
      0.037975961,
      -0.001633744,
      -0.048006127,
      0.010115115,
      -0.005196564,
      -0.089839589,
      -0.023404236,
      0.027704725,
      0.007368928,
      -0.00283279,
      -0.018174434,
      -0.041859578,
      -0.157702151,
      -0.10496276,
      -0.110351578,
      -0.116083398,
      -0.079518502,
      -0.059127661,
      -0.068493228,
      0.003205634,
      0.03470171,
      0.021187367,
      0.017529604,
      -0.009294632,
      -0.137091921,
      -0.081552599,
      -0.001826722,
      0.131590397,
      0.13594226,
      -0.047203986,
      0.062452768,
      0.114002591,
      0.006306936,
      -0.046886092,
      0.006473545,
      0.199939247,
      0.108756667,
      0.033967961,
      0.116507613,
      0.056704857,
      -0.06239919,
      0.010778798,
      -0.047399613,
      0.064167021,
      0.138056726,
      0.019984929,
      0.17356585,
      -0.080470389,
      -0.035759861,
      -0.020042946,
      -0.049389014,
      -0.228044985,
      -0.158256119,
      0.039051653,
      0.029462804,
      -0.061057706,
      -0.099714867,
      0.00532812,
      -0.063634212,
      -0.175691434,
      -0.227756184,
      -0.123441307,
      -0.027077964,
      -0.072281556,
      -0.02746524,
      0.012854817,
      0.013730444,
      0.018610595,
      -0.007471928,
      0.040604591,
      0.066257604,
      -0.001725467,
      -0.018623794,
      -0.021907763,
      -0.012674752,
      -0.050514555,
      -0.051123187,
      -0.041851585,
      -0.078627969,
      -0.133189283,
      -0.036452012,
      0.018263658,
      0.046469332,
      0.037888853,
      -0.063108898,
      -0.024486145,
      -0.030695957,
      0.008843911,
      -0.024282205,
      -0.020794886,
      0.031515309,
      0.028326755,
      0.020072516,
      0.043029621,
      -0.009101376,
      0.113927644,
      -0.000334226,
      -0.064929963,
      0.014369033,
      0.031189198,
      0.132244493,
      0.03710232,
      -0.06198855,
      0.106274081,
      0.08178372,
      -0.041486728,
      0.023897865,
      -0.025629808,
      0.062554225,
      0.059008764,
      0.019665434,
      0.079108626,
      -0.023707346,
      -0.064423571,
      0.028268667,
      0.025658867,
      -0.000765226,
      -0.087626082,
      -0.034571352,
      0.08114909,
      -0.06610035,
      -0.006908549,
      0.043050999,
      -0.026905211,
      -0.092168685,
      -0.11872148,
      -0.012080937,
      0.047612131,
      -0.04119637,
      -0.076738854,
      -0.03485064,
      -0.006729661,
      0.007156976,
      -0.026429364,
      -0.019878223,
      0.004121547,
      0.066562131,
      0.018480279,
      -0.043253964,
      -0.041245836,
      -0.078858768,
      -0.056038381,
      -0.079625286,
      -0.021889098,
      -0.018412977,
      -0.052803133,
      -0.060740504,
      -0.083529317,
      -0.020474184,
      0.080085211,
      -0.019838463,
      -0.055084187,
      -0.032892455,
      0.043053183,
      -0.036742509,
      0.105743987,
      0.082687497,
      0.00561927,
      0.045246556,
      0.016094482,
      0.014746787,
      -0.04729195,
      0.060671695,
      0.133940096,
      0.030127611,
      0.037491344,
      0.105961254,
      0.062023811,
      -0.045368638,
      -0.006663228,
      -0.047418595,
      0.065769136,
      0.041279913,
      0.041673352,
      0.004277353,
      -0.072099173,
      0.021656951,
      0.042911878,
      -0.050405679,
      -0.042667894,
      0.01729814,
      0.099555396,
      0.035368777,
      0.032495096,
      0.000929997,
      0.029594974,
      -0.019897542,
      -0.113467061,
      -0.0762761,
      -0.003319435,
      0.00332533,
      -0.068372883,
      -0.002737325,
      -0.069642682,
      0.033528446,
      0.060166819,
      0.033597559,
      -0.012026309,
      0.024640194,
      -0.034335719,
      -0.05940575,
      -0.042899473
     ]
    ],
    "b": [
     -0.08330534,
     0.212333551,
     -0.014985685,
     -0.115163983,
     -0.001110673,
     0.002598559,
     -0.013181751,
     0.05396842,
     -0.067324693,
     -0.046903768
    ]
   }
  },
  {
   "epoch": 0,
   "batch": 141,
   "loss": 0.691867731387916,
   "accuracy": 53.568075117370896,
   "input": [
    [
     0.0,
     0.0,
     0.0,
     0.0,
     0.0,
     0.0,
     0.0,
     0.0,
     0.0,
     0.0,
     0.0,
     0.0,
     0.0,
     0.0,
     0.0,
     0.0,
     0.0,
     0.0,
     0.0,
     0.0,
     0.0,
     0.0,
     0.0,
     0.0,
     0.0,
     0.0,
     0.0,
     0.0
    ],
    [
     0.0,
     0.0,
     0.0,
     0.0,
     0.0,
     0.0,
     0.0,
     0.0,
     0.0,
     0.0,
     0.0,
     0.0,
     0.0,
     0.0,
     0.0,
     0.0,
     0.0,
     0.0,
     0.0,
     0.0,
     0.0,
     0.0,
     0.0,
     0.0,
     0.0,
     0.0,
     0.0,
     0.0
    ],
    [
     0.0,
     0.0,
     0.0,
     0.0,
     0.0,
     0.0,
     0.0,
     0.0,
     0.0,
     0.0,
     0.0,
     0.0,
     0.0,
     0.0,
     0.0,
     0.0,
     0.0,
     0.0,
     0.0,
     0.0,
     0.0,
     0.0,
     0.0,
     0.0,
     0.0,
     0.0,
     0.0,
     0.0
    ],
    [
     0.0,
     0.0,
     0.0,
     0.0,
     0.0,
     0.0,
     0.0,
     0.0,
     0.0,
     0.0,
     0.0,
     0.0,
     0.0,
     0.0,
     0.070588235,
     0.823529412,
     0.992156863,
     0.407843137,
     0.054901961,
     0.0,
     0.0,
     0.0,
     0.0,
     0.0,
     0.0,
     0.0,
     0.0,
     0.0
    ],
    [
     0.0,
     0.0,
     0.0,
     0.0,
     0.0,
     0.0,
     0.0,
     0.0,
     0.0,
     0.0,
     0.0,
     0.0,
     0.0,
     0.08627451,
     0.780392157,
     0.992156863,
     0.988235294,
     0.988235294,
     0.639215686,
     0.0,
     0.0,
     0.0,
     0.0,
     0.0,
     0.0,
     0.0,
     0.0,
     0.0
    ],
    [
     0.0,
     0.0,
     0.0,
     0.0,
     0.0,
     0.0,
     0.0,
     0.0,
     0.0,
     0.0,
     0.0,
     0.0,
     0.078431373,
     0.792156863,
     0.988235294,
     0.992156863,
     0.988235294,
     0.988235294,
     0.968627451,
     0.184313725,
     0.0,
     0.0,
     0.0,
     0.0,
     0.0,
     0.0,
     0.0,
     0.0
    ],
    [
     0.0,
     0.0,
     0.0,
     0.0,
     0.0,
     0.0,
     0.0,
     0.0,
     0.0,
     0.0,
     0.0,
     0.188235294,
     0.792156863,
     0.988235294,
     0.988235294,
     0.992156863,
     0.988235294,
     0.988235294,
     0.988235294,
     0.474509804,
     0.0,
     0.0,
     0.0,
     0.0,
     0.0,
     0.0,
     0.0,
     0.0
    ],
    [
     0.0,
     0.0,
     0.0,
     0.0,
     0.0,
     0.0,
     0.0,
     0.0,
     0.0,
     0.0,
     0.48627451,
     0.949019608,
     0.988235294,
     0.988235294,
     0.988235294,
     0.992156863,
     0.988235294,
     0.988235294,
     0.780392157,
     0.02745098,
     0.0,
     0.0,
     0.0,
     0.0,
     0.0,
     0.0,
     0.0,
     0.0
    ],
    [
     0.0,
     0.0,
     0.0,
     0.0,
     0.0,
     0.0,
     0.0,
     0.0,
     0.043137255,
     0.509803922,
     0.996078431,
     0.992156863,
     0.992156863,
     0.992156863,
     0.992156863,
     0.996078431,
     0.992156863,
     0.992156863,
     0.674509804,
     0.0,
     0.0,
     0.0,
     0.0,
     0.0,
     0.0,
     0.0,
     0.0,
     0.0
    ],
    [
     0.0,
     0.0,
     0.0,
     0.0,
     0.0,
     0.0,
     0.0,
     0.0,
     0.250980392,
     0.988235294,
     0.992156863,
     0.988235294,
     0.988235294,
     0.988235294,
     0.988235294,
     0.992156863,
     0.988235294,
     0.960784314,
     0.219607843,
     0.0,
     0.0,
     0.0,
     0.0,
     0.0,
     0.0,
     0.0,
     0.0,
     0.0
    ],
    [
     0.0,
     0.0,
     0.0,
     0.0,
     0.0,
     0.0,
     0.0,
     0.0,
     0.250980392,
     0.988235294,
     0.992156863,
     0.960784314,
     0.698039216,
     0.650980392,
     0.988235294,
     0.992156863,
     0.988235294,
     0.494117647,
     0.0,
     0.0,
     0.0,
     0.0,
     0.0,
     0.0,
     0.0,
     0.0,
     0.0,
     0.0
    ],
    [
     0.0,
     0.0,
     0.0,
     0.0,
     0.0,
     0.0,
     0.0,
     0.0,
     0.082352941,
     0.674509804,
     0.745098039,
     0.321568627,
     0.160784314,
     0.882352941,
     0.988235294,
     0.992156863,
     0.905882353,
     0.062745098,
     0.0,
     0.0,
     0.0,
     0.0,
     0.0,
     0.0,
     0.0,
     0.0,
     0.0,
     0.0
    ],
    [
     0.0,
     0.0,
     0.0,
     0.0,
     0.0,
     0.0,
     0.0,
     0.0,
     0.0,
     0.0,
     0.0,
     0.0,
     0.498039216,
     0.988235294,
     0.988235294,
     0.992156863,
     0.48627451,
     0.0,
     0.0,
     0.0,
     0.0,
     0.0,
     0.0,
     0.0,
     0.0,
     0.0,
     0.0,
     0.0
    ],
    [
     0.0,
     0.0,
     0.0,
     0.0,
     0.0,
     0.0,
     0.0,
     0.0,
     0.0,
     0.0,
     0.0,
     0.266666667,
     0.960784314,
     0.992156863,
     0.992156863,
     0.901960784,
     0.105882353,
     0.0,
     0.0,
     0.0,
     0.0,
     0.0,
     0.0,
     0.0,
     0.0,
     0.0,
     0.0,
     0.0
    ],
    [
     0.0,
     0.0,
     0.0,
     0.0,
     0.0,
     0.0,
     0.0,
     0.0,
     0.0,
     0.0,
     0.058823529,
     0.82745098,
     0.988235294,
     0.988235294,
     0.988235294,
     0.380392157,
     0.0,
     0.0,
     0.0,
     0.0,
     0.0,
     0.0,
     0.0,
     0.0,
     0.0,
     0.0,
     0.0,
     0.0
    ],
    [
     0.0,
     0.0,
     0.0,
     0.0,
     0.0,
     0.0,
     0.0,
     0.0,
     0.0,
     0.070588235,
     0.929411765,
     0.988235294,
     0.988235294,
     0.988235294,
     0.988235294,
     0.0,
     0.0,
     0.0,
     0.0,
     0.0,
     0.0,
     0.0,
     0.0,
     0.0,
     0.0,
     0.0,
     0.0,
     0.0
    ],
    [
     0.0,
     0.0,
     0.0,
     0.0,
     0.0,
     0.0,
     0.0,
     0.0,
     0.274509804,
     0.937254902,
     0.992156863,
     0.988235294,
     0.988235294,
     0.988235294,
     0.988235294,
     0.384313725,
     0.0,
     0.0,
     0.0,
     0.0,
     0.0,
     0.501960784,
     0.262745098,
     0.0,
     0.0,
     0.0,
     0.0,
     0.0
    ],
    [
     0.0,
     0.0,
     0.0,
     0.0,
     0.0,
     0.0,
     0.0,
     0.588235294,
     0.937254902,
     0.988235294,
     0.992156863,
     0.988235294,
     0.988235294,
     0.988235294,
     0.988235294,
     0.898039216,
     0.105882353,
     0.0,
     0.0,
     0.0,
     0.141176471,
     0.949019608,
     0.976470588,
     0.274509804,
     0.0,
     0.0,
     0.0,
     0.0
    ],
    [
     0.0,
     0.0,
     0.0,
     0.0,
     0.0,
     0.0,
     0.439215686,
     0.960784314,
     0.992156863,
     0.992156863,
     0.996078431,
     0.992156863,
     0.992156863,
     0.992156863,
     0.992156863,
     1.0,
     0.682352941,
     0.376470588,
     0.054901961,
     0.0,
     0.823529412,
     0.992156863,
     0.992156863,
     0.329411765,
     0.0,
     0.0,
     0.0,
     0.0
    ],
    [
     0.0,
     0.0,
     0.0,
     0.0,
     0.0,
     0.0,
     0.745098039,
     0.988235294,
     0.988235294,
     0.988235294,
     0.992156863,
     0.6,
     0.619607843,
     0.988235294,
     0.988235294,
     0.992156863,
     0.988235294,
     0.988235294,
     0.82745098,
     0.745098039,
     0.992156863,
     0.988235294,
     0.925490196,
     0.082352941,
     0.0,
     0.0,
     0.0,
     0.0
    ],
    [
     0.0,
     0.0,
     0.0,
     0.0,
     0.0,
     0.0,
     0.745098039,
     0.988235294,
     0.988235294,
     0.921568627,
     0.42745098,
     0.019607843,
     0.28627451,
     0.929411765,
     0.988235294,
     0.992156863,
     0.988235294,
     0.988235294,
     0.988235294,
     0.988235294,
     0.992156863,
     0.988235294,
     0.698039216,
     0.0,
     0.0,
     0.0,
     0.0,
     0.0
    ],
    [
     0.0,
     0.0,
     0.0,
     0.0,
     0.0,
     0.0,
     0.556862745,
     0.741176471,
     0.635294118,
     0.054901961,
     0.0,
     0.0,
     0.0,
     0.188235294,
     0.949019608,
     0.992156863,
     0.988235294,
     0.988235294,
     0.988235294,
     0.988235294,
     0.992156863,
     0.662745098,
     0.164705882,
     0.0,
     0.0,
     0.0,
     0.0,
     0.0
    ],
    [
     0.0,
     0.0,
     0.0,
     0.0,
     0.0,
     0.0,
     0.0,
     0.0,
     0.0,
     0.0,
     0.0,
     0.0,
     0.0,
     0.0,
     0.309803922,
     0.819607843,
     0.988235294,
     0.988235294,
     0.988235294,
     0.988235294,
     0.505882353,
     0.043137255,
     0.0,
     0.0,
     0.0,
     0.0,
     0.0,
     0.0
    ],
    [
     0.0,
     0.0,
     0.0,
     0.0,
     0.0,
     0.0,
     0.0,
     0.0,
     0.0,
     0.0,
     0.0,
     0.0,
     0.0,
     0.0,
     0.0,
     0.0,
     0.0,
     0.0,
     0.0,
     0.0,
     0.0,
     0.0,
     0.0,
     0.0,
     0.0,
     0.0,
     0.0,
     0.0
    ],
    [
     0.0,
     0.0,
     0.0,
     0.0,
     0.0,
     0.0,
     0.0,
     0.0,
     0.0,
     0.0,
     0.0,
     0.0,
     0.0,
     0.0,
     0.0,
     0.0,
     0.0,
     0.0,
     0.0,
     0.0,
     0.0,
     0.0,
     0.0,
     0.0,
     0.0,
     0.0,
     0.0,
     0.0
    ],
    [
     0.0,
     0.0,
     0.0,
     0.0,
     0.0,
     0.0,
     0.0,
     0.0,
     0.0,
     0.0,
     0.0,
     0.0,
     0.0,
     0.0,
     0.0,
     0.0,
     0.0,
     0.0,
     0.0,
     0.0,
     0.0,
     0.0,
     0.0,
     0.0,
     0.0,
     0.0,
     0.0,
     0.0
    ],
    [
     0.0,
     0.0,
     0.0,
     0.0,
     0.0,
     0.0,
     0.0,
     0.0,
     0.0,
     0.0,
     0.0,
     0.0,
     0.0,
     0.0,
     0.0,
     0.0,
     0.0,
     0.0,
     0.0,
     0.0,
     0.0,
     0.0,
     0.0,
     0.0,
     0.0,
     0.0,
     0.0,
     0.0
    ],
    [
     0.0,
     0.0,
     0.0,
     0.0,
     0.0,
     0.0,
     0.0,
     0.0,
     0.0,
     0.0,
     0.0,
     0.0,
     0.0,
     0.0,
     0.0,
     0.0,
     0.0,
     0.0,
     0.0,
     0.0,
     0.0,
     0.0,
     0.0,
     0.0,
     0.0,
     0.0,
     0.0,
     0.0
    ]
   ],
   "output": 2,
   "conv_layer": {
    "w": [
     [
      [
       [
        0.076024056,
        0.103423225,
        -0.245832123,
        -0.263864163,
        -0.232078465
       ],
       [
        0.14806226,
        -0.031566591,
        0.037368488,
        -0.144288347,
        -0.10193406
       ],
       [
        0.053830295,
        -0.05353239,
        -0.299788909,
        -0.233020457,
        -0.195798068
       ],
       [
        0.21884166,
        0.198549398,
        0.158433658,
        -0.124450414,
        -0.09673917
       ],
       [
        0.348210019,
        0.391563358,
        0.144137204,
        0.31396816,
        0.0954954
       ]
      ]
     ],
     [
      [
       [
        0.105252655,
        0.228072811,
        -0.205026862,
        -0.163416043,
        -0.067347796
       ],
       [
        -0.060678498,
        0.153727677,
        -0.163846269,
        -0.123434019,
        -0.147256029
       ],
       [
        -0.217856156,
        -0.162792802,
        0.157353289,
        0.076361605,
        0.069295085
       ],
       [
        -0.073602273,
        -0.142627073,
        0.044565632,
        -0.193051953,
        -0.196059761
       ],
       [
        -0.185884368,
        0.092688741,
        0.083240325,
        -0.1524967,
        -0.090543203
       ]
      ]
     ],
     [
      [
       [
        0.204081906,
        0.395249716,
        0.352575173,
        0.297909939,
        0.341204703
       ],
       [
        -0.113160615,
        0.155648736,
        0.061097788,
        0.133883178,
        0.166316343
       ],
       [
        0.091755108,
        0.23218502,
        0.175262944,
        0.482999879,
        0.520215782
       ],
       [
        0.01191269,
        0.223154398,
        0.48023523,
        0.73912486,
        0.775561144
       ],
       [
        -0.090058862,
        0.155602889,
        0.597381766,
        0.859752607,
        0.80213221
       ]
      ]
     ],
     [
      [
       [
        0.372151247,
        0.320292334,
        0.073048335,
        0.148543056,
        -0.085800284
       ],
       [
        -0.015970495,
        0.463935016,
        0.405414865,
        -0.095964472,
        0.062015781
       ],
       [
        0.115549221,
        0.23315975,
        0.143097545,
        0.174963061,
        -0.087161389
       ],
       [
        0.219221593,
        0.363949305,
        0.382125798,
        0.182459057,
        -0.154581637
       ],
       [
        -0.031820337,
        0.306919906,
        0.239334988,
        -0.057198748,
        -0.061995417
       ]
      ]
     ],
     [
      [
       [
        0.130636188,
        0.178724496,
        -0.003393778,
        0.032540393,
        -0.091166677
       ],
       [
        -0.094119577,
        -0.145142778,
        -0.097058635,
        0.138140887,
        0.249005085
       ],
       [
        -0.133427596,
        0.139464104,
        -0.027461019,
        0.437365747,
        0.452572623
       ],
       [
        -0.169699276,
        -0.004871124,
        0.148097935,
        0.27698848,
        0.3177172
       ],
       [
        0.096464706,
        0.090617071,
        0.059593827,
        0.290462227,
        -0.022090795
       ]
      ]
     ]
    ],
    "b": [
     -0.103301361,
     -0.022825107,
     -0.483131884,
     -0.191037082,
     -0.300353802
    ]
   },
   "dense_layer": {
    "w": [
     [
      0.000239412,
      0.017861382,
      -0.043940145,
      -0.003830417,
      0.080477046,
      0.060849622,
      0.04533086,
      0.004117617,
      0.021419917,
      0.036743635,
      0.036510519,
      -0.000411612,
      0.009785672,
      0.00543437,
      0.022189432,
      0.01803836,
      0.051085974,
      0.014926391,
      -0.040683681,
      -0.08857076,
      -0.117832078,
      -0.150339774,
      0.045349868,
      0.124186829,
      0.043420675,
      -0.059528985,
      0.014784706,
      -0.076620111,
      -0.055794183,
      -0.165078861,
      -0.017079059,
      0.090353801,
      -0.044588709,
      -0.068041678,
      0.088383589,
      0.093871788,
      -0.010150331,
      -0.092736905,
      -0.082343525,
      0.063923661,
      0.051412676,
      -0.046131426,
      0.22778106,
      0.190323995,
      -0.016468903,
      -0.052132228,
      -0.027511136,
      -0.000108475,
      0.05677184,
      -0.078809186,
      0.050246536,
      0.048031299,
      0.012158919,
      -0.019722585,
      0.040548604,
      0.032257855,
      -7.268e-05,
      -0.002340374,
      -0.051568611,
      0.021868546,
      0.042968558,
      0.048508806,
      -0.029531431,
      0.010997012,
      -0.03425562,
      -0.026740526,
      -0.032759576,
      0.02082663,
      -0.021327811,
      0.012099614,
      0.008403569,
      0.037111994,
      -0.037808119,
      -0.036051304,
      -0.035619801,
      0.029817269,
      -0.061617111,
      -0.007831283,
      0.018546215,
      0.00779707,
      0.004512153,
      -0.007167039,
      -0.015097983,
      -0.057403005,
      -0.031698424,
      -0.04813343,
      -0.014939707,
      -0.015237568,
      0.050553986,
      -0.061568153,
      -0.045828631,
      0.072225765,
      0.093956878,
      -0.007720439,
      -0.03789029,
      0.057753518,
      -0.03889075,
      -0.067242708,
      -0.026823455,
      0.073051572,
      0.08414028,
      0.003038456,
      -0.039516197,
      0.069788885,
      0.031360953,
      -0.105557525,
      0.043245166,
      0.023694643,
      -0.010701285,
      -0.061390961,
      -0.00443844,
      0.059123545,
      -0.014951259,
      -0.039951492,
      0.010647651,
      -0.090004368,
      -0.014716775,
      -0.058626681,
      0.032680194,
      0.000563407,
      -0.024517217,
      0.008998094,
      0.046927688,
      -0.010804122,
      -0.01965699,
      0.001816271,
      -0.046269268,
      0.025866621,
      -0.01913025,
      -0.069477719,
      -0.055450935,
      0.099941305,
      0.124559193,
      0.100972142,
      0.018677785,
      -0.01219567,
      -0.03798959,
      -0.048285326,
      0.036097292,
      0.042100764,
      -0.009214686,
      0.087679228,
      0.054160557,
      0.009563867,
      -0.022772458,
      0.014108133,
      0.105257784,
      -0.098458824,
      -0.163011646,
      0.105980953,
      0.265226584,
      -0.004593825,
      0.061459153,
      0.221186461,
      -0.0461454,
      -0.274758096,
      -0.409395459,
      0.059659576,
      0.249339289,
      0.078397015,
      0.144110809,
      0.238005662,
      -0.111577689,
      -0.441896896,
      -0.34412436,
      0.023191674,
      0.207412773,
      0.055236128,
      0.173375633,
      0.235263342,
      0.037146962,
      -0.207209867,
      -0.16720068,
      0.033805871,
      0.088297818,
      0.038643767,
      0.070053995,
      0.22991695,
      0.19726788,
      -0.009195214,
      -0.099856983,
      -0.014639178,
      0.070693948,
      0.012327806,
      0.0397801,
      0.064834418,
      -0.003437125,
      0.001062544,
      0.020472399,
      0.022561196,
      0.014994187,
      0.013067464,
      -0.035463115,
      0.011251325,
      0.036049982,
      0.039679786,
      0.024058462,
      0.018396523,
      0.036527173,
      -0.025899618,
      -0.038316366,
      -0.052196548,
      0.010920468,
      -0.014729558,
      -0.073288764,
      0.001062931,
      0.092768515,
      0.068416539,
      0.055981791,
      0.027983873,
      -0.045396589,
      -0.005548688,
      0.032225154,
      -0.05683536,
      0.091090997,
      0.14289477,
      0.032111295,
      0.032938268,
      0.041875645,
      0.06601864,
      -0.065615186,
      -0.127213822,
      0.116819354,
      0.169703655,
      0.00615303,
      0.072006523,
      0.123498763,
      0.04054005,
      -0.202465983,
      -0.17067282,
      0.029598014,
      0.054779653,
      -0.054581368,
      0.08683214,
      0.181679443,
      0.030596163,
      -0.106163251,
      -0.156042749,
      -0.017662508,
      0.035124694,
      -0.034265524,
      0.042070625,
      0.03683744,
      -0.022885421,
      -0.116041724,
      -0.073353363,
      0.053728603,
      0.056744729,
      0.047820336,
      0.046147901,
      0.063878198,
      -0.012009726,
      0.008282004,
      0.045629077,
      0.018108141,
      0.056199565,
      0.047712334,
      0.04501123,
      -0.018820053,
      0.043090732,
      0.035393249,
      0.007514557,
      -0.01070978,
      -0.012094589,
      -0.035608112,
      0.011810293,
      0.03351884,
      0.030427595,
      0.000721626,
      0.034748251,
      0.023739304,
      0.022500485,
      -0.026463948,
      0.057713687,
      0.057038578,
      -0.045249661,
      0.010821231,
      0.04394092,
      0.000378678,
      0.036003157,
      0.00021568,
      0.057090285,
      0.052929872,
      -0.055055631,
      -0.116292953,
      -0.017672078,
      0.002135265,
      0.000397539,
      0.058255714,
      0.093462655,
      -0.053664285,
      -0.121356454,
      -0.06065241,
      0.048227899,
      0.032505755,
      -0.004306701,
      0.031119706,
      -0.020720706,
      -0.053926213,
      -0.024755641,
      -0.023592675,
      0.048827341,
      0.074411972,
      0.075458997,
      -0.019921281,
      0.013682333,
      0.063311339,
      -0.031163624,
      0.031181102,
      -0.032583761,
      0.015955368,
      -0.005943497,
      0.002662752,
      0.033221203,
      -0.047768499,
      0.059840369,
      -0.001688427,
      0.063286365,
      0.038078716,
      -0.034480751
     ],
     [
      0.026458119,
      0.004111863,
      0.011452431,
      -0.014571265,
      -0.025980936,
      0.072392511,
      -0.004763162,
      0.001347748,
      -0.066287059,
      -0.045800125,
      -0.10478967,
      -0.102281988,
      -0.001212524,
      -0.064131248,
      -0.060594229,
      -0.021623266,
      -0.011036104,
      -0.049502689,
      -0.05818189,
      -0.098722562,
      0.065440088,
      0.073337896,
      -0.055670565,
      -0.057645698,
      0.001376037,
      -0.063502975,
      -0.077232549,
      -0.143937558,
      0.02231436,
      0.023019712,
      -0.140354268,
      -0.081463708,
      -0.065797345,
      0.017526485,
      -0.032880893,
      -0.130912802,
      0.164220628,
      0.012019593,
      -0.101585816,
      -0.068673431,
      -0.031629869,
      -0.012808081,
      -0.029768709,
      -0.157911389,
      0.16695659,
      -0.035862982,
      -0.124448745,
      -0.07299538,
      0.031490439,
      0.038145825,
      -0.117970361,
      -0.010053062,
      0.117334159,
      0.017189296,
      -0.001584076,
      -0.060604142,
      -0.001340755,
      0.004991976,
      -0.022769011,
      0.038280763,
      -0.012467085,
      0.00570581,
      -0.046621584,
      -0.043370708,
      0.006308615,
      0.010447814,
      -0.041741886,
      -0.002749727,
      0.06288773,
      0.02163418,
      0.015678739,
      -0.024084979,
      0.011299929,
      -0.050794711,
      -0.045392985,
      -0.028617105,
      0.1095825,
      -0.016536758,
      -0.023952274,
      -0.039636413,
      0.048151579,
      0.053512525,
      -0.029840804,
      -0.051595908,
      -0.035706196,
      -0.045028837,
      -0.028043137,
      -0.051397618,
      -0.026730754,
      0.016848203,
      -0.005856937,
      -0.049585115,
      -0.026844631,
      -0.015960309,
      -0.009762429,
      0.025957728,
      -0.044990246,
      0.008507893,
      -0.005427279,
      -0.051494325,
      -0.008850016,
      -0.041124929,
      0.029733079,
      -0.051765208,
      0.003651633,
      -0.00188023,
      -0.018470471,
      -0.107500912,
      0.098637236,
      0.001588842,
      -0.076992942,
      -0.049519694,
      -0.025331351,
      0.025940239,
      -0.070969838,
      0.0258303,
      0.044393625,
      -0.023906234,
      0.015544666,
      0.011699903,
      0.039914341,
      0.02369357,
      -0.016803991,
      0.007630657,
      0.039747457,
      0.035567919,
      -0.040880625,
      -0.063756494,
      -0.006922319,
      -0.019865804,
      -0.125861545,
      -0.00830647,
      0.106883484,
      0.079705346,
      -0.021908097,
      -0.05459096,
      -0.047399457,
      -0.167424693,
      -0.270427582,
      0.043723955,
      0.145453461,
      -0.151636829,
      -0.12668103,
      0.016865237,
      -0.048130101,
      -0.226966663,
      -0.408250837,
      0.279325019,
      0.174497643,
      -0.17275483,
      -0.164269298,
      -0.076894076,
      -0.118324757,
      -0.224776064,
      -0.322451017,
      0.240755056,
      0.05480932,
      -0.262808657,
      -0.184616837,
      -0.0685461,
      -0.100610274,
      -0.293134529,
      -0.022767797,
      0.22672096,
      -0.087773824,
      -0.215210175,
      -0.153000828,
      -0.047224584,
      -0.049254,
      -0.139869936,
      0.01787648,
      0.206884989,
      -0.129900561,
      -0.337598689,
      -0.17592255,
      -0.096526955,
      -0.007809375,
      -0.073844426,
      -0.022031099,
      0.062067231,
      0.008018522,
      -0.159592079,
      -0.101613601,
      -0.044307262,
      -0.010932892,
      -0.06074381,
      -0.084652793,
      -0.090970811,
      -0.092380405,
      -0.066180449,
      -0.099011395,
      -0.024070469,
      0.005434208,
      -0.009412089,
      -0.055221159,
      0.052363057,
      0.032783445,
      0.101424697,
      -0.034572887,
      -0.026571487,
      0.017980173,
      -0.039541764,
      0.006247793,
      -0.087303106,
      0.080706349,
      0.049639091,
      -0.018524802,
      0.020670871,
      -0.038456615,
      0.004252175,
      -0.080002242,
      -0.141086321,
      0.252634539,
      -0.028017797,
      -0.084420141,
      0.004528235,
      -0.018936439,
      0.030107708,
      -0.093215797,
      -0.119961967,
      0.212548068,
      -0.023284757,
      -0.120429967,
      -0.037545592,
      0.010787358,
      0.023993049,
      -0.088170676,
      -0.044990897,
      0.277071243,
      -0.090568055,
      -0.084529498,
      -0.087221072,
      -0.016514626,
      -0.027538805,
