{
 "begin_epoch": 2,
 "begin_batch": 380,
 "end_epoch": 2,
 "end_batch": 399,
 "weights": [
  {
   "epoch": 2,
   "batch": 380,
   "loss": 1.5894299442903168,
   "accuracy": 91.93000874890639,
   "input": [
    [
     0.0,
     0.0,
     0.0,
     0.0,
     0.0,
     0.0,
     0.0,
     0.0,
     0.0,
     0.0,
     0.0,
     0.0,
     0.0,
     0.0,
     0.0,
     0.0,
     0.0,
     0.0,
     0.0,
     0.0,
     0.0,
     0.0,
     0.0,
     0.0,
     0.0,
     0.0,
     0.0,
     0.0
    ],
    [
     0.0,
     0.0,
     0.0,
     0.0,
     0.0,
     0.0,
     0.0,
     0.0,
     0.0,
     0.0,
     0.0,
     0.0,
     0.0,
     0.0,
     0.0,
     0.0,
     0.0,
     0.0,
     0.0,
     0.0,
     0.0,
     0.0,
     0.0,
     0.0,
     0.0,
     0.0,
     0.0,
     0.0
    ],
    [
     0.0,
     0.0,
     0.0,
     0.0,
     0.0,
     0.0,
     0.0,
     0.0,
     0.0,
     0.0,
     0.0,
     0.0,
     0.0,
     0.0,
     0.0,
     0.0,
     0.0,
     0.0,
     0.509803922,
     0.968627451,
     0.196078431,
     0.0,
     0.0,
     0.0,
     0.0,
     0.0,
     0.0,
     0.0
    ],
    [
     0.0,
     0.0,
     0.0,
     0.0,
     0.0,
     0.0,
     0.0,
     0.0,
     0.0,
     0.0,
     0.0,
     0.0,
     0.0,
     0.0,
     0.0,
     0.0,
     0.0,
     0.643137255,
     0.984313725,
     0.376470588,
     0.0,
     0.0,
     0.0,
     0.0,
     0.0,
     0.0,
     0.0,
     0.0
    ],
    [
     0.0,
     0.0,
     0.0,
     0.0,
     0.0,
     0.0,
     0.0,
     0.0,
     0.0,
     0.0,
     0.0,
     0.0,
     0.0,
     0.0,
     0.0,
     0.011764706,
     0.490196078,
     0.996078431,
     0.678431373,
     0.035294118,
     0.0,
     0.0,
     0.0,
     0.0,
     0.0,
     0.0,
     0.0,
     0.0
    ],
    [
     0.0,
     0.0,
     0.0,
     0.0,
     0.0,
     0.0,
     0.0,
     0.0,
     0.0,
     0.0,
     0.0,
     0.0,
     0.0,
     0.0,
     0.0,
     0.223529412,
     0.992156863,
     0.894117647,
     0.156862745,
     0.0,
     0.0,
     0.0,
     0.0,
     0.0,
     0.0,
     0.0,
     0.0,
     0.0
    ],
    [
     0.0,
     0.0,
     0.0,
     0.0,
     0.0,
     0.0,
     0.0,
     0.0,
     0.0,
     0.0,
     0.0,
     0.0,
     0.0,
     0.0,
     0.050980392,
     0.866666667,
     0.996078431,
     0.133333333,
     0.0,
     0.0,
     0.0,
     0.0,
     0.0,
     0.0,
     0.0,
     0.0,
     0.0,
     0.0
    ],
    [
     0.0,
     0.0,
     0.0,
     0.0,
     0.0,
     0.0,
     0.0,
     0.0,
     0.0,
     0.0,
     0.0,
     0.0,
     0.0,
     0.0,
     0.709803922,
     0.992156863,
     0.725490196,
     0.0,
     0.0,
     0.0,
     0.0,
     0.0,
     0.0,
     0.0,
     0.0,
     0.0,
     0.0,
     0.0
    ],
    [
     0.0,
     0.0,
     0.0,
     0.0,
     0.0,
     0.0,
     0.0,
     0.0,
     0.0,
     0.0,
     0.0,
     0.0,
     0.0,
     0.423529412,
     0.976470588,
     0.917647059,
     0.149019608,
     0.0,
     0.0,
     0.0,
     0.0,
     0.0,
     0.0,
     0.0,
     0.0,
     0.0,
     0.0,
     0.0
    ],
    [
     0.0,
     0.0,
     0.0,
     0.0,
     0.0,
     0.0,
     0.0,
     0.0,
     0.0,
     0.0,
     0.0,
     0.0,
     0.133333333,
     0.996078431,
     0.992156863,
     0.278431373,
     0.0,
     0.0,
     0.0,
     0.0,
     0.0,
     0.0,
     0.0,
     0.0,
     0.0,
     0.0,
     0.0,
     0.0
    ],
    [
     0.0,
     0.0,
     0.0,
     0.0,
     0.0,
     0.0,
     0.0,
     0.0,
     0.0,
     0.0,
     0.0,
     0.058823529,
     0.898039216,
     1.0,
     0.48627451,
     0.0,
     0.0,
     0.0,
     0.0,
     0.0,
     0.0,
     0.0,
     0.0,
     0.0,
     0.0,
     0.0,
     0.0,
     0.0
    ],
    [
     0.0,
     0.0,
     0.0,
     0.0,
     0.0,
     0.0,
     0.0,
     0.0,
     0.0,
     0.0,
     0.0,
     0.490196078,
     0.992156863,
     0.780392157,
     0.043137255,
     0.0,
     0.0,
     0.0,
     0.0,
     0.0,
     0.0,
     0.0,
     0.0,
     0.0,
     0.0,
     0.0,
     0.0,
     0.0
    ],
    [
     0.0,
     0.0,
     0.0,
     0.0,
     0.0,
     0.0,
     0.0,
     0.0,
     0.0,
     0.0,
     0.149019608,
     0.960784314,
     0.992156863,
     0.066666667,
     0.0,
     0.0,
     0.0,
     0.094117647,
     0.094117647,
     0.050980392,
     0.0,
     0.0,
     0.0,
     0.0,
     0.0,
     0.0,
     0.0,
     0.0
    ],
    [
     0.0,
     0.0,
     0.0,
     0.0,
     0.0,
     0.0,
     0.0,
     0.0,
     0.0,
     0.0,
     0.447058824,
     0.992156863,
     0.725490196,
     0.0,
     0.0,
     0.168627451,
     0.623529412,
     0.996078431,
     0.992156863,
     0.701960784,
     0.098039216,
     0.0,
     0.0,
     0.0,
     0.0,
     0.0,
     0.0,
     0.0
    ],
    [
     0.0,
     0.0,
     0.0,
     0.0,
     0.0,
     0.0,
     0.0,
     0.0,
     0.0,
     0.176470588,
     0.960784314,
     0.937254902,
     0.098039216,
     0.0,
     0.317647059,
     0.929411765,
     0.996078431,
     1.0,
     0.996078431,
     0.996078431,
     0.501960784,
     0.0,
     0.0,
     0.0,
     0.0,
     0.0,
     0.0,
     0.0
    ],
    [
     0.0,
     0.0,
     0.0,
     0.0,
     0.0,
     0.0,
     0.0,
     0.0,
     0.0,
     0.341176471,
     0.992156863,
     0.835294118,
     0.0,
     0.509803922,
     0.984313725,
     0.97254902,
     0.678431373,
     0.219607843,
     0.580392157,
     0.992156863,
     0.62745098,
     0.0,
     0.0,
     0.0,
     0.0,
     0.0,
     0.0,
     0.0
    ],
    [
     0.0,
     0.0,
     0.0,
     0.0,
     0.0,
     0.0,
     0.0,
     0.0,
     0.0,
     0.631372549,
     0.992156863,
     0.545098039,
     0.490196078,
     0.996078431,
     0.97254902,
     0.423529412,
     0.0,
     0.0,
     0.576470588,
     0.992156863,
     0.333333333,
     0.0,
     0.0,
     0.0,
     0.0,
     0.0,
     0.0,
     0.0
    ],
    [
     0.0,
     0.0,
     0.0,
     0.0,
     0.0,
     0.0,
     0.0,
     0.0,
     0.0,
     0.631372549,
     0.992156863,
     0.62745098,
     0.992156863,
     0.996078431,
     0.28627451,
     0.0,
     0.0,
     0.333333333,
     0.968627451,
     0.956862745,
     0.17254902,
     0.0,
     0.0,
     0.0,
     0.0,
     0.0,
     0.0,
     0.0
    ],
    [
     0.0,
     0.0,
     0.0,
     0.0,
     0.0,
     0.0,
     0.0,
     0.0,
     0.0,
     0.635294118,
     0.996078431,
     0.996078431,
     0.996078431,
     0.62745098,
     0.0,
     0.0,
     0.2,
     0.866666667,
     0.996078431,
     0.443137255,
     0.0,
     0.0,
     0.0,
     0.0,
     0.0,
     0.0,
     0.0,
     0.0
    ],
    [
     0.0,
     0.0,
     0.0,
     0.0,
     0.0,
     0.0,
     0.0,
     0.0,
     0.0,
     0.439215686,
     0.992156863,
     0.992156863,
     0.992156863,
     0.082352941,
     0.250980392,
     0.705882353,
     0.968627451,
     0.996078431,
     0.560784314,
     0.015686275,
     0.0,
     0.0,
     0.0,
     0.0,
     0.0,
     0.0,
     0.0,
     0.0
    ],
    [
     0.0,
     0.0,
     0.0,
     0.0,
     0.0,
     0.0,
     0.0,
     0.0,
     0.0,
     0.149019608,
     0.752941176,
     0.992156863,
     0.992156863,
     0.866666667,
     0.992156863,
     0.992156863,
     0.925490196,
     0.31372549,
     0.015686275,
     0.0,
     0.0,
     0.0,
     0.0,
     0.0,
     0.0,
     0.0,
     0.0,
     0.0
    ],
    [
     0.0,
     0.0,
     0.0,
     0.0,
     0.0,
     0.0,
     0.0,
     0.0,
     0.0,
     0.0,
     0.050980392,
     0.596078431,
     0.992156863,
     0.996078431,
     0.792156863,
     0.596078431,
     0.074509804,
     0.0,
     0.0,
     0.0,
     0.0,
     0.0,
     0.0,
     0.0,
     0.0,
     0.0,
     0.0,
     0.0
    ],
    [
     0.0,
     0.0,
     0.0,
     0.0,
     0.0,
     0.0,
     0.0,
     0.0,
     0.0,
     0.0,
     0.0,
     0.0,
     0.0,
     0.0,
     0.0,
     0.0,
     0.0,
     0.0,
     0.0,
     0.0,
     0.0,
     0.0,
     0.0,
     0.0,
     0.0,
     0.0,
     0.0,
     0.0
    ],
    [
     0.0,
     0.0,
     0.0,
     0.0,
     0.0,
     0.0,
     0.0,
     0.0,
     0.0,
     0.0,
     0.0,
     0.0,
     0.0,
     0.0,
     0.0,
     0.0,
     0.0,
     0.0,
     0.0,
     0.0,
     0.0,
     0.0,
     0.0,
     0.0,
     0.0,
     0.0,
     0.0,
     0.0
    ],
    [
     0.0,
     0.0,
     0.0,
     0.0,
     0.0,
     0.0,
     0.0,
     0.0,
     0.0,
     0.0,
     0.0,
     0.0,
     0.0,
     0.0,
     0.0,
     0.0,
     0.0,
     0.0,
     0.0,
     0.0,
     0.0,
     0.0,
     0.0,
     0.0,
     0.0,
     0.0,
     0.0,
     0.0
    ],
    [
     0.0,
     0.0,
     0.0,
     0.0,
     0.0,
     0.0,
     0.0,
     0.0,
     0.0,
     0.0,
     0.0,
     0.0,
     0.0,
     0.0,
     0.0,
     0.0,
     0.0,
     0.0,
     0.0,
     0.0,
     0.0,
     0.0,
     0.0,
     0.0,
     0.0,
     0.0,
     0.0,
     0.0
    ],
    [
     0.0,
     0.0,
     0.0,
     0.0,
     0.0,
     0.0,
     0.0,
     0.0,
     0.0,
     0.0,
     0.0,
     0.0,
     0.0,
     0.0,
     0.0,
     0.0,
     0.0,
     0.0,
     0.0,
     0.0,
     0.0,
     0.0,
     0.0,
     0.0,
     0.0,
     0.0,
     0.0,
     0.0
    ],
    [
     0.0,
     0.0,
     0.0,
     0.0,
     0.0,
     0.0,
     0.0,
     0.0,
     0.0,
     0.0,
     0.0,
     0.0,
     0.0,
     0.0,
     0.0,
     0.0,
     0.0,
     0.0,
     0.0,
     0.0,
     0.0,
     0.0,
     0.0,
     0.0,
     0.0,
     0.0,
     0.0,
     0.0
    ]
   ],
   "output": 6,
   "conv_layer": {
    "w": [
     [
      [
       [
        -0.718520569,
        -0.134742937,
        0.584412089,
        0.88157543,
        2.110328032
       ],
       [
        -0.002822277,
        -0.758079098,
        -1.415423554,
        -1.532980463,
        -0.391670596
       ],
       [
        0.259333546,
        -1.202368053,
        -2.744120185,
        -2.521703255,
        -1.863163207
       ],
       [
        1.448560447,
        1.561528268,
        0.841247783,
        0.046441179,
        -0.974180828
       ],
       [
        -0.243164009,
        0.918049805,
        1.257128698,
        1.427123856,
        0.419348856
       ]
      ]
     ],
     [
      [
       [
        1.556875811,
        2.234817296,
        1.129554509,
        0.521669113,
        -0.213427844
       ],
       [
        -1.008820484,
        -1.049561625,
        -1.768257012,
        -1.399045675,
        -1.344319762
       ],
       [
        -1.895369077,
        -2.354880775,
        -1.530702907,
        -0.420281047,
        -0.584957545
       ],
       [
        -1.585080666,
        -0.868410048,
        0.061727824,
        0.397659295,
        -0.569094092
       ],
       [
        -1.057715173,
        1.363820848,
        1.040728029,
        0.129107834,
        -0.42847275
       ]
      ]
     ],
     [
      [
       [
        0.556653952,
        -0.426061274,
        -1.045393136,
        -0.272550057,
        0.196744973
       ],
       [
        0.475288993,
        -0.364258456,
        0.104307163,
        0.746108725,
        1.125578313
       ],
       [
        -0.287710429,
        0.101734305,
        1.558461262,
        0.887812215,
        -0.612047924
       ],
       [
        -0.295878671,
        -0.367398926,
        1.33105409,
        0.803698846,
        -0.258728201
       ],
       [
        0.593883362,
        -0.913204756,
        -0.874550916,
        -0.229171645,
        1.396068677
       ]
      ]
     ],
     [
      [
       [
        0.493891627,
        -0.064468204,
        -0.514000897,
        0.14998326,
        0.132582093
       ],
       [
        -0.209416319,
        0.212871098,
        1.438785449,
        -0.172488416,
        -1.245017494
       ],
       [
        -1.306400501,
        0.003034317,
        1.516468535,
        -0.477841794,
        -2.416655805
       ],
       [
        -1.228932116,
        0.502643156,
        1.1113399,
        -0.826502796,
        -1.769935117
       ],
       [
        -0.16879573,
        0.455714818,
        1.112152565,
        -0.300363048,
        0.254285775
       ]
      ]
     ],
     [
      [
       [
        1.932593195,
        1.613785876,
        0.052524756,
        -0.870018213,
        -0.396184565
       ],
       [
        0.742846739,
        -1.306051052,
        -2.230120853,
        -1.510180221,
        0.213402687
       ],
       [
        -0.715372494,
        -1.305994741,
        -1.587206603,
        0.722542679,
        1.195130504
       ],
       [
        -1.456607705,
        -0.366172006,
        0.944113929,
        1.765971067,
        -0.065890571
       ],
       [
        0.235285981,
        0.401548623,
        0.83519175,
        0.102002086,
        -1.412213101
       ]
      ]
     ]
    ],
    "b": [
     -1.620780928,
     0.536938907,
     -1.223639936,
     0.143493009,
     -2.334830845
    ]
   },
   "dense_layer": {
    "w": [
     [
      -0.028185002,
      -0.186836128,
      -0.396282858,
      -0.627345608,
      -0.147096885,
      -0.000733439,
      -0.126536667,
      0.184411264,
      0.04562375,
      0.054927976,
      -0.525723656,
      -0.340103782,
      0.452014166,
      0.93822002,
      0.47366714,
      0.130160021,
      0.218081828,
      0.020632328,
      -0.699088677,
      -0.842714885,
      -1.012247194,
      -0.751345385,
      -0.023794186,
      0.762731818,
      0.144114787,
      -0.50946555,
      -1.108913803,
      -0.611269889,
      -1.356406217,
      -1.930750188,
      -0.758339976,
      0.631542304,
      -0.218798923,
      -1.413742085,
      -1.105403016,
      0.369181999,
      -0.265871881,
      -0.670245344,
      -1.001908404,
      -0.105725778,
      -0.277336673,
      -0.789661883,
      0.520619983,
      1.793945358,
      -0.586800417,
      -0.807066103,
      -0.858223894,
      -0.485435751,
      -0.147619728,
      -0.776663031,
      0.147365748,
      0.631427759,
      -0.092226269,
      -0.162008841,
      -0.484568952,
      -0.273330337,
      0.027455458,
      -0.145078559,
      0.10670264,
      0.160857501,
      0.047582077,
      0.043219517,
      -0.25401687,
      -0.126383727,
      0.056286391,
      0.056015526,
      0.044358501,
      0.201488839,
      0.478039178,
      0.417576202,
      0.141063149,
      0.080155638,
      0.045847527,
      0.001591275,
      -0.376785385,
      -0.324222806,
      -0.567512152,
      -0.55489374,
      -0.313202121,
      -0.101989524,
      0.105988841,
      -0.137995387,
      -0.124851644,
      -0.063356366,
      -0.715529939,
      -0.551160101,
      0.062712458,
      -0.083688987,
      0.178148518,
      -0.489395767,
      -0.381187166,
      -0.20016612,
      0.915564626,
      0.02215153,
      -0.24087967,
      -0.187315135,
      0.013494315,
      -0.864376834,
      -0.613662602,
      0.311367546,
      0.732781761,
      -0.603581395,
      -0.638109512,
      -0.131857963,
      0.039097716,
      -1.177762153,
      -0.215408974,
      -0.05610669,
      -0.456109397,
      -0.12601822,
      -0.308526806,
      0.262805327,
      0.086068859,
      -0.729113643,
      -0.289600046,
      -0.312835978,
      -0.249895032,
      0.224550816,
      0.532437639,
      0.306867282,
      0.067403528,
      0.086710304,
      0.399306533,
      0.60138213,
      0.817819012,
      0.691671112,
      0.223973739,
      0.142043884,
      0.126984263,
      -0.55832341,
      -0.906311938,
      -0.264997892,
      0.094110935,
      -1.016631207,
      -0.598325534,
      0.145785355,
      -0.235770493,
      -1.392981686,
      -1.008861135,
      1.469571583,
      2.497886087,
      1.358609981,
      -0.455380234,
      0.109667303,
      0.233374267,
      -0.80347891,
      1.824025172,
      1.099412997,
      0.434979068,
      0.770234001,
      1.408983567,
      0.678756932,
      1.189734085,
      1.368010633,
      1.591564361,
      -2.617742521,
      -4.407982419,
      0.005901765,
      1.2034546,
      1.194172461,
      1.204904344,
      1.586001699,
      0.141746722,
      -5.449609265,
      -3.395375044,
      0.924934546,
      0.76546462,
      1.052531157,
      -0.030729647,
      0.724684588,
      1.18110401,
      -1.837947437,
      -0.538196598,
      0.759077907,
      -0.200071954,
      0.610660782,
      -0.722039888,
      -0.267214647,
      1.788718878,
      1.036648908,
      0.421992172,
      -0.411928316,
      -0.474878278,
      0.242636746,
      -0.101460812,
      -0.369802823,
      0.324639306,
      1.014561483,
      0.084136993,
      -0.780847742,
      -0.536100034,
      0.107630576,
      0.159377644,
      0.071968459,
      -0.012192734,
      -0.289712273,
      -0.273548499,
      -0.271901625,
      -0.515302107,
      0.035151268,
      0.145400621,
      -0.275653117,
      -0.834541992,
      -0.533744073,
      0.330101867,
      0.461308251,
      -0.428690109,
      0.314450964,
      0.197266037,
      -0.32577414,
      -0.58547315,
      1.394481766,
      0.958728617,
      1.226788118,
      0.941218956,
      1.158684619,
      0.110196698,
      0.045648688,
      1.396013742,
      2.449509205,
      -0.275461116,
      -0.606140569,
      0.720382531,
      1.892702817,
      -0.104508082,
      0.285937722,
      2.249597149,
      2.28454712,
      -3.254693266,
      -1.386392843,
      -0.02190084,
      1.487434947,
      -0.404360316,
      -0.22764727,
      1.925167555,
      0.875445619,
      -1.75384484,
      -0.401166447,
      -0.154052722,
      0.421298007,
      -0.248002707,
      -0.560875163,
      0.319882458,
      0.575762223,
      -0.308271503,
      -0.246381728,
      -0.586004331,
      -0.132713744,
      0.119628298,
      -0.290807887,
      -0.413613297,
      0.247513971,
      -0.007832808,
      -0.584658612,
      -0.761749228,
      -0.065601693,
      0.267078862,
      0.07887676,
      -0.227685209,
      -0.12979525,
      -0.398266063,
      -0.549497106,
      0.145731834,
      0.290080922,
      -0.019445982,
      -0.361924052,
      -0.420234709,
      -0.04378531,
      0.342418402,
      -0.346288973,
      -0.768063673,
      0.05575347,
      0.090449516,
      -0.059952961,
      0.374227354,
      0.285685922,
      0.504711779,
      -0.684555671,
      -0.597057932,
      0.043673509,
      0.706127119,
      0.625995621,
      0.708654916,
      -0.288106937,
      -1.583692494,
      -0.61126785,
      -0.014847216,
      0.061122883,
      0.922312632,
      0.437446049,
      0.006833233,
      -2.135229484,
      -0.436448526,
      0.29722402,
      0.493336623,
      0.148359522,
      0.378807554,
      -0.658374943,
      -0.183015151,
      -0.208505872,
      0.806183639,
      0.529593646,
      0.486421588,
      0.443178838,
      0.021754054,
      -0.888940366,
      0.710671782,
      0.132965436,
      0.154698437,
      0.176689592,
      0.450923448,
      0.504366631,
      0.07052668,
      -0.683989243,
      -0.413547205,
      0.287168139,
      -0.06952512,
      0.233547579,
      0.324078024,
      0.217402322
     ],
     [
      -0.163832011,
      -0.326041499,
      -0.874523662,
      -1.557971285,
      -1.371042153,
      -0.415944659,
      0.093345224,
      0.116156298,
      -0.269608536,
      -0.145338426,
      -0.662150864,
      -1.840196882,
      -1.834867648,
      -1.826953249,
      -1.043148984,
      -0.648311009,
      -0.183525377,
      0.108198605,
      0.189184034,
      -0.086823184,
      -0.325804211,
      -1.476129764,
      -1.638812037,
      -0.708948516,
      -0.193365355,
      -0.049821446,
      -0.301051862,
      -2.560944431,
      -1.461863273,
      -1.723470889,
      -1.372926337,
      -0.663047526,
      -0.403680132,
      -0.241499782,
      -0.652516255,
      -2.853952567,
      -0.751220755,
      -1.499542318,
      -0.98485604,
      -0.488421449,
      0.05286438,
      0.266269243,
      -0.052565728,
      -1.984883153,
      1.307681401,
      0.204977255,
      0.631024821,
      -0.090400554,
      0.073731083,
      0.401782434,
      -0.71804452,
      -0.882732849,
      0.548265895,
      0.109812698,
      0.239000006,
      -0.272723971,
      -0.345907026,
      -0.79266063,
      -0.245707972,
      0.304822152,
      -0.369503527,
      -0.375723317,
      -0.223310932,
      -0.259370708,
      -0.139875194,
      -0.131175806,
      -0.152868326,
      0.070214972,
      0.466915799,
      0.384127517,
      -0.017374471,
      -0.219269458,
      -0.135515823,
      -0.215817218,
      -0.231703918,
      -0.280406856,
      0.702489829,
      -0.167160151,
      -0.373714683,
      -0.228543309,
      -0.101246817,
      -0.043364693,
      -0.142878898,
      -0.548714727,
      -0.136557717,
      -1.061123148,
      0.022679238,
      -0.406618248,
      -0.162236582,
      0.011474895,
      0.357466697,
      -0.10210489,
      -0.360316124,
      -0.087084143,
      -0.393374048,
      -0.404656833,
      -0.184219888,
      0.031627242,
      0.633263978,
      -0.618292174,
      0.60692918,
      0.172944394,
      -0.342191688,
      -0.282081935,
      -0.121038662,
      0.163128995,
      0.155732003,
      -0.220116425,
      0.882519765,
      -0.54024232,
      -0.610361377,
      -0.321093618,
      -0.163105746,
      -0.241924298,
      -0.622478245,
      -0.123966469,
      -0.218337505,
      -0.886661774,
      -0.254234164,
      -0.132010974,
      -0.114210311,
      -0.178742545,
      -0.059560518,
      0.620834007,
      0.209201899,
      -0.158975174,
      -0.141039771,
      -0.198155567,
      0.334231595,
      -0.073835648,
      0.865863231,
      1.271907898,
      -0.754346407,
      0.587014346,
      2.019071956,
      0.412580715,
      0.101134342,
      -0.803044407,
      -1.024515735,
      -1.819165181,
      -1.154613033,
      -2.055603732,
      0.513038016,
      0.038319755,
      -0.069215848,
      -1.033311292,
      -1.789930563,
      2.187807326,
      0.455591495,
      -2.591907759,
      -0.134410025,
      -0.143390252,
      -0.326751281,
      -1.882335634,
      -2.82108897,
      2.631249009,
      0.594959917,
      -1.278008828,
      -0.773300613,
      -0.223711867,
      -0.904956119,
      -1.793671528,
      -1.681408358,
      1.634684764,
      -1.189899999,
      -1.276307883,
      -0.994298107,
      0.044620268,
      0.029733518,
      1.390643817,
      -0.48790404,
      0.038908393,
      -1.802719713,
      0.804233147,
      -0.150305233,
      0.091454044,
      1.670507707,
      2.938902796,
      -1.595336946,
      -3.757458528,
      0.557058074,
      2.29336074,
      0.444616546,
      0.269110637,
      0.83644245,
      1.22810797,
      -1.495484045,
      -2.841573492,
      -0.872304362,
      0.690635182,
      0.321172574,
      0.28528369,
      0.204457345,
      0.218834885,
      0.313475737,
      1.059328776,
      0.877898572,
      0.153129111,
      0.686362471,
      0.475583932,
      0.228112826,
      0.289105214,
      0.388249166,
      0.308802411,
      -0.157170159,
      -0.417926718,
      0.199826324,
      0.358222733,
      0.186732056,
      0.33187902,
      0.060861611,
      -1.991530776,
      1.107903911,
      -1.162210072,
      -0.310101613,
      -0.036995695,
      0.216902424,
      0.276410764,
      -0.182242283,
      -2.405064389,
      2.549676194,
      0.020252496,
      -0.467911889,
      -0.390718053,
      0.216271739,
      -0.074524108,
      -0.500763961,
      -1.155465244,
      1.908987913,
      -0.56292073,
      -1.03912043,
      -0.265210405,
      0.211725551,
      0.150192879,
      0.025607335,
      -0.40065459,
      0.746560003,
      -0.817123251,
      -0.260691035,
      0.006555726,
      0.31738429,
      1.223076742,
      0.697711006,
      -0.355090727,
      -0.463172693,
      0.595668205,
      0.786717884,
      0.1738457,
      0.277202045,
      1.366933146,
      1.058246686,
      -1.091372226,
      -1.335081698,
      0.926891287,
      0.557246878,
      0.170371881,
      -0.058619465,
      -0.13670362,
      0.103956857,
      0.557558171,
      -0.547307881,
      0.532312492,
      0.922749353,
      -0.059433788,
      -0.082858775,
      -0.579721776,
      -0.680454047,
      -1.90940252,
      -0.671943327,
      0.83667604,
      0.825951062,
      -0.431347579,
      -0.227335473,
      -0.418229675,
      -0.842284797,
      -0.711584067,
      -0.337445634,
      -0.27763988,
      -0.207059148,
      -0.606785753,
      -0.205040977,
      -0.327683329,
      -1.489260966,
      0.655138038,
      -0.471524227,
      -0.459053,
      -0.692531518,
      -0.569679808,
      -0.388675679,
      -0.871604643,
      -1.080244669,
      0.504628229,
      -1.307969306,
      -0.438430771,
      -0.648053713,
      -0.203693096,
      -0.382325774,
      0.776322258,
      0.03989689,
      -0.471910643,
      -1.485991104,
      0.674046864,
      -0.14442953,
      -0.144970472,
      0.731231421,
      2.060764025,
      -0.007157679,
      -2.791498601,
      -0.153518369,
      0.325528022,
      -0.372658033,
      -0.187643841,
      0.428362543,
      0.964694414,
      -0.788626745,
      -1.785587105,
      0.254905496,
      0.053753698,
      -0.285480882,
      -0.132899862
     ],
     [
      -0.033621256,
      0.234281004,
      0.490792331,
      0.649221727,
      1.405598357,
      1.065564694,
      0.360556266,
      -0.628330224,
      0.043865135,
      0.12857427,
      -0.082954116,
      0.432492301,
      0.394228047,
      0.093349836,
      -0.187752812,
      -0.687678286,
      -0.186638791,
      0.380533019,
      0.381797255,
      0.89457015,
      0.788291069,
      0.632421534,
      0.22800966,
      -0.389906813,
      0.541843653,
      2.185784927,
      1.473999044,
      1.413832999,
      -0.465639703,
      -1.948724842,
      -0.932492248,
      0.047412953,
      0.562031993,
      0.983933446,
      -0.191095072,
      -0.230752319,
      0.582535479,
      0.150647316,
      0.431644236,
      1.31653211,
      -0.793320095,
      -0.471049219,
      -0.291666993,
      0.861831792,
      1.357909519,
      1.941056776,
      2.149628299,
      1.387673491,
      -0.555655553,
      -0.901884478,
      -0.893023809,
      -0.344328173,
      -0.167692299,
      1.166960898,
      1.961111073,
      0.617996788,
      -0.040148274,
      0.343509539,
      0.383605264,
      0.28789324,
      0.300876114,
      0.320499395,
      0.151193712,
      -0.153630881,
      0.033468267,
      0.063444945,
      -0.106136389,
      -0.336254591,
      -0.567038451,
      -0.455816373,
      -0.098389205,
      0.064917977,
      0.06373324,
      0.30636899,
      0.539112909,
      -0.085739259,
      -0.520879035,
      -0.18665297,
      -0.006813506,
      -0.090738201,
      0.063038371,
      1.011823329,
      0.279198122,
      -0.141394784,
      0.542421819,
      0.166305545,
      -0.430659073,
      -0.27570376,
      0.205393571,
      2.002349769,
      2.139011791,
      1.53794762,
      1.148330278,
      0.472373744,
      -0.218762877,
      -0.15100917,
      -0.03611567,
      0.439925872,
      0.243820799,
      -0.628904897,
      -0.336809523,
      -0.506865723,
      0.14069082,
      0.295459313,
      -0.278445532,
      -0.881778875,
      -1.292973372,
      -1.677960519,
      -1.144795526,
      -0.494352449,
      0.647091785,
      0.740067323,
      -0.092451445,
      -0.006581562,
      -0.407066518,
      -0.275404926,
      0.617109697,
      0.87656941,
      1.196138562,
      0.716651588,
      0.1059684,
      0.384395138,
      0.68931308,
      1.038529178,
      0.126617104,
      0.059940716,
      0.406033693,
      0.11975916,
      -0.466664258,
      1.086509159,
      0.307161753,
      -0.489147575,
      -0.621154144,
      -0.168828295,
      -0.899223355,
      -1.077442753,
      0.347586133,
      1.484585938,
      1.23852105,
      1.14395292,
      0.87276206,
      0.376998701,
      0.154664902,
      -1.091194571,
      -1.381925795,
      -1.849677272,
      -2.168804004,
      -1.681156987,
      -1.598167666,
      -0.737527806,
      -0.805316318,
      -1.055321664,
      -2.334517404,
      -2.524474355,
      -1.031843428,
      -0.522119915,
      -1.373643403,
      -0.992080297,
      -0.717807369,
      -0.127604306,
      0.255156903,
      0.095795338,
      1.43177314,
      2.915042733,
      1.404070509,
      -0.501192136,
      0.155474414,
      1.656364184,
      2.695559215,
      2.159441786,
      2.059997895,
      1.299403377,
      1.017732112,
      -0.058823753,
      0.85978495,
      1.81934916,
      1.145445054,
      1.598027906,
      0.472092126,
      -1.005048136,
      -0.547430291,
      0.987711116,
      0.694192692,
      1.13673722,
      -0.637807092,
      -0.865286996,
      -0.952700525,
      -1.154760511,
      -1.251857792,
      -0.899609058,
      -0.592490677,
      -0.076075708,
      -0.326756606,
      -0.36238079,
      -0.506794729,
      -0.874676775,
      -0.340276861,
      0.247251775,
      0.001163598,
      -0.614770965,
      -0.254771968,
      -0.096733666,
      0.113203303,
      0.355067681,
      0.465562672,
      0.778107932,
      0.819108721,
      -0.443125875,
      -0.268785172,
      -0.711357393,
      -0.414805645,
      -0.394543505,
      0.34099532,
      1.143624839,
      0.807379083,
      -0.37023584,
      -0.473405243,
      -1.835488846,
      -2.182975016,
      -1.040603326,
      -0.352301378,
      0.986903413,
      0.497080315,
      -0.532681345,
      -0.228128194,
      -0.990433276,
      -1.771301882,
      0.481884191,
      1.126482573,
      -0.040493995,
      -1.115479131,
      -0.190680283,
      -0.063518093,
      0.265657111,
      -0.533987835,
      0.88856665,
      0.394653135,
      -0.478461486,
      -0.953824927,
      0.852556766,
      -0.118099432,
      0.648812119,
      0.456966062,
      -0.100743307,
      -1.143676702,
      0.084329346,
      -0.027514912,
      0.824760103,
      -0.353873197,
      -0.127459935,
      -0.080406162,
      -0.508685552,
      -1.054840741,
      -0.315441698,
      -0.302136305,
      -0.035419792,
      -0.341297572,
      0.581543716,
      0.50416793,
      0.040736659,
      -0.388901335,
      -0.8773345,
      -1.057789912,
      -0.705807217,
      0.198493013,
      0.164245808,
      0.1131224,
      0.0028907,
      -0.623007686,
      -1.213244893,
      -1.224150472,
      -0.898112319,
      -0.374793324,
      -0.775199344,
      -0.492994795,
      -0.098086238,
      -0.546038133,
      -1.054791718,
      -0.634199095,
      -0.652456709,
      -1.41946052,
      -0.960918864,
      0.067367011,
      0.266498644,
      -0.417233067,
      -0.980537386,
      -0.28789515,
      0.24312066,
      0.171690453,
      1.10220717,
      2.177343545,
      1.861202967,
      0.462728799,
      0.129808029,
      0.636999062,
      1.327427806,
      1.154717159,
      0.854142335,
      2.029235536,
      1.617729422,
      1.392051619,
      0.130300093,
      0.426931902,
      1.046112501,
      0.439624902,
      0.466833591,
      0.045832754,
      -0.174000677,
      -0.124503568,
      -0.913136753,
      0.182575652,
      0.444448476,
      -0.767022801,
      -0.910490717,
      -0.927368757,
      -0.729731567,
      -0.875844877,
      -0.913204447,
      -0.055068135,
      -0.008241799
     ],
     [
      0.327242594,
      0.626507244,
      1.013421513,
      1.883892591,
      1.369218269,
      0.700550376,
      0.23109176,
      -0.558457846,
      0.512306205,
      0.951007896,
      1.427649814,
      1.943606057,
      1.232169172,
      0.323709094,
      0.218283978,
      -0.306465648,
      -0.043616223,
      0.538357052,
      0.656913338,
      -0.452754218,
      0.774410288,
      -0.547827151,
      -0.37043635,
      -0.31347407,
      0.086961754,
      0.485359853,
      0.062158792,
      -0.266946633,
      1.755361577,
      0.560504611,
      0.060287662,
      -0.715563156,
      0.44652445,
      1.488355089,
      1.039010631,
      0.999631088,
      1.377275776,
      0.853378921,
      1.087552738,
      0.027307926,
      0.332906285,
      2.043540612,
      2.236055462,
      1.860441266,
      1.31203782,
      -0.22519599,
      -1.058816584,
      -0.362140642,
      0.100130785,
      0.594714623,
      0.774446835,
      0.70341815,
      -0.319013343,
      -1.284069101,
      -1.200048235,
      -0.60184085,
      0.109939565,
      0.284002785,
      0.57059375,
      -0.19433192,
      -0.00490054,
      -0.051046123,
      0.003738428,
      -0.039458854,
      0.149712843,
      0.02063368,
      0.092485169,
      0.163034851,
      -0.195132987,
      -0.201861082,
      -0.080695893,
      0.035314564,
      0.019261114,
      0.028687811,
      -0.008997615,
      -0.858797702,
      -1.076829355,
      -0.90109814,
      -0.89039933,
      -0.138837953,
      0.063491521,
      0.774867404,
      0.752777388,
      0.758329719,
      0.019629551,
      -1.059618286,
      -0.712078308,
      -0.083236737,
      0.222483842,
      1.183078143,
      1.261088294,
      0.257883852,
      -1.277276052,
      -0.614146909,
      1.385266907,
      0.364501433,
      0.188016279,
      0.91092477,
      0.725410081,
      -0.267460948,
      -0.224668689,
      1.387410421,
      0.841231922,
      0.027455722,
      -0.041286712,
      0.345111289,
      -0.023386472,
      -0.118558389,
      0.020058931,
      0.087440344,
      -0.081195837,
      -0.230895351,
      -0.058745501,
      0.389914283,
      0.134145378,
      0.001517428,
      0.061440509,
      0.466139437,
      0.519372331,
      0.025082087,
      0.0794264,
      0.402559874,
      0.380351703,
      -0.117795107,
      0.327651806,
      0.655047953,
      0.172802327,
      -0.014637489,
      0.850843622,
      0.658652009,
      0.249285633,
      0.427746809,
      -0.545062047,
      -1.142160427,
      -0.82213281,
      -0.366441129,
      1.885264612,
      1.4191923,
      -0.523698756,
      0.821550714,
      -0.130180466,
      -1.168446545,
      -0.423084565,
      -0.681647337,
      0.273799718,
      -1.421184852,
      -1.449787173,
      2.365431553,
      1.902084278,
      -0.058334372,
      -0.670309727,
      -0.916586198,
      -1.223122567,
      -2.007456292,
      1.348974459,
      2.399909266,
      0.2973057,
      -0.469262119,
      -0.85520907,
      -0.576499026,
      -0.195306794,
      -2.41690694,
      -1.256891949,
      0.32211681,
      0.162780562,
      -0.317946487,
      -0.190818877,
      -0.491682167,
      1.456406899,
      -1.114799847,
      -2.147375136,
      -0.889128876,
      1.435120057,
      0.417293328,
      0.180769779,
      -0.352083572,
      1.618205624,
      0.334042525,
      0.028614712,
      -0.003278864,
      0.438876074,
      -1.626363553,
      -0.756904229,
      -0.452369885,
      0.980890172,
      0.673981168,
      0.917017891,
      0.831956569,
      -0.097319366,
      0.142127219,
      -0.307409834,
      -0.531741897,
      0.06624025,
      0.239014497,
      -0.093755377,
      -0.10343551,
      -0.131804392,
      -0.108624301,
      -0.053538995,
      -0.374880623,
      0.327820982,
      0.496690325,
      -0.418656014,
      -0.599320119,
      0.020155437,
      0.212557665,
      1.165052853,
      -0.502311953,
      0.357927001,
      -0.20872655,
      -2.179694817,
      -2.449356903,
      -0.411151617,
      0.954225077,
      0.729050173,
      -0.645960856,
      0.101189564,
      -0.689339896,
      -1.679658531,
      -1.154107333,
      -0.107745887,
      -0.148758288,
      -0.579549812,
      -0.723050461,
      0.449542885,
      -0.14138223,
      -0.769513688,
      0.151013019,
      -0.040780678,
      0.18178393,
      0.4450383,
      -0.359222057,
      0.899833202,
      0.247146762,
      -0.803686677,
      -1.268849061,
      -0.542472426,
      0.980250168,
      1.35220235,
      0.080721793,
      0.575525261,
      -0.029796561,
      -0.792798573,
      -1.28127846,
      -0.549251222,
      0.144065016,
      0.006321063,
      -0.322818686,
      0.188416652,
      -0.271892467,
      -0.681495671,
      -0.322677745,
      -0.173307251,
      -0.120368686,
      -0.543423275,
      -0.51853839,
      0.362839894,
      0.235095799,
      -0.128553908,
      -0.012496808,
      -0.525368612,
      -0.669608004,
      -0.258835261,
      -0.086126549,
      1.348460796,
      1.588935371,
      1.242473902,
      0.498068213,
      -0.445100642,
      -1.584377435,
      -0.672129313,
      -0.372322661,
      0.558028786,
      0.268887162,
      0.041913396,
      0.752456149,
      0.999066031,
      1.525336964,
      0.222363935,
      -0.185983148,
      -0.559669993,
      0.24392783,
      2.276403272,
      2.646781623,
      1.1224767,
      0.409872404,
      0.30335175,
      0.047648415,
      -0.365365562,
      -0.661015364,
      0.021182184,
      -0.448354293,
      -0.465547337,
      0.020139339,
      -0.020522126,
      -0.24128945,
      0.162055668,
      -1.206281433,
      -1.525784972,
      -1.349061661,
      0.41121798,
      0.170470282,
      -0.350641687,
      -0.501339296,
      0.547602714,
      -0.009461319,
      -0.39756291,
      0.48277949,
      1.432573364,
      0.19773917,
      -0.229794452,
      -0.003569386,
      0.443661026,
      0.612695712,
      0.918553925,
      1.091147497,
      0.709389387,
      0.370526234,
      0.305255661,
      -0.02184043
     ],
     [
      0.05561811,
      0.569931487,
      0.562366245,
      0.072829646,
      -0.567829237,
      -1.35496242,
      -0.427772797,
      0.710908299,
      -0.156045965,
      0.080558877,
      -0.478059485,
      -1.553056925,
      -2.156195193,
      -2.1803309,
      -1.225947868,
      0.109781686,
      -0.378940702,
      -0.758396821,
      -0.457954807,
      -0.186865677,
      -1.685687984,
      -1.02465828,
      -1.098392832,
      -0.638698517,
      -0.313278953,
      -0.42403533,
      -0.132738779,
      0.849688718,
      -1.313468523,
      0.018514192,
      0.23917602,
      0.477879957,
      -0.284140271,
      -0.978931426,
      0.464372164,
      0.446028142,
      -0.918030877,
      0.722051778,
      0.305871851,
      -0.223355998,
      0.054695441,
      -0.840398909,
      -0.307495002,
      -1.338818946,
      -0.742744146,
      0.340593698,
      0.262049727,
      -0.147814801,
      -0.058263336,
      0.600485048,
      0.427550477,
      -0.403522096,
      0.485425031,
      0.657250545,
      0.820730964,
      0.188154302,
      -0.093965469,
      -0.235066578,
      -0.604235117,
      0.171526463,
      0.547173482,
      -0.581330554,
      -0.147395784,
      -0.001013106,
      -0.126716573,
      -0.057491001,
      0.182697949,
      0.406615519,
      0.341695596,
      0.533978491,
      0.483231953,
      0.174133123,
      -0.13587167,
      -0.201855379,
      0.842452882,
      1.560326995,
      0.76903792,
      1.16534758,
      0.599146225,
      0.03560579,
      -0.13197685,
      -0.343426423,
      0.738506306,
      0.053311571,
      -0.766751754,
      -0.952383764,
      -0.750471355,
      0.002984377,
      -0.15648868,
      -1.063734533,
      -1.194905711,
      -1.174097118,
      -1.399420225,
      -0.879472108,
      -0.826484452,
      -0.038406243,
      -0.17734468,
      -1.336518563,
      -0.95199647,
      0.524160236,
      -0.858413179,
      -0.526367252,
      -0.09361512,
      0.299731758,
      -0.045513334,
      0.103652889,
      1.082512058,
      0.702029189,
      0.941872018,
      0.452019481,
      0.420363647,
      0.344663627,
      -0.081098226,
      0.251856518,
      0.171220136,
      0.218545129,
      0.426835886,
      -0.896223765,
      -0.864792647,
      -0.363486396,
      -0.060619587,
      -0.199616339,
      -0.16350207,
      0.055727337,
      -0.223348242,
      -0.110712607,
      0.057083121,
      0.047349989,
      0.122715409,
      -0.068597304,
      -0.932476593,
      0.113395465,
      0.048219809,
      0.296012568,
      1.693534736,
      0.621622817,
      0.141255754,
      -0.370720029,
      -0.058634085,
      -1.415225904,
      -1.343706333,
      1.721852477,
      0.983563514,
      0.141614909,
      -0.226626989,
      0.148922627,
      2.054576584,
      -2.360046866,
      -1.29077829,
      0.302363742,
      -1.299409331,
      -1.024086521,
      1.505942486,
      3.233895264,
      2.209535167,
      -1.696084593,
      0.201422231,
      2.200343081,
      0.547588619,
      -1.119235654,
      1.622471381,
      2.670939299,
      0.294445494,
      1.085095393,
      2.935820451,
      1.976160547,
      0.595014119,
      -0.757566515,
      -1.13023625,
      -1.396064046,
      -1.744319267,
      0.455840274,
      0.757938087,
      -0.652591971,
      -0.486407494,
      -0.668127317,
      -1.193448914,
      -2.035353643,
      -0.90226182,
      -0.754882676,
      -0.82651622,
      -0.060465349,
      -0.304483312,
      -0.588079091,
      -0.306753782,
      -0.404172245,
      0.154427397,
      -1.223273049,
      -1.941368715,
      -0.342397862,
      0.469677159,
      0.024928868,
      -0.056905538,
      0.026279217,
      -0.060077412,
      0.184822794,
      0.755476582,
      0.26712743,
      0.253329641,
      0.586491191,
      -0.058382234,
      0.57431145,
      1.2163844,
      2.413548319,
      2.301391258,
      1.418159807,
      0.564814674,
      1.030568768,
      -0.193941251,
      0.142683328,
      1.071691947,
      2.212117768,
      0.58421631,
      0.941570457,
      -0.579204325,
      -0.027827475,
      -0.146637752,
      0.13774715,
      0.58260156,
      1.039275188,
      -0.641255503,
      1.295422659,
      0.305293627,
      -0.505168283,
      -0.223449247,
      0.293972264,
      -0.385897672,
      -1.008291544,
      0.589556306,
      1.449761722,
      0.883546139,
      -0.051645273,
      -0.207683615,
      -0.11752974,
      -1.324991005,
      -0.785997335,
      1.098201362,
      -0.100250322,
      -0.431485977,
      -0.534234601,
      -0.159026302,
      -0.528374716,
      -0.446524392,
      0.021107521,
      0.46886994,
      -0.406243531,
      -0.131273436,
      -0.407811958,
      -0.092930611,
      -0.131588813,
      0.642208317,
      1.124571491,
      0.46366955,
      0.315194158,
      0.840506132,
      0.145532813,
      -0.220343532,
      -0.270491696,
      -0.396172581,
      -0.343828109,
      -0.197787969,
      -0.17745999,
      0.014146279,
      0.205523306,
      0.103297424,
      0.052310354,
      -0.353818488,
      -0.730536565,
      -0.236640981,
      1.300866393,
      1.703886028,
      0.491057701,
      -0.47182061,
      -1.005705773,
      -0.170097691,
      -0.501422322,
      0.394249025,
      1.059663675,
      0.785576699,
      0.119685361,
      0.210027337,
      0.478399968,
      0.910460339,
      -0.890463417,
      -0.104692774,
      -0.227275182,
      0.559589916,
      0.14058914,
      0.842148505,
      0.789132724,
      -0.305357003,
      -0.76345362,
      -0.336286134,
      -0.105160056,
      0.731913487,
      -0.109875012,
      -0.259925258,
      -0.665519314,
      -0.370655599,
      0.85429022,
      -1.412032651,
      -0.636323482,
      0.291633558,
      -0.046437346,
      -0.836489393,
      -0.738223673,
      0.357463316,
      -0.323290669,
      -1.104567439,
      -0.31579126,
      -0.549222852,
      -0.472007159,
      -0.232776951,
      0.308466321,
      0.519608376,
      -0.295636119,
      -0.295739812,
      -0.052927585,
      -0.239954342,
      -0.233826697
     ],
     [
      -0.401719517,
      -0.67503914,
      -0.65891086,
      -0.166700807,
      0.222925278,
      1.06787684,
      0.171543444,
      -0.179515745,
      -0.526035782,
      -0.617728729,
      0.052873155,
      0.090348397,
      0.15955183,
      0.721662184,
      1.202654797,
      1.450571219,
      -0.079249851,
      -0.639146667,
      -0.907081163,
      -0.039355565,
      1.164177639,
      1.864401594,
      0.785937631,
      -0.024169685,
      -0.325761853,
      -1.091090953,
      -0.557487123,
      0.055978051,
      1.803905829,
      2.911286649,
      1.504583591,
      -0.393454059,
      0.05017079,
      0.937645265,
      0.308545384,
      1.311248928,
      1.119940588,
      0.410017961,
      0.34773204,
      0.178775894,
      0.248314602,
      1.950173283,
      1.527785972,
      1.398792763,
      -0.029980606,
      -0.338990301,
      -0.295363631,
      0.226104204,
      0.229553085,
      0.7220225,
      -0.514033469,
      0.709139669,
      -0.196872284,
      -0.317878065,
      -0.522261821,
      -0.003489727,
      -0.258883689,
      0.105402975,
      0.039585675,
      -0.06624857,
      -0.411709216,
      -0.230601952,
      -0.187012099,
      -0.064556224,
      -0.081309258,
      -0.076565634,
      0.059533442,
      0.067111173,
      -0.195848329,
      -0.25542874,
      0.034121385,
      0.117486198,
      -0.097078414,
      -0.174649314,
      -0.578061496,
      -0.519208291,
      -0.404961899,
      0.482591736,
      0.935899657,
      0.424085625,
      -0.096693678,
      -0.579543115,
      -0.832878227,
      -0.135503169,
      0.30586991,
      0.733794736,
      0.965686235,
      0.789329982,
      -0.08296948,
      -0.555675785,
      -0.967288598,
      -0.398873137,
      1.060283072,
      1.499851835,
      0.581612447,
      0.527543973,
      0.00492574,
      1.165068589,
      0.710797087,
      0.969590451,
      1.527014792,
      0.817379667,
      -0.469808696,
      -0.495999209,
      0.130017812,
      1.392018391,
      1.140157315,
      0.546525017,
      0.349522214,
      -0.205058812,
      -0.639878193,
      -0.57320648,
      0.007559948,
      0.76438637,
      0.969634175,
      0.397543159,
      -0.665020235,
      -0.738458304,
      -0.724139738,
      -0.143623547,
      -0.093607317,
      -0.176088791,
      -0.167782588,
      -0.539871319,
      -0.275044837,
      0.085341818,
      0.300801576,
      0.165741216,
      -0.769392145,
      -0.65869997,
      0.035071362,
      0.375593283,
      1.204389567,
      1.219034442,
      -1.069801072,
      -0.211586754,
      -1.236273556,
      0.222715992,
      0.530933057,
      -0.790722422,
      -0.523858369,
      1.77125244,
      1.06853641,
      2.631892012,
      -0.057151474,
      0.565015204,
      0.220560941,
      -0.684735765,
      -1.800507889,
      0.257772405,
      0.201354443,
      3.068395049,
      -0.430561663,
      0.097537125,
      2.088482847,
      1.598616411,
      -1.693702767,
      -1.465718828,
      -1.598676684,
      -0.113195522,
      -0.03672073,
      -1.054919104,
      0.134550062,
      -0.870927687,
      -1.294949585,
      -1.547372665,
      -1.071521942,
      -0.928663126,
      0.702955215,
      -0.435281016,
      -0.876568928,
      -0.557907587,
      -0.278367545,
      -0.718518954,
      0.702478342,
      -0.025059749,
      -0.390586937,
      -0.754928192,
      0.640188141,
      1.202885378,
      0.877365817,
      0.773268789,
      1.347513632,
      0.222259383,
      -0.541659951,
      -0.940113435,
      0.566838835,
      1.854065016,
      1.344277864,
      0.620036038,
      0.314365455,
      0.023545027,
      -0.148619937,
      -0.263201003,
      -0.268966972,
      -0.107318716,
      0.064634251,
      0.232653748,
      -0.481786282,
      -0.138848615,
      -0.348749676,
      -0.224734043,
      0.603126419,
      -0.3840118,
      -1.932064665,
      -0.748537255,
      -1.387840067,
      0.309501156,
      -0.294188729,
      0.16503785,
      0.086343997,
      0.177008612,
      -1.092208457,
      -1.481326275,
      -2.170044119,
      0.122183411,
      -0.083765165,
      0.146828816,
      0.100207163,
      1.20657943,
      -0.56057173,
      -0.934146931,
      -1.303799317,
      -1.078213321,
      -0.122960526,
      -0.120322608,
      -0.147304052,
      -0.028096524,
      -0.738174907,
      -0.206583515,
      -0.38200057,
      -0.824214108,
      -0.200140445,
      -0.329705768,
      -0.534183619,
      -0.083597291,
      -0.160933461,
      -0.07728862,
      0.241359966,
      0.354653711,
      -0.068461633,
      -0.642055172,
      -0.613208708,
      -0.039279979,
      -0.056305107,
      -0.032569153,
      0.289973679,
      0.670312064,
      -0.065038372,
      -0.809098696,
      -1.115726852,
      -0.440402125,
      -0.291863286,
      0.007797028,
      0.329030354,
      0.310235675,
      -0.291198879,
      -0.728981911,
      -0.764862644,
      -0.423443955,
      0.714759771,
      0.730398021,
      -0.281789001,
      0.041922572,
      -0.776883702,
      -0.459779998,
      -0.188918039,
      -0.200546465,
      0.460624732,
      1.550710776,
      1.037795124,
      1.53143147,
      -0.292265802,
      -0.084632249,
      -0.812394747,
      -0.888003382,
      -1.717417736,
      -1.113321028,
      -0.338463881,
      1.710335377,
      0.179979502,
      -0.248617848,
      0.451367714,
      -0.500573716,
      -2.398600862,
      -1.906865521,
      -1.880932589,
      0.085511698,
      -0.37778528,
      -0.511870853,
      -0.235723785,
      -0.452371911,
      -0.886289562,
      -0.975412773,
      -1.477693985,
      -0.61881192,
      0.438765845,
      -0.370490034,
      -1.007437496,
      -0.45681539,
      0.213267481,
      -0.505982628,
      -0.30685845,
      -0.328921152,
      0.037689631,
      0.825542501,
      0.73850438,
      0.35975222,
      0.83566987,
      0.252521104,
      0.802860809,
      -0.091327146,
      -0.209127415,
      -0.058139551,
      0.730438663,
      1.33413242,
      0.843072159,
      0.461376121,
      0.304531203,
      0.004203998
     ],
     [
      0.169697371,
      -0.133078493,
      -0.742317722,
      -1.44971459,
      -1.751374087,
      -1.03906722,
      0.11560184,
      0.594481706,
      0.04951678,
      -0.359472233,
      -0.639197057,
      -1.418454977,
      -2.028306794,
      -1.251390167,
      -0.834167809,
      -0.287593182,
      0.129560213,
      0.066955056,
      0.030266931,
      -1.167678483,
      -0.393676589,
      1.347952153,
      1.60112097,
      1.057309845,
      0.044714872,
      -0.387996354,
      -0.966503884,
      -0.081306654,
      2.531961223,
      2.301313463,
      1.238537595,
      1.151648091,
      -0.169232747,
      -0.969728526,
      -1.798380378,
      -0.122624207,
      1.404248036,
      0.655970989,
      -0.325889358,
      -0.048282414,
      0.219497061,
      -1.092525635,
      -1.320760728,
      0.314784248,
      0.36266332,
      -0.145909115,
      0.012802634,
      -0.033316876,
      0.30556469,
      0.125640116,
      -0.665838984,
      -0.747433075,
      -0.900531395,
      -0.125575958,
      0.436119542,
      0.20496891,
      0.296423623,
      0.386415673,
      0.787648586,
      0.900034151,
      0.47944611,
      0.127587232,
      0.042725773,
      0.258315819,
      -0.197283409,
      -0.215057167,
      -0.30178171,
      -0.332793005,
      -0.03346234,
      -0.324727907,
      -0.46403074,
      -0.289291746,
      -0.235707219,
      -0.260836774,
      -0.32613173,
      0.024319405,
      0.347333862,
      0.216966548,
      0.404784501,
      -0.024715068,
      -0.22549769,
      -0.290761584,
      -0.088417721,
      0.351560397,
      1.221897596,
      1.235909395,
      0.673772278,
      -0.096304672,
      -0.121764996,
      -0.482691128,
      -0.520937076,
      -1.048240144,
      0.777818324,
      0.174385306,
      -0.439899003,
      -0.66278824,
      -0.102020745,
      -0.654562147,
      -1.599959562,
      -1.533422871,
      -0.435364943,
      -0.480324086,
      -0.375374702,
      -0.296454279,
      -0.055749581,
      -0.523883554,
      -1.594390587,
      -1.266890009,
      -1.553317324,
      -0.780418675,
      -0.093915961,
      -0.201349788,
      -0.186916463,
      -0.115564272,
      -0.307750368,
      0.205752603,
      0.118334063,
      0.646372521,
      0.360449658,
      -0.175116426,
      -0.253464454,
      -0.280196929,
      -0.366580442,
      -0.696390013,
      -0.389327681,
      -0.180928528,
      -0.370406154,
      -0.348673308,
      -0.118695011,
      0.887937566,
      1.480153082,
      0.545321235,
      1.857090597,
      2.315828069,
      1.601170966,
      0.547051537,
      -0.954652351,
      -0.550276122,
      -1.353137888,
      -1.572548852,
      -2.710476227,
      -1.557953426,
      -0.550269628,
      -0.238712021,
      -0.340518494,
      0.664537802,
      0.780643262,
      -2.292066933,
      -1.915893839,
      -2.023594712,
      0.186518503,
      -0.279590412,
      0.187515114,
      1.542039061,
      0.828892946,
      0.444594933,
      0.468201866,
      -1.617026233,
      1.370649611,
      0.991162068,
      -0.762866533,
      1.322709721,
      1.91713521,
      1.179251311,
      -1.17261994,
      -0.802383823,
      0.383633461,
      0.490523532,
      -1.88834019,
      0.702176295,
      4.33944779,
      3.072820999,
      2.971573282,
      2.160887752,
      0.645491567,
      0.028204207,
      -1.33115908,
      -0.882176822,
      2.47627044,
      4.157731369,
      2.777634076,
      1.193272156,
      0.424560625,
      -0.317765816,
      -0.375447805,
      -1.040747775,
      -0.931697184,
      -0.190285667,
      0.231528272,
      -0.474469288,
      -0.890270487,
      -0.417651885,
      0.105588472,
      0.331716467,
      1.353278004,
      1.399868687,
      0.984711711,
      1.282362582,
      1.308462923,
      0.627431633,
      0.084882264,
      0.282677261,
      0.558478801,
      -0.437912445,
      -0.868743681,
      -1.295046915,
      -0.584019125,
      -0.202344364,
      0.040683139,
      0.604522199,
      0.334721656,
      0.330251415,
      -1.120627199,
      -2.223482037,
      -1.409967612,
      -0.137289673,
      0.102730352,
      1.161482054,
      1.113952275,
      1.091914438,
      0.09265098,
      -2.072458625,
      -0.128950313,
      1.557891158,
      -0.110988189,
      0.750726251,
      1.496571573,
      1.406253044,
      0.155115844,
      -1.041153981,
      0.449612711,
      1.500756788,
      -0.207456021,
      -0.017725675,
      1.003491123,
      1.282592081,
      0.24348479,
      0.625822886,
      0.245110491,
      0.316812055,
      -0.043104149,
      -0.399148294,
      0.910011209,
      1.971993915,
      1.402073039,
      1.242832515,
      0.824077354,
      -0.088218732,
      0.15821532,
      -0.154490937,
      0.005997448,
      0.104199774,
      0.203889182,
      -0.144621576,
      -0.552664887,
      -0.293007392,
      0.163435121,
      0.690399064,
      1.175348791,
      1.08910435,
      2.147712595,
      2.019547036,
      0.72955007,
      0.216587678,
      -0.289501532,
      -0.357830481,
      -0.719283238,
      -0.027228322,
      0.713773295,
      0.860771731,
      0.37038914,
      0.148291588,
      -0.255597012,
      -0.000126187,
      0.012523652,
      0.117594082,
      0.378129096,
      -0.149984593,
      -0.155715394,
      -0.08795835,
      0.225854892,
      0.252123218,
      -0.046978807,
      0.070396796,
      1.349371946,
      0.114373532,
      0.103509103,
      -0.348794546,
      -0.27833477,
      -0.14978432,
      -0.00660734,
      1.22550106,
      0.845342668,
      0.071139849,
      0.154377182,
      -0.283264263,
      -0.575878998,
      -0.216641863,
      0.002392145,
      -1.018432463,
      0.203204493,
      0.799376238,
      0.388349061,
      0.09040827,
      -0.478444249,
      -0.43937486,
      0.323609994,
      0.294185126,
      0.039551164,
      0.309183903,
      0.463897008,
      0.196806991,
      0.045141917,
      -0.659878963,
      -1.62308219,
      -1.48201854,
      -0.664024537,
      -0.036386591,
      -0.082744482,
      -0.031788853
     ],
     [
      -0.228989804,
      -0.42854703,
      -0.412647304,
      -0.17138175,
      -0.301053487,
      -0.737601603,
      -0.936093338,
      -0.536461786,
      0.206221727,
      0.568496686,
      1.721904217,
      2.159415985,
      1.11994303,
      0.414186993,
      0.119128713,
      -0.348509529,
      0.642784908,
      1.376322927,
      1.118996179,
      0.430324517,
      -0.108097395,
      -0.136176295,
      -0.721021727,
      -0.528116908,
      0.1649458,
      0.113079778,
      -0.603153589,
      -1.468677865,
      -2.025755114,
      -0.07340595,
      0.373236086,
      -0.054810025,
      -0.440652695,
      -0.648764077,
      -0.305838406,
      -0.573336642,
      -1.126707655,
      0.132557066,
      0.66787002,
      -0.457717961,
      -0.382647882,
      -0.285240686,
      -0.362251808,
      -0.996709211,
      -1.454628785,
      -1.217075974,
      -1.085556451,
      -1.028721793,
      -0.069332296,
      0.261803492,
      -0.012034847,
      -0.435241554,
      0.284772134,
      -0.022171377,
      -0.82393243,
      -0.654929089,
      -0.272531678,
      -0.608554027,
      -0.366505067,
      -0.104406463,
      0.642353983,
      0.526543571,
      -0.218873531,
      -0.214368626,
      0.02960181,
      0.03474903,
      0.045700233,
      -0.150376389,
      -0.343938149,
      -0.40206101,
      -0.181912877,
      -0.066178459,
      0.028996085,
      0.281060497,
      0.513263928,
      0.543156131,
      0.210141591,
      0.158109174,
      0.113727162,
      -0.060859507,
      -0.041488034,
      0.181186228,
      -0.054495116,
      -0.123223057,
      -0.254256688,
      -0.352657647,
      -0.295175281,
      -0.048095481,
      -0.104256722,
      0.216406522,
      0.510473751,
      2.663651035,
      0.922182988,
      0.010547491,
      0.285488576,
      0.02847405,
      -0.006108738,
      0.579708432,
      2.021037896,
      2.38442193,
      -0.829240465,
      -0.60730106,
      -0.11221275,
      -0.0275303,
      0.033798031,
      0.681030547,
      1.611708869,
      0.998724066,
      -0.140326742,
      0.975193765,
      1.184347379,
      0.372045292,
      -0.00366154,
      0.048477706,
      0.112267001,
      -0.065933903,
      0.066397702,
      0.369879047,
      0.032418333,
      -0.227148043,
      -0.108241418,
      -0.24301029,
      -0.513436392,
      -0.99696045,
      -0.648413687,
      -0.654283853,
      -0.5005832,
      -0.192549695,
      0.23073541,
      -0.109433853,
      -0.331279081,
      -0.921718455,
      -1.115953278,
      -0.956832305,
      -0.366334111,
      0.149773287,
      0.733355928,
      0.617163599,
      1.03328162,
      0.523197097,
      0.959499226,
      0.190736934,
      -0.28143973,
      -0.29092453,
      0.5547259,
      0.444104114,
      -1.222172073,
      -0.290171325,
      2.171917302,
      0.415918867,
      -0.59243186,
      -0.450434739,
      0.460082188,
      -0.205724141,
      -2.968091607,
      -3.280458448,
      1.942808525,
      1.315086381,
      0.105222051,
      -0.038980327,
      -0.216297888,
      0.205042746,
      -2.057317908,
      -2.605333201,
      -0.142646729,
      1.185199251,
      0.890398761,
      -0.020850155,
      -0.791224581,
      -1.482380343,
      -1.344915738,
      -0.427659769,
      -2.270482292,
      -1.030238106,
      -0.653352125,
      -0.249644799,
      0.365372763,
      0.004623513,
      -1.527295534,
      -1.60361259,
      -2.076584295,
      -1.967332882,
      -1.964087396,
      -0.549444913,
      0.864509398,
      2.343458573,
      1.280063181,
      0.512397802,
      0.99463922,
      -0.769349863,
      -0.898707614,
      -0.077095008,
      0.185092939,
      0.11328534,
      0.071992041,
      0.073109305,
      -0.391675656,
      -0.78257473,
      -0.39057166,
      -0.056605473,
      0.221056533,
      -0.052281833,
      0.026358764,
      -0.02192818,
      0.249761145,
      0.39408283,
      0.486637281,
      -0.101519063,
      0.328193445,
      -0.644997658,
      0.123859984,
      0.398693987,
      0.627607546,
      1.534323043,
      0.958351388,
      -0.283356436,
      0.319833076,
      -0.537924368,
      -0.404208061,
      -1.210578205,
      -0.318565779,
      1.5550215,
      0.441414862,
      -0.289455989,
      0.223294005,
      0.250082405,
      0.677432986,
      -1.37466556,
      -1.273493056,
      0.347612355,
      0.731792242,
      -0.248569255,
      0.203050752,
      0.079441837,
      0.182179506,
      -0.448740152,
      0.178523239,
      -0.237194977,
      -0.065000731,
      -0.604805686,
      0.157791229,
      0.273946742,
      -0.312662567,
      -0.566776745,
      0.596899723,
      -0.883675281,
      -1.562015446,
      -0.89440186,
      0.208713551,
      0.744743936,
      0.809303346,
      0.815349432,
      1.372626073,
      0.107571298,
      -0.727838566,
      -0.257787538,
      0.010974801,
      -0.2575604,
      -0.475577425,
      -0.668365587,
      -0.599887461,
      -0.518502499,
      -0.332621993,
      -0.106962738,
      -0.084657248,
      -0.798698186,
      -0.838350278,
      -1.744622188,
      -1.428278315,
      -0.167850138,
      0.422607956,
      -0.122004692,
      0.33001033,
      -0.145102163,
      -0.549740927,
      -0.367529506,
      -0.064311657,
      -0.113755885,
      -0.114918348,
      -0.294090646,
      0.103955017,
      -0.255353561,
      -1.36887803,
      -1.792300234,
      0.814321662,
      0.827180107,
      0.396879072,
      0.171573874,
      -0.007222442,
      0.416111468,
      -0.301058583,
      -0.777876041,
      0.806176796,
      1.162241085,
      0.501341246,
      -0.110043779,
      -0.524159255,
      -0.510053029,
      -0.267064885,
      0.768206597,
      -0.683885009,
      -0.275924481,
      -0.12032251,
      0.016378761,
      -0.272553819,
      -0.202377763,
      0.155704318,
      0.597553157,
      -1.014001068,
      -0.756224844,
      -0.803716754,
      -0.345820341,
      0.429992674,
      1.329386943,
      1.302478822,
      0.538289862,
      0.006422006,
      -0.626501376,
      -0.654461985,
      -0.265096825
     ],
     [
      0.202671744,
      0.370257173,
      0.77356823,
      1.221196129,
      0.971126704,
      0.228006081,
      0.400961877,
      0.279216976,
      0.234701719,
      0.036639528,
      -0.384392542,
      -0.599462931,
      -0.009256375,
      0.306676199,
      0.728480889,
      0.781335832,
      0.097862701,
      -0.496340461,
      0.154265945,
      0.723866678,
      0.415702184,
      -0.110482935,
      0.926264739,
      0.779240406,
      0.005864586,
      -0.42824834,
      1.374940479,
      1.084824197,
      0.998808952,
      -0.115587894,
      -0.112934266,
      -0.091621357,
      0.310161594,
      0.857660432,
      0.308267555,
      -0.617075761,
      1.063339929,
      1.041925703,
      0.633703192,
      0.321120935,
      0.142867079,
      -1.079644346,
      -1.726621727,
      -1.049183015,
      1.24262275,
      1.601038157,
      0.550493577,
      0.476997876,
      -0.097394396,
      -1.736417141,
      0.142335096,
      0.442505157,
      0.605768035,
      -0.147997363,
      -0.530637547,
      0.066320191,
      0.304030301,
      0.318455092,
      -0.126789098,
      -0.554029804,
      -0.667371259,
      -0.470217881,
      0.070910624,
      0.14020156,
      0.071028526,
      0.140893562,
      -0.044148827,
      -0.043745332,
      0.052767848,
      0.266228151,
      0.243380208,
      0.090972469,
      0.135947743,
      -0.099605579,
      -0.293263338,
      0.325583721,
      0.544012532,
      0.214966917,
      0.002258429,
      0.07598243,
      0.052234535,
      -0.458929297,
      -0.7218325,
      -0.242786701,
      -0.210434644,
      0.531077234,
      0.206206156,
      0.072131789,
      0.100956211,
      -0.119245079,
      -0.471224726,
      -0.51099754,
      -0.967732036,
      -0.434109872,
      0.195152437,
      0.454978852,
      0.113625131,
      0.355521951,
      -0.878824823,
      -0.804704223,
      -0.232726771,
      0.778586739,
      0.935656052,
      0.415978254,
      0.134333966,
      -0.617815111,
      -1.133145255,
      -0.544428422,
      0.233473124,
      0.494333705,
      -0.236965819,
      -0.248890775,
      0.194804158,
      -0.664887703,
      -0.415560563,
      -0.567542232,
      -0.220131594,
      -0.104870126,
      -0.256653828,
      0.153689402,
      0.13654112,
      0.233693136,
      0.462736015,
      0.523371615,
      0.351944686,
      0.470991504,
      0.32281803,
      0.271203022,
      -0.275571064,
      -0.396935095,
      0.053319008,
      0.752064442,
      0.945643491,
      -0.781242029,
      -1.010544009,
      -0.106938847,
      -0.123870966,
      0.379056509,
      0.115679255,
      0.103360386,
      0.964360749,
      0.51883434,
      -0.207721407,
      0.632231355,
      0.355094545,
      1.953877147,
      0.603031139,
      1.074390068,
      0.222924491,
      2.017793789,
      1.054065988,
      0.990905124,
      -0.655116813,
      0.182194997,
      0.186882682,
      1.592008087,
      2.090454773,
      0.857270615,
      0.492173513,
      0.858134743,
      -1.043081249,
      0.266773753,
      1.611462661,
      1.794682335,
      0.782278526,
      -0.055260743,
      0.184088724,
      -0.206734691,
      0.064940229,
      1.30173305,
      0.931979079,
      -1.19294208,
      -1.496962845,
      -1.007036097,
      -0.265432138,
      -0.596364525,
      -0.733802889,
      0.144680017,
      0.386892911,
      1.979158106,
      0.142835057,
      -0.233918136,
      0.046394752,
      -0.100964341,
      -1.002757782,
      -1.28797617,
      -0.901535509,
      1.02148238,
      1.702504722,
      0.893215,
      0.410608918,
      0.071052778,
      -0.107037472,
      -0.287746851,
      -0.566046848,
      -0.542982823,
      -0.421365838,
      0.00070667,
      -0.251515725,
      -0.357786421,
      -0.14146621,
      -0.267933566,
      -0.450906509,
      -0.321266882,
      0.008506189,
      -0.475278813,
      -0.61575355,
      0.157201685,
      -0.145934378,
      0.495970268,
      0.851852085,
      0.642907626,
      -0.296276765,
      -0.763277128,
      0.15467828,
      0.770300942,
      -0.153242219,
      0.350771157,
      0.115290171,
      1.001830374,
      0.410108032,
      -0.690672319,
      -0.302331006,
      0.476717833,
      -0.208521886,
      -0.395569432,
      -1.175323616,
      0.449492743,
      1.123911917,
      -0.480816718,
      -0.201402469,
      -0.273787914,
      -0.322035015,
      0.2977031,
      0.574198234,
      1.588435844,
      -0.224135284,
      0.10705525,
      0.290082356,
      -0.125577315,
      -0.447585247,
      0.275043551,
      0.409796681,
      0.169682485,
      -0.130554826,
      0.169241833,
      0.634030684,
      0.139981098,
      -0.292330719,
      -0.445869815,
      -0.558591926,
      -0.435261742,
      0.340411465,
      -0.106982965,
      0.081083064,
      -0.124967439,
      0.06262742,
      -0.159571166,
      0.272847344,
      0.65590577,
      0.377125315,
      -0.750115786,
      -0.383398541,
      0.019880165,
      -0.028608803,
      0.924458995,
      1.574532606,
      1.601164005,
      0.377166484,
      -0.369982993,
      -0.619155111,
      0.081690806,
      0.429509113,
      1.263716322,
      -0.427311656,
      -0.295037784,
      0.062845848,
      1.307680503,
      1.433699312,
      0.777832547,
      0.169109416,
      -0.495352302,
      -1.651032172,
      -1.17169409,
      0.906812261,
      2.618135449,
      1.819128453,
      0.651024818,
      -0.598954992,
      -0.10109197,
      1.015841804,
      0.910760497,
      0.594097989,
      0.305939249,
      -0.01430013,
      0.2135758,
      0.224351248,
      2.268038411,
      2.80865017,
      0.110963661,
      -0.133358542,
      -0.33530371,
      -0.394675559,
      -0.463504642,
      0.115749497,
      -0.67566156,
      -0.886188718,
      0.918604631,
      0.626488106,
      0.652505895,
      -0.124146358,
      -0.272713454,
      -0.637604142,
      -1.425338403,
      -0.566554685,
      0.812311351,
      0.710805005,
      0.625731718,
      0.006789732,
      0.041056491
     ],
     [
      0.158803533,
      0.006927742,
      0.355461217,
      0.349139086,
      0.213034249,
      0.547227381,
      0.384799804,
      -0.174399185,
      -0.054692574,
      -0.560046128,
      -0.412523346,
      1.234426974,
      2.77021118,
      2.357825875,
      0.387809587,
      -0.186380194,
      -0.191643951,
      -0.799357384,
      -0.608867166,
      0.613285106,
      0.2833759,
      0.181445305,
      0.330178141,
      0.082778635,
      -0.258708873,
      -0.242442672,
      0.686434731,
      1.330630228,
      -0.658986101,
      -0.076131429,
      -0.34532409,
      -0.502825803,
      -0.074659943,
      -0.032350691,
      1.862608492,
      1.328498216,
      -2.517009366,
      -1.796506064,
      -1.300392292,
      -0.690499182,
      0.277614367,
      0.292780104,
      0.001659459,
      -0.891907845,
      -2.737239179,
      -1.425477052,
      -0.469662401,
      0.039083928,
      0.294100229,
      0.878797028,
      1.343659293,
      0.24910433,
      -0.264571213,
      -0.017223227,
      0.260673337,
      0.62646125,
      0.299154974,
      0.17384749,
      -0.473305674,
      -0.805780458,
      -0.400778115,
      0.773528542,
      0.81209175,
      0.62330008,
      0.140172874,
      0.134452725,
      0.090844998,
      -0.042791654,
      0.034096821,
      0.054401349,
      0.001411514,
      0.115288977,
      0.224193214,
      0.260693397,
      -0.140994741,
      -0.254470539,
      0.133122506,
      -0.339996582,
      -0.473958919,
      0.090105219,
      0.296686539,
      0.157447151,
      0.092522225,
      -0.029939346,
      -0.121695529,
      1.370626052,
      0.267400163,
      -0.006059599,
      0.117483749,
      -0.760977493,
      -0.842297144,
      -0.886305087,
      -0.748756716,
      -0.328578062,
      -0.38190467,
      0.020709078,
      0.039528309,
      -0.478382039,
      -0.451330829,
      -0.19558495,
      0.029715662,
      -0.507087292,
      -0.016433398,
      0.142194075,
      0.288591901,
      0.301517755,
      0.424455619,
      1.608819569,
      0.891989348,
      0.123566497,
      -0.26531762,
      -0.212028226,
      0.193594802,
      0.272734419,
      0.588359484,
      0.451493377,
      0.143669384,
      -0.048512031,
      -0.426037222,
      -0.116491364,
      0.129320586,
      0.005476822,
      -0.454274301,
      -0.497418348,
      -0.424249303,
      -0.795024539,
      -0.513317272,
      0.053214913,
      -0.101272834,
      -0.652519123,
      -0.77006426,
      -1.636346247,
      -0.981636229,
      -0.109787198,
      -0.559411771,
      -0.195592359,
      -0.780494413,
      -0.883073044,
      1.088772106,
      1.509396474,
      0.584932159,
      -1.107826347,
      -0.883382811,
      -1.159498313,
      0.741774862,
      1.24750925,
      1.136262904,
      0.425053,
      1.415938956,
      1.48456364,
      0.722796529,
      -1.069947463,
      1.382532577,
      0.170879913,
      -1.449564157,
      -0.720306455,
      1.82596921,
      1.246412579,
      0.124003044,
      -0.886830906,
      0.052202457,
      -0.942232438,
      -0.39024935,
      -0.12477372,
      2.041649221,
      0.421120338,
      -0.510425875,
      -1.053661135,
      -0.928202846,
      -1.905009869,
      -1.976808251,
      0.075137669,
      0.045847554,
      -0.729505686,
      -0.626170314,
      -0.830989401,
      -0.387614778,
      -1.108823483,
      -1.762310827,
      -1.273227862,
      -1.839059058,
      -1.013816744,
      0.471744562,
      0.055949524,
      0.432039298,
      0.827675192,
      0.986710361,
      0.154774761,
      -0.027496227,
      0.928143147,
      1.474262245,
      0.533509815,
      -0.025118216,
      -0.18763836,
      -0.289571461,
      -0.577793838,
      -1.171143648,
      -0.944595943,
      -0.516989056,
      -0.298307147,
      -0.141586895,
      -0.660885223,
      -1.049744842,
      -0.622326812,
      -0.598728318,
      -0.297987665,
      -0.065826003,
      -0.790333667,
      -0.202009363,
      0.223879755,
      0.521829259,
      -0.392845428,
      -0.54455715,
      -0.070891301,
      0.905129776,
      -0.465752868,
      0.101505235,
      1.096039807,
      1.13004058,
      -0.863004206,
      -0.728607244,
      0.650628131,
      0.938446735,
      -0.526794997,
      0.130617328,
      0.247593869,
      0.318294136,
      -1.125303127,
      0.489710279,
      1.790908807,
      0.446243597,
      -1.037825795,
      0.000645285,
      -0.441801613,
      -0.475984753,
      -1.643335493,
      -0.15742715,
      0.309712738,
      -0.369972952,
      -0.886544088,
      -0.00089982,
      -0.344719041,
      -0.591958283,
      -0.503403192,
      0.088639434,
      -0.776861174,
      -0.011146775,
      -0.02366274,
      -0.012208797,
      0.17950639,
      0.197467282,
      0.387638823,
      0.43295224,
      0.12978775,
      1.026644173,
      0.561621288,
      0.164245065,
      -0.067346987,
      -0.109407185,
      -0.511587274,
      -0.633313801,
      0.291520127,
      0.392456397,
      0.077303081,
      -0.367349449,
      -0.060636744,
      0.275593667,
      2.52438428,
      1.389694684,
      -0.784903405,
      -1.031736226,
      -0.29732704,
      0.146388384,
      0.944211635,
      2.882299149,
      1.687795606,
      0.534694104,
      -0.415855028,
      -0.449865114,
      -0.646623599,
      0.628647038,
      0.843074128,
      0.115951806,
      0.946315655,
      0.789996367,
      0.33122873,
      -0.294232333,
      -0.385113603,
      0.028284231,
      -0.394336946,
      -1.354545047,
      0.016885518,
      0.807062838,
      -0.487121916,
      -0.332777109,
      -0.000399457,
      -0.54767228,
      -0.543714476,
      -1.484106691,
      0.386057659,
      0.679488123,
      -0.3621058,
      -0.099711309,
      -0.092888378,
      -0.235673072,
      -0.553134908,
      -0.927756245,
      0.473877006,
      -0.507355627,
      -0.092705375,
      0.159874298,
      0.015545524,
      0.388039281,
      0.778887927,
      0.82056354,
      0.252145295,
      -0.556406306,
      -0.13235211,
      0.423917373,
      0.164771489
     ]
    ],
    "b": [
     -1.441970401,
     1.958416125,
     0.452002064,
     -0.4355133,
     0.38102328,
     1.121512946,
     -0.757829417,
     0.913837034,
     -1.689376597,
     -0.575177097
    ]
   }
  },
  {
   "epoch": 2,
   "batch": 381,
   "loss": 0.5797768734233256,
   "accuracy": 91.93542757417103,
   "input": [
    [
     0.0,
     0.0,
     0.0,
     0.0,
     0.0,
     0.0,
     0.0,
     0.0,
     0.0,
     0.0,
     0.0,
     0.0,
     0.0,
     0.0,
     0.0,
     0.0,
     0.0,
     0.0,
     0.0,
     0.0,
     0.0,
     0.0,
     0.0,
     0.0,
     0.0,
     0.0,
     0.0,
     0.0
    ],
    [
     0.0,
     0.0,
     0.0,
     0.0,
     0.0,
     0.0,
     0.0,
     0.0,
     0.0,
     0.0,
     0.0,
     0.0,
     0.0,
     0.0,
     0.0,
     0.0,
     0.0,
     0.0,
     0.0,
     0.0,
     0.0,
     0.0,
     0.0,
     0.0,
     0.0,
     0.0,
     0.0,
     0.0
    ],
    [
     0.0,
     0.0,
     0.0,
     0.0,
     0.0,
     0.0,
     0.0,
     0.0,
     0.0,
     0.0,
     0.0,
     0.0,
     0.0,
     0.0,
     0.0,
     0.0,
     0.0,
     0.0,
     0.0,
     0.0,
     0.0,
     0.0,
     0.0,
     0.0,
     0.0,
     0.0,
     0.0,
     0.0
    ],
    [
     0.0,
     0.0,
     0.0,
     0.0,
     0.0,
     0.0,
     0.0,
     0.0,
     0.0,
     0.0,
     0.0,
     0.0,
     0.0,
     0.0,
     0.0,
     0.0,
     0.0,
     0.0,
     0.0,
     0.0,
     0.0,
     0.0,
     0.0,
     0.0,
     0.0,
     0.0,
     0.0,
     0.0
    ],
    [
     0.0,
     0.0,
     0.0,
     0.0,
     0.0,
     0.0,
     0.0,
     0.0,
     0.0,
     0.0,
     0.0,
     0.0,
     0.0,
     0.0,
     0.0,
     0.0,
     0.0,
     0.0,
     0.0,
     0.0,
     0.0,
     0.0,
     0.0,
     0.0,
     0.0,
     0.0,
     0.0,
     0.0
    ],
    [
     0.0,
     0.0,
     0.0,
     0.0,
     0.0,
     0.0,
     0.0,
     0.0,
     0.0,
     0.0,
     0.0,
     0.0,
     0.0,
     0.0,
     0.0,
     0.0,
     0.0,
     0.0,
     0.0,
     0.0,
     0.0,
     0.0,
     0.0,
     0.0,
     0.0,
     0.0,
     0.0,
     0.0
    ],
    [
     0.0,
     0.0,
     0.0,
     0.0,
     0.0,
     0.0,
     0.0,
     0.0,
     0.0,
     0.0,
     0.0,
     0.0,
     0.0,
     0.0,
     0.0,
     0.0,
     0.0,
     0.0,
     0.184313725,
     0.960784314,
     0.894117647,
     0.08627451,
     0.0,
     0.0,
     0.0,
     0.0,
     0.0,
     0.0
    ],
    [
     0.0,
     0.0,
     0.0,
     0.0,
     0.0,
     0.0,
     0.0,
     0.0,
     0.0,
     0.0,
     0.0,
     0.0,
     0.0,
     0.0,
     0.0,
     0.0,
     0.0,
     0.0,
     0.458823529,
     0.996078431,
     0.996078431,
     0.141176471,
     0.0,
     0.0,
     0.0,
     0.0,
     0.0,
     0.0
    ],
    [
     0.0,
     0.0,
     0.0,
     0.0,
     0.0,
     0.0,
     0.0,
     0.0,
     0.0,
     0.043137255,
     0.145098039,
     0.109803922,
     0.0,
     0.0,
     0.0,
     0.0,
     0.0,
     0.078431373,
     0.756862745,
     0.996078431,
     0.682352941,
     0.007843137,
     0.0,
     0.0,
     0.0,
     0.0,
     0.0,
     0.0
    ],
    [
     0.0,
     0.0,
     0.0,
     0.0,
     0.0,
     0.0,
     0.0,
     0.0,
     0.211764706,
     0.811764706,
     0.996078431,
     0.933333333,
     0.737254902,
     0.48627451,
     0.329411765,
     0.560784314,
     0.737254902,
     0.874509804,
     0.996078431,
     0.937254902,
     0.08627451,
     0.0,
     0.0,
     0.0,
     0.0,
     0.0,
     0.0,
     0.0
    ],
    [
     0.0,
     0.0,
     0.0,
     0.0,
     0.0,
     0.0,
     0.0,
     0.168627451,
     0.929411765,
     0.996078431,
     0.996078431,
     0.929411765,
     0.941176471,
     0.996078431,
     0.996078431,
     0.996078431,
     0.996078431,
     0.996078431,
     0.996078431,
     0.501960784,
     0.0,
     0.0,
     0.0,
     0.0,
     0.0,
     0.0,
     0.0,
     0.0
    ],
    [
     0.0,
     0.0,
     0.0,
     0.0,
     0.0,
     0.0,
     0.0,
     0.329411765,
     0.996078431,
     1.0,
     0.388235294,
     0.105882353,
     0.133333333,
     0.305882353,
     0.305882353,
     0.474509804,
     0.545098039,
     0.996078431,
     0.784313725,
     0.031372549,
     0.0,
     0.0,
     0.0,
     0.0,
     0.0,
     0.0,
     0.0,
     0.0
    ],
    [
     0.0,
     0.0,
     0.0,
     0.0,
     0.0,
     0.0,
     0.0,
     0.68627451,
     0.996078431,
     0.552941176,
     0.015686275,
     0.0,
     0.0,
     0.0,
     0.0,
     0.0,
     0.541176471,
     0.996078431,
     0.690196078,
     0.0,
     0.0,
     0.0,
     0.0,
     0.0,
     0.0,
     0.0,
     0.0,
     0.0
    ],
    [
     0.0,
     0.0,
     0.0,
     0.0,
     0.0,
     0.0,
     0.094117647,
     0.905882353,
     0.929411765,
     0.105882353,
     0.0,
     0.0,
     0.0,
     0.0,
     0.0,
     0.0,
     0.756862745,
     0.996078431,
     0.588235294,
     0.0,
     0.0,
     0.0,
     0.0,
     0.0,
     0.0,
     0.0,
     0.0,
     0.0
    ],
    [
     0.0,
     0.0,
     0.0,
     0.0,
     0.0,
     0.0,
     0.145098039,
     0.996078431,
     0.894117647,
     0.0,
     0.0,
     0.0,
     0.0,
     0.0,
     0.0,
     0.141176471,
     0.960784314,
     0.996078431,
     0.28627451,
     0.0,
     0.0,
     0.0,
     0.0,
     0.0,
     0.0,
     0.0,
     0.0,
     0.0
    ],
    [
     0.0,
     0.0,
     0.0,
     0.0,
     0.0,
     0.0,
     0.058823529,
     0.68627451,
     0.709803922,
     0.0,
     0.0,
     0.0,
     0.0,
     0.0,
     0.0,
     0.419607843,
     0.996078431,
     0.921568627,
     0.109803922,
     0.0,
     0.0,
     0.0,
     0.0,
     0.0,
     0.0,
     0.0,
     0.0,
     0.0
    ],
    [
     0.0,
     0.0,
     0.0,
     0.0,
     0.0,
     0.0,
     0.0,
     0.0,
     0.0,
     0.0,
     0.0,
     0.0,
     0.0,
     0.0,
     0.0,
     0.57254902,
     0.996078431,
     0.549019608,
     0.0,
     0.0,
     0.0,
     0.0,
     0.0,
     0.0,
     0.0,
     0.0,
     0.0,
     0.0
    ],
    [
     0.0,
     0.0,
     0.0,
     0.0,
     0.0,
     0.0,
     0.0,
     0.0,
     0.0,
     0.0,
     0.0,
     0.0,
     0.0,
     0.0,
     0.0,
     0.976470588,
     0.996078431,
     0.470588235,
     0.0,
     0.0,
     0.0,
     0.0,
     0.0,
     0.0,
     0.0,
     0.0,
     0.0,
     0.0
    ],
    [
     0.0,
     0.0,
     0.0,
     0.0,
     0.0,
     0.0,
     0.0,
     0.0,
     0.0,
     0.0,
     0.0,
     0.0,
     0.0,
     0.0,
     0.137254902,
     0.988235294,
     0.996078431,
     0.156862745,
     0.0,
     0.0,
     0.0,
     0.0,
     0.0,
     0.0,
     0.0,
     0.0,
     0.0,
     0.0
    ],
    [
     0.0,
     0.0,
     0.0,
     0.0,
     0.0,
     0.0,
     0.0,
     0.0,
     0.0,
     0.0,
     0.0,
     0.0,
     0.0,
     0.0,
     0.443137255,
     0.996078431,
     0.811764706,
     0.02745098,
     0.0,
     0.0,
     0.0,
     0.0,
     0.0,
     0.0,
     0.0,
     0.0,
     0.0,
     0.0
    ],
    [
     0.0,
     0.0,
     0.0,
     0.0,
     0.0,
     0.0,
     0.0,
     0.0,
     0.0,
     0.0,
     0.0,
     0.0,
     0.0,
     0.0,
     0.796078431,
     0.996078431,
     0.360784314,
     0.0,
     0.0,
     0.0,
     0.0,
     0.0,
     0.0,
     0.0,
     0.0,
     0.0,
     0.0,
     0.0
    ],
    [
     0.0,
     0.0,
     0.0,
     0.0,
     0.0,
     0.0,
     0.0,
     0.0,
     0.0,
     0.0,
     0.0,
     0.0,
     0.0,
     0.188235294,
     0.976470588,
     0.996078431,
     0.243137255,
     0.0,
     0.0,
     0.0,
     0.0,
     0.0,
     0.0,
     0.0,
     0.0,
     0.0,
     0.0,
     0.0
    ],
    [
     0.0,
     0.0,
     0.0,
     0.0,
     0.0,
     0.0,
     0.0,
     0.0,
     0.0,
     0.0,
     0.0,
     0.0,
     0.0,
     0.317647059,
     0.996078431,
     0.88627451,
     0.078431373,
     0.0,
     0.0,
     0.0,
     0.0,
     0.0,
     0.0,
     0.0,
     0.0,
     0.0,
     0.0,
     0.0
    ],
    [
     0.0,
     0.0,
     0.0,
     0.0,
     0.0,
     0.0,
     0.0,
     0.0,
     0.0,
     0.0,
     0.0,
     0.0,
     0.003921569,
     0.62745098,
     0.996078431,
     0.650980392,
     0.0,
     0.0,
     0.0,
     0.0,
     0.0,
     0.0,
     0.0,
     0.0,
     0.0,
     0.0,
     0.0,
     0.0
    ],
    [
     0.0,
     0.0,
     0.0,
     0.0,
     0.0,
     0.0,
     0.0,
     0.0,
     0.0,
     0.0,
     0.0,
     0.0,
     0.023529412,
     0.996078431,
     0.996078431,
     0.337254902,
     0.0,
     0.0,
     0.0,
     0.0,
     0.0,
     0.0,
     0.0,
     0.0,
     0.0,
     0.0,
     0.0,
     0.0
    ],
    [
     0.0,
     0.0,
     0.0,
     0.0,
     0.0,
     0.0,
     0.0,
     0.0,
     0.0,
     0.0,
     0.0,
     0.0,
     0.015686275,
     0.839215686,
     0.839215686,
     0.011764706,
     0.0,
     0.0,
     0.0,
     0.0,
     0.0,
     0.0,
     0.0,
     0.0,
     0.0,
     0.0,
     0.0,
     0.0
    ],
    [
     0.0,
     0.0,
     0.0,
     0.0,
     0.0,
     0.0,
     0.0,
     0.0,
     0.0,
     0.0,
     0.0,
     0.0,
     0.0,
     0.0,
     0.0,
     0.0,
     0.0,
     0.0,
     0.0,
     0.0,
     0.0,
     0.0,
     0.0,
     0.0,
     0.0,
     0.0,
     0.0,
     0.0
    ],
    [
     0.0,
     0.0,
     0.0,
     0.0,
     0.0,
     0.0,
     0.0,
     0.0,
     0.0,
     0.0,
     0.0,
     0.0,
     0.0,
     0.0,
     0.0,
     0.0,
     0.0,
     0.0,
     0.0,
     0.0,
     0.0,
     0.0,
     0.0,
     0.0,
     0.0,
     0.0,
     0.0,
     0.0
    ]
   ],
   "output": 7,
   "conv_layer": {
    "w": [
     [
      [
       [
        -0.718717719,
        -0.132948431,
        0.588884948,
        0.885892548,
        2.115524028
       ],
       [
        -0.001427292,
        -0.756772041,
        -1.415115554,
        -1.533436833,
        -0.390195053
       ],
       [
        0.261533406,
        -1.201625753,
        -2.745586913,
        -2.523688237,
        -1.864042797
       ],
       [
        1.450652771,
        1.566138148,
        0.844567707,
        0.047019591,
        -0.976701548
       ],
       [
        -0.244863642,
        0.920635504,
        1.260604636,
        1.428181521,
        0.416376065
       ]
      ]
     ],
     [
      [
       [
        1.561877826,
        2.241696132,
        1.135534156,
        0.52539709,
        -0.213287906
       ],
       [
        -1.007097844,
        -1.04832601,
        -1.768041329,
        -1.39900104,
        -1.345913716
       ],
       [
        -1.893687835,
        -2.354859625,
        -1.531381721,
        -0.419443161,
        -0.585133046
       ],
       [
        -1.583907056,
        -0.866737211,
        0.062277138,
        0.398467364,
        -0.570110456
       ],
       [
        -1.058460545,
        1.366446625,
        1.041326558,
        0.129047557,
        -0.429185195
       ]
      ]
     ],
     [
      [
       [
        0.557307567,
        -0.428101016,
        -1.048663939,
        -0.274318132,
        0.194703344
       ],
       [
        0.475449911,
        -0.368253338,
        0.099690874,
        0.744263227,
        1.124314014
       ],
       [
        -0.28714981,
        0.100792322,
        1.558401763,
        0.887783693,
        -0.614814544
       ],
       [
        -0.293652056,
        -0.367672574,
        1.330574192,
        0.801930664,
        -0.262124343
       ],
       [
        0.593537855,
        -0.917235874,
        -0.880889563,
        -0.233512311,
        1.39727341
       ]
      ]
     ],
     [
      [
       [
        0.48868545,
        -0.070630146,
        -0.519520069,
        0.14748233,
        0.132129954
       ],
       [
        -0.214845595,
        0.206545651,
        1.43656729,
        -0.173658464,
        -1.247373758
       ],
       [
        -1.312151137,
        -0.000877372,
        1.517304194,
        -0.477830888,
        -2.42091357
       ],
       [
        -1.232224884,
        0.502761449,
        1.113492824,
        -0.826831222,
        -1.770980146
       ],
       [
        -0.16805171,
        0.456287507,
        1.112791984,
        -0.301547072,
        0.256143393
       ]
      ]
     ],
     [
      [
       [
        1.934354789,
        1.615169515,
        0.053194193,
        -0.870292822,
        -0.397744004
       ],
       [
        0.745460183,
        -1.309458504,
        -2.234502621,
        -1.513850602,
        0.209772333
       ],
       [
        -0.716038764,
        -1.310345481,
        -1.592215614,
        0.718893058,
        1.192983588
       ],
       [
        -1.457781314,
        -0.367524598,
        0.940627602,
        1.764833308,
        -0.067720378
       ],
       [
        0.235825426,
        0.399425201,
        0.82982997,
        0.096475878,
        -1.415102279
       ]
      ]
     ]
    ],
    "b": [
     -1.612846976,
     0.543518975,
     -1.223751738,
     0.138079474,
     -2.340992792
    ]
   },
   "dense_layer": {
    "w": [
     [
      -0.028222273,
      -0.187121237,
      -0.396319755,
      -0.627281261,
      -0.146495751,
      -7.7338e-05,
      -0.126192658,
      0.184836881,
      0.045552879,
      0.054663658,
      -0.526835813,
      -0.340773269,
      0.452244956,
      0.938776498,
      0.473447608,
      0.129845125,
      0.218164188,
      0.020396545,
      -0.699878153,
      -0.843163569,
      -1.012480293,
      -0.751494543,
      -0.024153983,
      0.762876727,
      0.144075387,
      -0.510220663,
      -1.110124572,
      -0.61156971,
      -1.357473761,
      -1.932473095,
      -0.759309533,
      0.63181638,
      -0.219178215,
      -1.415697181,
      -1.107705843,
      0.368811739,
      -0.266303155,
      -0.670488566,
      -1.002914975,
      -0.106165882,
      -0.27792109,
      -0.790424768,
      0.519014918,
      1.794130238,
      -0.588209983,
      -0.807252417,
      -0.85913375,
      -0.48600651,
      -0.148140633,
      -0.77750752,
      0.147800255,
      0.631800335,
      -0.091817218,
      -0.161843556,
      -0.485257082,
      -0.27371225,
      0.02749861,
      -0.145499221,
      0.107259482,
      0.161401538,
      0.047504643,
      0.043040105,
      -0.254327902,
      -0.126536511,
      0.056356739,
      0.056023942,
      0.044433111,
      0.201668098,
      0.478626708,
      0.418073555,
      0.141209285,
      0.080163469,
      0.045897663,
      0.001499386,
      -0.377762827,
      -0.325533078,
      -0.568944443,
      -0.556522895,
      -0.314223491,
      -0.102280009,
      0.106111206,
      -0.138203475,
      -0.124769156,
      -0.062249183,
      -0.715973154,
      -0.551810286,
      0.062684327,
      -0.083652836,
      0.178355019,
      -0.489810202,
      -0.381168584,
      -0.200976409,
      0.915779417,
      0.021176567,
      -0.241271648,
      -0.188094478,
      0.013557018,
      -0.865130553,
      -0.61508985,
      0.309936783,
      0.732495374,
      -0.604795718,
      -0.638028942,
      -0.132660265,
      0.03909387,
      -1.17901573,
      -0.217093097,
      -0.058462556,
      -0.458163923,
      -0.12497928,
      -0.308929282,
      0.26270298,
      0.086133753,
      -0.730186725,
      -0.290226112,
      -0.313194648,
      -0.249786367,
      0.224898721,
      0.532624158,
      0.307240295,
      0.067472444,
      0.086848976,
      0.399912927,
      0.602472499,
      0.819216588,
      0.692498671,
      0.224367092,
      0.142256954,
      0.127246565,
      -0.55855873,
      -0.906824328,
      -0.265515615,
      0.09391216,
      -1.017509991,
      -0.598562044,
      0.14609712,
      -0.235818218,
      -1.393922341,
      -1.009785762,
      1.470973138,
      2.500683615,
      1.359726635,
      -0.455612889,
      0.109939143,
      0.233765081,
      -0.804346809,
      1.825272349,
      1.099834459,
      0.435233567,
      0.770003728,
      1.409670207,
      0.679548623,
      1.190913691,
      1.368891788,
      1.592911144,
      -2.619915487,
      -4.411133914,
      0.005423278,
      1.203918363,
      1.195488348,
      1.206123466,
      1.586943992,
      0.141970879,
      -5.45398884,
      -3.397962722,
      0.925088781,
      0.765933708,
      1.053833657,
      -0.030657554,
      0.724756363,
      1.181963084,
      -1.839443333,
      -0.538803154,
      0.759440018,
      -0.200132046,
      0.611424675,
      -0.722596535,
      -0.26789623,
      1.78925523,
      1.037010251,
      0.42213847,
      -0.412461458,
      -0.4752578,
      0.243048878,
      -0.10148351,
      -0.370183786,
      0.3246753,
      1.015330319,
      0.084080367,
      -0.781695083,
      -0.536583422,
      0.107863511,
      0.159536862,
      0.071914767,
      -0.012235918,
      -0.290065089,
      -0.273924465,
      -0.272190282,
      -0.51594184,
      0.035212582,
      0.14554327,
      -0.276040125,
      -0.835244245,
      -0.53434237,
      0.330342315,
      0.46213737,
      -0.429336518,
      0.314700567,
      0.197415088,
      -0.326064676,
      -0.585420185,
      1.396210314,
      0.959378668,
      1.229332424,
      0.941536688,
      1.159435495,
      0.110309257,
      0.045895796,
      1.397383391,
      2.452739297,
      -0.275517061,
      -0.604865349,
      0.72011776,
      1.894473973,
      -0.104534975,
      0.286249333,
      2.251425024,
      2.287832441,
      -3.257214208,
      -1.386272419,
      -0.022920988,
      1.489310992,
      -0.404702975,
      -0.227865391,
      1.926423735,
      0.876875557,
      -1.754964531,
      -0.400983941,
      -0.154638064,
      0.421946818,
      -0.248253582,
      -0.560897119,
      0.319889648,
      0.576377186,
      -0.308634847,
      -0.246877219,
      -0.586888877,
      -0.132882856,
      0.119668329,
      -0.291098279,
      -0.414261784,
      0.247157862,
      -0.008519771,
      -0.585834268,
      -0.762780674,
      -0.06578514,
      0.267522228,
      0.079078878,
      -0.227649856,
      -0.129737733,
      -0.398575011,
      -0.549740244,
      0.146207929,
      0.290634324,
      -0.01926865,
      -0.361917622,
      -0.420369794,
      -0.044138098,
      0.342313005,
      -0.346808575,
      -0.769039757,
      0.055779599,
      0.09077906,
      -0.059875943,
      0.37376721,
      0.285714495,
      0.50495618,
      -0.685677074,
      -0.597887487,
      0.043754176,
      0.707116271,
      0.626405686,
      0.708962277,
      -0.288264126,
      -1.584941432,
      -0.612564066,
      -0.015214235,
      0.060843942,
      0.923653325,
      0.43779399,
      0.006717749,
      -2.137184047,
      -0.4365739,
      0.29645036,
      0.494325317,
      0.147977267,
      0.379642074,
      -0.659209174,
      -0.183625891,
      -0.208280314,
      0.806431628,
      0.530055351,
      0.48713649,
      0.443134264,
      0.022251793,
      -0.890076598,
      0.710936014,
      0.133101175,
      0.155198779,
      0.177479155,
      0.451143086,
      0.504992446,
      0.070829993,
      -0.684842068,
      -0.414273869,
      0.287024422,
      -0.069677668,
      0.233673291,
      0.324427787,
      0.217931079
     ],
     [
      -0.164242003,
      -0.326594624,
      -0.875685628,
      -1.559625379,
      -1.371757865,
      -0.415983481,
      0.092489897,
      0.115421413,
      -0.270043343,
      -0.145568913,
      -0.662746189,
      -1.842326118,
      -1.836807329,
      -1.828131478,
      -1.044463337,
      -0.649789717,
      -0.183917266,
      0.108342064,
      0.189538971,
      -0.086991076,
      -0.326833301,
      -1.478099091,
      -1.640763439,
      -0.70998672,
      -0.193798995,
      -0.049849848,
      -0.3013041,
      -2.563749328,
      -1.464043514,
      -1.725966206,
      -1.374535083,
      -0.663936426,
      -0.404422147,
      -0.242281373,
      -0.653627527,
      -2.857177933,
      -0.752978626,
      -1.501382481,
      -0.985757481,
      -0.489018907,
      0.052712944,
      0.266253574,
      -0.052657038,
      -1.986430582,
      1.308956196,
      0.205732616,
      0.63261758,
      -0.090336561,
      0.073477147,
      0.402195451,
      -0.718558069,
      -0.882831891,
      0.549251321,
      0.110143329,
      0.23942802,
      -0.273050206,
      -0.34680999,
      -0.794196556,
      -0.246118403,
      0.305211448,
      -0.3693268,
      -0.376026752,
      -0.223635071,
      -0.259802123,
      -0.139940754,
      -0.131205156,
      -0.152745105,
      0.070762831,
      0.467895874,
      0.38477206,
      -0.017370603,
      -0.219458013,
      -0.13557767,
      -0.215912414,
      -0.231819806,
      -0.280987144,
      0.701949659,
      -0.166636435,
      -0.37302473,
      -0.228624412,
      -0.101316656,
      -0.043383962,
      -0.142950108,
      -0.55006424,
      -0.137600112,
      -1.061387174,
      0.02301483,
      -0.407387482,
      -0.162279269,
      0.011561263,
      0.358226143,
      -0.101811022,
      -0.360559496,
      -0.087212908,
      -0.394178662,
      -0.405326872,
      -0.184283501,
      0.031758521,
      0.6348697,
      -0.618035108,
      0.60694562,
      0.173138108,
      -0.342604182,
      -0.2822643,
      -0.121040232,
      0.163867005,
      0.1573517,
      -0.219787697,
      0.882776921,
      -0.541339118,
      -0.610893417,
      -0.32127573,
      -0.163117682,
      -0.241417623,
      -0.622019138,
      -0.124517008,
      -0.220101623,
      -0.88799532,
      -0.25414189,
      -0.131899521,
      -0.114291208,
      -0.178954637,
      -0.059915442,
      0.621608981,
      0.209885036,
      -0.158562572,
      -0.140649481,
      -0.198064208,
      0.33462608,
      -0.073884356,
      0.867054247,
      1.273524992,
      -0.754653172,
      0.587606181,
      2.021023431,
      0.41296038,
      0.101367681,
      -0.803431581,
      -1.024390226,
      -1.82014982,
      -1.155280332,
      -2.057332337,
      0.51333604,
      0.038125753,
      -0.069199251,
      -1.033707085,
      -1.79020395,
      2.190286921,
      0.455916813,
      -2.593996868,
      -0.134340947,
      -0.143458361,
      -0.326964486,
      -1.883784221,
      -2.822603856,
      2.633920217,
      0.595690863,
      -1.278603591,
      -0.773660801,
      -0.223837958,
      -0.905924115,
      -1.795228979,
      -1.682865767,
      1.636372988,
      -1.190415071,
      -1.276740285,
      -0.994874364,
      0.044782155,
      0.029677443,
      1.391938388,
      -0.488116862,
      0.039162658,
      -1.803758419,
      0.806338173,
      -0.149875168,
      0.091772195,
      1.672146243,
      2.941831818,
      -1.596038263,
      -3.760355168,
      0.558022632,
      2.296511293,
      0.445643052,
      0.269564335,
      0.837220138,
      1.229336078,
      -1.496163531,
      -2.843372534,
      -0.873068574,
      0.691397691,
      0.321717964,
      0.285643672,
      0.204820544,
      0.219251365,
      0.314097186,
      1.060703975,
      0.87973647,
      0.153534747,
      0.68691444,
      0.476052829,
      0.228492208,
      0.289657807,
      0.388865684,
      0.30957383,
      -0.156381455,
      -0.417559343,
      0.199597138,
      0.358315722,
      0.187146214,
      0.332383701,
      0.061133958,
      -1.993152983,
      1.109209993,
      -1.162765676,
      -0.310456955,
      -0.037060194,
      0.21733509,
      0.276808613,
      -0.181972719,
      -2.406794864,
      2.552599511,
      0.020622659,
      -0.468012574,
      -0.390934196,
      0.216640676,
      -0.074564857,
      -0.500790015,
      -1.156324569,
      1.910968678,
      -0.563256418,
      -1.03977419,
      -0.265225309,
      0.212129011,
      0.150381954,
      0.02571919,
      -0.400816337,
      0.746923042,
      -0.817593774,
      -0.260336403,
      0.006848961,
      0.317905365,
      1.224601139,
      0.698497115,
      -0.354884366,
      -0.464061614,
      0.596583767,
      0.788146285,
      0.174365645,
      0.277659064,
      1.368612567,
      1.05978642,
      -1.091573412,
      -1.336108693,
      0.928059803,
      0.558230479,
      0.170765474,
      -0.058958539,
      -0.137206706,
      0.10370855,
      0.558003542,
      -0.547619248,
      0.532863109,
      0.923359516,
      -0.05991494,
      -0.083235411,
      -0.580568396,
      -0.681288348,
      -1.911332802,
      -0.672871446,
      0.837463397,
      0.826441981,
      -0.432335324,
      -0.227818016,
      -0.418659749,
      -0.842617689,
      -0.712645253,
      -0.338286342,
      -0.278164732,
      -0.207888601,
      -0.608260957,
      -0.205491073,
      -0.327998874,
      -1.490764765,
      0.655279524,
      -0.472277086,
      -0.460142417,
      -0.693963131,
      -0.570764306,
      -0.389363319,
      -0.872886655,
      -1.081770386,
      0.504690627,
      -1.310011408,
