{
 "begin_epoch": 0,
 "begin_batch": 0,
 "end_epoch": 0,
 "end_batch": 19,
 "weights": [
  {
   "epoch": 0,
   "batch": 0,
   "loss": 2.3204552742118882,
   "accuracy": 9.333333333333334,
   "input": [
    [
     0.0,
     0.0,
     0.0,
     0.0,
     0.0,
     0.0,
     0.0,
     0.0,
     0.0,
     0.0,
     0.0,
     0.0,
     0.0,
     0.0,
     0.0,
     0.0,
     0.0,
     0.0,
     0.0,
     0.0,
     0.0,
     0.0,
     0.0,
     0.0,
     0.0,
     0.0,
     0.0,
     0.0
    ],
    [
     0.0,
     0.0,
     0.0,
     0.0,
     0.0,
     0.0,
     0.0,
     0.0,
     0.0,
     0.0,
     0.0,
     0.0,
     0.0,
     0.0,
     0.0,
     0.0,
     0.0,
     0.0,
     0.0,
     0.0,
     0.0,
     0.0,
     0.0,
     0.0,
     0.0,
     0.0,
     0.0,
     0.0
    ],
    [
     0.0,
     0.0,
     0.0,
     0.0,
     0.0,
     0.0,
     0.0,
     0.0,
     0.0,
     0.0,
     0.0,
     0.0,
     0.0,
     0.0,
     0.0,
     0.0,
     0.0,
     0.0,
     0.0,
     0.0,
     0.0,
     0.0,
     0.0,
     0.0,
     0.0,
     0.0,
     0.0,
     0.0
    ],
    [
     0.0,
     0.0,
     0.0,
     0.0,
     0.0,
     0.0,
     0.0,
     0.0,
     0.0,
     0.0,
     0.0,
     0.0,
     0.0,
     0.0,
     0.0,
     0.0,
     0.0,
     0.0,
     0.0,
     0.0,
     0.0,
     0.0,
     0.0,
     0.0,
     0.0,
     0.0,
     0.0,
     0.0
    ],
    [
     0.0,
     0.0,
     0.0,
     0.0,
     0.0,
     0.0,
     0.0,
     0.0,
     0.0,
     0.0,
     0.0,
     0.0,
     0.0,
     0.0,
     0.0,
     0.0,
     0.0,
     0.0,
     0.0,
     0.0,
     0.0,
     0.0,
     0.0,
     0.0,
     0.0,
     0.0,
     0.0,
     0.0
    ],
    [
     0.0,
     0.0,
     0.0,
     0.0,
     0.0,
     0.0,
     0.0,
     0.0,
     0.0,
     0.0,
     0.0,
     0.0,
     0.0,
     0.0,
     0.0,
     0.0,
     0.0,
     0.0,
     0.0,
     0.0,
     0.0,
     0.0,
     0.0,
     0.0,
     0.0,
     0.0,
     0.0,
     0.0
    ],
    [
     0.0,
     0.0,
     0.0,
     0.0,
     0.0,
     0.0,
     0.0,
     0.0,
     0.0,
     0.0,
     0.0,
     0.0,
     0.0,
     0.0,
     0.074509804,
     0.419607843,
     0.42745098,
     0.980392157,
     0.874509804,
     0.137254902,
     0.0,
     0.0,
     0.0,
     0.0,
     0.0,
     0.0,
     0.0,
     0.0
    ],
    [
     0.0,
     0.0,
     0.0,
     0.0,
     0.0,
     0.0,
     0.0,
     0.0,
     0.0,
     0.0,
     0.0,
     0.0,
     0.0,
     0.078431373,
     0.780392157,
     0.996078431,
     0.996078431,
     0.996078431,
     0.996078431,
     0.890196078,
     0.403921569,
     0.0,
     0.0,
     0.0,
     0.0,
     0.0,
     0.0,
     0.0
    ],
    [
     0.0,
     0.0,
     0.0,
     0.0,
     0.0,
     0.0,
     0.0,
     0.0,
     0.0,
     0.0,
     0.0,
     0.0,
     0.305882353,
     0.968627451,
     0.941176471,
     0.854901961,
     0.854901961,
     0.470588235,
     0.737254902,
     0.984313725,
     0.733333333,
     0.0,
     0.0,
     0.0,
     0.0,
     0.0,
     0.0,
     0.0
    ],
    [
     0.0,
     0.0,
     0.0,
     0.0,
     0.0,
     0.0,
     0.0,
     0.0,
     0.0,
     0.0,
     0.156862745,
     0.596078431,
     0.949019608,
     0.584313725,
     0.160784314,
     0.0,
     0.0,
     0.0,
     0.0,
     0.596078431,
     0.733333333,
     0.0,
     0.0,
     0.0,
     0.0,
     0.0,
     0.0,
     0.0
    ],
    [
     0.0,
     0.0,
     0.0,
     0.0,
     0.0,
     0.0,
     0.0,
     0.0,
     0.0,
     0.192156863,
     0.741176471,
     0.97254902,
     0.376470588,
     0.0,
     0.0,
     0.0,
     0.0,
     0.0,
     0.035294118,
     0.541176471,
     0.690196078,
     0.0,
     0.0,
     0.0,
     0.0,
     0.0,
     0.0,
     0.0
    ],
    [
     0.0,
     0.0,
     0.0,
     0.0,
     0.0,
     0.0,
     0.0,
     0.0,
     0.360784314,
     0.905882353,
     0.956862745,
     0.231372549,
     0.0,
     0.0,
     0.0,
     0.0,
     0.0,
     0.0,
     0.592156863,
     0.941176471,
     0.101960784,
     0.0,
     0.0,
     0.0,
     0.0,
     0.0,
     0.0,
     0.0
    ],
    [
     0.0,
     0.0,
     0.0,
     0.0,
     0.0,
     0.0,
     0.0,
     0.349019608,
     0.901960784,
     0.650980392,
     0.329411765,
     0.0,
     0.0,
     0.0,
     0.0,
     0.0,
     0.0,
     0.329411765,
     0.964705882,
     0.721568627,
     0.0,
     0.0,
     0.0,
     0.0,
     0.0,
     0.0,
     0.0,
     0.0
    ],
    [
     0.0,
     0.0,
     0.0,
     0.0,
     0.0,
     0.0,
     0.0,
     0.737254902,
     0.894117647,
     0.0,
     0.0,
     0.0,
     0.0,
     0.0,
     0.0,
     0.0,
     0.188235294,
     0.952941176,
     0.996078431,
     0.407843137,
     0.0,
     0.0,
     0.0,
     0.0,
     0.0,
     0.0,
     0.0,
     0.0
    ],
    [
     0.0,
     0.0,
     0.0,
     0.0,
     0.0,
     0.0,
     0.058823529,
     0.843137255,
     0.980392157,
     0.721568627,
     0.070588235,
     0.0,
     0.0,
     0.0,
     0.011764706,
     0.156862745,
     0.960784314,
     0.996078431,
     0.690196078,
     0.058823529,
     0.0,
     0.0,
     0.0,
     0.0,
     0.0,
     0.0,
     0.0,
     0.0
    ],
    [
     0.0,
     0.0,
     0.0,
     0.0,
     0.0,
     0.0,
     0.0,
     0.650980392,
     0.996078431,
     0.996078431,
     0.97254902,
     0.611764706,
     0.270588235,
     0.458823529,
     0.764705882,
     0.996078431,
     0.996078431,
     0.97254902,
     0.22745098,
     0.0,
     0.0,
     0.0,
     0.0,
     0.0,
     0.0,
     0.0,
     0.0,
     0.0
    ],
    [
     0.0,
     0.0,
     0.0,
     0.0,
     0.0,
     0.0,
     0.0,
     0.066666667,
     0.411764706,
     0.878431373,
     1.0,
     0.996078431,
     0.996078431,
     0.996078431,
     0.996078431,
     0.996078431,
     0.862745098,
     0.2,
     0.0,
     0.0,
     0.0,
     0.0,
     0.0,
     0.0,
     0.0,
     0.0,
     0.0,
     0.0
    ],
    [
     0.0,
     0.0,
     0.0,
     0.0,
     0.0,
     0.0,
     0.0,
     0.0,
     0.0,
     0.011764706,
     0.019607843,
     0.117647059,
     0.082352941,
     0.301960784,
     0.917647059,
     0.905882353,
     0.109803922,
     0.0,
     0.0,
     0.0,
     0.0,
     0.0,
     0.0,
     0.0,
     0.0,
     0.0,
     0.0,
     0.0
    ],
    [
     0.0,
     0.0,
     0.0,
     0.0,
     0.0,
     0.0,
     0.0,
     0.0,
     0.0,
     0.0,
     0.0,
     0.0,
     0.0,
     0.207843137,
     0.996078431,
     0.690196078,
     0.0,
     0.0,
     0.0,
     0.0,
     0.0,
     0.0,
     0.0,
     0.0,
     0.0,
     0.0,
     0.0,
     0.0
    ],
    [
     0.0,
     0.0,
     0.0,
     0.0,
     0.0,
     0.0,
     0.0,
     0.0,
     0.0,
     0.0,
     0.0,
     0.0,
     0.0,
     0.588235294,
     0.996078431,
     0.211764706,
     0.0,
     0.0,
     0.0,
     0.0,
     0.0,
     0.0,
     0.0,
     0.0,
     0.0,
     0.0,
     0.0,
     0.0
    ],
    [
     0.0,
     0.0,
     0.0,
     0.0,
     0.0,
     0.0,
     0.0,
     0.0,
     0.0,
     0.0,
     0.0,
     0.0,
     0.266666667,
     0.890196078,
     0.717647059,
     0.007843137,
     0.0,
     0.0,
     0.0,
     0.0,
     0.0,
     0.0,
     0.0,
     0.0,
     0.0,
     0.0,
     0.0,
     0.0
    ],
    [
     0.0,
     0.0,
     0.0,
     0.0,
     0.0,
     0.0,
     0.0,
     0.0,
     0.0,
     0.0,
     0.0,
     0.023529412,
     0.850980392,
     0.980392157,
     0.22745098,
     0.0,
     0.0,
     0.0,
     0.0,
     0.0,
     0.0,
     0.0,
     0.0,
     0.0,
     0.0,
     0.0,
     0.0,
     0.0
    ],
    [
     0.0,
     0.0,
     0.0,
     0.0,
     0.0,
     0.0,
     0.0,
     0.0,
     0.0,
     0.0,
     0.019607843,
     0.611764706,
     0.996078431,
     0.517647059,
     0.0,
     0.0,
     0.0,
     0.0,
     0.0,
     0.0,
     0.0,
     0.0,
     0.0,
     0.0,
     0.0,
     0.0,
     0.0,
     0.0
    ],
    [
     0.0,
     0.0,
     0.0,
     0.0,
     0.0,
     0.0,
     0.0,
     0.0,
     0.0,
     0.0,
     0.266666667,
     0.996078431,
     0.956862745,
     0.211764706,
     0.0,
     0.0,
     0.0,
     0.0,
     0.0,
     0.0,
     0.0,
     0.0,
     0.0,
     0.0,
     0.0,
     0.0,
     0.0,
     0.0
    ],
    [
     0.0,
     0.0,
     0.0,
     0.0,
     0.0,
     0.0,
     0.0,
     0.0,
     0.0,
     0.184313725,
     0.952941176,
     0.941176471,
     0.125490196,
     0.0,
     0.0,
     0.0,
     0.0,
     0.0,
     0.0,
     0.0,
     0.0,
     0.0,
     0.0,
     0.0,
     0.0,
     0.0,
     0.0,
     0.0
    ],
    [
     0.0,
     0.0,
     0.0,
     0.0,
     0.0,
     0.0,
     0.0,
     0.0,
     0.0,
     0.290196078,
     0.97254902,
     0.278431373,
     0.0,
     0.0,
     0.0,
     0.0,
     0.0,
     0.0,
     0.0,
     0.0,
     0.0,
     0.0,
     0.0,
     0.0,
     0.0,
     0.0,
     0.0,
     0.0
    ],
    [
     0.0,
     0.0,
     0.0,
     0.0,
     0.0,
     0.0,
     0.0,
     0.0,
     0.0,
     0.0,
     0.0,
     0.0,
     0.0,
     0.0,
     0.0,
     0.0,
     0.0,
     0.0,
     0.0,
     0.0,
     0.0,
     0.0,
     0.0,
     0.0,
     0.0,
     0.0,
     0.0,
     0.0
    ],
    [
     0.0,
     0.0,
     0.0,
     0.0,
     0.0,
     0.0,
     0.0,
     0.0,
     0.0,
     0.0,
     0.0,
     0.0,
     0.0,
     0.0,
     0.0,
     0.0,
     0.0,
     0.0,
     0.0,
     0.0,
     0.0,
     0.0,
     0.0,
     0.0,
     0.0,
     0.0,
     0.0,
     0.0
    ]
   ],
   "output": 0,
   "conv_layer": {
    "w": [
     [
      [
       [
        -0.001516249,
        0.107270632,
        -0.164617642,
        -0.147192423,
        -0.07703977
       ],
       [
        0.053614551,
        -0.003979086,
        0.158564011,
        -0.017757707,
        0.052913429
       ],
       [
        -0.060454918,
        -0.039327645,
        -0.191084179,
        -0.132465144,
        -0.082451865
       ],
       [
        0.007397927,
        0.079047969,
        0.119987222,
        -0.135595311,
        -0.087097684
       ],
       [
        0.072629804,
        0.166056042,
        -0.041176966,
        0.149649387,
        -0.032242421
       ]
      ]
     ],
     [
      [
       [
        0.021191176,
        0.181121531,
        -0.185523883,
        -0.125903746,
        -0.05062334
       ],
       [
        -0.077934948,
        0.172824609,
        -0.129620087,
        -0.092057421,
        -0.139707735
       ],
       [
        -0.187301526,
        -0.116736042,
        0.171934517,
        0.089256538,
        0.096954525
       ],
       [
        0.010519458,
        -0.10252731,
        0.033849684,
        -0.186730966,
        -0.144502105
       ],
       [
        -0.103109347,
        0.126191123,
        0.117266262,
        -0.088698619,
        -0.007212861
       ]
      ]
     ],
     [
      [
       [
        0.127899375,
        0.198829331,
        0.079388313,
        0.027027467,
        0.134090562
       ],
       [
        -0.117772607,
        0.037263562,
        -0.155059938,
        -0.138619138,
        -0.103331185
       ],
       [
        0.09048704,
        0.080430888,
        -0.118468989,
        0.060408522,
        0.109767188
       ],
       [
        -0.025244214,
        0.007636168,
        0.046337712,
        0.124055366,
        0.192008091
       ],
       [
        -0.15411728,
        -0.073288831,
        0.0786012,
        0.165695598,
        0.174022942
       ]
      ]
     ],
     [
      [
       [
        0.176482058,
        0.039818879,
        -0.173900945,
        0.018413923,
        -0.125108595
       ],
       [
        -0.186386837,
        0.177711166,
        0.152083473,
        -0.199497998,
        0.037445159
       ],
       [
        -0.033687283,
        -0.032902258,
        -0.091545668,
        0.076914874,
        -0.118449688
       ],
       [
        0.073329601,
        0.101155829,
        0.143186109,
        0.074786077,
        -0.197939238
       ],
       [
        -0.129728318,
        0.09987894,
        0.041874965,
        -0.156008544,
        -0.11515241
       ]
      ]
     ],
     [
      [
       [
        0.188136803,
        0.13476739,
        -0.087193408,
        -0.050325599,
        -0.190504127
       ],
       [
        -0.003609512,
        -0.150614613,
        -0.15426789,
        -0.011006002,
        0.030045963
       ],
       [
        -0.081917435,
        0.118670427,
        -0.121704924,
        0.181486612,
        0.137076511
       ],
       [
        -0.168665571,
        -0.049780283,
        0.009028467,
        0.029191013,
        0.047449192
       ],
       [
        0.078479333,
        0.011984209,
        -0.097569477,
        0.094653,
        -0.191837798
       ]
      ]
     ]
    ],
    "b": [
     -0.118546238,
     -0.050060486,
     -0.097446869,
     -0.069952225,
     -0.163930764
    ]
   },
   "dense_layer": {
    "w": [
     [
      -0.011890112,
      0.011949515,
      -0.036419178,
      -0.00286755,
      0.040023033,
      -0.005741539,
      0.001557326,
      -0.00482248,
      0.011314214,
      0.035545908,
      0.052952134,
      0.035504627,
      0.053073247,
      -0.004036309,
      -0.050203704,
      -0.026493113,
      0.038064903,
      -0.000361198,
      -0.027788196,
      -0.042844566,
      -0.052325267,
      -0.047197619,
      -0.011327944,
      0.030674653,
      0.030223932,
      -0.053916785,
      0.034868767,
      -0.043747714,
      -0.011824698,
      -0.022683774,
      -0.010769655,
      -0.010955212,
      -0.050164753,
      -0.048263838,
      -0.008733374,
      0.000725342,
      -0.025398088,
      0.021044857,
      -0.050322692,
      -0.003757018,
      0.049160018,
      -0.022793694,
      0.050507926,
      0.020264569,
      -0.050443873,
      0.035360417,
      -0.006454076,
      -0.024948214,
      0.044702775,
      -0.045180288,
      0.006001782,
      -0.011701219,
      0.039915,
      0.015596286,
      0.026862397,
      0.019746227,
      -0.013441807,
      -0.011755435,
      -0.046067485,
      0.030289867,
      0.04438302,
      0.038248912,
      -0.03942881,
      0.002494019,
      -0.039406557,
      -0.030772667,
      -0.032574763,
      0.019104339,
      -0.033311478,
      -0.001218739,
      0.00235205,
      0.036035318,
      -0.042256921,
      -0.038376701,
      -0.032459267,
      0.039125109,
      -0.020098324,
      0.047145804,
      0.020213628,
      0.007078291,
      -0.000415508,
      -0.011051555,
      0.007008622,
      -0.012776296,
      -0.000398527,
      0.007120431,
      -0.043731647,
      -0.029297521,
      0.045140808,
      -0.045372979,
      -0.004022917,
      0.055302804,
      0.020201926,
      0.001580803,
      -0.048452934,
      0.027699554,
      -0.039818717,
      -0.015879855,
      -0.01875834,
      -0.008266217,
      0.000623712,
      0.046106954,
      0.006962985,
      0.050073794,
      0.034193384,
      -0.035354262,
      0.025075595,
      -0.03950555,
      -0.023686696,
      0.016433505,
      0.018446762,
      0.04194261,
      -0.017995654,
      8.3093e-05,
      0.028772353,
      -0.054069825,
      0.040407304,
      -0.046235281,
      0.000773962,
      -0.009500848,
      -0.029441413,
      0.007388832,
      0.046227916,
      -0.016340704,
      -0.033189661,
      -0.02067301,
      -0.055403478,
      0.025233774,
      -0.026847473,
      -0.037310594,
      -0.032205277,
      0.032144479,
      0.029609052,
      0.042906161,
      0.020275799,
      -0.018668788,
      -0.015622584,
      0.016525832,
      0.045965612,
      0.015205807,
      -0.026446538,
      -0.026262242,
      -0.052841024,
      0.012076566,
      -0.031357103,
      -0.049814147,
      0.049030198,
      -0.036309616,
      -0.006370392,
      0.016032222,
      0.001821606,
      -0.037607924,
      -0.045151023,
      0.044589148,
      0.009094172,
      0.046352229,
      -0.018772287,
      0.016468873,
      -0.012740019,
      -0.002467674,
      -0.034005597,
      0.018927817,
      0.017652118,
      -0.001197776,
      -0.012606082,
      -0.034449736,
      0.038693091,
      -0.041597402,
      0.022932251,
      -0.018757242,
      -0.026960368,
      0.010018774,
      -0.029051683,
      0.012891953,
      0.01099941,
      -0.041488844,
      0.00931485,
      0.023838605,
      0.022143295,
      -0.007041067,
      -0.045832581,
      -0.008610697,
      0.019427901,
      -0.020385975,
      0.021221833,
      0.037232208,
      -0.029185727,
      0.000554759,
      0.023119797,
      0.004388463,
      0.004677034,
      0.00698134,
      -0.043946353,
      0.004393972,
      0.038710111,
      0.05037277,
      0.032853985,
      0.007489966,
      0.026107181,
      -0.02719507,
      -0.046324485,
      -0.048069807,
      0.055764719,
      0.035482465,
      -0.038645719,
      0.021867348,
      0.042218279,
      0.055881662,
      0.048880965,
      0.043307771,
      -0.012820705,
      -0.019617803,
      0.045895734,
      0.031309299,
      -0.033631267,
      0.050270731,
      0.027010178,
      0.030476211,
      -0.035031277,
      0.016044677,
      -0.019595889,
      0.043662578,
      -0.010056432,
      0.021789143,
      0.009924781,
      0.023795043,
      -0.018981454,
      0.027261677,
      -0.039050883,
      0.012608435,
      -0.037824455,
      -0.055130709,
      -0.044895932,
      0.044140167,
      0.030259122,
      0.052447682,
      0.044771842,
      -0.049936667,
      -0.03814969,
      -0.009024449,
      -0.036304161,
      0.038815985,
      -0.042259516,
      -0.027277968,
      -0.054013839,
      -0.031743447,
      0.045980893,
      0.045774985,
      0.040017278,
      0.043163687,
      0.049707409,
      -0.014315946,
      0.024595093,
      0.049805332,
      0.018497913,
      0.05588516,
      0.028995508,
      0.034751653,
      -0.019564576,
      0.026823157,
      0.006423038,
      -0.013349184,
      -0.031510037,
      -0.031365945,
      -0.043014624,
      0.037527172,
      0.0397468,
      -0.006360881,
      -0.032349196,
      0.043202975,
      0.035745215,
      0.004157804,
      -0.026392585,
      0.05138511,
      0.022863145,
      -0.042443083,
      0.05349843,
      0.042449278,
      -0.020378833,
      0.03142548,
      -0.031754248,
      -0.008752076,
      0.047464094,
      0.002311865,
      -0.039534143,
      -0.018688696,
      -0.015179321,
      -0.010784687,
      0.005355947,
      0.051692985,
      0.002993233,
      -0.034513177,
      0.00286167,
      0.026801569,
      0.027723655,
      -0.051084554,
      -0.009999586,
      -0.041543162,
      -0.023854344,
      0.020139276,
      -0.039697666,
      0.020779299,
      0.047449296,
      0.003677291,
      -0.037257525,
      -0.020026073,
      0.012213055,
      -0.042620039,
      0.027769566,
      -0.050751789,
      -0.053727106,
      -0.054306855,
      -0.011339342,
      0.037588878,
      -0.052912981,
      0.046464773,
      -0.022360576,
      0.016378391,
      0.002557529,
      -0.050404985
     ],
     [
      0.04636208,
      0.030100144,
      0.055562314,
      0.028236835,
      -0.036902225,
      0.046657246,
      0.00300284,
      0.026507853,
      -0.044822749,
      -0.016078118,
      -0.054890836,
      -0.021781149,
      0.012056042,
      -0.043894087,
      0.017807389,
      0.030003133,
      0.007788844,
      -0.037400159,
      -0.04334126,
      -0.017254601,
      0.02454715,
      0.055142601,
      0.032132064,
      -0.006299993,
      0.019601424,
      -0.054839643,
      -0.047749622,
      0.026064811,
      -0.031650491,
      0.026891509,
      -0.03947578,
      -0.027694338,
      -0.046044331,
      0.029173235,
      -0.005699185,
      0.043005262,
      0.034613757,
      0.030928167,
      0.001785725,
      -0.017288685,
      -0.012153399,
      0.007429583,
      0.027706007,
      -0.039169134,
      0.046933217,
      -0.006082865,
      -0.046851999,
      -0.030249013,
      0.049464218,
      0.051127206,
      -0.051784477,
      0.039430838,
      0.028029793,
      0.033087156,
      0.047317185,
      -0.030129469,
      0.017653704,
      0.022878737,
      -0.016516521,
      0.018714412,
      -0.01607853,
      0.034560647,
      -0.015511443,
      -0.020839166,
      0.014073727,
      0.019828371,
      -0.02731281,
      0.004941066,
      0.032397401,
      -0.00555778,
      0.017011667,
      -0.013482882,
      0.019593853,
      -0.040494166,
      -0.032870551,
      -0.028371776,
      0.051384956,
      -0.015039396,
      -0.000154515,
      -0.027084312,
      0.055806649,
      0.054600236,
      -0.042154686,
      -0.045314575,
      -0.042371143,
      -0.000269001,
      -0.01424991,
      -0.036590892,
      -0.020049692,
      0.010565327,
      -0.029201532,
      0.012379095,
      -0.01281844,
      -0.027082596,
      0.007679846,
      0.045963839,
      -0.037793394,
      0.002599576,
      -0.020609453,
      0.054850604,
      -0.053026899,
      -0.053585213,
      0.055085518,
      -0.035369778,
      0.010718724,
      -0.004820895,
      -0.01177062,
      -0.012489529,
      0.035532386,
      0.002676342,
      -0.054425816,
      -0.033002235,
      -0.019056102,
      0.028133968,
      -0.036173094,
      0.052711425,
      -0.012440593,
      -0.010036028,
      0.043799529,
      0.028095736,
      0.04741194,
      0.03233685,
      -0.016958407,
      -0.037081198,
      -0.004152881,
      0.046264416,
      -0.018764093,
      -0.051841769,
      0.022915771,
      0.054409116,
      -0.015933509,
      -0.046295442,
      -0.050693403,
      0.014012185,
      -0.004236213,
      -0.028229362,
      0.011296615,
      0.021202958,
      0.044412109,
      0.043387942,
      -0.008371747,
      -0.049322167,
      -0.050526003,
      0.052193186,
      0.024706375,
      0.024333643,
      -0.048413306,
      0.051774722,
      0.05293993,
      0.050430675,
      -0.047176453,
      -0.021098064,
      -0.03845469,
      0.052899346,
      -0.024056511,
      -0.025514424,
      0.029257895,
      -0.025896856,
      -0.027557813,
      -0.00489661,
      -0.005383834,
      -0.043583295,
      0.046579207,
      -0.024652296,
      0.019794957,
      0.048585522,
      0.028167968,
      0.007909962,
      0.047551761,
      0.007479256,
      -0.025878826,
      0.0528804,
      0.01319508,
      -0.054581819,
      -0.015935026,
      -0.03808362,
      0.049005121,
      -0.009258583,
      -0.050969758,
      -0.003525685,
      0.035091907,
      0.014495658,
      0.017660865,
      0.005187389,
      0.020839846,
      -0.013630236,
      -0.022251546,
      -0.052261761,
      -0.042122036,
      0.024213759,
      -0.03310785,
      0.008019406,
      0.017844079,
      0.00395895,
      -0.036244055,
      0.053461549,
      -0.032502386,
      0.045985448,
      -0.04447102,
      -0.01344731,
      0.030409467,
      -0.022838288,
      0.046959437,
      -0.038471708,
      -0.04693739,
      -0.025204703,
      0.009028997,
      0.051468643,
      -0.026686672,
      0.019994993,
      -0.014017,
      -0.012134612,
      0.041122046,
      -0.04332843,
      0.005925143,
      0.052565612,
      -0.00768063,
      0.043407577,
      -0.017218616,
      0.044980009,
      -0.054052429,
      -0.008063323,
      -0.009830063,
      0.018109933,
      0.02193311,
      0.04292394,
      -0.008330242,
      -0.002222901,
      0.038302703,
      -0.015132992,
      0.048992437,
      -0.037225501,
      -0.006047378,
      -0.003000717,
      0.024939445,
      0.038225682,
      -0.008847019,
      -0.04632092,
      0.02768597,
      0.016719152,
      0.022456884,
      -0.034481103,
      0.035971365,
      0.05295417,
      0.004863344,
      -0.05222299,
      0.039234325,
      -0.041450982,
      0.012851071,
      0.008124526,
      -0.026167153,
      0.019468865,
      -0.049993406,
      0.012726309,
      -0.035443013,
      -0.006045498,
      0.007192149,
      0.047625666,
      -0.026672681,
      0.035814484,
      -0.007096858,
      -0.026544877,
      -0.048677007,
      -0.051290013,
      0.054594941,
      -0.01394552,
      0.002783513,
      0.015153867,
      0.038001366,
      0.047712889,
      0.045339539,
      -0.041416826,
      -0.008955985,
      -0.03308441,
      -0.031949663,
      0.01325923,
      0.052464009,
      -0.04478459,
      0.033833749,
      -0.028985183,
      -0.010888069,
      0.044368647,
      -0.012647175,
      0.005085602,
      -0.039091001,
      0.047586926,
      -0.007231195,
      -0.040888989,
      0.016368497,
      -0.039750833,
      -0.044364047,
      0.003400443,
      0.044318241,
      -0.015816895,
      0.026304606,
      0.048035984,
      0.037077067,
      -0.029326781,
      -0.006128527,
      -0.017599328,
      -0.044951057,
      2.1792e-05,
      0.042056656,
      0.047095794,
      0.005214788,
      0.012693696,
      -0.024202419,
      0.042186668,
      -0.023262427,
      -0.038841299,
      0.008600185,
      0.033503552,
      -0.05039918,
      0.050533105,
      0.020105022,
      -0.039163494,
      -0.0120383,
      0.048493382,
      -0.042895189,
      -0.016338861
     ],
     [
      0.018331186,
      -0.048975851,
      0.030649222,
      0.02911289,
      0.034685084,
      -0.035623721,
      0.055682783,
      -0.033139656,
      0.055805,
      -0.053653674,
      -0.049816609,
      0.034320569,
      0.005831937,
      0.003222594,
      -0.03094992,
      -0.023454761,
      -0.016348649,
      -0.054461721,
      0.002897811,
      0.009878099,
      -5.0555e-05,
      0.018050351,
      0.053048818,
      0.014860325,
      -0.020467615,
      -0.023008395,
      -0.035767299,
      -0.038752992,
      -0.009004423,
      -0.009890577,
      0.024870836,
      -0.02389802,
      0.044561901,
      -0.039223848,
      0.000167443,
      0.050261181,
      0.055587767,
      -0.032377051,
      0.009967515,
      0.006607916,
      -0.02621368,
      -0.019321029,
      0.015139817,
      -0.038877808,
      0.009214629,
      0.024192122,
      -0.022023594,
      0.046440685,
      -0.003683371,
      0.025349672,
      0.055348301,
      -0.017096825,
      0.030368126,
      -0.015994601,
      -0.008162248,
      -0.009469966,
      -0.000350982,
      -0.021122514,
      0.013099735,
      0.00210403,
      0.035430631,
      -0.011319415,
      0.00560218,
      -0.020796442,
      -0.04681663,
      0.02262022,
      0.00715282,
      -0.022388198,
      -0.018900381,
      0.014620115,
      -0.010108968,
      0.036528299,
      0.003164838,
      0.021114458,
      0.024349447,
      -0.013730369,
      0.024166445,
      0.041247708,
      0.002577651,
      0.010937569,
      0.002029691,
      0.038702271,
      -0.023601436,
      -0.029714684,
      0.024365326,
      -0.048654253,
      0.000901134,
      -0.025710384,
      0.036895602,
      -0.0520462,
      0.033899025,
      0.055313731,
      0.011313479,
      -0.003730231,
      0.055025669,
      -0.023890604,
      -0.004481085,
      -0.024477019,
      -0.007711813,
      0.012148465,
      0.007458803,
      -0.010563611,
      -0.055891781,
      0.002864543,
      -0.001657599,
      0.008405907,
      0.042825546,
      0.054318056,
      -0.033181679,
      -0.003494375,
      -0.022403145,
      -0.051522106,
      -0.040679968,
      0.052454252,
      0.032581592,
      0.030021092,
      0.031065367,
      -0.044414153,
      0.005868489,
      0.052031104,
      -0.031199561,
      0.049728021,
      0.014694188,
      0.039332113,
      -0.023947307,
      0.025771802,
      -0.049556191,
      -0.00354805,
      0.018645147,
      0.016783616,
      0.046810258,
      0.054971725,
      0.050884637,
      0.037547724,
      0.039301955,
      -0.007216659,
      -0.043382837,
      -0.020737334,
      -0.006263291,
      -0.030191603,
      0.028597077,
      0.01965344,
      0.009018795,
      0.013499062,
      0.049101746,
      0.020348216,
      -0.049030573,
      -0.040579932,
      0.024650812,
      0.007642556,
      0.027265208,
      -0.05583509,
      -0.051599442,
      0.034259099,
      0.035739425,
      -0.050583004,
      0.021232079,
      -0.043639942,
      0.042337919,
      0.017540144,
      0.055274698,
      -0.055094898,
      -0.053796684,
      0.037813535,
      0.049649666,
      0.034267106,
      0.037179323,
      -0.047081523,
      0.040485086,
      -0.052732897,
      0.012519013,
      -0.036600303,
      -0.022176645,
      0.009924259,
      -0.021958617,
      -0.008838895,
      -0.052966416,
      -0.052674076,
      0.02168308,
      -0.023648189,
      -0.033994423,
      -0.022033869,
      -0.045685005,
      -0.044678777,
      0.033452576,
      0.028422773,
      0.007454519,
      -0.03053818,
      0.01859479,
      0.002513623,
      -0.039944473,
      0.012032461,
      0.050898794,
      -0.054987719,
      -0.055593251,
      0.007159225,
      0.042095188,
      -0.034012928,
      0.012308053,
      0.039295518,
      0.017233211,
      0.012095646,
      0.055768015,
      0.036415595,
      -0.031442706,
      0.004842362,
      0.028573406,
      0.049298088,
      -0.055620496,
      0.030269374,
      -0.016231782,
      -0.054741366,
      0.012411382,
      -0.03042389,
      0.007938904,
      -0.036295525,
      -0.042069619,
      -0.004744458,
      -0.0187813,
      0.032694058,
      0.004817267,
      0.043638298,
      0.010481753,
      -0.017978065,
      0.037862477,
      0.00305235,
      0.010488471,
      -0.017989825,
      0.000191585,
      -0.010751073,
      -0.004751717,
      -0.043593512,
      -0.00034812,
      -0.046412105,
      -0.012030944,
      0.032392648,
      -0.038876191,
      -0.037682787,
      -0.013644164,
      -0.015319425,
      0.009459377,
      0.009271466,
      0.028350106,
      -0.038507657,
      -0.003944777,
      0.031264581,
      0.048360092,
      -0.00407177,
      -0.03234816,
      0.016067294,
      0.031837612,
      -0.034923245,
      -0.03244273,
      0.024705721,
      -0.003916751,
      -0.05279743,
      -0.032237257,
      0.022668833,
      -0.018960073,
      0.038585418,
      0.044191398,
      0.008127157,
      -0.004424165,
      -0.017749727,
      -0.002829872,
      0.010180575,
      -0.042696873,
      -0.013360949,
      -0.0465041,
      0.034307692,
      -0.035605353,
      0.0510622,
      -0.014416096,
      -0.032029821,
      0.026852818,
      0.008331003,
      0.03870982,
      0.023335943,
      -0.053857074,
      0.035350957,
      -0.010533521,
      -0.024716827,
      0.035495502,
      0.040766405,
      -0.049140111,
      -0.005063306,
      0.045906392,
      0.02164607,
      0.047089745,
      -0.019156884,
      -0.030838151,
      0.048066716,
      0.023297365,
      0.05366069,
      -0.023346574,
      -0.035895359,
      -0.006554243,
      -0.052627125,
      0.021913999,
      0.041225918,
      0.013411374,
      -0.005525973,
      0.027714841,
      -0.03548587,
      0.054688839,
      -0.055582227,
      -0.053549534,
      -0.013209142,
      0.045665821,
      0.005601323,
      0.02146727,
      -0.040974386,
      0.02038104,
      -0.006253198,
      0.022406685,
      0.039480796,
      0.02429586,
      -0.00476156,
      -0.003445257,
      -0.035060027
     ],
     [
      -0.020217363,
      0.036330998,
      -0.022406641,
      0.034732502,
      -0.022155329,
      -0.013012182,
      0.001188825,
      -0.051299467,
      -0.000556038,
      -0.005633977,
      -0.005022949,
      -0.011179981,
      0.044067973,
      0.041260178,
      -0.037892844,
      0.025963992,
      -0.043846253,
      -0.047589295,
      0.017087239,
      0.000821529,
      -0.026080461,
      -0.053913756,
      -0.021646194,
      0.018666879,
      -0.051740434,
      -0.054302054,
      0.007095028,
      -0.040274108,
      -0.048969585,
      -0.021524603,
      -0.008995981,
      -0.050801318,
      -0.03732396,
      0.003668568,
      -0.052719826,
      -0.007865218,
      -0.036104307,
      -0.038746937,
      0.021980252,
      -0.043027894,
      -0.042360686,
      0.031888365,
      0.010460604,
      0.050916599,
      -0.014941102,
      -0.027001412,
      -0.005161334,
      0.00028393,
      0.042635189,
      -0.055675236,
      -0.003968077,
      0.024739277,
      -0.03077996,
      -0.02840339,
      0.027020003,
      -0.053563114,
      0.01324797,
      -0.043276209,
      0.027790185,
      -0.047795522,
      0.034365464,
      -0.052915204,
      -0.046985354,
      0.000825568,
      0.04405079,
      -0.047872792,
      -0.024933301,
      0.049102212,
      -0.009372644,
      0.023160324,
      -0.053777615,
      -0.017579804,
      -0.028387961,
      0.047128333,
      0.023197258,
      -0.040795826,
      0.009009743,
      -0.000638384,
      -0.02297106,
      -0.031924092,
      -0.01854938,
      0.04406318,
      -0.040072044,
      -0.039816665,
      -0.017245919,
      0.000977913,
      0.015219487,
      0.001677093,
      -0.01345589,
      -0.033892058,
      -0.010026586,
      -0.022504132,
      0.045163465,
      -0.054411515,
      -0.035655162,
      -0.045482672,
      -0.010214603,
      0.043567423,
      0.049000037,
      -0.04866564,
      -0.002422363,
      0.032819607,
      0.024646125,
      0.045788271,
      -0.001549186,
      -0.037553569,
      0.036990819,
      -0.019158879,
      0.028954101,
      -0.013773817,
      0.023772074,
      0.050279313,
      0.051981189,
      -0.050871183,
      -0.036973749,
      -0.023108768,
      -0.035649745,
      0.053631873,
      -0.004935374,
      -0.037082007,
      -0.024875085,
      -0.030877568,
      0.022809198,
      -0.048761812,
      -0.052127543,
      -0.055102627,
      0.024070595,
      0.027641215,
      -0.034714034,
      0.013875196,
      0.041285374,
      0.008131498,
      -0.011823945,
      0.004123547,
      -0.005997346,
      0.028147443,
      -0.037951297,
      0.028361854,
      0.031505825,
      -0.033873929,
      0.045653912,
      0.054897839,
      -0.02205109,
      -0.015658792,
      0.027860793,
      -0.043807471,
      0.022093545,
      0.01304785,
      0.03524187,
      -0.048572347,
      -0.04645644,
      0.025103412,
      0.020132093,
      -0.052038879,
      -0.031167853,
      -0.05115069,
      -0.04005428,
      -0.025221639,
      0.046247368,
      -0.011132716,
      0.032099255,
      0.053071575,
      0.0254559,
      -0.05006062,
      0.028131781,
      0.021331844,
      0.043323505,
      -0.055147713,
      0.034375916,
      0.045758749,
      -0.052022801,
      0.005822122,
      0.047708824,
      -0.040646613,
      0.018346097,
      0.024699767,
      0.014656002,
      0.055596036,
      0.045770622,
      0.047953895,
      -0.00696629,
      0.046890268,
      -0.052090477,
      -0.03016603,
      -0.011952974,
      -0.016598176,
      0.051637551,
      0.026366932,
      0.035992899,
      0.038032876,
      -0.041753148,
      -0.006473305,
      0.008164279,
      0.014540651,
      0.028746871,
      -0.022242936,
      -0.016855051,
      0.046778402,
      -0.015004429,
      -0.038831413,
      0.037904796,
      0.03785321,
      -0.017530657,
      -0.011178844,
      -0.041246227,
      -0.04667267,
      0.021018985,
      -0.023883865,
      0.044504078,
      -0.044759039,
      -0.007729127,
      0.001200712,
      0.028732645,
      0.04525364,
      0.037853133,
      0.024602934,
      -0.025657067,
      -0.039918003,
      -0.050017445,
      0.002767136,
      0.05421384,
      -0.010614602,
      -0.002356447,
      -0.040629265,
      0.017165255,
      0.035443135,
      -0.055117838,
      -0.039365366,
      0.041405735,
      0.013244863,
      -0.003476648,
      0.009988937,
      -0.008496701,
      -0.039069316,
      -0.052232362,
      0.03676808,
      -0.006652786,
      -0.020759937,
      -0.014414501,
      -0.030491364,
      -0.016556476,
      -0.047985885,
      0.04183444,
      0.022824909,
      -0.028197826,
      -0.019080474,
      0.025083649,
      -0.020700624,
      0.014741674,
      0.015393377,
      -0.035186579,
      0.014003931,
      0.003418792,
      0.048826401,
      -0.020222406,
      -0.014369112,
      0.048168928,
      -0.045645784,
      0.004043419,
      0.053863367,
      -0.025063533,
      0.05359362,
      0.049606503,
      0.052009893,
      -0.005329216,
      0.050582702,
      -0.024351402,
      -0.019139375,
      0.021143527,
      0.011808216,
      0.030817331,
      0.053125542,
      -0.034989504,
      0.029671557,
      0.018698016,
      0.029491443,
      0.026510457,
      -0.020908564,
      -0.044181072,
      0.044742814,
      -0.031875108,
      0.035741897,
      -0.053243453,
      -0.009666554,
      0.000591956,
      0.009677234,
      0.004523888,
      0.017614975,
      -0.006222929,
      0.013699641,
      0.055323502,
      -0.036175331,
      -0.0030496,
      -0.021333984,
      0.049049149,
      0.047854644,
      -0.001522732,
      -0.019374688,
      -0.034537795,
      0.039998681,
      -0.003849534,
      0.052650981,
      0.031879755,
      0.048930653,
      0.044218286,
      -0.036316758,
      0.016363671,
      -0.023177897,
      0.02805306,
      -0.005026664,
      0.004845028,
      -0.038658747,
      -0.049956959,
      0.021058858,
      0.012995931,
      0.004857609,
      0.037968603,
      -0.023335383,
      0.019852473,
      -0.030785287
     ],
     [
      0.011582171,
      -0.012761752,
      0.039150091,
      0.048880668,
      0.048545043,
      0.002507251,
      0.032962594,
      -0.055851147,
      -0.032792469,
      0.009988787,
      0.000315051,
      -0.043883305,
      -0.024739791,
      -0.026110894,
      -0.05538959,
      0.005332753,
      0.038107228,
      0.022686476,
      -0.026556524,
      -0.051327676,
      -0.045100252,
      0.001042211,
      0.038450057,
      -0.022641129,
      -0.03041915,
      -0.029822817,
      -0.004838059,
      -0.053078613,
      -0.049333791,
      0.055033712,
      -0.026661786,
      -0.010083458,
      -0.01495702,
      -0.049112353,
      -0.009859149,
      0.017115695,
      -0.022701735,
      -0.002377769,
      -0.000263594,
      -0.055652681,
      0.040623994,
      0.045150732,
      0.038105599,
      -0.018368588,
      0.029205865,
      -0.052375786,
      -0.01383009,
      -0.011370914,
      -0.019742138,
      0.02347913,
      -0.025475202,
      -0.006488244,
      -0.016144502,
      -0.052494839,
      -0.009229739,
      -0.047375933,
      0.032595952,
      0.02987731,
      0.052368622,
      -0.018773001,
      0.002843791,
      0.010949018,
      0.055800937,
      0.05124038,
      -0.028931591,
      -0.047566637,
      -0.050382892,
      -0.026920249,
      0.047001765,
      0.018774506,
      0.053937789,
      0.041436784,
      0.000810061,
      -0.034646602,
      0.054591329,
      0.044847786,
      0.02420927,
      -0.030532141,
      0.044037226,
      0.00508937,
      0.036963847,
      0.023329889,
      0.029685651,
      -0.049051689,
      -0.030995221,
      0.033525761,
      -0.011651823,
      -0.048635031,
      0.050836821,
      -0.001209783,
      0.045091389,
      -0.043696535,
      0.019241646,
      -0.021059881,
      -0.023524441,
      -0.01165919,
      -0.020691998,
      0.030629905,
      -0.010629761,
      0.042379875,
      0.012746588,
      -0.008642991,
      -0.032286671,
      -0.051187446,
      -0.016307985,
      -0.051767822,
      -0.010357381,
      0.000913294,
      -0.003606929,
      -0.027457886,
      0.038803157,
      0.031483185,
      -0.013772929,
      -0.022085805,
      0.035148456,
      0.04863497,
      -0.051186046,
      -0.012075667,
      -0.005187228,
      -0.020241425,
      0.047723572,
      -0.008257209,
      0.047395779,
      0.000275972,
      -0.006061023,
      -0.032610037,
      -0.018586912,
      0.018013814,
      0.024726671,
      -0.001989799,
      0.053254745,
      -0.038702161,
      0.021422271,
      0.050345999,
      -0.009715476,
      0.044382107,
      0.000918914,
      -0.041867464,
      -0.030670092,
      0.020796559,
      -0.024200324,
      0.013443063,
      0.055026396,
      0.018993918,
      -0.005236251,
      0.013982642,
      -0.032198201,
      -0.046976651,
      -0.042016041,
      -0.046910255,
      0.011467989,
      0.010893033,
      -0.023760591,
      -0.054655604,
      0.030301236,
      -0.031713458,
      -0.009319642,
      -0.046869271,
      -0.031540677,
      0.023319258,
      -0.052083133,
      -0.031867905,
      0.041930745,
      -0.028648274,
      -0.023248501,
      -0.015693628,
      0.023891768,
      -0.036671266,
      0.0056005,
      0.022814583,
      -0.00406795,
      0.010120854,
      -0.042638892,
      0.025273298,
      0.020891668,
      -0.007013792,
      -0.046228505,
      0.022342503,
      0.036458322,
      -0.0097837,
      0.026342741,
      0.02071859,
      -0.022361815,
      -0.00388303,
      0.055644722,
      0.000257213,
      -0.0445166,
      -0.00408174,
      0.027808359,
      -0.018252627,
      -0.029276678,
      0.046050962,
      0.029572294,
      -0.009496955,
      0.002857994,
      -0.005911252,
      0.012977915,
      0.001985966,
      -0.033829662,
      0.010359149,
      0.001461709,
      0.003613472,
      -0.021298545,
      0.014326485,
      -0.04519967,
      0.016711535,
      0.030290075,
      -0.006150117,
      -0.043424729,
      -0.00020528,
      8.0785e-05,
      -0.048305372,
      -0.039539847,
      0.051706733,
      0.041795814,
      0.030979966,
      0.038726177,
      0.021514986,
      0.031462877,
      0.037023799,
      -0.01306506,
      -0.007099341,
      0.039858663,
      -2.1222e-05,
      -0.036374676,
      -0.043351887,
      0.031260644,
      0.04630244,
      0.043409315,
      0.009308046,
      0.038589758,
      -0.051327203,
      -0.040275253,
      -0.053790942,
      0.04503791,
      -0.000508651,
      -0.025737758,
      0.018918605,
      -0.020924727,
      -0.035853535,
      0.021561217,
      0.010237649,
      -0.040032634,
      -0.036823518,
      0.026211763,
      0.042508325,
      0.004551814,
      -0.028079349,
      0.026993215,
      0.009749509,
      -0.04894215,
      -0.036229374,
      0.012236085,
      0.034590377,
      -0.01795987,
      0.027030776,
      -0.034621582,
      0.053493521,
      0.039830536,
      0.010468081,
      0.024868218,
      0.019460377,
      -0.032987237,
      -0.000487433,
      0.014905258,
      -0.012620102,
      0.053602485,
      -0.021559688,
      -0.049925329,
      -0.02661163,
      -0.051880017,
      0.046066324,
      -0.025096529,
      -0.039333793,
      -0.00604082,
      -0.037665468,
      -0.029200317,
      0.028495543,
      -0.041972112,
      0.026364308,
      0.040763681,
      -0.000122463,
      0.024821986,
      -0.031317259,
      0.04359642,
      0.054302837,
      0.013284152,
      0.050944384,
      -0.055518414,
      -0.006134776,
      0.011107889,
      -0.04858592,
      0.027197894,
      -0.02130892,
      -0.020217292,
      -0.044353864,
      0.022854586,
      -0.040679594,
      -0.011863933,
      0.02483567,
      0.042112286,
      0.012643059,
      -0.020851645,
      -0.024315567,
      0.031374451,
      0.010367441,
      0.047056154,
      0.021048309,
      0.04502877,
      -0.045048127,
      0.044936744,
      -0.025687614,
      -0.014965154,
      0.000334053,
      -0.010485432,
      0.011056499,
      0.049813218,
      -0.033404102,
      0.017270138,
      -0.044928857
     ],
     [
      0.008783572,
      0.046057729,
      0.037696577,
      0.047870405,
      0.030253487,
      -0.004631717,
      0.01460068,
      -0.023349186,
      0.047456543,
      0.027996018,
      -0.0409099,
      0.048339514,
      -0.000831214,
      -0.002491907,
      -0.015301781,
      -0.014741304,
      0.002804072,
      -0.027283035,
      -0.051993818,
      -0.028790482,
      -0.011116944,
      0.042209225,
      0.041115251,
      -0.033490764,
      -0.002140182,
      -0.016126153,
      -0.029900834,
      -0.009825803,
      -0.019388962,
      0.03124536,
      -0.027728096,
      0.008601841,
      -0.031539439,
      -0.017440536,
      0.044006843,
      -0.027441093,
      -0.003352389,
      0.053385478,
      0.019130415,
      -0.028452128,
      -0.033556737,
      -0.019593429,
      -0.017498321,
      0.024342234,
      -0.012424666,
      0.047147756,
      -0.030671742,
      -0.017476949,
      0.020359193,
      0.04465715,
      0.05348895,
      0.008955871,
      0.00236213,
      -0.025042178,
      0.031587215,
      -0.032398979,
      -0.014687228,
      -0.046716549,
      -0.053731431,
      0.031251067,
      0.00380085,
      0.044567368,
      0.044487931,
      0.029340306,
      0.022374156,
      -0.014504967,
      0.029692487,
      0.026881833,
      0.019350732,
      -0.001614482,
      0.00835286,
      0.000251956,
      -0.04056682,
      0.012979719,
      -0.041092103,
      0.027128735,
      -0.033302503,
      -0.018260416,
      -0.026512277,
      0.044128485,
      -0.039364398,
      0.028548824,
      0.028041658,
      0.039535729,
      0.014015123,
      0.030476359,
      0.044189984,
      0.011016835,
      0.019010307,
      -0.043706234,
      -0.014989872,
      0.00507246,
      0.006784099,
      -0.019742122,
      -0.055414785,
      -0.014535925,
      0.021404141,
      0.048140885,
      -0.050476011,
      0.026699422,
      -0.053025631,
      -0.053452599,
      -0.035003329,
      -0.007382818,
      0.015616131,
      -0.042506757,
      0.043077669,
      0.050563316,
      0.003452676,
      0.045510198,
      -0.025303268,
      -0.022113226,
      -0.007210934,
      0.006116445,
      -0.038986092,
      -0.044750453,
      0.022089788,
      0.016121735,
      0.054687698,
      -0.022790278,
      0.01974389,
      -0.0225553,
      0.027600896,
      -0.003095053,
      0.041440166,
      0.031058278,
      0.046531019,
      0.028729536,
      0.002104502,
      0.048171477,
      -0.0328474,
      0.052705151,
      0.054608485,
      0.053397897,
      -0.026104279,
      -0.029611913,
      0.003538533,
      0.017395099,
      0.028017365,
      0.022706346,
      0.047572015,
      -0.014020886,
      -0.018333316,
      0.01874877,
      0.015577518,
      -0.032617351,
      0.005392353,
      -0.042465688,
      -0.016438196,
      -0.021971771,
      0.048995647,
      -0.050313626,
      -0.033006977,
      -0.054715276,
      0.014088811,
      -0.04305387,
      0.018048195,
      -0.038858946,
      -0.035821583,
      -0.028557515,
      0.008387672,
      0.051348044,
      0.052337093,
      -0.00425152,
      -0.054787473,
      -0.018499929,
      -0.02131687,
      -0.011890772,
      0.021362398,
      0.028115796,
      0.024749541,
      0.015930983,
      -0.02266136,
      -0.000614014,
      0.007105187,
      -0.028553193,
      -0.004994455,
      -0.006983358,
      -0.05284062,
      0.03786534,
      -0.005669993,
      -0.048339372,
      0.044222713,
      -0.03007719,
      0.019796721,
      0.055441054,
      0.002581992,
      0.016069811,
      0.022198784,
      0.042246004,
      -0.017151021,
      -0.031453344,
      -0.004371032,
      0.043721753,
      0.004810143,
      0.038842954,
      -0.000417243,
      0.017149875,
      0.001947405,
      0.001522841,
      -0.053193519,
      -0.048866375,
      0.00465178,
      0.027669343,
      0.037549355,
      0.002415908,
      0.023560561,
      0.023388029,
      -0.048253516,
      -0.049128157,
      -0.043339272,
      0.00096414,
      -0.035346933,
      -0.017899332,
      -0.008372559,
      0.021814191,
      0.012965137,
      0.051863576,
      0.050423283,
      -0.035657411,
      -0.000170392,
      0.009226023,
      0.048796528,
      -0.017326919,
      -0.021965273,
      -0.035406755,
      0.041192876,
      -0.015831683,
      -0.020928767,
      0.037803967,
      0.051434488,
      -0.002357657,
      -0.039400808,
      0.045554721,
      -0.019114503,
      -0.025757938,
      -0.039298756,
      -0.026888066,
      -0.043784271,
      -0.032266286,
      -0.050919971,
      -0.011261154,
      0.022481441,
      -0.042436981,
      -8.076e-05,
      -0.020616438,
      0.027036254,
      0.048419236,
      -0.007406746,
      -0.028131935,
      -0.042948283,
      -0.032844189,
      0.016137912,
      0.012825066,
      0.030106958,
      -0.008303892,
      0.028732625,
      -0.049796613,
      0.015033137,
      0.054272544,
      -0.055321758,
      -0.029014586,
      0.035794299,
      -0.008730941,
      -0.029790286,
      0.034107883,
      0.00374968,
      0.002189857,
      -0.016976504,
      0.042124227,
      0.031017659,
      0.010025322,
      0.008538712,
      0.028912517,
      0.034830109,
      -0.022924455,
      -0.006120124,
      0.024545292,
      -0.02708028,
      0.052282547,
      -0.038285469,
      0.025803035,
      -0.040145438,
      0.017951115,
      0.039046606,
      0.006741281,
      -0.005599434,
      0.035556161,
      -0.040131326,
      -0.037707856,
      -0.047639264,
      -0.034404382,
      0.001456189,
      -0.025345936,
      0.012455838,
      0.001891708,
      0.046533874,
      -0.024234615,
      -0.015288138,
      0.036977684,
      -0.01413074,
      0.053522899,
      -0.022200341,
      -0.000606609,
      -0.013233412,
      0.026089863,
      0.021426538,
      -0.029764969,
      0.036839634,
      -0.003550754,
      -0.01413301,
      -0.001121667,
      0.038914244,
      0.054845526,
      0.027206904,
      0.009785231,
      0.036482356,
      -0.023372745,
      -0.02920759,
      -0.016136592
     ],
     [
      -0.036181751,
      0.024033897,
      0.005307621,
      -0.019133542,
      -0.005682907,
      -0.001116873,
      0.047928054,
      0.049898381,
      -0.043036938,
      0.020485646,
      0.021582531,
      0.021371415,
      -0.007628189,
      0.013964966,
      0.014056947,
      0.054403536,
      -0.053578529,
      -0.021214729,
      -0.037607283,
      -0.027112671,
      0.010979692,
      0.03409734,
      -0.04227074,
      0.036359182,
      0.046694191,
      -0.027556021,
      0.009757027,
      -0.028694842,
      0.01197774,
      -0.025906745,
      -0.021759611,
      -0.037416741,
      -0.046617224,
      0.044608839,
      -0.007060829,
      -0.001540491,
      -0.027822597,
      0.038959623,
      -0.031987202,
      -0.022604994,
      -0.043638449,
      -0.047009978,
      0.049616106,
      -0.043159677,
      -0.007721433,
      -0.016186318,
      0.020480058,
      0.01495394,
      -0.042854355,
      0.050204836,
      -0.055693836,
      0.005514702,
      -0.004684787,
      -0.012960661,
      0.038096142,
      0.047198479,
      0.00728123,
      -0.01974468,
      0.04156164,
      0.035120512,
      0.010037967,
      -0.015293294,
      0.002354511,
      0.04982402,
      0.00606191,
      -0.011016898,
      -0.047329281,
      -0.029956755,
      0.040373097,
      -0.00197147,
      -0.003724664,
      0.02176502,
      -0.036779745,
      -0.003777307,
      -0.015726804,
      0.029242688,
      0.045496479,
      0.035096364,
      0.04167669,
      -0.049960507,
      -0.01984635,
      0.00661913,
      -0.047482372,
      0.01516239,
      -0.036639538,
      0.023960811,
      0.04524765,
      -0.047822075,
      0.046842307,
      0.026083357,
      -0.036896043,
      0.053500126,
      -0.048414443,
      -0.037635486,
      -0.027807651,
      -0.002832568,
      0.010038014,
      -0.016406611,
      -0.052996949,
      -0.00646054,
      0.042411267,
      0.043028932,
      0.027981484,
      0.00811714,
      0.013889877,
      -0.043097403,
      0.022618535,
      -0.05564573,
      -0.023104375,
      -0.014707867,
      0.04104698,
      -0.001628376,
      -0.025463807,
      0.009770422,
      -0.046384785,
      -0.014800056,
      0.015477176,
      -0.003697843,
      -0.005865429,
      0.03416669,
      -0.042464785,
      -0.02822625,
      0.054111398,
      0.011124544,
      -0.009050651,
      0.028954799,
      0.03362884,
      -0.009341372,
      -0.023286819,
      -0.009133017,
      0.020312017,
      -0.007128024,
      0.032540841,
      -0.045580027,
      -0.027430432,
      0.042614915,
      0.007329885,
      0.011254445,
      0.018387851,
      -0.013207522,
      -0.022370262,
      0.016016398,
      -0.014823391,
      -0.023095421,
      0.007380619,
      0.013528934,
      -0.005033302,
      -0.037809827,
      -0.008470159,
      -0.031695985,
      0.029411677,
      -0.037046919,
      0.044569889,
      0.022280626,
      -0.047848274,
      0.04149245,
      -0.055268497,
      -0.00323446,
      -0.03489482,
      -0.048095968,
      0.005539265,
      -0.027084421,
      0.040429692,
      -0.043933457,
      0.046420659,
      0.033756858,
      0.048976717,
      -0.016365461,
      -0.034268478,
      -0.037131348,
      0.046515791,
      -0.02777431,
      -0.006859329,
      -0.008591666,
      0.009632087,
      -0.045866901,
      0.045069826,
      -0.041377494,
      0.054966904,
      -0.021878376,
      -0.02495728,
      -0.007673661,
      0.016557269,
      -0.010357049,
      -0.055795089,
      0.039312282,
      0.055358775,
      0.028197528,
      0.054700504,
      0.015237141,
      -0.004380527,
      -0.044525805,
      -0.048858818,
      -0.038489515,
      -0.014179612,
      0.032557475,
      -0.023055305,
      -0.002166637,
      -0.000787654,
      -0.036543046,
      -0.001513767,
      0.0539747,
      0.044682378,
      0.042580012,
      -0.005511943,
      0.000985272,
      0.03055347,
      -0.018597909,
      -0.022655696,
      0.047828375,
      0.00319675,
      -0.037742797,
      0.047104245,
      0.009267867,
      0.029904024,
      -0.048556215,
      0.010373537,
      0.034189984,
      -0.008061619,
      -0.031770585,
      0.044719118,
      0.025994149,
      0.01592878,
      0.013220086,
      0.001233654,
      0.032054408,
      -0.012221249,
      -0.032899486,
      0.021338078,
      0.014909396,
      0.021298193,
      -0.006203689,
      -0.007418367,
      -0.00444373,
      0.014727662,
      -0.042898917,
      -0.052114615,
      0.020919563,
      -0.03059891,
      -0.004698699,
      0.01549754,
      0.007842735,
      0.036033368,
      0.007325327,
      0.013832778,
      -0.005003992,
      0.00825757,
      0.020498701,
      0.038136582,
      -0.05296773,
      -0.023287987,
      -0.050167167,
      -0.022291397,
      0.034073993,
      -0.052967972,
      -0.050089432,
      0.032367183,
      -0.033011906,
      0.040859532,
      0.017425358,
      0.014038427,
      0.044413276,
      -0.051784505,
      0.040934683,
      0.018126864,
      -0.037463703,
      0.013596765,
      -0.01558482,
      -0.022434365,
      -0.006055006,
      -0.026354753,
      0.048880963,
      0.048112449,
      -0.005968603,
      -0.049578038,
      -0.003422044,
      0.003691729,
      0.037367804,
      0.001797783,
      0.016266925,
      0.014830686,
      -0.031720326,
      -0.034677207,
      -0.049965054,
      -0.000433641,
      0.017315477,
      -0.003983597,
      0.054258982,
      -0.010664878,
      -0.036477854,
      0.009307771,
      -0.015742895,
      -0.007658467,
      0.054163683,
      -0.001609468,
      0.048832689,
      0.007464839,
      -0.020797428,
      0.040981422,
      -0.03184333,
      0.001846892,
      0.012559187,
      0.025097307,
      -0.051571989,
      0.002738794,
      -0.014477828,
      0.036241056,
      0.018809812,
      0.02240391,
      0.033618603,
      -0.012503856,
      -0.003579763,
      0.044845873,
      -0.045059266,
      -0.038647717,
      0.00408202,
      -0.022147042,
      0.003200312,
      0.049379652,
      -0.006481261
     ],
     [
      -0.047664434,
      -0.02541252,
      0.051336687,
      -0.012288197,
      -0.024526606,
      0.025148041,
      0.006911067,
      -0.049290395,
      0.046556014,
      0.031485844,
      0.048603418,
      0.024480545,
      -0.018836269,
      -0.018239244,
      0.027093773,
      -0.010840011,
      0.010959346,
      -0.054167324,
      -0.027633783,
      0.020764811,
      -0.002756302,
      -0.026866107,
      -0.048756278,
      0.03552471,
      -0.011240874,
      -0.054927638,
      0.05392877,
      0.027192629,
      -0.033453348,
      -0.040799271,
      0.054019965,
      0.000228276,
      -0.033621203,
      0.032167214,
      -0.011643707,
      0.003823259,
      -0.029129768,
      -0.047350122,
      -0.037129522,
      -0.006143802,
      -0.040470425,
      0.055095612,
      0.000601759,
      -0.021408431,
      0.022089144,
      -0.049559387,
      -0.028598269,
      0.020992737,
      -0.047498125,
      0.027862661,
      0.004696391,
      -0.046619533,
      -0.055477986,
      0.017669329,
      0.026419221,
      -0.011177684,
      -0.049432009,
      -0.032218938,
      0.005937829,
      0.002033718,
      0.014315443,
      0.009884768,
      -0.002930918,
      0.029499763,
      0.054225125,
      0.046555327,
      0.050796068,
      -0.018868401,
      -0.019084215,
      -0.006186264,
      0.016520224,
      0.022627016,
      -0.004981774,
      -0.036106733,
      -0.042172246,
      0.05382472,
      -0.015023299,
      -0.007550876,
      -0.034258863,
      -0.027714707,
      0.012277686,
      0.023545056,
      -0.022102802,
      -0.020578894,
      0.04427563,
      -0.028791543,
      -0.041710538,
      -0.008722673,
      0.053191654,
      0.012161978,
      0.007727438,
      -0.006958093,
      0.034927045,
      -0.027706198,
      0.037903227,
      0.013204546,
      0.006215085,
      0.007697342,
      -0.034469968,
      0.041525549,
      0.029356115,
      -0.043724394,
      -0.05204837,
      -0.014392356,
      0.037138539,
      -0.027520092,
      0.051819045,
      -0.028103526,
      -0.050501348,
      0.02459481,
      -0.033783984,
      -0.00881356,
      -0.017436013,
      -0.004440203,
      -0.048708146,
      -0.051275554,
      0.024032516,
      -0.006331638,
      -0.03372419,
      -0.001425484,
      -0.051023548,
      0.014838675,
      0.026544347,
      0.054207957,
      -0.045544608,
      -0.006780774,
      0.030335127,
      0.051230861,
      -0.039773686,
      0.023751229,
      0.023065513,
      0.033673931,
      -0.038565774,
      0.039876472,
      -0.024353313,
      -0.034411386,
      0.011107302,
      0.04737037,
      -0.03700707,
      0.02984289,
      -0.006404667,
      0.017841899,
      0.043596921,
      0.015175735,
      -0.0463988,
      -0.016821815,
      0.011097295,
      -0.047153457,
      0.009306637,
      -0.030007089,
      -0.011123228,
      0.019995604,
      -0.044992287,
      -0.035897511,
      0.025479753,
      -0.05529632,
      0.038492389,
      -0.043091164,
      -0.000904929,
      0.011471218,
      0.022050633,
      -0.034713365,
      0.007489514,
      0.024062693,
      0.047956971,
      -0.042074807,
      -0.027798851,
      0.016280501,
      -0.001805609,
      -0.037750838,
      -0.047064903,
      -0.049636342,
      -0.039125016,
      -0.023810584,
      -0.038827077,
      -0.049045215,
      0.004356909,
      0.032769237,
      -0.026361222,
      0.005591796,
      -0.000692418,
      0.026121736,
      -0.038779804,
      0.002649401,
      0.052175955,
      0.03991052,
      -0.055391754,
      -0.008402622,
      0.000522539,
      -0.01846536,
      -0.036732069,
      -0.038899672,
      0.03714446,
      -0.018098254,
      -0.003597552,
      0.016401987,
      -0.034316876,
      0.004976527,
      0.033247081,
      -0.032686236,
      0.016263833,
      -0.001909266,
      0.030738691,
      0.037145623,
      0.014825821,
      0.001687318,
      -0.048122955,
      0.022254735,
      0.034080805,
      -0.020306821,
      -0.055508132,
      0.045295398,
      -0.013130744,
      0.011191247,
      -0.015714326,
      0.035646453,
      0.05451838,
      0.035040345,
      -0.017790085,
      0.039173602,
      0.027268781,
      0.005466409,
      -0.045022363,
      -0.024008668,
      -0.055308368,
      0.037388121,
      0.055262053,
      0.03255899,
      0.017859396,
      0.013215665,
      0.053811341,
      -0.02834531,
      -0.018767211,
      -0.050192719,
      -0.005534815,
      0.003827248,
      0.015303366,
      -0.038889376,
      -0.006475138,
      -0.046066447,
      -0.04547268,
      0.007287661,
      -0.054568633,
      0.014883918,
      -0.051493933,
      -0.038897594,
      -0.011605042,
      -0.053348897,
      0.045147697,
      0.045803228,
      -0.029200964,
      0.01171223,
      0.028603165,
      0.017762892,
      -0.007491142,
      -0.052728537,
      0.040647276,
      -0.049033003,
      -0.010355634,
      0.00346344,
      -0.018415349,
      -0.020450835,
      -0.048316967,
      0.003078486,
      -0.006346722,
      0.048736177,
      -0.018405162,
      0.04320154,
      0.002639852,
      -0.025117721,
      -0.013295822,
      -0.006345385,
      0.000582137,
      -0.009205544,
      0.016595566,
      0.046036019,
      0.008782468,
      0.020240834,
      0.034516624,
      0.0120476,
      0.025769137,
      0.029321435,
      0.052320449,
      -0.051021154,
      0.019130065,
      -0.002532434,
      -0.0100376,
      -0.021554935,
      0.033605782,
      0.051134861,
      -0.045626759,
      0.03019979,
      0.038547011,
      0.0097676,
      0.000662585,
      0.043015555,
      0.001654838,
      -0.013947316,
      -0.004128055,
      0.017937679,
      0.013991497,
      -0.003011017,
      0.017647042,
      0.015051384,
      -0.04528662,
      0.01392389,
      0.034201831,
      0.006411707,
      -0.005101787,
      0.042825547,
      -0.048846882,
      -0.025520082,
      -0.025268325,
      0.04830369,
      -0.054065899,
      0.005542553,
      -0.054154905,
      -0.00184291,
      0.020830937,
      -0.013075139
     ],
     [
      0.054261752,
      0.000173718,
      -0.028504169,
      0.014418338,
      0.02908885,
      -9.5578e-05,
      0.047835078,
      -0.035378494,
      0.023847805,
      0.031738106,
      0.027759536,
      -2.5467e-05,
      0.015953679,
      -0.043860428,
      -0.043862778,
      -0.003469611,
      -0.007010304,
      0.041502724,
      0.040590199,
      0.037917805,
      -0.025600943,
      -0.043888449,
      -0.052433136,
      0.02022939,
      -0.05037588,
      -0.055807688,
      -0.028261232,
      -0.047189401,
      -0.022029499,
      -0.035197917,
      -0.028682929,
      0.053140648,
      -0.010538397,
      0.046368943,
      0.001226249,
      -0.007197623,
      -0.016363564,
      -0.039948417,
      -0.044915667,
      0.038698641,
      -0.017230431,
      -0.054509434,
      0.05129705,
      0.001038518,
      -0.037399498,
      -0.043931142,
      -0.046944233,
      -0.049024799,
      0.050582854,
      0.038538655,
      0.0045743,
      -0.047620845,
      -0.014609227,
      -0.052505334,
      0.01926247,
      -0.014848634,
      -0.011966562,
      -0.017445951,
      0.026200252,
      0.030247873,
      0.012242664,
      -0.006998657,
      -0.005526715,
      -0.000981137,
      -0.041629655,
      0.054545419,
      -0.024111416,
      0.032522932,
      -0.031335169,
      0.000377832,
      0.019140676,
      -0.051328179,
      0.025640277,
      -0.042792087,
      0.007800965,
      -0.011083952,
      0.032036224,
      0.054324843,
      0.012600564,
      -0.001597517,
      -0.027697862,
      0.020839269,
      -0.026912673,
      0.023087435,
      -0.024233799,
      0.037914398,
      0.042881066,
      0.034277727,
      0.000558436,
      0.025923826,
      -0.050943878,
      0.045335167,
      -0.01453629,
      0.020379032,
      -0.009460422,
      -0.018770578,
      -0.026253346,
      0.036058751,
      -0.030418434,
      -0.009868852,
      0.02819232,
      0.005646445,
      -0.047034184,
      -0.055590352,
      -0.027179066,
      0.05155847,
      -0.039754229,
      0.030805307,
      0.040024377,
      -0.023161718,
      -0.024684475,
      -0.040220546,
      0.008718203,
      -0.007818513,
      0.002707095,
      0.024244098,
      0.023467725,
      -0.01763854,
      0.003837087,
      0.013276449,
      0.001188303,
      0.011184836,
      -0.022647116,
      0.045817648,
      -0.005731361,
      -0.007148466,
      -0.050173326,
      -0.040523604,
      0.00173496,
      -0.00864962,
      -0.028096047,
      0.029287447,
      -0.004985239,
      0.019677123,
      0.047091336,
      -0.025703876,
      -0.027517375,
      -0.011231816,
      -0.004701412,
      -0.027931276,
      -0.0134026,
      -0.00158445,
      0.025096251,
      0.051718444,
      0.041389683,
      0.005917773,
      -0.003490033,
      0.01434341,
      -0.002246124,
      -0.007303226,
      0.019243896,
      -0.045476141,
      -0.047550446,
      0.000212374,
      -0.016909317,
      -0.027600561,
      -0.052014898,
      0.037454893,
      -0.002221534,
      -0.030031644,
      -0.022783953,
      0.014700887,
      -0.040501643,
      0.003616139,
      -0.000668199,
      0.019056558,
      0.022166603,
      -0.036532929,
      0.024126584,
      0.042230482,
      0.0036269,
      0.02849082,
      -0.021136744,
      0.011106349,
      0.016322455,
      -0.02582865,
      0.034508262,
      -0.052837646,
      -0.020950187,
      -0.032836992,
      -0.033156037,
      -0.033864984,
      -0.052677394,
      0.009586884,
      -0.01106282,
      -0.047070872,
      -9.285e-06,
      -0.009293702,
      0.023073135,
      -0.043774965,
      -0.015728263,
      0.011501968,
      0.023693661,
      0.004226743,
      0.015145989,
      0.055878658,
      -0.019364942,
      0.038099123,
      0.04815778,
      -0.049452443,
      0.013519931,
      0.031662137,
      -0.008720657,
      0.030854031,
      0.001899228,
      0.042553341,
      0.001213645,
      -0.035785131,
      0.042451662,
      0.016621925,
      0.047555858,
      0.013888973,
      0.029682047,
      0.034860726,
      0.009424488,
      -0.01299276,
      0.011543468,
      -0.038980048,
      0.001902696,
      -0.017958591,
      0.003537316,
      -0.044257478,
      0.034155239,
      -0.051576531,
      0.023937619,
      0.036812703,
      -0.051244143,
      0.050511088,
      -0.041549037,
      -0.010962001,
      0.028966374,
      -0.01773347,
      0.049817295,
      -0.024667544,
      -0.007482286,
      -0.036533905,
      -0.025924611,
      0.054565089,
      0.042041799,
      0.004110089,
      0.004594454,
      -0.047442521,
      0.042205056,
      -0.008375746,
      -0.023305445,
      -0.04447889,
      0.045961742,
      0.026504,
      0.03366895,
      0.005785732,
      -0.037935076,
      0.022900273,
      0.006447917,
      0.018764184,
      -0.01392064,
      -0.026384264,
      0.045885913,
      0.018732829,
      -0.022693272,
      0.004989854,
      -0.012155038,
      -0.004782842,
      0.031344526,
      -0.044496588,
      0.050586705,
      0.03761852,
      5.2071e-05,
      -0.022854183,
      0.011400148,
      -0.037000779,
      0.036309441,
      -0.029567875,
      0.010675957,
      -0.055003687,
      0.026769714,
      0.037840519,
      0.041962837,
      0.00456866,
      0.033012439,
      0.019063403,
      0.037481832,
      0.031538013,
      -0.048914701,
      0.005894415,
      -0.019051172,
      -0.026686914,
      0.039139729,
      -0.007997926,
      0.008676982,
      0.035191133,
      0.037632474,
      0.029826401,
      -0.00975736,
      -0.049820676,
      -0.053663391,
      0.017564294,
      -0.00067054,
      -0.035318292,
      0.024417794,
      0.050740767,
      0.032333474,
      -0.007890783,
      0.00754569,
      -0.035666973,
      0.026378995,
      -0.043324371,
      0.038591536,
      -0.025524363,
      -0.022172094,
      -0.046828093,
      -0.013521436,
      -0.005414841,
      -0.025772593,
      0.039786652,
      0.032087016,
      -0.049332116,
      -0.005586499,
      0.018805248,
      0.053932417,
      -0.013373657
     ],
     [
      0.034318662,
      -0.003133518,
      -0.021445393,
      0.034202791,
      -0.049821421,
      0.046825106,
      0.055828166,
      -0.01526565,
      0.022081077,
      0.055745176,
      0.016853747,
      0.021867449,
      0.020544,
      -0.022858985,
      0.01365014,
      -0.029793703,
      0.047734096,
      -0.023954087,
      0.012777483,
      -0.016197811,
      0.027947591,
      0.00092498,
      0.030742111,
      -0.015137058,
      -0.032804999,
      0.021431107,
      -0.03144854,
      -0.045885247,
      0.021595705,
      -0.033619973,
      -0.021012925,
      -0.013960299,
      0.003968545,
      -0.019368579,
      -0.020113367,
      -0.014039438,
      0.039170199,
      0.01673818,
      -0.026917249,
      -0.038645271,
      0.001294362,
      0.017905836,
      -0.001177656,
      0.032714974,
      0.047009395,
      0.016387966,
      0.018431377,
      0.03242768,
      -0.019151678,
      0.009916805,
      0.045193687,
      -0.026776705,
      0.004345703,
      -0.02185156,
      -0.042986711,
      0.029606537,
      0.044667516,
      -0.030202011,
      0.020950162,
      0.017143335,
      0.021827809,
      0.030774286,
      0.052188752,
      0.042428022,
      -0.048914996,
      -0.021915515,
      0.029688127,
      -0.031914394,
      0.010975878,
      -0.023967444,
      0.011101002,
      0.027275754,
      0.017569988,
      0.040608794,
      -0.006726531,
      0.030353684,
      0.018076809,
      -0.017613133,
      -0.039481628,
      0.051142922,
      -0.016667637,
      0.042107313,
      0.03524002,
      -0.002249211,
      -0.046179331,
      0.00450914,
      -0.027022891,
      0.014545585,
      -0.022220923,
      0.043082312,
      -0.050436913,
      -0.015046154,
      0.008815646,
      0.005327006,
      0.045922302,
      -0.017664638,
      -0.044624046,
      0.037006876,
      0.015626248,
      0.036827434,
      -0.033096088,
      -0.032838718,
      -0.022578848,
      0.003974439,
      0.018942786,
      -0.032123403,
      -0.005263776,
      -0.009659371,
      0.051003897,
      -0.020155878,
      0.054172914,
      -0.034287727,
      -0.02303514,
      -0.042044657,
      0.041186804,
      -0.038438743,
      0.023139382,
      -0.020539226,
      0.055704378,
      0.007883673,
      -0.048546366,
      0.009619494,
      0.006792822,
      -0.054070437,
      0.011215626,
      0.053334022,
      0.016084508,
      -0.000298281,
      -0.011590052,
      0.014846725,
      -0.024923476,
      0.055030361,
      0.048305368,
      0.026100881,
      -0.020827035,
      -0.052490611,
      -0.032182169,
      0.054345107,
      -0.051307408,
      -0.053368401,
      -0.004021014,
      0.017791929,
      -0.055639072,
      -0.051902907,
      0.00030611,
      -0.018736606,
      0.038958213,
      0.016046259,
      -0.048510432,
      -0.050362986,
      0.038391867,
      -0.00991443,
      -0.024449802,
      0.017633247,
      -0.010977145,
      0.026733421,
      0.014192677,
      -0.02419337,
      -0.04480621,
      0.030263171,
      -0.033589234,
      -0.006171893,
      0.007669782,
      -0.032518953,
      0.030464191,
      -0.039328843,
      0.013726042,
      0.005977956,
      0.020501154,
      -0.054882127,
      0.003221016,
      0.027271965,
      -0.035772139,
      0.013826403,
      0.000209194,
      0.047418171,
      -0.011842933,
      0.000364743,
      -0.024328357,
      -0.013781917,
      0.016005782,
      -0.053915845,
      0.042395342,
      0.040193842,
      0.023673323,
      0.041846694,
      -0.017398218,
      0.012734266,
      0.002851836,
      -0.038656139,
      -0.0214953,
      -0.019847753,
      -0.013822486,
      -0.049637764,
      -0.039316388,
      -0.005310802,
      -0.008509064,
      -0.050751027,
      0.011940072,
      0.03043679,
      0.046555067,
      0.047047371,
      -0.039063666,
      -0.017914904,
      -0.026519005,
      0.010253407,
      0.014976535,
      0.012436248,
      0.032666384,
      0.02949354,
      -0.030000447,
      0.03837729,
      0.03769994,
      0.007406861,
      -0.048633368,
      -0.034285259,
      0.015577408,
      0.019325157,
      0.052133084,
      0.028454485,
      0.020254015,
      -0.001901246,
      0.038120074,
      -0.020349131,
      0.022761254,
      -0.026630199,
      -0.000518147,
      0.033043184,
      0.025644799,
      -0.012539273,
      -0.000710221,
      -0.031035243,
      0.02589376,
      0.037613809,
      0.019240635,
      -0.054095657,
      -0.040014105,
      0.037430435,
      -0.008009548,
      0.034327331,
      0.041205305,
      -0.016374625,
      -0.0328001,
      -0.05259272,
      0.02137878,
      0.028676969,
      -0.009695532,
      -0.054274053,
      -0.036007391,
      -0.003012767,
      0.025512344,
      -0.018731277,
      -0.036088705,
      -0.038912292,
      0.050015265,
      0.020241642,
      -0.045389027,
      -0.034525637,
      -0.047458418,
      0.008082265,
      -0.022703987,
      -0.000192314,
      -0.008846186,
      -0.048934982,
      -0.049957305,
      -0.043364412,
      -0.023414102,
      0.00870046,
      -0.026288755,
      -0.00199376,
      -0.006698725,
      0.051122674,
      -0.025484647,
      0.052523441,
      -0.042901909,
      -0.046634702,
      0.018183413,
      -0.032532858,
      0.028669809,
      -0.030930263,
      0.04401991,
      0.054133522,
      0.003581025,
      0.011952982,
      0.052120534,
      0.033138878,
      -0.048803527,
      -0.001790503,
      -0.050462307,
      0.042702896,
      -0.010232311,
      -0.000378723,
      -0.034344717,
      -0.030401077,
      0.007261429,
      0.046125054,
      -0.028102195,
      0.005276912,
      0.050597525,
      0.050108513,
      -0.010920495,
      0.052397579,
      0.020358464,
      0.05090897,
      0.00165509,
      -0.047381966,
      -0.015220895,
      0.016767034,
      0.029810418,
      -0.055689291,
      0.043475829,
      -0.0501533,
      0.03275321,
      0.055156142,
      0.013774216,
      -0.010552638,
      0.030780685,
      -0.016597392,
      -0.041412945,
      -0.039675499
     ]
    ],
    "b": [
     0.026274824,
     0.042682952,
     0.002294449,
     -0.054219719,
     -0.054924362,
     -0.012675312,
     0.030183308,
     -0.037246976,
     0.015101083,
     -0.030545611
    ]
   }
  },
  {
   "epoch": 0,
   "batch": 1,
   "loss": 2.320734201117266,
   "accuracy": 10.0,
   "input": [
    [
     0.0,
     0.0,
     0.0,
     0.0,
     0.0,
     0.0,
     0.0,
     0.0,
     0.0,
     0.0,
     0.0,
     0.0,
     0.0,
     0.0,
     0.0,
     0.0,
     0.0,
     0.0,
     0.0,
     0.0,
     0.0,
     0.0,
     0.0,
     0.0,
     0.0,
     0.0,
     0.0,
     0.0
    ],
    [
     0.0,
     0.0,
     0.0,
     0.0,
     0.0,
     0.0,
     0.0,
     0.0,
     0.0,
     0.0,
     0.0,
     0.0,
     0.0,
     0.0,
     0.0,
     0.0,
     0.0,
     0.0,
     0.0,
     0.0,
     0.0,
     0.0,
     0.0,
     0.0,
     0.0,
     0.0,
     0.0,
     0.0
    ],
    [
     0.0,
     0.0,
     0.0,
     0.0,
     0.0,
     0.0,
     0.0,
     0.0,
     0.0,
     0.0,
     0.0,
     0.0,
     0.0,
     0.0,
     0.0,
     0.0,
     0.0,
     0.0,
     0.0,
     0.0,
     0.0,
     0.0,
     0.0,
     0.0,
     0.0,
     0.0,
     0.0,
     0.0
    ],
    [
     0.0,
     0.0,
     0.0,
     0.0,
     0.0,
     0.0,
     0.0,
     0.0,
     0.0,
     0.0,
     0.0,
     0.0,
     0.0,
     0.0,
     0.0,
     0.0,
     0.0,
     0.0,
     0.0,
     0.0,
     0.0,
     0.0,
     0.0,
     0.0,
     0.0,
     0.0,
     0.0,
     0.0
    ],
    [
     0.0,
     0.0,
     0.0,
     0.0,
     0.0,
     0.0,
     0.0,
     0.0,
     0.0,
     0.0,
     0.0,
     0.0,
     0.0,
     0.0,
     0.0,
     0.0,
     0.0,
     0.0,
     0.0,
     0.0,
     0.0,
     0.0,
     0.0,
     0.0,
     0.0,
     0.0,
     0.0,
     0.0
    ],
    [
     0.0,
     0.0,
     0.0,
     0.0,
     0.0,
     0.0,
     0.0,
     0.0,
     0.0,
     0.0,
     0.0,
     0.0,
     0.0,
     0.0,
     0.0,
     0.0,
     0.0,
     0.0,
     0.0,
     0.0,
     0.0,
     0.0,
     0.0,
     0.0,
     0.0,
     0.0,
     0.0,
     0.0
    ],
    [
     0.0,
     0.0,
     0.0,
     0.0,
     0.0,
     0.0,
     0.0,
     0.0,
     0.0,
     0.0,
     0.0,
     0.0,
     0.0,
     0.0,
     0.0,
     0.0,
     0.090196078,
     0.133333333,
     0.0,
     0.0,
     0.533333333,
     0.439215686,
     0.192156863,
     0.0,
     0.0,
     0.0,
     0.0,
     0.0
    ],
    [
     0.0,
     0.0,
     0.0,
     0.0,
     0.0,
     0.0,
     0.0,
     0.615686275,
     0.066666667,
     0.0,
     0.0,
     0.0,
     0.0,
     0.0,
     0.0,
     0.568627451,
     0.529411765,
     0.584313725,
     0.349019608,
     0.0,
     0.352941176,
     0.992156863,
     0.925490196,
     0.188235294,
     0.0,
     0.0,
     0.0,
     0.0
    ],
    [
     0.0,
     0.0,
     0.0,
     0.0,
     0.0,
     0.0,
     0.180392157,
     0.964705882,
     0.270588235,
     0.0,
     0.0,
     0.0,
     0.0,
     0.0,
     0.0,
     0.741176471,
     0.992156863,
     0.992156863,
     0.976470588,
     0.894117647,
     0.956862745,
     0.992156863,
     0.992156863,
     0.458823529,
     0.0,
     0.0,
     0.0,
     0.0
    ],
    [
     0.0,
     0.0,
     0.0,
     0.0,
     0.0,
     0.0,
     0.643137255,
     0.992156863,
     0.137254902,
     0.0,
     0.0,
     0.0,
     0.0,
     0.0,
     0.0,
     0.211764706,
     0.635294118,
     0.635294118,
     0.690196078,
     0.760784314,
     0.635294118,
     0.662745098,
     0.992156863,
     0.647058824,
     0.176470588,
     0.0,
     0.0,
     0.0
    ],
    [
     0.0,
     0.0,
     0.0,
     0.0,
     0.0,
     0.415686275,
     0.988235294,
     0.847058824,
     0.050980392,
     0.0,
     0.0,
     0.0,
     0.0,
     0.0,
     0.0,
     0.0,
     0.0,
     0.0,
     0.023529412,
     0.054901961,
     0.0,
     0.011764706,
     0.458823529,
     0.992156863,
     0.917647059,
     0.0,
     0.0,
     0.0
    ],
    [
     0.0,
     0.0,
     0.0,
     0.0,
     0.0,
     0.643137255,
     0.611764706,
     0.098039216,
     0.0,
     0.0,
     0.0,
     0.0,
     0.0,
     0.0,
     0.0,
     0.0,
     0.0,
     0.0,
     0.0,
     0.0,
     0.0,
     0.0,
     0.011764706,
     0.615686275,
     0.992156863,
     0.0,
     0.0,
     0.0
    ],
    [
     0.0,
     0.0,
     0.0,
     0.0,
     0.0,
     0.996078431,
     0.529411765,
     0.0,
     0.0,
     0.0,
     0.0,
     0.0,
     0.0,
     0.0,
     0.0,
     0.0,
     0.0,
     0.0,
     0.0,
     0.0,
     0.0,
     0.0,
     0.0,
     0.537254902,
     0.992156863,
     0.0,
     0.0,
     0.0
    ],
    [
     0.0,
     0.0,
     0.0,
     0.0,
     0.0,
     0.996078431,
     0.529411765,
     0.0,
     0.0,
     0.0,
     0.0,
     0.0,
     0.0,
     0.0,
     0.0,
     0.0,
     0.0,
     0.0,
     0.0,
     0.0,
     0.0,
     0.0,
     0.015686275,
     0.654901961,
     0.992156863,
     0.0,
     0.0,
     0.0
    ],
    [
     0.0,
     0.0,
     0.0,
     0.0,
     0.0,
     0.996078431,
     0.639215686,
     0.011764706,
     0.0,
     0.0,
     0.0,
     0.0,
     0.0,
     0.0,
     0.0,
     0.0,
     0.0,
     0.0,
     0.0,
     0.0,
     0.0,
     0.058823529,
     0.752941176,
     0.988235294,
     0.760784314,
     0.0,
     0.0,
     0.0
    ],
    [
     0.0,
     0.0,
     0.0,
     0.0,
     0.0,
     0.996078431,
     0.992156863,
     0.505882353,
     0.015686275,
     0.0,
     0.0,
     0.0,
     0.0,
     0.0,
     0.0,
     0.0,
     0.0,
     0.0,
     0.0,
     0.02745098,
     0.521568627,
     0.737254902,
     0.992156863,
     0.596078431,
     0.0,
     0.0,
     0.0,
     0.0
    ],
    [
     0.0,
     0.0,
     0.0,
     0.0,
     0.0,
     0.643137255,
     0.992156863,
     0.992156863,
     0.619607843,
     0.494117647,
     0.180392157,
     0.121568627,
     0.0,
     0.0,
     0.0,
     0.0,
     0.0,
     0.219607843,
     0.690196078,
     0.729411765,
     0.992156863,
     0.980392157,
     0.811764706,
     0.376470588,
     0.0,
     0.0,
     0.0,
     0.0
    ],
    [
     0.0,
     0.0,
     0.0,
     0.0,
     0.0,
     0.160784314,
     0.980392157,
     0.992156863,
     0.560784314,
     0.992156863,
     0.992156863,
     0.882352941,
     0.247058824,
     0.031372549,
     0.082352941,
     0.082352941,
     0.035294118,
     0.658823529,
     0.992156863,
     0.97254902,
     0.839215686,
     0.77254902,
     0.0,
     0.0,
     0.0,
     0.0,
     0.0,
     0.0
    ],
    [
     0.0,
     0.0,
     0.0,
     0.0,
     0.0,
     0.0,
     0.905882353,
     0.992156863,
     0.992156863,
     0.992156863,
     0.992156863,
     0.450980392,
     0.815686275,
     0.607843137,
     0.792156863,
     0.819607843,
     0.619607843,
     0.329411765,
     0.615686275,
     0.309803922,
     0.0,
     0.0,
     0.0,
     0.0,
     0.0,
     0.0,
     0.0,
     0.0
    ],
    [
     0.0,
     0.0,
     0.0,
     0.0,
     0.0,
     0.0,
     0.176470588,
     0.603921569,
     0.890196078,
     0.945098039,
     0.890196078,
     0.48627451,
     0.137254902,
     0.423529412,
     0.792156863,
     0.850980392,
     0.105882353,
     0.0,
     0.0,
     0.0,
     0.0,
     0.0,
     0.0,
     0.0,
     0.0,
     0.0,
     0.0,
     0.0
    ],
    [
     0.0,
     0.0,
     0.0,
     0.0,
     0.0,
     0.0,
     0.0,
     0.0,
     0.0,
     0.211764706,
     0.0,
     0.51372549,
     0.647058824,
     0.850980392,
     0.917647059,
     0.701960784,
     0.0,
     0.0,
     0.0,
     0.0,
     0.0,
     0.0,
     0.0,
     0.0,
     0.0,
     0.0,
     0.0,
     0.0
    ],
    [
     0.0,
     0.0,
     0.0,
     0.0,
     0.0,
     0.0,
     0.0,
     0.0,
     0.0,
     0.0,
     0.0,
     0.0,
     0.356862745,
     0.090196078,
     0.0,
     0.0,
     0.0,
     0.0,
     0.0,
     0.0,
     0.0,
     0.0,
     0.0,
     0.0,
     0.0,
     0.0,
     0.0,
     0.0
    ],
    [
     0.0,
     0.0,
     0.0,
     0.0,
     0.0,
     0.0,
     0.0,
     0.0,
     0.0,
     0.0,
     0.0,
     0.0,
     0.0,
     0.0,
     0.0,
     0.0,
     0.0,
     0.0,
     0.0,
     0.0,
     0.0,
     0.0,
     0.0,
     0.0,
     0.0,
     0.0,
     0.0,
     0.0
    ],
    [
     0.0,
     0.0,
     0.0,
     0.0,
     0.0,
     0.0,
     0.0,
     0.0,
     0.0,
     0.0,
     0.0,
     0.0,
     0.0,
     0.0,
     0.0,
     0.0,
     0.0,
     0.0,
     0.0,
     0.0,
     0.0,
     0.0,
     0.0,
     0.0,
     0.0,
     0.0,
     0.0,
     0.0
    ],
    [
     0.0,
     0.0,
     0.0,
     0.0,
     0.0,
     0.0,
     0.0,
     0.0,
     0.0,
     0.0,
     0.0,
     0.0,
     0.0,
     0.0,
     0.0,
     0.0,
     0.0,
     0.0,
     0.0,
     0.0,
     0.0,
     0.0,
     0.0,
     0.0,
     0.0,
     0.0,
     0.0,
     0.0
    ],
    [
     0.0,
     0.0,
     0.0,
     0.0,
     0.0,
     0.0,
     0.0,
     0.0,
     0.0,
     0.0,
     0.0,
     0.0,
     0.0,
     0.0,
     0.0,
     0.0,
     0.0,
     0.0,
     0.0,
     0.0,
     0.0,
     0.0,
     0.0,
     0.0,
     0.0,
     0.0,
     0.0,
     0.0
    ],
    [
     0.0,
     0.0,
     0.0,
     0.0,
     0.0,
     0.0,
     0.0,
     0.0,
     0.0,
     0.0,
     0.0,
     0.0,
     0.0,
     0.0,
     0.0,
     0.0,
     0.0,
     0.0,
     0.0,
     0.0,
     0.0,
     0.0,
     0.0,
     0.0,
     0.0,
     0.0,
     0.0,
     0.0
    ],
    [
     0.0,
     0.0,
     0.0,
     0.0,
     0.0,
     0.0,
     0.0,
     0.0,
     0.0,
     0.0,
     0.0,
     0.0,
     0.0,
     0.0,
     0.0,
     0.0,
     0.0,
     0.0,
     0.0,
     0.0,
     0.0,
     0.0,
     0.0,
     0.0,
     0.0,
     0.0,
     0.0,
     0.0
    ]
   ],
   "output": 3,
   "conv_layer": {
    "w": [
     [
      [
       [
        -0.001544094,
        0.107239713,
        -0.164637883,
        -0.14720224,
        -0.077052907
       ],
       [
        0.053592921,
        -0.004012684,
        0.158533745,
        -0.017775389,
        0.052899362
       ],
       [
        -0.06047741,
        -0.039362243,
        -0.191110534,
        -0.132481267,
        -0.082462093
       ],
       [
        0.007367585,
        0.079005512,
        0.119955726,
        -0.135607692,
        -0.087103276
       ],
       [
        0.072597382,
        0.166017591,
        -0.041209558,
        0.149623605,
        -0.032251698
       ]
      ]
     ],
     [
      [
       [
        0.021234908,
        0.181156732,
        -0.185511432,
        -0.125898812,
        -0.05060617
       ],
       [
        -0.077891555,
        0.172857656,
        -0.129599827,
        -0.092038967,
        -0.139669946
       ],
       [
        -0.187278037,
        -0.116717142,
        0.171965111,
        0.089289027,
        0.096993126
       ],
       [
        0.010524628,
        -0.102510584,
        0.033882443,
        -0.186708223,
        -0.144480691
       ],
       [
        -0.103113329,
        0.126200757,
        0.117276853,
        -0.088698513,
        -0.007209834
       ]
      ]
     ],
     [
      [
       [
        0.127883355,
        0.19883511,
        0.079412193,
        0.027043323,
        0.134082019
       ],
       [
        -0.117796202,
        0.037255023,
        -0.15505397,
        -0.138619586,
        -0.103354392
       ],
       [
        0.090470012,
        0.080426904,
        -0.118465037,
        0.060388896,
        0.109715351
       ],
       [
        -0.025248616,
        0.007639417,
        0.046332412,
        0.124016444,
        0.19194755
       ],
       [
        -0.154110576,
        -0.073283886,
        0.078597551,
        0.165671279,
        0.173990087
       ]
      ]
     ],
     [
      [
       [
        0.176510478,
        0.039848781,
        -0.173872882,
        0.018441897,
        -0.12508491
       ],
       [
        -0.186374327,
        0.177732647,
        0.152100056,
        -0.199483455,
        0.037465454
       ],
       [
        -0.033680331,
        -0.032887799,
        -0.091536243,
        0.076926306,
        -0.118425441
       ],
       [
        0.073343878,
        0.101177328,
        0.143205837,
        0.074798012,
        -0.19791946
       ],
       [
        -0.129719173,
        0.099899588,
        0.041897686,
        -0.155993106,
        -0.115132444
       ]
      ]
     ],
     [
      [
       [
        0.188105583,
        0.134772791,
        -0.087167393,
        -0.050298376,
        -0.190470777
       ],
       [
        -0.003642799,
        -0.150620868,
        -0.15425738,
        -0.010977837,
        0.030080183
       ],
       [
        -0.081940828,
        0.118661735,
        -0.121701165,
        0.181513932,
        0.137111791
       ],
       [
        -0.168678873,
        -0.049786124,
        0.009032198,
        0.029215205,
        0.047478517
       ],
       [
        0.078466644,
        0.011990365,
        -0.097543128,
        0.094685702,
        -0.191808429
       ]
      ]
     ]
    ],
    "b": [
     -0.118540035,
     -0.050049294,
     -0.097508845,
     -0.069914639,
     -0.163956668
    ]
   },
   "dense_layer": {
    "w": [
     [
      -0.011888826,
      0.011949373,
      -0.036420793,
      -0.002864677,
      0.040034264,
      -0.005728466,
      0.001569211,
      -0.004823442,
      0.011315382,
      0.035546262,
      0.052949988,
      0.035508966,
      0.053071846,
      -0.00402937,
      -0.050177872,
      -0.026477862,
      0.038066573,
      -0.000359307,
      -0.027794157,
      -0.04285834,
      -0.05234021,
      -0.047228288,
      -0.011308611,
      0.030707113,
      0.030224915,
      -0.053924499,
      0.034867165,
      -0.043756976,
      -0.011838244,
      -0.022717541,
      -0.010767888,
      -0.010916767,
      -0.050166133,
      -0.048264235,
      -0.008703856,
      0.00073786,
      -0.025403038,
      0.021016787,
      -0.050335788,
      -0.003729286,
      0.049158403,
      -0.022789067,
      0.050562908,
      0.020302974,
      -0.05043725,
      0.035339456,
      -0.006459295,
      -0.024935873,
      0.044703661,
      -0.045190255,
      0.006008517,
      -0.011687359,
      0.03990733,
      0.015579596,
      0.026863786,
      0.01975213,
      -0.013440295,
      -0.011754384,
      -0.0460693,
      0.030288227,
      0.044377379,
      0.038247836,
      -0.039424829,
      0.00249471,
      -0.039405955,
      -0.030772453,
      -0.032575835,
      0.019104287,
      -0.033309397,
      -0.001215519,
      0.002354249,
      0.036034426,
      -0.042256604,
      -0.038375575,
      -0.032459,
      0.039123324,
      -0.020109373,
      0.047131929,
      0.020214882,
      0.00707799,
      -0.000414969,
      -0.01105342,
      0.006994869,
      -0.012801634,
      -0.000409528,
      0.007096769,
      -0.043732538,
      -0.029293322,
      0.045140834,
      -0.045387382,
      -0.004043836,
      0.055305129,
      0.020218633,
      0.001575628,
      -0.048463068,
      0.027709258,
      -0.039819788,
      -0.015903703,
      -0.018761527,
      -0.008245821,
      0.000651012,
      0.046102993,
      0.006937564,
      0.050077474,
      0.034190395,
      -0.035378909,
      0.025081381,
      -0.039486748,
      -0.023675676,
      0.016416309,
      0.018427654,
      0.041948114,
      -0.017995651,
      7.1218e-05,
      0.028757197,
      -0.054081335,
      0.040394001,
      -0.046252549,
      0.000779943,
      -0.009496322,
      -0.029440952,
      0.007390087,
      0.046227319,
      -0.016341269,
      -0.033192216,
      -0.020668299,
      -0.055398634,
      0.025233708,
      -0.026847686,
      -0.037315786,
      -0.032202521,
      0.032156404,
      0.029619532,
      0.042915759,
      0.020272434,
      -0.018669019,
      -0.015625361,
      0.016541232,
      0.045988108,
      0.015220271,
      -0.02644121,
      -0.026236853,
      -0.052812048,
      0.012076443,
      -0.031335298,
      -0.049770597,
      0.049055531,
      -0.036316569,
      -0.006395309,
      0.016061331,
      0.001898427,
      -0.037595427,
      -0.045095877,
      0.044649047,
      0.009080183,
      0.046301862,
      -0.01883089,
      0.016486998,
      -0.01266041,
      -0.002440076,
      -0.033937759,
      0.018983758,
      0.017623984,
      -0.001283032,
      -0.012666228,
      -0.034420643,
      0.038761295,
      -0.041566541,
      0.022984084,
      -0.018679425,
      -0.026929216,
      0.009978793,
      -0.029070496,
      0.012916998,
      0.011037504,
      -0.041456612,
      0.009328157,
      0.023894475,
      0.022193403,
      -0.007038182,
      -0.045839174,
      -0.008600525,
      0.01945135,
      -0.02036851,
      0.021225978,
      0.037240915,
      -0.029176695,
      0.000557481,
      0.023124392,
      0.004399851,
      0.004687742,
      0.006981984,
      -0.043945508,
      0.004394958,
      0.03870933,
      0.050372103,
      0.032849032,
      0.007488522,
      0.026109888,
      -0.027196322,
      -0.046323654,
      -0.048069394,
      0.055756395,
      0.035475828,
      -0.038655897,
      0.021859456,
      0.042229698,
      0.055883607,
      0.048881553,
      0.043301437,
      -0.0128305,
      -0.019618402,
      0.04589279,
      0.031277208,
      -0.033609512,
      0.05029641,
      0.027010156,
      0.030472379,
      -0.035017901,
      0.016054779,
      -0.01959087,
      0.043631182,
      -0.010040363,
      0.021834944,
      0.009919833,
      0.023806675,
      -0.018950425,
      0.027275957,
      -0.039060721,
      0.012576794,
      -0.037821569,
      -0.055097536,
      -0.044900718,
      0.044148676,
      0.03029281,
      0.052455345,
      0.044749054,
      -0.049967943,
      -0.038147898,
      -0.009008572,
      -0.036303901,
      0.038811813,
      -0.042253227,
      -0.027278319,
      -0.054031498,
      -0.031753535,
      0.045986691,
      0.045782601,
      0.040018157,
      0.043163557,
      0.049705799,
      -0.014317036,
      0.024589199,
      0.049808006,
      0.018504073,
      0.055886757,
      0.028997349,
      0.034751764,
      -0.019565249,
      0.026821273,
      0.006422026,
      -0.013345788,
      -0.031505926,
      -0.031363972,
      -0.043014325,
      0.037525965,
      0.039751904,
      -0.006358358,
      -0.032349038,
      0.043196105,
      0.035740482,
      0.004161751,
      -0.026390881,
      0.051395274,
      0.022863492,
      -0.0424554,
      0.053488682,
      0.042445408,
      -0.020380591,
      0.031426225,
      -0.031743301,
      -0.00874242,
      0.04745497,
      0.002311135,
      -0.039534334,
      -0.018693865,
      -0.015189701,
      -0.010784085,
      0.005364966,
      0.051687552,
      0.002989422,
      -0.034512135,
      0.002856741,
      0.026797959,
      0.027713971,
      -0.05107174,
      -0.009995217,
      -0.041547348,
      -0.023856348,
      0.020138669,
      -0.039696222,
      0.02077846,
      0.047449676,
      0.003698206,
      -0.037257853,
      -0.020023215,
      0.012224308,
      -0.042623713,
      0.027766776,
      -0.050755226,
      -0.053707653,
      -0.054290609,
      -0.011338258,
      0.037586767,
      -0.052916288,
      0.046467882,
      -0.022359709,
      0.016390744,
      0.002570871,
      -0.050402437
     ],
     [
      0.046365907,
      0.030101977,
      0.055555982,
      0.028226353,
      -0.036905323,
      0.046659997,
      0.002997493,
      0.026505644,
      -0.044819473,
      -0.016076754,
      -0.054895863,
      -0.021797725,
      0.012052972,
      -0.043902776,
      0.017782842,
      0.029994429,
      0.007792904,
      -0.037393778,
      -0.043337989,
      -0.017268314,
      0.024572069,
      0.055144305,
      0.032106124,
      -0.006307611,
      0.019605597,
      -0.054831116,
      -0.04775601,
      0.026031309,
      -0.031622375,
      0.026885761,
      -0.039502914,
      -0.027703339,
      -0.046040397,
      0.029179308,
      -0.00570485,
      0.042977227,
      0.03465107,
      0.030918044,
      0.001761054,
      -0.017297857,
      -0.012149687,
      0.007433099,
      0.027697229,
      -0.039185834,
      0.046965363,
      -0.006092839,
      -0.046870662,
      -0.030254352,
      0.049468213,
      0.05113581,
      -0.051787563,
      0.039432549,
      0.028058255,
      0.033084457,
      0.047307333,
      -0.030130365,
      0.017657794,
      0.022884347,
      -0.016510706,
      0.018726186,
      -0.016066797,
      0.034559684,
      -0.015513206,
      -0.020836195,
      0.014075415,
      0.019829635,
      -0.027313895,
      0.004940017,
      0.032403259,
      -0.005551673,
      0.017010392,
      -0.013482627,
      0.019595202,
      -0.040492751,
      -0.032867675,
      -0.028364521,
      0.051409012,
      -0.015036624,
      -0.000158039,
      -0.027084212,
      0.055808234,
      0.054605585,
      -0.042140413,
      -0.04530439,
      -0.042359175,
      -0.000266576,
      -0.014249446,
      -0.036591837,
      -0.020047803,
      0.010573442,
      -0.029185748,
      0.012371857,
      -0.01281061,
      -0.027069714,
      0.007678675,
      0.045961701,
      -0.037791638,
      0.002608672,
      -0.020598725,
      0.054842317,
      -0.053002869,
      -0.053573368,
      0.05508421,
      -0.035370618,
      0.010720841,
      -0.004812899,
      -0.011759394,
      -0.012495845,
      0.035553482,
      0.002685478,
      -0.054424603,
      -0.033002631,
      -0.019053988,
      0.028141916,
      -0.036165354,
      0.052712391,
      -0.012417431,
      -0.010031697,
      0.04379489,
      0.028093978,
      0.047413466,
      0.032339607,
      -0.01695768,
      -0.037068879,
      -0.004139542,
      0.046262489,
      -0.018769188,
      -0.05184121,
      0.022917398,
      0.054392599,
      -0.015973026,
      -0.046307694,
      -0.050675874,
      0.014007876,
      -0.004243345,
      -0.028227438,
      0.011290313,
      0.021149802,
      0.044315465,
      0.043363089,
      -0.008386918,
      -0.049384294,
      -0.050551185,
      0.052191177,
      0.024694358,
      0.024259557,
      -0.048513083,
      0.051785133,
      0.052895956,
      0.050344907,
      -0.04721327,
      -0.021107196,
      -0.038468556,
      0.052821111,
      -0.024145846,
      -0.025511295,
      0.029188393,
      -0.025974932,
      -0.02760625,
      -0.00490675,
      -0.005400531,
      -0.043658375,
      0.046516385,
      -0.024652982,
      0.01971943,
      0.048504156,
      0.028118536,
      0.007902103,
      0.047530768,
      0.007410714,
      -0.025923293,
      0.052864793,
      0.013116382,
      -0.054664942,
      -0.015974155,
      -0.038093852,
      0.048993129,
      -0.009306987,
      -0.051004261,
      -0.003550961,
      0.035053706,
      0.014439131,
      0.017629647,
      0.005179348,
      0.020838502,
      -0.013646096,
      -0.022278166,
      -0.052285543,
      -0.042142358,
      0.024184859,
      -0.03312383,
      0.008019435,
      0.017846441,
      0.003961497,
      -0.036243014,
      0.053464345,
      -0.032488994,
      0.045996329,
      -0.044472096,
      -0.013447292,
      0.03041181,
      -0.022834328,
      0.046960852,
      -0.038476974,
      -0.046915213,
      -0.025202815,
      0.009013205,
      0.051462999,
      -0.026683959,
      0.020000986,
      -0.014020825,
      -0.012156828,
      0.041160016,
      -0.043342083,
      0.005900352,
      0.052557226,
      -0.007677866,
      0.04341588,
      -0.017226131,
      0.044946618,
      -0.054006426,
      -0.008079904,
      -0.009855495,
      0.018098288,
      0.021936171,
      0.042930036,
      -0.008335825,
      -0.002239577,
      0.038342215,
      -0.015150285,
      0.048964524,
      -0.037234752,
      -0.006043959,
      -0.002994881,
      0.024932527,
      0.038231182,
      -0.008817787,
      -0.046338904,
      0.027660576,
      0.01671289,
      0.022459815,
      -0.034474793,
      0.035962601,
      0.052963238,
      0.004889925,
      -0.052239656,
      0.039217305,
      -0.041455606,
      0.012853465,
      0.008127762,
      -0.026170024,
      0.019474,
      -0.049981568,
      0.012715138,
      -0.035451618,
      -0.006045764,
      0.007197527,
      0.047629149,
      -0.026671779,
      0.03581899,
      -0.007087953,
      -0.026536982,
      -0.048672394,
      -0.051286281,
      0.0545985,
      -0.013951116,
      0.002767729,
      0.015152356,
      0.038010763,
      0.04771555,
      0.045342904,
      -0.041414875,
      -0.008954641,
      -0.033094402,
      -0.031965823,
      0.013256847,
      0.052450181,
      -0.044788597,
      0.03383606,
      -0.028987638,
      -0.010885918,
      0.044361344,
      -0.012654546,
      0.005075888,
      -0.039116516,
      0.047592305,
      -0.007240382,
      -0.040893187,
