{
 "begin_epoch": 2,
 "begin_batch": 220,
 "end_epoch": 2,
 "end_batch": 239,
 "weights": [
  {
   "epoch": 2,
   "batch": 220,
   "loss": 1.4019963342258235,
   "accuracy": 91.38461538461539,
   "input": [
    [
     0.0,
     0.0,
     0.0,
     0.0,
     0.0,
     0.0,
     0.0,
     0.0,
     0.0,
     0.0,
     0.0,
     0.0,
     0.0,
     0.0,
     0.0,
     0.0,
     0.0,
     0.0,
     0.0,
     0.0,
     0.0,
     0.0,
     0.0,
     0.0,
     0.0,
     0.0,
     0.0,
     0.0
    ],
    [
     0.0,
     0.0,
     0.0,
     0.0,
     0.0,
     0.0,
     0.0,
     0.0,
     0.0,
     0.0,
     0.0,
     0.0,
     0.0,
     0.0,
     0.0,
     0.0,
     0.0,
     0.0,
     0.0,
     0.0,
     0.0,
     0.0,
     0.0,
     0.0,
     0.0,
     0.0,
     0.0,
     0.0
    ],
    [
     0.0,
     0.0,
     0.0,
     0.0,
     0.0,
     0.0,
     0.0,
     0.0,
     0.0,
     0.0,
     0.0,
     0.0,
     0.0,
     0.0,
     0.0,
     0.0,
     0.0,
     0.0,
     0.0,
     0.0,
     0.0,
     0.0,
     0.0,
     0.0,
     0.0,
     0.0,
     0.0,
     0.0
    ],
    [
     0.0,
     0.0,
     0.0,
     0.0,
     0.0,
     0.0,
     0.0,
     0.0,
     0.0,
     0.0,
     0.0,
     0.0,
     0.0,
     0.0,
     0.0,
     0.0,
     0.0,
     0.0,
     0.0,
     0.0,
     0.0,
     0.0,
     0.0,
     0.0,
     0.0,
     0.0,
     0.0,
     0.0
    ],
    [
     0.0,
     0.0,
     0.0,
     0.0,
     0.0,
     0.0,
     0.0,
     0.0,
     0.0,
     0.0,
     0.0,
     0.0,
     0.0,
     0.0,
     0.125490196,
     0.564705882,
     0.0,
     0.0,
     0.0,
     0.0,
     0.0,
     0.0,
     0.0,
     0.0,
     0.0,
     0.0,
     0.0,
     0.0
    ],
    [
     0.0,
     0.0,
     0.0,
     0.0,
     0.0,
     0.0,
     0.0,
     0.0,
     0.0,
     0.0,
     0.0,
     0.0,
     0.0,
     0.0,
     0.51372549,
     0.878431373,
     0.074509804,
     0.0,
     0.0,
     0.0,
     0.0,
     0.0,
     0.0,
     0.0,
     0.0,
     0.0,
     0.0,
     0.0
    ],
    [
     0.0,
     0.0,
     0.0,
     0.0,
     0.0,
     0.0,
     0.0,
     0.0,
     0.0,
     0.0,
     0.0,
     0.0,
     0.0,
     0.0,
     0.662745098,
     0.988235294,
     0.454901961,
     0.0,
     0.0,
     0.0,
     0.0,
     0.0,
     0.0,
     0.0,
     0.0,
     0.0,
     0.0,
     0.0
    ],
    [
     0.0,
     0.0,
     0.0,
     0.0,
     0.0,
     0.0,
     0.0,
     0.0,
     0.0,
     0.0,
     0.0,
     0.0,
     0.0,
     0.0,
     0.662745098,
     0.988235294,
     0.352941176,
     0.0,
     0.0,
     0.0,
     0.0,
     0.0,
     0.0,
     0.0,
     0.0,
     0.0,
     0.0,
     0.0
    ],
    [
     0.0,
     0.0,
     0.0,
     0.0,
     0.0,
     0.0,
     0.0,
     0.0,
     0.0,
     0.0,
     0.0,
     0.0,
     0.0,
     0.0,
     0.666666667,
     0.992156863,
     0.156862745,
     0.0,
     0.0,
     0.0,
     0.0,
     0.0,
     0.0,
     0.0,
     0.0,
     0.0,
     0.0,
     0.0
    ],
    [
     0.0,
     0.0,
     0.0,
     0.0,
     0.0,
     0.0,
     0.0,
     0.0,
     0.0,
     0.0,
     0.0,
     0.0,
     0.0,
     0.0,
     0.662745098,
     0.988235294,
     0.545098039,
     0.0,
     0.0,
     0.0,
     0.0,
     0.0,
     0.0,
     0.0,
     0.0,
     0.0,
     0.0,
     0.0
    ],
    [
     0.0,
     0.0,
     0.0,
     0.0,
     0.0,
     0.0,
     0.0,
     0.0,
     0.0,
     0.0,
     0.0,
     0.0,
     0.0,
     0.0,
     0.662745098,
     0.988235294,
     0.203921569,
     0.0,
     0.0,
     0.0,
     0.0,
     0.0,
     0.0,
     0.0,
     0.0,
     0.0,
     0.0,
     0.0
    ],
    [
     0.0,
     0.0,
     0.0,
     0.0,
     0.0,
     0.0,
     0.0,
     0.0,
     0.0,
     0.0,
     0.0,
     0.0,
     0.0,
     0.101960784,
     0.952941176,
     0.988235294,
     0.109803922,
     0.0,
     0.0,
     0.0,
     0.0,
     0.0,
     0.0,
     0.0,
     0.0,
     0.0,
     0.0,
     0.0
    ],
    [
     0.0,
     0.0,
     0.0,
     0.0,
     0.0,
     0.0,
     0.0,
     0.0,
     0.0,
     0.0,
     0.0,
     0.0,
     0.0,
     0.11372549,
     0.992156863,
     0.992156863,
     0.109803922,
     0.0,
     0.0,
     0.0,
     0.0,
     0.0,
     0.0,
     0.0,
     0.0,
     0.0,
     0.0,
     0.0
    ],
    [
     0.0,
     0.0,
     0.0,
     0.0,
     0.0,
     0.0,
     0.0,
     0.0,
     0.0,
     0.0,
     0.0,
     0.0,
     0.0,
     0.11372549,
     0.988235294,
     0.91372549,
     0.08627451,
     0.0,
     0.0,
     0.0,
     0.0,
     0.0,
     0.0,
     0.0,
     0.0,
     0.0,
     0.0,
     0.0
    ],
    [
     0.0,
     0.0,
     0.0,
     0.0,
     0.0,
     0.0,
     0.0,
     0.0,
     0.0,
     0.0,
     0.0,
     0.0,
     0.0,
     0.11372549,
     0.988235294,
     0.658823529,
     0.0,
     0.0,
     0.0,
     0.0,
     0.0,
     0.0,
     0.0,
     0.0,
     0.0,
     0.0,
     0.0,
     0.0
    ],
    [
     0.0,
     0.0,
     0.0,
     0.0,
     0.0,
     0.0,
     0.0,
     0.0,
     0.0,
     0.0,
     0.0,
     0.0,
     0.0,
     0.11372549,
     0.988235294,
     0.658823529,
     0.0,
     0.0,
     0.0,
     0.0,
     0.0,
     0.0,
     0.0,
     0.0,
     0.0,
     0.0,
     0.0,
     0.0
    ],
    [
     0.0,
     0.0,
     0.0,
     0.0,
     0.0,
     0.0,
     0.0,
     0.0,
     0.0,
     0.0,
     0.0,
     0.0,
     0.0,
     0.160784314,
     0.992156863,
     0.658823529,
     0.0,
     0.0,
     0.0,
     0.0,
     0.0,
     0.0,
     0.0,
     0.0,
     0.0,
     0.0,
     0.0,
     0.0
    ],
    [
     0.0,
     0.0,
     0.0,
     0.0,
     0.0,
     0.0,
     0.0,
     0.0,
     0.0,
     0.0,
     0.0,
     0.0,
     0.0,
     0.552941176,
     0.988235294,
     0.658823529,
     0.0,
     0.0,
     0.0,
     0.0,
     0.0,
     0.0,
     0.0,
     0.0,
     0.0,
     0.0,
     0.0,
     0.0
    ],
    [
     0.0,
     0.0,
     0.0,
     0.0,
     0.0,
     0.0,
     0.0,
     0.0,
     0.0,
     0.0,
     0.0,
     0.0,
     0.0,
     0.552941176,
     0.988235294,
     0.658823529,
     0.0,
     0.0,
     0.0,
     0.0,
     0.0,
     0.0,
     0.0,
     0.0,
     0.0,
     0.0,
     0.0,
     0.0
    ],
    [
     0.0,
     0.0,
     0.0,
     0.0,
     0.0,
     0.0,
     0.0,
     0.0,
     0.0,
     0.0,
     0.0,
     0.0,
     0.0,
     0.945098039,
     0.988235294,
     0.658823529,
     0.0,
     0.0,
     0.0,
     0.0,
     0.0,
     0.0,
     0.0,
     0.0,
     0.0,
     0.0,
     0.0,
     0.0
    ],
    [
     0.0,
     0.0,
     0.0,
     0.0,
     0.0,
     0.0,
     0.0,
     0.0,
     0.0,
     0.0,
     0.0,
     0.0,
     0.0,
     1.0,
     0.992156863,
     0.658823529,
     0.0,
     0.0,
     0.0,
     0.0,
     0.0,
     0.0,
     0.0,
     0.0,
     0.0,
     0.0,
     0.0,
     0.0
    ],
    [
     0.0,
     0.0,
     0.0,
     0.0,
     0.0,
     0.0,
     0.0,
     0.0,
     0.0,
     0.0,
     0.0,
     0.0,
     0.0,
     0.894117647,
     0.988235294,
     0.658823529,
     0.0,
     0.0,
     0.0,
     0.0,
     0.0,
     0.0,
     0.0,
     0.0,
     0.0,
     0.0,
     0.0,
     0.0
    ],
    [
     0.0,
     0.0,
     0.0,
     0.0,
     0.0,
     0.0,
     0.0,
     0.0,
     0.0,
     0.0,
     0.0,
     0.0,
     0.0,
     0.552941176,
     0.988235294,
     0.658823529,
     0.0,
     0.0,
     0.0,
     0.0,
     0.0,
     0.0,
     0.0,
     0.0,
     0.0,
     0.0,
     0.0,
     0.0
    ],
    [
     0.0,
     0.0,
     0.0,
     0.0,
     0.0,
     0.0,
     0.0,
     0.0,
     0.0,
     0.0,
     0.0,
     0.0,
     0.0,
     0.109803922,
     0.745098039,
     0.168627451,
     0.0,
     0.0,
     0.0,
     0.0,
     0.0,
     0.0,
     0.0,
     0.0,
     0.0,
     0.0,
     0.0,
     0.0
    ],
    [
     0.0,
     0.0,
     0.0,
     0.0,
     0.0,
     0.0,
     0.0,
     0.0,
     0.0,
     0.0,
     0.0,
     0.0,
     0.0,
     0.0,
     0.0,
     0.0,
     0.0,
     0.0,
     0.0,
     0.0,
     0.0,
     0.0,
     0.0,
     0.0,
     0.0,
     0.0,
     0.0,
     0.0
    ],
    [
     0.0,
     0.0,
     0.0,
     0.0,
     0.0,
     0.0,
     0.0,
     0.0,
     0.0,
     0.0,
     0.0,
     0.0,
     0.0,
     0.0,
     0.0,
     0.0,
     0.0,
     0.0,
     0.0,
     0.0,
     0.0,
     0.0,
     0.0,
     0.0,
     0.0,
     0.0,
     0.0,
     0.0
    ],
    [
     0.0,
     0.0,
     0.0,
     0.0,
     0.0,
     0.0,
     0.0,
     0.0,
     0.0,
     0.0,
     0.0,
     0.0,
     0.0,
     0.0,
     0.0,
     0.0,
     0.0,
     0.0,
     0.0,
     0.0,
     0.0,
     0.0,
     0.0,
     0.0,
     0.0,
     0.0,
     0.0,
     0.0
    ],
    [
     0.0,
     0.0,
     0.0,
     0.0,
     0.0,
     0.0,
     0.0,
     0.0,
     0.0,
     0.0,
     0.0,
     0.0,
     0.0,
     0.0,
     0.0,
     0.0,
     0.0,
     0.0,
     0.0,
     0.0,
     0.0,
     0.0,
     0.0,
     0.0,
     0.0,
     0.0,
     0.0,
     0.0
    ]
   ],
   "output": 1,
   "conv_layer": {
    "w": [
     [
      [
       [
        -0.349351321,
        0.010937868,
        0.422712842,
        0.818662646,
        1.839981295
       ],
       [
        0.164458387,
        -0.630317704,
        -1.145680108,
        -1.166279583,
        -0.333665838
       ],
       [
        0.351507228,
        -1.06781473,
        -2.297665061,
        -1.990863831,
        -1.645576504
       ],
       [
        1.485510817,
        1.043014766,
        0.508648136,
        0.031065897,
        -0.68720278
       ],
       [
        0.216290504,
        0.642646335,
        0.931665347,
        1.397995149,
        0.732300044
       ]
      ]
     ],
     [
      [
       [
        1.309250205,
        1.718266963,
        0.61124181,
        0.226271292,
        -0.073750939
       ],
       [
        -0.990079452,
        -1.005546086,
        -1.602775713,
        -1.296210992,
        -1.059213832
       ],
       [
        -1.989846751,
        -2.231742264,
        -1.350413875,
        -0.578540066,
        -0.658332891
       ],
       [
        -1.586232935,
        -1.003538179,
        -0.034136225,
        0.143900908,
        -0.590956125
       ],
       [
        -0.76664413,
        1.043761252,
        0.901931387,
        0.066685207,
        -0.418302496
       ]
      ]
     ],
     [
      [
       [
        0.175696592,
        -0.504710264,
        -0.971927183,
        -0.620245959,
        -0.074453563
       ],
       [
        0.160109544,
        -0.206027658,
        0.111702915,
        0.241917054,
        0.725851938
       ],
       [
        -0.389243148,
        -0.026999661,
        0.830194578,
        0.12585428,
        -0.613439714
       ],
       [
        -0.357640762,
        -0.407026189,
        0.734261297,
        0.270252178,
        -0.095716011
       ],
       [
        0.759667586,
        -0.482246664,
        -0.265282234,
        0.139060752,
        1.36361265
       ]
      ]
     ],
     [
      [
       [
        0.328620193,
        0.020015074,
        -0.328630921,
        0.013983355,
        -0.216096044
       ],
       [
        -0.157107842,
        0.409003379,
        1.142040997,
        -0.2505835,
        -0.9739568
       ],
       [
        -0.673241262,
        0.33584877,
        1.213286035,
        -0.333535108,
        -1.678714639
       ],
       [
        -0.736610493,
        0.484028307,
        0.809200626,
        -0.6443039,
        -1.430999055
       ],
       [
        -0.31452073,
        0.395989238,
        0.99228175,
        -0.118972002,
        0.084028771
       ]
      ]
     ],
     [
      [
       [
        1.631721609,
        1.30112507,
        -0.176591255,
        -1.03056157,
        -0.51981147
       ],
       [
        0.383102304,
        -0.832476871,
        -1.655337664,
        -1.192193196,
        0.322629455
       ],
       [
        -0.636874742,
        -0.694960618,
        -1.044504866,
        0.72623252,
        0.925278253
       ],
       [
        -1.297049459,
        -0.343680573,
        0.888078434,
        1.233434569,
        -0.354358438
       ],
       [
        0.067112951,
        0.407906958,
        0.997480695,
        0.268236415,
        -1.346335045
       ]
      ]
     ]
    ],
    "b": [
     -1.511279837,
     0.47754631,
     -0.533421223,
     -0.362446795,
     -1.742854452
    ]
   },
   "dense_layer": {
    "w": [
     [
      0.007763317,
      -0.120593615,
      -0.3791327,
      -0.647160906,
      -0.27738186,
      -0.112337657,
      -0.137505658,
      0.156118231,
      0.078365522,
      0.092463994,
      -0.373398228,
      -0.25526159,
      0.371824991,
      0.771003778,
      0.450614105,
      0.182803833,
      0.223646482,
      0.073542706,
      -0.554527047,
      -0.753425172,
      -0.948819162,
      -0.730032528,
      0.010637809,
      0.717107751,
      0.16756915,
      -0.383031172,
      -0.89091122,
      -0.539624647,
      -1.166078125,
      -1.654199693,
      -0.614474681,
      0.575399067,
      -0.143896839,
      -1.108177712,
      -0.744795536,
      0.435627474,
      -0.18821453,
      -0.618633059,
      -0.826720113,
      -0.032340923,
      -0.166504338,
      -0.654688259,
      0.718557745,
      1.70797744,
      -0.398518883,
      -0.755977668,
      -0.689897283,
      -0.372804244,
      -0.047377501,
      -0.627764055,
      0.08095908,
      0.535945247,
      -0.155824441,
      -0.166800462,
      -0.347483908,
      -0.185378973,
      0.053225465,
      -0.073543899,
      0.023816808,
      0.072468263,
      0.074128794,
      0.09030647,
      -0.178490772,
      -0.071898566,
      0.034593316,
      0.040593976,
      0.016620941,
      0.150787481,
      0.353181073,
      0.322532421,
      0.110127327,
      0.068872238,
      0.025673576,
      -0.001899614,
      -0.241240936,
      -0.13446573,
      -0.343565924,
      -0.32021202,
      -0.184299363,
      -0.068086315,
      0.077476812,
      -0.106100723,
      -0.121974291,
      -0.212111754,
      -0.671707803,
      -0.461578749,
      0.053711705,
      -0.090288689,
      0.14143055,
      -0.421767839,
      -0.3750809,
      -0.095915518,
      0.844201126,
      0.146355549,
      -0.189101461,
      -0.072106212,
      -0.001916709,
      -0.744010322,
      -0.402859483,
      0.488209235,
      0.739366256,
      -0.44157902,
      -0.608377818,
      -0.010883548,
      0.031536524,
      -0.983863833,
      0.023662262,
      0.268448284,
      -0.195541315,
      -0.261998138,
      -0.243244757,
      0.248917312,
      0.063177643,
      -0.574968666,
      -0.192952767,
      -0.236025007,
      -0.233647908,
      0.169506528,
      0.456098746,
      0.214960151,
      0.045712742,
      0.056567822,
      0.287256592,
      0.374729841,
      0.53661842,
      0.493935981,
      0.123147792,
      0.093240226,
      0.107875799,
      -0.499559849,
      -0.811182077,
      -0.182329777,
      0.122633128,
      -0.852966553,
      -0.533263837,
      0.120559831,
      -0.217970396,
      -1.246481444,
      -0.883279101,
      1.203721388,
      2.016837954,
      1.164635968,
      -0.412231722,
      0.087233921,
      0.157005506,
      -0.702836315,
      1.564053611,
      0.986998601,
      0.360087151,
      0.766286767,
      1.268995825,
      0.567796138,
      0.979425046,
      1.178092577,
      1.341590139,
      -2.267523423,
      -3.906632006,
      0.044935584,
      1.089192815,
      0.993366471,
      1.003791638,
      1.410781655,
      0.099905119,
      -4.73989274,
      -2.990675912,
      0.844036252,
      0.655262422,
      0.854931673,
      -0.030378242,
      0.692640857,
      1.029022343,
      -1.610690741,
      -0.478690524,
      0.64269623,
      -0.213363066,
      0.497058136,
      -0.611348766,
      -0.172657713,
      1.655769451,
      0.929737323,
      0.342319363,
      -0.371018265,
      -0.416553702,
      0.193006417,
      -0.074832882,
      -0.299712389,
      0.307304927,
      0.859249297,
      0.078403887,
      -0.641414911,
      -0.444799954,
      0.092489491,
      0.131327079,
      0.075908807,
      -0.010366752,
      -0.245820475,
      -0.23726559,
      -0.236364105,
      -0.413724357,
      0.023337376,
      0.118969544,
      -0.220677226,
      -0.730379502,
      -0.461929927,
      0.268059558,
      0.292633682,
      -0.335517051,
      0.270698147,
      0.174759014,
      -0.287322389,
      -0.583655209,
      1.091863774,
      0.850109859,
      0.802881147,
      0.856325892,
      1.015943711,
      0.094410936,
      -0.019915316,
      1.143329863,
      1.910648377,
      -0.261265674,
      -0.802584594,
      0.714172924,
      1.577678434,
      -0.102520729,
      0.207826712,
      1.917413747,
      1.746599382,
      -2.837636456,
      -1.398791239,
      0.08764521,
      1.162888336,
      -0.351234213,
      -0.216660877,
      1.678415809,
      0.618691975,
      -1.565079103,
      -0.450122678,
      -0.104499344,
      0.299668002,
      -0.211715053,
      -0.552739284,
      0.309418621,
      0.470623675,
      -0.265017186,
      -0.198281706,
      -0.470542258,
      -0.115718887,
      0.110447165,
      -0.249659339,
      -0.318228042,
      0.281904712,
      0.072505858,
      -0.420957736,
      -0.609928231,
      -0.042216042,
      0.241990784,
      0.088162851,
      -0.200142221,
      -0.123172931,
      -0.323510667,
      -0.468002414,
      0.1165019,
      0.248059792,
      -0.010758233,
      -0.340467767,
      -0.404144226,
      0.00229017,
      0.376111218,
      -0.243298153,
      -0.584529387,
      0.093632925,
      0.062297417,
      -0.074824188,
      0.430760926,
      0.306392801,
      0.462480231,
      -0.489230593,
      -0.452675182,
      0.075268216,
      0.569929423,
      0.5772916,
      0.683405901,
      -0.24936596,
      -1.363290509,
      -0.402079659,
      0.044484453,
      0.130352224,
      0.750018604,
      0.421585162,
      0.056155167,
      -1.801919288,
      -0.396323594,
      0.398540276,
      0.366400259,
      0.229376471,
      0.288192599,
      -0.493795597,
      -0.071874848,
      -0.218990334,
      0.736305458,
      0.463788923,
      0.384170748,
      0.451929706,
      -0.01738392,
      -0.682615859,
      0.683996906,
      0.128145265,
      0.096778913,
      0.061134932,
      0.405888004,
      0.422356102,
      0.065770164,
      -0.513237855,
      -0.262596767,
      0.324791686,
      -0.049306358,
      0.199440549,
      0.279641079,
      0.171827973
     ],
     [
      -0.129000384,
      -0.263515427,
      -0.69588795,
      -1.272691465,
      -1.195551902,
      -0.361489543,
      0.200737798,
      0.191677981,
      -0.232750768,
      -0.139318413,
      -0.579715884,
      -1.491999762,
      -1.503124049,
      -1.589820094,
      -0.836351157,
      -0.448194398,
      -0.154383531,
      0.057026261,
      0.116150407,
      -0.077558394,
      -0.183805051,
      -1.159145699,
      -1.349139092,
      -0.577131886,
      -0.158279907,
      -0.06480847,
      -0.277074678,
      -2.137533201,
      -1.123554329,
      -1.318977772,
      -1.143625742,
      -0.5552733,
      -0.317723191,
      -0.136988985,
      -0.488218395,
      -2.365556084,
      -0.469112997,
      -1.188802438,
      -0.861901577,
      -0.42348561,
      0.051119623,
      0.260657116,
      -0.018797004,
      -1.712108121,
      1.122731238,
      0.118451518,
      0.392171631,
      -0.119055886,
      0.083451087,
      0.31390645,
      -0.653103448,
      -0.862802985,
      0.389941278,
      0.057673014,
      0.158930303,
      -0.244674531,
      -0.234399203,
      -0.556806384,
      -0.167583558,
      0.246338389,
      -0.400469662,
      -0.341995522,
      -0.199859104,
      -0.222445887,
      -0.117195485,
      -0.11394939,
      -0.153745286,
      0.008938018,
      0.346641957,
      0.311844701,
      -0.003635089,
      -0.178294761,
      -0.113630446,
      -0.192156182,
      -0.205794898,
      -0.181308357,
      0.763899393,
      -0.252074276,
      -0.462457592,
      -0.199958337,
      -0.077844489,
      -0.029739517,
      -0.116838678,
      -0.341450763,
      -0.008913782,
      -1.0480523,
      -0.020449143,
      -0.279985026,
      -0.141931272,
      0.005129912,
      0.248048195,
      -0.15505827,
      -0.352635031,
      -0.071958628,
      -0.249095131,
      -0.290709632,
      -0.162191916,
      0.023442889,
      0.398107136,
      -0.652822677,
      0.533923553,
      0.150814947,
      -0.261327784,
      -0.24319383,
      -0.106942486,
      0.066244158,
      -0.071422287,
      -0.285879328,
      0.810907696,
      -0.361666838,
      -0.498391632,
      -0.274227901,
      -0.148755016,
      -0.305696704,
      -0.698065975,
      -0.061968025,
      0.031215126,
      -0.674270309,
      -0.250503049,
      -0.132245563,
      -0.087611912,
      -0.124483684,
      0.031135928,
      0.553611296,
      0.157241487,
      -0.169229559,
      -0.165987633,
      -0.192339807,
      0.252229277,
      -0.082493692,
      0.671982685,
      1.027846929,
      -0.678902137,
      0.486572924,
      1.689147642,
      0.331490878,
      0.043489841,
      -0.754003374,
      -1.019196078,
      -1.608962897,
      -0.991901019,
      -1.773288043,
      0.441333211,
      0.046451515,
      -0.09595353,
      -0.983666605,
      -1.715350814,
      1.836602105,
      0.450974224,
      -2.254835587,
      -0.165614153,
      -0.153748689,
      -0.317191675,
      -1.664348801,
      -2.553806209,
      2.247222079,
      0.528318046,
      -1.192497759,
      -0.733409656,
      -0.225316514,
      -0.768977921,
      -1.557569681,
      -1.439091638,
      1.421192441,
      -1.057028472,
      -1.21685565,
      -0.919125468,
      -0.001231447,
      0.019872511,
      1.172455434,
      -0.436082941,
      0.047475253,
      -1.602462687,
      0.46941589,
      -0.232355323,
      0.022534291,
      1.385665542,
      2.462939094,
      -1.440497679,
      -3.23917846,
      0.424775347,
      1.790717553,
      0.273654448,
      0.180124163,
      0.690291898,
      1.014539858,
      -1.37645255,
      -2.536811046,
      -0.749745977,
      0.555024804,
      0.214589654,
      0.208897727,
      0.146395625,
      0.152997377,
      0.219277846,
      0.850047128,
      0.619893145,
      0.104497859,
      0.600265007,
      0.399081383,
      0.167125784,
      0.196924,
      0.293954113,
      0.192851076,
      -0.239341331,
      -0.426486321,
      0.243640838,
      0.340412953,
      0.121131639,
      0.249301996,
      0.022839667,
      -1.714158804,
      0.942633792,
      -1.022359275,
      -0.252886182,
      -0.028519657,
      0.147641802,
      0.211093527,
      -0.218226186,
      -2.103348089,
      2.149882431,
      -0.000331056,
      -0.449009458,
      -0.357681821,
      0.158036128,
      -0.068745416,
      -0.490237711,
      -1.019808969,
      1.6650002,
      -0.487083608,
      -0.932615723,
      -0.264694249,
      0.147612126,
      0.118138351,
      0.005947599,
      -0.359056646,
      0.747371216,
      -0.716597788,
      -0.310391946,
      -0.038961358,
      0.233807162,
      0.971233702,
      0.570114527,
      -0.36260572,
      -0.291358097,
      0.463597257,
      0.569145107,
      0.093593752,
      0.204278223,
      1.09718781,
      0.822277374,
      -1.027453445,
      -1.141956401,
      0.756575463,
      0.405449075,
      0.109438009,
      -0.052362866,
      -0.102765558,
      0.105554992,
      0.468506141,
      -0.511218006,
      0.413415034,
      0.777438725,
      -0.034176822,
      -0.069765782,
      -0.490130141,
      -0.573215079,
      -1.604755279,
      -0.558325033,
      0.678686175,
      0.703581752,
      -0.32169442,
      -0.202230748,
      -0.394194371,
      -0.803402407,
      -0.567121878,
      -0.243144208,
      -0.236693356,
      -0.110246263,
      -0.426887331,
      -0.182190361,
      -0.319827313,
      -1.280179593,
      0.602972896,
      -0.383790158,
      -0.318538785,
      -0.497524073,
      -0.448619017,
      -0.324087039,
      -0.713971295,
      -0.87597488,
      0.471945527,
      -1.037353813,
      -0.329915087,
      -0.537704741,
      -0.172077937,
      -0.296784943,
      0.672218244,
      0.028034104,
      -0.298540374,
      -1.207241733,
      0.54667664,
      -0.15089444,
      -0.136951324,
      0.609589123,
      1.681891597,
      -0.092154675,
      -2.274005348,
      -0.036091442,
      0.272693073,
      -0.378033233,
      -0.187130883,
      0.351631011,
      0.797493315,
      -0.714200063,
      -1.390605397,
      0.270428354,
      -0.00517306,
      -0.303008814,
      -0.13776812
     ],
     [
      0.075312196,
      0.314545323,
      0.501856162,
      0.470311035,
      0.93791604,
      0.646952393,
      0.213765096,
      -0.453296229,
      0.152954192,
      0.231015449,
      0.06214017,
      0.378681796,
      0.279188418,
      -0.013639492,
      -0.264932387,
      -0.544343605,
      -0.057950291,
      0.340564596,
      0.333599995,
      0.755859345,
      0.663155866,
      0.519605305,
      0.186989944,
      -0.293969097,
      0.431798729,
      1.690453708,
      1.188678118,
      1.146731779,
      -0.428060712,
      -1.527384632,
      -0.687422578,
      0.084988817,
      0.498530176,
      0.775047082,
      -0.150988347,
      -0.145173329,
      0.442563225,
      0.158926779,
      0.473496262,
      1.198485231,
      -0.559445318,
      -0.356530221,
      -0.34909919,
      0.609929059,
      1.158076126,
      1.724066667,
      1.789323865,
      1.250826362,
      -0.435620445,
      -0.707454132,
      -0.727560239,
      -0.307182196,
      -0.06547101,
      0.912040587,
      1.503234949,
      0.565766471,
      -0.000674261,
      0.231290183,
      0.278322727,
      0.253672192,
      0.205694975,
      0.18685292,
      0.161517567,
      -0.027758431,
      0.008991014,
      0.047971668,
      -0.085567172,
      -0.255931831,
      -0.425571341,
      -0.335593189,
      -0.094440831,
      0.048151109,
      0.042720935,
      0.193619405,
      0.385460746,
      0.008945716,
      -0.285413536,
      0.091104248,
      0.135704693,
      -0.065349455,
      0.04475521,
      0.759671913,
      0.221941866,
      -0.104654851,
      0.363931862,
      0.237524829,
      -0.136233671,
      -0.219819015,
      0.161795009,
      1.491388476,
      1.654777722,
      1.14860534,
      0.803900379,
      0.491072977,
      -0.025157046,
      -0.141672969,
      -0.014503573,
      0.412992994,
      0.325309028,
      -0.341229304,
      -0.05661647,
      -0.143286928,
      0.173689008,
      0.191390898,
      -0.172205489,
      -0.486294338,
      -0.872496146,
      -1.318138736,
      -0.823151386,
      -0.045953222,
      0.575409755,
      0.534279928,
      -0.081856702,
      0.015337197,
      -0.340655072,
      -0.248220677,
      0.525719078,
      0.61203805,
      0.802802894,
      0.630852244,
      0.054357949,
      0.243762105,
      0.429120574,
      0.696119697,
      -0.025562059,
      -0.12131838,
      0.233886408,
      0.142675922,
      -0.313872888,
      0.996677035,
      0.337860867,
      -0.37222126,
      -0.501323349,
      -0.124736483,
      -0.709762497,
      -0.850671996,
      0.393773581,
      1.388419269,
      1.159096355,
      1.005714228,
      0.70880946,
      0.277284971,
      0.133456463,
      -0.860605402,
      -1.046168702,
      -1.505029636,
      -1.839258328,
      -1.385637401,
      -1.324016383,
      -0.614321333,
      -0.57671222,
      -0.826565135,
      -1.986071077,
      -2.233467074,
      -0.983468642,
      -0.502421347,
      -1.133849371,
      -0.896415305,
      -0.520759963,
      -0.051153646,
      0.164531844,
      -0.000432166,
      1.224648846,
      2.542041685,
      1.144685807,
      -0.412808837,
      0.270635529,
      1.434677817,
      2.258382032,
      1.849389571,
      1.979544884,
      1.344042079,
      0.934363628,
      0.179891272,
      0.939756319,
      1.606244209,
      1.030201933,
      1.414341009,
      0.428217035,
      -0.873758741,
      -0.507946193,
      0.905021236,
      0.73744928,
      1.035510323,
      -0.460715738,
      -0.630858798,
      -0.740491423,
      -0.975822878,
      -1.077031309,
      -0.714145012,
      -0.381982863,
      0.024712033,
      -0.239435176,
      -0.282939383,
      -0.418857001,
      -0.74360624,
      -0.304871951,
      0.135275992,
      -0.051968084,
      -0.479415078,
      -0.185655093,
      -0.016175712,
      0.215015851,
      0.309231643,
      0.434045133,
      0.587990289,
      0.510650285,
      -0.34109284,
      -0.216398002,
      -0.521174076,
      -0.307263452,
      -0.395605183,
      0.317120278,
      0.810734085,
      0.382494561,
      -0.313578425,
      -0.385433813,
      -1.470281166,
      -1.819857046,
      -0.969733691,
      -0.367235248,
      0.613720531,
      0.131664033,
      -0.451214464,
      -0.167058652,
      -0.827994912,
      -1.459447085,
      0.379555276,
      0.927330498,
      -0.206823506,
      -0.998909263,
      -0.084426053,
      -0.026259639,
      0.156613602,
      -0.461720844,
      0.895648251,
      0.480317252,
      -0.598450631,
      -0.778353439,
      0.834538649,
      -0.06303451,
      0.581017536,
      0.413011814,
      0.027545374,
      -0.9222729,
      -0.158855993,
      -0.01091367,
      0.754817595,
      -0.27550097,
      -0.069456087,
      -0.001325777,
      -0.353602405,
      -0.907590297,
      -0.361949709,
      -0.227124653,
      0.000461779,
      -0.190697872,
      0.555962511,
      0.471104094,
      0.074519947,
      -0.254421551,
      -0.628237427,
      -0.771243422,
      -0.47103568,
      0.298961094,
      0.366006728,
      0.21580137,
      0.001480049,
      -0.457298531,
      -0.858778347,
      -0.887846362,
      -0.602291905,
      -0.184508363,
      -0.550589653,
      -0.430686087,
      -0.066743965,
      -0.354606968,
      -0.749142104,
      -0.426644037,
      -0.454766468,
      -1.110271059,
      -0.917948017,
      0.016027464,
      0.269209537,
      -0.26186344,
      -0.695153793,
      -0.178436596,
      0.214346596,
      0.147811079,
      0.851099244,
      1.910039802,
      1.639540369,
      0.457519784,
      0.137996618,
      0.48034239,
      1.111336943,
      1.032005843,
      0.849743456,
      1.8112788,
      1.474281306,
      1.07217636,
      0.146404694,
      0.44584255,
      0.921858918,
      0.50284665,
      0.480532705,
      0.061053955,
      -0.162148748,
      -0.122252607,
      -0.644322171,
      0.168253283,
      0.483180829,
      -0.51574023,
      -0.686509451,
      -0.68282376,
      -0.540928602,
      -0.680467044,
      -0.812720211,
      -0.060447816,
      0.122727445
     ],
     [
      0.27504209,
      0.527907833,
      0.836153907,
      1.535364968,
      1.074407445,
      0.498144739,
      0.122032745,
      -0.449646232,
      0.409905032,
      0.734634824,
      1.049239347,
      1.386374648,
      0.874569986,
      0.218011768,
      0.13590097,
      -0.197810757,
      -0.033842942,
      0.49239498,
      0.682062038,
      -0.273259478,
      0.646147017,
      -0.483577182,
      -0.274010515,
      -0.178702414,
      0.085640482,
      0.508816125,
      0.286757105,
      -0.105495449,
      1.421346931,
      0.500314658,
      0.088614031,
      -0.504510014,
      0.386189794,
      1.235610727,
      0.752444863,
      0.729704144,
      1.172870105,
      0.785411123,
      0.916358629,
      0.037664071,
      0.288010967,
      1.751541183,
      1.960687457,
      1.572510991,
      1.005603382,
      -0.217452554,
      -0.731228345,
      -0.275363355,
      0.11316545,
      0.507931318,
      0.816281497,
      0.80659296,
      -0.204850058,
      -1.01932088,
      -0.894222164,
      -0.456715786,
      0.109471995,
      0.267693117,
      0.571081378,
      -0.062698866,
      0.052581795,
      -0.000335932,
      0.034670368,
      -0.000230449,
      0.132723996,
      0.019336707,
      0.087832863,
      0.16049453,
      -0.120667548,
      -0.09622801,
      -0.043917649,
      0.03058171,
      0.01539862,
      0.042807056,
      -0.048723734,
      -0.786530469,
      -0.913176568,
      -0.738938768,
      -0.665702812,
      -0.103836342,
      0.04405712,
      0.553840814,
      0.568469838,
      0.626809643,
      0.061978149,
      -0.827248254,
      -0.592059504,
      -0.074804716,
      0.160151599,
      0.852835305,
      0.937016842,
      0.191150597,
      -0.950278414,
      -0.378706301,
      1.023016064,
      0.260925889,
      0.141071861,
      0.721366071,
      0.473442692,
      -0.409839474,
      -0.263423888,
      1.100851,
      0.648267215,
      0.043886879,
      -0.005803019,
      0.337113418,
      0.175526012,
      0.126484714,
      0.103704467,
      -0.001507713,
      0.055545869,
      -0.116265371,
      -0.018344916,
      0.303211543,
      0.17948747,
      0.047121723,
      -0.120450633,
      0.36421583,
      0.473674303,
      0.00839944,
      0.062041635,
      0.298848224,
      0.292184603,
      -0.089256192,
      0.24919313,
      0.559151796,
      0.161725232,
      -0.010919055,
      0.700833594,
      0.627176969,
      0.290262222,
      0.33931578,
      -0.498710152,
      -0.967387451,
      -0.671967238,
      -0.295856563,
      1.5777435,
      1.222201229,
      -0.481630632,
      0.637041854,
      0.022090885,
      -0.912910262,
      -0.315636807,
      -0.561623414,
      0.256819226,
      -1.264137431,
      -1.415528285,
      1.934815632,
      1.762661595,
      -0.011925987,
      -0.512846065,
      -0.71166804,
      -0.967906494,
      -1.676231989,
      1.108019311,
      2.023010944,
      0.237543966,
      -0.483193891,
      -0.717626628,
      -0.470523546,
      -0.1051717,
      -1.989031533,
      -1.065892308,
      0.196706131,
      0.110350647,
      -0.190374043,
      -0.094940239,
      -0.404978637,
      1.270105483,
      -0.930484091,
      -1.989880545,
      -0.910295855,
      1.200249839,
      0.443558558,
      0.238608649,
      -0.272124435,
      1.385719596,
      0.277967687,
      -0.031787415,
      -0.040714761,
      0.389395465,
      -1.266015199,
      -0.594301858,
      -0.364986017,
      0.805442696,
      0.514491073,
      0.70509907,
      0.674055933,
      -0.030393312,
      0.127626419,
      -0.262943237,
      -0.432987701,
      0.051868882,
      0.189262304,
      -0.07828778,
      -0.110352024,
      -0.107160068,
      -0.078706077,
      -0.061388982,
      -0.320944963,
      0.27588613,
      0.436590477,
      -0.329293735,
      -0.564151888,
      0.041607074,
      0.225210997,
      0.913756889,
      -0.415852954,
      0.301472613,
      -0.100693363,
      -1.782103754,
      -2.112148388,
      -0.21915391,
      0.821997531,
      0.601337326,
      -0.491529087,
      0.076267398,
      -0.528151916,
      -1.413577607,
      -0.865448652,
      0.125345168,
      -0.148281493,
      -0.453506843,
      -0.564922058,
      0.360788262,
      -0.087191525,
      -0.670350349,
      0.192818906,
      0.03283206,
      0.181097919,
      0.365704337,
      -0.254694723,
      0.734954024,
      0.311510663,
      -0.630941369,
      -0.979096644,
      -0.562813989,
      0.89602102,
      1.12011356,
      0.07371084,
      0.4781553,
      0.043816579,
      -0.588287521,
      -0.985174006,
      -0.477920522,
      0.201657402,
      0.011883724,
      -0.261212505,
      0.161095986,
      -0.194152547,
      -0.574041117,
      -0.307553157,
      -0.145260235,
      -0.106608535,
      -0.452175097,
      -0.426770056,
      0.321944147,
      0.198454315,
      -0.076924847,
      -0.016045464,
      -0.428167253,
      -0.494296888,
      -0.198402316,
      -0.04665176,
      1.100425964,
      1.357372628,
      1.02535339,
      0.379430391,
      -0.326890279,
      -1.212983983,
      -0.496772754,
      -0.253935414,
      0.482608482,
      0.200339388,
      0.016398166,
      0.862297462,
      1.01459583,
      1.20607724,
      0.214542449,
      -0.099425018,
      -0.424417832,
      0.208752814,
      2.02353739,
      2.366534299,
      0.782650839,
      0.222519962,
      0.285245747,
      0.084242859,
      -0.236582393,
      -0.378864224,
      0.130520602,
      -0.446266033,
      -0.403630404,
      0.037256446,
      0.02744373,
      -0.130687219,
      0.197348709,
      -0.938574613,
      -1.280716861,
      -1.024150169,
      0.455591879,
      0.253024703,
      -0.15299072,
      -0.35445778,
      0.493693648,
      0.030201918,
      -0.220083206,
      0.464178452,
      1.301447119,
      0.201770603,
      -0.099604679,
      -0.019518135,
      0.362164814,
      0.497040554,
      0.756686747,
      0.883989674,
      0.551066249,
      0.358147787,
      0.287850884,
      -0.019750611
     ],
     [
      0.113676913,
      0.482150427,
      0.531399758,
      0.27302129,
      -0.236337526,
      -0.901430877,
      -0.20036265,
      0.609080187,
      -0.054990587,
      0.12953188,
      -0.304204743,
      -1.124445431,
      -1.676383024,
      -1.712085781,
      -1.016296438,
      -0.007607567,
      -0.215370567,
      -0.524896889,
      -0.221873611,
      0.019829882,
      -1.263379408,
      -0.729829615,
      -0.841362102,
      -0.585946182,
      -0.159311997,
      -0.192568062,
      -0.081199645,
      0.669109093,
      -1.064108301,
      0.160013776,
      0.300720561,
      0.356809575,
      -0.195085669,
      -0.863764772,
      0.171202352,
      0.189568702,
      -0.849445091,
      0.605894907,
      0.285861124,
      -0.174874839,
      0.060839221,
      -0.836346594,
      -0.376872238,
      -1.150838124,
      -0.664896403,
      0.342828217,
      0.310364968,
      -0.054897741,
      0.028096704,
      0.570640277,
      0.44344369,
      -0.202195466,
      0.515518212,
      0.681415952,
      0.804647993,
      0.208956648,
      0.020474216,
      -0.056709146,
      -0.274335915,
      0.335682146,
      0.527011684,
      -0.414236906,
      -0.013758156,
      0.090135133,
      -0.121922788,
      -0.082707728,
      0.097465662,
      0.275444935,
      0.189318138,
      0.35958264,
      0.359981912,
      0.106035387,
      -0.120639468,
      -0.164824366,
      0.668982335,
      1.143275238,
      0.475284241,
      0.865975909,
      0.433286469,
      -0.024272804,
      -0.103295722,
      -0.228774173,
      0.69455423,
      0.161576689,
      -0.635142159,
      -0.812297855,
      -0.537991776,
      -0.05128656,
      -0.12244306,
      -0.72957308,
      -0.569890157,
      -0.885515549,
      -1.259438913,
      -0.727266413,
      -0.518751474,
      -0.136118714,
      -0.155527452,
      -1.001354924,
      -0.607006998,
      0.386825487,
      -0.755292699,
      -0.276581088,
      -0.090698636,
      0.132948937,
      -0.069352136,
      -0.04483676,
      0.618100683,
      0.354279047,
      0.547779529,
      0.212260401,
      0.203399445,
      0.207915541,
      -0.084630351,
      0.150756208,
      0.088153536,
      0.021649268,
      0.23341793,
      -0.803738805,
      -0.707985307,
      -0.300718159,
      -0.052230737,
      -0.16022519,
      -0.104485785,
      0.118852513,
      -0.032796321,
      -0.058570447,
      0.043483741,
      0.008056109,
      0.138489554,
      -0.051829116,
      -0.69803767,
      0.096793434,
      0.072386099,
      0.383010567,
      1.458168399,
      0.555219994,
      0.149507169,
      -0.312607983,
      0.052353401,
      -1.100376636,
      -1.054432839,
      1.583486841,
      0.80881886,
      0.079188805,
      -0.167201491,
      0.204139412,
      1.919713117,
      -1.980250967,
      -0.971315725,
      0.327776435,
      -1.194838386,
      -0.886118311,
      1.31589351,
      2.809133335,
      2.008492038,
      -1.379449528,
      0.352094316,
      1.95818384,
      0.443286762,
      -0.917349191,
      1.40018679,
      2.301965819,
      0.474605178,
      1.102290505,
      2.648510825,
      1.810368759,
      0.544929009,
      -0.610670736,
      -0.894798277,
      -1.23508961,
      -1.476779895,
      0.470426487,
      0.718137029,
      -0.450857174,
      -0.371659913,
      -0.513734072,
      -0.96843348,
      -1.766297422,
      -0.796027619,
      -0.577625917,
      -0.496767928,
      0.114484833,
      -0.187055791,
      -0.437391764,
      -0.201458872,
      -0.334356906,
      0.135779901,
      -0.970495268,
      -1.522864744,
      -0.191490931,
      0.44143801,
      0.078394729,
      -0.010257691,
      0.0289977,
      -0.071367549,
      0.19967268,
      0.654373643,
      0.272741311,
      0.267073219,
      0.481658343,
      -0.011979452,
      0.448522951,
      0.838114605,
      1.940499489,
      1.703474848,
      1.241221045,
      0.489793467,
      0.73441452,
      -0.126705424,
      0.128703844,
      0.851587572,
      1.792887738,
      0.278469265,
      0.9534881,
      -0.54323019,
      -0.146430193,
      -0.068478701,
      0.2054451,
      0.534381446,
      0.929325207,
      -0.632353876,
      1.36895673,
      0.197905548,
      -0.470477571,
      -0.147623162,
      0.416340936,
      -0.112214719,
      -0.588294076,
      0.562802313,
      1.472798804,
      0.701931164,
      -0.079298656,
      -0.151639754,
      -0.007804115,
      -0.992102115,
      -0.608237408,
      0.980225851,
      0.152094547,
      -0.348333925,
      -0.442736963,
      -0.096649662,
      -0.430943628,
      -0.461317692,
      -0.113299354,
      0.333276937,
      -0.178846224,
      -0.064060796,
      -0.333407028,
      -0.040490393,
      -0.094918795,
      0.440280336,
      0.850620378,
      0.256176117,
      0.319043461,
      0.740198852,
      0.148811548,
      -0.099250097,
      -0.149303114,
      -0.275666059,
      -0.144407318,
      -0.083032726,
      -0.059636415,
      0.096073104,
      0.215802251,
      0.159558656,
      0.092764896,
      -0.176446018,
      -0.63808691,
      -0.233424252,
      1.163574359,
      1.281808223,
      0.358492974,
      -0.293210655,
      -0.727600594,
      -0.193166265,
      -0.657744784,
      0.204705715,
      0.804344166,
      0.451038103,
      0.008622571,
      0.274145342,
      0.451651195,
      0.613628026,
      -1.028461089,
      -0.125778018,
      -0.193344258,
      0.382699458,
      0.008283907,
      0.776547782,
      0.752291319,
      -0.246820332,
      -0.711827341,
      -0.217232982,
      -0.06669702,
      0.511545892,
      -0.163827533,
      -0.152616145,
      -0.554065104,
      -0.399119844,
      0.636443929,
      -1.124636492,
      -0.637980378,
      0.136310745,
      -0.043839565,
      -0.595715147,
      -0.626280004,
      0.250689013,
      -0.245053071,
      -0.911689974,
      -0.239575893,
      -0.386606155,
      -0.31299026,
      -0.115754501,
      0.278918234,
      0.492643047,
      -0.253350629,
      -0.195713906,
      0.069992784,
      -0.053585903,
      -0.126739119
     ],
     [
      -0.349172545,
      -0.635443401,
      -0.705168949,
      -0.320790486,
      0.144266393,
      0.996390671,
      0.344218104,
      -0.137025239,
      -0.414988509,
      -0.482904149,
      0.073861307,
      0.155784976,
      0.222643131,
      0.725506594,
      1.216012941,
      1.276111775,
      -0.063690163,
      -0.513374583,
      -0.810408835,
      0.002107569,
      1.038621896,
      1.607245289,
      0.679437487,
      0.057672747,
      -0.260441656,
      -0.828602835,
      -0.28641794,
      0.31795131,
      1.525570697,
      2.359519813,
      1.159612546,
      -0.340686719,
      0.050704995,
      0.740810758,
      0.330765128,
      1.376782306,
      1.157486495,
      0.320395603,
      0.319274365,
      0.119651993,
      0.206880921,
      1.69571698,
      1.378791212,
      1.255216623,
      0.017392919,
      -0.275783493,
      -0.262876487,
      0.164838282,
      0.167741588,
      0.634029915,
      -0.38109907,
      0.509312109,
      -0.213453531,
      -0.290011508,
      -0.416901791,
      -0.018132379,
      -0.214315483,
      -0.008645611,
      -0.070240845,
      -0.102163101,
      -0.332864415,
      -0.157358221,
      -0.144421865,
      -0.06209625,
      -0.034792097,
      -0.049001944,
      0.053920529,
      0.052393086,
      -0.155470366,
      -0.19550885,
      0.066167336,
      0.121026228,
      -0.059090406,
      -0.072507191,
      -0.29382399,
      -0.198991284,
      -0.167735239,
      0.435382905,
      0.707142904,
      0.412207607,
      -0.06159711,
      -0.363402591,
      -0.558253608,
      0.00880408,
      0.435537992,
      0.659916716,
      0.757562161,
      0.666132463,
      -0.045300769,
      -0.441389733,
      -0.734024874,
      -0.14905004,
      0.993745059,
      1.093200579,
      0.259428492,
      0.386379797,
      0.021265933,
      0.852216372,
      0.3966993,
      0.860179175,
      1.422464485,
      0.706427107,
      -0.308435189,
      -0.306434508,
      0.100229279,
      1.057207089,
      0.940121891,
      0.6589401,
      0.539156265,
      0.065034422,
      -0.314686197,
      -0.379968936,
      0.019263824,
      0.653990258,
      0.985471836,
      0.549497746,
      -0.272401727,
      -0.371966469,
      -0.444725116,
      -0.092620092,
      -0.043278307,
      -0.089424458,
      -0.073359707,
      -0.41778382,
      -0.197262478,
      0.074766026,
      0.218829973,
      0.136326956,
      -0.676340772,
      -0.593830324,
      -0.017841025,
      0.251732428,
      0.940738163,
      0.990558375,
      -0.912407481,
      -0.198899271,
      -1.066941477,
      0.077983891,
      0.300133249,
      -0.822483788,
      -0.484113349,
      1.538426602,
      0.996197793,
      2.226562281,
      -0.076054172,
      0.435958112,
      0.307484376,
      -0.448338925,
      -1.542034247,
      0.032243772,
      0.080066257,
      2.496380222,
      -0.34037736,
      0.162990611,
      1.953486935,
      1.313488884,
      -1.642961356,
      -1.363293239,
      -1.406412801,
      -0.120173806,
      0.022727158,
      -0.861470314,
      0.035025001,
      -0.823327515,
      -1.141370802,
      -1.308742485,
      -0.93491899,
      -0.785201896,
      0.647076622,
      -0.324554365,
      -0.853085054,
      -0.553091787,
      -0.2710263,
      -0.646484314,
      0.552340247,
      -0.047549973,
      -0.32479879,
      -0.614655223,
      0.441836706,
      0.967826525,
      0.675961978,
      0.546860426,
      1.082384386,
      0.135604009,
      -0.474991534,
      -0.797019081,
      0.45781404,
      1.505557605,
      1.041323402,
      0.456681974,
      0.220949668,
      -0.031435144,
      -0.144941579,
      -0.233170358,
      -0.25200275,
      -0.111461655,
      -0.017033457,
      0.1527479,
      -0.355943578,
      -0.135349374,
      -0.313610155,
      -0.198930994,
      0.48710747,
      -0.304439406,
      -1.663006981,
      -0.649819193,
      -0.938042293,
      0.288786721,
      -0.271484712,
      0.110216013,
      0.070440275,
      0.288069542,
      -0.910306551,
      -1.254382197,
      -1.606623699,
      0.147456619,
      -0.09697627,
      0.164857598,
      0.193845933,
      1.129495913,
      -0.578154433,
      -0.791540271,
      -0.962363918,
      -0.843415237,
      -0.113518804,
      -0.041325878,
      -0.041297605,
      0.009231382,
      -0.805893143,
      -0.143994044,
      -0.224048738,
      -0.679742277,
      -0.176349407,
      -0.212184927,
      -0.542612842,
      -0.163929188,
      -0.181296961,
      -0.049862914,
      0.237411603,
      0.262651962,
      -0.092830523,
      -0.466042842,
      -0.50832756,
      0.038699212,
      0.069125979,
      0.003250035,
      0.256954524,
      0.539792057,
      -0.080781194,
      -0.697767484,
      -0.874626334,
      -0.2812265,
      -0.196033866,
      0.006924422,
      0.26368723,
      0.229597317,
      -0.309792671,
      -0.680178924,
      -0.710110823,
      -0.422273165,
      0.418920574,
      0.471035749,
      -0.27498236,
      -0.046493917,
      -0.715950387,
      -0.46257565,
      -0.230059059,
      -0.148113333,
      0.429573828,
      1.284479351,
      0.816441136,
      1.173955418,
      -0.303527312,
      -0.066519548,
      -0.575197908,
      -0.726105609,
      -1.488993999,
      -0.982833201,
      -0.288882268,
      1.352608049,
      0.081772833,
      -0.178816959,
      0.392538006,
      -0.476944608,
      -2.038527754,
      -1.647056713,
      -1.602413116,
      0.018429216,
      -0.332554258,
      -0.459093086,
      -0.276532855,
      -0.502354637,
      -0.724006405,
      -0.778176865,
      -1.123642852,
      -0.488889525,
      0.333778542,
      -0.417888307,
      -0.9781508,
      -0.328461913,
      0.223270983,
      -0.447715142,
      -0.18909207,
      -0.298321844,
      -0.026625502,
      0.605651343,
      0.594086245,
      0.298441356,
      0.628910095,
      0.166982781,
      0.627064825,
      -0.158068524,
      -0.249033103,
      -0.131256152,
      0.56674521,
      1.063767799,
      0.652710443,
      0.279798812,
      0.109614029,
      -0.101672617
     ],
     [
      0.045460483,
      -0.16046416,
      -0.589668772,
      -1.101345892,
      -1.312547968,
      -0.691700974,
      0.143887962,
      0.43208858,
      -0.049397161,
      -0.356318943,
      -0.542924528,
      -1.149048916,
      -1.708546622,
      -1.145508904,
      -0.754964571,
      -0.26719682,
      0.030463734,
      0.019804615,
      0.082222397,
      -0.830439421,
      -0.187630866,
      1.082408397,
      1.231660103,
      0.837314811,
      -0.000767468,
      -0.334521211,
      -0.733093763,
      0.0839181,
      2.155375454,
      1.806009063,
      0.930132495,
      0.92749659,
      -0.202124078,
      -0.792840523,
      -1.34506319,
      0.056441812,
      1.110754582,
      0.495064776,
      -0.347346686,
      -0.075357963,
      0.091365242,
      -0.931581952,
      -1.147679775,
      0.342174552,
      0.383808609,
      -0.089147827,
      -0.020061005,
      -0.089583366,
      0.172095541,
      0.040362656,
      -0.636280396,
      -0.733514876,
      -0.85249354,
      -0.210242757,
      0.283783564,
      0.084726518,
      0.170519648,
      0.246685549,
      0.61839944,
      0.697359123,
      0.294435632,
      -0.00412109,
      -0.058749301,
      0.12508819,
      -0.122594712,
      -0.14200595,
      -0.216097679,
      -0.22106904,
      0.050126733,
      -0.186882995,
      -0.327838502,
      -0.189834209,
      -0.164012559,
      -0.187902599,
      -0.283311724,
      -0.059232025,
      0.074058495,
      -0.025028235,
      0.236868675,
      -0.03848263,
      -0.149805149,
      -0.215635039,
      -0.136208774,
      0.126822777,
      0.908533256,
      0.951377959,
      0.43931598,
      -0.095793855,
      -0.054791084,
      -0.351638626,
      -0.503376213,
      -0.863172274,
      0.685351619,
      0.120244569,
      -0.464361842,
      -0.466493047,
      -0.054118809,
      -0.51889901,
      -1.369585723,
      -1.281209541,
      -0.483399195,
      -0.570387862,
      -0.306652021,
      -0.17009636,
      -0.023398285,
      -0.449673709,
      -1.383087673,
      -1.315761222,
      -1.588808455,
      -0.961500193,
      -0.108870515,
      -0.101323126,
      -0.124373956,
      -0.065542912,
      -0.241930566,
      0.105826177,
      -0.078044263,
      0.586412496,
      0.429413928,
      -0.088496461,
      -0.175632359,
      -0.179788665,
      -0.217997648,
      -0.42821038,
      -0.160517426,
      -0.037260848,
      -0.261951682,
      -0.257910071,
      -0.126234989,
      0.729756459,
      1.240480495,
      0.506279345,
      1.691133303,
      2.041417026,
      1.35933317,
      0.438840828,
      -0.82677077,
      -0.495397974,
      -1.115800127,
      -1.221747063,
      -2.238964254,
      -1.353817864,
      -0.46653466,
      -0.215421919,
      -0.315767758,
      0.55363514,
      0.762644122,
      -1.81346282,
      -1.721382313,
      -1.809994938,
      0.136259445,
      -0.232045703,
      0.155644649,
      1.358331584,
      0.880043407,
      0.468954816,
      0.367526924,
      -1.33957406,
      1.208300985,
      0.83159562,
      -0.633040657,
      1.217346381,
      1.825114811,
      1.106058641,
      -0.948341201,
      -0.554593415,
      0.421344376,
      0.424402417,
      -1.583511588,
      0.68420281,
      3.975043148,
      2.879793488,
      2.729095424,
      1.933056084,
      0.58528815,
      0.007682535,
      -1.134279511,
      -0.75188578,
      2.227908428,
      3.616327625,
      2.351820746,
      0.929001104,
      0.321331988,
      -0.286595181,
      -0.352634947,
      -0.902429596,
      -0.780367787,
      -0.123112108,
      0.204333109,
      -0.422903619,
      -0.769196817,
      -0.380548508,
      0.05116535,
      0.239222576,
      1.111612959,
      1.151421517,
      0.859137636,
      1.19472914,
      1.096427848,
      0.481586991,
      0.041519912,
      0.202561676,
      0.407803525,
      -0.379524148,
      -0.668773105,
      -0.992124262,
      -0.435346821,
      -0.148035574,
      -0.004760836,
      0.446171133,
      0.202236935,
      0.334476042,
      -0.826162912,
      -1.824075705,
      -1.110870468,
      -0.088367835,
      0.05265775,
      0.875106984,
      0.961928474,
      1.047686591,
      0.189629322,
      -1.799895121,
      -0.00451934,
      1.322522969,
      -0.121834088,
      0.507398931,
      1.268411872,
      1.225192291,
      0.151946432,
      -0.911057199,
      0.466164172,
      1.269380749,
      -0.205091723,
      -0.124089262,
      0.800776126,
      1.146909063,
      0.206366325,
      0.584352366,
      0.245096043,
      0.262381135,
      -0.061864751,
      -0.363268678,
      0.716491026,
      1.758769875,
      1.262472149,
      1.066312094,
      0.650934525,
      -0.079782778,
      0.111048779,
      -0.168726673,
      -0.052583279,
      0.091888229,
      0.22578539,
      -0.111993955,
      -0.502760801,
      -0.277155237,
      0.06526983,
      0.502112588,
      0.937567498,
      0.888706751,
      1.867988999,
      1.69899177,
      0.537294184,
      0.109653737,
      -0.31356349,
      -0.373655444,
      -0.676082411,
      -0.050734514,
      0.489749929,
      0.577130243,
      0.219763378,
      0.044413759,
      -0.272168515,
      -0.084636834,
      -0.024698421,
      0.03657919,
      0.222676547,
      -0.233738806,
      -0.1626428,
      -0.126609291,
      0.129402837,
      0.203324001,
      -0.006317343,
      0.089352327,
      1.083733767,
      0.047159955,
      0.059939507,
      -0.251117223,
      -0.284756881,
      -0.13352776,
      -0.061804569,
      1.034241725,
      0.619610074,
      -0.022949404,
      0.125758455,
      -0.228970761,
      -0.541830245,
      -0.193030914,
      0.094347779,
      -0.795010036,
      0.205648822,
      0.689910199,
      0.292594056,
      0.043659503,
      -0.480755349,
      -0.392354181,
      0.353924409,
      0.436878298,
      0.13508293,
      0.274174897,
      0.39826728,
      0.103278913,
      -0.031839598,
      -0.631562647,
      -1.419649974,
      -1.289698877,
      -0.521187438,
      -0.01650952,
      -0.141161378,
      -0.119235869
     ],
     [
      -0.184172313,
      -0.306946321,
      -0.242430885,
      -0.11536438,
      -0.260972399,
      -0.589886075,
      -0.757999872,
      -0.445750671,
      0.172102631,
      0.52584206,
      1.495545647,
      1.799123792,
      0.907844532,
      0.378953698,
      0.097838892,
      -0.291326272,
      0.468577417,
      0.958738497,
      0.7995011,
      0.28533624,
      -0.192474178,
      -0.126318972,
      -0.589167956,
      -0.431621276,
      0.115859263,
      0.115534209,
      -0.280706517,
      -1.254404647,
      -1.707082544,
      -0.02989761,
      0.315198767,
      -0.06595692,
      -0.308823938,
      -0.398787521,
      -0.070340116,
      -0.296432798,
      -0.957040119,
      0.13408925,
      0.53050333,
      -0.396345148,
      -0.283026465,
      -0.216005868,
      -0.262793456,
      -0.773933634,
      -1.219161579,
      -1.00945372,
      -0.883742567,
      -0.799598626,
      -0.039321317,
      0.29016949,
      0.069194349,
      -0.354365385,
      0.290353341,
      0.073366904,
      -0.59944567,
      -0.499130624,
      -0.210492002,
      -0.42659406,
      -0.248126361,
      -0.070303056,
      0.568358535,
      0.470611224,
      -0.144137514,
      -0.156216417,
      0.030720829,
      0.042088138,
      0.063816966,
      -0.12181024,
      -0.303472274,
      -0.338484532,
      -0.156334881,
      -0.054697443,
      0.020972786,
      0.23909562,
      0.467253581,
      0.459645945,
      0.194336346,
      0.12975886,
      0.066328176,
      -0.059732285,
      -0.026689631,
      0.152969234,
      -0.074515138,
      0.093698065,
      0.10138857,
      -0.091642562,
      -0.202288363,
      -0.05556608,
      -0.07736896,
      0.101846152,
      0.645925911,
      2.320660328,
      0.88306255,
      0.084840503,
      0.221363429,
      0.02052248,
      -0.020959883,
      0.445039132,
      1.6744851,
      1.954986484,
      -0.412493249,
      -0.483333341,
      -0.038658247,
      -0.009719692,
      0.026287643,
      0.47405592,
      1.221247705,
      0.877353032,
      0.042516803,
      0.782651054,
      0.792533275,
      0.22054823,
      -0.011277727,
      0.052969576,
      0.124208071,
      0.087591564,
      0.256612085,
      0.26316605,
      -0.078983809,
      -0.201648551,
      -0.096636854,
      -0.166067272,
      -0.36675834,
      -0.63121172,
      -0.454575851,
      -0.556408059,
      -0.371924177,
      -0.125968649,
      0.151625595,
      -0.111581957,
      -0.340010401,
      -0.913472383,
      -1.070574876,
      -0.885549585,
      -0.35747873,
      0.079269485,
      0.630470566,
      0.627287575,
      0.857007226,
      0.395991977,
      0.822180988,
      0.249833098,
      -0.2405063,
      -0.283851021,
      0.489020748,
      0.432418048,
      -0.991062358,
      -0.23715866,
      1.899246574,
      0.521798096,
      -0.491335696,
      -0.401370024,
      0.394443063,
      -0.192424656,
      -2.737783063,
      -2.887187485,
      1.708735939,
      1.323697011,
      0.116396889,
      -0.058095121,
      -0.18695772,
      -0.007429716,
      -1.94789687,
      -2.175048303,
      -0.024480661,
      0.981825649,
      0.636547715,
      -0.073341298,
      -0.703888826,
      -1.372003324,
      -1.227917118,
      -0.412796633,
      -1.902061889,
      -0.986133981,
      -0.666269902,
      -0.268978992,
      0.248178256,
      -0.030942104,
      -1.333290711,
      -1.352640413,
      -1.654303697,
      -1.661908929,
      -1.684657519,
      -0.484114997,
      0.693143195,
      1.957769231,
      1.040815088,
      0.44598347,
      0.869678868,
      -0.641944315,
      -0.782870819,
      -0.100098966,
      0.164751644,
      0.106259209,
      0.083145058,
      0.071829183,
      -0.343441082,
      -0.643250103,
      -0.326394533,
      -0.048448468,
      0.179846063,
      -0.055026955,
      0.023679339,
      -0.090185174,
      0.103402093,
      0.335960777,
      0.354370919,
      -0.071989432,
      0.283745038,
      -0.496479168,
      0.128845505,
      0.291932713,
      0.57579273,
      1.346413547,
      0.770963536,
      -0.212270636,
      0.300457567,
      -0.2702588,
      -0.435621685,
      -1.154278294,
      -0.356600549,
      1.27440468,
      0.390265272,
      -0.238985539,
      0.191250893,
      0.254914074,
      0.346729071,
      -1.264406149,
      -1.164959121,
      0.225269066,
      0.547329184,
      -0.231923746,
      0.166649432,
      0.037709907,
      0.108178089,
      -0.437152298,
      0.092291394,
      -0.20984799,
      -0.046314192,
      -0.491894874,
      0.127808626,
      0.24652837,
      -0.265859894,
      -0.606150598,
      0.308531436,
      -0.760659001,
      -1.247922406,
      -0.716899461,
      0.188010941,
      0.629486775,
      0.643850789,
      0.540228638,
      0.972120228,
      0.109429103,
      -0.566014106,
      -0.199745,
      -0.012379449,
      -0.238933577,
      -0.397060409,
      -0.567931968,
      -0.537828747,
      -0.456757769,
      -0.313055122,
      -0.118870722,
      -0.094820936,
      -0.592260269,
      -0.693784075,
      -1.55902257,
      -1.205254813,
      -0.225510996,
      0.253505779,
      -0.131571479,
      0.253964302,
      0.01288538,
      -0.536237689,
      -0.351248847,
      -0.032464703,
      -0.19484505,
      -0.160974794,
      -0.28684907,
      0.079416336,
      -0.252893141,
      -1.214999617,
      -1.4958907,
      0.621424046,
      0.572261359,
      0.232045015,
      0.09510186,
      -0.03886249,
      0.23812488,
      -0.436527245,
      -0.854943782,
      0.608552404,
      0.855688903,
      0.376826944,
      -0.102235833,
      -0.460997926,
      -0.509708991,
      -0.333067593,
      0.505169954,
      -0.65077934,
      -0.307853446,
      -0.210923887,
      -0.083859952,
      -0.264404772,
      -0.204933305,
      0.060318298,
      0.337850214,
      -0.912171389,
      -0.66731264,
      -0.747623742,
      -0.32053947,
      0.316316261,
      1.096271893,
      0.942854744,
      0.306425695,
      -0.054879499,
      -0.586967686,
      -0.52148007,
      -0.217249819
     ],
     [
      0.160423751,
      0.311272165,
      0.714367439,
      1.22873089,
      1.148659208,
      0.307175323,
      0.126179606,
      0.128712571,
      0.168684051,
      0.036844992,
      -0.325065856,
      -0.507954138,
      0.102309587,
      0.517109049,
      0.607727337,
      0.567910743,
      0.07583803,
      -0.345815686,
      0.200460791,
      0.67437811,
      0.383771776,
      0.028498954,
      0.764983661,
      0.603630528,
      -0.012085474,
      -0.423938926,
      0.870388861,
      0.709043658,
      0.891726722,
      -0.042429894,
      -0.085987578,
      -0.04868431,
      0.224433189,
      0.692012093,
      0.132244049,
      -0.826115213,
      0.772998096,
      0.935124852,
      0.528515943,
      0.258429087,
      0.107391067,
      -0.857369945,
      -1.443979459,
      -0.914810139,
      1.045877221,
      1.305574209,
      0.441029165,
      0.372487511,
      -0.093561665,
      -1.426581472,
      0.077045493,
      0.540762529,
      0.649787478,
      -0.036887438,
      -0.377877683,
      0.057472778,
      0.181632393,
      0.180350998,
      -0.171497319,
      -0.530723947,
      -0.435208973,
      -0.266116618,
      0.07555895,
      0.098085399,
      0.03392379,
      0.113680241,
      -0.018370749,
      0.006156378,
      0.065600137,
      0.169775085,
      0.148128699,
      0.049724958,
      0.097062417,
      -0.111867954,
      -0.32942801,
      -0.032386087,
      0.088805473,
      0.085053311,
      0.033494603,
      0.035596975,
      0.023691785,
      -0.399800625,
      -0.734536741,
      -0.292362298,
      -0.364560942,
      0.277277674,
      0.02983699,
      0.056633874,
      0.072102505,
      -0.131744866,
      -0.514000309,
      -0.575033685,
      -0.971232647,
      -0.584290017,
      0.0804664,
      0.356142398,
      0.070075732,
      0.264537635,
      -0.681550484,
      -0.808361051,
      -0.545314334,
      0.467877998,
      0.578579667,
      0.245730049,
      0.088427556,
      -0.421503314,
      -0.906461642,
      -0.681614715,
      0.137968662,
      0.388093516,
      -0.322354536,
      -0.224521057,
      0.14169942,
      -0.469788264,
      -0.433024503,
      -0.674605955,
      -0.264191089,
      -0.298881647,
      -0.265311456,
      0.109184937,
      0.097128291,
      0.144559511,
      0.272117572,
      0.339893568,
      0.252777299,
      0.412741858,
      0.327581619,
      0.206890515,
      -0.179540994,
      -0.287680353,
      0.121235218,
      0.803307999,
      0.964567961,
      -0.621162633,
      -0.806273449,
      -0.053931841,
      -0.072947673,
      0.447494685,
      0.279987346,
      0.200126208,
      0.813061986,
      0.332124348,
      -0.184453215,
      0.588750327,
      0.356675338,
      1.785321205,
      0.627240182,
      0.879488949,
      0.207079148,
      1.712567097,
      0.99204633,
      0.911923948,
      -0.49777324,
      0.181228615,
      0.212101643,
      1.610662334,
      1.998969479,
      0.699446043,
      0.419677397,
      0.759313372,
      -0.874090855,
      0.173012945,
      1.394760225,
      1.672119802,
      0.752986462,
      -0.125812181,
      0.129446663,
      -0.139152965,
      0.022990073,
      1.095556593,
      0.824434018,
      -1.054123689,
      -1.318794234,
      -0.808216733,
      -0.202762162,
      -0.460866258,
      -0.598638272,
      0.155585891,
      0.443288113,
      1.743271831,
      0.221406248,
      -0.091953315,
      0.07794255,
      -0.049194579,
      -0.796095025,
      -1.029064711,
      -0.672583389,
      0.937452329,
      1.467257445,
      0.765798751,
      0.359345924,
      0.097659098,
      -0.063558509,
      -0.208193351,
      -0.40433304,
      -0.353435927,
      -0.174555184,
      0.040650269,
      -0.273807187,
      -0.278502512,
      -0.096435566,
      -0.203567258,
      -0.279977778,
      -0.17534313,
      0.199976737,
      -0.2249964,
      -0.574983039,
      0.131533494,
      -0.086934408,
      0.430348484,
      0.874282106,
      0.603814079,
      -0.2335279,
      -0.481960141,
      0.169706693,
      0.639811337,
      -0.098857208,
      0.311880547,
      0.074091368,
      0.900575188,
      0.579380523,
      -0.423073481,
      -0.19338872,
      0.375127153,
      -0.148501505,
      -0.313660724,
      -1.070509861,
      0.424343632,
      1.209691286,
      -0.343369834,
      -0.098087069,
      -0.226979527,
      -0.230126059,
      0.216068922,
      0.4825959,
      1.373616731,
      -0.185608091,
      0.055206151,
      0.322575612,
      -0.111078889,
      -0.345040979,
      0.173106063,
      0.330919197,
      0.199968841,
      -0.181124923,
      0.168341209,
      0.626180489,
      0.131075143,
      -0.217518497,
      -0.334847919,
      -0.442953661,
      -0.206285149,
      0.375593057,
      -0.008675925,
      0.10894683,
      -0.083656436,
      0.073764929,
      -0.110701637,
      0.228494676,
      0.551953817,
      0.307173972,
      -0.645335002,
      -0.349741528,
      0.011814437,
      -0.004046758,
      0.752780447,
      1.310060976,
      1.255700849,
      0.184560825,
      -0.417005147,
      -0.501330566,
      0.060263474,
      0.340340873,
      1.057948701,
      -0.42373016,
      -0.327169373,
      0.024726825,
      1.128228029,
      1.197954063,
      0.660288345,
      0.158022535,
      -0.363543709,
      -1.408346343,
      -0.922736122,
      0.790616851,
      2.04195509,
      1.430602889,
      0.557371597,
      -0.488854082,
      -0.205491279,
      0.776655425,
      0.760313279,
      0.306014127,
      0.143541145,
      -0.018936877,
      0.152724958,
      0.156765047,
      1.785175338,
      2.305107081,
      -0.150683286,
      -0.288225509,
      -0.281137727,
      -0.30282521,
      -0.338769601,
      0.077719879,
      -0.543291977,
      -0.822441343,
      0.609776744,
      0.42782238,
      0.3916159,
      -0.068157049,
      -0.150655624,
      -0.50553402,
      -1.07838102,
      -0.399444408,
      0.703820148,
      0.49588457,
      0.526901063,
      0.187749895,
      0.09565486
     ],
     [
      0.042352255,
      -0.090550464,
      0.139439119,
      0.153090085,
      0.021049579,
      0.269098032,
      0.21254428,
      -0.22394942,
      -0.144031943,
      -0.63417198,
      -0.538051112,
      0.91775884,
      2.229164467,
      1.747425267,
      0.20345794,
      -0.263436022,
      -0.248613415,
      -0.760226845,
      -0.768755365,
      0.083025756,
      -0.055144181,
      -0.029253172,
      0.199024673,
      -0.069608787,
      -0.312650704,
      -0.436209453,
      0.131263686,
      0.856112723,
      -0.697217144,
      -0.329419987,
      -0.368963784,
      -0.542421405,
      -0.214480322,
      -0.160343502,
      1.342320289,
      0.901999862,
      -2.224360491,
      -1.627215784,
      -1.156713297,
      -0.682091815,
      0.078823645,
      0.138850124,
      -0.234056402,
      -0.967825391,
      -2.419390951,
      -1.215153999,
      -0.506707844,
      -0.094819855,
      0.126145119,
      0.575040145,
      0.943500863,
      -0.01021462,
      -0.370183438,
      -0.144133202,
      0.041520343,
      0.384697343,
      0.150125018,
      0.026553015,
      -0.488243369,
      -0.739294852,
      -0.390499257,
      0.518852103,
      0.517720897,
      0.39037261,
      0.090638415,
      0.093894143,
      0.064808966,
      -0.052898933,
      0.038408477,
      0.005379327,
      0.0025667,
      0.101964064,
      0.169350341,
      0.181273531,
      -0.180481875,
      -0.088412151,
      0.249463116,
      -0.182841562,
      -0.302638337,
      0.092009088,
      0.213787913,
      0.14827432,
      0.155011234,
      -0.188848051,
      -0.306452537,
      1.175492557,
      0.218668132,
      0.009516267,
      0.103104913,
      -0.433496155,
      -0.899196105,
      -0.797972458,
      -0.605997595,
      -0.337574006,
      -0.191591783,
      0.035161773,
      0.030584868,
      -0.306393563,
      -0.368485012,
      -0.055568236,
      -0.199996637,
      -0.586008399,
      0.083446732,
      0.073266611,
      0.215026017,
      0.236771543,
      0.410070399,
      1.287926213,
      0.450354145,
      0.171050026,
      -0.123699508,
      -0.183237288,
      0.141146627,
      0.209029582,
      0.462478404,
      0.338301373,
      0.002174273,
      0.062303507,
      -0.299522212,
      -0.103254335,
      0.084666499,
      0.011431986,
      -0.342642768,
      -0.525335774,
      -0.452265444,
      -0.534739967,
      -0.350625185,
      0.045243979,
      -0.121149188,
      -0.611880842,
      -0.744028115,
      -1.383433531,
      -0.910645847,
      -0.207348224,
      -0.527490983,
      -0.207209478,
      -0.732819354,
      -0.832276823,
      0.889667852,
      1.284341543,
      0.403036042,
      -1.057320837,
      -0.841919155,
      -1.014936531,
      0.524955526,
      0.960511888,
      0.768470566,
      0.070860554,
      0.876787882,
      1.16768747,
      0.535820432,
      -0.96588455,
      1.0196503,
      0.05126237,
      -1.244931261,
      -0.7970915,
      1.436047696,
      1.051629894,
      -0.000548099,
      -0.784251974,
      -0.047492804,
      -0.747640844,
      -0.45593264,
      -0.421911177,
      1.636471277,
      0.179906896,
      -0.502171722,
      -0.914553574,
      -0.824988225,
      -1.68696946,
      -1.889661426,
      -0.164213638,
      -0.167328188,
      -0.832148267,
      -0.62279762,
      -0.742866613,
      -0.371387848,
      -1.002615472,
      -1.589844228,
      -1.194329906,
      -1.82048992,
      -0.961401622,
      0.318475814,
      -0.003892909,
      0.319845303,
      0.671764777,
      0.87136183,
      0.163287958,
      -0.11422076,
      0.714249615,
      1.170578138,
      0.386303496,
      -0.030996746,
      -0.168213016,
      -0.237480742,
      -0.487084561,
      -0.996170872,
      -0.86678747,
      -0.440924545,
      -0.239544918,
      -0.113350925,
      -0.525658158,
      -0.774072393,
      -0.310100437,
      -0.360672283,
      -0.360151499,
      -0.075012196,
      -0.658564652,
      -0.168882138,
      0.114044206,
      0.393977284,
      -0.253946949,
      -0.620344136,
      -0.053392371,
      0.759272521,
      -0.438765706,
      0.07361751,
      0.672398767,
      0.968727039,
      -0.709171374,
      -0.780701095,
      0.764675541,
      0.748856233,
      -0.467402507,
      0.112151491,
      0.058518661,
      0.303293613,
      -1.023863557,
      0.345508854,
      1.663658672,
      0.281216274,
      -0.873473211,
      0.001546498,
      -0.373570638,
      -0.410726489,
      -1.483527564,
      -0.189164527,
      0.248563857,
      -0.443577152,
      -0.766842137,
      -0.003114123,
      -0.286797613,
      -0.478947625,
      -0.536403566,
      0.069537209,
      -0.716109023,
      -0.098493475,
      -0.072986642,
      -0.02479587,
      0.142829181,
      0.220738883,
      0.292352801,
      0.439282875,
      0.033381395,
      0.786419242,
      0.433673531,
      0.081254982,
      -0.097549896,
      -0.128754931,
      -0.45606784,
      -0.507140038,
      0.200083154,
      0.270316061,
      0.024866117,
      -0.349094385,
      -0.198476137,
      0.207178907,
      2.332196975,
      1.179903754,
      -0.663916399,
      -0.759226684,
      -0.23415459,
      0.049008427,
      0.615058486,
      2.556098782,
      1.472733464,
      0.398507452,
      -0.169388985,
      -0.317108239,
      -0.524621415,
      0.463718777,
      0.747604388,
      0.154761192,
      0.787321783,
      0.902059889,
      0.488068127,
      -0.144623795,
      -0.311388488,
      -0.020583222,
      -0.31695965,
      -1.038046778,
      0.352963103,
      0.869719034,
      -0.394918957,
      -0.183412663,
      -0.084763414,
      -0.487125573,
      -0.4726456,
      -1.133727871,
      0.432462453,
      0.568035602,
      -0.236971443,
      -0.075494708,
      -0.143230977,
      -0.228472924,
      -0.502836568,
      -0.756268609,
      0.376863958,
      -0.422801153,
      0.019147974,
      0.06114423,
      -0.071826653,
      0.281212015,
      0.627517569,
      0.69224897,
      0.214009735,
      -0.405481972,
      -0.029347278,
      0.26169026,
      0.06594571
     ]
    ],
    "b": [
     -1.242971751,
     1.7006269,
     0.296210915,
     -0.406382216,
     0.276646007,
     0.977736332,
     -0.564665174,
     0.769786704,
     -1.413772248,
     -0.466290832
    ]
   }
  },
  {
   "epoch": 2,
   "batch": 221,
   "loss": 0.47336328343340417,
   "accuracy": 91.3963963963964,
   "input": [
    [
     0.0,
     0.0,
     0.0,
     0.0,
     0.0,
     0.0,
     0.0,
     0.0,
     0.0,
     0.0,
     0.0,
     0.0,
     0.0,
     0.0,
     0.0,
     0.0,
     0.0,
     0.0,
     0.0,
     0.0,
     0.0,
     0.0,
     0.0,
     0.0,
     0.0,
     0.0,
     0.0,
     0.0
    ],
    [
     0.0,
     0.0,
     0.0,
     0.0,
     0.0,
     0.0,
     0.0,
     0.0,
     0.0,
     0.0,
     0.0,
     0.0,
     0.0,
     0.0,
     0.0,
     0.0,
     0.0,
     0.0,
     0.0,
     0.0,
     0.0,
     0.0,
     0.0,
     0.0,
     0.0,
     0.0,
     0.0,
     0.0
    ],
    [
     0.0,
     0.0,
     0.0,
     0.0,
     0.0,
     0.0,
     0.0,
     0.0,
     0.0,
     0.0,
     0.0,
     0.0,
     0.0,
     0.0,
     0.0,
     0.0,
     0.0,
     0.0,
     0.0,
     0.0,
     0.0,
     0.0,
     0.0,
     0.0,
     0.0,
     0.0,
     0.0,
     0.0
    ],
    [
     0.0,
     0.0,
     0.0,
     0.0,
     0.0,
     0.0,
     0.0,
     0.0,
     0.0,
     0.0,
     0.0,
     0.0,
     0.0,
     0.0,
     0.0,
     0.0,
     0.0,
     0.0,
     0.0,
     0.0,
     0.0,
     0.0,
     0.0,
     0.0,
     0.0,
     0.0,
     0.0,
     0.0
    ],
    [
     0.0,
     0.0,
     0.0,
     0.0,
     0.0,
     0.0,
     0.0,
     0.0,
     0.0,
     0.0,
     0.0,
     0.0,
     0.0,
     0.0,
     0.0,
     0.0,
     0.0,
     0.109803922,
     0.764705882,
     0.4,
     0.058823529,
     0.0,
     0.0,
     0.0,
     0.0,
     0.0,
     0.0,
     0.0
    ],
    [
     0.0,
     0.0,
     0.0,
     0.0,
     0.0,
     0.0,
     0.0,
     0.0,
     0.0,
     0.0,
     0.0,
     0.0,
     0.0,
     0.0,
     0.0,
     0.0,
     0.0,
     0.756862745,
     0.996078431,
     0.996078431,
     0.149019608,
     0.0,
     0.0,
     0.0,
     0.0,
     0.0,
     0.0,
     0.0
    ],
    [
     0.0,
     0.0,
     0.0,
     0.0,
     0.0,
     0.0,
     0.0,
     0.0,
     0.0,
     0.0,
     0.0,
     0.0,
     0.0,
     0.0,
     0.0,
     0.0,
     0.0,
     0.882352941,
     0.996078431,
     0.996078431,
     0.149019608,
     0.0,
     0.0,
     0.0,
     0.0,
     0.0,
     0.0,
     0.0
    ],
    [
     0.0,
     0.0,
     0.0,
     0.0,
     0.0,
     0.0,
     0.0,
     0.0,
     0.0,
     0.0,
     0.0,
     0.0,
     0.0,
     0.0,
     0.0,
     0.0,
     0.180392157,
     0.925490196,
     0.976470588,
     0.356862745,
     0.003921569,
     0.0,
     0.0,
     0.0,
     0.0,
     0.0,
     0.0,
     0.0
    ],
    [
     0.0,
     0.0,
     0.0,
     0.0,
     0.0,
     0.0,
     0.0,
     0.0,
     0.0,
     0.0,
     0.0,
     0.0,
     0.0,
     0.0,
     0.0,
     0.0,
     0.415686275,
     0.980392157,
     0.937254902,
     0.0,
     0.0,
     0.0,
     0.0,
     0.0,
     0.0,
     0.0,
     0.0,
     0.0
    ],
    [
     0.0,
     0.0,
     0.0,
     0.0,
     0.0,
     0.0,
     0.0,
     0.0,
     0.0,
     0.0,
     0.0,
     0.0,
     0.0,
     0.0,
     0.0,
     0.0,
     0.0,
     0.882352941,
     0.603921569,
     0.0,
     0.0,
     0.0,
     0.0,
     0.0,
     0.0,
     0.0,
     0.0,
     0.0
    ],
    [
     0.0,
     0.0,
     0.0,
     0.0,
     0.0,
     0.0,
     0.0,
     0.0,
     0.0,
     0.0,
     0.0,
     0.0,
     0.0,
     0.0,
     0.105882353,
     0.760784314,
     0.945098039,
     0.992156863,
     0.329411765,
     0.0,
     0.0,
     0.0,
     0.0,
     0.0,
     0.0,
     0.0,
     0.0,
     0.0
    ],
    [
     0.0,
     0.0,
     0.0,
     0.0,
     0.0,
     0.0,
     0.0,
     0.0,
     0.0,
     0.0,
     0.0,
     0.0,
     0.0,
     0.066666667,
     0.760784314,
     0.996078431,
     0.996078431,
     0.721568627,
     0.090196078,
     0.0,
     0.0,
     0.0,
     0.0,
     0.0,
     0.0,
     0.0,
     0.0,
     0.0
    ],
    [
     0.0,
     0.0,
     0.0,
     0.0,
     0.0,
     0.0,
     0.0,
     0.0,
     0.0,
     0.0,
     0.0,
     0.0,
     0.0,
     0.517647059,
     0.996078431,
     0.996078431,
     0.996078431,
     0.117647059,
     0.0,
     0.0,
     0.0,
     0.0,
     0.0,
     0.0,
     0.0,
     0.0,
     0.0,
     0.0
    ],
    [
     0.0,
     0.0,
     0.0,
     0.0,
     0.0,
     0.0,
     0.0,
     0.0,
     0.0,
     0.0,
     0.0,
     0.0,
     0.039215686,
     0.662745098,
     0.996078431,
     0.996078431,
     0.552941176,
     0.011764706,
     0.0,
     0.0,
     0.0,
     0.0,
     0.0,
     0.0,
     0.0,
     0.0,
     0.0,
     0.0
    ],
    [
     0.0,
     0.0,
     0.0,
     0.0,
     0.0,
     0.0,
     0.0,
     0.0,
     0.0,
     0.0,
     0.0,
     0.0,
     0.180392157,
     0.996078431,
     0.996078431,
     0.988235294,
     0.466666667,
     0.0,
     0.0,
     0.0,
     0.0,
     0.0,
     0.0,
     0.0,
     0.0,
     0.0,
     0.0,
     0.0
    ],
    [
     0.0,
     0.0,
     0.0,
     0.0,
     0.0,
     0.0,
     0.0,
     0.0,
     0.0,
     0.0,
     0.0,
     0.164705882,
     0.858823529,
     0.996078431,
     0.996078431,
     0.607843137,
     0.0,
     0.0,
     0.0,
     0.0,
     0.0,
     0.0,
     0.0,
     0.0,
     0.0,
     0.0,
     0.0,
     0.0
    ],
    [
     0.0,
     0.0,
     0.0,
     0.0,
     0.0,
     0.0,
     0.0,
     0.0,
     0.0,
     0.0,
     0.0,
     0.337254902,
     0.996078431,
     0.996078431,
     0.91372549,
     0.219607843,
     0.0,
     0.0,
     0.0,
     0.0,
     0.0,
     0.0,
     0.0,
     0.0,
     0.0,
     0.0,
     0.0,
     0.0
    ],
    [
     0.0,
     0.0,
     0.0,
     0.0,
     0.0,
     0.0,
     0.0,
     0.0,
     0.0,
     0.0,
     0.0,
     0.37254902,
     0.996078431,
     0.996078431,
     0.654901961,
     0.0,
     0.0,
     0.0,
     0.0,
     0.0,
     0.0,
     0.0,
     0.0,
     0.0,
     0.0,
     0.0,
     0.0,
     0.0
    ],
    [
     0.0,
     0.0,
     0.0,
     0.0,
     0.0,
     0.0,
     0.0,
     0.0,
     0.0,
     0.0,
     0.0,
     0.945098039,
     0.996078431,
     1.0,
     0.08627451,
     0.0,
     0.0,
     0.0,
     0.0,
     0.0,
     0.0,
     0.0,
     0.0,
     0.0,
     0.0,
     0.0,
     0.0,
     0.0
    ],
    [
     0.0,
     0.0,
     0.0,
     0.0,
     0.0,
     0.0,
     0.0,
     0.0,
     0.0,
     0.0,
     0.137254902,
     0.956862745,
     0.996078431,
     0.556862745,
     0.015686275,
     0.0,
     0.0,
     0.0,
     0.0,
     0.0,
     0.0,
     0.0,
     0.0,
     0.0,
     0.0,
     0.0,
     0.0,
     0.0
    ],
    [
     0.0,
     0.0,
     0.0,
     0.0,
     0.0,
     0.0,
     0.0,
     0.0,
     0.0,
     0.098039216,
     0.835294118,
     0.996078431,
     0.996078431,
     0.498039216,
     0.023529412,
     0.0,
     0.0,
     0.0,
     0.0,
     0.0,
     0.0,
     0.0,
     0.0,
     0.0,
     0.0,
     0.0,
     0.0,
     0.0
    ],
    [
     0.0,
     0.0,
     0.0,
     0.0,
     0.0,
     0.0,
     0.0,
     0.0,
     0.0,
     0.152941176,
     0.996078431,
     0.996078431,
     0.996078431,
     0.996078431,
     0.694117647,
     0.0,
     0.0,
     0.0,
     0.0,
     0.0,
     0.0,
     0.0,
     0.0,
     0.0,
     0.0,
     0.0,
     0.0,
     0.0
    ],
    [
     0.0,
     0.0,
     0.0,
     0.0,
     0.0,
     0.0,
     0.0,
     0.0,
     0.0,
     0.152941176,
     0.996078431,
     0.996078431,
     0.996078431,
     0.88627451,
     0.176470588,
     0.0,
     0.0,
     0.0,
     0.0,
     0.0,
     0.0,
     0.0,
     0.0,
     0.0,
     0.0,
     0.0,
     0.0,
     0.0
    ],
    [
     0.0,
     0.0,
     0.0,
     0.0,
     0.0,
     0.0,
     0.0,
     0.0,
     0.0,
     0.062745098,
     0.392156863,
     0.964705882,
     0.925490196,
     0.188235294,
     0.0,
     0.0,
     0.0,
     0.0,
     0.0,
     0.0,
     0.0,
     0.0,
     0.0,
     0.0,
     0.0,
     0.0,
     0.0,
     0.0
    ],
    [
     0.0,
     0.0,
     0.0,
     0.0,
     0.0,
     0.0,
     0.0,
     0.0,
     0.0,
     0.0,
     0.0,
     0.0,
     0.0,
     0.0,
     0.0,
     0.0,
     0.0,
     0.0,
     0.0,
     0.0,
     0.0,
     0.0,
     0.0,
     0.0,
     0.0,
     0.0,
     0.0,
     0.0
    ],
    [
     0.0,
     0.0,
     0.0,
     0.0,
     0.0,
     0.0,
     0.0,
     0.0,
     0.0,
     0.0,
     0.0,
     0.0,
     0.0,
     0.0,
     0.0,
     0.0,
     0.0,
     0.0,
     0.0,
     0.0,
     0.0,
     0.0,
     0.0,
     0.0,
     0.0,
     0.0,
     0.0,
     0.0
    ],
    [
     0.0,
     0.0,
     0.0,
     0.0,
     0.0,
     0.0,
     0.0,
     0.0,
     0.0,
     0.0,
     0.0,
     0.0,
     0.0,
     0.0,
     0.0,
     0.0,
     0.0,
     0.0,
     0.0,
     0.0,
     0.0,
     0.0,
     0.0,
     0.0,
     0.0,
     0.0,
     0.0,
     0.0
    ],
    [
     0.0,
     0.0,
     0.0,
     0.0,
     0.0,
     0.0,
     0.0,
     0.0,
     0.0,
     0.0,
     0.0,
     0.0,
     0.0,
     0.0,
     0.0,
     0.0,
     0.0,
     0.0,
     0.0,
     0.0,
     0.0,
     0.0,
     0.0,
     0.0,
     0.0,
     0.0,
     0.0,
     0.0
    ]
   ],
   "output": 1,
   "conv_layer": {
    "w": [
     [
      [
       [
        -0.352360238,
        0.008427057,
        0.421572636,
        0.817157372,
        1.840168814
       ],
       [
        0.162147534,
        -0.632903173,
        -1.149119046,
        -1.170099467,
        -0.335463161
       ],
       [
        0.349376915,
        -1.07002894,
        -2.302033627,
        -1.995730819,
        -1.647523082
       ],
       [
        1.485189214,
        1.04650826,
        0.510253322,
        0.030688739,
        -0.688165756
       ],
       [
        0.215182078,
        0.645937531,
        0.93407908,
        1.398502818,
        0.73172053
       ]
      ]
     ],
     [
      [
       [
        1.307542764,
        1.718478415,
        0.612428333,
        0.226608096,
        -0.075883818
       ],
       [
        -0.992390338,
        -1.007281963,
        -1.604929267,
        -1.297786536,
        -1.06184963
       ],
       [
        -1.990761269,
        -2.233458823,
        -1.352323089,
        -0.578180869,
        -0.658431396
       ],
       [
        -1.586772982,
        -1.003040837,
        -0.033744227,
        0.145428594,
        -0.59071264
       ],
       [
        -0.768418061,
        1.045387196,
        0.902550365,
        0.066925487,
        -0.41877962
       ]
      ]
     ],
     [
      [
       [
        0.17888525,
        -0.503054692,
        -0.971022485,
        -0.6167159,
        -0.071246567
       ],
       [
        0.162017009,
        -0.206884419,
        0.112281499,
        0.245465275,
        0.728833938
       ],
       [
        -0.390701217,
        -0.027478195,
        0.836011839,
        0.132541444,
        -0.612547322
       ],
       [
        -0.358928459,
        -0.406212079,
        0.742140527,
        0.278889719,
        -0.093234636
       ],
       [
        0.760341176,
        -0.481480809,
        -0.263599542,
        0.141922274,
        1.366764275
       ]
      ]
     ],
     [
      [
       [
        0.332064711,
        0.022151294,
        -0.327350398,
        0.016873709,
        -0.211730892
       ],
       [
        -0.154966888,
        0.409999,
        1.144891042,
        -0.249650295,
        -0.974675757
       ],
       [
        -0.676248069,
        0.333797347,
        1.214020084,
        -0.335405545,
        -1.682760041
       ],
       [
        -0.740227238,
        0.482174268,
        0.808921635,
        -0.646132614,
        -1.432987849
       ],
       [
        -0.315414613,
        0.393932113,
        0.991814447,
        -0.119578068,
        0.085441618
       ]
      ]
     ],
     [
      [
       [
        1.634148508,
        1.302823295,
        -0.176184797,
        -1.030407846,
        -0.518488392
       ],
       [
        0.385905644,
        -0.834929555,
        -1.658685464,
        -1.192915158,
        0.324660691
       ],
       [
        -0.636699293,
        -0.697808309,
        -1.045237757,
        0.731353123,
        0.931200326
       ],
       [
        -1.297817991,
        -0.341795448,
        0.894968135,
        1.243914045,
        -0.34782496
       ],
       [
        0.069793708,
        0.412522612,
        1.004769881,
        0.274943576,
        -1.342304502
       ]
      ]
     ]
    ],
    "b": [
     -1.519558389,
     0.469330514,
     -0.536819697,
     -0.359383827,
     -1.739394531
    ]
   },
   "dense_layer": {
    "w": [
     [
      0.007555592,
      -0.120922178,
      -0.379192019,
      -0.647087245,
      -0.276647029,
      -0.111774514,
      -0.137616422,
      0.156277357,
      0.078173876,
      0.092306431,
      -0.374225813,
      -0.255694621,
      0.37243201,
      0.772231399,
      0.450835108,
      0.182555981,
      0.223653714,
      0.073336541,
      -0.555229822,
      -0.75400622,
      -0.94940575,
      -0.730298201,
      0.01038408,
      0.717508915,
      0.167459179,
      -0.383777253,
      -0.892310361,
      -0.540141324,
      -1.167329952,
      -1.655850757,
      -0.615326706,
      0.575864033,
      -0.144313419,
      -1.10985426,
      -0.746909788,
      0.435151699,
      -0.188756253,
      -0.61892157,
      -0.827774136,
      -0.032719159,
      -0.167174768,
      -0.655431305,
      0.717722733,
      1.70883733,
      -0.399474979,
      -0.756353795,
      -0.690899119,
      -0.373439092,
      -0.04795081,
      -0.62866871,
      0.081427854,
      0.536644901,
      -0.15537813,
      -0.166650117,
      -0.348314947,
      -0.185897334,
      0.053034733,
      -0.074020817,
      0.024276651,
      0.073026625,
      0.074018373,
      0.090062249,
      -0.178942141,
      -0.07223945,
      0.034731455,
      0.040723731,
      0.016804533,
      0.151087484,
      0.3539431,
      0.323082044,
      0.110327786,
      0.068959146,
      0.025801157,
      -0.001884362,
      -0.242011518,
      -0.135501506,
      -0.344791099,
      -0.321425097,
      -0.184944596,
      -0.068287453,
      0.077657446,
      -0.106293534,
      -0.121796391,
      -0.211188338,
      -0.671998738,
      -0.462192903,
      0.053805121,
      -0.090315304,
      0.141645272,
      -0.422158241,
      -0.375210639,
      -0.096459711,
      0.844814824,
      0.145925055,
      -0.189267306,
      -0.072725586,
      -0.001826348,
      -0.744742416,
      -0.403896085,
      0.487398043,
      0.739440871,
      -0.442383968,
      -0.608778397,
      -0.011538323,
      0.031562496,
      -0.98501284,
      0.022514385,
      0.266853935,
      -0.196824007,
      -0.261288333,
      -0.243678658,
      0.249005158,
      0.063334492,
      -0.575826667,
      -0.193349938,
      -0.236527151,
      -0.233970092,
      0.169832972,
      0.456608328,
      0.215556691,
      0.045851933,
      0.05669581,
      0.287804297,
      0.376057812,
      0.538369484,
      0.495267715,
      0.123838235,
      0.093580672,
      0.108005725,
      -0.499913935,
      -0.811794171,
      -0.182889911,
      0.122426763,
      -0.854104786,
      -0.533689449,
      0.120709397,
      -0.218071468,
      -1.247348744,
      -0.884088501,
      1.205395665,
      2.019836951,
      1.165830266,
      -0.412482515,
      0.087385253,
      0.157519844,
      -0.703363222,
      1.565718832,
      0.987756968,
      0.360544797,
      0.766348807,
      1.269993434,
      0.56850324,
      0.980828958,
      1.179368148,
      1.343182758,
      -2.269850645,
      -3.90997852,
      0.044631124,
      1.090021654,
      0.994654144,
      1.005116443,
      1.4119108,
      0.100061164,
      -4.744433702,
      -2.993308734,
      0.844612989,
      0.656012743,
      0.856185063,
      -0.030386036,
      0.692817962,
      1.029969906,
      -1.61216849,
      -0.479069271,
      0.643515768,
      -0.213284,
      0.497777948,
      -0.612096289,
      -0.173323971,
      1.656664631,
      0.930496196,
      0.342880132,
      -0.371223666,
      -0.41687061,
      0.193320507,
      -0.075015072,
      -0.300136312,
      0.307490655,
      0.860285093,
      0.07845645,
      -0.642263352,
      -0.445362189,
      0.092576915,
      0.131512196,
      0.075918622,
      -0.010367231,
      -0.246104786,
      -0.237463632,
      -0.236618193,
      -0.414358514,
      0.023431936,
      0.119140363,
      -0.220973174,
      -0.731050695,
      -0.462319225,
      0.268518838,
      0.293692356,
      -0.336160723,
      0.271017902,
      0.174911887,
      -0.287469836,
      -0.583746468,
      1.093688301,
      0.850750882,
      0.805343743,
      0.856820993,
      1.016910624,
      0.094549891,
      -0.019468925,
      1.144967569,
      1.913949043,
      -0.261369915,
      -0.801609094,
      0.714256722,
      1.579711308,
      -0.102493847,
      0.208405346,
      1.919462293,
      1.749901236,
      -2.840331277,
      -1.398966532,
      0.087040518,
      1.16495257,
      -0.351541532,
      -0.216691359,
      1.679968584,
      0.62032,
      -1.566318469,
      -0.449913543,
      -0.104721901,
      0.300476861,
      -0.211926599,
      -0.552783767,
      0.309445451,
      0.471240187,
      -0.265235694,
      -0.198598277,
      -0.471190187,
      -0.115784921,
      0.110514387,
      -0.249909545,
      -0.318834338,
      0.281737052,
      0.072086187,
      -0.421935064,
      -0.610841044,
      -0.042340582,
      0.242138533,
      0.088113397,
      -0.200334738,
      -0.123221052,
      -0.324057166,
      -0.468581105,
      0.11668003,
      0.248320521,
      -0.010796913,
      -0.340555327,
      -0.404255191,
      0.001971938,
      0.375931077,
      -0.243881673,
      -0.585620815,
      0.093414288,
      0.062490312,
      -0.074663403,
      0.430562386,
      0.306247884,
      0.462684833,
      -0.490541659,
      -0.453533223,
      0.075040145,
      0.570799957,
      0.577698565,
      0.683537954,
      -0.249630861,
      -1.364838726,
      -0.403298992,
      0.044224811,
      0.130017405,
      0.751099133,
      0.421630239,
      0.055837892,
      -1.804033602,
      -0.396690234,
      0.398098818,
      0.367078972,
      0.228969766,
      0.288749828,
      -0.494805572,
      -0.072552351,
      -0.219059064,
      0.736853209,
      0.464086919,
      0.384843946,
      0.451917541,
      -0.017162637,
      -0.683863081,
      0.684246798,
      0.128141363,
      0.096971792,
      0.061829979,
      0.406240746,
      0.422898331,
      0.065796118,
      -0.514268388,
      -0.263553522,
      0.324497472,
      -0.049401758,
      0.199722047,
      0.279974174,
      0.172141353
     ],
     [
      -0.129062609,
      -0.263776193,
      -0.696997123,
      -1.274648166,
      -1.196969395,
      -0.362042953,
      0.200278454,
      0.191482741,
      -0.232827317,
      -0.139235626,
      -0.580184467,
      -1.494232462,
      -1.505290973,
      -1.591505318,
      -0.837587147,
      -0.449224266,
      -0.154417044,
      0.057436815,
      0.116580054,
      -0.077549619,
      -0.184657751,
      -1.161191012,
      -1.350860637,
      -0.577801087,
      -0.158344678,
      -0.064646441,
      -0.277168317,
      -2.140045786,
      -1.125630926,
      -1.321522887,
      -1.144940441,
      -0.555791767,
      -0.318087505,
      -0.137507918,
      -0.48915272,
      -2.368403799,
      -0.470882077,
      -1.190882347,
      -0.862626586,
      -0.423750536,
      0.051290631,
      0.260853573,
      -0.018900103,
      -1.713780804,
      1.123776183,
      0.118802219,
      0.393572209,
      -0.118783452,
      0.083555241,
      0.314536611,
      -0.653496946,
      -0.863043053,
      0.390823492,
      0.057870409,
      0.159470127,
      -0.244721964,
      -0.23490515,
      -0.55812334,
      -0.168088908,
      0.24663938,
      -0.400322373,
      -0.34215605,
      -0.199857284,
      -0.222518766,
      -0.117395509,
      -0.114120386,
      -0.153839331,
      0.009176236,
      0.347186878,
      0.312140683,
      -0.003793736,
      -0.178592738,
      -0.113825412,
      -0.192367543,
      -0.205998001,
      -0.181925366,
      0.763776066,
      -0.251544416,
      -0.462035728,
      -0.200193801,
      -0.078050215,
      -0.029878123,
      -0.117062092,
      -0.342603921,
      -0.009279772,
      -1.048088488,
      -0.020265826,
      -0.280782223,
      -0.142117716,
      0.005105281,
      0.248644238,
      -0.154626001,
      -0.352551692,
      -0.071949958,
      -0.249987157,
      -0.291459296,
      -0.162388992,
      0.02344487,
      0.399441048,
      -0.652651231,
      0.534767565,
      0.150912893,
      -0.261925364,
      -0.243490891,
      -0.107093787,
      0.066764149,
      -0.070209276,
      -0.285338369,
      0.811572538,
      -0.362758135,
      -0.499186109,
      -0.274599158,
      -0.148909654,
      -0.305446081,
      -0.69779668,
      -0.06222387,
      0.03000751,
      -0.67557781,
      -0.250661541,
      -0.132341883,
      -0.087841943,
      -0.124879748,
      0.030531887,
      0.553843935,
      0.157277053,
      -0.169477362,
      -0.165999794,
      -0.192463549,
      0.252833486,
      -0.082360288,
      0.673195374,
      1.029281586,
      -0.679505451,
      0.487252852,
      1.69133272,
      0.33211309,
      0.043937368,
      -0.754258668,
      -1.019397771,
      -1.610598642,
      -0.993166643,
      -1.775065839,
      0.441897947,
      0.046520182,
      -0.095694389,
      -0.983964776,
      -1.716019703,
      1.83852817,
      0.450834671,
      -2.256952968,
      -0.165340208,
      -0.153591297,
      -0.317158423,
      -1.665673391,
      -2.555637524,
      2.2493862,
      0.528515452,
      -1.193020563,
      -0.73358827,
      -0.225207754,
      -0.76971881,
      -1.558952719,
      -1.440654525,
      1.422191476,
      -1.058135059,
      -1.217194585,
      -0.919524656,
      -0.000853751,
      0.02005552,
      1.173947528,
      -0.436493545,
      0.047093481,
      -1.603923182,
      0.471473578,
      -0.231797755,
      0.02304509,
      1.387563882,
      2.465992846,
      -1.441659931,
      -3.242742154,
      0.425415785,
      1.793846769,
      0.274769026,
      0.180761138,
      0.691304941,
      1.015929505,
      -1.377281988,
      -2.538818848,
      -0.750529855,
      0.555925003,
      0.215341105,
      0.209466465,
      0.146751651,
      0.153399987,
      0.219828155,
      0.851294285,
      0.621293037,
      0.104725465,
      0.600818366,
      0.39956592,
      0.167500088,
      0.197489612,
      0.29451773,
      0.19351903,
      -0.239112242,
      -0.426628942,
      0.243354724,
      0.34056088,
      0.121534217,
      0.249807141,
      0.023041595,
      -1.715937266,
      0.943371275,
      -1.023454714,
      -0.253264518,
      -0.02855254,
      0.148065593,
      0.211495699,
      -0.218040511,
      -2.105381889,
      2.152026144,
      -0.000369316,
      -0.449151456,
      -0.357890491,
      0.158391942,
      -0.068771588,
      -0.490354295,
      -1.020723699,
      1.666194182,
      -0.487667672,
      -0.933319395,
      -0.264703107,
      0.148005389,
      0.118338529,
      0.006128804,
      -0.359402432,
      0.747108114,
      -0.717346243,
      -0.310128553,
      -0.038690735,
      0.234321336,
      0.972793058,
      0.570930214,
      -0.362685502,
      -0.292668112,
      0.464317421,
      0.570438038,
      0.094074445,
      0.204726867,
      1.09887508,
      0.823718119,
      -1.028019479,
      -1.143388922,
      0.75752778,
      0.406360395,
      0.109804565,
      -0.052164308,
      -0.102746749,
      0.105718848,
      0.469138706,
      -0.511427995,
      0.414361813,
      0.778626682,
      -0.034058368,
      -0.069615006,
      -0.490483572,
      -0.573775576,
      -1.606665558,
      -0.558833321,
      0.679925315,
      0.704613402,
      -0.322086133,
      -0.202153823,
      -0.394144447,
      -0.803612958,
      -0.567841678,
      -0.243365679,
      -0.236656415,
      -0.110656385,
      -0.427710038,
      -0.18209789,
      -0.319697317,
      -1.281394111,
      0.603528172,
      -0.38411564,
      -0.319169144,
      -0.498496248,
      -0.44911794,
      -0.324258106,
      -0.71472586,
      -0.877000209,
      0.472328119,
      -1.038740168,
      -0.330458479,
      -0.538228628,
      -0.17204156,
      -0.297067069,
      0.673170408,
      0.028304361,
      -0.299289484,
      -1.208741407,
      0.54759647,
      -0.150671142,
      -0.136785262,
      0.6105802,
      1.684468607,
      -0.091417807,
      -2.276980185,
      -0.036430405,
      0.273265979,
      -0.377852742,
      -0.186940399,
      0.352358623,
      0.798726052,
      -0.714424681,
      -1.392874174,
      0.270457751,
      -0.004771636,
      -0.302754475,
      -0.137531794
     ],
     [
      0.074972034,
      0.314224996,
      0.501736884,
      0.471086977,
      0.94037476,
      0.64932917,
      0.214687263,
      -0.454111463,
      0.152561773,
      0.230497793,
      0.061242203,
