{
 "begin_epoch": 3,
 "begin_batch": 280,
 "end_epoch": 3,
 "end_batch": 299,
 "weights": [
  {
   "epoch": 3,
   "batch": 280,
   "loss": 3.4100814703437052,
   "accuracy": 94.31791221826809,
   "input": [
    [
     0.0,
     0.0,
     0.0,
     0.0,
     0.0,
     0.0,
     0.0,
     0.0,
     0.0,
     0.0,
     0.0,
     0.0,
     0.0,
     0.0,
     0.0,
     0.0,
     0.0,
     0.0,
     0.0,
     0.0,
     0.0,
     0.0,
     0.0,
     0.0,
     0.0,
     0.0,
     0.0,
     0.0
    ],
    [
     0.0,
     0.0,
     0.0,
     0.0,
     0.0,
     0.0,
     0.0,
     0.0,
     0.0,
     0.0,
     0.0,
     0.0,
     0.0,
     0.0,
     0.0,
     0.0,
     0.0,
     0.0,
     0.0,
     0.0,
     0.0,
     0.0,
     0.0,
     0.0,
     0.0,
     0.0,
     0.0,
     0.0
    ],
    [
     0.0,
     0.0,
     0.0,
     0.0,
     0.0,
     0.0,
     0.0,
     0.0,
     0.0,
     0.0,
     0.0,
     0.0,
     0.0,
     0.0,
     0.0,
     0.0,
     0.0,
     0.0,
     0.0,
     0.0,
     0.0,
     0.0,
     0.0,
     0.0,
     0.0,
     0.0,
     0.0,
     0.0
    ],
    [
     0.0,
     0.0,
     0.0,
     0.0,
     0.0,
     0.0,
     0.0,
     0.0,
     0.0,
     0.0,
     0.0,
     0.0,
     0.0,
     0.0,
     0.0,
     0.0,
     0.0,
     0.0,
     0.0,
     0.0,
     0.0,
     0.0,
     0.0,
     0.0,
     0.0,
     0.0,
     0.0,
     0.0
    ],
    [
     0.0,
     0.0,
     0.0,
     0.0,
     0.0,
     0.0,
     0.0,
     0.0,
     0.0,
     0.0,
     0.0,
     0.0,
     0.0,
     0.0,
     0.0,
     0.0,
     0.0,
     0.0,
     0.0,
     0.0,
     0.0,
     0.0,
     0.0,
     0.0,
     0.0,
     0.0,
     0.0,
     0.0
    ],
    [
     0.0,
     0.0,
     0.0,
     0.0,
     0.0,
     0.0,
     0.0,
     0.0,
     0.0,
     0.0,
     0.0,
     0.0,
     0.0,
     0.0,
     0.0,
     0.0,
     0.0,
     0.0,
     0.0,
     0.0,
     0.0,
     0.0,
     0.0,
     0.0,
     0.0,
     0.0,
     0.0,
     0.0
    ],
    [
     0.0,
     0.0,
     0.0,
     0.0,
     0.0,
     0.0,
     0.0,
     0.0,
     0.0,
     0.0,
     0.0,
     0.0,
     0.101960784,
     0.243137255,
     0.243137255,
     0.243137255,
     0.007843137,
     0.0,
     0.0,
     0.0,
     0.0,
     0.0,
     0.0,
     0.0,
     0.0,
     0.0,
     0.0,
     0.0
    ],
    [
     0.0,
     0.0,
     0.0,
     0.0,
     0.0,
     0.0,
     0.0,
     0.0,
     0.0,
     0.0,
     0.0,
     0.058823529,
     0.733333333,
     0.992156863,
     0.992156863,
     0.992156863,
     0.411764706,
     0.0,
     0.0,
     0.0,
     0.462745098,
     0.549019608,
     0.509803922,
     0.0,
     0.0,
     0.0,
     0.0,
     0.0
    ],
    [
     0.0,
     0.0,
     0.0,
     0.0,
     0.0,
     0.0,
     0.0,
     0.0,
     0.098039216,
     0.294117647,
     0.858823529,
     0.874509804,
     0.992156863,
     0.992156863,
     0.992156863,
     0.992156863,
     0.952941176,
     0.458823529,
     0.792156863,
     0.858823529,
     0.968627451,
     0.992156863,
     0.980392157,
     0.858823529,
     0.266666667,
     0.0,
     0.0,
     0.0
    ],
    [
     0.0,
     0.0,
     0.0,
     0.0,
     0.0,
     0.0,
     0.0,
     0.117647059,
     0.764705882,
     0.992156863,
     0.992156863,
     0.992156863,
     0.992156863,
     0.992156863,
     0.823529412,
     0.82745098,
     0.858823529,
     0.509803922,
     0.509803922,
     0.509803922,
     0.509803922,
     0.509803922,
     0.878431373,
     0.992156863,
     0.305882353,
     0.0,
     0.0,
     0.0
    ],
    [
     0.0,
     0.0,
     0.0,
     0.0,
     0.0,
     0.0,
     0.066666667,
     0.796078431,
     0.992156863,
     0.992156863,
     0.992156863,
     0.980392157,
     0.88627451,
     0.388235294,
     0.133333333,
     0.133333333,
     0.145098039,
     0.0,
     0.0,
     0.0,
     0.0,
     0.0,
     0.756862745,
     0.992156863,
     0.305882353,
     0.0,
     0.0,
     0.0
    ],
    [
     0.0,
     0.0,
     0.0,
     0.0,
     0.0,
     0.129411765,
     0.77254902,
     0.992156863,
     0.992156863,
     0.992156863,
     0.992156863,
     0.6,
     0.0,
     0.0,
     0.0,
     0.0,
     0.0,
     0.0,
     0.0,
     0.0,
     0.0,
     0.188235294,
     0.854901961,
     0.992156863,
     0.588235294,
     0.0,
     0.0,
     0.0
    ],
    [
     0.0,
     0.0,
     0.0,
     0.0,
     0.0,
     0.811764706,
     0.992156863,
     0.992156863,
     0.992156863,
     0.866666667,
     0.270588235,
     0.054901961,
     0.0,
     0.0,
     0.0,
     0.0,
     0.0,
     0.0,
     0.0,
     0.0,
     0.007843137,
     0.470588235,
     0.992156863,
     0.992156863,
     0.968627451,
     0.0,
     0.0,
     0.0
    ],
    [
     0.0,
     0.0,
     0.0,
     0.0,
     0.0,
     1.0,
     0.992156863,
     0.992156863,
     0.992156863,
     0.580392157,
     0.0,
     0.0,
     0.0,
     0.0,
     0.0,
     0.0,
     0.0,
     0.0,
     0.0,
     0.0,
     0.380392157,
     0.992156863,
     0.992156863,
     0.992156863,
     0.305882353,
     0.0,
     0.0,
     0.0
    ],
    [
     0.0,
     0.0,
     0.0,
     0.0,
     0.0,
     1.0,
     0.992156863,
     0.992156863,
     0.992156863,
     0.133333333,
     0.0,
     0.0,
     0.0,
     0.0,
     0.0,
     0.0,
     0.0,
     0.0,
     0.0,
     0.0,
     0.82745098,
     0.992156863,
     0.992156863,
     0.992156863,
     0.305882353,
     0.0,
     0.0,
     0.0
    ],
    [
     0.0,
     0.0,
     0.0,
     0.0,
     0.0,
     0.807843137,
     0.992156863,
     0.992156863,
     0.607843137,
     0.043137255,
     0.0,
     0.0,
     0.0,
     0.0,
     0.0,
     0.0,
     0.078431373,
     0.278431373,
     0.898039216,
     0.964705882,
     0.988235294,
     0.992156863,
     0.992156863,
     0.88627451,
     0.219607843,
     0.0,
     0.0,
     0.0
    ],
    [
     0.0,
     0.0,
     0.0,
     0.0,
     0.0,
     0.31372549,
     0.992156863,
     0.992156863,
     0.992156863,
     0.639215686,
     0.584313725,
     0.121568627,
     0.247058824,
     0.584313725,
     0.584313725,
     0.584313725,
     0.698039216,
     0.992156863,
     0.992156863,
     0.992156863,
     0.992156863,
     0.992156863,
     0.949019608,
     0.254901961,
     0.0,
     0.0,
     0.0,
     0.0
    ],
    [
     0.0,
     0.0,
     0.0,
     0.0,
     0.0,
     0.31372549,
     0.992156863,
     0.992156863,
     0.992156863,
     0.992156863,
     0.992156863,
     0.91372549,
     0.933333333,
     0.992156863,
     0.992156863,
     0.992156863,
     0.992156863,
     0.992156863,
     0.992156863,
     0.992156863,
     0.992156863,
     0.992156863,
     0.301960784,
     0.0,
     0.0,
     0.0,
     0.0,
     0.0
    ],
    [
     0.0,
     0.0,
     0.0,
     0.0,
     0.0,
     0.149019608,
     0.796078431,
     0.992156863,
     0.992156863,
     0.992156863,
     0.992156863,
     0.992156863,
     0.992156863,
     0.992156863,
     0.992156863,
     0.992156863,
     0.992156863,
     0.992156863,
     0.992156863,
     0.992156863,
     0.917647059,
     0.478431373,
     0.11372549,
     0.0,
     0.0,
     0.0,
     0.0,
     0.0
    ],
    [
     0.0,
     0.0,
     0.0,
     0.0,
     0.0,
     0.0,
     0.105882353,
     0.843137255,
     0.992156863,
     0.992156863,
     0.992156863,
     0.992156863,
     0.992156863,
     0.992156863,
     0.992156863,
     0.992156863,
     0.992156863,
     0.992156863,
     0.866666667,
     0.498039216,
     0.145098039,
     0.0,
     0.0,
     0.0,
     0.0,
     0.0,
     0.0,
     0.0
    ],
    [
     0.0,
     0.0,
     0.0,
     0.0,
     0.0,
     0.0,
     0.0,
     0.133333333,
     0.541176471,
     0.541176471,
     0.541176471,
     0.901960784,
     0.992156863,
     0.992156863,
     0.992156863,
     0.694117647,
     0.541176471,
     0.541176471,
     0.054901961,
     0.0,
     0.0,
     0.0,
     0.0,
     0.0,
     0.0,
     0.0,
     0.0,
     0.0
    ],
    [
     0.0,
     0.0,
     0.0,
     0.0,
     0.0,
     0.0,
     0.0,
     0.0,
     0.0,
     0.0,
     0.0,
     0.188235294,
     0.235294118,
     0.235294118,
     0.235294118,
     0.082352941,
     0.0,
     0.0,
     0.0,
     0.0,
     0.0,
     0.0,
     0.0,
     0.0,
     0.0,
     0.0,
     0.0,
     0.0
    ],
    [
     0.0,
     0.0,
     0.0,
     0.0,
     0.0,
     0.0,
     0.0,
     0.0,
     0.0,
     0.0,
     0.0,
     0.0,
     0.0,
     0.0,
     0.0,
     0.0,
     0.0,
     0.0,
     0.0,
     0.0,
     0.0,
     0.0,
     0.0,
     0.0,
     0.0,
     0.0,
     0.0,
     0.0
    ],
    [
     0.0,
     0.0,
     0.0,
     0.0,
     0.0,
     0.0,
     0.0,
     0.0,
     0.0,
     0.0,
     0.0,
     0.0,
     0.0,
     0.0,
     0.0,
     0.0,
     0.0,
     0.0,
     0.0,
     0.0,
     0.0,
     0.0,
     0.0,
     0.0,
     0.0,
     0.0,
     0.0,
     0.0
    ],
    [
     0.0,
     0.0,
     0.0,
     0.0,
     0.0,
     0.0,
     0.0,
     0.0,
     0.0,
     0.0,
     0.0,
     0.0,
     0.0,
     0.0,
     0.0,
     0.0,
     0.0,
     0.0,
     0.0,
     0.0,
     0.0,
     0.0,
     0.0,
     0.0,
     0.0,
     0.0,
     0.0,
     0.0
    ],
    [
     0.0,
     0.0,
     0.0,
     0.0,
     0.0,
     0.0,
     0.0,
     0.0,
     0.0,
     0.0,
     0.0,
     0.0,
     0.0,
     0.0,
     0.0,
     0.0,
     0.0,
     0.0,
     0.0,
     0.0,
     0.0,
     0.0,
     0.0,
     0.0,
     0.0,
     0.0,
     0.0,
     0.0
    ],
    [
     0.0,
     0.0,
     0.0,
     0.0,
     0.0,
     0.0,
     0.0,
     0.0,
     0.0,
     0.0,
     0.0,
     0.0,
     0.0,
     0.0,
     0.0,
     0.0,
     0.0,
     0.0,
     0.0,
     0.0,
     0.0,
     0.0,
     0.0,
     0.0,
     0.0,
     0.0,
     0.0,
     0.0
    ],
    [
     0.0,
     0.0,
     0.0,
     0.0,
     0.0,
     0.0,
     0.0,
     0.0,
     0.0,
     0.0,
     0.0,
     0.0,
     0.0,
     0.0,
     0.0,
     0.0,
     0.0,
     0.0,
     0.0,
     0.0,
     0.0,
     0.0,
     0.0,
     0.0,
     0.0,
     0.0,
     0.0,
     0.0
    ]
   ],
   "output": 0,
   "conv_layer": {
    "w": [
     [
      [
       [
        -1.407060489,
        -0.373635852,
        1.48032673,
        2.13167574,
        3.519447159
       ],
       [
        -0.21630972,
        -1.110790376,
        -1.673342335,
        -1.814011901,
        -0.071573856
       ],
       [
        0.062497486,
        -1.80034384,
        -3.586686834,
        -3.213486791,
        -2.021321219
       ],
       [
        1.014812868,
        2.126560389,
        1.378932555,
        0.345992363,
        -1.198750927
       ],
       [
        -1.118647716,
        1.133903468,
        1.9436989,
        1.756607209,
        -0.237564667
       ]
      ]
     ],
     [
      [
       [
        1.522276615,
        2.471679169,
        1.424705176,
        0.712262515,
        -0.905877436
       ],
       [
        -1.255887121,
        -1.507447636,
        -2.281380135,
        -1.587671321,
        -2.046580125
       ],
       [
        -1.588789473,
        -2.651040205,
        -1.943223104,
        -0.103696297,
        -0.624039422
       ],
       [
        -1.054293855,
        -0.299688078,
        0.334476537,
        0.77875259,
        -0.781824799
       ],
       [
        -0.928634356,
        2.45379899,
        1.393613967,
        0.098558311,
        -0.718999364
       ]
      ]
     ],
     [
      [
       [
        0.648371896,
        0.040050827,
        -0.483283398,
        0.215502056,
        0.149063897
       ],
       [
        0.283811485,
        -0.678893384,
        -0.455681242,
        0.657744208,
        1.284480836
       ],
       [
        -0.132126187,
        0.141835584,
        1.48414374,
        1.064374777,
        -0.559039933
       ],
       [
        0.616720079,
        -0.149093383,
        1.448507696,
        0.882965147,
        -0.229342754
       ],
       [
        1.019706305,
        -1.604894006,
        -2.086896092,
        -0.405370949,
        2.692058863
       ]
      ]
     ],
     [
      [
       [
        0.120096797,
        -0.276650772,
        -0.788058699,
        0.128224556,
        0.680074446
       ],
       [
        -0.572787992,
        -0.087377105,
        1.750723322,
        -0.093449679,
        -1.59071784
       ],
       [
        -1.773239574,
        0.24036378,
        2.752649114,
        0.114347518,
        -3.473154396
       ],
       [
        -1.301240303,
        1.321699387,
        2.478748361,
        -0.490059549,
        -2.169784514
       ],
       [
        0.067826139,
        0.495392054,
        1.262534685,
        -1.007775172,
        0.236941468
       ]
      ]
     ],
     [
      [
       [
        1.40884522,
        1.316920478,
        0.153200919,
        -0.673275503,
        -0.8070352
       ],
       [
        1.588998995,
        -1.749683638,
        -2.707940879,
        -1.653864641,
        0.102151207
       ],
       [
        -0.250321116,
        -1.84825862,
        -2.108165342,
        1.057307505,
        2.056454044
       ],
       [
        -1.388655496,
        -0.19002521,
        0.901199448,
        2.706982349,
        0.600520517
       ],
       [
        0.926424126,
        0.910159664,
        0.568975897,
        -0.425148119,
        -1.458699573
       ]
      ]
     ]
    ],
    "b": [
     -1.664170275,
     0.032980754,
     -1.918435969,
     0.051021673,
     -2.490150311
    ]
   },
   "dense_layer": {
    "w": [
     [
      -0.024647679,
      -0.293950817,
      -0.428672325,
      -0.663043944,
      -0.075698605,
      0.171944637,
      0.151161528,
      0.414281529,
      0.032401642,
      0.01010602,
      -0.781175225,
      -0.423330375,
      0.604750039,
      1.049663311,
      0.481255734,
      0.175718367,
      0.24920969,
      -0.053439097,
      -0.874195483,
      -0.943613804,
      -0.997129674,
      -0.703928385,
      -0.14009321,
      0.820243681,
      0.138783874,
      -0.695960193,
      -1.444142645,
      -0.634843808,
      -1.565158317,
      -2.341704513,
      -1.026639729,
      0.727224157,
      -0.341552623,
      -1.961800691,
      -1.843020198,
      0.270524325,
      -0.30239933,
      -0.63561926,
      -1.257663976,
      -0.243132649,
      -0.430591345,
      -0.956274508,
      0.001191109,
      1.821378329,
      -1.010189218,
      -0.806744472,
      -1.104908735,
      -0.63861998,
      -0.224896862,
      -1.055878613,
      0.228187344,
      0.76855075,
      0.102370957,
      -0.084664396,
      -0.69744256,
      -0.372295557,
      0.146303721,
      -0.164805833,
      0.239006013,
      0.231883523,
      0.001607669,
      -0.014585925,
      -0.325823538,
      -0.157533877,
      0.078163286,
      0.046256437,
      0.0656262,
      0.239857812,
      0.605960199,
      0.561402301,
      0.228580834,
      0.100203977,
      0.058795291,
      -0.005373133,
      -0.599766799,
      -0.655843045,
      -0.936320733,
      -1.142558113,
      -0.710380984,
      -0.207243689,
      0.14679861,
      -0.191470997,
      -0.123509195,
      0.216812708,
      -0.899578517,
      -0.788361508,
      -0.023069067,
      -0.028824886,
      0.23982067,
      -0.615804183,
      -0.355328202,
      -0.385190171,
      1.100601587,
      -0.261560746,
      -0.360174813,
      -0.394587392,
      0.01583434,
      -1.12500905,
      -1.019810573,
      -0.012210982,
      0.715237627,
      -0.947830063,
      -0.537916888,
      -0.362895688,
      0.003809177,
      -1.614064505,
      -0.693761745,
      -0.7700084,
      -1.086056109,
      0.365179835,
      -0.333363288,
      0.238858896,
      0.096362006,
      -1.140459875,
      -0.571476813,
      -0.319544583,
      0.039686436,
      0.431769565,
      0.577656434,
      0.41000279,
      0.086015101,
      0.225924414,
      0.716108109,
      0.936917437,
      1.197091486,
      0.858074988,
      0.325192051,
      0.219868627,
      0.196146768,
      -0.650832468,
      -1.081994727,
      -0.475167755,
      -0.008563752,
      -1.242178878,
      -0.644842472,
      0.255552042,
      -0.266355098,
      -1.712800065,
      -1.350321029,
      1.795357351,
      3.23169674,
      1.71101173,
      -0.451382728,
      0.231614288,
      0.330445943,
      -1.079172301,
      2.158504745,
      1.181011319,
      0.515283608,
      0.73814769,
      1.646396234,
      0.939491857,
      1.557056542,
      1.640424983,
      1.964126958,
      -3.280201424,
      -5.346543388,
      -0.150463356,
      1.341881087,
      1.606459274,
      1.663325899,
      1.919169634,
      0.196650907,
      -6.78899995,
      -4.185539209,
      0.942782355,
      0.887785863,
      1.451901695,
      0.126121871,
      0.785659346,
      1.364669141,
      -2.333212243,
      -0.761347287,
      0.828945446,
      -0.232199147,
      0.839304806,
      -0.801579567,
      -0.368465775,
      1.916049075,
      1.07781038,
      0.36919757,
      -0.621130536,
      -0.589193888,
      0.36509046,
      -0.082566032,
      -0.453372065,
      0.306807343,
      1.14699069,
      0.008079347,
      -1.075979963,
      -0.687671351,
      0.182685836,
      0.1994667,
      0.030321301,
      -0.045324867,
      -0.444776173,
      -0.491460067,
      -0.397095178,
      -0.662001886,
      0.068285981,
      0.180424115,
      -0.403152871,
      -1.01636588,
      -0.753098197,
      0.25903375,
      0.558565498,
      -0.58020594,
      0.403305513,
      0.238313534,
      -0.420384898,
      -0.598732106,
      1.737000193,
      1.066419557,
      1.848956602,
      1.062383882,
      1.375759039,
      0.142020105,
      0.117214698,
      1.713266359,
      3.297197216,
      -0.273644514,
      -0.190120224,
      0.692803232,
      2.45101111,
      -0.107726558,
      0.413269276,
      2.707257539,
      3.202616378,
      -3.877979913,
      -1.325879558,
      -0.330951149,
      2.070054121,
      -0.526117014,
      -0.20685001,
      2.218647084,
      1.239005619,
      -2.039371021,
      -0.363234279,
      -0.311441499,
      0.629235447,
      -0.33933158,
      -0.574026033,
      0.227082768,
      0.604541856,
      -0.531404332,
      -0.442712881,
      -0.862425006,
      -0.18582021,
      0.131446507,
      -0.386629476,
      -0.637710135,
      0.065360778,
      -0.262413596,
      -0.980055473,
      -1.089759632,
      -0.125056244,
      0.413380326,
      0.139618022,
      -0.229735984,
      -0.126711198,
      -0.525864784,
      -0.603821607,
      0.339846508,
      0.494458356,
      0.040874015,
      -0.356574432,
      -0.458199255,
      -0.149191254,
      0.308647294,
      -0.519171701,
      -1.075027747,
      0.10145004,
      0.205410677,
      -0.021193988,
      0.218444171,
      0.300645082,
      0.488680663,
      -1.047439359,
      -0.907431815,
      0.166162409,
      1.039629606,
      0.822545067,
      0.847245227,
      -0.324447938,
      -1.825947872,
      -0.963996902,
      -0.141156204,
      0.058670292,
      1.400246293,
      0.668153395,
      0.042514871,
      -2.537088215,
      -0.3813495,
      0.082213271,
      0.842157186,
      0.06820987,
      0.679670862,
      -0.855803523,
      -0.288088122,
      0.003874574,
      0.884316823,
      0.779531417,
      0.781499499,
      0.460678137,
      0.201069227,
      -1.242488613,
      0.793737377,
      0.17131454,
      0.449950172,
      0.486431821,
      0.49940095,
      0.696128677,
      0.178465977,
      -0.922950464,
      -0.560289672,
      0.280870494,
      -0.190898065,
      0.185327748,
      0.413508766,
      0.403705081
     ],
     [
      -0.263619985,
      -0.476051081,
      -1.245632029,
      -2.109211898,
      -1.67455106,
      -0.497012507,
      -0.234231083,
      -0.147563151,
      -0.375647149,
      -0.19198596,
      -0.857033902,
      -2.515492514,
      -2.463116757,
      -2.124774162,
      -1.364561625,
      -1.094899499,
      -0.275982515,
      0.172638818,
      0.319512439,
      -0.121500018,
      -0.604705483,
      -2.020114395,
      -2.172646668,
      -0.994874014,
      -0.292315637,
      -0.038771966,
      -0.370872757,
      -3.391715712,
      -2.098791259,
      -2.47670812,
      -1.846682385,
      -0.907004015,
      -0.606602272,
      -0.478896747,
      -0.970110208,
      -3.787534104,
      -1.203062146,
      -2.013165648,
      -1.195413012,
      -0.613847729,
      0.028379223,
      0.248086638,
      -0.078003373,
      -2.319963143,
      1.825682056,
      0.515785102,
      1.205935167,
      -0.026045328,
      0.022988937,
      0.580559947,
      -0.786343802,
      -0.749868559,
      1.012958499,
      0.26913607,
      0.419405804,
      -0.3402159,
      -0.61515428,
      -1.266943956,
      -0.394417735,
      0.363758216,
      -0.328416936,
      -0.435429608,
      -0.30227743,
      -0.363305638,
      -0.15029303,
      -0.129151499,
      -0.123767797,
      0.223524449,
      0.750490218,
      0.55109127,
      -0.022854132,
      -0.27916384,
      -0.144927556,
      -0.232872191,
      -0.273451622,
      -0.464006217,
      0.501503904,
      0.046208415,
      -0.101077503,
      -0.25156667,
      -0.11321626,
      -0.037535685,
      -0.116630797,
      -0.84961022,
      -0.311845394,
      -1.061420767,
      0.151605242,
      -0.65843564,
      -0.165746596,
      0.074260352,
      0.687771141,
      0.163709695,
      -0.309288868,
      -0.086435702,
      -0.62954073,
      -0.61421036,
      -0.194395341,
      0.093651742,
      1.219231598,
      -0.4059569,
      0.70956826,
      0.325979736,
      -0.431804889,
      -0.316139727,
      -0.110969704,
      0.418477732,
      0.717539681,
      -0.01834866,
      1.100296342,
      -0.849393888,
      -0.772910101,
      -0.365467845,
      -0.153357774,
      0.007032352,
      -0.325019513,
      -0.090083581,
      -0.635815728,
      -1.2152921,
      -0.14509547,
      -0.065646482,
      -0.129556548,
      -0.252835049,
      -0.156595438,
      0.815033902,
      0.316453694,
      -0.100576158,
      -0.030182692,
      -0.167673693,
      0.473505677,
      -0.088727628,
      1.215637551,
      1.722759968,
      -0.826496135,
      0.765787667,
      2.587078178,
      0.536263771,
      0.195186419,
      -0.950133459,
      -1.024858488,
      -2.139513364,
      -1.368917485,
      -2.588035536,
      0.573344202,
      -0.026770582,
      -0.04024024,
      -1.173041712,
      -1.874793118,
      2.849999217,
      0.498749965,
      -3.225898742,
      -0.10884841,
      -0.155894769,
      -0.367696448,
      -2.338986829,
      -3.284136932,
      3.360933102,
      0.760867981,
      -1.477616643,
      -0.860058964,
      -0.243423312,
      -1.18664138,
      -2.281369755,
      -2.152093115,
      2.10253079,
      -1.385477824,
      -1.43293469,
      -1.141737728,
      0.112300441,
      0.012827025,
      1.756972899,
      -0.569013518,
      0.083382779,
      -2.163153582,
      1.44862309,
      0.025245523,
      0.227303352,
      2.155562387,
      3.808807903,
      -1.784509305,
      -4.654842931,
      0.75691935,
      3.228493933,
      0.768555478,
      0.427305373,
      1.081238452,
      1.61011434,
      -1.672669116,
      -3.358304621,
      -1.170642459,
      0.874996216,
      0.488088086,
      0.411759837,
      0.317724342,
      0.3456976,
      0.500130421,
      1.462087418,
      1.453453423,
      0.277216448,
      0.829080791,
      0.601500896,
      0.346264746,
      0.45968944,
      0.527370576,
      0.54251553,
      0.032904828,
      -0.265841342,
      0.137248001,
      0.378508763,
      0.314440023,
      0.495252118,
      0.086345548,
      -2.416316329,
      1.452835389,
      -1.26596781,
      -0.398032531,
      -0.051730066,
      0.351427924,
      0.410447495,
      -0.107294926,
      -2.77908257,
      3.440270028,
      0.155091156,
      -0.483904094,
      -0.449411734,
      0.329634538,
      -0.090935916,
      -0.498284262,
      -1.299797804,
      2.454178086,
      -0.673990523,
      -1.208443656,
      -0.25059951,
      0.337550525,
      0.18089425,
      0.06775756,
      -0.326501472,
      0.790561207,
      -0.971131073,
      -0.139337865,
      0.117664644,
      0.480752832,
      1.703895426,
      1.00930016,
      -0.1429276,
      -0.767301107,
      0.829597497,
      1.209474677,
      0.339520351,
      0.41738439,
      1.874463929,
      1.529055516,
      -1.104575441,
      -1.652962334,
      1.25252981,
      0.853392445,
      0.292639779,
      -0.12528666,
      -0.263461946,
      0.011774069,
      0.700001584,
      -0.610760706,
      0.703066443,
      1.107450499,
      -0.187759567,
      -0.159951909,
      -0.822270432,
      -0.944919553,
      -2.46012774,
      -0.963831011,
      1.108333269,
      1.03366335,
      -0.722707755,
      -0.333762984,
      -0.506872978,
      -0.893890488,
      -0.944140365,
      -0.471240769,
      -0.371395724,
      -0.392382368,
      -1.053173215,
      -0.299753982,
      -0.36157654,
      -1.853923223,
      0.776893781,
      -0.575519771,
      -0.771720334,
      -1.081090641,
      -0.876643978,
      -0.557608294,
      -1.229519607,
      -1.465047992,
      0.575988982,
      -1.784916485,
      -0.63172522,
      -0.896987749,
      -0.307864802,
      -0.605803342,
      0.921088548,
      0.072681568,
      -0.850325301,
      -1.917616978,
      0.884711775,
      -0.182752618,
      -0.200078574,
      0.91485791,
      2.78836219,
      0.198025502,
      -3.658447359,
      -0.400833991,
      0.286101569,
      -0.361242539,
      -0.215869485,
      0.511101316,
      1.244868438,
      -0.913233222,
      -2.500464026,
      0.188754348,
      0.073638323,
      -0.302551403,
      -0.169718959
     ],
     [
      -0.166546561,
      0.219327154,
      0.651636001,
      1.069421555,
      2.066652097,
      1.50064481,
      0.523160556,
      -0.917088679,
      -0.087723683,
      0.040233181,
      -0.308075023,
      0.523320661,
      0.769474355,
      0.223877314,
      -0.088281093,
      -0.909661836,
      -0.32885907,
      0.556551459,
      0.443526984,
      0.909204208,
      0.787989423,
      0.720533427,
      0.230265182,
      -0.539588208,
      0.849054141,
      3.053596708,
      1.742764753,
      1.616469217,
      -0.559476734,
      -2.871249787,
      -1.428402319,
      0.019907009,
      0.718017727,
      1.17316084,
      -0.609981291,
      -0.753508459,
      0.438084634,
      -0.349640006,
      0.064862126,
      1.405079006,
      -1.171957354,
      -0.723836757,
      -0.572139083,
      0.789547987,
      1.311203188,
      1.913169424,
      2.595212855,
      1.636060326,
      -0.907437712,
      -1.333169855,
      -0.930658499,
      -0.003311167,
      -0.106005797,
      1.793635176,
      2.877946533,
      0.815095933,
      -0.153772547,
      0.469880525,
      0.498739263,
      0.264283613,
      0.509417868,
      0.69575938,
      0.226054325,
      -0.320139606,
      0.000576828,
      0.029987279,
      -0.185053071,
      -0.568830532,
      -0.996531244,
      -0.792709791,
      -0.204947035,
      0.012869896,
      0.026102857,
      0.458934232,
      0.88402741,
      -0.197233267,
      -0.595238874,
      -0.581576891,
      -0.330087403,
      -0.227441087,
      0.019852237,
      1.562956764,
      0.643400673,
      0.076582541,
      1.001221315,
      0.112806759,
      -1.035933975,
      -0.465479327,
      0.224793105,
      2.987343231,
      3.038191608,
      2.148617843,
      1.859134885,
      0.733026047,
      -0.533359473,
      -0.203700195,
      -0.147297193,
      0.464008419,
      0.02053683,
      -1.111506698,
      -0.649041561,
      -1.021030033,
      -0.011480183,
      0.452444749,
      -0.507872355,
      -1.471219085,
      -1.889649288,
      -2.117630602,
      -1.312504968,
      -1.180347913,
      0.652494239,
      1.038964873,
      -0.18718763,
      -0.123776024,
      -0.474198128,
      -0.122673148,
      0.565942941,
      1.030829525,
      1.693774262,
      0.669843034,
      0.133547565,
      0.476236483,
      0.826137866,
      1.255660001,
      0.117942643,
      0.348421756,
      0.686977701,
      -0.009950238,
      -0.645236363,
      1.405811762,
      0.362356465,
      -0.675215769,
      -0.940567609,
      -0.249458718,
      -1.183081418,
      -1.415493889,
      0.371493531,
      1.844599593,
      1.463883021,
      1.357653604,
      1.107948863,
      0.592524517,
      0.278109129,
      -1.429297239,
      -1.888849713,
      -2.352870538,
      -2.936727342,
      -2.485853606,
      -2.201296955,
      -0.853167584,
      -1.106792058,
      -1.377485882,
      -2.893264424,
      -3.028986968,
      -1.320305955,
      -0.826952061,
      -1.940775827,
      -1.110771699,
      -0.993297783,
      -0.178646091,
      0.399484027,
      0.189996956,
      1.585675236,
      3.459094412,
      1.777473614,
      -0.675124003,
      -0.052138726,
      2.147116522,
      3.347656126,
      2.5170015,
      2.075885634,
      1.036138454,
      0.908900871,
      -0.708647762,
      0.600436697,
      2.223085929,
      1.333443332,
      1.905028969,
      0.574239141,
      -1.240913815,
      -0.532715115,
      1.229872212,
      0.682341755,
      1.428009811,
      -0.865031246,
      -1.160981102,
      -1.155275244,
      -1.158705257,
      -1.331938512,
      -1.128326711,
      -0.887579182,
      -0.166747256,
      -0.482595254,
      -0.497882041,
      -0.675987171,
      -1.118693176,
      -0.587044831,
      0.309403496,
      0.053004563,
      -0.864429402,
      -0.380018762,
      -0.279067002,
      -0.150344871,
      0.434331694,
      0.419320034,
      1.043150884,
      1.372958308,
      -0.611053551,
      -0.342581203,
      -1.035463837,
      -0.573879535,
      -0.400538605,
      0.43733714,
      1.835455748,
      1.645821004,
      -0.429061136,
      -0.630246883,
      -2.516906656,
      -2.870415169,
      -1.130883619,
      -0.197004128,
      1.667925656,
      1.249764279,
      -0.65815762,
      -0.333763544,
      -1.41502524,
      -2.32979096,
      0.768243824,
      1.429287835,
      0.148234332,
      -1.348110186,
      -0.48842406,
      -0.092794698,
      0.424009534,
      -0.491107536,
      0.978082583,
      0.22053361,
      -0.288073585,
      -1.201989906,
      0.803678824,
      -0.21804378,
      0.863196074,
      0.823208703,
      -0.231958266,
      -1.433291721,
      0.507140688,
      -0.081292863,
      0.926738743,
      -0.499643174,
      -0.222995606,
      -0.270319078,
      -0.846801649,
      -1.289444491,
      -0.203863195,
      -0.449658584,
      -0.097768322,
      -0.43844763,
      0.84461942,
      0.83173194,
      0.094824004,
      -0.656180212,
      -1.284317511,
      -1.457325803,
      -0.98064768,
      0.218512574,
      0.127898246,
      0.222607538,
      0.049169315,
      -0.775998447,
      -1.771200901,
      -1.757736765,
      -1.301870875,
      -0.496206368,
      -0.896825796,
      -0.339325434,
      -0.048488043,
      -0.820761619,
      -1.430340285,
      -0.850116282,
      -0.859634138,
      -1.795695662,
      -0.825988604,
      0.217281789,
      0.308574482,
      -0.515917001,
      -1.15392186,
      -0.266852867,
      0.481818718,
      0.318920356,
      1.570589623,
      2.666126252,
      2.501028923,
      0.806953241,
      0.417243051,
      1.035005991,
      1.858025061,
      1.460475408,
      0.996201198,
      2.597365656,
      1.98379065,
      2.388875978,
      0.350722139,
      0.437417249,
      1.377894882,
      0.485227964,
      0.692139115,
      0.277025087,
      0.407793436,
      0.233620171,
      -1.33094003,
      0.203443408,
      0.421207394,
      -1.047164275,
      -1.138619264,
      -1.358471067,
      -1.115254946,
      -1.258006263,
      -0.916813519,
      0.152897987,
      -0.113931234
     ],
     [
      0.406007721,
      0.716519597,
      1.114718359,
      2.334156753,
      1.86948787,
      1.19152405,
      0.53192895,
      -0.786611433,
      0.691578101,
      1.226419553,
      1.971105621,
      2.789160266,
      1.579399143,
      0.250682231,
      0.1429967,
      -0.701558084,
      -0.084722113,
      0.546804451,
      0.449184084,
      -1.002292383,
      0.923530374,
      -0.615681343,
      -0.709333182,
      -0.730015532,
      0.034695115,
      0.244811928,
      -0.638383129,
      -0.897831522,
      2.023303546,
      0.665817219,
      0.102014955,
      -1.118385635,
      0.487771347,
      1.903699361,
      1.524853346,
      1.437652744,
      1.616594368,
      0.577740749,
      1.253253936,
      0.042190546,
      0.32052166,
      2.35588759,
      2.651590126,
      2.350085694,
      1.863587041,
      -0.188348801,
      -1.739531568,
      -0.499465843,
      0.088851139,
      0.656395606,
      0.347367826,
      0.131859123,
      -0.84166894,
      -1.859125634,
      -1.770772186,
      -0.890644618,
      0.098392214,
      0.348734221,
      0.544647065,
      -0.476524286,
      -0.164893776,
      -0.149792674,
      -0.07543033,
      -0.137322121,
      0.169912998,
      -0.01643182,
      0.024671921,
      0.120272169,
      -0.360551252,
      -0.466359999,
      -0.204104004,
      0.013835116,
      0.013180466,
      -0.02504597,
      -0.036168979,
      -0.838072442,
      -1.185742473,
      -1.05572338,
      -1.332300896,
      -0.244297211,
      0.110023218,
      1.267566861,
      1.136034534,
      1.0424941,
      0.135919741,
      -1.249552188,
      -0.867167413,
      -0.169066449,
      0.355865317,
      1.891411525,
      1.838075572,
      0.374429247,
      -1.663900693,
      -1.110749418,
      1.930050333,
      0.430928295,
      0.29162154,
      1.255891806,
      1.142381505,
      0.049047435,
      0.242650404,
      1.984248763,
      1.056200769,
      -0.095014667,
      -0.145644276,
      0.181131616,
      -0.482754489,
      -0.333564407,
      0.09309092,
      0.225876866,
      -0.498464876,
      -0.506372332,
      -0.1510342,
      0.528220127,
      0.010026663,
      -0.096518867,
      0.498214435,
      0.583056279,
      0.479592427,
      0.040630874,
      0.096927991,
      0.557883073,
      0.570019264,
      -0.127067204,
      0.46641171,
      0.760934829,
      0.146155943,
      -0.048277548,
      1.163355948,
      0.743193806,
      0.243686724,
      0.83194717,
      -0.284555796,
      -1.197969424,
      -0.99277502,
      -0.438050342,
      2.45182132,
      1.739061975,
      -0.497766654,
      1.313505023,
      -0.222397435,
      -1.344089062,
      -0.516539539,
      -0.872546473,
      0.2595606,
      -1.797704329,
      -1.497340857,
      3.276806174,
      2.313062001,
      0.077599436,
      -0.946975512,
      -1.283098648,
      -1.728464519,
      -2.653133579,
      1.771437909,
      3.302821064,
      0.849832987,
      -0.058923851,
      -1.007810496,
      -0.740828381,
      -0.314380377,
      -3.125297298,
      -1.368677648,
      0.837371471,
      0.450451331,
      -0.404526219,
      -0.242958673,
      -0.598076606,
      1.904585626,
      -1.284997533,
      -2.272257758,
      -0.742312568,
      1.98113048,
      0.494658247,
      0.212805235,
      -0.45070758,
      2.150867096,
      0.635520741,
      0.306068342,
      0.219628462,
      0.739613883,
      -2.099607883,
      -0.971920835,
      -0.553713863,
      1.36167635,
      1.087678455,
      1.501182139,
      1.336665182,
      -0.116370072,
      0.293436954,
      -0.334171646,
      -0.66557747,
      0.120110488,
      0.346864632,
      -0.12928994,
      -0.071514382,
      -0.108936341,
      -0.074795609,
      0.012979308,
      -0.458287106,
      0.447250825,
      0.589425637,
      -0.517511168,
      -0.610795759,
      0.014293167,
      0.318456615,
      1.769075877,
      -0.678995567,
      0.469760448,
      -0.435422669,
      -2.862562362,
      -2.93870929,
      -0.717973374,
      1.512561339,
      1.086249424,
      -0.956608956,
      0.159442825,
      -1.012426174,
      -2.076642471,
      -1.608456616,
      -0.601913225,
      0.006262516,
      -0.813925013,
      -1.029816877,
      0.616903753,
      -0.218458659,
      -0.857600631,
      0.227876838,
      -0.168230505,
      0.227290721,
      0.604314546,
      -0.54109131,
      1.215022615,
      0.103271333,
      -0.994816727,
      -1.800732568,
      -0.338373061,
      1.086582169,
      1.811850162,
      0.117158941,
      0.784984397,
      -0.121241012,
      -1.06493816,
      -1.822144146,
      -0.57597219,
      0.132956306,
      0.072386522,
      -0.387845858,
      0.268185521,
      -0.377875082,
      -0.832820363,
      -0.278564895,
      -0.184109909,
      -0.052976609,
      -0.662653563,
      -0.656159315,
      0.472585971,
      0.305541723,
      -0.179054342,
      0.044149642,
      -0.60630386,
      -0.967993793,
      -0.346448048,
      -0.136446224,
      1.80233521,
      1.919833638,
      1.535052274,
      0.675449349,
      -0.581916485,
      -2.10135534,
      -0.97368089,
      -0.592551231,
      0.668151099,
      0.356025966,
      0.108605797,
      0.53326295,
      1.159799254,
      2.475043682,
      0.411063162,
      -0.358937996,
      -0.807770959,
      0.321438506,
      2.740381847,
      3.142881431,
      2.0657437,
      0.938077021,
      0.426484625,
      -0.096836386,
      -0.563709773,
      -1.157542551,
      -0.041027777,
      -0.282739453,
      -0.372481673,
      -0.057297283,
      -0.144609502,
      -0.492075522,
      0.116436013,
      -1.69071637,
      -1.98366507,
      -1.838981101,
      0.432362361,
      -0.035030164,
      -0.821262319,
      -0.774517186,
      0.6397048,
      -0.138499101,
      -0.766364825,
      0.505123708,
      1.528700911,
      0.181487752,
      -0.507901457,
      0.091416588,
      0.636345671,
      0.895215941,
      1.379336317,
      1.687026841,
      1.138692935,
      0.398265863,
      0.335655646,
      0.001741321
     ],
     [
      -0.009597554,
      0.807664044,
      0.681560959,
      -0.328694872,
      -1.240104578,
      -2.202438152,
      -0.879024397,
      0.92971197,
      -0.284500522,
      0.060037948,
      -0.643589955,
      -2.238187053,
      -2.990339975,
      -2.90536412,
      -1.536921685,
      0.395401569,
      -0.668462487,
      -1.149865203,
      -0.898837436,
      -0.733872713,
      -2.62049364,
      -1.627923397,
      -1.547272892,
      -0.693192944,
      -0.564788761,
      -0.813646783,
      -0.03725862,
      1.383213974,
      -1.575749603,
      -0.217957711,
      0.157858409,
      0.777139539,
      -0.355007214,
      -0.957562782,
      1.24880464,
      1.375537743,
      -0.741068557,
      0.909719175,
      0.391849668,
      -0.217656081,
      0.117751151,
      -0.721911631,
      -0.162417184,
      -1.586788159,
      -0.874331809,
      0.238966173,
      0.082144702,
      -0.284547612,
      -0.157574001,
      0.723901051,
      0.403105071,
      -0.758638356,
      0.467987712,
      0.667468121,
      0.846889146,
      0.173968072,
      -0.268578823,
      -0.552913057,
      -1.228316541,
      -0.116407005,
      0.655123128,
      -0.7796938,
      -0.330317662,
      -0.140905866,
      -0.165105004,
      -0.021529455,
      0.334724153,
      0.617752535,
      0.644513458,
      0.890956154,
      0.679690831,
      0.288020855,
      -0.190021503,
      -0.290707144,
      1.134422237,
      2.395218813,
      1.296537276,
      1.686294473,
      0.910096795,
      0.175971807,
      -0.239263325,
      -0.610008933,
      0.790888556,
      -0.078732455,
      -0.871252615,
      -1.175116584,
      -1.075141625,
      0.093503735,
      -0.247795317,
      -1.784766256,
      -2.315975182,
      -1.243312145,
      -1.310094649,
      -1.123224752,
      -1.537611333,
      0.130283357,
      -0.291017931,
      -2.034606504,
      -1.430624167,
      1.035624765,
      -0.943729419,
      -1.21923992,
      -0.124364418,
      0.597083558,
      -0.039084516,
      0.337674562,
      1.900115412,
      1.349710272,
      1.571934164,
      0.802003286,
      0.899136713,
      0.598260523,
      -0.102615752,
      0.467498003,
      0.390486823,
      0.752295702,
      0.78841753,
      -0.961488303,
      -1.02369355,
      -0.465617807,
      -0.105504433,
      -0.297125984,
      -0.269544753,
      -0.155686847,
      -0.805028095,
      -0.279111824,
      0.055927251,
      0.100649586,
      0.101486198,
      -0.077185895,
      -1.374917403,
      0.121570501,
      -0.04226701,
      0.091621479,
      2.114800942,
      0.752008252,
      0.145643266,
      -0.43054669,
      -0.370386512,
      -2.151783012,
      -2.008347175,
      1.786538783,
      1.256969929,
      0.277609338,
      -0.301551493,
      0.03965935,
      2.092098094,
      -3.267566904,
      -2.029820862,
      0.136797461,
      -1.496925627,
      -1.277676266,
      1.853602416,
      4.042136983,
      2.34499815,
      -2.56915883,
      -0.293412602,
      2.489023413,
      0.719242557,
      -1.503607225,
      2.011245814,
      3.363931555,
      -0.179260776,
      0.775131183,
      3.242858849,
      2.131585749,
      0.646182642,
      -1.021551337,
      -1.577271436,
      -1.674777468,
      -2.323956727,
      0.257582683,
      0.712513325,
      -1.147898309,
      -0.670367789,
      -0.931525087,
      -1.620065772,
      -2.542727122,
      -1.236064384,
      -1.3110791,
      -1.542671518,
      -0.489060226,
      -0.536868026,
      -0.867361885,
      -0.505806606,
      -0.550789004,
      0.028944221,
      -1.843897909,
      -2.769541075,
      -0.664431696,
      0.547897776,
      -0.072025777,
      -0.186261051,
      -0.012080091,
      -0.030843804,
      0.143940465,
      0.904651557,
      0.218410587,
      0.137225964,
      0.750375217,
      -0.18778843,
      0.783355418,
      2.009903985,
      3.269213472,
      3.391190291,
      1.779447416,
      0.613635072,
      1.586735921,
      -0.377942635,
      0.113328899,
      1.459530143,
      2.779833332,
      1.024479519,
      0.942769548,
      -0.704167011,
      0.170042143,
      -0.343792418,
      -0.08065857,
      0.622358105,
      1.072325507,
      -0.833678073,
      1.065353377,
      0.457464858,
      -0.63781329,
      -0.418747577,
      -0.051138458,
      -1.021781349,
      -1.809208642,
      0.308767384,
      1.286603634,
      1.160989002,
      -0.025008108,
      -0.356376508,
      -0.438819758,
      -2.047628825,
      -1.290337595,
      1.027501924,
      -0.641630576,
      -0.675026831,
      -0.734101561,
      -0.314938503,
      -0.754004924,
      -0.465042354,
      0.093865763,
      0.679113196,
      -0.845968635,
      -0.33666846,
      -0.580955338,
      -0.234009942,
      -0.227332928,
      0.984649289,
      1.483188386,
      0.899426407,
      0.273001349,
      0.948639651,
      0.09696822,
      -0.396389867,
      -0.423434244,
      -0.551927515,
      -0.74063025,
      -0.382365917,
      -0.367084999,
      -0.116504821,
      0.247967226,
      0.063510492,
      0.031082647,
      -0.671975048,
      -0.823809089,
      -0.183984375,
      1.521281581,
      2.583594977,
      0.835856506,
      -0.760707812,
      -1.44943696,
      -0.035986167,
      -0.062718815,
      0.833739874,
      1.51514288,
      1.561359404,
      0.393828207,
      0.15307981,
      0.636950801,
      1.56862274,
      -0.326439077,
      0.052758952,
      -0.267238646,
      0.851668724,
      0.460496041,
      1.008806886,
      0.901561329,
      -0.286400465,
      -0.772894442,
      -0.477672509,
      -0.370959353,
      1.140340838,
      0.081329364,
      -0.381168157,
      -0.819463324,
      -0.277434066,
      1.157882306,
      -1.955001914,
      -0.767224597,
      0.702266399,
      0.055766653,
      -1.23361657,
      -0.872907559,
      0.605887488,
      -0.432133628,
      -1.551196814,
      -0.459556109,
      -0.716365919,
      -0.678539263,
      -0.393761244,
      0.42430424,
      0.581982459,
      -0.331944646,
      -0.600752616,
      -0.234946541,
      -0.562181539,
      -0.385757409
     ],
     [
      -0.656151543,
      -0.85937815,
      -0.571814506,
      0.106977521,
      0.141605337,
      0.901113648,
      -0.314627182,
      -0.283747902,
      -0.910864228,
      -0.984828768,
      0.017146791,
      0.09066974,
      0.038167966,
      0.529633441,
      0.979102116,
      1.77184679,
      -0.287361081,
      -1.006874793,
      -0.926560352,
      0.156140012,
      1.446352084,
      2.277416196,
      0.923986144,
      -0.208023083,
      -0.613101958,
      -1.607558548,
      -0.978135314,
      -0.148889235,
      2.618651765,
      3.833083691,
      1.957169579,
      -0.543419175,
      -0.042837383,
      1.465817544,
      0.372213049,
      1.042905864,
      1.166783194,
      0.810052515,
      0.195425525,
      0.119351874,
      0.260879806,
      2.511673831,
      1.90445122,
      1.493841698,
      -0.37753221,
      -0.603077782,
      -0.507091753,
      0.152651869,
      0.334515137,
      0.899798355,
      -0.544190451,
      0.989632803,
      -0.47299744,
      -0.584229818,
      -0.893235469,
      -0.160352968,
      -0.415295727,
      0.391378197,
      0.114780746,
      -0.304563532,
      -0.893217981,
      -0.633389121,
      -0.454525844,
      -0.223933868,
      -0.150908114,
      -0.092868689,
      0.126829154,
      0.124061069,
      -0.251955294,
      -0.34518394,
      0.033640544,
      0.17676824,
      -0.152313169,
      -0.354764364,
      -1.07442816,
      -1.077685023,
      -0.767127388,
      0.361206785,
      1.357620989,
      0.471497848,
      -0.14683,
      -1.001816963,
      -1.214596293,
      0.085198827,
      0.454304216,
      1.148475003,
      1.589329131,
      1.218179971,
      -0.127498498,
      -0.743693438,
      -1.20942575,
      -0.623981555,
      1.485291435,
      2.534998047,
      1.535689192,
      1.099430592,
      7.9159e-05,
      1.917315649,
      1.623271682,
      1.146781596,
      1.718953715,
      1.17319674,
      -0.613076591,
      -0.799264189,
      0.213289283,
      2.094718995,
      1.699108823,
      0.295644514,
      -0.113033273,
      -0.722112034,
      -1.164103849,
      -0.918913019,
      0.007843374,
      0.98988066,
      1.041976365,
      0.277557091,
      -0.986510869,
      -0.973392676,
      -1.17162005,
      -0.218647775,
      -0.165295122,
      -0.263216381,
      -0.072652967,
      -0.479882503,
      -0.261399059,
      0.1039739,
      0.38436027,
      0.246419224,
      -1.037787656,
      -0.878522538,
      0.068053121,
      0.5383297,
      1.562996309,
      1.505668271,
      -1.428745799,
      -0.32103618,
      -1.639031935,
      0.520266288,
      1.103624367,
      -0.501216998,
      -0.39225564,
      2.267247993,
      1.256030549,
      3.424182375,
      -0.130694887,
      0.881631275,
      0.327516569,
      -0.788986588,
      -2.018777914,
      0.809813502,
      0.572855083,
      4.215175341,
      -0.712878267,
      -0.045359257,
      2.557416039,
      2.544400961,
      -1.556298862,
      -1.630215659,
      -1.908205574,
      -0.128228213,
      -0.197257855,
      -1.436327446,
      0.37709772,
      -0.704514746,
      -1.330437405,
      -1.990369581,
      -1.371259826,
      -1.283250659,
      0.849725114,
      -0.469481474,
      -0.873457445,
      -0.468042629,
      -0.0666888,
      -0.733486145,
      0.995215308,
      -0.071081357,
      -0.530395328,
      -0.733320255,
      1.29322867,
      1.795709601,
      1.438604778,
      1.25253964,
      1.802883151,
      0.291307102,
      -0.735248229,
      -1.166847292,
      0.95982604,
      2.669959298,
      1.968924667,
      0.938571357,
      0.415371493,
      0.023939567,
      -0.102432013,
      -0.255618595,
      -0.202292157,
      0.008102514,
      0.355219575,
      0.485305164,
      -0.587680589,
      -0.017457224,
      -0.364778463,
      -0.164249607,
      0.944262768,
      -0.31447851,
      -2.162133702,
      -0.794141682,
      -2.148465686,
      0.547489114,
      -0.279532589,
      0.473480437,
      0.518177346,
      0.356785702,
      -1.189725672,
      -1.875157961,
      -3.190637559,
      0.209204563,
      0.019325381,
      0.320330997,
      0.24275462,
      1.765411524,
      -0.238273781,
      -1.126521661,
      -1.885448833,
      -1.426550849,
      -0.069237448,
      0.018175928,
      -0.182478429,
      0.141849156,
      -0.165793091,
      0.016012479,
      -0.587417216,
      -0.939133964,
      -0.179948738,
      -0.205778646,
      -0.374079808,
      0.148824513,
      0.178266282,
      0.267153459,
      0.358318806,
      0.648126477,
      0.04595796,
      -0.844211592,
      -0.650481073,
      -0.067121797,
      0.013543949,
      0.136499164,
      0.501239937,
      1.001205702,
      0.025161703,
      -0.956342595,
      -1.481993253,
      -0.596860356,
      -0.319924984,
      0.159578597,
      0.549206286,
      0.529592128,
      -0.443016174,
      -0.983588856,
      -0.993774841,
      -0.583023509,
      1.179227926,
      1.153310215,
      -0.382968897,
      0.095002498,
      -1.058712514,
      -0.536507637,
      -0.061066815,
      -0.212114423,
      0.719145488,
      1.974612923,
      1.462177983,
      2.166011489,
      -0.460633719,
      -0.196659192,
      -1.147218647,
      -0.783864616,
      -1.812707129,
      -1.237005061,
      -0.363953262,
      2.421872704,
      0.172752825,
      -0.455394561,
      0.665216279,
      -0.242249707,
      -2.905218285,
      -2.377810433,
      -2.479732204,
      0.21915744,
      -0.606736081,
      -0.657643762,
      -0.014168071,
      -0.294102,
      -1.150251424,
      -1.276651759,
      -2.202398965,
      -1.018575372,
      0.542651166,
      -0.265492991,
      -0.88750719,
      -0.654341742,
      0.20515583,
      -0.460073274,
      -0.554736561,
      -0.556459296,
      0.035122557,
      1.213570663,
      1.099955554,
      0.693154127,
      1.568550965,
      0.888242981,
      1.072660302,
      -0.129771456,
      -0.295848239,
      -0.048460272,
      1.002883483,
      2.003631162,
      1.378928944,
      0.819379819,
      0.486960531,
      0.0451366
     ],
     [
      0.440334247,
      -0.0581011,
      -1.051872224,
      -2.140414777,
      -2.388823765,
      -1.506133481,
      0.149549221,
      0.941862166,
      0.260947353,
      -0.351604053,
      -0.870491082,
      -2.012802267,
      -2.681178384,
      -1.390622851,
      -0.842107602,
      -0.288245576,
      0.320748105,
      0.123359307,
      -0.154722762,
      -1.892521786,
      -0.853724137,
      1.860179916,
      2.316046347,
      1.514696457,
      0.134355427,
      -0.506813925,
      -1.512871442,
      -0.503033231,
      3.14552114,
      3.320165151,
      1.894293869,
      1.562075761,
      -0.096773091,
      -1.402091935,
      -2.761366693,
      -0.487837637,
      1.920204338,
      1.022763685,
      -0.084139467,
      0.066930071,
      0.504357919,
      -1.390849864,
      -1.4219955,
      0.533206557,
      0.585297812,
      -0.149317695,
      0.174497214,
      0.127504321,
      0.609782152,
      0.407772716,
      -0.65737546,
      -0.606764635,
      -0.795275165,
      0.130667895,
      0.730183793,
      0.462415094,
      0.578945547,
      0.779565036,
      1.30754814,
      1.449951499,
      0.960176284,
      0.458519473,
      0.275238471,
      0.544534442,
      -0.302640398,
      -0.315804994,
      -0.443454869,
      -0.528027971,
      -0.131773312,
      -0.566106028,
      -0.688867051,
      -0.450764496,
      -0.338407221,
      -0.373626162,
      -0.377793252,
      0.215996708,
      0.923720562,
      0.91265928,
      0.842939685,
      0.06677819,
      -0.339770772,
      -0.436082352,
      0.036504633,
      0.777374808,
      1.954742516,
      1.91613236,
      1.210424712,
      -0.071299277,
      -0.221175328,
      -0.715285607,
      -0.542770768,
      -1.412468528,
      1.012555209,
      0.340828186,
      -0.358871478,
      -1.047184815,
      -0.163307481,
      -0.954803605,
      -2.235008623,
      -1.98096492,
      -0.139175605,
      -0.195377637,
      -0.526668862,
      -0.523822689,
      -0.078959595,
      -0.691132592,
      -2.042316532,
      -1.044769604,
      -1.175680924,
      -0.204795988,
      -0.008173253,
      -0.349475458,
      -0.268068118,
      -0.220172933,
      -0.550146468,
      0.30458971,
      0.584682701,
      0.867274313,
      0.341642376,
      -0.26806389,
      -0.366699053,
      -0.418492835,
      -0.48467817,
      -0.983412026,
      -0.630819294,
      -0.252461969,
      -0.418657477,
      -0.463339449,
      -0.126693828,
      1.143332577,
      1.884390624,
      0.599876787,
      2.158498,
      2.799213699,
      2.025172946,
      0.720063367,
      -1.218446246,
      -0.730646606,
      -1.917738216,
      -2.349168967,
      -3.691108083,
      -1.98402079,
      -0.771252988,
      -0.339696016,
      -0.419336861,
      0.79313499,
      0.663514778,
      -3.345464026,
      -2.442255212,
      -2.504282201,
      0.236324303,
      -0.427858275,
      0.226864453,
      1.843082864,
      0.632946348,
      0.204823879,
      0.471199209,
      -2.246724997,
      1.569153328,
      1.230432838,
      -1.031858056,
      1.537832395,
      2.033866543,
      1.128007779,
      -1.701698998,
      -1.249491159,
      0.293654482,
      0.576678131,
      -2.494460266,
      0.736723318,
      4.8922427,
      3.24054925,
      3.199792405,
      2.522894638,
      0.73670507,
      0.050627628,
      -1.729071146,
      -1.180108028,
      2.813158188,
      5.063350148,
      3.462348308,
      1.68435369,
      0.609266588,
      -0.40075908,
      -0.445809504,
      -1.346827422,
      -1.342496212,
      -0.500457372,
      0.146475046,
      -0.606250135,
      -1.145468256,
      -0.512762608,
      0.182640813,
      0.497035423,
      1.780692535,
      1.820528583,
      1.257642997,
      1.400235396,
      1.667721604,
      0.855048099,
      0.139332234,
      0.437255928,
      0.821923865,
      -0.643374377,
      -1.29699745,
      -1.996378831,
      -0.919352181,
      -0.379171144,
      0.104735676,
      0.926391689,
      0.516738995,
      0.257087522,
      -1.774531718,
      -3.116065085,
      -2.038078669,
      -0.275244181,
      0.177713863,
      1.744938396,
      1.33048491,
      1.014418587,
      -0.250886669,
      -2.615186809,
      -0.436107072,
      1.963144417,
      -0.118712751,
      1.178078754,
      1.896867159,
      1.584395876,
      -0.003823244,
      -1.352412949,
      0.370596604,
      1.877764552,
      -0.231265414,
      0.178363585,
      1.422927128,
      1.461475011,
      0.126453018,
      0.557672599,
      0.22784361,
      0.380860012,
      -0.035059599,
      -0.530622244,
      1.167603867,
      2.113795835,
      1.362203581,
      1.37934566,
      1.116583475,
      -0.143011826,
      0.220437677,
      -0.154427359,
      0.079409071,
      0.031402223,
      0.003037664,
      -0.295342666,
      -0.680430063,
      -0.351259632,
      0.314567351,
      1.016044929,
      1.575984062,
      1.470538365,
      2.666093454,
      2.573311796,
      1.060300004,
      0.373603335,
      -0.281817637,
      -0.392250745,
      -0.839423611,
      0.066945599,
      1.142538154,
      1.499753346,
      0.645691989,
      0.311552986,
      -0.267162767,
      0.104303512,
      0.100234809,
      0.296994707,
      0.770234148,
      0.094005397,
      -0.149310454,
      -0.085736976,
      0.353226382,
      0.301024276,
      -0.058910665,
      -0.036671371,
      1.850738621,
      0.237109706,
      0.124415647,
      -0.629813473,
      -0.319102979,
      -0.2115756,
      -0.067110761,
      1.427611246,
      1.331206242,
      0.257798331,
      0.153362077,
      -0.415430416,
      -0.694184497,
      -0.349507038,
      -0.317518273,
      -1.447992723,
      0.232135869,
      1.025666001,
      0.598767635,
      0.163583639,
      -0.509584798,
      -0.628118278,
      0.09782811,
      -0.204817863,
      -0.261621149,
      0.34820736,
      0.628847871,
      0.375146812,
      0.151095695,
      -0.763669654,
      -2.017553391,
      -1.836072741,
      -0.937931312,
      -0.068772318,
      0.086887255,
      0.113440076
     ],
     [
      -0.382076997,
      -0.706925849,
      -0.768381494,
      -0.255929103,
      -0.28413232,
      -0.969703425,
      -1.348719326,
      -0.788129861,
      0.241069977,
      0.685911974,
      2.213844914,
      2.885536871,
      1.652741809,
      0.621352539,
      0.120276552,
      -0.540408635,
      0.984094611,
      2.176541709,
      1.589108246,
      0.611960711,
      -0.085246459,
      -0.190461697,
      -0.886408521,
      -0.733216645,
      0.249587339,
      0.201428225,
      -1.290238336,
      -1.915899256,
      -2.84482673,
      -0.384694475,
      0.439965928,
      -0.094511452,
      -0.744599917,
      -1.255741727,
      -0.883521704,
      -1.161230847,
      -1.474094702,
      0.214861824,
      0.992696034,
      -0.580136901,
      -0.612692812,
      -0.394652085,
      -0.600756135,
      -1.508048513,
      -1.976416866,
      -1.553961234,
      -1.414288221,
      -1.51056599,
      -0.204199739,
      0.111513098,
      -0.276959352,
      -0.741230847,
      0.082775115,
      -0.273340299,
      -1.316154188,
      -1.020808461,
      -0.457224631,
      -1.055653097,
      -0.657913501,
      -0.166106717,
      0.693666672,
      0.519109817,
      -0.428774285,
      -0.389481908,
      0.032253313,
      0.029878792,
      0.010462028,
      -0.173655559,
      -0.346199538,
      -0.468508291,
      -0.226655849,
      -0.090021414,
      0.061043315,
      0.376788404,
      0.582308387,
      0.743621113,
      0.22103323,
      0.185838909,
      0.208638224,
      -0.063150705,
      -0.074312136,
      0.10981749,
      -0.169434625,
      -0.633473638,
      -0.909079259,
      -0.801903635,
      -0.439729269,
      -0.0269134,
      -0.185529289,
      0.439218532,
      0.31484569,
      3.230300908,
      0.750256838,
      -0.33894474,
      0.347287375,
      0.03474587,
      0.0545105,
      0.873772786,
      2.596558487,
      3.053734198,
      -1.713705766,
      -1.008622738,
      -0.330436896,
      -0.036583184,
      0.07727184,
      1.172208995,
      2.445107066,
      1.187154389,
      -0.745548834,
      1.052899361,
      2.021892924,
      0.745761927,
      0.018920198,
      0.031937688,
      0.034634845,
      -0.420346264,
      -0.513513737,
      0.535182228,
      0.406119169,
      -0.197994122,
      -0.128732056,
      -0.413008251,
      -0.813902831,
      -1.709954397,
      -1.041996246,
      -0.767207691,
      -0.719455304,
      -0.300965986,
      0.342030732,
      -0.141447769,
      -0.348400192,
      -0.963696008,
      -1.227138816,
      -1.135928212,
      -0.425665668,
      0.236437864,
      0.936898304,
      0.683460408,
      1.471446271,
      1.011391242,
      1.412757408,
      0.127069379,
      -0.368308936,
      -0.35243857,
      0.754755949,
      0.632137723,
      -1.3052969,
      -0.129102924,
      2.875624988,
      0.369104463,
      -0.73270848,
      -0.571174299,
      0.650544784,
      -0.051324807,
      -3.095189849,
      -3.941027995,
      2.559196483,
      1.52418899,
      0.152143287,
      -0.011443936,
      -0.264953795,
      0.771925977,
      -1.986439406,
      -3.34943667,
      -0.142769131,
      1.820757496,
      1.460901246,
      0.076825321,
      -0.98715256,
      -1.654232143,
      -1.477582197,
      -0.277282369,
      -2.541843738,
      -0.807992347,
      -0.502209725,
      -0.195520553,
      0.537672667,
      -0.017531296,
      -1.909534218,
      -1.884797375,
      -2.53905014,
      -2.422720043,
      -2.45820255,
      -0.695245022,
      1.131307877,
      2.978107512,
      1.694354952,
      0.766067355,
      1.414609942,
      -0.951277087,
      -1.126017243,
      -0.070701187,
      0.23915947,
      0.155489212,
      0.090989925,
      0.141633258,
      -0.391879995,
      -0.964655214,
      -0.493542221,
      -0.061591651,
      0.336539157,
      0.041909189,
      0.09787251,
      0.165421862,
      0.652110351,
      0.606542486,
      0.769676181,
      -0.146368235,
      0.427760687,
      -0.909945785,
      0.145410649,
      0.493416999,
      0.781810533,
      1.913174771,
      1.404074886,
      -0.396077581,
      0.362767236,
      -1.013687002,
      -0.218098478,
      -1.193926629,
      -0.088973901,
      2.177978166,
      0.692750991,
      -0.349426338,
      0.334629543,
      0.24363431,
      1.48565788,
      -1.398787057,
      -1.336884767,
      0.845870029,
      1.243054721,
      -0.243382714,
      0.301446155,
      0.208246148,
      0.390827132,
      -0.389348804,
      0.317300168,
      -0.107739924,
      -0.055885605,
      -0.809638678,
      0.233924462,
      0.338629457,
      -0.404491116,
      -0.408969827,
      1.26129526,
      -0.925359326,
      -2.125302248,
      -1.224116987,
      0.260687435,
      0.959214762,
      1.118125259,
      1.360406331,
      2.28221564,
      0.23011687,
      -1.002860112,
      -0.355935639,
      -0.039971229,
      -0.377905182,
      -0.717807668,
      -0.934898044,
      -0.75523677,
      -0.680498728,
      -0.456850161,
      -0.182940876,
      -0.125290842,
      -1.230744311,
      -1.050333278,
      -1.978095727,
      -1.840533885,
      -0.100974065,
      0.668182994,
      -0.205318344,
      0.439331587,
      -0.558891789,
      -0.630017992,
      -0.508414693,
      -0.170786934,
      0.078745432,
      -0.044375408,
      -0.388603777,
      0.079602097,
      -0.343585602,
      -1.613051411,
      -2.391097859,
      1.012268028,
      1.261379464,
      0.680663662,
      0.261637418,
      -0.01719608,
      0.773438076,
      0.018275052,
      -0.730971292,
      1.111183455,
      1.681767511,
      0.681031595,
      -0.147761214,
      -0.733595461,
      -0.512878956,
      -0.089605176,
      1.180153282,
      -0.802857422,
      -0.336750333,
      0.166752669,
      0.231848187,
      -0.384971126,
      -0.289272036,
      0.221135739,
      1.009552635,
      -1.326748708,
      -0.95178597,
      -0.801725778,
      -0.414496726,
      0.53326925,
      1.634961242,
      1.879116122,
      0.89288028,
      0.02439797,
      -0.63087767,
      -0.950252895,
      -0.433778449
     ],
     [
      0.20498216,
      0.417093725,
      0.902668576,
      1.463130097,
      1.012204535,
      0.250146621,
      0.846215759,
      0.429624816,
      0.28882891,
      -0.012137826,
      -0.409345333,
      -0.43510714,
      0.21767301,
      0.353905457,
      1.035071627,
      1.063796852,
      0.062131685,
      -0.811220658,
      0.127099256,
      1.234496187,
      0.949915106,
      -0.19088468,
      1.400513952,
      1.079699503,
      -0.003502723,
      -0.328760846,
      2.772924656,
      2.239203716,
      1.45902856,
      0.039143412,
      -0.108619408,
      -0.300400812,
      0.474401535,
      1.242716489,
      0.778962547,
      0.097447657,
      1.804321265,
      1.591413167,
      1.041113382,
      0.432243302,
      0.141131771,
      -1.555721533,
      -2.198121565,
      -1.078794752,
      1.853026207,
      2.419841787,
      0.859918462,
      0.599840222,
      -0.222010627,
      -2.328254134,
      0.137741516,
      0.077814832,
      0.508575457,
      -0.39000556,
      -0.829733973,
      0.002356065,
      0.401340874,
      0.271376125,
      -0.093774745,
      -0.365331906,
      -1.043989208,
      -0.891397996,
      -0.00993754,
      0.136941259,
      0.191326161,
      0.251945224,
      -0.020701961,
      0.054180233,
      0.252419439,
      0.56465808,
      0.491794523,
      0.207053314,
      0.261823126,
      -0.028529993,
      -0.191405351,
      0.834959066,
      0.865383412,
      0.301043244,
      0.009181907,
      0.198624928,
      0.147180652,
      -0.617871287,
      -1.06844124,
      -0.788552355,
      -0.423681903,
      0.495933882,
      0.304359064,
      0.029736941,
      0.184887149,
      -0.176684589,
      -0.602056526,
      -0.603192458,
      -1.680493942,
      -0.598863326,
      0.32558152,
      0.561590931,
      0.252142699,
      0.535368322,
      -1.398195343,
      -1.247698505,
      -0.498503833,
      0.990233216,
      1.691582876,
      0.77943037,
      0.262939344,
      -0.958144254,
      -1.752650093,
      -0.608623612,
      -0.206240418,
      0.33737616,
      -0.105827478,
      -0.277164289,
      0.34932252,
      -0.88075575,
      -0.305819056,
      -0.872778067,
      -0.858677615,
      -0.061765543,
      -0.32561789,
      0.271452879,
      0.258135073,
      0.407776457,
      0.570295988,
      0.672595759,
      0.559506094,
      0.653507506,
      0.440578236,
      0.46891027,
      -0.586346642,
      -0.734656967,
      -0.204069845,
      0.445474797,
      0.663557894,
      -1.291550008,
      -1.559066651,
      -0.362437971,
      -0.332365626,
      0.110334255,
      -0.359232778,
      -0.165185924,
      1.06344053,
      0.490336293,
      -0.570528204,
      0.486925284,
      0.283989021,
      2.214366085,
      0.645072949,
      1.406773921,
      -0.013582433,
      2.21025197,
      0.812766985,
      0.862009492,
      -1.030646285,
      0.224959685,
      0.198612279,
      1.328162093,
      1.824433054,
      0.89672728,
      0.36520131,
      0.871280222,
      -1.502405623,
      0.29826683,
      1.955156747,
      1.883659362,
      0.714629963,
      -0.017158065,
      0.158473572,
      -0.48840794,
      -0.049307635,
      1.326707523,
      1.023818951,
      -1.395399186,
      -1.739334751,
      -1.47162288,
      -0.589235017,
      -0.983807009,
      -1.158784329,
      -0.376930715,
      -0.196849768,
      2.18899452,
      -0.263455651,
      -0.774294844,
      -0.17761226,
      -0.349152845,
      -1.541700137,
      -2.06288768,
      -1.758731262,
      0.806249042,
      1.971848508,
      1.052691332,
      0.415003677,
      -0.097908097,
      -0.228594969,
      -0.478827818,
      -0.91617886,
      -0.937102981,
      -0.942017188,
      -0.146569582,
      -0.292904256,
      -0.585956149,
      -0.267563137,
      -0.440592873,
      -0.921625373,
      -0.701464274,
      -0.477788573,
      -1.01365401,
      -0.857611083,
      0.080694066,
      -0.304747094,
      0.498871877,
      0.605434311,
      0.60458596,
      -0.57209718,
      -1.289632349,
      0.052697083,
      0.940387973,
      -0.302567,
      0.325343962,
      0.106644734,
      0.782637047,
      -0.29666923,
      -1.118204428,
      -0.601219882,
      0.63477701,
      -0.362669177,
      -0.675456576,
      -1.580008695,
      0.095656879,
      0.585152129,
      -0.712253033,
      -0.456427787,
      -0.401746952,
      -0.546678562,
      0.177384804,
      0.390817232,
      1.674512719,
      -0.404877949,
      0.250478333,
      0.133477999,
      -0.175256684,
      -0.679658727,
      0.292405711,
      0.167198651,
      -0.096203653,
      -0.034022487,
      0.205205073,
      0.639439709,
      0.127618004,
      -0.479857388,
      -0.720774424,
      -0.825610786,
      -0.938728996,
      0.244853342,
      -0.327399944,
      0.001981655,
      -0.246342649,
      -0.088579819,
      -0.384519336,
      0.154192676,
      0.76374665,
      0.488553954,
      -1.019349031,
      -0.608771081,
      -0.128550142,
      -0.202304757,
      1.071144954,
      2.027318439,
      2.194988296,
      0.328017807,
      -0.599853604,
      -1.033603908,
      -0.078935662,
      0.480945764,
      1.58084412,
      -0.573812061,
      -0.760766496,
      -0.393411149,
      1.040705351,
      1.409146508,
      0.700495432,
      0.087374558,
      -0.90859611,
      -2.36031089,
      -1.900400357,
      0.416718498,
      3.21622353,
      2.41371105,
      0.619674054,
      -0.929196849,
      -0.001194161,
      1.138721352,
      0.70761196,
      0.515247801,
      0.33566649,
      -0.010690672,
      0.184129436,
      0.216839302,
      2.913966883,
      3.259217918,
      0.358177941,
      -0.355387917,
      -0.867328341,
      -0.776723394,
      -0.882232766,
      0.053361719,
      -1.12297803,
      -1.28829491,
      0.882430891,
      0.431779367,
      0.742082633,
      -0.408494094,
      -0.653733509,
      -1.017625958,
      -2.233616565,
      -1.175059569,
      0.581940045,
      0.961095366,
      0.740222958,
      -0.374196309,
      -0.126615203
     ],
     [
      0.509001952,
      0.292164839,
      0.826715813,
      0.726773809,
      0.616867498,
      1.220829831,
      0.842083389,
      0.015670303,
      0.229762058,
      -0.344532354,
      -0.314960683,
      1.445246029,
      3.371920209,
      3.288602725,
      0.912176907,
      0.134920963,
      0.05387793,
      -0.756738342,
      -0.215683108,
      1.667854025,
      0.953956115,
      0.470465136,
      0.60399686,
      0.563016981,
      -0.035436401,
      0.142799313,
      1.683896842,
      1.999134577,
      -0.794583719,
      0.357652854,
      -0.247154861,
      -0.235463997,
      0.284906008,
      0.253277292,
      3.072737612,
      2.02288959,
      -3.25686379,
      -2.127870192,
      -1.540656236,
      -0.581287355,
      0.717674547,
      0.621840883,
      0.700959276,
      -0.526172441,
      -3.168804523,
      -1.858361152,
      -0.313512025,
      0.425217096,
      0.734796138,
      1.507642422,
      2.111507626,
      0.814293374,
      0.024603894,
      0.187558655,
      0.789099035,
      1.228069807,
      0.710611437,
      0.609655601,
      -0.258705718,
      -0.780607116,
      -0.226304612,
      1.313358883,
      1.475844903,
      1.214182516,
      0.231800238,
      0.187618586,
      0.121349283,
      -0.106629822,
      -0.128277688,
      0.087176843,
      -0.025473638,
      0.124727634,
      0.318530188,
      0.400834028,
      -0.108852375,
      -0.826414909,
      -0.187793117,
      -0.625212348,
      -0.856903398,
      0.060922091,
      0.474074516,
      0.225748715,
      -0.016566309,
      0.030189223,
      -0.246157495,
      1.463776693,
      0.19539571,
      -0.056663003,
      0.139128217,
      -1.414410022,
      -0.963127471,
      -1.510214365,
      -1.173383668,
      -0.253154784,
      -0.772834944,
      -0.045264517,
      0.03560976,
      -0.876652292,
      -0.679785842,
      -0.38567989,
      0.536964001,
      -0.156763652,
      -0.302201988,
      0.251656901,
      0.409026405,
      0.315568712,
      0.254522367,
      2.032473497,
      1.89862951,
      0.159777631,
      -0.675039831,
      -0.272335945,
      0.285864221,
      0.309893571,
      0.682705717,
      0.516670195,
      0.597976779,
      -0.327388057,
      -0.717798784,
      -0.131545892,
      0.20967843,
      0.012038453,
      -0.678616048,
      -0.232795091,
      -0.045312177,
      -1.262486936,
      -0.912729891,
      -0.000344668,
      0.053454154,
      -0.60621055,
      -0.714020119,
      -1.972060426,
      -0.924160792,
      0.197202086,
      -0.504870044,
      -0.044495045,
      -0.767308948,
      -0.950976648,
      1.519689508,
      1.80232786,
      0.883788128,
      -1.010128484,
      -0.767916948,
      -1.307833844,
      1.235252372,
      1.758173276,
      1.715857269,
      1.146300484,
      2.50110072,
      2.0789158,
      1.19574925,
      -1.124788695,
      2.200618473,
      0.341753497,
      -1.786160649,
      -0.294135016,
      2.617294598,
      1.567694639,
      0.519848949,
      -0.944583513,
      0.398947119,
      -1.298596301,
      -0.316730484,
      0.537385839,
      2.69161678,
      0.881429061,
      -0.431893556,
      -1.188654213,
      -0.951862302,
      -2.094431553,
      -1.905711366,
      0.635120791,
      0.311513174,
      -0.480696413,
      -0.569610776,
      -0.8802813,
      -0.296770678,
      -1.158494455,
      -1.77021366,
      -1.274944784,
      -1.962620056,
      -1.05465812,
      0.799420181,
      0.272589413,
      0.749933169,
      1.230927715,
      1.386336845,
      0.114778883,
      0.045295216,
      1.274052508,
      2.07965435,
      0.910723411,
      -0.002899646,
      -0.230867761,
      -0.430555833,
      -0.7829959,
      -1.496722908,
      -1.031920793,
      -0.624268469,
      -0.40402988,
      -0.187346043,
      -0.960010457,
      -1.643534915,
      -1.231363343,
      -1.013160952,
      -0.206707916,
      -0.003647551,
      -1.050834497,
      -0.244264062,
      0.367008847,
      0.57472394,
      -0.545960922,
      -0.353923678,
      -0.406750081,
      1.106179479,
      -0.502921669,
      0.159215937,
      1.85757818,
      1.245963914,
      -1.103889269,
      -0.59129994,
      0.033473716,
      1.247897266,
      -0.61652647,
      0.150859056,
      0.70393744,
      0.371952721,
      -1.431477331,
      0.861949009,
      1.592229899,
      0.74872467,
      -1.321395414,
      -0.010777078,
      -0.514989615,
      -0.545533376,
      -1.691113734,
      -0.055384811,
      0.121278816,
      -0.254082051,
      -1.096291056,
      0.006934025,
      -0.458110656,
      -0.772226554,
      -0.150904431,
      -0.068914066,
      -1.086297497,
      0.089730024,
      0.065938664,
      0.026001441,
      0.272673701,
      0.200603651,
      0.706047721,
      0.229944986,
      0.159579245,
      1.478840258,
      0.805761087,
      0.450899447,
      0.092345031,
      0.052679574,
      -0.434209276,
      -0.848398528,
      0.524637007,
      0.751471026,
      0.298280509,
      -0.29620889,
      0.299747362,
      0.245603086,
      2.6071715,
      1.726622106,
      -0.929048406,
      -1.507867469,
      -0.326376411,
      0.457208432,
      1.576573873,
      3.209104948,
      1.959358748,
      0.624936384,
      -1.034684973,
      -0.729638451,
      -0.758644062,
      1.057084157,
      0.968777626,
      -0.178496611,
      0.934948975,
      0.431610641,
      -0.002310263,
      -0.516092302,
      -0.401156596,
      0.213673619,
      -0.60107343,
      -2.054218123,
      -0.652752787,
      0.484949078,
      -0.457688985,
      -0.572590262,
      0.311999745,
      -0.532585384,
      -0.609966516,
      -2.043337296,
      0.340283644,
      0.8781634,
      -0.3860776,
      -0.174531494,
      0.141533408,
      -0.130679997,
      -0.553842682,
      -1.125814129,
      0.596956633,
      -0.487166054,
      -0.353962552,
      0.371970021,
      0.296597263,
      0.70331462,
      1.164260798,
      1.153752285,
      0.359608769,
      -0.641227907,
      -0.381861423,
      0.760134127,
      0.399518011
     ]
    ],
    "b": [
     -1.862493698,
     2.466349329,
     0.673598049,
     -0.501082708,
     0.553543921,
     1.485589988,
     -1.113875031,
     1.226548595,
     -2.160252857,
     -0.841000951
    ]
   }
  },
  {
   "epoch": 3,
   "batch": 281,
   "loss": 0.723112662178863,
   "accuracy": 94.32624113475177,
   "input": [
    [
     0.0,
     0.0,
     0.0,
     0.0,
     0.0,
     0.0,
     0.0,
     0.0,
     0.0,
     0.0,
     0.0,
     0.0,
     0.0,
     0.0,
     0.0,
     0.0,
     0.0,
     0.0,
     0.0,
     0.0,
     0.0,
     0.0,
     0.0,
     0.0,
     0.0,
     0.0,
     0.0,
     0.0
    ],
    [
     0.0,
     0.0,
     0.0,
     0.0,
     0.0,
     0.0,
     0.0,
     0.0,
     0.0,
     0.0,
     0.0,
     0.0,
     0.0,
     0.0,
     0.0,
     0.0,
     0.0,
     0.0,
     0.0,
     0.0,
     0.0,
     0.0,
     0.0,
     0.0,
     0.0,
     0.0,
     0.0,
     0.0
    ],
    [
     0.0,
     0.0,
     0.0,
     0.0,
     0.0,
     0.0,
     0.0,
     0.0,
     0.0,
     0.0,
     0.0,
     0.0,
     0.0,
     0.0,
     0.0,
     0.0,
     0.0,
     0.0,
     0.0,
     0.0,
     0.0,
     0.0,
     0.0,
     0.0,
     0.0,
     0.0,
     0.0,
     0.0
    ],
    [
     0.0,
     0.0,
     0.0,
     0.0,
     0.0,
     0.0,
     0.0,
     0.0,
     0.0,
     0.0,
     0.0,
     0.0,
     0.0,
     0.0,
     0.0,
     0.0,
     0.0,
     0.0,
     0.0,
     0.0,
     0.0,
     0.0,
     0.0,
     0.0,
     0.0,
     0.0,
     0.0,
     0.0
    ],
    [
     0.0,
     0.0,
     0.0,
     0.0,
     0.0,
     0.0,
     0.0,
     0.0,
     0.0,
     0.0,
     0.0,
     0.0,
     0.0,
     0.0,
     0.0,
     0.0,
     0.0,
     0.0,
     0.298039216,
     0.847058824,
     0.403921569,
     0.0,
     0.0,
     0.0,
     0.0,
     0.0,
     0.0,
     0.0
    ],
    [
     0.0,
     0.0,
     0.0,
     0.0,
     0.0,
     0.0,
     0.0,
     0.0,
     0.0,
     0.0,
     0.0,
     0.0,
     0.0,
     0.0,
     0.0,
     0.0,
     0.0,
     0.0,
     0.823529412,
     0.937254902,
     0.160784314,
     0.0,
     0.0,
     0.0,
     0.0,
     0.0,
     0.0,
     0.0
    ],
    [
     0.0,
     0.0,
     0.0,
     0.0,
     0.0,
     0.0,
     0.0,
     0.0,
     0.0,
     0.0,
     0.0,
     0.0,
     0.0,
     0.0,
     0.0,
     0.0,
     0.0,
     0.156862745,
     0.968627451,
     0.776470588,
     0.0,
     0.0,
     0.0,
     0.0,
     0.0,
     0.0,
     0.0,
     0.0
    ],
    [
     0.0,
     0.0,
     0.0,
     0.0,
     0.0,
     0.0,
     0.0,
     0.0,
     0.0,
     0.0,
     0.0,
     0.0,
     0.0,
     0.0,
     0.0,
     0.0,
     0.0,
     0.807843137,
     0.992156863,
     0.549019608,
     0.0,
     0.0,
     0.0,
     0.0,
     0.0,
     0.0,
     0.0,
     0.0
    ],
    [
     0.0,
     0.0,
     0.0,
     0.0,
     0.0,
     0.0,
     0.0,
     0.0,
     0.0,
     0.0,
     0.0,
     0.0,
     0.0,
     0.066666667,
     0.596078431,
     0.411764706,
     0.517647059,
     0.933333333,
     0.937254902,
     0.121568627,
     0.0,
     0.0,
     0.0,
     0.0,
     0.0,
     0.0,
     0.0,
     0.0
    ],
    [
     0.0,
     0.0,
     0.0,
     0.0,
     0.0,
     0.0,
     0.0,
     0.0,
     0.0,
     0.0,
     0.0,
     0.0,
     0.0,
     0.2,
     0.796078431,
     0.847058824,
     0.992156863,
     0.992156863,
     0.564705882,
     0.0,
     0.0,
     0.0,
     0.0,
     0.0,
     0.0,
     0.0,
     0.0,
     0.0
    ],
    [
     0.0,
     0.0,
     0.0,
     0.0,
     0.0,
     0.0,
     0.0,
     0.0,
     0.0,
     0.0,
     0.0,
     0.0,
     0.0,
     0.0,
     0.058823529,
     0.77254902,
     0.992156863,
     0.596078431,
     0.058823529,
     0.0,
     0.0,
     0.0,
     0.0,
     0.0,
     0.0,
     0.0,
     0.0,
     0.0
    ],
    [
     0.0,
     0.0,
     0.0,
     0.0,
     0.0,
     0.0,
     0.0,
     0.0,
     0.0,
     0.0,
     0.0,
     0.0,
     0.0,
     0.0,
     0.509803922,
     0.996078431,
     0.949019608,
     0.141176471,
     0.0,
     0.0,
     0.0,
     0.0,
     0.0,
     0.0,
     0.0,
     0.0,
     0.0,
     0.0
    ],
    [
     0.0,
     0.0,
     0.0,
     0.0,
     0.0,
     0.0,
     0.0,
     0.0,
     0.0,
     0.0,
     0.0,
     0.0,
     0.0,
     0.360784314,
     0.960784314,
     0.956862745,
     0.321568627,
     0.0,
     0.0,
     0.0,
     0.0,
     0.0,
     0.0,
     0.0,
     0.0,
     0.0,
     0.0,
     0.0
    ],
    [
     0.0,
     0.0,
     0.0,
     0.0,
     0.0,
     0.0,
     0.0,
     0.0,
     0.0,
     0.0,
     0.0,
     0.0,
     0.0,
     0.737254902,
     0.992156863,
     0.678431373,
     0.0,
     0.0,
     0.0,
     0.0,
     0.0,
     0.0,
     0.0,
     0.0,
     0.0,
     0.0,
     0.0,
     0.0
    ],
    [
     0.0,
     0.0,
     0.0,
     0.0,
     0.0,
     0.0,
     0.0,
     0.0,
     0.0,
     0.0,
     0.0,
     0.0,
     0.176470588,
     1.0,
     0.752941176,
     0.0,
     0.0,
     0.0,
     0.0,
     0.0,
     0.0,
     0.0,
     0.0,
     0.0,
     0.0,
     0.0,
     0.0,
     0.0
    ],
    [
     0.0,
     0.0,
     0.0,
     0.0,
     0.0,
     0.0,
     0.0,
     0.0,
     0.0,
     0.0,
     0.0,
     0.011764706,
     0.576470588,
     0.992156863,
     0.447058824,
     0.0,
     0.0,
     0.0,
     0.0,
     0.0,
     0.0,
     0.0,
     0.0,
     0.0,
     0.0,
     0.0,
     0.0,
     0.0
    ],
    [
     0.0,
     0.0,
     0.0,
     0.0,
     0.0,
     0.0,
     0.0,
     0.0,
     0.0,
     0.0,
     0.0,
     0.57254902,
     0.992156863,
     0.741176471,
     0.023529412,
     0.0,
     0.0,
     0.0,
     0.0,
     0.0,
     0.0,
     0.0,
     0.0,
     0.0,
     0.0,
     0.0,
     0.0,
     0.0
    ],
    [
     0.0,
     0.0,
     0.0,
     0.0,
     0.0,
     0.0,
     0.0,
     0.0,
     0.0,
     0.0,
     0.031372549,
     0.917647059,
     0.992156863,
     0.466666667,
     0.0,
     0.0,
     0.0,
     0.0,
     0.0,
     0.0,
     0.0,
     0.0,
     0.0,
     0.0,
     0.0,
     0.0,
     0.0,
     0.0
    ],
    [
     0.0,
     0.0,
     0.0,
     0.0,
     0.0,
     0.0,
     0.0,
     0.0,
     0.0,
     0.0,
     0.443137255,
     0.992156863,
     0.956862745,
     0.203921569,
     0.0,
     0.0,
     0.0,
     0.0,
     0.0,
     0.0,
     0.0,
     0.0,
     0.0,
     0.0,
     0.0,
     0.0,
     0.0,
     0.0
    ],
    [
     0.0,
     0.0,
     0.0,
     0.0,
     0.0,
     0.0,
     0.0,
     0.0,
     0.0,
     0.0,
     0.780392157,
     0.992156863,
     0.666666667,
     0.0,
     0.0,
     0.0,
     0.0,
     0.0,
     0.0,
     0.0,
     0.0,
     0.0,
     0.0,
     0.0,
     0.0,
     0.0,
     0.0,
     0.0
    ],
    [
     0.0,
     0.0,
     0.0,
     0.0,
     0.0,
     0.0,
     0.0,
     0.0,
     0.0,
     0.192156863,
     0.968627451,
     0.952941176,
     0.035294118,
     0.0,
     0.0,
     0.0,
     0.0,
     0.0,
     0.0,
     0.0,
     0.0,
     0.0,
     0.0,
     0.0,
     0.0,
     0.0,
     0.0,
     0.0
    ],
    [
     0.0,
     0.0,
     0.0,
     0.0,
     0.0,
     0.0,
     0.0,
     0.0,
     0.0,
     0.4,
     0.909803922,
     0.949019608,
     0.0,
     0.0,
     0.0,
     0.0,
     0.0,
     0.0,
     0.0,
     0.0,
     0.0,
     0.0,
     0.0,
     0.0,
     0.0,
     0.0,
     0.0,
     0.0
    ],
    [
     0.0,
     0.0,
     0.0,
     0.0,
     0.0,
     0.0,
     0.0,
     0.0,
     0.0,
     0.517647059,
     0.992156863,
     0.984313725,
     0.474509804,
     0.078431373,
     0.0,
     0.0,
     0.0,
     0.0,
     0.0,
     0.0,
     0.0,
     0.0,
     0.0,
     0.0,
     0.0,
     0.0,
     0.0,
     0.0
    ],
    [
     0.0,
     0.0,
     0.0,
     0.0,
     0.0,
     0.0,
     0.0,
     0.0,
     0.0,
     0.125490196,
     0.749019608,
     0.576470588,
     0.650980392,
     0.035294118,
     0.0,
     0.0,
     0.0,
     0.0,
     0.0,
     0.0,
     0.0,
     0.0,
     0.0,
     0.0,
     0.0,
     0.0,
     0.0,
     0.0
    ],
    [
     0.0,
     0.0,
     0.0,
     0.0,
     0.0,
     0.0,
     0.0,
     0.0,
     0.0,
     0.0,
     0.0,
     0.0,
     0.0,
     0.0,
     0.0,
     0.0,
     0.0,
     0.0,
     0.0,
     0.0,
     0.0,
     0.0,
     0.0,
     0.0,
     0.0,
     0.0,
     0.0,
     0.0
    ],
    [
     0.0,
     0.0,
     0.0,
     0.0,
     0.0,
     0.0,
     0.0,
     0.0,
     0.0,
     0.0,
     0.0,
     0.0,
     0.0,
     0.0,
     0.0,
     0.0,
     0.0,
     0.0,
     0.0,
     0.0,
     0.0,
     0.0,
     0.0,
     0.0,
     0.0,
     0.0,
     0.0,
     0.0
    ],
    [
     0.0,
     0.0,
     0.0,
     0.0,
     0.0,
     0.0,
     0.0,
     0.0,
     0.0,
     0.0,
     0.0,
     0.0,
     0.0,
     0.0,
     0.0,
     0.0,
     0.0,
     0.0,
     0.0,
     0.0,
     0.0,
     0.0,
     0.0,
     0.0,
     0.0,
     0.0,
     0.0,
     0.0
    ],
    [
     0.0,
     0.0,
     0.0,
     0.0,
     0.0,
     0.0,
     0.0,
     0.0,
     0.0,
     0.0,
     0.0,
     0.0,
     0.0,
     0.0,
     0.0,
     0.0,
     0.0,
     0.0,
     0.0,
     0.0,
     0.0,
     0.0,
     0.0,
     0.0,
     0.0,
     0.0,
     0.0,
     0.0
    ]
   ],
   "output": 1,
   "conv_layer": {
    "w": [
     [
      [
       [
        -1.40719774,
        -0.373348291,
        1.483368412,
        2.13505457,
        3.523036171
       ],
       [
        -0.213189318,
        -1.109534438,
        -1.673758723,
        -1.815755741,
        -0.070735226
       ],
       [
        0.065384929,
        -1.801098597,
        -3.590058936,
        -3.216180649,
        -2.019932523
       ],
       [
        1.015523026,
        2.129091247,
        1.380987921,
        0.348964923,
        -1.194822002
       ],
       [
        -1.119415371,
        1.135235385,
        1.946891265,
        1.759363902,
        -0.237002002
       ]
      ]
     ],
     [
      [
       [
        1.521134761,
        2.470773424,
        1.424926548,
        0.713570556,
        -0.907296058
       ],
       [
        -1.258243132,
        -1.510237399,
        -2.283157316,
        -1.587161403,
        -2.047644447
       ],
       [
        -1.588575592,
        -2.652452894,
        -1.944100503,
        -0.101114398,
        -0.622556239
       ],
       [
        -1.052268145,
        -0.297201297,
        0.33696656,
        0.781492905,
        -0.781295663
       ],
       [
        -0.927942651,
        2.458372895,
        1.395960046,
        0.099165804,
        -0.719201076
       ]
      ]
     ],
     [
      [
       [
        0.649902347,
        0.044348341,
        -0.479172049,
        0.217957691,
        0.147989639
       ],
       [
        0.283151295,
        -0.67805108,
        -0.456453913,
        0.656581117,
        1.281575399
       ],
       [
        -0.13131867,
        0.142611975,
        1.482481062,
        1.062173614,
        -0.562287147
       ],
       [
        0.620315609,
        -0.147319167,
        1.448611938,
        0.881822281,
        -0.232768379
       ],
       [
        1.022760198,
        -1.604924659,
        -2.088394641,
        -0.405347763,
        2.692032321
       ]
      ]
     ],
     [
      [
       [
        0.122931084,
        -0.274899767,
        -0.790553831,
        0.123351564,
        0.677323434
       ],
       [
        -0.570638004,
        -0.087390581,
        1.746969891,
        -0.098957854,
        -1.595216751
       ],
       [
        -1.772314586,
        0.239685782,
        2.751490658,
        0.112080561,
        -3.478527347
       ],
       [
        -1.301419144,
        1.320076187,
        2.47754379,
        -0.492389209,
        -2.172951337
       ],
       [
        0.067127763,
        0.491399297,
        1.258760453,
        -1.012538818,
        0.235216134
       ]
      ]
     ],
     [
      [
       [
        1.406322082,
        1.316301416,
        0.154727571,
        -0.670627822,
        -0.806468564
       ],
       [
        1.592338966,
        -1.749340194,
        -2.707203284,
        -1.651284821,
        0.104556087
       ],
       [
        -0.24828306,
        -1.849061076,
        -2.108673559,
        1.059593957,
        2.059920846
       ],
       [
        -1.389056687,
        -0.190386159,
        0.900149342,
        2.709374234,
        0.600886009
       ],
       [
        0.926067221,
        0.910204304,
        0.56750737,
        -0.42725978,
        -1.460224994
       ]
      ]
     ]
    ],
    "b": [
     -1.668342021,
     0.036227743,
     -1.925949416,
     0.048054585,
     -2.492352009
    ]
   },
   "dense_layer": {
    "w": [
     [
      -0.024670655,
      -0.294416871,
      -0.428722135,
      -0.663026499,
      -0.075868948,
      0.17229057,
      0.152513953,
      0.415172795,
      0.032304278,
      0.010015179,
      -0.781786297,
      -0.423276327,
      0.605651963,
      1.050230344,
      0.481741212,
      0.176265034,
      0.249268537,
      -0.053597815,
      -0.874499626,
      -0.943762874,
      -0.996648131,
      -0.703199014,
      -0.140149837,
      0.820633015,
      0.138675276,
      -0.69644467,
      -1.44520317,
      -0.634850288,
      -1.56547068,
      -2.3426254,
      -1.027355383,
      0.727626687,
      -0.341915932,
      -1.963537268,
      -1.845416921,
      0.270281538,
      -0.301896468,
      -0.635058299,
      -1.258417624,
      -0.24377371,
      -0.430860785,
      -0.956450144,
      -0.000400984,
      1.821563201,
      -1.011488098,
      -0.806739357,
      -1.10582729,
      -0.63920133,
      -0.224687029,
      -1.056542192,
      0.228293114,
      0.769118466,
      0.103140906,
      -0.084355009,
      -0.69824229,
      -0.372675858,
      0.147058311,
      -0.164358365,
      0.239192251,
      0.231792305,
      0.001578903,
      -0.014829256,
      -0.32606533,
      -0.157664482,
      0.078233389,
      0.046185345,
      0.065770664,
      0.240101906,
      0.606151781,
      0.561815786,
      0.229032728,
      0.100318963,
      0.058823638,
      -0.00535089,
      -0.600348351,
      -0.656834293,
      -0.937327175,
      -1.14456703,
      -0.711893992,
      -0.207630977,
      0.146939177,
      -0.191640228,
      -0.123512758,
      0.217895663,
      -0.9000581,
      -0.7893703,
      -0.023649213,
      -0.028604718,
      0.239982002,
      -0.616453622,
      -0.355116861,
      -0.385239216,
      1.101779576,
      -0.262656413,
      -0.360850581,
      -0.395290236,
      0.015782617,
      -1.126290435,
      -1.020933124,
      -0.012537644,
      0.715371383,
      -0.949112913,
      -0.537579473,
      -0.363606473,
      0.003531888,
      -1.615959412,
      -0.695078952,
      -0.772230872,
      -1.088472709,
      0.367053745,
      -0.333335553,
      0.238871233,
      0.096349476,
      -1.142178622,
      -0.572609055,
      -0.319095919,
      0.04125623,
      0.432741549,
      0.577945614,
      0.410452485,
      0.086079442,
      0.226772038,
      0.717674079,
      0.937993086,
      1.198173406,
      0.85853723,
      0.325626579,
      0.22017189,
      0.196275611,
      -0.651198707,
      -1.082539454,
      -0.476019319,
      -0.009162081,
      -1.242871531,
      -0.645065741,
      0.255876393,
      -0.266493398,
      -1.713779454,
      -1.351497397,
      1.796291668,
      3.233866891,
      1.712463225,
      -0.451084294,
      0.232111383,
      0.330813873,
      -1.079777402,
      2.159630891,
      1.181228761,
      0.515816743,
      0.738566444,
      1.647581514,
      0.940450504,
      1.558581982,
      1.641908903,
      1.965254214,
      -3.282543131,
      -5.349486876,
      -0.150622599,
      1.342740907,
      1.607907039,
      1.665405292,
      1.920875237,
      0.196721166,
      -6.793634766,
      -4.188114697,
      0.943210461,
      0.888449868,
      1.453332898,
      0.127294641,
      0.786428808,
      1.365206715,
      -2.334768367,
      -0.761850597,
      0.82950286,
      -0.232176525,
      0.840067317,
      -0.801540262,
      -0.368332379,
      1.91637722,
      1.07796578,
      0.368827813,
      -0.621801476,
      -0.589538796,
      0.365453682,
      -0.082504698,
      -0.453622891,
      0.306464156,
      1.146955101,
      0.007653019,
      -1.07702843,
      -0.688215608,
      0.182881004,
      0.199583934,
      0.030125525,
      -0.045432184,
      -0.445227086,
      -0.492587411,
      -0.397723705,
      -0.662301812,
      0.068427309,
      0.180527499,
      -0.403571885,
      -1.016738294,
      -0.753889003,
      0.258019515,
      0.558391767,
      -0.580329648,
      0.403728547,
      0.238451433,
      -0.42052368,
      -0.598519617,
      1.737490672,
      1.066143239,
      1.850609101,
      1.063391088,
      1.376626772,
      0.142097059,
      0.117852126,
      1.714593877,
      3.299192588,
      -0.273950987,
      -0.188447441,
      0.693380504,
      2.453119347,
      -0.107701222,
      0.414330089,
      2.708955724,
      3.204941097,
      -3.879585796,
      -1.325339712,
      -0.331626567,
      2.072230735,
      -0.526530322,
      -0.206159904,
      2.219455914,
      1.239685327,
      -2.040132309,
      -0.363193015,
      -0.311608296,
      0.63004275,
      -0.33964503,
      -0.57404701,
      0.226489045,
      0.603974581,
      -0.532563902,
      -0.44343437,
      -0.863238627,
      -0.186005348,
      0.131515313,
      -0.38697766,
      -0.638578639,
      0.064421515,
      -0.263359536,
      -0.981434103,
      -1.09086217,
      -0.125262889,
      0.413800498,
      0.139769033,
      -0.229661113,
      -0.126754665,
      -0.526593222,
      -0.604085376,
      0.340559361,
      0.495157092,
      0.040993795,
      -0.356438726,
      -0.458166134,
      -0.149789077,
      0.308479869,
      -0.519677743,
      -1.07607569,
      0.101665876,
      0.205805763,
      -0.020772872,
      0.218159334,
      0.300689844,
      0.48839312,
      -1.048892474,
      -0.908768568,
      0.166736826,
      1.040861703,
      0.823610765,
      0.847975414,
      -0.324596442,
      -1.826417929,
      -0.965132583,
      -0.141693325,
      0.058885583,
      1.402081243,
      0.669237189,
      0.042751425,
      -2.537744229,
      -0.380876085,
      0.081691689,
      0.843511193,
      0.068116999,
      0.680881438,
      -0.856442566,
      -0.288087915,
      0.005259972,
      0.884459071,
      0.780663807,
      0.782593105,
      0.460893776,
      0.201680419,
      -1.243932133,
      0.79387587,
      0.171342879,
      0.451062051,
      0.48757444,
      0.499562546,
      0.69685119,
      0.178759725,
      -0.923832234,
      -0.560732378,
      0.280860483,
      -0.191723669,
      0.1848948,
      0.413822406,
      0.404305693
     ],
     [
      -0.263787457,
      -0.476441778,
      -1.246987478,
      -2.111517559,
      -1.676202942,
      -0.497637802,
      -0.235402749,
      -0.148440722,
      -0.375848504,
      -0.192091415,
      -0.857921508,
      -2.51786738,
      -2.465199946,
      -2.125569085,
      -1.365431381,
      -1.096270153,
      -0.276159252,
      0.172947912,
      0.319905059,
      -0.121604665,
      -0.605546118,
      -2.021729038,
      -2.174186819,
      -0.995637547,
      -0.292527769,
      -0.038741773,
      -0.371246414,
      -3.394508841,
      -2.100820861,
      -2.479195274,
      -1.848097688,
      -0.907629332,
      -0.607178322,
      -0.479720199,
      -0.97128727,
      -3.790698885,
      -1.204553679,
      -2.014800648,
      -1.195976802,
      -0.614054751,
      0.028444111,
      0.247968011,
      -0.078325212,
      -2.321098126,
      1.827512777,
      0.516914006,
      1.207958759,
      -0.025649423,
      0.02292576,
      0.581108548,
      -0.78646235,
      -0.749075994,
      1.014925237,
      0.269875391,
      0.420170334,
      -0.340309101,
      -0.615929348,
      -1.268690104,
      -0.395140131,
      0.363555891,
      -0.328620217,
      -0.435684989,
      -0.302476043,
      -0.363486432,
      -0.150363543,
      -0.129199622,
      -0.12381744,
      0.223790516,
      0.751237436,
      0.551532227,
      -0.022902219,
      -0.279430687,
      -0.144997408,
      -0.233002708,
      -0.27368886,
      -0.464384605,
      0.501043087,
      0.047112738,
      -0.100091881,
      -0.251720878,
      -0.113288428,
      -0.037556037,
      -0.116375096,
      -0.850420861,
      -0.312308035,
      -1.061411428,
      0.15196299,
      -0.659413701,
      -0.165804431,
      0.07447407,
      0.688973008,
      0.164626521,
      -0.309041393,
      -0.086468975,
      -0.630414246,
      -0.614948445,
      -0.194481942,
      0.093858286,
      1.221225839,
      -0.405117332,
      0.70995484,
      0.326562401,
      -0.432043521,
      -0.31625241,
      -0.110949752,
      0.419353393,
      0.719528826,
      -0.017490077,
      1.10125348,
      -0.850547684,
      -0.773566433,
      -0.365636976,
      -0.153346854,
      0.00804187,
      -0.323724505,
      -0.089353569,
      -0.637113309,
      -1.216374129,
      -0.144641112,
      -0.065413939,
      -0.129630782,
      -0.253149906,
      -0.15716172,
      0.815039518,
      0.315941121,
      -0.100996036,
      -0.03018428,
      -0.16770619,
      0.474093701,
      -0.088737927,
      1.216702171,
      1.723972301,
      -0.826860871,
      0.766444856,
      2.589009462,
      0.536776791,
      0.195601003,
      -0.950743717,
      -1.025086206,
      -2.140864503,
      -1.369912786,
      -2.589793215,
      0.573527661,
      -0.02692605,
      -0.040069561,
      -1.173720967,
      -1.875242526,
      2.851855998,
      0.498539317,
      -3.228019369,
      -0.108651813,
      -0.155818921,
      -0.367739296,
      -2.340636624,
      -3.285637969,
      3.363037877,
      0.761082164,
      -1.478302452,
      -0.860194273,
      -0.243340817,
      -1.187521354,
      -2.283109317,
      -2.153667813,
      2.103874733,
      -1.38642393,
      -1.433603456,
      -1.142104535,
      0.112658971,
      0.012812985,
      1.757938199,
      -0.569436185,
      0.083289856,
      -2.164711974,
      1.450586007,
      0.025917712,
      0.227914175,
      2.157252918,
      3.811573034,
      -1.785246007,
      -4.658074357,
      0.757032664,
      3.231264949,
      0.769551819,
      0.427929505,
      1.082180627,
      1.61145753,
      -1.67313545,
      -3.359791507,
      -1.171772826,
      0.87546516,
      0.48863075,
      0.412287218,
      0.318144815,
      0.346155388,
      0.500735783,
      1.463263368,
      1.455280016,
      0.277625414,
      0.829613089,
      0.601915214,
      0.346700313,
      0.460235865,
      0.527551857,
      0.543215233,
      0.033312404,
      -0.265177521,
      0.137210017,
      0.37861119,
      0.314886594,
      0.495778366,
      0.086028137,
      -2.417434187,
      1.453603868,
      -1.266100352,
      -0.398137788,
      -0.051714988,
      0.351911528,
      0.410932646,
      -0.107166275,
      -2.779485896,
      3.44296564,
      0.155642368,
      -0.483848301,
      -0.449553102,
      0.330035007,
      -0.091002511,
      -0.498281192,
      -1.299684332,
      2.45540231,
      -0.674526384,
      -1.208902943,
      -0.250491548,
      0.337993545,
      0.18090598,
      0.067811568,
      -0.325681372,
      0.79028875,
      -0.971827585,
      -0.138999523,
      0.11809467,
      0.481338635,
      1.705546944,
      1.01059241,
      -0.141485427,
      -0.768199691,
      0.830214734,
      1.210764209,
      0.340113639,
      0.417892008,
      1.876172562,
      1.530712381,
      -1.104305063,
      -1.6538293,
      1.25351659,
      0.85437399,
      0.293083706,
      -0.125150749,
      -0.263576339,
      0.011596311,
      0.700538413,
      -0.61072507,
      0.703968127,
      1.108365785,
      -0.187887124,
      -0.1598794,
      -0.822851982,
      -0.945698738,
      -2.461412214,
      -0.964248581,
      1.109743712,
      1.034816193,
      -0.723406365,
      -0.333808207,
      -0.506951268,
      -0.893670551,
      -0.944269678,
      -0.470967854,
      -0.371312966,
      -0.392625366,
      -1.054398316,
      -0.299714484,
