{
 "begin_epoch": 2,
 "begin_batch": 360,
 "end_epoch": 2,
 "end_batch": 379,
 "weights": [
  {
   "epoch": 2,
   "batch": 360,
   "loss": 0.6295039473492001,
   "accuracy": 91.90212373037858,
   "input": [
    [
     0.0,
     0.0,
     0.0,
     0.0,
     0.0,
     0.0,
     0.0,
     0.0,
     0.0,
     0.0,
     0.0,
     0.0,
     0.0,
     0.0,
     0.0,
     0.0,
     0.0,
     0.0,
     0.0,
     0.0,
     0.0,
     0.0,
     0.0,
     0.0,
     0.0,
     0.0,
     0.0,
     0.0
    ],
    [
     0.0,
     0.0,
     0.0,
     0.0,
     0.0,
     0.0,
     0.0,
     0.0,
     0.0,
     0.0,
     0.0,
     0.0,
     0.0,
     0.0,
     0.0,
     0.0,
     0.0,
     0.0,
     0.0,
     0.0,
     0.0,
     0.0,
     0.0,
     0.0,
     0.0,
     0.0,
     0.0,
     0.0
    ],
    [
     0.0,
     0.0,
     0.0,
     0.0,
     0.0,
     0.0,
     0.0,
     0.0,
     0.0,
     0.0,
     0.0,
     0.0,
     0.0,
     0.0,
     0.0,
     0.0,
     0.0,
     0.0,
     0.0,
     0.0,
     0.0,
     0.0,
     0.0,
     0.0,
     0.0,
     0.0,
     0.0,
     0.0
    ],
    [
     0.0,
     0.0,
     0.0,
     0.0,
     0.0,
     0.0,
     0.0,
     0.0,
     0.0,
     0.0,
     0.0,
     0.0,
     0.0,
     0.0,
     0.0,
     0.0,
     0.0,
     0.0,
     0.0,
     0.0,
     0.0,
     0.0,
     0.0,
     0.0,
     0.0,
     0.0,
     0.0,
     0.0
    ],
    [
     0.0,
     0.0,
     0.0,
     0.0,
     0.0,
     0.0,
     0.0,
     0.0,
     0.0,
     0.0,
     0.0,
     0.0,
     0.0,
     0.0,
     0.0,
     0.0,
     0.0,
     0.0,
     0.0,
     0.0,
     0.0,
     0.0,
     0.0,
     0.0,
     0.0,
     0.0,
     0.0,
     0.0
    ],
    [
     0.0,
     0.0,
     0.0,
     0.0,
     0.0,
     0.0,
     0.0,
     0.0,
     0.0,
     0.0,
     0.0,
     0.0,
     0.0,
     0.0,
     0.0,
     0.0,
     0.0,
     0.0,
     0.0,
     0.0,
     0.0,
     0.0,
     0.0,
     0.0,
     0.0,
     0.0,
     0.0,
     0.0
    ],
    [
     0.0,
     0.0,
     0.0,
     0.0,
     0.0,
     0.074509804,
     0.094117647,
     0.08627451,
     0.019607843,
     0.094117647,
     0.094117647,
     0.501960784,
     1.0,
     0.992156863,
     0.992156863,
     0.82745098,
     0.090196078,
     0.0,
     0.0,
     0.0,
     0.0,
     0.0,
     0.0,
     0.0,
     0.0,
     0.0,
     0.0,
     0.0
    ],
    [
     0.0,
     0.0,
     0.0,
     0.0,
     0.176470588,
     0.925490196,
     0.988235294,
     0.960784314,
     0.698039216,
     0.988235294,
     0.988235294,
     0.988235294,
     0.992156863,
     0.988235294,
     0.988235294,
     0.988235294,
     0.537254902,
     0.0,
     0.0,
     0.0,
     0.0,
     0.0,
     0.0,
     0.0,
     0.0,
     0.0,
     0.0,
     0.0
    ],
    [
     0.0,
     0.0,
     0.0,
     0.0,
     0.2,
     0.941176471,
     0.988235294,
     0.992156863,
     0.988235294,
     0.988235294,
     0.988235294,
     0.988235294,
     0.992156863,
     0.988235294,
     0.988235294,
     0.988235294,
     0.537254902,
     0.0,
     0.0,
     0.0,
     0.0,
     0.0,
     0.0,
     0.0,
     0.0,
     0.0,
     0.0,
     0.0
    ],
    [
     0.0,
     0.0,
     0.0,
     0.0,
     0.0,
     0.145098039,
     0.384313725,
     0.631372549,
     0.62745098,
     0.62745098,
     0.62745098,
     0.423529412,
     0.180392157,
     0.325490196,
     0.988235294,
     0.988235294,
     0.909803922,
     0.0,
     0.0,
     0.0,
     0.0,
     0.0,
     0.0,
     0.0,
     0.0,
     0.0,
     0.0,
     0.0
    ],
    [
     0.0,
     0.0,
     0.0,
     0.0,
     0.0,
     0.0,
     0.0,
     0.0,
     0.0,
     0.0,
     0.0,
     0.0,
     0.0,
     0.184313725,
     0.988235294,
     0.988235294,
     0.988235294,
     0.0,
     0.0,
     0.0,
     0.0,
     0.0,
     0.0,
     0.0,
     0.0,
     0.0,
     0.0,
     0.0
    ],
    [
     0.0,
     0.0,
     0.0,
     0.0,
     0.0,
     0.0,
     0.0,
     0.0,
     0.0,
     0.0,
     0.0,
     0.0,
     0.0,
     0.168627451,
     0.968627451,
     0.992156863,
     0.992156863,
     0.0,
     0.0,
     0.0,
     0.0,
     0.0,
     0.0,
     0.0,
     0.0,
     0.0,
     0.0,
     0.0
    ],
    [
     0.0,
     0.0,
     0.0,
     0.0,
     0.0,
     0.0,
     0.0,
     0.0,
     0.0,
     0.0,
     0.0,
     0.0,
     0.0,
     0.0,
     0.721568627,
     0.988235294,
     0.988235294,
     0.0,
     0.0,
     0.0,
     0.0,
     0.0,
     0.0,
     0.0,
     0.0,
     0.0,
     0.0,
     0.0
    ],
    [
     0.0,
     0.0,
     0.0,
     0.0,
     0.0,
     0.0,
     0.0,
     0.0,
     0.0,
     0.0,
     0.0,
     0.0,
     0.0,
     0.0,
     0.596078431,
     0.988235294,
     0.988235294,
     0.454901961,
     0.0,
     0.0,
     0.0,
     0.0,
     0.0,
     0.0,
     0.0,
     0.0,
     0.0,
     0.0
    ],
    [
     0.0,
     0.0,
     0.0,
     0.0,
     0.0,
     0.0,
     0.0,
     0.0,
     0.0,
     0.0,
     0.0,
     0.0,
     0.0,
     0.0,
     0.274509804,
     0.988235294,
     0.988235294,
     0.937254902,
     0.133333333,
     0.0,
     0.0,
     0.0,
     0.0,
     0.0,
     0.0,
     0.0,
     0.0,
     0.0
    ],
    [
     0.0,
     0.0,
     0.0,
     0.0,
     0.0,
     0.0,
     0.0,
     0.0,
     0.0,
     0.0,
     0.0,
     0.207843137,
     0.0,
     0.0,
     0.274509804,
     0.988235294,
     0.988235294,
     0.992156863,
     0.360784314,
     0.0,
     0.0,
     0.0,
     0.0,
     0.0,
     0.0,
     0.0,
     0.0,
     0.0
    ],
    [
     0.0,
     0.0,
     0.0,
     0.0,
     0.0,
     0.0,
     0.0,
     0.0,
     0.08627451,
     0.721568627,
     0.705882353,
     0.992156863,
     1.0,
     0.992156863,
     0.992156863,
     0.992156863,
     0.992156863,
     1.0,
     0.564705882,
     0.0,
     0.0,
     0.0,
     0.0,
     0.0,
     0.0,
     0.0,
     0.0,
     0.0
    ],
    [
     0.0,
     0.0,
     0.0,
     0.0,
     0.0,
     0.0,
     0.0,
     0.0,
     0.0,
     0.588235294,
     0.439215686,
     0.560784314,
     0.811764706,
     0.925490196,
     0.941176471,
     0.956862745,
     0.988235294,
     0.992156863,
     0.360784314,
     0.0,
     0.0,
     0.0,
     0.0,
     0.0,
     0.0,
     0.0,
     0.0,
     0.0
    ],
    [
     0.0,
     0.0,
     0.0,
     0.0,
     0.0,
     0.0,
     0.0,
     0.0,
     0.0,
     0.0,
     0.0,
     0.0,
     0.0,
     0.17254902,
     0.196078431,
     0.811764706,
     0.988235294,
     0.992156863,
     0.360784314,
     0.0,
     0.0,
     0.0,
     0.0,
     0.0,
     0.0,
     0.0,
     0.0,
     0.0
    ],
    [
     0.0,
     0.0,
     0.0,
     0.0,
     0.0,
     0.0,
     0.0,
     0.0,
     0.0,
     0.0,
     0.0,
     0.0,
     0.0,
     0.0,
     0.0,
     0.811764706,
     0.988235294,
     0.992156863,
     0.360784314,
     0.0,
     0.0,
     0.0,
     0.0,
     0.0,
     0.0,
     0.0,
     0.0,
     0.0
    ],
    [
     0.0,
     0.0,
     0.0,
     0.0,
     0.0,
     0.0,
     0.0,
     0.0,
     0.0,
     0.0,
     0.0,
     0.0,
     0.0,
     0.0,
     0.250980392,
     0.97254902,
     0.988235294,
     0.952941176,
     0.196078431,
     0.0,
     0.0,
     0.0,
     0.0,
     0.0,
     0.0,
     0.0,
     0.0,
     0.0
    ],
    [
     0.0,
     0.0,
     0.0,
     0.0,
     0.0,
     0.0,
     0.0,
     0.0,
     0.0,
     0.0,
     0.0,
     0.0,
     0.0,
     0.0,
     0.274509804,
     0.992156863,
     0.992156863,
     0.905882353,
     0.0,
     0.0,
     0.0,
     0.0,
     0.0,
     0.0,
     0.0,
     0.0,
     0.0,
     0.0
    ],
    [
     0.0,
     0.0,
     0.0,
     0.0,
     0.0,
     0.0,
     0.0,
     0.0,
     0.0,
     0.0,
     0.0,
     0.0,
     0.0,
     0.0,
     0.274509804,
     0.988235294,
     0.988235294,
     0.901960784,
     0.0,
     0.0,
     0.0,
     0.0,
     0.0,
     0.0,
     0.0,
     0.0,
     0.0,
     0.0
    ],
    [
     0.0,
     0.0,
     0.0,
     0.0,
     0.0,
     0.0,
     0.0,
     0.0,
     0.0,
     0.0,
     0.0,
     0.0,
     0.0,
     0.0,
     0.274509804,
     0.988235294,
     0.988235294,
     0.57254902,
     0.0,
     0.0,
     0.0,
     0.0,
     0.0,
     0.0,
     0.0,
     0.0,
     0.0,
     0.0
    ],
    [
     0.0,
     0.0,
     0.0,
     0.0,
     0.0,
     0.0,
     0.0,
     0.0,
     0.0,
     0.0,
     0.0,
     0.0,
     0.0,
     0.0,
     0.274509804,
     0.988235294,
     0.988235294,
     0.454901961,
     0.0,
     0.0,
     0.0,
     0.0,
     0.0,
     0.0,
     0.0,
     0.0,
     0.0,
     0.0
    ],
    [
     0.0,
     0.0,
     0.0,
     0.0,
     0.0,
     0.0,
     0.0,
     0.0,
     0.0,
     0.0,
     0.0,
     0.0,
     0.0,
     0.0,
     0.149019608,
     0.741176471,
     0.741176471,
     0.247058824,
     0.0,
     0.0,
     0.0,
     0.0,
     0.0,
     0.0,
     0.0,
     0.0,
     0.0,
     0.0
    ],
    [
     0.0,
     0.0,
     0.0,
     0.0,
     0.0,
     0.0,
     0.0,
     0.0,
     0.0,
     0.0,
     0.0,
     0.0,
     0.0,
     0.0,
     0.0,
     0.0,
     0.0,
     0.0,
     0.0,
     0.0,
     0.0,
     0.0,
     0.0,
     0.0,
     0.0,
     0.0,
     0.0,
     0.0
    ],
    [
     0.0,
     0.0,
     0.0,
     0.0,
     0.0,
     0.0,
     0.0,
     0.0,
     0.0,
     0.0,
     0.0,
     0.0,
     0.0,
     0.0,
     0.0,
     0.0,
     0.0,
     0.0,
     0.0,
     0.0,
     0.0,
     0.0,
     0.0,
     0.0,
     0.0,
     0.0,
     0.0,
     0.0
    ]
   ],
   "output": 7,
   "conv_layer": {
    "w": [
     [
      [
       [
        -0.682690822,
        -0.13120764,
        0.539992896,
        0.848059159,
        2.065982229
       ],
       [
        0.006575526,
        -0.750562686,
        -1.395221367,
        -1.49763858,
        -0.384695458
       ],
       [
        0.260181784,
        -1.182382838,
        -2.693112512,
        -2.459189212,
        -1.815089947
       ],
       [
        1.46255645,
        1.526422574,
        0.826618826,
        0.082985435,
        -0.875006245
       ],
       [
        -0.153148015,
        0.931940612,
        1.262882809,
        1.483591089,
        0.546827623
       ]
      ]
     ],
     [
      [
       [
        1.501860923,
        2.148500992,
        1.056127354,
        0.487715761,
        -0.179779767
       ],
       [
        -1.018580215,
        -1.050738724,
        -1.749515783,
        -1.378005123,
        -1.28874733
       ],
       [
        -1.914897333,
        -2.342757032,
        -1.502187603,
        -0.4211779,
        -0.563186805
       ],
       [
        -1.591059813,
        -0.88366451,
        0.070655454,
        0.402496798,
        -0.528260764
       ],
       [
        -1.018502508,
        1.338869495,
        1.058110496,
        0.159938258,
        -0.386784663
       ]
      ]
     ],
     [
      [
       [
        0.500491245,
        -0.420741672,
        -1.013524105,
        -0.281656749,
        0.186119804
       ],
       [
        0.426397008,
        -0.330966049,
        0.138088559,
        0.713267334,
        1.087217385
       ],
       [
        -0.33797711,
        0.06966253,
        1.484941131,
        0.809298725,
        -0.617962482
       ],
       [
        -0.363341171,
        -0.39957821,
        1.272775023,
        0.762947744,
        -0.25258696
       ],
       [
        0.572882326,
        -0.861168003,
        -0.788614833,
        -0.196151811,
        1.319211467
       ]
      ]
     ],
     [
      [
       [
        0.542475459,
        0.00040504,
        -0.462572588,
        0.139820079,
        0.086082092
       ],
       [
        -0.146214309,
        0.280930616,
        1.419261452,
        -0.195514935,
        -1.225327163
       ],
       [
        -1.21997372,
        0.036435317,
        1.452473878,
        -0.503804004,
        -2.342539226
       ],
       [
        -1.190244257,
        0.457867005,
        1.025652535,
        -0.844152008,
        -1.763272372
       ],
       [
        -0.217345953,
        0.400553908,
        1.053867352,
        -0.313953852,
        0.182748609
       ]
      ]
     ],
     [
      [
       [
        1.865142952,
        1.560961058,
        0.025141203,
        -0.879517681,
        -0.383350532
       ],
       [
        0.665643882,
        -1.25291947,
        -2.152726551,
        -1.450846362,
        0.263882816
       ],
       [
        -0.721224262,
        -1.23280755,
        -1.50738712,
        0.759653036,
        1.199990747
       ],
       [
        -1.456731752,
        -0.3722019,
        0.962455542,
        1.734609916,
        -0.071286717
       ],
       [
        0.182517557,
        0.394604151,
        0.883091444,
        0.16109321,
        -1.387978738
       ]
      ]
     ]
    ],
    "b": [
     -1.645899161,
     0.519725692,
     -1.29363084,
     0.09581437,
     -2.304527706
    ]
   },
   "dense_layer": {
    "w": [
     [
      -0.026121943,
      -0.179951909,
      -0.394732609,
      -0.629129534,
      -0.160640724,
      -0.014804353,
      -0.132180642,
      0.177508496,
      0.048006961,
      0.060398404,
      -0.503814147,
      -0.327160801,
      0.446480453,
      0.924891686,
      0.476658529,
      0.137437953,
      0.217639825,
      0.026459192,
      -0.681962497,
      -0.832939917,
      -1.006836087,
      -0.749497087,
      -0.018203102,
      0.759780956,
      0.145735214,
      -0.493301868,
      -1.082828767,
      -0.603630873,
      -1.333939061,
      -1.896030765,
      -0.739781679,
      0.625424469,
      -0.210377468,
      -1.37410378,
      -1.058763876,
      0.376014508,
      -0.257896084,
      -0.664893111,
      -0.980516255,
      -0.096603956,
      -0.264562202,
      -0.773896285,
      0.551078972,
      1.788401556,
      -0.56004852,
      -0.802282183,
      -0.838367795,
      -0.472817228,
      -0.136533905,
      -0.759414962,
      0.138820238,
      0.623537307,
      -0.099220164,
      -0.163973233,
      -0.469432672,
      -0.264361604,
      0.027848805,
      -0.136600904,
      0.095648487,
      0.149725067,
      0.04993823,
      0.047999539,
      -0.246522441,
      -0.122010114,
      0.054464113,
      0.055396628,
      0.042330734,
      0.197030922,
      0.464980286,
      0.406951845,
      0.137949999,
      0.079681652,
      0.044352909,
      0.002716305,
      -0.357873188,
      -0.298074383,
      -0.53740428,
      -0.522356364,
      -0.293289933,
      -0.096742955,
      0.103221648,
      -0.133971749,
      -0.125336036,
      -0.083244402,
      -0.705152178,
      -0.5379306,
      0.062721886,
      -0.084564972,
      0.173716722,
      -0.481083709,
      -0.380493139,
      -0.182592645,
      0.911374636,
      0.041518575,
      -0.233598177,
      -0.172078957,
      0.011868466,
      -0.849383816,
      -0.585015535,
      0.338977138,
      0.736596538,
      -0.580685412,
      -0.637276274,
      -0.115689233,
      0.038845716,
      -1.152263651,
      -0.181278957,
      -0.009538382,
      -0.415730931,
      -0.143835731,
      -0.300020554,
      0.263829757,
      0.084363279,
      -0.707990117,
      -0.27649068,
      -0.303569328,
      -0.250178461,
      0.217676814,
      0.526742535,
      0.298123226,
      0.065610784,
      0.083469903,
      0.386389425,
      0.576828591,
      0.78680391,
      0.672230196,
      0.214751676,
      0.137254918,
      0.122733158,
      -0.552683011,
      -0.895604268,
      -0.255168411,
      0.097509994,
      -0.998477405,
      -0.59243436,
      0.140603687,
      -0.234138732,
      -1.374143179,
      -0.991377727,
      1.439110984,
      2.440192849,
      1.335746501,
      -0.450024761,
      0.105195717,
      0.225367921,
      -0.787440461,
      1.79653066,
      1.088464492,
      0.427596395,
      0.773118394,
      1.39467857,
      0.663585786,
      1.16619241,
      1.348289491,
      1.562774253,
      -2.575471091,
      -4.346254841,
      0.013956405,
      1.192796452,
      1.16841525,
      1.180685656,
      1.565857483,
      0.136308014,
      -5.361822037,
      -3.344234995,
      0.919760998,
      0.754852396,
      1.026811681,
      -0.031904703,
      0.721961328,
      1.163074945,
      -1.809336969,
      -0.528347492,
      0.749607266,
      -0.199800674,
      0.59575526,
      -0.710251862,
      -0.254547279,
      1.775639123,
      1.026919429,
      0.416448716,
      -0.402855801,
      -0.467102969,
      0.235118734,
      -0.09999133,
      -0.361799927,
      0.323545013,
      0.997986647,
      0.084810351,
      -0.763617828,
      -0.525668723,
      0.103930185,
      0.156073027,
      0.072891298,
      -0.011522984,
      -0.28332376,
      -0.267019474,
      -0.26677779,
      -0.502473801,
      0.033925579,
      0.142370494,
      -0.268212227,
      -0.820820264,
      -0.522159654,
      0.324384822,
      0.443432579,
      -0.415956116,
      0.30942807,
      0.194354149,
      -0.319785115,
      -0.585997035,
      1.359829593,
      0.945744504,
      1.175212507,
      0.934308662,
      1.143146257,
      0.107936548,
      0.040571625,
      1.368315911,
      2.384520546,
      -0.273833426,
      -0.631526957,
      0.724077189,
      1.856621345,
      -0.104050081,
      0.279351206,
      2.211959342,
      2.2178648,
      -3.204428782,
      -1.38870339,
      -0.003300274,
      1.449264489,
      -0.397597311,
      -0.223536759,
      1.898752009,
      0.846241636,
      -1.730921729,
      -0.405664809,
      -0.14359905,
      0.407794177,
      -0.243114041,
      -0.560048498,
      0.319904587,
      0.564138951,
      -0.301534956,
      -0.237783391,
      -0.568961042,
      -0.12965279,
      0.118702841,
      -0.285187476,
      -0.40107932,
      0.253834449,
      0.005026333,
      -0.562044354,
      -0.741450899,
      -0.062091041,
      0.260074731,
      0.07663486,
      -0.227055603,
      -0.130447441,
      -0.391513718,
      -0.543204279,
      0.138246888,
      0.280969021,
      -0.021348743,
      -0.36099813,
      -0.417509956,
      -0.036750593,
      0.345835188,
      -0.334807013,
      -0.747043688,
      0.056998303,
      0.085188322,
      -0.061220943,
      0.383315203,
      0.286242269,
      0.500257532,
      -0.661394047,
      -0.579711343,
      0.044049921,
      0.687825116,
      0.618239513,
      0.703467492,
      -0.283401559,
      -1.55743455,
      -0.584345712,
      -0.007260345,
      0.068028045,
      0.897136756,
      0.431368146,
      0.010346863,
      -2.094811048,
      -0.433926582,
      0.312303483,
      0.47544476,
      0.157185001,
      0.363704726,
      -0.640269118,
      -0.169315438,
      -0.212712575,
      0.800268233,
      0.522270254,
      0.473056271,
      0.444395012,
      0.013451046,
      -0.864750005,
      0.706593542,
      0.131340081,
      0.146546525,
      0.16146004,
      0.446076565,
      0.492592035,
      0.06631785,
      -0.665374403,
      -0.39727009,
      0.290650005,
      -0.066619702,
      0.230261055,
      0.317741305,
      0.208538897
     ],
     [
      -0.155700038,
      -0.315077903,
      -0.851321373,
      -1.524561491,
      -1.355901341,
      -0.41497505,
      0.109833953,
      0.130585771,
      -0.261140853,
      -0.141180319,
      -0.650773822,
      -1.798170861,
      -1.796131392,
      -1.802791824,
      -1.017127425,
      -0.619014998,
      -0.176033687,
      0.104721155,
      0.181495387,
      -0.084414173,
      -0.306413335,
      -1.43692931,
      -1.599843429,
      -0.688252208,
      -0.184965808,
      -0.049479063,
      -0.296484671,
      -2.505427889,
      -1.418444438,
      -1.673538383,
      -1.34077398,
      -0.645337109,
      -0.389077365,
      -0.225958699,
      -0.630495658,
      -2.789832301,
      -0.716560476,
      -1.462979693,
      -0.967310791,
      -0.476856833,
      0.055800802,
      0.266673528,
      -0.05062933,
      -1.95399371,
      1.281563367,
      0.189650925,
      0.59931891,
      -0.091841348,
      0.078717832,
      0.393202706,
      -0.708252119,
      -0.881254234,
      0.528071933,
      0.103181782,
      0.230422612,
      -0.266271387,
      -0.328082644,
      -0.762112212,
      -0.23740734,
      0.29708033,
      -0.373062821,
      -0.369673523,
      -0.216894772,
      -0.250810002,
      -0.138535254,
      -0.130573728,
      -0.155316585,
      0.059367213,
      0.44763285,
      0.371315929,
      -0.01755745,
      -0.215474326,
      -0.134267673,
      -0.214018473,
      -0.229499948,
      -0.268973468,
      0.713073511,
      -0.177614968,
      -0.387006881,
      -0.226870421,
      -0.099872103,
      -0.043081231,
      -0.141266529,
      -0.521750421,
      -0.11569036,
      -1.055902129,
      0.015725369,
      -0.391436304,
      -0.161271915,
      0.009351343,
      0.341691242,
      -0.109053136,
      -0.355300057,
      -0.084532439,
      -0.377293667,
      -0.391269153,
      -0.183008505,
      0.028822661,
      0.600820297,
      -0.623288985,
      0.606089647,
      0.168531224,
      -0.334091426,
      -0.2785467,
      -0.120978518,
      0.148458488,
      0.12352382,
      -0.226507709,
      0.877392216,
      -0.518604069,
      -0.599320707,
      -0.317481304,
      -0.162836513,
      -0.251793942,
      -0.631884571,
      -0.113306468,
      -0.183711111,
      -0.860718552,
      -0.256367183,
      -0.134434335,
      -0.112563562,
      -0.174498334,
      -0.052851889,
      0.605345409,
      0.195376101,
      -0.16711775,
      -0.148735996,
      -0.199953993,
      0.326290434,
      -0.072926378,
      0.842070823,
      1.239766799,
      -0.748115217,
      0.57508226,
      1.979942061,
      0.404916591,
      0.096317706,
      -0.795452891,
      -1.02685205,
      -1.798673981,
      -1.140705061,
      -2.021296603,
      0.506745379,
      0.042105068,
      -0.069997729,
      -1.02599908,
      -1.784436318,
      2.138434736,
      0.449107205,
      -2.550190449,
      -0.135983874,
      -0.142126634,
      -0.323024761,
      -1.853711933,
      -2.790333698,
      2.577740195,
      0.580485952,
      -1.26621642,
      -0.766135398,
      -0.221254122,
      -0.885696293,
      -1.762616159,
      -1.651966116,
      1.60087649,
      -1.179547921,
      -1.267772768,
      -0.982987285,
      0.041242756,
      0.030701425,
      1.364486407,
      -0.483726563,
      0.033681082,
      -1.781926889,
      0.76176795,
      -0.159365662,
      0.084956642,
      1.637434562,
      2.879847676,
      -1.581294818,
      -3.69933894,
      0.537693585,
      2.23008094,
      0.424064385,
      0.259932726,
      0.820705587,
      1.203189142,
      -1.481800486,
      -2.805375912,
      -0.856628195,
      0.675517536,
      0.310261206,
      0.27803331,
      0.197200075,
      0.210504126,
      0.301047725,
      1.032012164,
      0.841569839,
      0.145102943,
      0.675221108,
      0.466198497,
      0.220497688,
      0.277919464,
      0.375795808,
      0.293380708,
      -0.172449785,
      -0.424754356,
      0.204274847,
      0.356351359,
      0.17848575,
      0.321747632,
      0.055514002,
      -1.958225213,
      1.08251735,
      -1.150520624,
      -0.303052321,
      -0.035738807,
      0.208141749,
      0.268314666,
      -0.187624001,
      -2.369517896,
      2.491542674,
      0.013120627,
      -0.46588855,
      -0.386401918,
      0.20888309,
      -0.073749571,
      -0.499904766,
      -1.137996849,
      1.869459496,
      -0.555866009,
      -1.02622662,
      -0.265053953,
      0.203660157,
      0.146247423,
      0.02337408,
      -0.396825022,
      0.739465735,
      -0.807080121,
      -0.267909944,
      0.000649918,
      0.306971627,
      1.192375437,
      0.682005765,
      -0.358957336,
      -0.44532467,
      0.577791513,
      0.758111971,
      0.163398716,
      0.268068155,
      1.333313562,
      1.027410236,
      -1.087129514,
      -1.314378212,
      0.903740104,
      0.53760544,
      0.162506844,
      -0.051948419,
      -0.126763818,
      0.10882344,
      0.548708509,
      -0.54073104,
      0.521199488,
      0.910310608,
      -0.049953386,
      -0.075436474,
      -0.562960659,
      -0.664033445,
      -1.870324758,
      -0.653272384,
      0.8207841,
      0.816084322,
      -0.411720117,
      -0.218134564,
      -0.410131887,
      -0.835464513,
      -0.689951647,
      -0.320475675,
      -0.267116272,
      -0.19077273,
      -0.577674241,
      -0.196340711,
      -0.321818362,
      -1.459299846,
      0.651858315,
      -0.456338749,
      -0.437242599,
      -0.664060847,
      -0.548151258,
      -0.375033796,
      -0.846408875,
      -1.049961592,
      0.503478496,
      -1.267375259,
      -0.422542408,
      -0.629355156,
      -0.193742662,
      -0.365932335,
      0.769212314,
      0.041473831,
      -0.445087575,
      -1.446558939,
      0.660355228,
      -0.140711435,
      -0.138760947,
      0.72151205,
      2.017673978,
      -0.013834273,
      -2.721901928,
      -0.132260601,
      0.323756397,
      -0.369092146,
      -0.182745079,
      0.424939651,
      0.948563202,
      -0.775442414,
      -1.734293764,
      0.258845116,
      0.04850811,
      -0.284045628,
      -0.128694736
     ],
     [
      -0.019832261,
      0.243073733,
      0.489119259,
      0.625096022,
      1.349280884,
      1.020285973,
      0.345535381,
      -0.605873467,
      0.057641693,
      0.139370745,
      -0.066244636,
      0.423864331,
      0.371609412,
      0.075261283,
      -0.201124264,
      -0.671338388,
      -0.171803943,
      0.372206866,
      0.37673114,
      0.883416385,
      0.78010306,
      0.620007861,
      0.22028772,
      -0.380180978,
      0.526197013,
      2.122872736,
      1.4420987,
      1.385823063,
      -0.462433286,
      -1.894742894,
      -0.900308261,
      0.05127041,
      0.553642713,
      0.959969536,
      -0.179866114,
      -0.216037879,
      0.569319642,
      0.159288587,
      0.441540085,
      1.304588497,
      -0.76342679,
      -0.458680111,
      -0.296171017,
      0.838085247,
      1.341980407,
      1.924391741,
      2.11193608,
      1.37177728,
      -0.539698646,
      -0.876701747,
      -0.876469564,
      -0.347794828,
      -0.159252231,
      1.132713177,
      1.904253518,
      0.611292414,
      -0.035205979,
      0.329529353,
      0.372329827,
      0.286218125,
      0.289412744,
      0.302364015,
      0.151631465,
      -0.13789831,
      0.03059053,
      0.061443147,
      -0.104110271,
      -0.326498424,
      -0.548405092,
      -0.438998212,
      -0.097174939,
      0.06302196,
      0.06140584,
      0.29156369,
      0.516873084,
      -0.073433204,
      -0.497565918,
      -0.15596896,
      0.010098643,
      -0.08649249,
      0.060583534,
      0.977271127,
      0.268227732,
      -0.143422705,
      0.510945024,
      0.171409406,
      -0.39145149,
      -0.267903955,
      0.199958348,
      1.936021608,
      2.074487219,
      1.485501316,
      1.09396835,
      0.465149317,
      -0.19333946,
      -0.149780566,
      -0.032930937,
      0.434834142,
      0.251947026,
      -0.599137879,
      -0.305062421,
      -0.459423848,
      0.147243519,
      0.280473181,
      -0.264605264,
      -0.83484429,
      -1.249954687,
      -1.639012104,
      -1.112341736,
      -0.44311554,
      0.636380696,
      0.712986384,
      -0.090900595,
      -0.005434346,
      -0.402228218,
      -0.27915595,
      0.6033596,
      0.840236039,
      1.144142228,
      0.706192135,
      0.099646943,
      0.366688026,
      0.658526262,
      0.998098793,
      0.110039348,
      0.0374299,
      0.386072167,
      0.124208438,
      -0.44836128,
      1.073853768,
      0.30927243,
      -0.474016279,
      -0.603583945,
      -0.162599406,
      -0.875644108,
      -1.049619675,
      0.352548743,
      1.469223083,
      1.226773446,
      1.126271206,
      0.852887979,
      0.363144582,
      0.150517335,
      -1.06358159,
      -1.342140176,
      -1.811954813,
      -2.129264814,
      -1.638802876,
      -1.562669259,
      -0.726747863,
      -0.780940473,
      -1.028104127,
      -2.294257871,
      -2.492149346,
      -1.021270671,
      -0.511499224,
      -1.339374795,
      -0.982709556,
      -0.696239868,
      -0.119228084,
      0.242855391,
      0.085587716,
      1.413681466,
      2.871989123,
      1.370068398,
      -0.495155352,
      0.168357501,
      1.627966073,
      2.641979367,
      2.124955051,
      2.052914724,
      1.305092923,
      1.007453421,
      -0.028154795,
      0.870576061,
      1.792603006,
      1.130874531,
      1.574671218,
      0.464323045,
      -0.989635155,
      -0.543651473,
      0.978090822,
      0.699937061,
      1.123313207,
      -0.61715929,
      -0.838502616,
      -0.929837127,
      -1.137575289,
      -1.231986199,
      -0.876618324,
      -0.566419197,
      -0.06425912,
      -0.315850148,
      -0.352411359,
      -0.495845841,
      -0.859345056,
      -0.334975918,
      0.234967763,
      -0.004859294,
      -0.59792887,
      -0.246006807,
      -0.086222145,
      0.127164199,
      0.347951274,
      0.462813475,
      0.755168607,
      0.779486117,
      -0.431573951,
      -0.262970602,
      -0.688728496,
      -0.402991436,
      -0.396308465,
      0.338765838,
      1.099801523,
      0.749604177,
      -0.364952371,
      -0.462203878,
      -1.791165769,
      -2.138653954,
      -1.034896074,
      -0.355909879,
      0.938277501,
      0.445365577,
      -0.523798868,
      -0.220850067,
      -0.97055906,
      -1.733635067,
      0.467855675,
      1.105732118,
      -0.060597075,
      -1.10250591,
      -0.175930314,
      -0.05952391,
      0.249655815,
      -0.527033798,
      0.887019986,
      0.407661899,
      -0.492048281,
      -0.933039165,
      0.852364052,
      -0.111552471,
      0.639424926,
      0.44865599,
      -0.084548369,
      -1.118264339,
      0.056036765,
      -0.024571524,
      0.816865101,
      -0.344182121,
      -0.120474319,
      -0.0703519,
      -0.488937067,
      -1.038314842,
      -0.321820615,
      -0.29205772,
      -0.030818379,
      -0.322922344,
      0.577342942,
      0.499860667,
      0.045075935,
      -0.369977831,
      -0.843761095,
      -1.021375009,
      -0.676691937,
      0.210677759,
      0.184991764,
      0.120136388,
      0.002508511,
      -0.60189877,
      -1.169032266,
      -1.182422683,
      -0.86086632,
      -0.353701482,
      -0.754030898,
      -0.49082359,
      -0.093556291,
      -0.522802083,
      -1.017961589,
      -0.608393009,
      -0.627735771,
      -1.383569992,
      -0.960141043,
      0.06024502,
      0.270036767,
      -0.401477199,
      -0.951322644,
      -0.276292062,
      0.23735005,
      0.168236466,
      1.071938101,
      2.149281212,
      1.829800941,
      0.452848139,
      0.125623238,
      0.614734614,
      1.297241536,
      1.139982323,
      0.853169378,
      1.997545997,
      1.598723619,
      1.344651302,
      0.12620895,
      0.425728435,
      1.028709167,
      0.446648924,
      0.465049195,
      0.044573676,
      -0.180792885,
      -0.132318705,
      -0.883506285,
      0.179466027,
      0.449732774,
      -0.736697283,
      -0.88403967,
      -0.896698564,
      -0.706278033,
      -0.851599294,
      -0.901841098,
      -0.054632005,
      0.00941193
     ],
     [
      0.318964919,
      0.614156834,
      0.99754086,
      1.850753713,
      1.344500439,
      0.68560575,
      0.225038769,
      -0.543618327,
      0.495316367,
      0.918265701,
      1.374908759,
      1.86927563,
      1.182921286,
      0.312745889,
      0.216778337,
      -0.286522236,
      -0.045287841,
      0.534387087,
      0.664699334,
      -0.423594467,
      0.765737015,
      -0.539158164,
      -0.356674027,
      -0.293624264,
      0.083496623,
      0.489009975,
      0.09652446,
      -0.241216816,
      1.722688795,
      0.556287814,
      0.061678569,
      -0.689936567,
      0.437715613,
      1.456558741,
      1.002411889,
      0.966929475,
      1.356007555,
      0.855329698,
      1.069315138,
      0.025198152,
      0.327770806,
      2.017078565,
      2.214755339,
      1.833749805,
      1.277306403,
      -0.228079351,
      -1.019280404,
      -0.354557025,
      0.102348258,
      0.587907641,
      0.793221548,
      0.727136172,
      -0.298781355,
      -1.251013748,
      -1.163867382,
      -0.585742329,
      0.112646251,
      0.286934092,
      0.57521008,
      -0.175546922,
      0.002654744,
      -0.046990582,
      0.005632254,
      -0.036199158,
      0.148401103,
      0.021869736,
      0.094781248,
      0.166048712,
      -0.182325574,
      -0.184622335,
      -0.073075567,
      0.036152303,
      0.019230044,
      0.029389959,
      -0.014565888,
      -0.855877026,
      -1.067907377,
      -0.88957742,
      -0.865250413,
      -0.133060984,
      0.061665064,
      0.746960788,
      0.73123717,
      0.737448579,
      0.020912574,
      -1.033953245,
      -0.696031105,
      -0.078275361,
      0.215056197,
      1.139867927,
      1.219217344,
      0.243387515,
      -1.247332299,
      -0.584474721,
      1.345333219,
      0.356040506,
      0.182764114,
      0.889341476,
      0.69310576,
      -0.289228218,
      -0.236777391,
      1.346563167,
      0.821184251,
      0.032720548,
      -0.035511518,
      0.347170056,
      0.007768483,
      -0.08260073,
      0.029318242,
      0.073020652,
      -0.05924004,
      -0.213871394,
      -0.053400301,
      0.375083641,
      0.133966617,
      0.000797015,
      0.030574629,
      0.458793133,
      0.518404819,
      0.023540453,
      0.078450321,
      0.394682869,
      0.376835314,
      -0.103177317,
      0.330417992,
      0.651463516,
      0.173094148,
      -0.013820102,
      0.829290718,
      0.652399279,
      0.253008681,
      0.414059807,
      -0.543197921,
      -1.123770759,
      -0.805851019,
      -0.360312978,
      1.842568207,
      1.392765905,
      -0.517493641,
      0.798350495,
      -0.111147593,
      -1.135492098,
      -0.409585279,
      -0.668299094,
      0.266934821,
      -1.404030377,
      -1.443174033,
      2.311625672,
      1.882739629,
      -0.054175859,
      -0.649896144,
      -0.892416618,
      -1.194283577,
      -1.966769956,
      1.322303861,
      2.353114883,
      0.284681909,
      -0.47707725,
      -0.840853318,
      -0.56538496,
      -0.186518917,
      -2.364400524,
      -1.234381092,
      0.302990533,
      0.157226572,
      -0.303245382,
      -0.182505872,
      -0.483926396,
      1.432998143,
      -1.088639337,
      -2.12830933,
      -0.893427499,
      1.407043286,
      0.418105366,
      0.182774771,
      -0.345045335,
      1.590222065,
      0.331426158,
      0.02465599,
      -0.004869566,
      0.433488493,
      -1.585687802,
      -0.740515539,
      -0.444658716,
      0.957327703,
      0.652624072,
      0.889524188,
      0.810010966,
      -0.092128543,
      0.135798438,
      -0.305411925,
      -0.522575205,
      0.064004515,
      0.2324065,
      -0.091813045,
      -0.104202993,
      -0.128045167,
      -0.105405293,
      -0.054170048,
      -0.368124459,
      0.320674494,
      0.488159105,
      -0.411432764,
      -0.59994288,
      0.017440826,
      0.208124589,
      1.135119313,
      -0.490813294,
      0.351159969,
      -0.195411761,
      -2.132853824,
      -2.408624206,
      -0.388970792,
      0.930374421,
      0.715209074,
      -0.624812533,
      0.097686243,
      -0.671166258,
      -1.650819807,
      -1.122250232,
      -0.079313784,
      -0.151620806,
      -0.56172576,
      -0.702110487,
      0.438924053,
      -0.134501103,
      -0.758192935,
      0.151947736,
      -0.034615103,
      0.184732859,
      0.434079608,
      -0.346541228,
      0.880416534,
      0.260233746,
      -0.780093793,
      -1.232833699,
      -0.550245834,
      0.977604379,
      1.32264039,
      0.07887213,
      0.562905239,
      -0.022550395,
      -0.770396533,
      -1.248462716,
      -0.543447235,
      0.150876213,
      0.005262259,
      -0.316200559,
      0.184761598,
      -0.262553341,
      -0.668172351,
      -0.320418689,
      -0.169420794,
      -0.119800468,
      -0.533013005,
      -0.507625182,
      0.35449553,
      0.228752666,
      -0.123501183,
      -0.012229227,
      -0.513648776,
      -0.648409193,
      -0.25240074,
      -0.083714282,
      1.313726489,
      1.557887591,
      1.217351455,
      0.484739153,
      -0.434641308,
      -1.544369126,
      -0.652811394,
      -0.359172623,
      0.544712458,
      0.257447461,
      0.040671963,
      0.763637208,
      0.996734853,
      1.480295621,
      0.21825733,
      -0.174033485,
      -0.545656041,
      0.237015295,
      2.24467579,
      2.608229021,
      1.070549649,
      0.381184403,
      0.30034873,
      0.053111219,
      -0.352220821,
      -0.622820252,
      0.034396394,
      -0.454144031,
      -0.461832168,
      0.019405636,
      -0.015918157,
      -0.228375855,
      0.165880725,
      -1.170088003,
      -1.493937349,
      -1.305467325,
      0.418345683,
      0.179565369,
      -0.324581739,
      -0.485049882,
      0.540906697,
      -0.005071417,
      -0.37527467,
      0.479676156,
      1.417121386,
      0.201658715,
      -0.21282904,
      -0.010236144,
      0.43080643,
      0.594921151,
      0.893210265,
      1.061475805,
      0.691335534,
      0.371637469,
      0.300096642,
      -0.025709211
     ],
     [
      0.065239782,
      0.561314244,
      0.566069597,
      0.108188087,
      -0.521910366,
      -1.29817521,
      -0.398153233,
      0.699508899,
      -0.141605016,
      0.090803102,
      -0.45212519,
      -1.49719616,
      -2.096014375,
      -2.128174787,
      -1.208257043,
      0.092650038,
      -0.355702123,
      -0.727004086,
      -0.424317563,
      -0.153236755,
      -1.624041879,
      -0.982836639,
      -1.069569832,
      -0.632742316,
      -0.290777785,
      -0.393010142,
      -0.125360928,
      0.825069986,
      -1.286084439,
      0.038565055,
      0.245644186,
      0.461552796,
      -0.271080569,
      -0.964709646,
      0.420685145,
      0.401393492,
      -0.914846603,
      0.710292066,
      0.303689968,
      -0.217137077,
      0.057211451,
      -0.841733214,
      -0.317879883,
      -1.31557737,
      -0.728995054,
      0.348232169,
      0.275913786,
      -0.133358278,
      -0.046216918,
      0.596107336,
      0.431389974,
      -0.374238768,
      0.493940782,
      0.665541855,
      0.82710511,
      0.194764935,
      -0.077643611,
      -0.210857425,
      -0.559245565,
      0.195668338,
      0.549385376,
      -0.557740636,
      -0.125782386,
      0.013481814,
      -0.127155952,
      -0.062078998,
      0.172380967,
      0.392155273,
      0.319062354,
      0.508174382,
      0.465903083,
      0.16370483,
      -0.135159215,
      -0.197845619,
      0.821604994,
      1.502587992,
      0.725942304,
      1.126035497,
      0.57452851,
      0.026251889,
      -0.12891794,
      -0.330336348,
      0.728153755,
      0.064254563,
      -0.752711777,
      -0.934524704,
      -0.725193135,
      -0.005729085,
      -0.153109052,
      -1.024163913,
      -1.117758557,
      -1.146783449,
      -1.39614997,
      -0.858826185,
      -0.788010292,
      -0.053888937,
      -0.175071511,
      -1.294225875,
      -0.905877296,
      0.500083286,
      -0.850203146,
      -0.491799164,
      -0.098878109,
      0.276129677,
      -0.049402435,
      0.085290898,
      1.023695527,
      0.655932952,
      0.893950561,
      0.415080913,
      0.384779381,
      0.324889008,
      -0.082651874,
      0.236718579,
      0.156641986,
      0.190066256,
      0.395922213,
      -0.896821925,
      -0.85202737,
      -0.357128572,
      -0.060624845,
      -0.196157785,
      -0.157060547,
      0.063595745,
      -0.197567219,
      -0.105570312,
      0.056034145,
      0.042030836,
      0.127160495,
      -0.063520759,
      -0.898133814,
      0.114414609,
      0.053839537,
      0.30909559,
      1.666112836,
      0.615567802,
      0.144829548,
      -0.35840992,
      -0.036270651,
      -1.370400758,
      -1.307383924,
      1.704109127,
      0.962229989,
      0.135460895,
      -0.216443879,
      0.162398274,
      2.043404044,
      -2.313934408,
      -1.250946898,
      0.302105493,
      -1.288043582,
      -1.004855694,
      1.485938996,
      3.182515987,
      2.183350282,
      -1.654164794,
      0.221230568,
      2.16756625,
      0.53546698,
      -1.092347385,
      1.597640269,
      2.621276507,
      0.313719371,
      1.089024419,
      2.901115324,
      1.958083434,
      0.589743474,
      -0.737713958,
      -1.098937031,
      -1.378141324,
      -1.71246884,
      0.455345197,
      0.755480021,
      -0.620642724,
      -0.469146561,
      -0.646834744,
      -1.163177264,
      -2.001623193,
      -0.889331421,
      -0.734346136,
      -0.779619253,
      -0.02818071,
      -0.285153457,
      -0.566082498,
      -0.291054526,
      -0.394022169,
      0.15207695,
      -1.193216829,
      -1.88482903,
      -0.314374567,
      0.470704948,
      0.034752897,
      -0.050172404,
      0.027564958,
      -0.060310971,
      0.188703919,
      0.741655355,
      0.266519408,
      0.255682373,
      0.573640903,
      -0.051754181,
      0.55971433,
      1.168399352,
      2.355041237,
      2.226068107,
      1.393200923,
      0.553141678,
      0.992376438,
      -0.184210982,
      0.142916013,
      1.048846338,
      2.160452563,
      0.550747287,
      0.939974994,
      -0.578814469,
      -0.043381946,
      -0.135638181,
      0.148402333,
      0.577083071,
      1.024272483,
      -0.634911461,
      1.303055613,
      0.289716639,
      -0.500688322,
      -0.21267152,
      0.312982538,
      -0.353162191,
      -0.955772947,
      0.590436831,
      1.454939664,
      0.861698313,
      -0.055340859,
      -0.199574013,
      -0.10111581,
      -1.28276862,
      -0.76247052,
      1.080695485,
      -0.065297095,
      -0.418029372,
      -0.523081544,
      -0.150338796,
      -0.515594958,
      -0.448502665,
      0.00126094,
      0.444739126,
      -0.373827099,
      -0.118707521,
      -0.397963028,
      -0.085449768,
      -0.12672036,
      0.615673178,
      1.08773862,
      0.433033461,
      0.321109661,
      0.832392366,
      0.147128538,
      -0.201802867,
      -0.252341366,
      -0.377178563,
      -0.312422224,
      -0.18256448,
      -0.161663348,
      0.027114956,
      0.209570014,
      0.11343829,
      0.062630047,
      -0.324142069,
      -0.724888298,
      -0.244473324,
      1.281498059,
      1.648529079,
      0.476397205,
      -0.445778845,
      -0.966942965,
      -0.181179239,
      -0.532502351,
      0.36668629,
      1.022882506,
      0.739954807,
      0.106114867,
      0.221899934,
      0.473454079,
      0.862567077,
      -0.917498433,
      -0.120034412,
      -0.22733084,
      0.536157635,
      0.123159226,
      0.837011665,
      0.783417545,
      -0.301447681,
      -0.766337136,
      -0.329821062,
      -0.100148301,
      0.700804582,
      -0.116497923,
      -0.244079035,
      -0.650112384,
      -0.374191672,
      0.819676121,
      -1.381978536,
      -0.640512577,
      0.268772029,
      -0.044992813,
      -0.803315401,
      -0.722358686,
      0.341722234,
      -0.318497811,
      -1.085371281,
      -0.309557419,
      -0.527800104,
      -0.448607508,
      -0.215090566,
      0.30641483,
      0.515651206,
      -0.293494941,
      -0.284614429,
      -0.035637441,
      -0.209374893,
      -0.215412975
     ],
     [
      -0.391000415,
      -0.668231684,
      -0.669704315,
      -0.197446587,
      0.20461173,
      1.05785992,
      0.198354922,
      -0.170960063,
      -0.507236482,
      -0.598048152,
      0.057526793,
      0.099921472,
      0.166375163,
      0.724418532,
      1.212069883,
      1.434968664,
      -0.0727174,
      -0.619757969,
      -0.897879785,
      -0.039909491,
      1.143162237,
      1.831478264,
      0.774163352,
      -0.008856067,
      -0.313409047,
      -1.054473693,
      -0.519706356,
      0.088688262,
      1.76402285,
      2.838709281,
      1.463305351,
      -0.384955573,
      0.053453919,
      0.913753844,
      0.314087042,
      1.328014134,
      1.127716799,
      0.395433878,
      0.345847177,
      0.17372404,
      0.245943914,
      1.916294923,
      1.507867547,
      1.381395692,
      -0.023006724,
      -0.328669659,
      -0.288002832,
      0.222132263,
      0.223945831,
      0.710483127,
      -0.50512585,
      0.680693145,
      -0.197933277,
      -0.309668286,
      -0.504653589,
      -0.000770402,
      -0.250635223,
      0.091830168,
      0.026425673,
      -0.068740771,
      -0.39746966,
      -0.215343707,
      -0.176086081,
      -0.059565799,
      -0.076524844,
      -0.074899624,
      0.055062423,
      0.060340404,
      -0.19545834,
      -0.250062906,
      0.036895805,
      0.116345408,
      -0.093316921,
      -0.163029849,
      -0.542194496,
      -0.47305442,
      -0.368981427,
      0.483176251,
      0.906583301,
      0.422541093,
      -0.093467419,
      -0.551610534,
      -0.797417548,
      -0.124578921,
      0.308932895,
      0.713157089,
      0.930998623,
      0.768455231,
      -0.079503592,
      -0.541462665,
      -0.938136843,
      -0.367419401,
      1.050256665,
      1.445966038,
      0.535842697,
      0.506836207,
      0.005388142,
      1.122174437,
      0.66560432,
      0.953484595,
      1.512173416,
      0.802698854,
      -0.4487651,
      -0.472086069,
      0.124853676,
      1.34444267,
      1.106059068,
      0.55708583,
      0.37248212,
      -0.169632944,
      -0.597527936,
      -0.54913426,
      0.00815986,
      0.748752715,
      0.96986075,
      0.420212929,
      -0.616297311,
      -0.697799386,
      -0.69280399,
      -0.139481844,
      -0.088444856,
      -0.166681125,
      -0.159853419,
      -0.532423795,
      -0.276419965,
      0.074660605,
      0.2857607,
      0.160041526,
      -0.754276095,
      -0.648168449,
      0.028744127,
      0.358926396,
      1.172805977,
      1.194162535,
      -1.047196504,
      -0.20603241,
      -1.212079101,
      0.203773823,
      0.495239212,
      -0.805265307,
      -0.525765022,
      1.739976007,
      1.060937415,
      2.584244893,
      -0.056213332,
      0.545106661,
      0.22202165,
      -0.664342279,
      -1.772401879,
      0.228592925,
      0.186369444,
      2.999586456,
      -0.415700646,
      0.105856365,
      2.062574317,
      1.552132402,
      -1.694716231,
      -1.454138959,
      -1.573961409,
      -0.111452957,
      -0.025665159,
      -1.027783522,
      0.120008425,
      -0.871270701,
      -1.284298747,
      -1.52162239,
      -1.054804942,
      -0.907743283,
      0.697946301,
      -0.420179801,
      -0.872462355,
      -0.557453079,
      -0.283635726,
      -0.715385697,
      0.68272088,
      -0.025022686,
      -0.380988355,
      -0.741606309,
      0.607146235,
      1.164537173,
      0.841999858,
      0.738311342,
      1.314550897,
      0.214731212,
      -0.530454085,
      -0.923109302,
      0.546379778,
      1.802879241,
      1.300983652,
      0.598616721,
      0.305026198,
      0.020287844,
      -0.149250086,
      -0.260969876,
      -0.26950463,
      -0.11204882,
      0.047816949,
      0.21895932,
      -0.467567428,
      -0.140174423,
      -0.345406542,
      -0.222746316,
      0.587534363,
      -0.376648797,
      -1.903930538,
      -0.738903984,
      -1.331734026,
      0.305003218,
      -0.292557999,
      0.154312579,
      0.076019683,
      0.18093323,
      -1.075662008,
      -1.454434157,
      -2.10050626,
      0.124905725,
      -0.086889071,
      0.146997452,
      0.107170603,
      1.190152404,
      -0.566689651,
      -0.918910469,
      -1.263782124,
      -1.050103156,
      -0.12316937,
      -0.113628666,
      -0.136227571,
      -0.028240534,
      -0.753138269,
      -0.206329944,
      -0.366706693,
      -0.809914868,
      -0.199056676,
      -0.321119783,
      -0.537286047,
      -0.09640976,
      -0.167419843,
      -0.084941782,
      0.236206499,
      0.340126051,
      -0.072847123,
      -0.623031575,
      -0.602476906,
      -0.031836047,
      -0.043387099,
      -0.033637087,
      0.282211182,
      0.652199776,
      -0.068187959,
      -0.796261936,
      -1.087816812,
      -0.423486674,
      -0.283144234,
      0.004951447,
      0.318658339,
      0.298734493,
      -0.287279096,
      -0.717176761,
      -0.75503707,
      -0.422305972,
      0.678488354,
      0.701545568,
      -0.27576185,
      0.03628183,
      -0.763548947,
      -0.45772034,
      -0.1965339,
      -0.194435346,
      0.459522881,
      1.522472424,
      1.013960476,
      1.492390817,
      -0.287539841,
      -0.078458065,
      -0.78202849,
      -0.87113177,
      -1.694570481,
      -1.098769856,
      -0.331197493,
      1.668666945,
      0.173647709,
      -0.234965916,
      0.44511227,
      -0.499950364,
      -2.354360552,
      -1.868960871,
      -1.841069634,
      0.082533401,
      -0.36644833,
      -0.499137448,
      -0.236471526,
      -0.455115562,
      -0.863826703,
      -0.947239502,
      -1.42663113,
      -0.595614765,
      0.430232781,
      -0.373120277,
      -1.002394315,
      -0.437725626,
      0.215570479,
      -0.498229903,
      -0.287175819,
      -0.319587786,
      0.034411128,
      0.800698439,
      0.720996973,
      0.353772244,
      0.807429796,
      0.23587733,
      0.780786392,
      -0.096170604,
      -0.208670145,
      -0.062728867,
      0.714692153,
      1.301954256,
      0.81504797,
      0.435176753,
      0.2808869,
      -0.004515897
     ],
     [
      0.148771956,
      -0.140875399,
      -0.725482345,
      -1.404105692,
      -1.691893535,
      -0.992201578,
      0.115861451,
      0.567935087,
      0.032065883,
      -0.363755735,
      -0.628948465,
      -1.384606205,
      -1.986333866,
      -1.239191666,
      -0.829119503,
      -0.290310761,
      0.112564874,
      0.057671107,
      0.035308263,
      -1.122700021,
      -0.362731903,
      1.31776637,
      1.555785581,
      1.026326901,
      0.034475621,
      -0.385838113,
      -0.93814132,
      -0.056554779,
      2.492689376,
      2.242183714,
      1.199223096,
      1.121541307,
      -0.177919442,
      -0.950257394,
      -1.7408829,
      -0.09583941,
      1.372437399,
      0.638629612,
      -0.332886533,
      -0.05510925,
      0.198091952,
      -1.075935929,
      -1.304942786,
      0.31871535,
      0.366096311,
      -0.139146658,
      0.004673437,
      -0.044639157,
      0.283746319,
      0.110974815,
      -0.666012172,
      -0.750523694,
      -0.898733253,
      -0.141041732,
      0.412718094,
      0.184541271,
      0.275227502,
      0.36349477,
      0.765194698,
      0.875542947,
      0.453716685,
      0.106199689,
      0.024849664,
      0.236137121,
      -0.186446384,
      -0.204258117,
      -0.288938769,
      -0.315833004,
      -0.018083345,
      -0.303553058,
      -0.44506546,
      -0.275199615,
      -0.22521012,
      -0.250437287,
      -0.320130871,
      0.012895662,
      0.310805014,
      0.183846498,
      0.385461675,
      -0.025413413,
      -0.214369457,
      -0.279717224,
      -0.095192724,
      0.317483012,
      1.179869377,
      1.20267513,
      0.645991534,
      -0.09487301,
      -0.11177392,
      -0.465045496,
      -0.522854636,
      -1.031340792,
      0.766429824,
      0.168270598,
      -0.443542567,
      -0.635796272,
      -0.094569159,
      -0.635722495,
      -1.572331177,
      -1.506615133,
      -0.44635793,
      -0.495487682,
      -0.36751284,
      -0.278661071,
      -0.050446777,
      -0.513210607,
      -1.569664596,
      -1.278094877,
      -1.56447386,
      -0.808512212,
      -0.094099639,
      -0.187290543,
      -0.177719447,
      -0.10652581,
      -0.295430708,
      0.191887699,
      0.090483553,
      0.642750627,
      0.372918199,
      -0.162503292,
      -0.242160648,
      -0.266015128,
      -0.346686023,
      -0.656631007,
      -0.34949784,
      -0.156037323,
      -0.355250199,
      -0.335537265,
      -0.122209221,
      0.866460573,
      1.449727107,
      0.543422006,
      1.839977521,
      2.282628974,
      1.569319615,
      0.530769443,
      -0.941205533,
      -0.5441489,
      -1.31878168,
      -1.519909451,
      -2.64385191,
      -1.530767488,
      -0.540368366,
      -0.238116623,
      -0.339510172,
      0.651966671,
      0.786997704,
      -2.220734741,
      -1.884652038,
      -1.993764894,
      0.180392087,
      -0.275066692,
      0.181694258,
      1.520551746,
      0.84561579,
      0.458777913,
      0.465488848,
      -1.575696725,
      1.352802576,
      0.96989828,
      -0.748125039,
      1.310384741,
      1.915513939,
      1.182116502,
      -1.132735496,
      -0.765206544,
      0.389583337,
      0.480403577,
      -1.851203895,
      0.701161895,
      4.304885184,
      3.061168912,
      2.953157253,
      2.137369839,
      0.637374544,
      0.023166423,
      -1.308604084,
      -0.865768272,
      2.453824179,
      4.10138528,
      2.734321626,
      1.161555589,
      0.41057718,
      -0.316399489,
      -0.375354988,
      -1.02551099,
      -0.911528116,
      -0.177799518,
      0.231288156,
      -0.469934806,
      -0.877466873,
      -0.41568609,
      0.099314275,
      0.320631971,
      1.324357562,
      1.371365769,
      0.974801301,
      1.276728307,
      1.283233037,
      0.609942589,
      0.079990502,
      0.272473098,
      0.541053083,
      -0.425738019,
      -0.835198347,
      -1.250060576,
      -0.562701309,
      -0.193746226,
      0.035283579,
      0.583918767,
      0.320077887,
      0.339371954,
      -1.075028111,
      -2.168026031,
      -1.369198824,
      -0.129836871,
      0.096699297,
      1.12386648,
      1.098224113,
      1.098237275,
      0.112683765,
      -2.034655041,
      -0.10734492,
      1.529346711,
      -0.111953466,
      0.719235031,
      1.471206773,
      1.392719798,
      0.161912943,
      -1.019185747,
      0.456255135,
      1.473115225,
      -0.207084808,
      -0.032055415,
      0.979403356,
      1.27194237,
      0.246462556,
      0.630023464,
      0.245737526,
      0.311533938,
      -0.044970526,
      -0.393513012,
      0.888102484,
      1.952602097,
      1.393948971,
      1.228476386,
      0.80322187,
      -0.085933802,
      0.152864622,
      -0.155622939,
      -0.000149523,
      0.10658153,
      0.212957029,
      -0.137322087,
      -0.545480165,
      -0.290302121,
      0.143983478,
      0.659552953,
      1.13918655,
      1.060011149,
      2.112110908,
      1.97500768,
      0.698092165,
      0.195916694,
      -0.299916241,
      -0.367043091,
      -0.720013308,
      -0.033132953,
      0.682414878,
      0.819840775,
      0.346282997,
      0.128264635,
      -0.264926998,
      -0.017318384,
      0.002889922,
      0.102439278,
      0.352229779,
      -0.164340131,
      -0.161262733,
      -0.098905371,
      0.207048158,
      0.23956,
      -0.048910326,
      0.067970945,
      1.314626377,
      0.102814092,
      0.092990437,
      -0.341555998,
      -0.285766469,
      -0.15514626,
      -0.018135179,
      1.198087442,
      0.813614663,
      0.054442862,
      0.145035043,
      -0.282103941,
      -0.578096344,
      -0.220030501,
      0.009494988,
      -0.995683843,
      0.200702565,
      0.779936505,
      0.371028744,
      0.078199059,
      -0.485997297,
      -0.439527025,
      0.32327869,
      0.310137866,
      0.048398173,
      0.301779203,
      0.451982862,
      0.178594785,
      0.028198691,
      -0.66319794,
      -1.604637532,
      -1.463161358,
      -0.645391235,
      -0.034326613,
      -0.096939548,
      -0.049732422
     ],
     [
      -0.224967724,
      -0.412608938,
      -0.387151415,
      -0.160548201,
      -0.294768539,
      -0.719846495,
      -0.915026428,
      -0.526641156,
      0.201261945,
      0.56814089,
      1.702771706,
      2.121831523,
      1.097924804,
      0.410595451,
      0.115594308,
      -0.341905951,
      0.619169957,
      1.324364264,
      1.085727007,
      0.42058535,
      -0.113962653,
      -0.13260723,
      -0.705599847,
      -0.51643046,
      0.158655763,
      0.114450088,
      -0.553311336,
      -1.434857694,
      -1.976845995,
      -0.056828334,
      0.369125818,
      -0.055532835,
      -0.424366453,
      -0.616751189,
      -0.274639914,
      -0.534375896,
      -1.101006802,
      0.136291663,
      0.652387388,
      -0.450488111,
      -0.371709492,
      -0.279082499,
      -0.34579008,
      -0.963929972,
      -1.422772709,
      -1.190971704,
      -1.06212673,
      -1.001236289,
      -0.066086356,
      0.266685489,
      0.000621931,
      -0.419775818,
      0.291600184,
      -0.007968905,
      -0.795993321,
      -0.636769847,
      -0.265985403,
      -0.584972816,
      -0.350058619,
      -0.099772542,
      0.635880101,
      0.520977595,
      -0.210813431,
      -0.209002349,
      0.030980202,
      0.037284355,
      0.051796484,
      -0.143692551,
      -0.337300236,
      -0.393345443,
      -0.177450396,
      -0.063431341,
      0.029169242,
      0.279063961,
      0.513393619,
      0.533272293,
      0.207717775,
      0.154827253,
      0.108851652,
      -0.059805486,
      -0.03836303,
      0.18065524,
      -0.051603007,
      -0.080745948,
      -0.202598318,
      -0.319756169,
      -0.281040118,
      -0.047487998,
      -0.098764573,
      0.20504851,
      0.538120499,
      2.632971914,
      0.92380351,
      0.028610207,
      0.279920728,
      0.029452731,
      -0.007416023,
      0.56388147,
      1.979191571,
      2.330223622,
      -0.77761209,
      -0.587632635,
      -0.100556895,
      -0.022529276,
      0.033617419,
      0.654541463,
      1.560147113,
      0.983447417,
      -0.110292681,
      0.958156033,
      1.138076144,
      0.35476762,
      -0.003444729,
      0.051335522,
      0.115876069,
      -0.042607599,
      0.099435933,
      0.361217582,
      0.020478195,
      -0.222703261,
      -0.105658808,
      -0.231068771,
      -0.48947689,
      -0.944421,
      -0.622097045,
      -0.640105096,
      -0.481261672,
      -0.182718126,
      0.219777615,
      -0.109405548,
      -0.332393061,
      -0.92102791,
      -1.110879699,
      -0.948598915,
      -0.36655385,
      0.139713914,
      0.720519993,
      0.621050341,
      1.012687374,
      0.506602102,
      0.941398003,
      0.196093457,
      -0.277555082,
      -0.291059272,
      0.546772946,
      0.444991049,
      -1.197920262,
      -0.287568146,
      2.136886532,
      0.426901437,
      -0.580794209,
      -0.445188618,
      0.450996305,
      -0.20781004,
      -2.951897573,
      -3.232516345,
      1.912749872,
      1.313508573,
      0.105991191,
      -0.042385813,
      -0.213072156,
      0.17271545,
      -2.049847124,
      -2.547597476,
      -0.127668074,
      1.158737558,
      0.858034462,
      -0.027940194,
      -0.781150126,
      -1.46906004,
      -1.328824401,
      -0.426009332,
      -2.230368302,
      -1.027906279,
      -0.656008688,
      -0.253216932,
      0.350387386,
      0.002247521,
      -1.501100562,
      -1.574791374,
      -2.027420101,
      -1.9309527,
      -1.930204966,
      -0.542553195,
      0.842569018,
      2.295856545,
      1.247573624,
      0.500718914,
      0.977057209,
      -0.754656472,
      -0.885365299,
      -0.081175213,
      0.182102167,
      0.112307669,
      0.074247767,
      0.073599539,
      -0.3858056,
      -0.765816766,
      -0.383091044,
      -0.055966004,
      0.215209134,
      -0.053078345,
      0.027444962,
      -0.031137328,
      0.231777612,
      0.386948118,
      0.468872544,
      -0.098199488,
      0.322300701,
      -0.623390489,
      0.127575519,
      0.384213405,
      0.627865326,
      1.513010757,
      0.933355673,
      -0.27418464,
      0.318344683,
      -0.498981508,
      -0.410910707,
      -1.207347305,
      -0.317905342,
      1.519226554,
      0.433907056,
      -0.282825063,
      0.218095621,
      0.251868392,
      0.629125256,
      -1.364958678,
      -1.261089189,
      0.329092254,
      0.70819419,
      -0.245900494,
      0.197782081,
      0.073355177,
      0.171039889,
      -0.448114418,
      0.169667097,
      -0.233534371,
      -0.061614541,
      -0.590469726,
      0.153514943,
      0.270057093,
      -0.306219962,
      -0.571972672,
      0.561486454,
      -0.868953317,
      -1.522469392,
      -0.87210408,
      0.205658364,
      0.730105046,
      0.788273219,
      0.778790051,
      1.322023089,
      0.107664994,
      -0.707787098,
      -0.250696404,
      0.004678154,
      -0.258572208,
      -0.467976751,
      -0.658137253,
      -0.594905652,
      -0.51429044,
      -0.333590577,
      -0.11168962,
      -0.0888802,
      -0.769979494,
      -0.818033191,
      -1.729605936,
      -1.407217558,
      -0.18068657,
      0.397160395,
      -0.126577284,
      0.31822344,
      -0.122056751,
      -0.554738505,
      -0.368910321,
      -0.06229992,
      -0.128468087,
      -0.123110683,
      -0.296248092,
      0.098066363,
      -0.259468092,
      -1.353808621,
      -1.755931683,
      0.789972248,
      0.794622762,
      0.37230641,
      0.15936149,
      -0.014577576,
      0.387321411,
      -0.323096816,
      -0.79234528,
      0.776031973,
      1.122389792,
      0.483137974,
      -0.110138822,
      -0.519406032,
      -0.513551706,
      -0.27893255,
      0.730794969,
      -0.682728085,
      -0.281474278,
      -0.134668781,
      0.000918434,
      -0.274475928,
      -0.203744917,
      0.13960103,
      0.558766378,
      -1.000824747,
      -0.746683608,
      -0.799567556,
      -0.34567603,
      0.413063774,
      1.297345039,
      1.251956939,
      0.507250624,
      -0.003656708,
      -0.625133255,
      -0.639506444,
      -0.261918066
     ],
     [
      0.209719559,
      0.374797147,
      0.773565676,
      1.216915148,
      0.975954881,
      0.219025842,
      0.359136518,
      0.269407155,
      0.238879755,
      0.047912995,
      -0.378985511,
      -0.602671999,
      -0.010975021,
      0.312562622,
      0.69649421,
      0.753041108,
      0.107373897,
      -0.469367719,
      0.160846399,
      0.701401746,
      0.390337455,
      -0.101677854,
      0.904785128,
      0.760143173,
      0.016035156,
      -0.421703684,
      1.300514976,
      1.014515965,
      0.966863472,
      -0.11431274,
      -0.104854437,
      -0.074944305,
      0.310629369,
      0.841026631,
      0.283136432,
      -0.654926763,
      1.016745137,
      1.015993916,
      0.623072859,
      0.325318619,
      0.149098038,
      -1.045577105,
      -1.698189767,
      -1.044844379,
      1.208334362,
      1.560135414,
      0.541993249,
      0.47728621,
      -0.086960971,
      -1.692241513,
      0.132701703,
      0.452824629,
      0.609927286,
      -0.128243708,
      -0.502513403,
      0.077848706,
      0.297366604,
      0.305590843,
      -0.132748785,
      -0.552219033,
      -0.632385535,
      -0.433173485,
      0.083577126,
      0.147225709,
      0.061233235,
      0.132135818,
      -0.047070573,
      -0.048144122,
      0.039620089,
      0.241144787,
      0.222066465,
      0.079993197,
      0.125802923,
      -0.105601054,
      -0.305871975,
      0.268579186,
      0.489408436,
      0.202437981,
      0.003349329,
      0.064091606,
      0.043817966,
      -0.456198476,
      -0.724181636,
      -0.231725038,
      -0.22246675,
      0.500965949,
      0.182990401,
      0.064367322,
      0.092352665,
      -0.125342797,
      -0.471423687,
      -0.513441521,
      -0.95434879,
      -0.450691939,
      0.166504738,
      0.43116618,
      0.10297917,
      0.339186205,
      -0.851520899,
      -0.795339978,
      -0.25769506,
      0.732209895,
      0.873510181,
      0.386518723,
      0.12335043,
      -0.595085347,
      -1.099804221,
      -0.560186067,
      0.228042129,
      0.482589111,
      -0.256934977,
      -0.251938395,
      0.183222203,
      -0.640127078,
      -0.412200631,
      -0.568117502,
      -0.214605513,
      -0.134632851,
      -0.264346682,
      0.143850479,
      0.12627068,
      0.214808487,
      0.429581492,
      0.480379764,
      0.314739068,
      0.447161802,
      0.316180144,
      0.258069036,
      -0.25189329,
      -0.371633028,
      0.072061648,
      0.765962516,
      0.953969945,
      -0.754794595,
      -0.975454216,
      -0.089302036,
      -0.105521384,
      0.398101925,
      0.137613348,
      0.109598081,
      0.937993761,
      0.492825914,
      -0.200086253,
      0.636477391,
      0.367331998,
      1.939976567,
      0.595011343,
      1.036579858,
      0.215431191,
      1.977509333,
      1.049766865,
      0.989843163,
      -0.623692394,
      0.18665099,
      0.178451784,
      1.587031106,
      2.075274478,
      0.834651802,
      0.489655192,
      0.855306505,
      -1.011688307,
      0.257995851,
      1.574476632,
      1.768183357,
      0.769030196,
      -0.062763663,
      0.186661305,
      -0.186917433,
      0.067714753,
      1.275364647,
      0.909417638,
      -1.186475115,
      -1.482860973,
      -0.977171757,
      -0.244585539,
      -0.567545319,
      -0.709666869,
      0.14661405,
      0.389575984,
      1.939718979,
      0.148743212,
      -0.20768459,
      0.062068812,
      -0.082336426,
      -0.966710863,
      -1.247961822,
      -0.867864057,
      1.013859254,
      1.677450222,
      0.886160663,
      0.414943884,
      0.086065008,
      -0.100794831,
      -0.277028997,
      -0.545093069,
      -0.519601903,
      -0.392852658,
      0.001944206,
      -0.256093899,
      -0.347244709,
      -0.134962152,
      -0.259123107,
      -0.428136987,
      -0.303391086,
      0.034176594,
      -0.447495445,
      -0.616145046,
      0.154099992,
      -0.137701496,
      0.490921768,
      0.859604452,
      0.632687703,
      -0.29120169,
      -0.733107128,
      0.148964377,
      0.75152696,
      -0.145565748,
      0.349457457,
      0.10936048,
      0.98772062,
      0.433194801,
      -0.666289782,
      -0.290691581,
      0.461597946,
      -0.200283146,
      -0.384355497,
      -1.161994273,
      0.447990055,
      1.130740494,
      -0.477775299,
      -0.188126668,
      -0.267692642,
      -0.309711592,
      0.287623457,
      0.55919074,
      1.558795941,
      -0.230127692,
      0.083054357,
      0.296084847,
      -0.123354847,
      -0.433566939,
      0.265756846,
      0.402376178,
      0.171276152,
      -0.145122647,
      0.15933266,
      0.634697571,
      0.139896969,
      -0.282216347,
      -0.431296706,
      -0.54528977,
      -0.410096145,
      0.340657378,
      -0.096953057,
      0.084746736,
      -0.118958946,
      0.083177976,
      -0.134812575,
      0.285504382,
      0.656600335,
      0.376551342,
      -0.72656083,
      -0.363825584,
      0.037233681,
      -0.006550008,
      0.922704367,
      1.549254082,
      1.554263445,
      0.359408484,
      -0.361478281,
      -0.58965867,
      0.094929754,
      0.437477707,
      1.253660396,
      -0.424378485,
      -0.285473807,
      0.068677979,
      1.293191941,
      1.417755296,
      0.776286097,
      0.186653,
      -0.462997532,
      -1.606986494,
      -1.13307901,
      0.898827463,
      2.553913611,
      1.774085094,
      0.64950908,
      -0.566377267,
      -0.104563632,
      0.991693051,
      0.901657114,
      0.5705773,
      0.291425318,
      -0.010327962,
      0.221975573,
      0.232876778,
      2.219575708,
      2.757737923,
      0.081293713,
      -0.144656977,
      -0.315861094,
      -0.369170613,
      -0.428499309,
      0.127796691,
      -0.642736144,
      -0.865579829,
      0.891622977,
      0.611175139,
      0.628231274,
      -0.102411757,
      -0.236469272,
      -0.60238262,
      -1.36408719,
      -0.52984733,
      0.809875251,
      0.684378206,
      0.617699087,
      0.04513487,
      0.066948434
     ],
     [
      0.132611928,
      -0.018233764,
      0.313023795,
      0.318003675,
      0.194273581,
      0.518141234,
      0.359096723,
      -0.189842637,
      -0.077337795,
      -0.584287916,
      -0.436889363,
      1.203927285,
      2.723634951,
      2.306638698,
      0.377040599,
      -0.202094519,
      -0.210528805,
      -0.805922246,
      -0.642215816,
      0.537245779,
      0.235089798,
      0.153054567,
      0.313922467,
      0.052581458,
      -0.278112333,
      -0.277402325,
      0.604379249,
      1.273399495,
      -0.660598625,
      -0.116745025,
      -0.359454624,
      -0.521921213,
      -0.1048962,
      -0.056950399,
      1.793899055,
      1.275507515,
      -2.483417291,
      -1.783130607,
      -1.293811054,
      -0.702899998,
      0.241236086,
      0.269100691,
      -0.035340105,
      -0.913708964,
      -2.708936166,
      -1.405309344,
      -0.487681604,
      0.009282653,
      0.261553117,
      0.833277698,
      1.29148613,
      0.211733409,
      -0.286295615,
      -0.042426993,
      0.218146968,
      0.583055707,
      0.270031482,
      0.147437893,
      -0.48375547,
      -0.807619248,
      -0.414900756,
      0.727839524,
      0.760459673,
      0.58167642,
      0.138079528,
      0.133580645,
      0.089769382,
      -0.038270039,
      0.048371995,
      0.05941161,
      0.008313482,
      0.118735213,
      0.221798767,
      0.253836074,
      -0.142843834,
      -0.217381834,
      0.160867762,
      -0.316625395,
      -0.445598467,
      0.095596663,
      0.290238475,
      0.161332019,
      0.105028761,
      -0.055435181,
      -0.137447882,
      1.35462929,
      0.265360545,
      0.002186795,
      0.12008855,
      -0.711601262,
      -0.85264933,
      -0.872531331,
      -0.722023735,
      -0.335070639,
      -0.345601572,
      0.031350027,
      0.043776295,
      -0.449970931,
      -0.437368511,
      -0.167988348,
      -0.001933739,
      -0.510179986,
      0.014975624,
      0.138565656,
      0.284082876,
      0.300720494,
      0.434769654,
      1.571511057,
      0.826540352,
      0.141317103,
      -0.236451169,
      -0.204639541,
      0.191256961,
      0.269278656,
      0.57505982,
      0.432961136,
      0.125419342,
      -0.02191625,
      -0.402181828,
      -0.111041378,
      0.127990938,
      0.009952239,
      -0.438832705,
      -0.496186154,
      -0.418943593,
      -0.751047137,
      -0.488479024,
      0.055720856,
      -0.114597547,
      -0.659622115,
      -0.778031474,
      -1.612520568,
      -0.981023899,
      -0.130320317,
      -0.564235459,
      -0.20749247,
      -0.78630446,
      -0.890141136,
      1.056801859,
      1.487683442,
      0.57298677,
      -1.095884576,
      -0.88428591,
      -1.150678823,
      0.701228292,
      1.201299328,
      1.099236215,
      0.394194761,
      1.356997028,
      1.453933277,
      0.696293086,
      -1.066557166,
      1.321874004,
      0.151143269,
      -1.407824046,
      -0.725479271,
      1.786227873,
      1.229073997,
      0.098575303,
      -0.884155051,
      0.025090327,
      -0.919484997,
      -0.392267792,
      -0.154260738,
      2.002152713,
      0.386135054,
      -0.519925079,
      -1.047301469,
      -0.927282672,
      -1.886764412,
      -1.969863589,
      0.053938843,
      0.025487498,
      -0.752811602,
      -0.637753754,
      -0.831417486,
      -0.395351449,
      -1.099481601,
      -1.737865674,
      -1.250664583,
      -1.835833258,
      -1.018889268,
      0.44044819,
      0.03700391,
      0.408116868,
      0.804360525,
      0.980209938,
      0.167857818,
      -0.039277015,
      0.890591412,
      1.424503487,
      0.504012641,
      -0.026307711,
      -0.185764427,
      -0.284222266,
      -0.565949231,
      -1.144238406,
      -0.930687381,
      -0.506266196,
      -0.290810322,
      -0.138296388,
      -0.644321056,
      -1.015050256,
      -0.580447356,
      -0.566311023,
      -0.296221336,
      -0.061047002,
      -0.772615737,
      -0.198200286,
      0.20661578,
      0.505391343,
      -0.367146,
      -0.560147187,
      -0.052941541,
      0.8966199,
      -0.462921644,
      0.096795326,
      1.035878848,
      1.116875892,
      -0.835140644,
      -0.74093113,
      0.685374227,
      0.916442205,
      -0.520408831,
      0.128244719,
      0.219437587,
      0.322616405,
      -1.110040938,
      0.481612386,
      1.79139772,
      0.422968467,
      -1.018968713,
      0.000750824,
      -0.433556228,
      -0.466767953,
      -1.623480241,
      -0.142628307,
      0.309240199,
      -0.382750368,
      -0.872997782,
      -0.001480425,
      -0.336965657,
      -0.576234045,
      -0.501527266,
      0.102156478,
      -0.767906593,
      -0.025629608,
      -0.031235059,
      -0.014225215,
      0.174673391,
      0.204892214,
      0.38399754,
      0.442183517,
      0.115642359,
      0.993084348,
      0.544561611,
      0.137284573,
      -0.087357133,
      -0.1285639,
      -0.521065843,
      -0.625044551,
      0.271396241,
      0.363388367,
      0.055045417,
      -0.38121618,
      -0.098152765,
      0.258187721,
      2.5180126,
      1.373028558,
      -0.771844999,
      -1.004686319,
      -0.303533626,
      0.117053711,
      0.886918802,
      2.857874672,
      1.671075893,
      0.52404445,
      -0.375542745,
      -0.437158409,
      -0.642892281,
      0.589955296,
      0.826716917,
      0.12699272,
      0.933758363,
      0.822905237,
      0.352459081,
      -0.27518593,
      -0.386341725,
      0.006136471,
      -0.390775424,
      -1.318940388,
      0.071421986,
      0.826577925,
      -0.475294062,
      -0.312304031,
      -0.027941993,
      -0.556427679,
      -0.547357501,
      -1.445371468,
      0.398710053,
      0.666530304,
      -0.344111431,
      -0.105580028,
      -0.117313853,
      -0.250446225,
      -0.55926775,
      -0.908956382,
      0.466804041,
      -0.494860815,
      -0.076706191,
      0.133981522,
      -0.012928661,
      0.358707031,
      0.748478288,
      0.800849112,
      0.248243389,
      -0.53467206,
      -0.122780828,
      0.387500967,
      0.13482388
     ]
    ],
    "b": [
     -1.415430425,
     1.923625335,
     0.432543907,
     -0.430737393,
     0.366337216,
     1.100832219,
     -0.730330778,
     0.897251299,
     -1.662933964,
     -0.55423278
    ]
   }
  },
  {
   "epoch": 2,
   "batch": 361,
   "loss": 1.2676005315236172,
   "accuracy": 91.9097605893186,
   "input": [
    [
     0.0,
     0.0,
     0.0,
     0.0,
     0.0,
     0.0,
     0.0,
     0.0,
     0.0,
     0.0,
     0.0,
     0.0,
     0.0,
     0.0,
     0.0,
     0.0,
     0.0,
     0.0,
     0.0,
     0.0,
     0.0,
     0.0,
     0.0,
     0.0,
     0.0,
     0.0,
     0.0,
     0.0
    ],
    [
     0.0,
     0.0,
     0.0,
     0.0,
     0.0,
     0.0,
     0.0,
     0.0,
     0.0,
     0.0,
     0.0,
     0.0,
     0.0,
     0.0,
     0.0,
     0.0,
     0.0,
     0.0,
     0.0,
     0.0,
     0.0,
     0.0,
     0.0,
     0.0,
     0.0,
     0.0,
     0.0,
     0.0
    ],
    [
     0.0,
     0.0,
     0.0,
     0.0,
     0.0,
     0.0,
     0.0,
     0.0,
     0.0,
     0.0,
     0.0,
     0.0,
     0.0,
     0.0,
     0.0,
     0.0,
     0.0,
     0.0,
     0.0,
     0.0,
     0.0,
     0.0,
     0.0,
     0.0,
     0.0,
     0.0,
     0.0,
     0.0
    ],
    [
     0.0,
     0.0,
     0.0,
     0.0,
     0.0,
     0.0,
     0.0,
     0.0,
     0.0,
     0.0,
     0.0,
     0.0,
     0.0,
     0.0,
     0.0,
     0.0,
     0.0,
     0.0,
     0.0,
     0.0,
     0.0,
     0.0,
     0.0,
     0.0,
     0.0,
     0.0,
     0.0,
     0.0
    ],
    [
     0.0,
     0.0,
     0.0,
     0.0,
     0.0,
     0.0,
     0.0,
     0.0,
     0.0,
     0.0,
     0.0,
     0.0,
     0.0,
     0.0,
     0.0,
     0.0,
     0.0,
     0.0,
     0.0,
     0.0,
     0.0,
     0.0,
     0.0,
     0.0,
     0.0,
     0.0,
     0.0,
     0.0
    ],
    [
     0.0,
     0.0,
     0.0,
     0.0,
     0.0,
     0.0,
     0.0,
     0.0,
     0.0,
     0.0,
     0.0,
     0.0,
     0.0,
     0.0,
     0.0,
     0.0,
     0.0,
     0.0,
     0.0,
     0.0,
     0.0,
     0.0,
     0.0,
     0.0,
     0.0,
     0.0,
     0.0,
     0.0
    ],
    [
     0.0,
     0.0,
     0.0,
     0.0,
     0.0,
     0.0,
     0.0,
     0.0,
     0.0,
     0.0,
     0.0,
     0.0,
     0.0,
     0.0,
     0.0,
     0.0,
     0.0,
     0.0,
     0.0,
     0.0,
     0.0,
     0.0,
     0.0,
     0.0,
     0.0,
     0.0,
     0.0,
     0.0
    ],
    [
     0.0,
     0.0,
     0.0,
     0.0,
     0.0,
     0.0,
     0.0,
     0.0,
     0.0,
     0.0,
     0.0,
     0.0,
     0.0,
     0.0,
     0.0,
     0.0,
     0.0,
     0.0,
     0.0,
     0.0,
     0.0,
     0.0,
     0.0,
     0.0,
     0.0,
     0.0,
     0.0,
     0.0
    ],
    [
     0.0,
     0.0,
     0.0,
     0.0,
     0.0,
     0.0,
     0.0,
     0.0,
     0.0,
     0.0,
     0.0,
     0.0,
     0.0,
     0.0,
     0.0,
     0.0,
     0.0,
     0.0,
     0.0,
     0.0,
     0.0,
     0.0,
     0.0,
     0.0,
     0.0,
     0.0,
     0.0,
     0.0
    ],
    [
     0.0,
     0.0,
     0.0,
     0.0,
     0.0,
     0.0,
     0.0,
     0.0,
     0.0,
     0.0,
     0.0,
     0.0,
     0.0,
     0.0,
     0.105882353,
     0.388235294,
     0.709803922,
     0.941176471,
     0.8,
     0.662745098,
     0.662745098,
     0.662745098,
     0.662745098,
     0.662745098,
     0.403921569,
     0.31372549,
     0.0,
     0.0
    ],
    [
     0.0,
     0.0,
     0.0,
     0.0,
     0.0,
     0.0,
     0.0,
     0.0,
     0.0,
     0.0,
     0.0,
     0.0,
     0.015686275,
     0.552941176,
     0.937254902,
     0.91372549,
     0.592156863,
     0.701960784,
     0.854901961,
     0.71372549,
     0.71372549,
     0.717647059,
     0.71372549,
     0.576470588,
     0.443137255,
     0.364705882,
     0.0,
     0.0
    ],
    [
     0.0,
     0.0,
     0.0,
     0.0,
     0.0,
     0.0,
     0.0,
     0.0,
     0.0,
     0.0,
     0.0,
     0.368627451,
     0.964705882,
     0.850980392,
     0.341176471,
     0.0,
     0.0,
     0.0,
     0.0,
     0.0,
     0.0,
     0.0,
     0.0,
     0.0,
     0.0,
     0.0,
     0.0,
     0.0
    ],
    [
     0.0,
     0.0,
     0.0,
     0.0,
     0.0,
     0.0,
     0.0,
     0.0,
     0.0,
     0.0,
     0.031372549,
     0.964705882,
     0.756862745,
     0.117647059,
     0.0,
     0.0,
     0.0,
     0.0,
     0.0,
     0.0,
     0.0,
     0.0,
     0.0,
     0.0,
     0.0,
     0.0,
     0.0,
     0.0
    ],
    [
     0.0,
     0.0,
     0.0,
     0.0,
     0.0,
     0.0,
     0.0,
     0.0,
     0.0,
     0.058823529,
     0.850980392,
     0.725490196,
     0.02745098,
     0.0,
     0.0,
     0.0,
     0.0,
     0.0,
     0.0,
     0.0,
     0.0,
     0.0,
     0.0,
     0.0,
     0.0,
     0.0,
     0.0,
     0.0
    ],
    [
     0.0,
     0.0,
     0.0,
     0.0,
     0.0,
     0.0,
     0.0,
     0.0,
     0.0,
     0.556862745,
     0.992156863,
     0.568627451,
     0.556862745,
     0.662745098,
     0.729411765,
     0.705882353,
     0.866666667,
     0.258823529,
     0.0,
     0.0,
     0.0,
     0.0,
     0.0,
     0.0,
     0.0,
     0.0,
     0.0,
     0.0
    ],
    [
     0.0,
     0.0,
     0.0,
     0.0,
     0.0,
     0.0,
     0.0,
     0.0,
     0.0,
     0.435294118,
     0.992156863,
     0.870588235,
     0.623529412,
     0.301960784,
     0.149019608,
     0.0,
     0.796078431,
     0.388235294,
     0.0,
     0.0,
     0.0,
     0.0,
     0.0,
     0.0,
     0.0,
     0.0,
     0.0,
     0.0
    ],
    [
     0.0,
     0.0,
     0.0,
     0.0,
     0.0,
     0.0,
     0.0,
     0.0,
     0.0,
     0.0,
     0.0,
     0.0,
     0.0,
     0.0,
     0.0,
     0.125490196,
     1.0,
     0.388235294,
     0.0,
     0.0,
     0.0,
     0.0,
     0.0,
     0.0,
     0.0,
     0.0,
     0.0,
     0.0
    ],
    [
     0.0,
     0.0,
     0.0,
     0.0,
     0.0,
     0.0,
     0.0,
     0.0,
     0.0,
     0.0,
     0.0,
     0.0,
     0.0,
     0.0,
     0.007843137,
     0.776470588,
     0.831372549,
     0.043137255,
     0.0,
     0.0,
     0.0,
     0.0,
     0.0,
     0.0,
     0.0,
     0.0,
     0.0,
     0.0
    ],
    [
     0.0,
     0.0,
     0.0,
     0.0,
     0.0,
     0.0,
     0.0,
     0.0,
     0.0,
     0.0,
     0.0,
     0.0,
     0.0,
     0.0,
     0.603921569,
     0.91372549,
     0.2,
     0.0,
     0.0,
     0.0,
     0.0,
     0.0,
     0.0,
     0.0,
     0.0,
     0.0,
     0.0,
     0.0
    ],
    [
     0.0,
     0.0,
     0.0,
     0.0,
     0.0,
     0.0,
     0.082352941,
     0.043137255,
     0.0,
     0.0,
     0.0,
     0.0,
     0.007843137,
     0.525490196,
     0.945098039,
     0.192156863,
     0.0,
     0.0,
     0.0,
     0.0,
     0.0,
     0.0,
     0.0,
     0.0,
     0.0,
     0.0,
     0.0,
     0.0
    ],
    [
     0.0,
     0.0,
     0.0,
     0.0,
     0.0,
     0.0,
     0.874509804,
     0.894117647,
     0.494117647,
     0.0,
     0.0,
     0.0,
     0.517647059,
     0.870588235,
     0.192156863,
     0.0,
     0.0,
     0.0,
     0.0,
     0.0,
     0.0,
     0.0,
     0.0,
     0.0,
     0.0,
     0.0,
     0.0,
     0.0
    ],
    [
     0.0,
     0.0,
     0.0,
     0.0,
     0.0,
     0.0,
     0.596078431,
     0.996078431,
     0.639215686,
     0.368627451,
     0.517647059,
     0.737254902,
     0.737254902,
     0.2,
     0.0,
     0.0,
     0.0,
     0.0,
     0.0,
     0.0,
     0.0,
     0.0,
     0.0,
     0.0,
     0.0,
     0.0,
     0.0,
     0.0
    ],
    [
     0.0,
     0.0,
     0.0,
     0.0,
     0.0,
     0.0,
     0.098039216,
     0.631372549,
     0.658823529,
     0.658823529,
     0.584313725,
     0.247058824,
     0.0,
     0.0,
     0.0,
     0.0,
     0.0,
     0.0,
     0.0,
     0.0,
     0.0,
     0.0,
     0.0,
     0.0,
     0.0,
     0.0,
     0.0,
     0.0
    ],
    [
     0.0,
     0.0,
     0.0,
     0.0,
     0.0,
     0.0,
     0.0,
     0.0,
     0.0,
     0.0,
     0.0,
     0.0,
     0.0,
     0.0,
     0.0,
     0.0,
     0.0,
     0.0,
     0.0,
     0.0,
     0.0,
     0.0,
     0.0,
     0.0,
     0.0,
     0.0,
     0.0,
     0.0
    ],
    [
     0.0,
     0.0,
     0.0,
     0.0,
     0.0,
     0.0,
     0.0,
     0.0,
     0.0,
     0.0,
     0.0,
     0.0,
     0.0,
     0.0,
     0.0,
     0.0,
     0.0,
     0.0,
     0.0,
     0.0,
     0.0,
     0.0,
     0.0,
     0.0,
     0.0,
     0.0,
     0.0,
     0.0
    ],
    [
     0.0,
     0.0,
     0.0,
     0.0,
     0.0,
     0.0,
     0.0,
     0.0,
     0.0,
     0.0,
     0.0,
     0.0,
     0.0,
     0.0,
     0.0,
     0.0,
     0.0,
     0.0,
     0.0,
     0.0,
     0.0,
     0.0,
     0.0,
     0.0,
     0.0,
     0.0,
     0.0,
     0.0
    ],
    [
     0.0,
     0.0,
     0.0,
     0.0,
     0.0,
     0.0,
     0.0,
     0.0,
     0.0,
     0.0,
     0.0,
     0.0,
     0.0,
     0.0,
     0.0,
     0.0,
     0.0,
     0.0,
     0.0,
     0.0,
     0.0,
     0.0,
     0.0,
     0.0,
     0.0,
     0.0,
     0.0,
     0.0
    ],
    [
     0.0,
     0.0,
     0.0,
     0.0,
     0.0,
     0.0,
     0.0,
     0.0,
     0.0,
     0.0,
     0.0,
     0.0,
     0.0,
     0.0,
     0.0,
     0.0,
     0.0,
     0.0,
     0.0,
     0.0,
     0.0,
     0.0,
     0.0,
     0.0,
     0.0,
     0.0,
     0.0,
     0.0
    ]
   ],
   "output": 5,
   "conv_layer": {
    "w": [
     [
      [
       [
        -0.686307877,
        -0.133523735,
        0.539932426,
        0.847307979,
        2.065588741
       ],
       [
        0.004038527,
        -0.752785446,
        -1.397555162,
        -1.500599936,
        -0.386621051
       ],
       [
        0.2577216,
        -1.185267354,
        -2.69684659,
        -2.463396041,
        -1.818625069
       ],
       [
        1.459358182,
        1.525770791,
        0.825284512,
        0.079452148,
        -0.881612146
       ],
       [
        -0.159952092,
        0.928520379,
        1.259723061,
        1.478045688,
        0.538149135
       ]
      ]
     ],
     [
      [
       [
        1.502815391,
        2.150747585,
        1.057888493,
        0.48776443,
        -0.182901684
       ],
       [
        -1.018901054,
        -1.051522326,
        -1.751288464,
        -1.379873703,
        -1.292339133
       ],
       [
        -1.914282525,
        -2.343681438,
        -1.503996137,
        -0.421526761,
        -0.564737287
       ],
       [
        -1.591402336,
        -0.883504006,
        0.069548236,
        0.401587508,
        -0.530885753
       ],
       [
        -1.021541973,
        1.338978879,
        1.056015913,
        0.157275718,
        -0.389864992
       ]
      ]
     ],
     [
      [
       [
        0.505105868,
        -0.419461647,
        -1.013803997,
        -0.279832548,
        0.188049048
       ],
       [
        0.430872463,
        -0.330305246,
        0.139110386,
        0.717631021,
        1.091317972
       ],
       [
        -0.333635352,
        0.073644791,
        1.491956874,
        0.816425236,
        -0.615382346
       ],
       [
        -0.359069077,
        -0.3964947,
        1.278481345,
        0.768031002,
        -0.250592621
       ],
       [
        0.574859813,
        -0.862811258,
        -0.791471903,
        -0.196039333,
        1.324414984
       ]
      ]
     ],
     [
      [
       [
        0.542635303,
        -0.000333875,
        -0.462733328,
        0.142697855,
        0.090564495
       ],
       [
        -0.147388925,
        0.279856096,
        1.422652683,
        -0.192749497,
        -1.225310236
       ],
       [
        -1.223441787,
        0.036078602,
        1.45702229,
        -0.502009472,
        -2.34596308
       ],
       [
        -1.191613623,
        0.461104525,
        1.031018952,
        -0.842782296,
        -1.763291992
       ],
       [
        -0.214157728,
        0.40428423,
        1.057899347,
        -0.312407802,
        0.187045963
       ]
      ]
     ],
     [
      [
       [
        1.870022621,
        1.564895896,
        0.027291457,
        -0.878327283,
        -0.383043909
       ],
       [
        0.67066042,
        -1.254850013,
        -2.155964639,
        -1.452919865,
        0.262717048
       ],
       [
        -0.72007638,
        -1.235843746,
        -1.510291908,
        0.759748812,
        1.201887181
       ],
       [
        -1.455687069,
        -0.370477242,
        0.963962341,
        1.738873896,
        -0.068763389
       ],
       [
        0.186823374,
        0.397086799,
        0.883491424,
        0.160791681,
        -1.387309766
       ]
      ]
     ]
    ],
    "b": [
     -1.650831796,
     0.515583091,
     -1.28874376,
     0.10384287,
     -2.302515509
    ]
   },
   "dense_layer": {
    "w": [
     [
      -0.026299922,
      -0.180351464,
      -0.394861081,
      -0.629061657,
      -0.15992106,
      -0.014084262,
      -0.131985041,
      0.177763196,
      0.047842184,
      0.060164116,
      -0.504834336,
      -0.327746631,
      0.446841353,
      0.925724673,
      0.476597936,
      0.137041955,
      0.217606118,
      0.026091858,
      -0.68292753,
      -0.833479323,
      -1.007105099,
      -0.749535052,
      -0.01838442,
      0.759931344,
      0.145612511,
      -0.494151592,
      -1.084226511,
      -0.604143127,
      -1.33513481,
      -1.897793279,
      -0.740635285,
      0.625757367,
      -0.210849585,
      -1.376101085,
      -1.061075734,
      0.375697067,
      -0.258277979,
      -0.665188696,
      -0.981649026,
      -0.097087259,
      -0.265249094,
      -0.774680649,
      0.549642799,
      1.788792846,
      -0.561360246,
      -0.802579064,
      -0.839426866,
      -0.473510296,
      -0.137141706,
      -0.760318156,
      0.139182396,
      0.623867204,
      -0.098937461,
      -0.163980416,
      -0.470263449,
      -0.264895115,
      0.0277649,
      -0.137030515,
      0.096184021,
      0.150246507,
      0.049763405,
      0.047710389,
      -0.246960588,
      -0.122310439,
      0.054581376,
      0.055465744,
      0.042470721,
      0.197288686,
      0.465699503,
      0.407534799,
      0.138122374,
      0.079731881,
      0.044461677,
      0.00271715,
      -0.358772347,
      -0.299340803,
      -0.538963198,
      -0.523988467,
      -0.294233582,
      -0.096979654,
      0.10337052,
      -0.134197793,
      -0.125438532,
      -0.08241324,
      -0.705693932,
      -0.538611853,
      0.062736135,
      -0.084493391,
      0.173951226,
      -0.481495009,
      -0.380525808,
      -0.183508592,
      0.911553851,
      0.04051879,
      -0.233987297,
      -0.172818194,
      0.011970986,
      -0.850131314,
      -0.586418869,
      0.337673921,
      0.736487631,
      -0.581796138,
      -0.637416499,
      -0.116501148,
      0.038879307,
      -1.153523328,
      -0.18297327,
      -0.011873645,
      -0.417734317,
      -0.143024419,
      -0.300485356,
      0.263842775,
      0.084471993,
      -0.709036186,
      -0.277176196,
      -0.304117067,
      -0.25022546,
      0.217968271,
      0.52713805,
      0.298662488,
      0.065726869,
      0.083689303,
      0.387134677,
      0.578187119,
      0.788467425,
      0.673312826,
      0.21532471,
      0.13752972,
      0.122886803,
      -0.553024502,
      -0.896186453,
      -0.255683036,
      0.097319904,
      -0.999432789,
      -0.592796506,
      0.140796264,
      -0.234230486,
      -1.375059949,
      -0.992190799,
      1.440717465,
      2.443162564,
      1.336929002,
      -0.450322996,
      0.105368078,
      0.225820063,
      -0.788147027,
      1.798067689,
      1.089178427,
      0.428081629,
      0.773095949,
      1.395418115,
      0.664303516,
      1.167397434,
      1.349387077,
      1.564322931,
      -2.577529078,
      -4.349266685,
      0.01369514,
      1.19341706,
      1.169665358,
      1.181896339,
      1.566923994,
      0.13661773,
      -5.366243615,
      -3.346760074,
      0.92018344,
      0.755465728,
      1.028064181,
      -0.031861406,
      0.722164716,
      1.16402969,
      -1.810714575,
      -0.528721459,
      0.750231823,
      -0.199757948,
      0.596473789,
      -0.710865453,
      -0.255113003,
      1.776404517,
      1.02750315,
      0.416839107,
      -0.403207765,
      -0.467491614,
      0.235456736,
      -0.100119689,
      -0.362222362,
      0.323608991,
      0.998830461,
      0.084802243,
      -0.764495651,
      -0.526229505,
      0.104054373,
      0.15624582,
      0.072860384,
      -0.011541178,
      -0.283623692,
      -0.26731157,
      -0.266997871,
      -0.503112006,
      0.033994617,
      0.142533358,
      -0.26856826,
      -0.821481736,
      -0.522728524,
      0.324703968,
      0.444415082,
      -0.416582318,
      0.309694808,
      0.194488908,
      -0.320119772,
      -0.586027664,
      1.361576574,
      0.946373067,
      1.177870616,
      0.934714231,
      1.143961091,
      0.108037901,
      0.04087314,
      1.369725134,
      2.387770893,
      -0.273971716,
      -0.630234126,
      0.724007885,
      1.858469173,
      -0.104069858,
      0.2797479,
      2.213896002,
      2.221202105,
      -3.206966702,
      -1.38856685,
      -0.004084202,
      1.451224064,
      -0.397929177,
      -0.223694113,
      1.900136345,
      0.847726338,
      -1.732108958,
      -0.405394076,
      -0.144002182,
      0.408512558,
      -0.243353957,
      -0.560117767,
      0.319869036,
      0.564723431,
      -0.301886914,
      -0.238125508,
      -0.569746581,
      -0.129781418,
      0.11875646,
      -0.285450784,
      -0.401673561,
      0.253566672,
      0.004417915,
      -0.563117184,
      -0.742434801,
      -0.062256481,
      0.260306066,
      0.076638281,
      -0.227182875,
      -0.130503646,
      -0.391920291,
      -0.543614987,
      0.138497127,
      0.281306785,
      -0.021327581,
      -0.3610908,
      -0.417660189,
      -0.037102535,
      0.345595433,
      -0.335464642,
      -0.7481796,
      0.056826409,
      0.085386425,
      -0.061189566,
      0.382845014,
      0.286131113,
      0.500436911,
      -0.662622082,
      -0.580637472,
      0.043925617,
      0.688660949,
      0.61857144,
      0.703707954,
      -0.283731247,
      -1.558845709,
      -0.585732204,
      -0.007660786,
      0.067608277,
      0.898289861,
      0.431598883,
      0.010080929,
      -2.096949134,
      -0.434064839,
      0.311573862,
      0.476263218,
      0.156672154,
      0.364356288,
      -0.64121954,
      -0.170067731,
      -0.212537618,
      0.800591925,
      0.522606669,
      0.473670018,
      0.444318286,
      0.013773737,
      -0.866025053,
      0.70672196,
      0.131335172,
      0.146879035,
      0.162142911,
      0.446338021,
      0.493154949,
      0.066412824,
      -0.666395798,
      -0.398153541,
      0.290442469,
      -0.066799839,
      0.230401762,
      0.318048976,
      0.208877412
     ],
     [
      -0.156127562,
      -0.315642351,
      -0.852498666,
      -1.526251788,
      -1.356662409,
      -0.415010088,
      0.109034004,
      0.129867983,
      -0.261580572,
      -0.141384377,
      -0.651333956,
      -1.800270943,
      -1.798079109,
      -1.804024307,
      -1.018433874,
      -0.620483334,
      -0.176417855,
      0.104902327,
      0.181908412,
      -0.084488853,
      -0.30733686,
      -1.438894925,
      -1.601802886,
      -0.689307983,
      -0.185391386,
      -0.049501843,
      -0.296708072,
      -2.508203912,
      -1.420607126,
      -1.676032649,
      -1.342402673,
      -0.646243596,
      -0.389825494,
      -0.226749331,
      -0.631608659,
      -2.793039803,
      -0.718296296,
      -1.464790811,
      -0.968176404,
      -0.477443338,
      0.055634025,
      0.266633199,
      -0.050742284,
      -1.955561547,
      1.282859136,
      0.190410887,
      0.600899446,
      -0.091773236,
      0.078452652,
      0.393634304,
      -0.708737038,
      -0.881331042,
      0.529075757,
      0.10350958,
      0.2308416,
      -0.266614079,
      -0.328981351,
      -0.76365007,
      -0.237840283,
      0.297447263,
      -0.372902517,
      -0.369994197,
      -0.217233734,
      -0.251259004,
      -0.138595924,
      -0.130595454,
      -0.155183901,
      0.059916335,
      0.448610519,
      0.371970132,
      -0.017532524,
      -0.215656815,
      -0.134323461,
      -0.214092601,
      -0.229593885,
      -0.269535425,
      0.712552044,
      -0.177113413,
      -0.386374454,
      -0.226952115,
      -0.099933664,
      -0.043083233,
      -0.141345554,
      -0.523092633,
      -0.116743091,
      -1.056156738,
      0.016105618,
      -0.39216989,
      -0.161314652,
      0.009483632,
      0.342509315,
      -0.108700643,
      -0.35557891,
      -0.084654728,
      -0.378085297,
      -0.391930498,
      -0.183061253,
      0.028972756,
      0.602456527,
      -0.623046475,
      0.606151579,
      0.168765633,
      -0.334483363,
      -0.278712127,
      -0.120975199,
      0.149195847,
      0.12514129,
      -0.226197152,
      0.877625675,
      -0.519678969,
      -0.599879516,
      -0.317658592,
      -0.16284372,
      -0.251298511,
      -0.631398195,
      -0.113843546,
      -0.185416996,
      -0.861992347,
      -0.25623535,
      -0.134294499,
      -0.112639575,
      -0.174700575,
      -0.053156249,
      0.606149658,
      0.196091379,
      -0.166705268,
      -0.148344465,
      -0.199857745,
      0.326671682,
      -0.072985632,
      0.843245816,
      1.241362891,
      -0.748435698,
      0.575671004,
      1.981888848,
      0.405285545,
      0.096548321,
      -0.795838162,
      -1.026746771,
      -1.79970805,
      -1.141387548,
      -2.022998536,
      0.507069905,
      0.041906869,
      -0.069960606,
      -1.02634316,
      -1.784701365,
      2.140937763,
      0.449440225,
      -2.552274299,
      -0.135911728,
      -0.142202543,
      -0.323209386,
      -1.855134094,
      -2.791862538,
      2.580463936,
      0.581242777,
      -1.266808954,
      -0.766507693,
      -0.221392383,
      -0.886673855,
      -1.764179244,
      -1.653435457,
      1.602592896,
      -1.180045814,
      -1.268195865,
      -0.983564472,
      0.041397197,
      0.030641318,
      1.365790683,
      -0.483931153,
      0.033982708,
      -1.782946165,
      0.763898873,
      -0.158911924,
      0.085272819,
      1.639086503,
      2.882813262,
      -1.581990651,
      -3.702233641,
      0.538674019,
      2.233242846,
      0.425077058,
      0.260377395,
      0.821486935,
      1.204446053,
      -1.482480462,
      -2.807194212,
      -0.857420871,
      0.676262502,
      0.310791599,
      0.278379911,
      0.197564679,
      0.210923585,
      0.301673474,
      1.033380465,
      0.843389436,
      0.145511716,
      0.675788067,
      0.466672152,
      0.220880921,
      0.278493318,
      0.376433315,
      0.294158482,
      -0.171689509,
      -0.424423542,
      0.204063122,
      0.356450344,
      0.178899288,
      0.322264182,
      0.055788276,
      -1.959879288,
      1.08380518,
      -1.151096398,
      -0.303395602,
      -0.03579661,
      0.208584277,
      0.268729285,
      -0.187348568,
      -2.371297997,
      2.494484903,
      0.013483512,
      -0.465987109,
      -0.386615447,
      0.209254547,
      -0.073785485,
      -0.499944895,
      -1.138847484,
      1.871480722,
      -0.556202996,
      -1.026863737,
      -0.265055131,
      0.204065273,
      0.146453788,
      0.023491231,
      -0.397003078,
      0.739844067,
      -0.807577344,
      -0.267542998,
      0.000951906,
      0.307494101,
      1.193923616,
      0.682790504,
      -0.35875312,
      -0.446195179,
      0.578697231,
      0.759547532,
      0.163926747,
      0.268526587,
      1.335001328,
      1.028961267,
      -1.087336729,
      -1.315410626,
      0.904906835,
      0.538589298,
      0.16290182,
      -0.052310889,
      -0.127288,
      0.108553444,
      0.5491223,
      -0.541080714,
      0.521737228,
      0.910912348,
      -0.050452329,
      -0.075836506,
      -0.563820663,
      -0.664872634,
      -1.872297566,
      -0.65421478,
      0.821556303,
      0.816545602,
      -0.412727017,
      -0.218603985,
      -0.41053943,
      -0.835823429,
      -0.691041136,
      -0.321345272,
      -0.267661564,
      -0.191595623,
      -0.579136149,
      -0.196796391,
      -0.322125156,
      -1.460796573,
      0.652024278,
      -0.457120773,
      -0.438355786,
      -0.665504659,
      -0.549254518,
      -0.375744799,
      -0.847684328,
      -1.051492723,
      0.503527685,
      -1.269406986,
      -0.423344488,
      -0.630306936,
      -0.194263009,
      -0.366778162,
      0.769549389,
      0.041373949,
      -0.446437903,
      -1.448549135,
      0.661023867,
      -0.1409222,
      -0.139094881,
      0.721979628,
      2.019811768,
      -0.01350939,
