{
 "begin_epoch": 0,
 "begin_batch": 20,
 "end_epoch": 0,
 "end_batch": 39,
 "weights": [
  {
   "epoch": 0,
   "batch": 20,
   "loss": 2.2748876170990835,
   "accuracy": 12.603174603174603,
   "input": [
    [
     0.0,
     0.0,
     0.0,
     0.0,
     0.0,
     0.0,
     0.0,
     0.0,
     0.0,
     0.0,
     0.0,
     0.0,
     0.0,
     0.0,
     0.0,
     0.0,
     0.0,
     0.0,
     0.0,
     0.0,
     0.0,
     0.0,
     0.0,
     0.0,
     0.0,
     0.0,
     0.0,
     0.0
    ],
    [
     0.0,
     0.0,
     0.0,
     0.0,
     0.0,
     0.0,
     0.0,
     0.0,
     0.0,
     0.0,
     0.0,
     0.0,
     0.0,
     0.0,
     0.0,
     0.0,
     0.0,
     0.0,
     0.0,
     0.0,
     0.0,
     0.0,
     0.0,
     0.0,
     0.0,
     0.0,
     0.0,
     0.0
    ],
    [
     0.0,
     0.0,
     0.0,
     0.0,
     0.0,
     0.0,
     0.0,
     0.0,
     0.0,
     0.0,
     0.0,
     0.0,
     0.0,
     0.0,
     0.0,
     0.0,
     0.0,
     0.0,
     0.0,
     0.0,
     0.0,
     0.0,
     0.0,
     0.0,
     0.0,
     0.0,
     0.0,
     0.0
    ],
    [
     0.0,
     0.0,
     0.0,
     0.0,
     0.0,
     0.0,
     0.0,
     0.0,
     0.0,
     0.0,
     0.0,
     0.0,
     0.0,
     0.0,
     0.0,
     0.0,
     0.0,
     0.0,
     0.0,
     0.0,
     0.0,
     0.0,
     0.0,
     0.0,
     0.0,
     0.0,
     0.0,
     0.0
    ],
    [
     0.0,
     0.0,
     0.0,
     0.0,
     0.0,
     0.0,
     0.0,
     0.0,
     0.0,
     0.0,
     0.0,
     0.0,
     0.0,
     0.0,
     0.0,
     0.0,
     0.0,
     0.0,
     0.0,
     0.0,
     0.0,
     0.0,
     0.0,
     0.0,
     0.0,
     0.0,
     0.0,
     0.0
    ],
    [
     0.0,
     0.0,
     0.0,
     0.0,
     0.0,
     0.0,
     0.0,
     0.0,
     0.0,
     0.0,
     0.0,
     0.0,
     0.0,
     0.0,
     0.0,
     0.0,
     0.0,
     0.0,
     0.0,
     0.0,
     0.0,
     0.0,
     0.0,
     0.0,
     0.0,
     0.0,
     0.0,
     0.0
    ],
    [
     0.0,
     0.0,
     0.0,
     0.0,
     0.0,
     0.0,
     0.0,
     0.0,
     0.0,
     0.0,
     0.0,
     0.0,
     0.0,
     0.0,
     0.0,
     0.0,
     0.0,
     0.0,
     0.0,
     0.0,
     0.0,
     0.0,
     0.0,
     0.0,
     0.0,
     0.0,
     0.0,
     0.0
    ],
    [
     0.0,
     0.0,
     0.0,
     0.0,
     0.0,
     0.0,
     0.0,
     0.752941176,
     1.0,
     0.949019608,
     0.066666667,
     0.0,
     0.0,
     0.0,
     0.0,
     0.0,
     0.0,
     0.0,
     0.0,
     0.0,
     0.0,
     0.0,
     0.0,
     0.0,
     0.0,
     0.0,
     0.0,
     0.0
    ],
    [
     0.0,
     0.0,
     0.0,
     0.0,
     0.0,
     0.0,
     0.0,
     0.450980392,
     0.992156863,
     0.992156863,
     0.850980392,
     0.77254902,
     0.77254902,
     0.77254902,
     0.77254902,
     0.77254902,
     0.77254902,
     0.77254902,
     0.380392157,
     0.0,
     0.0,
     0.0,
     0.0,
     0.0,
     0.0,
     0.0,
     0.0,
     0.0
    ],
    [
     0.0,
     0.0,
     0.0,
     0.0,
     0.0,
     0.0,
     0.0,
     0.003921569,
     0.039215686,
     0.231372549,
     0.447058824,
     0.447058824,
     0.447058824,
     0.447058824,
     0.447058824,
     0.447058824,
     0.447058824,
     0.611764706,
     0.91372549,
     0.0,
     0.0,
     0.0,
     0.0,
     0.0,
     0.0,
     0.0,
     0.0,
     0.0
    ],
    [
     0.0,
     0.0,
     0.0,
     0.0,
     0.0,
     0.0,
     0.0,
     0.0,
     0.0,
     0.0,
     0.0,
     0.0,
     0.0,
     0.0,
     0.0,
     0.0,
     0.0,
     0.309803922,
     0.91372549,
     0.0,
     0.0,
     0.0,
     0.0,
     0.0,
     0.0,
     0.0,
     0.0,
     0.0
    ],
    [
     0.0,
     0.0,
     0.0,
     0.0,
     0.0,
     0.0,
     0.0,
     0.0,
     0.0,
     0.0,
     0.0,
     0.0,
     0.0,
     0.0,
     0.0,
     0.0,
     0.015686275,
     0.709803922,
     0.870588235,
     0.0,
     0.0,
     0.0,
     0.0,
     0.0,
     0.0,
     0.0,
     0.0,
     0.0
    ],
    [
     0.0,
     0.0,
     0.0,
     0.0,
     0.0,
     0.0,
     0.0,
     0.0,
     0.0,
     0.0,
     0.0,
     0.0,
     0.0,
     0.0,
     0.0,
     0.0,
     0.243137255,
     0.992156863,
     0.392156863,
     0.0,
     0.0,
     0.0,
     0.0,
     0.0,
     0.0,
     0.0,
     0.0,
     0.0
    ],
    [
     0.0,
     0.0,
     0.0,
     0.0,
     0.0,
     0.0,
     0.0,
     0.0,
     0.0,
     0.0,
     0.0,
     0.0,
     0.0,
     0.0,
     0.0,
     0.0,
     0.529411765,
     0.850980392,
     0.054901961,
     0.0,
     0.0,
     0.0,
     0.0,
     0.0,
     0.0,
     0.0,
     0.0,
     0.0
    ],
    [
     0.0,
     0.0,
     0.0,
     0.0,
     0.0,
     0.0,
     0.0,
     0.0,
     0.0,
     0.0,
     0.0,
     0.0,
     0.0,
     0.0,
     0.0,
     0.0,
     0.62745098,
     0.68627451,
     0.0,
     0.0,
     0.0,
     0.0,
     0.0,
     0.0,
     0.0,
     0.0,
     0.0,
     0.0
    ],
    [
     0.0,
     0.0,
     0.0,
     0.0,
     0.0,
     0.0,
     0.0,
     0.0,
     0.0,
     0.0,
     0.0,
     0.0,
     0.0,
     0.0,
     0.0,
     0.301960784,
     0.984313725,
     0.51372549,
     0.0,
     0.0,
     0.0,
     0.0,
     0.0,
     0.0,
     0.0,
     0.0,
     0.0,
     0.0
    ],
    [
     0.0,
     0.0,
     0.0,
     0.0,
     0.0,
     0.0,
     0.0,
     0.0,
     0.0,
     0.0,
     0.0,
     0.0,
     0.0,
     0.0,
     0.0,
     0.752941176,
     0.835294118,
     0.109803922,
     0.0,
     0.0,
     0.0,
     0.0,
     0.0,
     0.0,
     0.0,
     0.0,
     0.0,
     0.0
    ],
    [
     0.0,
     0.0,
     0.0,
     0.0,
     0.0,
     0.0,
     0.0,
     0.0,
     0.0,
     0.0,
     0.0,
     0.0,
     0.0,
     0.0,
     0.066666667,
     0.847058824,
     0.466666667,
     0.0,
     0.0,
     0.0,
     0.0,
     0.0,
     0.0,
     0.0,
     0.0,
     0.0,
     0.0,
     0.0
    ],
    [
     0.0,
     0.0,
     0.0,
     0.0,
     0.0,
     0.0,
     0.0,
     0.0,
     0.0,
     0.0,
     0.0,
     0.0,
     0.0,
     0.0,
     0.4,
     0.992156863,
     0.231372549,
     0.0,
     0.0,
     0.0,
     0.0,
     0.0,
     0.0,
     0.0,
     0.0,
     0.0,
     0.0,
     0.0
    ],
    [
     0.0,
     0.0,
     0.0,
     0.0,
     0.0,
     0.0,
     0.0,
     0.0,
     0.0,
     0.0,
     0.0,
     0.0,
     0.0,
     0.0,
     0.878431373,
     0.729411765,
     0.015686275,
     0.0,
     0.0,
     0.0,
     0.0,
     0.0,
     0.0,
     0.0,
     0.0,
     0.0,
     0.0,
     0.0
    ],
    [
     0.0,
     0.0,
     0.0,
     0.0,
     0.0,
     0.0,
     0.0,
     0.0,
     0.0,
     0.0,
     0.0,
     0.0,
     0.0,
     0.207843137,
     0.988235294,
     0.266666667,
     0.0,
     0.0,
     0.0,
     0.0,
     0.0,
     0.0,
     0.0,
     0.0,
     0.0,
     0.0,
     0.0,
     0.0
    ],
    [
     0.0,
     0.0,
     0.0,
     0.0,
     0.0,
     0.0,
     0.0,
     0.0,
     0.0,
     0.0,
     0.0,
     0.0,
     0.0,
     0.509803922,
     0.945098039,
     0.168627451,
     0.0,
     0.0,
     0.0,
     0.0,
     0.0,
     0.0,
     0.0,
     0.0,
     0.0,
     0.0,
     0.0,
     0.0
    ],
    [
     0.0,
     0.0,
     0.0,
     0.0,
     0.0,
     0.0,
     0.0,
     0.0,
     0.0,
     0.0,
     0.0,
     0.0,
     0.019607843,
     0.811764706,
     0.796078431,
     0.0,
     0.0,
     0.0,
     0.0,
     0.0,
     0.0,
     0.0,
     0.0,
     0.0,
     0.0,
     0.0,
     0.0,
     0.0
    ],
    [
     0.0,
     0.0,
     0.0,
     0.0,
     0.0,
     0.0,
     0.0,
     0.0,
     0.0,
     0.0,
     0.0,
     0.0,
     0.207843137,
     0.992156863,
     0.42745098,
     0.0,
     0.0,
     0.0,
     0.0,
     0.0,
     0.0,
     0.0,
     0.0,
     0.0,
     0.0,
     0.0,
     0.0,
     0.0
    ],
    [
     0.0,
     0.0,
     0.0,
     0.0,
     0.0,
     0.0,
     0.0,
     0.0,
     0.0,
     0.0,
     0.0,
     0.0,
     0.207843137,
     0.992156863,
     0.407843137,
     0.0,
     0.0,
     0.0,
     0.0,
     0.0,
     0.0,
     0.0,
     0.0,
     0.0,
     0.0,
     0.0,
     0.0,
     0.0
    ],
    [
     0.0,
     0.0,
     0.0,
     0.0,
     0.0,
     0.0,
     0.0,
     0.0,
     0.0,
     0.0,
     0.0,
     0.0,
     0.207843137,
     0.992156863,
     0.019607843,
     0.0,
     0.0,
     0.0,
     0.0,
     0.0,
     0.0,
     0.0,
     0.0,
     0.0,
     0.0,
     0.0,
     0.0,
     0.0
    ],
    [
     0.0,
     0.0,
     0.0,
     0.0,
     0.0,
     0.0,
     0.0,
     0.0,
     0.0,
     0.0,
     0.0,
     0.0,
     0.121568627,
     0.91372549,
     0.184313725,
     0.0,
     0.0,
     0.0,
     0.0,
     0.0,
     0.0,
     0.0,
     0.0,
     0.0,
     0.0,
     0.0,
     0.0,
     0.0
    ],
    [
     0.0,
     0.0,
     0.0,
     0.0,
     0.0,
     0.0,
     0.0,
     0.0,
     0.0,
     0.0,
     0.0,
     0.0,
     0.0,
     0.0,
     0.0,
     0.0,
     0.0,
     0.0,
     0.0,
     0.0,
     0.0,
     0.0,
     0.0,
     0.0,
     0.0,
     0.0,
     0.0,
     0.0
    ]
   ],
   "output": 0,
   "conv_layer": {
    "w": [
     [
      [
       [
        -0.002785887,
        0.10477233,
        -0.166593259,
        -0.148882498,
        -0.079160623
       ],
       [
        0.052176232,
        -0.006969562,
        0.155343586,
        -0.019821545,
        0.050757928
       ],
       [
        -0.062470487,
        -0.042719813,
        -0.194206593,
        -0.134241494,
        -0.083877554
       ],
       [
        0.004976459,
        0.075314689,
        0.116915326,
        -0.136701396,
        -0.08724347
       ],
       [
        0.070478749,
        0.162801227,
        -0.043790886,
        0.148240481,
        -0.032102426
       ]
      ]
     ],
     [
      [
       [
        0.023741777,
        0.183578309,
        -0.184251403,
        -0.124880999,
        -0.048732529
       ],
       [
        -0.075934128,
        0.174549193,
        -0.12810207,
        -0.08999651,
        -0.136735885
       ],
       [
        -0.186226296,
        -0.115460269,
        0.174667981,
        0.092453974,
        0.099816502
       ],
       [
        0.00981111,
        -0.101202505,
        0.037045188,
        -0.18419808,
        -0.143137271
       ],
       [
        -0.104299781,
        0.126747775,
        0.117908303,
        -0.088866997,
        -0.007609417
       ]
      ]
     ],
     [
      [
       [
        0.126447666,
        0.199389372,
        0.081869441,
        0.029172561,
        0.133477683
       ],
       [
        -0.120325575,
        0.03621661,
        -0.154489015,
        -0.138793839,
        -0.105745092
       ],
       [
        0.088349606,
        0.07991999,
        -0.117864574,
        0.05885934,
        0.105152219
       ],
       [
        -0.025977629,
        0.00787267,
        0.046089665,
        0.121561395,
        0.187330091
       ],
       [
        -0.153488392,
        -0.072469429,
        0.079546159,
        0.165556828,
        0.172139833
       ]
      ]
     ],
     [
      [
       [
        0.179318293,
        0.043540453,
        -0.170132496,
        0.021866507,
        -0.122319772
       ],
       [
        -0.185051311,
        0.180571413,
        0.155304201,
        -0.196526049,
        0.040202786
       ],
       [
        -0.032882176,
        -0.03049804,
        -0.088741179,
        0.079499867,
        -0.115680083
       ],
       [
        0.07433415,
        0.10393403,
        0.146412476,
        0.077374116,
        -0.195614986
       ],
       [
        -0.129704357,
        0.101618931,
        0.044297562,
        -0.153808873,
        -0.112982725
       ]
      ]
     ],
     [
      [
       [
        0.183746374,
        0.134554929,
        -0.084671656,
        -0.047078962,
        -0.186938419
       ],
       [
        -0.007976481,
        -0.150867178,
        -0.152619048,
        -0.007242461,
        0.034607639
       ],
       [
        -0.084295419,
        0.118581155,
        -0.12029845,
        0.185825105,
        0.142467747
       ],
       [
        -0.169583321,
        -0.049859159,
        0.010616721,
        0.033192942,
        0.052054976
       ],
       [
        0.077546458,
        0.012819754,
        -0.094545891,
        0.099108734,
        -0.187471259
       ]
      ]
     ]
    ],
    "b": [
     -0.118945471,
     -0.049079333,
     -0.102310888,
     -0.069690862,
     -0.16479182
    ]
   },
   "dense_layer": {
    "w": [
     [
      -0.01156364,
      0.012137796,
      -0.036507266,
      -0.002733276,
      0.041116872,
      -0.003932509,
      0.003049323,
      -0.004457306,
      0.011610643,
      0.035677694,
      0.052617525,
      0.034931926,
      0.052093425,
      -0.00371701,
      -0.047725859,
      -0.024815838,
      0.038407919,
      -7.77e-07,
      -0.027993685,
      -0.043837432,
      -0.053939675,
      -0.05025417,
      -0.009278967,
      0.033941828,
      0.030529173,
      -0.053991676,
      0.034910566,
      -0.044449018,
      -0.013163616,
      -0.026634089,
      -0.010224243,
      -0.007354426,
      -0.05004114,
      -0.048469379,
      -0.005600473,
      0.002744568,
      -0.025658988,
      0.017709809,
      -0.050771556,
      -0.001179895,
      0.049176785,
      -0.022803888,
      0.05568205,
      0.024422357,
      -0.049749333,
      0.03299223,
      -0.006622791,
      -0.023734193,
      0.044973684,
      -0.046074551,
      0.007504953,
      -0.010334783,
      0.039175874,
      0.014449693,
      0.027335362,
      0.020280653,
      -0.013099226,
      -0.011500084,
      -0.046056951,
      0.030214519,
      0.044087648,
      0.03837965,
      -0.039046048,
      0.002758068,
      -0.039264478,
      -0.030656918,
      -0.032586378,
      0.019087319,
      -0.033002185,
      -0.000852362,
      0.002619545,
      0.036068733,
      -0.042123924,
      -0.038256647,
      -0.032509168,
      0.038675192,
      -0.021337134,
      0.04550142,
      0.020297996,
      0.007164478,
      -0.000263337,
      -0.01102776,
      0.006111699,
      -0.01432336,
      -0.001377637,
      0.005034889,
      -0.0434025,
      -0.028933646,
      0.045255721,
      -0.046167746,
      -0.005418206,
      0.056038478,
      0.022424995,
      0.001101909,
      -0.048867129,
      0.028546219,
      -0.039845716,
      -0.017925277,
      -0.019049226,
      -0.005636824,
      0.003369358,
      0.045114901,
      0.005102061,
      0.05059665,
      0.034042975,
      -0.037920532,
      0.025488046,
      -0.037370839,
      -0.02278468,
      0.014274406,
      0.017557738,
      0.042427715,
      -0.017957366,
      -0.001299381,
      0.027765607,
      -0.055216045,
      0.039070414,
      -0.047022949,
      0.001666035,
      -0.009115318,
      -0.029311756,
      0.007483807,
      0.046331426,
      -0.016296296,
      -0.032990431,
      -0.020051651,
      -0.055048496,
      0.025314601,
      -0.026747264,
      -0.037836216,
      -0.032026544,
      0.034084816,
      0.031629941,
      0.044498996,
      0.020601686,
      -0.01853003,
      -0.015946759,
      0.016260967,
      0.047045016,
      0.016163695,
      -0.026100984,
      -0.022825451,
      -0.049393326,
      0.012133726,
      -0.030415592,
      -0.046475423,
      0.051189384,
      -0.038024687,
      -0.010203278,
      0.019346132,
      0.00942602,
      -0.036780216,
      -0.041301003,
      0.05030433,
      0.007781146,
      0.03920968,
      -0.026533941,
      0.018932107,
      -0.005475195,
      -0.000253927,
      -0.027783203,
      0.025281444,
      0.014501993,
      -0.010391152,
      -0.019183832,
      -0.031671223,
      0.044198364,
      -0.038631748,
      0.028182738,
      -0.011348581,
      -0.024660728,
      0.005381762,
      -0.031641537,
      0.014653647,
      0.014458255,
      -0.038698693,
      0.01144538,
      0.029893191,
      0.026862554,
      -0.007177737,
      -0.046890521,
      -0.007798778,
      0.021749472,
      -0.019038735,
      0.021845883,
      0.03812631,
      -0.028634631,
      0.000508417,
      0.023384288,
      0.005347165,
      0.005451743,
      0.00716627,
      -0.043749029,
      0.004595598,
      0.038817063,
      0.05039428,
      0.032609903,
      0.007593298,
      0.026574784,
      -0.027081193,
      -0.046110264,
      -0.047910823,
      0.055292534,
      0.034503399,
      -0.040080803,
      0.020744048,
      0.043634082,
      0.056366711,
      0.049105039,
      0.043162774,
      -0.013557418,
      -0.019526026,
      0.045262036,
      0.028416212,
      -0.030571203,
      0.052783552,
      0.027098476,
      0.030261337,
      -0.033612571,
      0.017648944,
      -0.019189761,
      0.040039596,
      -0.007236566,
      0.025714667,
      0.009694307,
      0.024387512,
      -0.015684943,
      0.029098609,
      -0.040315178,
      0.008786222,
      -0.036683279,
      -0.052282026,
      -0.045235347,
      0.044568073,
      0.033675851,
      0.053115877,
      0.042275164,
      -0.052983416,
      -0.037653692,
      -0.007529286,
      -0.036260352,
      0.038408833,
      -0.041006477,
      -0.027358867,
      -0.055512643,
      -0.032784202,
      0.046669183,
      0.046519732,
      0.040214627,
      0.043351125,
      0.049874044,
      -0.014464636,
      0.024282448,
      0.050086444,
      0.01894952,
      0.056096252,
      0.029449074,
      0.035085357,
      -0.01931372,
      0.027200576,
      0.006872802,
      -0.012816271,
      -0.030868062,
      -0.03084484,
      -0.042716284,
      0.037508242,
      0.040085611,
      -0.005757436,
      -0.031882656,
      0.042762013,
      0.035592737,
      0.004781262,
      -0.02612248,
      0.05200785,
      0.023340273,
      -0.042863878,
      0.052785551,
      0.042100348,
      -0.020548918,
      0.031613735,
      -0.03092815,
      -0.007368307,
      0.047273198,
      0.002322672,
      -0.039316783,
      -0.019155914,
      -0.016103214,
      -0.010375332,
      0.006519653,
      0.052014985,
      0.002200603,
      -0.034180727,
      0.002771312,
      0.026349785,
      0.026986552,
      -0.049375641,
      -0.009203898,
      -0.041837585,
      -0.023919068,
      0.020238871,
      -0.039269858,
      0.020773674,
      0.048256121,
      0.006025896,
      -0.036925686,
      -0.019607248,
      0.013576398,
      -0.042503998,
      0.02767416,
      -0.050224451,
      -0.051380133,
      -0.052723876,
      -0.010942209,
      0.037394263,
      -0.05286078,
      0.047020852,
      -0.021673019,
      0.017867747,
      0.003718953,
      -0.04993811
     ],
     [
      0.046488204,
      0.030036186,
      0.054821335,
      0.027041704,
      -0.036837385,
      0.047205096,
      0.002737738,
      0.026247547,
      -0.044745705,
      -0.016301569,
      -0.055809468,
      -0.023790488,
      0.011663686,
      -0.044518981,
      0.015399745,
      0.02891343,
      0.007930831,
      -0.037064056,
      -0.043329903,
      -0.018892111,
      0.026312579,
      0.0557008,
      0.029332904,
      -0.007418621,
      0.019778249,
      -0.054332343,
      -0.048398759,
      0.021958735,
      -0.029566501,
      0.026571801,
      -0.042580516,
      -0.028891919,
      -0.045911551,
      0.029576695,
      -0.006259338,
      0.039258666,
      0.03839626,
      0.030058255,
      -0.001223207,
      -0.018429116,
      -0.012040929,
      0.007499768,
      0.026261946,
      -0.041216567,
      0.0503262,
      -0.007187549,
      -0.048888543,
      -0.03097722,
      0.049645778,
      0.051557021,
      -0.052914348,
      0.039139992,
      0.030751957,
      0.032606928,
      0.04624879,
      -0.03040314,
      0.017805181,
      0.023138474,
      -0.015992019,
      0.019922423,
      -0.015403137,
      0.034098218,
      -0.015832702,
      -0.020810948,
      0.014132874,
      0.019838489,
      -0.027496602,
      0.00470052,
      0.033069057,
      -0.004963187,
      0.017003114,
      -0.013551706,
      0.019636637,
      -0.040489371,
      -0.032786385,
      -0.027897771,
      0.0531809,
      -0.014936851,
      -0.000647437,
      -0.027202013,
      0.055878152,
      0.055038811,
      -0.04091805,
      -0.044355245,
      -0.041962164,
      -0.000768283,
      -0.014402154,
      -0.036768581,
      -0.019950598,
      0.011292261,
      -0.027642084,
      0.011367915,
      -0.013161083,
      -0.026015571,
      0.007478384,
      0.045654044,
      -0.03771601,
      0.003389615,
      -0.019315168,
      0.052497075,
      -0.05126898,
      -0.052417815,
      0.054794092,
      -0.035595116,
      0.010813946,
      -0.004104876,
      -0.011220282,
      -0.014652565,
      0.037702718,
      0.003425006,
      -0.054596509,
      -0.03321725,
      -0.018928437,
      0.028680972,
      -0.036555619,
      0.052400494,
      -0.010487426,
      -0.009944722,
      0.043218596,
      0.027864727,
      0.047473788,
      0.032414689,
      -0.016745496,
      -0.035598592,
      -0.003025868,
      0.045898939,
      -0.019197982,
      -0.051914161,
      0.022811823,
      0.052865164,
      -0.019296195,
      -0.046668614,
      -0.047782805,
      0.014639727,
      -0.004692294,
      -0.028239597,
      0.010274557,
      0.015814919,
      0.034666002,
      0.040906117,
      -0.007921557,
      -0.054269222,
      -0.052793435,
      0.051932418,
      0.023139791,
      0.016724409,
      -0.059110713,
      0.054226137,
      0.050920589,
      0.042073983,
      -0.050653314,
      -0.022099875,
      -0.040313161,
      0.04438057,
      -0.032774596,
      -0.0235537,
      0.024014471,
      -0.033685717,
      -0.032251889,
      -0.006129496,
      -0.00775637,
      -0.05121317,
      0.042900741,
      -0.022846292,
      0.012542798,
      0.040498786,
      0.022889416,
      0.006871305,
      0.045007637,
      0.00211084,
      -0.027127211,
      0.051991739,
      0.005897453,
      -0.063038164,
      -0.020319558,
      -0.039288658,
      0.047571021,
      -0.012350413,
      -0.052209753,
      -0.005487371,
      0.031738679,
      0.009036791,
      0.014387515,
      0.004338274,
      0.020497354,
      -0.01498567,
      -0.024402502,
      -0.054214797,
      -0.044280636,
      0.02134949,
      -0.034564431,
      0.007799405,
      0.017926573,
      0.004033287,
      -0.036269031,
      0.053582906,
      -0.030982445,
      0.047176974,
      -0.044348165,
      -0.013501259,
      0.030506665,
      -0.0227315,
      0.046832465,
      -0.039194428,
      -0.044556552,
      -0.024213334,
      0.007667688,
      0.050911733,
      -0.026548316,
      0.020385325,
      -0.014479391,
      -0.014616169,
      0.044540003,
      -0.044157742,
      0.003138679,
      0.051582629,
      -0.007530638,
      0.0439302,
      -0.017875536,
      0.040609159,
      -0.049314689,
      -0.009313564,
      -0.012592434,
      0.016887789,
      0.02209127,
      0.043359497,
      -0.009095665,
      -0.004552058,
      0.042551572,
      -0.016972931,
      0.045746553,
      -0.038331156,
      -0.005843904,
      -0.002703328,
      0.023652958,
      0.038427024,
      -0.005527331,
      -0.048524597,
      0.024959405,
      0.01583333,
      0.022623542,
      -0.03422917,
      0.035467146,
      0.054356465,
      0.007433633,
      -0.053901,
      0.037416236,
      -0.042036113,
      0.012946761,
      0.008201209,
      -0.026134159,
      0.020364859,
      -0.049393415,
      0.011525391,
      -0.036310838,
      -0.006207621,
      0.007369368,
      0.047673702,
      -0.026845688,
      0.036065264,
      -0.006450866,
      -0.025809613,
      -0.048461219,
      -0.051209828,
      0.054569525,
      -0.014833777,
      0.000897197,
      0.014613261,
      0.038874102,
      0.047890103,
      0.045306486,
      -0.041406589,
      -0.009207422,
      -0.034484298,
      -0.034339566,
      0.012408883,
      0.050739617,
      -0.045687894,
      0.033859181,
      -0.029461703,
      -0.010993277,
      0.043186519,
      -0.014276633,
      0.004180659,
      -0.042402266,
      0.048076084,
      -0.008139522,
      -0.041662983,
      0.016178521,
      -0.040845853,
      -0.045525841,
      0.002114656,
      0.043283471,
      -0.015108739,
      0.024613544,
      0.047501538,
      0.036755411,
      -0.029911011,
      -0.006168692,
      -0.019448181,
      -0.045149857,
      -0.000536798,
      0.040395557,
      0.046351305,
      0.004989957,
      0.012482745,
      -0.024755579,
      0.040560886,
      -0.023123722,
      -0.040709165,
      0.006642674,
      0.032832765,
      -0.050299446,
      0.050543311,
      0.019852666,
      -0.038796269,
      -0.011828788,
      0.047146835,
      -0.043966452,
      -0.016483807
     ],
     [
      0.018368957,
      -0.048765912,
      0.031694318,
      0.03111973,
      0.037204971,
      -0.033521656,
      0.056381076,
      -0.033354618,
      0.055781952,
      -0.054047893,
      -0.051237008,
      0.032108743,
      0.003897164,
      0.002926272,
      -0.030474966,
      -0.023964866,
      -0.016321143,
      -0.054544543,
      0.002569153,
      0.008896768,
      -0.001016097,
      0.018021895,
      0.053731562,
      0.014364494,
      -0.020382325,
      -0.022457393,
      -0.03481469,
      -0.038251655,
      -0.009548632,
      -0.010603031,
      0.024814289,
      -0.02440556,
      0.044627249,
      -0.038393816,
      0.0015253,
      0.05185282,
      0.056796441,
      -0.031148619,
      0.011258751,
      0.007718101,
      -0.026350403,
      -0.019880043,
      0.014607061,
      -0.03971532,
      0.008439186,
      0.0251405,
      -0.020097619,
      0.048229683,
      -0.003844328,
      0.023838743,
      0.053871298,
      -0.018142527,
      0.028931525,
      -0.017363274,
      -0.00759688,
      -0.008428938,
      -0.000330328,
      -0.021177246,
      0.013670142,
      0.002654269,
      0.034946507,
      -0.012016284,
      0.005796818,
      -0.020428336,
      -0.046808487,
      0.022618458,
      0.00724955,
      -0.022468941,
      -0.019022699,
      0.014555562,
      -0.010203818,
      0.036408617,
      0.003165211,
      0.020949184,
      0.023421055,
      -0.015884848,
      0.022109235,
      0.040872857,
      0.002759809,
      0.010773499,
      0.002059467,
      0.03878244,
      -0.02296651,
      -0.028565972,
      0.025178793,
      -0.048253208,
      0.001232905,
      -0.025951624,
      0.036947368,
      -0.051467703,
      0.03558042,
      0.056884705,
      0.011518914,
      -0.004158977,
      0.0549638,
      -0.024003256,
      -0.004448908,
      -0.023798099,
      -0.007135286,
      0.011729058,
      0.006545177,
      -0.01101149,
      -0.055585432,
      0.003239707,
      -0.001752202,
      0.007766027,
      0.04058442,
      0.051415218,
      -0.035168346,
      -0.004309163,
      -0.022783222,
      -0.051185302,
      -0.040822819,
      0.051165003,
      0.031338789,
      0.029998818,
      0.031431594,
      -0.044952623,
      0.005890547,
      0.052872382,
      -0.031190985,
      0.049709246,
      0.015497773,
      0.040350539,
      -0.023990379,
      0.025355181,
      -0.049007813,
      -0.002999828,
      0.019047771,
      0.019726944,
      0.051987529,
      0.059913468,
      0.054281418,
      0.039108803,
      0.039051196,
      -0.007342389,
      -0.042968635,
      -0.019509356,
      -0.005900379,
      -0.030205745,
      0.030564024,
      0.022276506,
      0.008488828,
      0.013048513,
      0.048674737,
      0.017196375,
      -0.053307668,
      -0.042855838,
      0.02569809,
      0.009701047,
      0.026409545,
      -0.05644608,
      -0.052203229,
      0.030670055,
      0.031642313,
      -0.053293326,
      0.021134508,
      -0.044021581,
      0.041580653,
      0.017190695,
      0.056705394,
      -0.051754047,
      -0.05155914,
      0.038675332,
      0.049768651,
      0.03448832,
      0.038612868,
      -0.046776016,
      0.044277102,
      -0.045976412,
      0.016667535,
      -0.03496095,
      -0.020691448,
      0.014046478,
      -0.018719742,
      -0.007565307,
      -0.050429507,
      -0.048219254,
      0.023503157,
      -0.024974378,
      -0.033725843,
      -0.018963785,
      -0.042127958,
      -0.042465037,
      0.034112311,
      0.02983877,
      0.007982988,
      -0.032083426,
      0.016456403,
      0.002305261,
      -0.038175448,
      0.013220582,
      0.050909909,
      -0.055067727,
      -0.055843645,
      0.006822641,
      0.042294265,
      -0.033365781,
      0.01265195,
      0.039160115,
      0.017251349,
      0.011979107,
      0.055338644,
      0.035798265,
      -0.031687617,
      0.006288235,
      0.029642006,
      0.04887783,
      -0.055565417,
      0.030454314,
      -0.016255901,
      -0.054875225,
      0.012228685,
      -0.028866863,
      0.009061773,
      -0.036853225,
      -0.04199198,
      -0.004352174,
      -0.019125651,
      0.032278129,
      0.004323021,
      0.044151556,
      0.010389382,
      -0.018557024,
      0.037917324,
      0.003256051,
      0.009648491,
      -0.019521369,
      -0.000930455,
      -0.01136249,
      -0.005276571,
      -0.043227286,
      -0.000605555,
      -0.047380041,
      -0.012999985,
      0.03190082,
      -0.040080962,
      -0.038548332,
      -0.012806929,
      -0.013970743,
      0.009261342,
      0.008740093,
      0.029005798,
      -0.038087149,
      -0.004804741,
      0.030688796,
      0.049865537,
      -0.00252916,
      -0.032342637,
      0.016153098,
      0.032746734,
      -0.034439703,
      -0.033454385,
      0.023735626,
      -0.003339744,
      -0.052057986,
      -0.032188868,
      0.023171393,
      -0.017817503,
      0.039424657,
      0.044308649,
      0.007960982,
      -0.004397617,
      -0.017787951,
      -0.002526225,
      0.011347139,
      -0.041690723,
      -0.013396025,
      -0.046859715,
      0.034012727,
      -0.036077234,
      0.050822422,
      -0.014429952,
      -0.032410867,
      0.026340891,
      0.008269258,
      0.03880404,
      0.023111299,
      -0.054347696,
      0.035027109,
      -0.01056128,
      -0.025368524,
      0.034806784,
      0.040230861,
      -0.049498283,
      -0.00554123,
      0.046126358,
      0.021616977,
      0.04723861,
      -0.018053873,
      -0.02996395,
      0.047388956,
      0.022664158,
      0.053757857,
      -0.022454998,
      -0.035695361,
      -0.005688871,
      -0.05052198,
      0.022451983,
      0.040877368,
      0.012814921,
      -0.005372085,
      0.027846053,
      -0.035197135,
      0.05550026,
      -0.05465936,
      -0.053349549,
      -0.012738084,
      0.046249168,
      0.00571288,
      0.02198426,
      -0.039532331,
      0.020401909,
      -0.006373834,
      0.023002987,
      0.040183065,
      0.023398008,
      -0.005964363,
      -0.002734407,
      -0.034028343
     ],
     [
      -0.019776723,
      0.037156045,
      -0.020488885,
      0.037454575,
      -0.01974196,
      -0.011717414,
      0.00133461,
      -0.05133236,
      -0.000167134,
      -0.005559791,
      -0.005566632,
      -0.012601736,
      0.04321177,
      0.041515269,
      -0.038251616,
      0.025551112,
      -0.043421533,
      -0.047237393,
      0.017422258,
      0.001122369,
      -0.025465268,
      -0.053190877,
      -0.022247705,
      0.018102462,
      -0.051306872,
      -0.053505133,
      0.007080575,
      -0.041799776,
      -0.049057189,
      -0.019177519,
      -0.00847792,
      -0.051248061,
      -0.03668413,
      0.005000721,
      -0.053297305,
      -0.009688722,
      -0.037641881,
      -0.037528528,
      0.023606906,
      -0.043202873,
      -0.041405703,
      0.034396261,
      0.012883968,
      0.052787711,
      -0.015092955,
      -0.026849783,
      -0.003190432,
      0.000433716,
      0.043025349,
      -0.054030504,
      -0.001088562,
      0.027196958,
      -0.030685539,
      -0.028555217,
      0.027868178,
      -0.053275252,
      0.013583771,
      -0.043091248,
      0.027932711,
      -0.047836969,
      0.034061519,
      -0.052371151,
      -0.046413373,
      0.00117049,
      0.044226128,
      -0.047653076,
      -0.024500038,
      0.049759108,
      -0.009066882,
      0.023190866,
      -0.053762955,
      -0.017554796,
      -0.028213417,
      0.04715562,
      0.022523949,
      -0.042167743,
      0.008028044,
      -0.000841885,
      -0.023297542,
      -0.031940574,
      -0.018348558,
      0.044346898,
      -0.039271825,
      -0.038926428,
      -0.01693936,
      0.001145779,
      0.015166501,
      0.001613995,
      -0.013245933,
      -0.033028741,
      -0.008676497,
      -0.023026389,
      0.043418778,
      -0.053568755,
      -0.035198282,
      -0.04557261,
      -0.009907549,
      0.044797818,
      0.049699625,
      -0.048267384,
      -0.001940125,
      0.034578171,
      0.025359067,
      0.045722367,
      -0.001153231,
      -0.036076655,
      0.03901102,
      -0.016664647,
      0.030024188,
      -0.013309188,
      0.024473423,
      0.050245149,
      0.051973198,
      -0.05059291,
      -0.036399367,
      -0.022730723,
      -0.036737133,
      0.053163328,
      -0.004495243,
      -0.03702799,
      -0.024705953,
      -0.030802212,
      0.022642938,
      -0.049014312,
      -0.052267843,
      -0.054351054,
      0.02447425,
      0.027736712,
      -0.033818928,
      0.017037318,
      0.045670688,
      0.010461981,
      -0.011482643,
      0.003380447,
      -0.006587235,
      0.028332465,
      -0.036965053,
      0.030574108,
      0.031162957,
      -0.034519201,
      0.046303602,
      0.053653282,
      -0.023811981,
      -0.015905306,
      0.027699539,
      -0.046972262,
      0.019536857,
      0.015075971,
      0.037181383,
      -0.050597044,
      -0.048364779,
      0.024742522,
      0.018945194,
      -0.056215928,
      -0.031016477,
      -0.051154385,
      -0.040806516,
      -0.025090973,
      0.044272214,
      -0.011718311,
      0.030931911,
      0.047974652,
      0.019690022,
      -0.054591952,
      0.028590467,
      0.024007604,
      0.04173853,
      -0.055870915,
      0.035803694,
      0.044724205,
      -0.05724116,
      4.6138e-05,
      0.046605685,
      -0.038735159,
      0.018838224,
      0.024361777,
      0.017261093,
      0.058818431,
      0.046400911,
      0.046594293,
      -0.007270965,
      0.04772056,
      -0.05064837,
      -0.030056587,
      -0.010746461,
      -0.014969871,
      0.052537073,
      0.026194751,
      0.036148102,
      0.039370174,
      -0.040900322,
      -0.006283997,
      0.008409793,
      0.014739481,
      0.02883612,
      -0.022158779,
      -0.016701645,
      0.046823241,
      -0.015135147,
      -0.038831661,
      0.03812603,
      0.037938276,
      -0.017418563,
      -0.011518069,
      -0.040941956,
      -0.045774795,
      0.020805859,
      -0.024360878,
      0.044742818,
      -0.044293228,
      -0.007824486,
      -0.000352332,
      0.028764472,
      0.046472683,
      0.03716561,
      0.024021079,
      -0.025357466,
      -0.039235088,
      -0.051174421,
      0.000918347,
      0.053561486,
      -0.009893472,
      -0.002943712,
      -0.041347034,
      0.01755815,
      0.036276982,
      -0.055971853,
      -0.040199418,
      0.040365854,
      0.015410676,
      -0.002260271,
      0.009383057,
      -0.008015535,
      -0.037903772,
      -0.051650624,
      0.036608173,
      -0.008614527,
      -0.019640016,
      -0.012323941,
      -0.03069725,
      -0.016475591,
      -0.047463378,
      0.042122888,
      0.022317042,
      -0.029701592,
      -0.019235794,
      0.025869981,
      -0.020632643,
      0.014918936,
      0.015690203,
      -0.035033755,
      0.013685986,
      0.003044156,
      0.049222682,
      -0.019589892,
      -0.014191941,
      0.048787559,
      -0.044859335,
      0.00492009,
      0.05432658,
      -0.024812389,
      0.053934336,
      0.050101102,
      0.052488212,
      -0.004316866,
      0.052996075,
      -0.022480581,
      -0.019147322,
      0.020839606,
      0.011553502,
      0.030553722,
      0.053374113,
      -0.034334306,
      0.030042166,
      0.018115718,
      0.029834078,
      0.027553293,
      -0.020370262,
      -0.04356933,
      0.044968125,
      -0.031455237,
      0.036053679,
      -0.050680536,
      -0.008486848,
      -0.000190748,
      0.010261672,
      0.005732242,
      0.017897465,
      -0.005909942,
      0.01413723,
      0.056055432,
      -0.036946182,
      -0.002232625,
      -0.020640139,
      0.048725087,
      0.047846806,
      -0.000643297,
      -0.018935411,
      -0.034850077,
      0.039654835,
      -0.003731534,
      0.052454042,
      0.032068102,
      0.048940226,
      0.045729296,
      -0.034422057,
      0.017178152,
      -0.022823203,
      0.028241871,
      -0.004740813,
      0.006410993,
      -0.038115028,
      -0.048977452,
      0.022267432,
      0.013851077,
      0.005264586,
      0.038587685,
      -0.021575008,
      0.021281437,
      -0.030293359
     ],
     [
      0.011347356,
      -0.012782312,
      0.039486889,
      0.04851838,
      0.046606037,
      0.00100699,
      0.032882032,
      -0.055586053,
      -0.033086976,
      0.009982666,
      0.001561872,
      -0.042010808,
      -0.025437031,
      -0.026938007,
      -0.055589509,
      0.005341353,
      0.037824289,
      0.022548683,
      -0.02509022,
      -0.049049502,
      -0.045407303,
      0.00123085,
      0.038347256,
      -0.023081479,
      -0.030682544,
      -0.030339191,
      -0.002609267,
      -0.049799984,
      -0.049048775,
      0.055892547,
      -0.025414472,
      -0.010175833,
      -0.015276522,
      -0.05051131,
      -0.010237638,
      0.01846166,
      -0.023662801,
      -0.00210489,
      0.000352073,
      -0.056021334,
      0.040337323,
      0.044143969,
      0.035882374,
      -0.021163465,
      0.026991734,
      -0.052107844,
      -0.0139535,
      -0.011798732,
      -0.01995133,
      0.023550015,
      -0.025966969,
      -0.007844581,
      -0.016689274,
      -0.051285839,
      -0.008958325,
      -0.047613725,
      0.032355456,
      0.029770037,
      0.052470951,
      -0.018789696,
      0.002753262,
      0.010910653,
      0.055721691,
      0.051071466,
      -0.029035306,
      -0.047543674,
      -0.050033556,
      -0.026595677,
      0.046625226,
      0.018989541,
      0.054323921,
      0.041647387,
      0.000683929,
      -0.034618013,
      0.055500451,
      0.046611307,
      0.02540902,
      -0.029085223,
      0.044498634,
      0.005092593,
      0.036837681,
      0.023036403,
      0.030056628,
      -0.047589591,
      -0.030182427,
      0.033543356,
      -0.012380055,
      -0.048801265,
      0.050685999,
      -0.002086969,
      0.044437924,
      -0.043307816,
      0.018963836,
      -0.021847644,
      -0.023718913,
      -0.011721551,
      -0.020835671,
      0.029273474,
      -0.012545002,
      0.041198482,
      0.010070526,
      -0.010432445,
      -0.032277022,
      -0.051247161,
      -0.016401636,
      -0.051983195,
      -0.010374505,
      0.000921181,
      -0.004703621,
      -0.027397804,
      0.039274931,
      0.031527241,
      -0.013818472,
      -0.021676307,
      0.036112647,
      0.049336662,
      -0.05094212,
      -0.01196305,
      -0.005513822,
      -0.020495061,
      0.047618685,
      -0.008281693,
      0.047422911,
      0.000276898,
      -0.005985143,
      -0.032480529,
      -0.018473358,
      0.017961942,
      0.024631347,
      -0.001889159,
      0.052359895,
      -0.042432755,
      0.018636392,
      0.050552632,
      -0.008827291,
      0.044370282,
      0.000973684,
      -0.04048112,
      -0.029788183,
      0.016382204,
      -0.026391808,
      0.014555423,
      0.055596992,
      0.019093483,
      -0.004919982,
      0.018001763,
      -0.029881937,
      -0.050499682,
      -0.041816065,
      -0.046148411,
      0.011082503,
      0.011100843,
      -0.022185281,
      -0.048108254,
      0.034536627,
      -0.031330424,
      -0.007219209,
      -0.045189971,
      -0.031496569,
      0.023263918,
      -0.050732558,
      -0.027534985,
      0.047580863,
      -0.024610237,
      -0.019658387,
      -0.014356127,
      0.0244573,
      -0.036840858,
      0.004289838,
      0.020428639,
      -0.00520401,
      0.012957399,
      -0.039287915,
      0.025883268,
      0.021229709,
      -0.007313516,
      -0.047683735,
      0.018193553,
      0.031612231,
      -0.011427456,
      0.027421702,
      0.021551036,
      -0.023374522,
      -0.004512569,
      0.055008882,
      -0.00158103,
      -0.047607262,
      -0.006487123,
      0.027317372,
      -0.01805976,
      -0.029239652,
      0.045923496,
      0.029425487,
      -0.009522227,
      0.003220852,
      -0.005406371,
      0.012630023,
      0.001939509,
      -0.033636428,
      0.01048971,
      0.001286493,
      0.003874311,
      -0.01936483,
      0.016824015,
      -0.045255877,
      0.017267784,
      0.030552412,
      -0.005857638,
      -0.043594427,
      -0.000282756,
      0.002353584,
      -0.046070106,
      -0.039981034,
      0.052352098,
      0.041439355,
      0.03075755,
      0.038515244,
      0.020772627,
      0.033270157,
      0.038019591,
      -0.014765679,
      -0.005805298,
      0.04031634,
      -0.000266495,
      -0.036586457,
      -0.044590728,
      0.03140985,
      0.046552242,
      0.042101435,
      0.010300407,
      0.039271575,
      -0.051532038,
      -0.040367143,
      -0.054040616,
      0.044701801,
      -0.000814089,
      -0.025190697,
      0.020044467,
      -0.020653714,
      -0.036066253,
      0.021489242,
      0.010415609,
      -0.040207466,
      -0.037362705,
      0.02645071,
      0.043790673,
      0.004544989,
      -0.028455097,
      0.02685767,
      0.009654396,
      -0.049284531,
      -0.036881262,
      0.012156178,
      0.035248089,
      -0.017813336,
      0.026961249,
      -0.034968996,
      0.053131404,
      0.039391115,
      0.009968849,
      0.024150919,
      0.018947994,
      -0.033206063,
      -0.000684903,
      0.014605101,
      -0.012839585,
      0.053549704,
      -0.022550164,
      -0.050087046,
      -0.025988161,
      -0.05165304,
      0.045774151,
      -0.025538912,
      -0.03970815,
      -0.005877796,
      -0.037510471,
      -0.029209101,
      0.028099999,
      -0.042216519,
      0.026419064,
      0.040482173,
      0.000134359,
      0.024303579,
      -0.031598497,
      0.043489137,
      0.05323695,
      0.01331882,
      0.051061983,
      -0.055214895,
      -0.00569108,
      0.011627824,
      -0.048055086,
      0.02577419,
      -0.022380601,
      -0.019773296,
      -0.044463118,
      0.022447545,
      -0.041431135,
      -0.011905038,
      0.025556683,
      0.041979494,
      0.012605139,
      -0.019985678,
      -0.024452474,
      0.030634405,
      0.00915852,
      0.046030719,
      0.020401484,
      0.044315092,
      -0.045690177,
      0.043595139,
      -0.026518548,
      -0.015405472,
      -0.000241497,
      -0.011250689,
      0.009959462,
      0.049060415,
      -0.033867768,
      0.016980815,
      -0.045178062
     ],
     [
      0.009227755,
      0.04643344,
      0.037783174,
      0.047666232,
      0.029260565,
      -0.005311215,
      0.015890781,
      -0.021469958,
      0.047858987,
      0.028205719,
      -0.040781772,
      0.048824382,
      -0.000814397,
      -0.004161222,
      -0.015558313,
      -0.012720215,
      0.003258553,
      -0.026814717,
      -0.051614338,
      -0.027732383,
      -0.009491038,
      0.041073933,
      0.038852752,
      -0.032997892,
      -0.001662285,
      -0.015643247,
      -0.030587913,
      -0.00860228,
      -0.016851683,
      0.032134766,
      -0.028767454,
      0.008324036,
      -0.03098295,
      -0.016412216,
      0.043332588,
      -0.027265871,
      -0.002111379,
      0.054330538,
      0.019116781,
      -0.02864037,
      -0.032993184,
      -0.017717984,
      -0.015133964,
      0.026177774,
      -0.012176653,
      0.047800334,
      -0.030302968,
      -0.017293326,
      0.02084108,
      0.045486461,
      0.055332363,
      0.010721961,
      0.002506249,
      -0.024848902,
      0.031764932,
      -0.0320591,
      -0.014216968,
      -0.046256138,
      -0.053270548,
      0.031432671,
      0.003783115,
      0.044846967,
      0.044856175,
      0.029773078,
      0.022564262,
      -0.014335783,
      0.029792414,
      0.026909821,
      0.019015338,
      -0.001858825,
      0.008755324,
      0.000838332,
      -0.040392793,
      0.013145805,
      -0.040811599,
      0.027817964,
      -0.033036212,
      -0.019151479,
      -0.026933254,
      0.044871039,
      -0.039169584,
      0.028831651,
      0.028335578,
      0.039964958,
      0.015163848,
      0.030489864,
      0.044199619,
      0.012048797,
      0.019219491,
      -0.043294163,
      -0.015422194,
      0.004960231,
      0.008383354,
      -0.018133475,
      -0.055208403,
      -0.014296759,
      0.021631975,
      0.049066291,
      -0.050343564,
      0.027997175,
      -0.05073887,
      -0.051668125,
      -0.034729491,
      -0.007411152,
      0.015837388,
      -0.041309391,
      0.044717389,
      0.052819062,
      0.005211305,
      0.046810009,
      -0.025038937,
      -0.022108056,
      -0.006960013,
      0.006841832,
      -0.037820294,
      -0.043912139,
      0.022187242,
      0.016295198,
      0.05456689,
      -0.022787596,
      0.019947973,
      -0.022210321,
      0.028112234,
      -0.002874091,
      0.041544623,
      0.031260965,
      0.046676746,
      0.028869446,
      0.002358858,
      0.047570434,
      -0.034227907,
      0.050487137,
      0.052411457,
      0.053984028,
      -0.023993023,
      -0.02875387,
      0.00325881,
      0.015354379,
      0.026163538,
      0.021371486,
      0.04479583,
      -0.015262746,
      -0.015529736,
      0.02115701,
      0.015180577,
      -0.033788652,
      0.0062665,
      -0.043517318,
      -0.02184392,
      -0.026561941,
      0.049834851,
      -0.047697098,
      -0.033590069,
      -0.055285766,
      0.015223306,
      -0.043965413,
      0.013739385,
      -0.042968007,
      -0.037918466,
      -0.028061657,
      0.007921066,
      0.048887608,
      0.049156447,
      -0.007341982,
      -0.056788152,
      -0.021285982,
      -0.023861848,
      -0.012414203,
      0.022094789,
      0.02791479,
      0.021085005,
      0.01091857,
      -0.024890363,
      -0.00203779,
      0.00629657,
      -0.028945824,
      -0.004359309,
      -0.005651874,
      -0.05318039,
      0.035638517,
      -0.006736259,
      -0.048646023,
      0.044121257,
      -0.030002939,
      0.020196234,
      0.055977472,
      0.002693239,
      0.015370773,
      0.021476153,
      0.042339288,
      -0.016939701,
      -0.031126826,
      -0.00410436,
      0.043995689,
      0.005024459,
      0.038895733,
      -0.001097396,
      0.016441574,
      0.002382021,
      0.002442177,
      -0.052918569,
      -0.048625991,
      0.004581033,
      0.027838684,
      0.036843059,
      0.000332093,
      0.023194995,
      0.025292175,
      -0.047958384,
      -0.048805712,
      -0.043777861,
      0.001431417,
      -0.034996697,
      -0.020125671,
      -0.010025397,
      0.023043534,
      0.013271043,
      0.052147273,
      0.049296947,
      -0.03454195,
      0.000966797,
      0.008469206,
      0.047075622,
      -0.017686813,
      -0.0216401,
      -0.03479235,
      0.04087394,
      -0.014925729,
      -0.020215701,
      0.038684249,
      0.05062693,
      -0.002879675,
      -0.039109863,
      0.046411952,
      -0.018540359,
      -0.025450027,
      -0.039583823,
      -0.025995593,
      -0.043801391,
      -0.032398953,
      -0.050595786,
      -0.010845519,
      0.023042344,
      -0.042506945,
      -0.000851369,
      -0.020752328,
      0.02704992,
      0.048457073,
      -0.007125361,
      -0.027892162,
      -0.042650568,
      -0.032891294,
      0.015724415,
      0.012762811,
      0.030311144,
      -0.008093225,
      0.029348312,
      -0.049303934,
      0.015314863,
      0.054290504,
      -0.055403866,
      -0.028939568,
      0.036347837,
      -0.007838165,
      -0.029317506,
      0.034136415,
      0.003689294,
      0.00227926,
      -0.016722924,
      0.042772697,
      0.032114178,
      0.011242846,
      0.008872479,
      0.02897277,
      0.035167672,
      -0.022432718,
      -0.005786168,
      0.025061586,
      -0.025490183,
      0.054389782,
      -0.037784402,
      0.026552235,
      -0.039061637,
      0.017898021,
      0.039140528,
      0.006954964,
      -0.005759443,
      0.036258858,
      -0.039652602,
      -0.037168736,
      -0.047519697,
      -0.034011439,
      0.002348894,
      -0.025580475,
      0.011646656,
      0.001937762,
      0.047496774,
      -0.023545097,
      -0.015324273,
      0.03717669,
      -0.013807543,
      0.053120416,
      -0.0223615,
      -0.000636609,
      -0.012072678,
      0.027909282,
      0.022641167,
      -0.029353511,
      0.037308649,
      -0.003138951,
      -0.01376142,
      -0.000810322,
      0.039553836,
      0.055695468,
      0.027843068,
      0.010303015,
      0.036947146,
      -0.022609463,
      -0.028496846,
      -0.01554486
     ],
     [
      -0.036236342,
      0.023829562,
      0.004621555,
      -0.020326126,
      -0.007035867,
      -0.002055377,
      0.047103607,
      0.049484819,
      -0.043155598,
      0.020078278,
      0.020504281,
      0.019936375,
      -0.009840549,
      0.010635026,
      0.011174487,
      0.053215188,
      -0.053643616,
      -0.021264162,
      -0.037651754,
      -0.026661765,
      0.012277556,
      0.034888659,
      -0.042243719,
      0.036254215,
      0.046667842,
      -0.027637297,
      0.009400512,
      -0.028334008,
      0.012957078,
      -0.024217253,
      -0.01962237,
      -0.036285679,
      -0.046678046,
      0.044094074,
      -0.007233976,
      0.000669906,
      -0.027758879,
      0.037820906,
      -0.030171025,
      -0.021359851,
      -0.043719829,
      -0.048079305,
      0.048135015,
      -0.040902281,
      -0.006899191,
      -0.017188987,
      0.020809844,
      0.015364594,
      -0.042860426,
      0.050304035,
      -0.05777248,
      0.002920262,
      -0.007187558,
      -0.014005349,
      0.038315813,
      0.047186938,
      0.007242012,
      -0.019638433,
      0.042050674,
      0.035291457,
      0.009507286,
      -0.015809887,
      0.001995615,
      0.049687169,
      0.006042429,
      -0.011043936,
      -0.047444329,
      -0.029989914,
      0.04034064,
      -0.002114814,
      -0.00399217,
      0.021669607,
      -0.036816666,
      -0.003902814,
      -0.016231284,
      0.028564207,
      0.045300489,
      0.035341157,
      0.041759485,
      -0.050057671,
      -0.019870836,
      0.00666708,
      -0.047607055,
      0.014984907,
      -0.034754193,
      0.025696121,
      0.04577703,
      -0.048027779,
      0.04684515,
      0.026131148,
      -0.037677759,
      0.052329671,
      -0.046905542,
      -0.037081113,
      -0.027640432,
      -0.00293613,
      0.010026793,
      -0.016714889,
      -0.055056678,
      -0.006817374,
      0.042918063,
      0.041899154,
      0.028244617,
      0.008236864,
      0.013891335,
      -0.043710867,
      0.019442622,
      -0.057328607,
      -0.024932323,
      -0.017093442,
      0.04091378,
      -0.001404855,
      -0.025417456,
      0.010193317,
      -0.046387868,
      -0.014400565,
      0.014988422,
      -0.002791629,
      -0.004767515,
      0.034367028,
      -0.042485596,
      -0.028181478,
      0.054379467,
      0.011333757,
      -0.008694367,
      0.029146964,
      0.033463856,
      -0.009439759,
      -0.023444641,
      -0.009345721,
      0.02120041,
      -0.00402659,
      0.036001787,
      -0.043997779,
      -0.02714621,
      0.042705719,
      0.006413306,
      0.00892101,
      0.017424323,
      -0.012336373,
      -0.025722671,
      0.011724152,
      -0.016293333,
      -0.023344466,
      0.006258175,
      0.012100972,
      -0.002411961,
      -0.038016,
      -0.013312525,
      -0.036171104,
      0.026780171,
      -0.038196385,
      0.043637897,
      0.024231201,
      -0.044755891,
      0.042432759,
      -0.054317648,
      -0.00238142,
      -0.033723656,
      -0.048480875,
      0.004775359,
      -0.022824107,
      0.045036741,
      -0.04179334,
      0.047478672,
      0.039371762,
      0.052577579,
      -0.015227865,
      -0.035781251,
      -0.034637647,
      0.053361285,
      -0.022886711,
      -0.00366793,
      -0.004270278,
      0.012693576,
      -0.044417492,
      0.043661126,
      -0.044727759,
      0.052960624,
      -0.02167479,
      -0.024841887,
      -0.006576421,
      0.018688144,
      -0.009919609,
      -0.056316359,
      0.037545551,
      0.052926507,
      0.027321923,
      0.055282523,
      0.01538694,
      -0.0048567,
      -0.044771917,
      -0.048886004,
      -0.038495135,
      -0.013894957,
      0.033432854,
      -0.021280394,
      -0.000481371,
      -0.000433676,
      -0.036565464,
      -0.001544843,
      0.053919388,
      0.044783479,
      0.043343677,
      -0.004816906,
      -0.000341785,
      0.028974671,
      -0.019089076,
      -0.022647148,
      0.047773397,
      0.003305022,
      -0.036574705,
      0.047927633,
      0.006956091,
      0.027738856,
      -0.049392839,
      0.010391952,
      0.034044027,
      -0.007969533,
      -0.030239991,
      0.044435433,
      0.0244331,
      0.016688739,
      0.013442742,
      0.001255798,
      0.031118794,
      -0.01206686,
      -0.031227156,
      0.020643704,
      0.013675169,
      0.024144105,
      -0.004968309,
      -0.007356241,
      -0.005367805,
      0.013461272,
      -0.042462197,
      -0.053187365,
      0.020499782,
      -0.029246883,
      -0.003862923,
      0.015554766,
      0.007888437,
      0.035155564,
      0.007346177,
      0.013367405,
      -0.005286098,
      0.009155595,
      0.020856728,
      0.038120271,
      -0.052938411,
      -0.023519709,
      -0.0510635,
      -0.022744361,
      0.033984954,
      -0.053252844,
      -0.050255983,
      0.0323073,
      -0.032997344,
      0.041385338,
      0.018962243,
      0.01639129,
      0.045589692,
      -0.051760249,
      0.040800809,
      0.017867206,
      -0.038288911,
      0.01260764,
      -0.015440829,
      -0.021635779,
      -0.004563509,
      -0.025395548,
      0.048901291,
      0.047667623,
      -0.006980987,
      -0.050216763,
      -0.002779305,
      0.004431092,
      0.038138513,
      0.001472615,
      0.015697631,
      0.01454839,
      -0.03208091,
      -0.034383799,
      -0.049809384,
      0.001783231,
      0.017608013,
      -0.005410886,
      0.053618044,
      -0.010932686,
      -0.036397616,
      0.008432594,
      -0.014310679,
      -0.005504844,
      0.05451502,
      -0.002052318,
      0.048932847,
      0.007146484,
      -0.020855848,
      0.040284559,
      -0.031927081,
      0.002509789,
      0.013101355,
      0.026290331,
      -0.050269774,
      0.002206358,
      -0.015508377,
      0.035792103,
      0.019523293,
      0.022408448,
      0.035145002,
      -0.010007971,
      -0.002891481,
      0.044660895,
      -0.045730876,
      -0.040240439,
      0.002599187,
      -0.021850672,
      0.003628126,
      0.04906416,
      -0.006741775
     ],
     [
      -0.048364759,
      -0.026114416,
      0.050448999,
      -0.013926456,
      -0.027478887,
      0.021681295,
      0.004467833,
      -0.050560811,
      0.046281934,
      0.032755405,
      0.052086252,
      0.028954219,
      -0.014738642,
      -0.014636609,
      0.028918441,
      -0.01147583,
      0.010289639,
      -0.055032137,
      -0.028541852,
      0.019418402,
      -0.004404087,
      -0.025762987,
      -0.047185192,
      0.034731093,
      -0.012093552,
      -0.056059042,
      0.052449143,
      0.024793679,
      -0.037528951,
      -0.041432878,
      0.054745187,
      -0.000627918,
      -0.034364763,
      0.031437387,
      -0.012073768,
      0.003002394,
      -0.03157128,
      -0.047671492,
      -0.037569831,
      -0.007276979,
      -0.041194596,
      0.0542473,
      -0.000932666,
      -0.02406356,
      0.020445417,
      -0.049834674,
      -0.02991729,
      0.019833823,
      -0.048157828,
      0.027486845,
      0.003606512,
      -0.048724208,
      -0.054844961,
      0.017840387,
      0.025160996,
      -0.012127496,
      -0.050127913,
      -0.032949886,
      0.00448015,
      0.001439966,
      0.015516944,
      0.009697917,
      -0.003762287,
      0.02875316,
      0.053929556,
      0.046275111,
      0.05051066,
      -0.019291406,
      -0.019971969,
      -0.007145885,
      0.015897435,
      0.022211825,
      -0.005159889,
      -0.035933883,
      -0.041439183,
      0.054796902,
      -0.013816867,
      -0.006410864,
      -0.033888414,
      -0.028015394,
      0.011934283,
      0.022720813,
      -0.02424364,
      -0.023602366,
      0.040774415,
      -0.030400183,
      -0.042679586,
      -0.009247778,
      0.052775602,
      0.011549681,
      0.007420447,
      -0.006707028,
      0.033142639,
      -0.029262602,
      0.037658224,
      0.012856635,
      0.005908571,
      0.00776778,
      -0.03324947,
      0.042581011,
      0.027627873,
      -0.045295413,
      -0.052106613,
      -0.014759872,
      0.036868362,
      -0.027331379,
      0.052591137,
      -0.02839537,
      -0.052736859,
      0.024619462,
      -0.033799167,
      -0.009141389,
      -0.017671543,
      -0.004258308,
      -0.0485078,
      -0.05266376,
      0.023919467,
      -0.006364372,
      -0.03435056,
      -0.001891113,
      -0.051318044,
      0.014466044,
      0.025185214,
      0.052230528,
      -0.046664307,
      -0.007716413,
      0.029686823,
      0.050858646,
      -0.040443946,
      0.022433115,
      0.019963968,
      0.028270145,
      -0.044539598,
      0.035998345,
      -0.02597648,
      -0.035123769,
      0.013469688,
      0.053176137,
      -0.032275894,
      0.032144425,
      -0.004172888,
      0.019661284,
      0.041938297,
      0.01408539,
      -0.043226962,
      -0.010818717,
      0.014643349,
      -0.04446444,
      0.015692879,
      -0.024312008,
      -0.011591702,
      0.019134114,
      -0.044095034,
      -0.034701342,
      0.024254874,
      -0.055147427,
      0.047911599,
      -0.036070502,
      9.3277e-05,
      0.011111406,
      0.020702267,
      -0.037577949,
      0.003079541,
      0.025700001,
      0.053083555,
      -0.041482388,
      -0.027265519,
      0.015481501,
      -0.004321278,
      -0.042805038,
      -0.049210731,
      -0.045746602,
      -0.038401184,
      -0.024441122,
      -0.039907845,
      -0.050136536,
      0.002688472,
      0.030349263,
      -0.02567953,
      0.00900463,
      0.000153888,
      0.02507516,
      -0.041129427,
      0.001470507,
      0.05156698,
      0.041060993,
      -0.050757455,
      -0.003546116,
      0.0021574,
      -0.019679803,
      -0.038224371,
      -0.039697681,
      0.03673191,
      -0.018511543,
      -0.00405048,
      0.015762419,
      -0.035567206,
      0.003241256,
      0.032014591,
      -0.033307425,
      0.015844424,
      -0.002387786,
      0.030106976,
      0.036331268,
      0.013650739,
      0.001633282,
      -0.048033685,
      0.021542967,
      0.033483381,
      -0.021152932,
      -0.056291922,
      0.044120793,
      -0.014902589,
      0.013187974,
      -0.014228398,
      0.034942335,
      0.053978959,
      0.034714077,
      -0.017494327,
      0.039015226,
      0.025039011,
      0.008201882,
      -0.043788829,
      -0.024535768,
      -0.055687547,
      0.037343083,
      0.055563196,
      0.031731958,
      0.016870123,
      0.013713796,
      0.053841305,
      -0.029009002,
      -0.019087229,
      -0.050397005,
      -0.006034361,
      0.002436033,
      0.01569446,
      -0.038925972,
      -0.007215923,
      -0.046843562,
      -0.04580948,
      0.007123739,
      -0.055465322,
      0.01415151,
      -0.050286365,
      -0.038804271,
      -0.012820596,
      -0.054169624,
      0.044735594,
      0.045303905,
      -0.029653818,
      0.012385436,
      0.029966829,
      0.017461532,
      -0.008446962,
      -0.053281256,
      0.039667872,
      -0.050115486,
      -0.011685143,
      0.001814781,
      -0.020151032,
      -0.022062451,
      -0.049654417,
      0.001947277,
      -0.007065001,
      0.048307555,
      -0.019402934,
      0.041191331,
      0.000503707,
      -0.026310772,
      -0.013949738,
      -0.007315145,
      0.001275835,
      -0.007425034,
      0.016719471,
      0.044913608,
      0.007530279,
      0.018251864,
      0.033065972,
      0.010913256,
      0.025236182,
      0.028699255,
      0.051138511,
      -0.052068376,
      0.019347948,
      -0.002735512,
      -0.009968188,
      -0.022015773,
      0.032608739,
      0.050183704,
      -0.0464765,
      0.029524845,
      0.038460715,
      0.008954131,
      0.001560281,
      0.042180981,
      0.000319919,
      -0.015360306,
      -0.004563392,
      0.018336237,
      0.012377054,
      -0.002471321,
      0.017737835,
      0.013853763,
      -0.046632343,
      0.01223773,
      0.033504773,
      0.005693753,
      -0.00559553,
      0.043072508,
      -0.05062689,
      -0.027013278,
      -0.02617141,
      0.048275727,
      -0.053821644,
      0.0048999,
      -0.055029602,
      -0.003450884,
      0.01899425,
      -0.014270497
     ],
     [
      0.054021514,
      -0.000166446,
      -0.028843056,
      0.014926952,
      0.030957447,
      0.001920094,
      0.049235642,
      -0.034993007,
      0.023575973,
      0.031325688,
      0.027195374,
      -0.000413135,
      0.015403252,
      -0.044149367,
      -0.042762281,
      -0.002607522,
      -0.007252938,
      0.041272177,
      0.04005,
      0.039559822,
      -0.024933188,
      -0.044627103,
      -0.052163611,
      0.020607412,
      -0.050578245,
      -0.05587144,
      -0.029505233,
      -0.045895038,
      -0.021220954,
      -0.0361707,
      -0.029720016,
      0.052613798,
      -0.010771186,
      0.046329198,
      -0.000513255,
      -0.008763168,
      -0.015529128,
      -0.03862294,
      -0.045668703,
      0.037782904,
      -0.017488475,
      -0.055090393,
      0.050060906,
      0.001148524,
      -0.036119461,
      -0.042225114,
      -0.047179805,
      -0.049685596,
      0.050391307,
      0.038030297,
      0.004798159,
      -0.04451122,
      -0.012847906,
      -0.051152411,
      0.019123171,
      -0.015236682,
      -0.012185298,
      -0.017769948,
      0.02551846,
      0.029340482,
      0.011862368,
      -0.006762922,
      -0.00563163,
      -0.001238621,
      -0.041727757,
      0.054408865,
      -0.024303296,
      0.032533005,
      -0.030902226,
      0.000687603,
      0.019411666,
      -0.05129734,
      0.025525363,
      -0.042926666,
      0.007858388,
      -0.01100522,
      0.031212721,
      0.053781896,
      0.012717006,
      -0.001546613,
      -0.027806483,
      0.020848234,
      -0.027447819,
      0.022840664,
      -0.024309494,
      0.037931415,
      0.043019123,
      0.034513598,
      0.000491445,
      0.026199538,
      -0.051572393,
      0.045052666,
      -0.015531226,
      0.019777489,
      -0.009065773,
      -0.018560079,
      -0.026337689,
      0.036466607,
      -0.03073923,
      -0.010994614,
      0.02741449,
      0.007235342,
      -0.046441441,
      -0.055676172,
      -0.027249669,
      0.051689737,
      -0.0405066,
      0.030091178,
      0.041751736,
      -0.021142069,
      -0.024500765,
      -0.040461548,
      0.008683942,
      -0.008176481,
      0.001487585,
      0.024229767,
      0.023561384,
      -0.017299501,
      0.003460635,
      0.013022394,
      0.001090396,
      0.010968961,
      -0.022776166,
      0.04599886,
      -0.005497235,
      -0.006715119,
      -0.050237183,
      -0.040646377,
      0.001381631,
      -0.009399993,
      -0.027274223,
      0.032005842,
      -0.003009536,
      0.021048821,
      0.047591434,
      -0.025874394,
      -0.028144922,
      -0.011154506,
      -0.001165509,
      -0.025242774,
      -0.011849819,
      0.001984932,
      0.027827942,
      0.052051417,
      0.040545316,
      0.005653703,
      -0.000471575,
      0.01628416,
      0.000916839,
      -0.002736367,
      0.02202782,
      -0.044260045,
      -0.049002947,
      -0.002314111,
      -0.013341923,
      -0.021999205,
      -0.049688452,
      0.037183992,
      -0.001208343,
      -0.029230881,
      -0.024640465,
      0.013796065,
      -0.035813314,
      0.007417115,
      0.000768893,
      0.018448423,
      0.021083138,
      -0.036999961,
      0.022908794,
      0.044032613,
      0.006886232,
      0.029320846,
      -0.019706592,
      0.010237774,
      0.014116962,
      -0.026886953,
      0.034066296,
      -0.050791978,
      -0.016007564,
      -0.027279712,
      -0.030368195,
      -0.033501098,
      -0.053475203,
      0.008922605,
      -0.011355759,
      -0.04692353,
      0.001338823,
      -0.007383729,
      0.02424505,
      -0.042704331,
      -0.015646623,
      0.011241053,
      0.02355754,
      0.004084939,
      0.01496873,
      0.055572468,
      -0.0196185,
      0.038293132,
      0.048529044,
      -0.049488757,
      0.01338693,
      0.031542906,
      -0.008954807,
      0.030957118,
      0.001693402,
      0.04250834,
      0.002587187,
      -0.035207529,
      0.04231219,
      0.016465352,
      0.046969576,
      0.014908017,
      0.029110429,
      0.034987113,
      0.01079792,
      -0.012160685,
      0.011449976,
      -0.039016385,
      0.000592115,
      -0.017150479,
      0.003917209,
      -0.044668226,
      0.033825252,
      -0.051423875,
      0.023864556,
      0.036840308,
      -0.052890475,
      0.050533901,
      -0.039852777,
      -0.009791958,
      0.028298023,
      -0.018324226,
      0.049777427,
      -0.025006582,
      -0.007441798,
      -0.03541344,
      -0.023869525,
      0.056645004,
      0.041358176,
      0.003438132,
      0.004533067,
      -0.047959325,
      0.04213625,
      -0.007464625,
      -0.022312298,
      -0.043041961,
      0.045665195,
      0.026118265,
      0.03354405,
      0.005526265,
      -0.038162832,
      0.023120595,
      0.006558062,
      0.019204135,
      -0.013832733,
      -0.026573217,
      0.045556799,
      0.018305749,
      -0.023221101,
      0.004617004,
      -0.012523581,
      -0.004979929,
      0.031283677,
      -0.044623101,
      0.050147146,
      0.037108938,
      0.001069756,
      -0.021291168,
      0.011814518,
      -0.036884815,
      0.036090511,
      -0.029786432,
      0.010240428,
      -0.055131089,
      0.027232147,
      0.037240371,
      0.043022977,
      0.006130882,
      0.03391091,
      0.0196315,
      0.037019144,
      0.030842792,
      -0.049499026,
      0.005851171,
      -0.01810429,
      -0.025645828,
      0.040919459,
      -0.007194057,
      0.008054364,
      0.03446142,
      0.037913176,
      0.029137688,
      -0.010469072,
      -0.048319708,
      -0.052721026,
      0.01729877,
      -0.001188831,
      -0.034617747,
      0.02587135,
      0.050398897,
      0.032574331,
      -0.008247908,
      0.006354232,
      -0.036661041,
      0.026002062,
      -0.043162759,
      0.038764863,
      -0.024390856,
      -0.021982451,
      -0.04725136,
      -0.014225909,
      -0.006135772,
      -0.026128494,
      0.039369095,
      0.032388267,
      -0.048239895,
      -0.004872673,
      0.0198142,
      0.054128908,
      -0.013755452
     ],
     [
      0.034173441,
      -0.003401583,
      -0.022089933,
      0.033423424,
      -0.050544784,
      0.045640727,
      0.054414772,
      -0.015968494,
      0.021898383,
      0.055503519,
      0.0168557,
      0.023074741,
      0.024052736,
      -0.019999488,
      0.013877502,
      -0.030525902,
      0.047602754,
      -0.024105422,
      0.012612209,
      -0.01696973,
      0.026510228,
      0.002519779,
      0.03190873,
      -0.015757316,
      -0.032939025,
      0.020960675,
      -0.030240926,
      -0.043811935,
      0.020947874,
      -0.032815922,
      -0.020948445,
      -0.014787058,
      0.003807156,
      -0.020073709,
      -0.020071035,
      -0.013425376,
      0.037240909,
      0.01741297,
      -0.027602207,
      -0.039656505,
      0.001133578,
      0.01752688,
      -0.0026878,
      0.030818084,
      0.045356734,
      0.017412238,
      0.017719201,
      0.031656333,
      -0.019248724,
      0.010132228,
      0.045010893,
      -0.028084536,
      0.004213927,
      -0.020585806,
      -0.043076102,
      0.029264208,
      0.044541098,
      -0.030251767,
      0.020789416,
      0.016667169,
      0.022053596,
      0.031485268,
      0.052366811,
      0.042299807,
      -0.048972942,
      -0.022007674,
      0.029496617,
      -0.032139452,
      0.011010686,
      -0.024071901,
      0.01075296,
      0.027088622,
      0.017501345,
      0.040514491,
      -0.006634727,
      0.031030808,
      0.018905605,
      -0.016890654,
      -0.039538866,
      0.050956158,
      -0.016714047,
      0.042059043,
      0.03560093,
      -0.002144029,
      -0.046999179,
      0.006350266,
      -0.026458373,
      0.014292945,
      -0.022274813,
      0.04246224,
      -0.050829546,
      -0.014893963,
      0.008423468,
      0.005107551,
      0.045814175,
      -0.017934746,
      -0.044695744,
      0.036613952,
      0.016289556,
      0.036883493,
      -0.03477969,
      -0.033207866,
      -0.022526911,
      0.00378932,
      0.018908336,
      -0.031798695,
      -0.004472044,
      -0.008797223,
      0.050522292,
      -0.019413902,
      0.054139925,
      -0.034564374,
      -0.023032187,
      -0.041579917,
      0.042136755,
      -0.037874324,
      0.02341103,
      -0.02033445,
      0.055283361,
      0.007604159,
      -0.04860156,
      0.009613336,
      0.00652072,
      -0.05499826,
      0.010421707,
      0.052721117,
      0.015829246,
      -0.000445096,
      -0.011861664,
      0.013592444,
      -0.027635421,
      0.051723534,
      0.045155881,
      0.023193941,
      -0.022016789,
      -0.052732548,
      -0.032829688,
      0.053662514,
      -0.048992381,
      -0.051297022,
      -0.00289788,
      0.016956662,
      -0.057505781,
      -0.052503625,
      0.000395093,
      -0.015308348,
      0.041953952,
      0.015708765,
      -0.045146086,
      -0.047312494,
      0.036890656,
      -0.010797926,
      -0.024155642,
      0.021605818,
      -0.007805078,
      0.028467212,
      0.017559435,
      -0.02378981,
      -0.045774323,
      0.029720792,
      -0.034617628,
      -0.005502964,
      0.010671829,
      -0.029988023,
      0.034505307,
      -0.041068231,
      0.012579468,
      0.005290113,
      0.0183995,
      -0.059298996,
      8.1199e-05,
      0.02950277,
      -0.032734072,
      0.012478914,
      -0.001900773,
      0.046290032,
      -0.013342176,
      -0.003733192,
      -0.02869016,
      -0.014300889,
      0.016690809,
      -0.054109619,
      0.040478686,
      0.039333555,
      0.023185028,
      0.041034463,
      -0.017797072,
      0.013664617,
      0.004553951,
      -0.03817165,
      -0.021796789,
      -0.020084127,
      -0.013902938,
      -0.049720498,
      -0.039468862,
      -0.005688526,
      -0.009380384,
      -0.052127115,
      0.011015834,
      0.030142537,
      0.046488028,
      0.046964912,
      -0.039245435,
      -0.017975831,
      -0.026075745,
      0.010995251,
      0.014285784,
      0.011834087,
      0.032613049,
      0.029410145,
      -0.029254274,
      0.0387389,
      0.036677578,
      0.010122826,
      -0.048027206,
      -0.034973802,
      0.015481404,
      0.018909432,
      0.05311442,
      0.029194202,
      0.018953738,
      0.000436686,
      0.038341938,
      -0.020998829,
      0.022702533,
      -0.027118293,
      5.291e-06,
      0.033877139,
      0.025404348,
      -0.010738108,
      -0.001378822,
      -0.031792696,
      0.025904675,
      0.037550748,
      0.018985109,
      -0.054481901,
      -0.039306027,
      0.038784611,
      -0.008888287,
      0.033533876,
      0.041200739,
      -0.016169111,
      -0.033035832,
      -0.05341717,
      0.021467342,
      0.029732234,
      -0.010250275,
      -0.054857917,
      -0.03607574,
      -0.003074706,
      0.025207767,
      -0.018942381,
      -0.0355172,
      -0.038063679,
      0.050024027,
      0.020043142,
      -0.045586705,
      -0.034831947,
      -0.048066281,
      0.00711751,
      -0.023617369,
      -0.000565381,
      -0.009185764,
      -0.049280077,
      -0.050301353,
      -0.0440828,
      -0.023661189,
      0.009884919,
      -0.026137167,
      -0.002866683,
      -0.007187559,
      0.050722825,
      -0.025849384,
      0.052984406,
      -0.04034311,
      -0.045211364,
      0.018611145,
      -0.032058994,
      0.028225001,
      -0.031569914,
      0.043965288,
      0.054943761,
      0.00443464,
      0.013472081,
      0.052987037,
      0.032732084,
      -0.048696138,
      -0.002201652,
      -0.050792664,
      0.042553132,
      -0.009079304,
      0.00103089,
      -0.034227975,
      -0.031181075,
      0.008090056,
      0.045821566,
      -0.028705327,
      0.004444033,
      0.050232595,
      0.05165721,
      -0.010150766,
      0.052720509,
      0.02009601,
      0.050062926,
      0.001060057,
      -0.048462807,
      -0.016262055,
      0.016557355,
      0.029539186,
      -0.055866017,
      0.041962022,
      -0.051005835,
      0.032500656,
      0.055095351,
      0.013699233,
      -0.010972669,
      0.0303149,
      -0.017426181,
      -0.042108652,
      -0.0400259
     ]
    ],
    "b": [
     0.023444394,
     0.041514641,
     0.002136581,
     -0.05772931,
     -0.052829752,
     -0.016500991,
     0.030594802,
     -0.031339551,
     0.017038703,
     -0.02940488
    ]
   }
  },
  {
   "epoch": 0,
   "batch": 21,
   "loss": 2.273871953216525,
   "accuracy": 12.969696969696969,
   "input": [
    [
     0.0,
     0.0,
     0.0,
     0.0,
     0.0,
     0.0,
     0.0,
     0.0,
     0.0,
     0.0,
     0.0,
     0.0,
     0.0,
     0.0,
     0.0,
     0.0,
     0.0,
     0.0,
     0.0,
     0.0,
     0.0,
     0.0,
     0.0,
     0.0,
     0.0,
     0.0,
     0.0,
     0.0
    ],
    [
     0.0,
     0.0,
     0.0,
     0.0,
     0.0,
     0.0,
     0.0,
     0.0,
     0.0,
     0.0,
     0.0,
     0.0,
     0.0,
     0.0,
     0.0,
     0.0,
     0.0,
     0.0,
     0.0,
     0.0,
     0.0,
     0.0,
     0.0,
     0.0,
     0.0,
     0.0,
     0.0,
     0.0
    ],
    [
     0.0,
     0.0,
     0.0,
     0.0,
     0.0,
     0.0,
     0.0,
     0.0,
     0.0,
     0.0,
     0.0,
     0.0,
     0.0,
     0.0,
     0.0,
     0.0,
     0.0,
     0.0,
     0.0,
     0.0,
     0.0,
     0.0,
     0.0,
     0.0,
     0.0,
     0.0,
     0.0,
     0.0
    ],
    [
     0.0,
     0.0,
     0.0,
     0.0,
     0.0,
     0.0,
     0.0,
     0.0,
     0.0,
     0.0,
     0.0,
     0.0,
     0.0,
     0.0,
     0.0,
     0.0,
     0.0,
     0.0,
     0.0,
     0.0,
     0.0,
     0.0,
     0.0,
     0.0,
     0.0,
     0.0,
     0.0,
     0.0
    ],
    [
     0.0,
     0.0,
     0.0,
     0.0,
     0.0,
     0.0,
     0.0,
     0.0,
     0.0,
     0.0,
     0.0,
     0.0,
     0.0,
     0.0,
     0.0,
     0.0,
     0.0,
     0.0,
     0.0,
     0.0,
     0.0,
     0.0,
     0.0,
     0.0,
     0.0,
     0.0,
     0.0,
     0.0
    ],
    [
     0.0,
     0.0,
     0.0,
     0.0,
     0.0,
     0.0,
     0.0,
     0.0,
     0.0,
     0.0,
     0.0,
     0.0,
     0.0,
     0.0,
     0.0,
     0.0,
     0.0,
     0.0,
     0.0,
     0.0,
     0.0,
     0.0,
     0.0,
     0.0,
     0.0,
     0.0,
     0.0,
     0.0
    ],
    [
     0.0,
     0.0,
     0.0,
     0.0,
     0.0,
     0.784313725,
     0.631372549,
     0.635294118,
     0.631372549,
     0.631372549,
     0.631372549,
     0.635294118,
     0.631372549,
     0.631372549,
     0.631372549,
     0.635294118,
     0.305882353,
     0.050980392,
     0.0,
     0.0,
     0.0,
     0.0,
     0.0,
     0.0,
     0.0,
     0.0,
     0.0,
     0.0
    ],
    [
     0.0,
     0.0,
     0.0,
     0.0,
     0.0,
     0.682352941,
     0.992156863,
     0.996078431,
     0.992156863,
     0.992156863,
     0.992156863,
     0.996078431,
     0.992156863,
     0.992156863,
     0.858823529,
     0.996078431,
     0.992156863,
     0.917647059,
     0.31372549,
     0.0,
     0.0,
     0.0,
     0.0,
     0.0,
     0.0,
     0.0,
     0.0,
     0.0
    ],
    [
     0.0,
     0.0,
     0.0,
     0.0,
     0.0,
     0.019607843,
     0.180392157,
     0.180392157,
     0.376470588,
     0.376470588,
     0.180392157,
     0.180392157,
     0.180392157,
     0.180392157,
     0.050980392,
     0.180392157,
     0.505882353,
     0.909803922,
     0.925490196,
     0.168627451,
     0.0,
     0.0,
     0.0,
     0.0,
     0.0,
     0.0,
     0.0,
     0.0
    ],
    [
     0.0,
     0.0,
     0.0,
     0.0,
     0.0,
     0.0,
     0.0,
     0.0,
     0.0,
     0.0,
     0.0,
     0.0,
     0.0,
     0.0,
     0.0,
     0.0,
     0.066666667,
     0.878431373,
     0.992156863,
     0.364705882,
     0.0,
     0.0,
     0.0,
     0.0,
     0.0,
     0.0,
     0.0,
     0.0
    ],
    [
     0.0,
     0.0,
     0.0,
     0.0,
     0.0,
     0.0,
     0.0,
     0.0,
     0.0,
     0.0,
     0.0,
     0.0,
     0.0,
     0.0,
     0.0,
     0.074509804,
     0.8,
     0.996078431,
     0.894117647,
     0.0,
     0.0,
     0.0,
     0.0,
     0.0,
     0.0,
     0.0,
     0.0,
     0.0
    ],
    [
     0.0,
     0.0,
     0.0,
     0.0,
     0.0,
     0.0,
     0.0,
     0.0,
     0.0,
     0.0,
     0.0,
     0.0,
     0.0,
     0.08627451,
     0.447058824,
     0.929411765,
     0.992156863,
     0.874509804,
     0.156862745,
     0.0,
     0.0,
     0.0,
     0.0,
     0.0,
     0.0,
     0.0,
     0.0,
     0.0
    ],
    [
     0.0,
     0.0,
     0.0,
     0.0,
     0.0,
     0.0,
     0.0,
     0.0,
     0.0,
     0.0,
     0.0,
     0.02745098,
     0.356862745,
     0.894117647,
     0.992156863,
     0.996078431,
     0.992156863,
     0.878431373,
     0.321568627,
     0.035294118,
     0.0,
     0.0,
     0.0,
     0.0,
     0.0,
     0.0,
     0.0,
     0.0
    ],
    [
     0.0,
     0.0,
     0.0,
     0.0,
     0.0,
     0.0,
     0.0,
     0.0,
     0.0,
     0.0,
     0.266666667,
     0.8,
     0.992156863,
     0.992156863,
     0.992156863,
     0.996078431,
     0.992156863,
     0.992156863,
     0.992156863,
     0.498039216,
     0.0,
     0.0,
     0.0,
     0.0,
     0.0,
     0.0,
     0.0,
     0.0
    ],
    [
     0.0,
     0.0,
     0.0,
     0.0,
     0.0,
     0.0,
     0.0,
     0.0,
     0.0,
     0.454901961,
     0.996078431,
     0.996078431,
     0.945098039,
     0.556862745,
     0.364705882,
     0.364705882,
     0.364705882,
     0.423529412,
     0.996078431,
     1.0,
     0.321568627,
     0.0,
     0.0,
     0.0,
     0.0,
     0.0,
     0.0,
     0.0
    ],
    [
     0.0,
     0.0,
     0.0,
     0.0,
     0.0,
     0.0,
     0.0,
     0.0,
     0.0,
     0.074509804,
     0.450980392,
     0.352941176,
     0.074509804,
     0.0,
     0.0,
     0.0,
     0.0,
     0.011764706,
     0.745098039,
     0.996078431,
     0.450980392,
     0.0,
     0.0,
     0.0,
     0.0,
     0.0,
     0.0,
     0.0
    ],
    [
     0.0,
     0.0,
     0.0,
     0.0,
     0.0,
     0.0,
     0.0,
     0.0,
     0.0,
     0.0,
     0.0,
     0.0,
     0.0,
     0.0,
     0.0,
     0.0,
     0.0,
     0.0,
     0.721568627,
     0.996078431,
     0.450980392,
     0.0,
     0.0,
     0.0,
     0.0,
     0.0,
     0.0,
     0.0
    ],
    [
     0.0,
     0.0,
     0.0,
     0.0,
     0.0,
     0.0,
     0.0,
     0.0,
     0.0,
     0.0,
     0.0,
     0.0,
     0.0,
     0.0,
     0.0,
     0.0,
     0.0,
     0.0,
     0.721568627,
     0.996078431,
     0.450980392,
     0.0,
     0.0,
     0.0,
     0.0,
     0.0,
     0.0,
     0.0
    ],
    [
     0.0,
     0.0,
     0.0,
     0.0,
     0.0,
     0.0,
     0.0,
     0.0,
     0.0,
     0.0,
     0.0,
     0.0,
     0.0,
     0.0,
     0.0,
     0.0,
     0.0,
     0.02745098,
     0.8,
     1.0,
     0.090196078,
     0.0,
     0.0,
     0.0,
     0.0,
     0.0,
     0.0,
     0.0
    ],
    [
     0.0,
     0.0,
     0.0,
     0.0,
     0.0,
     0.0,
     0.0,
     0.0,
     0.0,
     0.0,
     0.0,
     0.0,
     0.0,
     0.0,
     0.0,
     0.0,
     0.0,
     0.356862745,
     0.992156863,
     0.780392157,
     0.043137255,
     0.0,
     0.0,
     0.0,
     0.0,
     0.0,
     0.0,
     0.0
    ],
    [
     0.0,
     0.0,
     0.0,
     0.0,
     0.0,
     0.0,
     0.0,
     0.0,
     0.0,
     0.0,
     0.0,
     0.0,
     0.0,
     0.0,
     0.0,
     0.0,
     0.349019608,
     0.960784314,
     0.956862745,
     0.2,
     0.0,
     0.0,
     0.0,
     0.0,
     0.0,
     0.0,
     0.0,
     0.0
    ],
    [
     0.0,
     0.0,
     0.0,
     0.0,
     0.0,
     0.0,
     0.0,
     0.0,
     0.0,
     0.0,
     0.0,
     0.0,
     0.0,
     0.0,
     0.0,
     0.466666667,
     0.968627451,
     0.956862745,
     0.270588235,
     0.0,
     0.0,
     0.0,
     0.0,
     0.0,
     0.0,
     0.0,
     0.0,
     0.0
    ],
    [
     0.0,
     0.0,
     0.0,
     0.0,
     0.0,
     0.0,
     0.333333333,
     0.466666667,
     0.0,
     0.0,
     0.0,
     0.0,
     0.0,
     0.258823529,
     0.764705882,
     1.0,
     0.847058824,
     0.262745098,
     0.0,
     0.0,
     0.0,
     0.0,
     0.0,
     0.0,
     0.0,
     0.0,
     0.0,
     0.0
    ],
    [
     0.0,
     0.0,
     0.0,
     0.0,
     0.0,
     0.08627451,
     0.968627451,
     0.396078431,
     0.0,
     0.0,
     0.133333333,
     0.545098039,
     0.870588235,
     0.976470588,
     0.992156863,
     0.580392157,
     0.074509804,
     0.0,
     0.0,
     0.0,
     0.0,
     0.0,
     0.0,
     0.0,
     0.0,
     0.0,
     0.0,
     0.0
    ],
    [
     0.0,
     0.0,
     0.0,
     0.0,
     0.0,
     0.082352941,
     0.964705882,
     0.882352941,
     0.811764706,
     0.811764706,
     0.941176471,
     0.996078431,
     0.843137255,
     0.505882353,
     0.180392157,
     0.0,
     0.0,
     0.0,
     0.0,
     0.0,
     0.0,
     0.0,
     0.0,
     0.0,
     0.0,
     0.0,
     0.0,
     0.0
    ],
    [
     0.0,
     0.0,
     0.0,
     0.0,
     0.0,
     0.0,
     0.462745098,
     0.862745098,
     0.992156863,
     0.992156863,
     0.858823529,
     0.533333333,
     0.023529412,
     0.0,
     0.0,
     0.0,
     0.0,
     0.0,
     0.0,
     0.0,
     0.0,
     0.0,
     0.0,
     0.0,
     0.0,
     0.0,
     0.0,
     0.0
    ],
    [
     0.0,
     0.0,
     0.0,
     0.0,
     0.0,
     0.0,
     0.0,
     0.0,
     0.0,
     0.0,
     0.0,
     0.0,
     0.0,
     0.0,
     0.0,
     0.0,
     0.0,
     0.0,
     0.0,
     0.0,
     0.0,
     0.0,
     0.0,
     0.0,
     0.0,
     0.0,
     0.0,
     0.0
    ],
    [
     0.0,
     0.0,
     0.0,
     0.0,
     0.0,
     0.0,
     0.0,
     0.0,
     0.0,
     0.0,
     0.0,
     0.0,
     0.0,
     0.0,
     0.0,
     0.0,
     0.0,
     0.0,
     0.0,
     0.0,
     0.0,
     0.0,
     0.0,
     0.0,
     0.0,
     0.0,
     0.0,
     0.0
    ]
   ],
   "output": 3,
   "conv_layer": {
    "w": [
     [
      [
       [
        -0.002780941,
        0.104635406,
        -0.166733284,
        -0.149038484,
        -0.079373045
       ],
       [
        0.0521558,
        -0.007168641,
        0.155082484,
        -0.020011408,
        0.050545913
       ],
       [
        -0.062553936,
        -0.04297202,
        -0.194473215,
        -0.134398616,
        -0.084006671
       ],
       [
        0.00486052,
        0.075043876,
        0.116671388,
        -0.136784084,
        -0.087247617
       ],
       [
        0.07038532,
        0.16257523,
        -0.043977072,
        0.148148074,
        -0.032068801
       ]
      ]
     ],
     [
      [
       [
        0.023942345,
        0.183763878,
        -0.184167265,
        -0.124798082,
        -0.048556222
       ],
       [
        -0.075788031,
        0.174662102,
        -0.12799401,
        -0.089815046,
        -0.136456618
       ],
       [
        -0.186160484,
        -0.115387858,
        0.174891703,
        0.09274035,
        0.100083128
       ],
       [
        0.009716198,
        -0.101114867,
        0.037321991,
        -0.183960489,
        -0.14302104
       ],
       [
        -0.104444184,
        0.126758176,
        0.117936476,
        -0.088891054,
        -0.007666862
       ]
      ]
     ],
     [
      [
       [
        0.12630634,
        0.199459112,
        0.08212183,
        0.029410105,
        0.133476465
       ],
       [
        -0.12056932,
        0.036126826,
        -0.154415089,
        -0.13875794,
        -0.105895625
       ],
       [
        0.088156055,
        0.079886383,
        -0.117786603,
        0.058792948,
        0.104827291
       ],
       [
        -0.026035904,
        0.007922183,
        0.046120529,
        0.121442911,
        0.187024698
       ],
       [
        -0.153426909,
        -0.072369954,
        0.079698461,
        0.165660913,
        0.172092642
       ]
      ]
     ],
     [
      [
       [
        0.179599871,
        0.043895737,
        -0.169778241,
        0.022168267,
        -0.122066892
       ],
       [
        -0.184913218,
        0.180834211,
        0.155606252,
        -0.196266064,
        0.040441737
       ],
       [
        -0.032820438,
        -0.030288189,
        -0.088475145,
        0.079728174,
        -0.115438465
       ],
       [
        0.074405544,
        0.104173948,
        0.146704612,
        0.077617865,
        -0.195399792
       ],
       [
        -0.129724855,
        0.101763448,
        0.044521589,
        -0.153593231,
        -0.112772307
       ]
      ]
     ],
     [
      [
       [
        0.183319075,
        0.134510006,
        -0.084441413,
        -0.046780913,
        -0.186605535
       ],
       [
        -0.008386526,
        -0.150895292,
        -0.152468359,
        -0.006893566,
        0.035042949
       ],
       [
        -0.084506466,
        0.118582335,
        -0.120162802,
        0.18624508,
        0.142996861
       ],
       [
        -0.169656159,
        -0.049859094,
        0.010783752,
        0.033595291,
        0.052513334
       ],
       [
        0.077460887,
        0.012884942,
        -0.094265693,
        0.099535698,
        -0.187052596
       ]
      ]
     ]
    ],
    "b": [
     -0.11891098,
     -0.049016571,
     -0.102750545,
     -0.069692665,
     -0.164916318
    ]
   },
   "dense_layer": {
    "w": [
     [
      -0.01153539,
      0.012153773,
      -0.036514794,
      -0.002719503,
      0.041242046,
      -0.00373996,
      0.00319767,
      -0.004422755,
      0.011635156,
      0.035682926,
      0.052580079,
      0.034856083,
      0.051981484,
      -0.003695292,
      -0.047495028,
      -0.024661917,
      0.03843857,
      3.2044e-05,
      -0.028021772,
      -0.043933715,
      -0.054095321,
      -0.050540972,
      -0.009092796,
      0.034242212,
      0.030556845,
      -0.053994706,
      0.034914052,
      -0.044505209,
      -0.013284031,
      -0.027013361,
      -0.01017086,
      -0.007022603,
      -0.050029183,
      -0.048501807,
      -0.005304387,
      0.002944179,
      -0.025674062,
      0.01739228,
      -0.050804729,
      -0.000940797,
      0.049178577,
      -0.022838065,
      0.056172044,
      0.024829315,
      -0.049678065,
      0.032772468,
      -0.00664082,
      -0.023628096,
      0.044998285,
      -0.046166457,
      0.007652592,
      -0.010192765,
      0.03910201,
      0.014353638,
      0.027386149,
      0.020327293,
      -0.013068222,
      -0.011480865,
      -0.046066692,
      0.030198435,
      0.044063503,
      0.038396327,
      -0.039013109,
      0.00278087,
      -0.039252158,
      -0.030647213,
      -0.032586357,
      0.019084653,
      -0.032966307,
      -0.000815587,
      0.002643377,
      0.036070972,
      -0.04211222,
      -0.038247152,
      -0.032516869,
      0.03862625,
      -0.021465374,
      0.045331223,
      0.020299756,
      0.007171484,
      -0.000249952,
      -0.011022459,
      0.00602574,
      -0.014464374,
      -0.001469706,
      0.004842273,
      -0.043356562,
      -0.028901209,
      0.045267277,
      -0.046234942,
      -0.005556491,
      0.056107352,
      0.022635622,
      0.001055417,
      -0.048886965,
      0.028625224,
      -0.039846466,
      -0.01810393,
      -0.019084106,
      -0.005394579,
      0.00362366,
      0.04501481,
      0.004939356,
      0.050647457,
      0.034032163,
      -0.038165157,
      0.025522829,
      -0.037174576,
      -0.02270902,
      0.014060152,
      0.017480933,
      0.042471953,
      -0.017951468,
      -0.001437621,
      0.027672369,
      -0.055334124,
      0.038927269,
      -0.047078547,
      0.001754862,
      -0.009080608,
      -0.029299201,
      0.007489048,
      0.046333501,
      -0.016298508,
      -0.032958208,
      -0.019986308,
      -0.055015235,
      0.025320942,
      -0.026739209,
      -0.037886788,
      -0.031993368,
      0.034327057,
      0.03186305,
      0.044667501,
      0.020630238,
      -0.018518073,
      -0.015985475,
      0.01621829,
      0.047176284,
      0.016278853,
      -0.026056083,
      -0.022476425,
      -0.049057182,
      0.012137944,
      -0.030351613,
      -0.0461703,
      0.051402237,
      -0.038180104,
      -0.010566781,
      0.019673972,
      0.010154667,
      -0.036710508,
      -0.040980887,
      0.050847751,
      0.00768595,
      0.038529823,
      -0.027281597,
      0.019173199,
      -0.004777295,
      -4.8899e-05,
      -0.027243558,
      0.025908388,
      0.014220749,
      -0.011257306,
      -0.019802499,
      -0.031395426,
      0.044707257,
      -0.038352195,
      0.028650485,
      -0.010637789,
      -0.0244372,
      0.004936447,
      -0.031868203,
      0.014843483,
      0.014787748,
      -0.038440231,
      0.011638551,
      0.030487058,
      0.027353341,
      -0.007153871,
      -0.046967053,
      -0.007707452,
      0.021984285,
      -0.018918343,
      0.021899279,
      0.038214459,
      -0.028562751,
      0.00052496,
      0.023420594,
      0.005456139,
      0.005520588,
      0.007181183,
      -0.043731974,
      0.004612244,
      0.038827486,
      0.050394045,
      0.032589604,
      0.00760996,
      0.026620789,
      -0.027069924,
      -0.046091493,
      -0.047896186,
      0.055248752,
      0.034394452,
      -0.040211186,
      0.020640085,
      0.043772903,
      0.056415829,
      0.049125789,
      0.043161475,
      -0.013626945,
      -0.019508256,
      0.045202819,
      0.028145114,
      -0.030258752,
      0.053019975,
      0.027109296,
      0.030249381,
      -0.03346754,
      0.017805903,
      -0.019154965,
      0.039685082,
      -0.006942738,
      0.026082002,
      0.00967836,
      0.024431253,
      -0.015353388,
      0.029270308,
      -0.040437353,
      0.008422466,
      -0.036559041,
      -0.052010275,
      -0.045262145,
      0.044588187,
      0.034021123,
      0.053173223,
      0.042020015,
      -0.053251061,
      -0.037603436,
      -0.007389684,
      -0.036253716,
      0.038360549,
      -0.04086945,
      -0.027364069,
      -0.055648604,
      -0.032877386,
      0.046740777,
      0.046588828,
      0.040233873,
      0.043366924,
      0.049888013,
      -0.014475282,
      0.024255225,
      0.050120662,
      0.018994223,
      0.056112936,
      0.029488321,
      0.035113363,
      -0.019290529,
      0.027248579,
      0.006920862,
      -0.012766776,
      -0.030808453,
      -0.030799305,
      -0.042692226,
      0.037499255,
      0.040125857,
      -0.005683899,
      -0.031830228,
      0.042715471,
      0.035573843,
      0.00483421,
      -0.026105423,
      0.052059207,
      0.023394604,
      -0.042903553,
      0.052714429,
      0.042069947,
      -0.0205636,
      0.031624346,
      -0.030862557,
      -0.007242318,
      0.047260245,
      0.002317037,
      -0.039304475,
      -0.01919729,
      -0.016188344,
      -0.010339152,
      0.006618713,
      0.052057693,
      0.002108624,
      -0.03415951,
      0.002755696,
      0.026312236,
      0.026923352,
      -0.049220353,
      -0.009130815,
      -0.041855525,
      -0.023941894,
      0.020236673,
      -0.039226561,
      0.020779496,
      0.048340119,
      0.006245451,
      -0.036894532,
      -0.019568705,
      0.013707671,
      -0.042480991,
      0.027666219,
      -0.050155296,
      -0.051145897,
      -0.052578641,
      -0.010909056,
      0.037373333,
      -0.052861689,
      0.047066336,
      -0.021591347,
      0.018024525,
      0.00382713,
      -0.049898927
     ],
     [
      0.046481838,
      0.030011236,
      0.054735646,
      0.026920335,
      -0.036818423,
      0.047277362,
      0.002708411,
      0.026206538,
      -0.044757459,
      -0.016343451,
      -0.055914947,
      -0.023987811,
      0.011627352,
      -0.044566953,
      0.015165327,
      0.028797803,
      0.007926599,
      -0.037051922,
      -0.043347239,
      -0.019064426,
      0.026462745,
      0.055762752,
      0.029060719,
      -0.007538058,
      0.01977705,
      -0.054304599,
      -0.048469143,
      0.021556757,
      -0.029374666,
      0.026548042,
      -0.042884455,
      -0.029019307,
      -0.045917468,
      0.029595369,
      -0.006324839,
      0.038878883,
      0.038768159,
      0.029987564,
      -0.001519535,
      -0.018552005,
      -0.012048486,
      0.007487346,
      0.02611379,
      -0.041427179,
      0.050661705,
      -0.007285863,
      -0.049092184,
      -0.031063262,
      0.049644052,
      0.051576856,
      -0.053039479,
      0.039097884,
      0.031012111,
      0.032553093,
      0.046135925,
      -0.03044649,
      0.017800859,
      0.023142876,
      -0.015962481,
      0.020022912,
      -0.015351949,
      0.034041005,
      -0.015878491,
      -0.020826875,
      0.014130938,
      0.019831629,
      -0.027520541,
      0.004674331,
      0.033141052,
      -0.004899663,
      0.016997757,
      -0.013565036,
      0.019633289,
      -0.040497277,
      -0.032787338,
      -0.027859534,
      0.053334383,
      -0.014937529,
      -0.000698345,
      -0.027220074,
      0.05587757,
      0.05507029,
      -0.040814841,
      -0.044280569,
      -0.041946781,
      -0.000835848,
      -0.014425641,
      -0.036791542,
      -0.019948442,
      0.011350793,
      -0.027509045,
      0.011261714,
      -0.013216873,
      -0.025929863,
      0.007449089,
      0.045618932,
      -0.03771612,
      0.003449668,
      -0.019208799,
      0.052240026,
      -0.05111377,
      -0.052322254,
      0.054753805,
      -0.035623019,
      0.010814739,
      -0.004050349,
      -0.011183724,
      -0.01488607,
      0.037908502,
      0.00348435,
      -0.054624978,
      -0.033246111,
      -0.018924572,
      0.028719665,
      -0.036610696,
      0.052353387,
      -0.01031326,
      -0.009947301,
      0.043157331,
      0.027834995,
      0.047471587,
      0.032411497,
      -0.016731968,
      -0.035459179,
      -0.002914487,
      0.045862287,
      -0.019244512,
      -0.051929212,
      0.022784751,
      0.052705062,
      -0.019616045,
      -0.046673527,
      -0.047438682,
      0.014717403,
      -0.004747574,
      -0.028255549,
      0.010153059,
      0.01529657,
      0.033755574,
      0.040725759,
      -0.007801049,
      -0.054715829,
      -0.053009307,
      0.051894136,
      0.022966004,
      0.015992443,
      -0.060114421,
      0.054535462,
      0.050830908,
      0.041308645,
      -0.050976154,
      -0.022204631,
      -0.040507043,
      0.043573597,
      -0.033587695,
      -0.023261314,
      0.023601626,
      -0.034403987,
      -0.032694408,
      -0.006256897,
      -0.007992652,
      -0.05192652,
      0.042611074,
      -0.022569058,
      0.011914753,
      0.039748875,
      0.022380217,
      0.006757127,
      0.044761404,
      0.001610687,
      -0.027178485,
      0.051998469,
      0.005267806,
      -0.063825705,
      -0.020753549,
      -0.039416561,
      0.047429712,
      -0.012630788,
      -0.05226854,
      -0.005610199,
      0.031463258,
      0.008527615,
      0.014068037,
      0.004243777,
      0.020449939,
      -0.015114868,
      -0.024599305,
      -0.054376141,
      -0.044472544,
      0.021078695,
      -0.034710761,
      0.007762814,
      0.017923779,
      0.004029218,
      -0.036281039,
      0.053587166,
      -0.030834062,
      0.047301495,
      -0.044344019,
      -0.013516824,
      0.030505168,
      -0.022734622,
      0.046807163,
      -0.039267041,
      -0.04432767,
      -0.02408939,
      0.00753412,
      0.050851671,
      -0.026545949,
      0.020404891,
      -0.014538549,
      -0.014866114,
      0.044879864,
      -0.044216358,
      0.002869846,
      0.051483587,
      -0.007526526,
      0.043959984,
      -0.017956232,
      0.040171357,
      -0.048837906,
      -0.009423959,
      -0.01286581,
      0.016764296,
      0.022094953,
      0.043383646,
      -0.009187559,
      -0.004789706,
      0.0429885,
      -0.017149389,
      0.045423397,
      -0.038446292,
      -0.005836348,
      -0.002693476,
      0.023517383,
      0.038443204,
      -0.005183634,
      -0.048730696,
      0.024688774,
      0.015736045,
      0.022626999,
      -0.034221166,
      0.035409487,
      0.054492793,
      0.007699987,
      -0.054060169,
      0.037235849,
      -0.0421025,
      0.012944808,
      0.008196275,
      -0.026140112,
      0.020450307,
      -0.049327036,
      0.011407534,
      -0.036401125,
      -0.006233904,
      0.00736048,
      0.047652717,
      -0.026890495,
      0.036066715,
      -0.006388698,
      -0.02575361,
      -0.048461647,
      -0.051226778,
      0.054539362,
      -0.014945134,
      0.000697409,
      0.014548977,
      0.038954601,
      0.047887612,
      0.045278497,
      -0.041431689,
      -0.009262125,
      -0.034647131,
      -0.034596077,
      0.01231011,
      0.050567933,
      -0.045792964,
      0.033846291,
      -0.02952663,
      -0.011030851,
      0.043043609,
      -0.014460376,
      0.00409961,
      -0.04273277,
      0.048108374,
      -0.008242034,
      -0.041758612,
      0.016134134,
      -0.040977388,
      -0.045650004,
      0.001992847,
      0.043146223,
      -0.01505457,
      0.024428612,
      0.047426829,
      0.036698982,
      -0.029992429,
      -0.00618504,
      -0.019624814,
      -0.045193202,
      -0.000607988,
      0.04020866,
      0.046256537,
      0.004946015,
      0.012439196,
      -0.024817593,
      0.040393906,
      -0.023126879,
      -0.040906535,
