{
 "begin_epoch": 0,
 "begin_batch": 240,
 "end_epoch": 0,
 "end_batch": 259,
 "weights": [
  {
   "epoch": 0,
   "batch": 240,
   "loss": 0.8323153114947601,
   "accuracy": 65.92807745504841,
   "input": [
    [
     0.0,
     0.0,
     0.0,
     0.0,
     0.0,
     0.0,
     0.0,
     0.0,
     0.0,
     0.0,
     0.0,
     0.0,
     0.0,
     0.0,
     0.0,
     0.0,
     0.0,
     0.0,
     0.0,
     0.0,
     0.0,
     0.0,
     0.0,
     0.0,
     0.0,
     0.0,
     0.0,
     0.0
    ],
    [
     0.0,
     0.0,
     0.0,
     0.0,
     0.0,
     0.0,
     0.0,
     0.0,
     0.0,
     0.0,
     0.0,
     0.0,
     0.0,
     0.0,
     0.0,
     0.0,
     0.0,
     0.0,
     0.0,
     0.0,
     0.0,
     0.0,
     0.0,
     0.0,
     0.0,
     0.0,
     0.0,
     0.0
    ],
    [
     0.0,
     0.0,
     0.0,
     0.0,
     0.0,
     0.0,
     0.0,
     0.0,
     0.0,
     0.0,
     0.0,
     0.0,
     0.0,
     0.0,
     0.0,
     0.0,
     0.0,
     0.0,
     0.0,
     0.0,
     0.0,
     0.0,
     0.0,
     0.0,
     0.0,
     0.0,
     0.0,
     0.0
    ],
    [
     0.0,
     0.0,
     0.0,
     0.0,
     0.0,
     0.0,
     0.0,
     0.0,
     0.0,
     0.0,
     0.0,
     0.0,
     0.0,
     0.0,
     0.0,
     0.0,
     0.0,
     0.0,
     0.0,
     0.0,
     0.0,
     0.0,
     0.0,
     0.0,
     0.0,
     0.0,
     0.0,
     0.0
    ],
    [
     0.0,
     0.0,
     0.0,
     0.0,
     0.0,
     0.0,
     0.0,
     0.0,
     0.0,
     0.0,
     0.0,
     0.0,
     0.0,
     0.588235294,
     0.933333333,
     0.603921569,
     0.0,
     0.0,
     0.0,
     0.0,
     0.0,
     0.0,
     0.0,
     0.0,
     0.0,
     0.0,
     0.0,
     0.0
    ],
    [
     0.0,
     0.0,
     0.0,
     0.0,
     0.0,
     0.0,
     0.0,
     0.0,
     0.0,
     0.0,
     0.0,
     0.270588235,
     0.756862745,
     0.992156863,
     0.968627451,
     0.164705882,
     0.0,
     0.094117647,
     0.11372549,
     0.098039216,
     0.0,
     0.0,
     0.0,
     0.0,
     0.0,
     0.0,
     0.0,
     0.0
    ],
    [
     0.0,
     0.0,
     0.0,
     0.0,
     0.0,
     0.0,
     0.0,
     0.0,
     0.0,
     0.0,
     0.290196078,
     0.952941176,
     0.996078431,
     0.996078431,
     0.960784314,
     0.478431373,
     0.737254902,
     0.945098039,
     0.996078431,
     0.956862745,
     0.580392157,
     0.0,
     0.0,
     0.0,
     0.0,
     0.0,
     0.0,
     0.0
    ],
    [
     0.0,
     0.0,
     0.0,
     0.0,
     0.0,
     0.0,
     0.0,
     0.0,
     0.023529412,
     0.356862745,
     0.980392157,
     0.996078431,
     0.996078431,
     0.996078431,
     0.996078431,
     0.996078431,
     0.996078431,
     0.901960784,
     0.921568627,
     0.996078431,
     0.996078431,
     0.576470588,
     0.0,
     0.0,
     0.0,
     0.0,
     0.0,
     0.0
    ],
    [
     0.0,
     0.0,
     0.0,
     0.0,
     0.0,
     0.0,
     0.0,
     0.023529412,
     0.607843137,
     0.996078431,
     0.996078431,
     0.996078431,
     0.996078431,
     0.996078431,
     0.996078431,
     0.933333333,
     0.631372549,
     0.08627451,
     0.098039216,
     0.596078431,
     0.996078431,
     0.733333333,
     0.0,
     0.0,
     0.0,
     0.0,
     0.0,
     0.0
    ],
    [
     0.0,
     0.0,
     0.0,
     0.0,
     0.0,
     0.0,
     0.0,
     0.356862745,
     0.996078431,
     0.996078431,
     0.996078431,
     0.996078431,
     0.996078431,
     0.674509804,
     0.352941176,
     0.090196078,
     0.0,
     0.0,
     0.098039216,
     0.831372549,
     0.996078431,
     0.733333333,
     0.0,
     0.0,
     0.0,
     0.0,
     0.0,
     0.0
    ],
    [
     0.0,
     0.0,
     0.0,
     0.0,
     0.0,
     0.0,
     0.0,
     0.384313725,
     0.996078431,
     0.996078431,
     0.952941176,
     0.450980392,
     0.035294118,
     0.003921569,
     0.0,
     0.0,
     0.0,
     0.0,
     0.364705882,
     0.996078431,
     0.992156863,
     0.298039216,
     0.0,
     0.0,
     0.0,
     0.0,
     0.0,
     0.0
    ],
    [
     0.0,
     0.0,
     0.0,
     0.0,
     0.0,
     0.0,
     0.0,
     0.039215686,
     0.349019608,
     0.419607843,
     0.133333333,
     0.0,
     0.0,
     0.0,
     0.0,
     0.0,
     0.0,
     0.192156863,
     0.815686275,
     0.996078431,
     0.835294118,
     0.0,
     0.0,
     0.0,
     0.0,
     0.0,
     0.0,
     0.0
    ],
    [
     0.0,
     0.0,
     0.0,
     0.0,
     0.0,
     0.0,
     0.0,
     0.0,
     0.0,
     0.0,
     0.0,
     0.0,
     0.0,
     0.0,
     0.0,
     0.0,
     0.0,
     0.537254902,
     0.996078431,
     0.996078431,
     0.71372549,
     0.0,
     0.0,
     0.0,
     0.0,
     0.0,
     0.0,
     0.0
    ],
    [
     0.0,
     0.0,
     0.0,
     0.0,
     0.0,
     0.0,
     0.0,
     0.0,
     0.0,
     0.0,
     0.0,
     0.0,
     0.0,
     0.0,
     0.0,
     0.0,
     0.168627451,
     0.909803922,
     0.996078431,
     0.91372549,
     0.117647059,
     0.0,
     0.0,
     0.0,
     0.0,
     0.0,
     0.0,
     0.0
    ],
    [
     0.0,
     0.0,
     0.0,
     0.0,
     0.0,
     0.0,
     0.0,
     0.0,
     0.0,
     0.0,
     0.0,
     0.0,
     0.0,
     0.0,
     0.0,
     0.019607843,
     0.858823529,
     0.996078431,
     0.996078431,
     0.658823529,
     0.0,
     0.0,
     0.0,
     0.0,
     0.0,
     0.0,
     0.0,
     0.0
    ],
    [
     0.0,
     0.0,
     0.0,
     0.0,
     0.0,
     0.0,
     0.0,
     0.0,
     0.0,
     0.0,
     0.0,
     0.0,
     0.0,
     0.0,
     0.019607843,
     0.654901961,
     0.996078431,
     0.996078431,
     0.803921569,
     0.031372549,
     0.0,
     0.0,
     0.0,
     0.0,
     0.0,
     0.0,
     0.0,
     0.0
    ],
    [
     0.0,
     0.0,
     0.0,
     0.0,
     0.0,
     0.0,
     0.0,
     0.0,
     0.0,
     0.0,
     0.0,
     0.0,
     0.0,
     0.0,
     0.615686275,
     0.996078431,
     0.996078431,
     0.91372549,
     0.180392157,
     0.0,
     0.0,
     0.0,
     0.0,
     0.0,
     0.0,
     0.0,
     0.0,
     0.0
    ],
    [
     0.0,
     0.0,
     0.0,
     0.0,
     0.0,
     0.0,
     0.0,
     0.0,
     0.0,
     0.0,
     0.0,
     0.0,
     0.137254902,
     0.631372549,
     0.960784314,
     0.996078431,
     0.768627451,
     0.2,
     0.0,
     0.0,
     0.0,
     0.0,
     0.0,
     0.0,
     0.0,
     0.0,
     0.0,
     0.0
    ],
    [
     0.0,
     0.0,
     0.0,
     0.0,
     0.0,
     0.0,
     0.0,
     0.0,
     0.0,
     0.0,
     0.0,
     0.160784314,
     0.768627451,
     0.996078431,
     0.996078431,
     0.996078431,
     0.345098039,
     0.0,
     0.0,
     0.0,
     0.0,
     0.0,
     0.0,
     0.0,
     0.0,
     0.0,
     0.0,
     0.0
    ],
    [
     0.0,
     0.0,
     0.0,
     0.0,
     0.0,
     0.0,
     0.0,
     0.0,
     0.074509804,
     0.152941176,
     0.231372549,
     0.88627451,
     0.996078431,
     0.996078431,
     0.909803922,
     0.211764706,
     0.007843137,
     0.0,
     0.0,
     0.0,
     0.0,
     0.0,
     0.0,
     0.0,
     0.0,
     0.0,
     0.0,
     0.0
    ],
    [
     0.0,
     0.0,
     0.0,
     0.0,
     0.0,
     0.0,
     0.015686275,
     0.250980392,
     0.823529412,
     0.996078431,
     0.996078431,
     0.996078431,
     0.996078431,
     0.996078431,
     0.592156863,
     0.4,
     0.603921569,
     0.776470588,
     0.776470588,
     0.717647059,
     0.541176471,
     0.149019608,
     0.0,
     0.0,
     0.0,
     0.0,
     0.0,
     0.0
    ],
    [
     0.0,
     0.0,
     0.0,
     0.0,
     0.0,
     0.0,
     0.737254902,
     0.996078431,
     0.996078431,
     0.996078431,
     0.996078431,
     0.996078431,
     0.996078431,
     0.996078431,
     0.996078431,
     0.996078431,
     0.996078431,
     0.996078431,
     0.996078431,
     0.996078431,
     0.996078431,
     0.494117647,
     0.0,
     0.0,
     0.0,
     0.0,
     0.0,
     0.0
    ],
    [
     0.0,
     0.0,
     0.0,
     0.0,
     0.0,
     0.0,
     0.737254902,
     0.996078431,
     0.996078431,
     0.996078431,
     0.996078431,
     0.996078431,
     0.996078431,
     0.996078431,
     0.996078431,
     0.996078431,
     0.976470588,
     0.866666667,
     0.952941176,
     0.976470588,
     0.705882353,
     0.039215686,
     0.0,
     0.0,
     0.0,
     0.0,
     0.0,
     0.0
    ],
    [
     0.0,
     0.0,
     0.0,
     0.0,
     0.0,
     0.0,
     0.737254902,
     0.996078431,
     0.674509804,
     0.619607843,
     0.619607843,
     0.619607843,
     0.501960784,
     0.243137255,
     0.243137255,
     0.243137255,
     0.203921569,
     0.0,
     0.160784314,
     0.207843137,
     0.0,
     0.0,
     0.0,
     0.0,
     0.0,
     0.0,
     0.0,
     0.0
    ],
    [
     0.0,
     0.0,
     0.0,
     0.0,
     0.0,
     0.0,
     0.0,
     0.0,
     0.0,
     0.0,
     0.0,
     0.0,
     0.0,
     0.0,
     0.0,
     0.0,
     0.0,
     0.0,
     0.0,
     0.0,
     0.0,
     0.0,
     0.0,
     0.0,
     0.0,
     0.0,
     0.0,
     0.0
    ],
    [
     0.0,
     0.0,
     0.0,
     0.0,
     0.0,
     0.0,
     0.0,
     0.0,
     0.0,
     0.0,
     0.0,
     0.0,
     0.0,
     0.0,
     0.0,
     0.0,
     0.0,
     0.0,
     0.0,
     0.0,
     0.0,
     0.0,
     0.0,
     0.0,
     0.0,
     0.0,
     0.0,
     0.0
    ],
    [
     0.0,
     0.0,
     0.0,
     0.0,
     0.0,
     0.0,
     0.0,
     0.0,
     0.0,
     0.0,
     0.0,
     0.0,
     0.0,
     0.0,
     0.0,
     0.0,
     0.0,
     0.0,
     0.0,
     0.0,
     0.0,
     0.0,
     0.0,
     0.0,
     0.0,
     0.0,
     0.0,
     0.0
    ],
    [
     0.0,
     0.0,
     0.0,
     0.0,
     0.0,
     0.0,
     0.0,
     0.0,
     0.0,
     0.0,
     0.0,
     0.0,
     0.0,
     0.0,
     0.0,
     0.0,
     0.0,
     0.0,
     0.0,
     0.0,
     0.0,
     0.0,
     0.0,
     0.0,
     0.0,
     0.0,
     0.0,
     0.0
    ]
   ],
   "output": 2,
   "conv_layer": {
    "w": [
     [
      [
       [
        0.093421899,
        0.026625286,
        -0.388884427,
        -0.428564932,
        -0.433077749
       ],
       [
        0.188961563,
        -0.137554107,
        -0.157364402,
        -0.330388945,
        -0.323246526
       ],
       [
        0.148813175,
        -0.119535483,
        -0.465195354,
        -0.387664967,
        -0.370340455
       ],
       [
        0.49560626,
        0.380002365,
        0.263250904,
        -0.066193822,
        -0.092061919
       ],
       [
        0.711021207,
        0.73542096,
        0.494318552,
        0.647796193,
        0.349383279
       ]
      ]
     ],
     [
      [
       [
        0.19331537,
        0.274002122,
        -0.240577052,
        -0.22428688,
        -0.109962573
       ],
       [
        -0.09217609,
        0.093374579,
        -0.230394943,
        -0.198532659,
        -0.206366225
       ],
       [
        -0.313559644,
        -0.263879477,
        0.098457565,
        0.014139499,
        -0.016445891
       ],
       [
        -0.214094222,
        -0.238993284,
        0.007362461,
        -0.244063957,
        -0.295298474
       ],
       [
        -0.30251949,
        0.031071011,
        0.0245952,
        -0.248367515,
        -0.203735341
       ]
      ]
     ],
     [
      [
       [
        0.318164429,
        0.563560333,
        0.513418294,
        0.381379631,
        0.350849065
       ],
       [
        -0.122763704,
        0.194358676,
        0.127773155,
        0.202774408,
        0.265965543
       ],
       [
        0.044402574,
        0.285137949,
        0.319691133,
        0.748494348,
        0.859202101
       ],
       [
        0.001859537,
        0.361775794,
        0.840439388,
        1.324580997,
        1.426453678
       ],
       [
        -0.056319315,
        0.341861668,
        1.112685759,
        1.595727455,
        1.56258892
       ]
      ]
     ],
     [
      [
       [
        0.529540566,
        0.565552594,
        0.292623778,
        0.244119395,
        -0.087569389
       ],
       [
        0.101625701,
        0.706436659,
        0.631310426,
        -0.026857981,
        0.044129034
       ],
       [
        0.188190856,
        0.449904632,
        0.354684932,
        0.254464042,
        -0.087255921
       ],
       [
        0.280278703,
        0.573330356,
        0.601407599,
        0.281142759,
        -0.1255572
       ],
       [
        -0.000623112,
        0.481067401,
        0.430469891,
        0.031394411,
        -0.020216543
       ]
      ]
     ],
     [
      [
       [
        0.101458013,
        0.201317062,
        -0.006862586,
        -0.016051476,
        -0.09959163
       ],
       [
        -0.185739701,
        -0.19135426,
        -0.135171892,
        0.193434315,
        0.43867737
       ],
       [
        -0.202191095,
        0.121725877,
        0.027382989,
        0.705012356,
        0.816883831
       ],
       [
        -0.159783814,
        0.05120929,
        0.312625355,
        0.548925928,
        0.608172938
       ],
       [
        0.163119403,
        0.205192554,
        0.230420247,
        0.456226763,
        0.088971142
       ]
      ]
     ]
    ],
    "b": [
     -0.079359735,
     0.023260429,
     -0.978405044,
     -0.432297424,
     -0.489352938
    ]
   },
   "dense_layer": {
    "w": [
     [
      0.012229767,
      0.017682906,
      -0.067251757,
      -0.011960382,
      0.145608578,
      0.145496744,
      0.061710006,
      -0.005042359,
      0.030089168,
      0.022151323,
      -0.013600347,
      -0.064825675,
      -0.016304771,
      0.061526237,
      0.09038999,
      0.01637796,
      0.060798247,
      0.016215118,
      -0.088545833,
      -0.146304698,
      -0.205342259,
      -0.216152511,
      0.119437054,
      0.161818801,
      0.052591678,
      -0.084843877,
      -0.068720063,
      -0.118022647,
      -0.140048256,
      -0.319106725,
      -0.006412975,
      0.128775538,
      -0.04464901,
      -0.127765091,
      0.144839293,
      0.237355184,
      -0.002618645,
      -0.187440701,
      -0.087031516,
      0.074989892,
      0.052514467,
      -0.117542178,
      0.376872273,
      0.429383403,
      0.023619195,
      -0.137609584,
      -0.04405193,
      -0.019579277,
      0.072314981,
      -0.124572616,
      0.084256777,
      0.171966026,
      -0.007136673,
      -0.05706273,
      0.044929272,
      0.024361405,
      0.013948932,
      0.00884472,
      -0.063437707,
      -0.000394585,
      0.051810809,
      0.068111557,
      -0.029641153,
      0.013377019,
      -0.028875268,
      -0.022635482,
      -0.032831791,
      0.02381227,
      -0.005434768,
      0.028472632,
      0.014225347,
      0.038205949,
      -0.033227995,
      -0.032354785,
      -0.034023552,
      0.020547081,
      -0.11203451,
      -0.057696297,
      0.018864355,
      0.008415029,
      0.009777063,
      0.005531846,
      -0.02856848,
      -0.120951385,
      -0.090051974,
      -0.099862783,
      0.022807192,
      -0.001737441,
      0.057739671,
      -0.059504049,
      -0.098419241,
      0.074059061,
      0.17716091,
      -0.008040663,
      -0.012167395,
      0.084405079,
      -0.034598019,
      -0.099908037,
      -0.059224285,
      0.157759185,
      0.17670305,
      -0.050297606,
      -0.080155724,
      0.084517996,
      0.033203205,
      -0.158789978,
      0.04595704,
      0.083756262,
      -0.013821491,
      -0.147210094,
      -0.014051037,
      0.07122516,
      -0.009584282,
      -0.071698941,
      -0.01464125,
      -0.141385914,
      -0.089315199,
      -0.047523092,
      0.069811827,
      0.001279066,
      -0.01926793,
      0.011063663,
      0.046479417,
      -0.002859581,
      0.006494855,
      0.033568202,
      -0.044786532,
      0.021632318,
      -0.018289286,
      -0.138649253,
      -0.124389875,
      0.227513093,
      0.331165584,
      0.146359759,
      -0.05459734,
      -0.016009717,
      -0.094296558,
      -0.27190809,
      -0.056356856,
      0.16884958,
      0.176497636,
      0.274566033,
      0.005406413,
      -0.036311025,
      -0.111939524,
      -0.148552661,
      0.239265571,
      0.003270491,
      -0.15607332,
      0.293186696,
      0.371581876,
      -0.043802905,
      0.001555746,
      0.249460661,
      0.028623034,
      -0.558755838,
      -0.844776619,
      0.150075126,
      0.341914624,
      0.062448202,
      0.104432235,
      0.392964447,
      -0.093588578,
      -0.984145397,
      -0.672640733,
      0.150143891,
      0.203998568,
      0.04251191,
      0.112534381,
      0.415247055,
      0.21846492,
      -0.370042691,
      -0.191547247,
      0.085017857,
      -0.014995023,
      0.024804064,
      0.01011714,
      0.348702761,
      0.517513699,
      0.15697202,
      -0.047744624,
      -0.078537727,
      -0.01414747,
      -0.007684004,
      0.029380437,
      0.048182625,
      0.071894149,
      0.0904693,
      0.044543183,
      -0.019867498,
      -0.040437679,
      0.002596918,
      -0.027343508,
      0.013969503,
      0.018756792,
      0.027153602,
      0.051492092,
      0.058427853,
      0.021311022,
      -0.035136242,
      -0.031339555,
      -0.085169513,
      -0.101343396,
      -0.055158059,
      -0.023621028,
      0.072237915,
      0.108270006,
      0.031188202,
      0.058483132,
      -0.065804287,
      -0.145660144,
      0.085848135,
      0.108388598,
      -0.024334944,
      0.224165544,
      0.148690786,
      0.025933541,
      -0.081339675,
      0.136226751,
      0.211462758,
      -0.11081534,
      -0.23465032,
      0.262722717,
      0.211462823,
      -0.018603202,
      -0.004528226,
      0.331144616,
      0.131802766,
      -0.485079296,
      -0.302249502,
      0.105408898,
      0.053995623,
      -0.089736089,
      0.003517053,
      0.406667749,
      0.06760102,
      -0.25055172,
      -0.181465796,
      -0.014638186,
      -0.017445748,
      -0.049916084,
      -0.046441612,
      0.15915051,
      0.061794862,
      -0.112765018,
      -0.068456521,
      0.000174851,
      0.004426527,
      0.050867166,
      0.013811205,
      0.083007353,
      0.059941459,
      0.050039041,
      0.03256031,
      -0.038504999,
      0.035842626,
      0.065416243,
      0.047847671,
      -0.030339164,
      0.081923786,
      0.099493436,
      0.020257745,
      -0.006840543,
      0.003120153,
      -0.038362913,
      -0.07209202,
      -0.014377534,
      0.105274692,
      0.089969752,
      0.030510277,
      -0.043188866,
      0.030202433,
      -0.061716972,
      -0.030181345,
      0.125036939,
      0.023964883,
      0.023903847,
      0.075508456,
      -0.049441696,
      0.025904965,
      -0.027234856,
      0.072600153,
      0.132199325,
      -0.111892222,
      -0.222378189,
      0.00619737,
      -0.048154767,
      -0.006371935,
      0.033667617,
      0.127287363,
      -0.043766804,
      -0.29388215,
      -0.120072239,
      0.114115676,
      -0.034841615,
      0.017045563,
      -0.007170885,
      -0.000848285,
      -0.038175936,
      -0.068591517,
      0.067056795,
      0.100446673,
      0.02286303,
      0.123417352,
      -0.051748801,
      0.029521218,
      0.158745684,
      0.038910416,
      0.085524331,
      -0.06117387,
      0.035331776,
      0.029576107,
      0.007563688,
      0.01825585,
      -0.00870495,
      0.114191993,
      0.008909054,
      0.085721393,
      0.056657729,
      -0.0235929
     ],
     [
      0.004095622,
      -0.023411727,
      -0.028739937,
      -0.053297584,
      -0.04641305,
      0.05626823,
      0.006750877,
      0.002310661,
      -0.090369936,
      -0.076662017,
      -0.159921892,
      -0.180665761,
      -0.031753849,
      -0.134370262,
      -0.135476902,
      -0.059417981,
      -0.032531177,
      -0.063424448,
      -0.07631787,
      -0.169475842,
      0.098998964,
      0.061274075,
      -0.145104396,
      -0.106560557,
      -0.019758642,
      -0.076371124,
      -0.106891757,
      -0.340008455,
      0.039525872,
      -0.00075358,
      -0.239353598,
      -0.136443265,
      -0.089034056,
      0.002941149,
      -0.058583865,
      -0.343444639,
      0.264919328,
      -0.02481632,
      -0.207149825,
      -0.119666351,
      -0.051856267,
      -0.031266148,
      -0.085486979,
      -0.316189483,
      0.26885529,
      -0.071649005,
      -0.189754253,
      -0.113671082,
      0.013176641,
      0.022667144,
      -0.184333689,
      -0.090868635,
      0.174371791,
      0.005398643,
      -0.037809919,
      -0.091552869,
      -0.02346606,
      -0.02366731,
      -0.019543979,
      0.064284704,
      -0.038480674,
      -0.028738963,
      -0.075727288,
      -0.068146794,
      -0.0027764,
      -0.000119031,
      -0.057110462,
      -0.009050653,
      0.094657685,
      0.050141261,
      0.017536985,
      -0.035637332,
      0.001698251,
      -0.062807816,
      -0.062698099,
      -0.037374968,
      0.179062612,
      -0.026961123,
      -0.060272797,
      -0.052387975,
      0.039048343,
      0.049305196,
      -0.025608489,
      -0.066378324,
      -0.028447542,
      -0.124108244,
      -0.040260331,
      -0.06449102,
      -0.034864128,
      0.019244732,
      0.011208477,
      -0.115846837,
      -0.057564994,
      -0.012195921,
      -0.024861814,
      0.004414568,
      -0.053589881,
      0.010376539,
      0.006049128,
      -0.165894784,
      0.029214851,
      -0.031433278,
      0.002598851,
      -0.06914614,
      -0.004904376,
      -0.004179788,
      -0.038894496,
      -0.194552589,
      0.158542578,
      -0.012080684,
      -0.104321981,
      -0.067107821,
      -0.033162635,
      0.008595416,
      -0.120720158,
      0.017353871,
      0.090195638,
      -0.054451076,
      -0.014607705,
      -0.005018796,
      0.031123972,
      0.012086375,
      -0.006706767,
      0.054382754,
      0.069333304,
      0.025649663,
      -0.061070672,
      -0.076673683,
      -0.033740073,
      -0.087417019,
      -0.185102813,
      0.01140313,
      0.117606363,
      0.174032671,
      0.081847589,
      -0.066002419,
      -0.101358824,
      -0.341547293,
      -0.552782073,
      -0.066490713,
      0.21498984,
      -0.220558858,
      -0.093942457,
      -0.010410252,
      -0.113640097,
      -0.455764566,
      -0.78788947,
      0.492950446,
      0.344181694,
      -0.340250138,
      -0.218722761,
      -0.129472468,
      -0.191439144,
      -0.489301379,
      -0.681081062,
      0.571065579,
      0.172669116,
      -0.45007664,
      -0.321834037,
      -0.135237506,
      -0.196531972,
      -0.517185046,
      -0.097743585,
      0.518234179,
      -0.166613848,
      -0.489343315,
      -0.330749341,
      -0.100200754,
      -0.128968958,
      -0.148117868,
      0.057381628,
      0.358922951,
      -0.329072343,
      -0.599020356,
      -0.316852277,
      -0.148231374,
      -0.006188781,
      0.0389004,
      -0.03530006,
      -0.028220201,
      -0.05239483,
      -0.266244021,
      -0.196603054,
      -0.087767304,
      -0.011229108,
      -0.025007796,
      -0.180891954,
      -0.251852532,
      -0.16975923,
      -0.115339106,
      -0.150790139,
      -0.053777512,
      -0.007997773,
      -0.023132314,
      -0.06957891,
      0.070006929,
      0.066760407,
      0.113597722,
      0.014675717,
      -0.017596519,
      0.004456141,
      -0.056750347,
      -0.032012946,
      -0.135157769,
      0.132853851,
      0.083366902,
      0.021583242,
      0.02079028,
      -0.051648686,
      -0.012122787,
      -0.150007904,
      -0.315297188,
      0.461150017,
      -0.027915131,
      -0.11388101,
      -0.030333818,
      -0.031481541,
      0.015018325,
      -0.184771743,
      -0.311331041,
      0.51741646,
      -0.007380758,
      -0.207044371,
      -0.09750293,
      -0.001835778,
      -0.002700536,
      -0.181179126,
      -0.077714578,
      0.538705315,
      -0.169830721,
      -0.226675372,
      -0.137637604,
      -0.029085903,
      -0.044476671,
      -0.053921666,
      0.131347694,
      0.37886963,
      -0.285385396,
      -0.202728397,
      -0.070497514,
      -3.747e-05,
      -0.012278229,
      0.073646681,
      0.163130455,
      0.23071194,
      -0.173315065,
      -0.094585873,
      -0.105868341,
      -0.010818886,
      0.031572569,
      0.01911548,
      0.004231932,
      -0.039054312,
      -0.030645296,
      -0.10316494,
      -0.04670577,
      -0.057090879,
      -0.027964218,
      -0.095988703,
      0.022705857,
      -0.019294638,
      0.019328694,
      -0.045297083,
      -0.11237591,
      -0.027021758,
      -0.167803272,
      -0.217709019,
      -0.106836912,
      0.07936597,
      0.067850749,
      0.013706456,
      -0.11943032,
      -0.106422816,
      -0.22845082,
      -0.348955801,
      -0.008066642,
      0.008453648,
      -0.17908364,
      -0.046143921,
      -0.121575769,
      -0.098681107,
      -0.146929824,
      -0.303815642,
      0.146186299,
      -0.174367806,
      -0.060452285,
      -0.129027167,
      -0.155783443,
      -0.083759407,
      -0.230134474,
      -0.176059567,
      0.101255577,
      -0.174355171,
      -0.10868767,
      -0.145625352,
      -0.05174827,
      -0.073799784,
      -0.101656834,
      0.001237818,
      -0.008216507,
      -0.258289025,
      -0.137660855,
      -0.125017033,
      -0.059957087,
      -0.056824341,
      0.028418016,
      -0.061241417,
      -0.132486968,
      -0.114828223,
      -0.211939609,
      -0.161812264,
      -0.070201392,
      -0.093787605,
      0.043778767,
      -0.066268691,
      -0.085347764,
      -0.017397045,
      -0.060841513,
      -0.165142439,
      -0.096738795
     ],
     [
      0.021878831,
      -0.026215408,
      0.117808589,
      0.186658216,
      0.222746506,
      0.072783026,
      0.048248233,
      -0.069740919,
      0.061962947,
      -0.052642753,
      -0.105575745,
      -0.065689197,
      -0.073781503,
      0.001243892,
      -0.057670511,
      -0.070307779,
      -0.011563233,
      -0.068741765,
      -0.057247964,
      -0.086479393,
      -0.070371071,
      0.036430567,
      0.052837967,
      -0.020897168,
      -0.008965844,
      0.041385222,
      0.058160304,
      0.022489069,
      -0.036738971,
      -0.075190716,
      -0.042532813,
      -0.060994055,
      0.052278461,
      0.016052505,
      0.07672974,
      0.21114637,
      0.219863391,
      0.086631775,
      0.094546923,
      0.105916371,
      -0.048683777,
      -0.093957841,
      -0.133243241,
      -0.163185988,
      -0.032932813,
      0.155590136,
      0.163186233,
      0.236234897,
      -0.025099046,
      -0.098809831,
      -0.144371579,
      -0.16198587,
      -0.0761938,
      -0.103917588,
      0.009503661,
      0.084276825,
      0.002630668,
      -0.010294731,
      0.071474499,
      0.065892842,
      0.007605385,
      -0.075204212,
      0.008524705,
      0.00988521,
      -0.045182381,
      0.026012619,
      0.019716822,
      -0.022541084,
      -0.037310501,
      -0.004101538,
      -0.025844878,
      0.028175474,
      0.004659451,
      0.019779263,
      -0.025376586,
      -0.139501168,
      -0.074950887,
      0.070640952,
      0.020844078,
      -0.003892424,
      0.003975391,
      0.046293415,
      0.006163352,
      0.043600375,
      0.109848787,
      0.044665548,
      0.012644548,
      -0.050155253,
      0.041610219,
      0.009435642,
      0.161454392,
      0.172651731,
      0.067819303,
      0.01246832,
      0.041614853,
      -0.035920878,
      -0.001292692,
      0.03840365,
      0.031566728,
      -0.029616261,
      -0.065219105,
      -0.045362859,
      -0.04927385,
      0.025691275,
      -0.008209756,
      -0.018470314,
      -0.088064244,
      -0.143786798,
      -0.166545031,
      -0.04067072,
      -0.030994619,
      -0.013230308,
      -0.050903918,
      0.017923511,
      -0.021487581,
      0.034691749,
      0.081211004,
      -0.072386816,
      0.023412185,
      0.145338254,
      -0.030530105,
      0.057812773,
      0.058800989,
      0.096857719,
      -0.055297071,
      -0.028805976,
      -0.004401145,
      0.057293909,
      0.046253654,
      0.274290535,
      0.526874612,
      0.513783832,
      0.298855734,
      0.015365439,
      -0.07044558,
      -0.043822256,
      0.051177139,
      0.236473031,
      0.238370058,
      0.157136915,
      0.220436985,
      -0.01385451,
      -0.149117306,
      -0.059073617,
      0.034161929,
      -0.223604742,
      -0.467678154,
      -0.294654401,
      -0.012987163,
      -0.082244961,
      -0.15262715,
      -0.13138249,
      -0.187790617,
      -0.434262335,
      -0.577879043,
      -0.468202604,
      -0.128886425,
      -0.285059678,
      -0.149863282,
      0.001344038,
      0.132770825,
      0.020369387,
      0.058146065,
      0.26490758,
      0.080587561,
      -0.092480218,
      0.087890276,
      0.083602995,
      0.333362188,
      0.361317883,
      0.500602076,
      0.368551005,
      0.250547905,
      0.360064036,
      0.394508625,
      0.240918206,
      0.133718005,
      0.196351186,
      0.112948208,
      -0.145439304,
      -0.030790131,
      0.264759929,
      0.339949892,
      0.227725353,
      0.067088608,
      0.049500404,
      -0.077235049,
      -0.235607381,
      -0.215763844,
      -0.038267788,
      0.114001929,
      0.139015961,
      0.050893043,
      -0.054280858,
      -0.033637479,
      0.06762778,
      0.139732575,
      0.022588301,
      -0.012210331,
      0.004081185,
      0.017951546,
      0.044030199,
      0.133497536,
      0.127594131,
      0.092539958,
      0.119630355,
      -0.003160626,
      -0.01776483,
      -0.05206844,
      0.053497634,
      -0.036006215,
      -0.113720943,
      0.017423667,
      0.074701543,
      -0.041009298,
      -0.103480585,
      -0.044002396,
      -0.052644196,
      -0.242711968,
      -0.220539891,
      -0.12035154,
      0.06169357,
      -0.099001409,
      -0.080095306,
      0.035766169,
      -0.037053021,
      -0.171589944,
      -0.123772863,
      -0.017879748,
      -0.108249022,
      -0.160504489,
      -0.021223921,
      -0.005558768,
      -0.059059009,
      -0.047264232,
      0.193914648,
      0.049774721,
      -0.098741722,
      0.038882325,
      0.18959617,
      0.007782613,
      0.052480328,
      0.11836227,
      0.026678643,
      -0.080298755,
      -0.005861894,
      0.224668752,
      0.222606858,
      -0.030788669,
      0.023766689,
      0.035418327,
      -0.098718225,
      -0.204030308,
      -0.086626023,
      0.056885571,
      0.041422707,
      -0.026178839,
      0.084677991,
      0.142497417,
      0.201239539,
      0.077698516,
      -0.052420975,
      -0.048451842,
      -0.027680576,
      0.046689313,
      0.181603462,
      0.138715478,
      0.041036687,
      -0.057477901,
      -0.053088062,
      -0.108497013,
      0.022796408,
      0.016195082,
      -0.053207732,
      -0.096413548,
      -0.071652823,
      0.018075313,
      -0.063241034,
      -0.108466785,
      -0.00068727,
      -0.06294354,
      -0.226117581,
      -0.199417634,
      -0.089373792,
      -0.063713016,
      -0.057178905,
      0.013765465,
      0.023168855,
      0.05609134,
      0.033471462,
      0.074636247,
      0.126457715,
      0.042492759,
      -0.007990703,
      0.002789434,
      0.031769761,
      0.11643561,
      0.137926856,
      0.225569176,
      0.159493779,
      0.014857582,
      -0.000905755,
      0.127968134,
      0.050279531,
      0.147009745,
      0.034114851,
      -0.043933997,
      -0.046141011,
      0.047737166,
      0.077838389,
      0.132405227,
      0.088146275,
      0.011808567,
      -0.066910059,
      -0.0483769,
      -0.005535395,
      -0.076772041,
      -0.092989903,
      0.052944014,
      0.058578378
     ],
     [
      0.003920943,
      0.113698835,
      0.14157291,
      0.25227145,
      0.153608622,
      0.069354466,
      0.008597214,
      -0.07230671,
      0.025911304,
      0.033456176,
      -0.013369563,
      -0.102703685,
      0.001264946,
      0.071671307,
      -0.027169516,
      -0.001842682,
      -0.038352829,
      -0.044375978,
      0.016459541,
      -0.046812377,
      -0.035298977,
      -0.023784343,
      -0.035483184,
      -0.014708024,
      -0.033154063,
      0.021856559,
      0.075145168,
      -0.145461481,
      -0.0736453,
      0.146925619,
      0.039523142,
      -0.072744669,
      0.009335942,
      0.123768593,
      -0.109552789,
      -0.18854756,
      -0.097957124,
      0.079106096,
      0.142399732,
      -0.028625367,
      0.01792414,
      0.254132215,
      0.215135261,
      0.197732693,
      -0.006147946,
      -0.014684801,
      0.097889602,
      0.01915901,
      0.051570518,
      0.074758612,
      0.220562877,
      0.182171046,
      -0.067444938,
      -0.054858476,
      0.062738748,
      -0.0462773,
      0.015318706,
      -0.064540587,
      0.008651279,
      -0.059284907,
      0.009822437,
      -0.028347928,
      -0.023873894,
      0.008852524,
      0.050113902,
      -0.036695819,
      -0.000744722,
      0.082232153,
      -0.000317188,
      0.01764915,
      -0.062983981,
      -0.022247557,
      -0.021631138,
      0.04810641,
      -0.014804921,
      -0.134214094,
      -0.05750089,
      -0.020691464,
      -0.051713085,
      -0.045447879,
      -0.013663949,
      0.055074006,
      0.004282161,
      0.010122202,
      -0.019821385,
      -0.018550913,
      -0.005192293,
      -0.016054809,
      -0.004563054,
      0.022937078,
      0.077963462,
      -0.072265053,
      -0.104469623,
      0.008364255,
      0.00484607,
      -0.057811997,
      0.004953077,
      0.107390571,
      0.05675814,
      -0.079789824,
      0.011420969,
      0.179793155,
      0.071118915,
      0.031324295,
      0.013359006,
      0.037277587,
      0.143500329,
      0.117278885,
      0.064693852,
      0.025311975,
      0.069911482,
      0.039466661,
      0.048355331,
      -0.031474754,
      0.006753564,
      -0.022756534,
      -0.12883301,
      0.022318685,
      0.029601073,
      -0.036628932,
      -0.019256001,
      -0.012193281,
      0.031390762,
      -0.074939037,
      -0.054457018,
      0.006508949,
      0.05533578,
      0.0260183,
      0.072483003,
      0.342281906,
      0.46539116,
      0.240726546,
      0.020881956,
      -0.045608089,
      -0.063983589,
      0.004401237,
      0.198311049,
      0.382345848,
      0.094182272,
      -0.012035224,
      0.235610405,
      0.142666778,
      -0.070221618,
      -0.075076577,
      0.091908128,
      -0.317035955,
      -0.414271485,
      0.16122607,
      0.457301304,
      0.074303207,
      -0.087843321,
      -0.027368038,
      -0.068065588,
      -0.410980366,
      0.014544614,
      0.199510322,
      0.121897043,
      0.022504039,
      -0.046087797,
      -0.068880632,
      0.023480687,
      -0.327520163,
      -0.354125506,
      -0.173399267,
      0.183255684,
      0.269754848,
      0.043395181,
      -0.105233939,
      0.323318871,
      -0.055635027,
      -0.591629681,
      -0.434218218,
      0.096781176,
      0.249440168,
      0.162096831,
      0.003840986,
      0.400673573,
      0.38752956,
      0.063801957,
      -0.029511452,
      0.100779998,
      0.190412606,
      0.068796957,
      -0.026577816,
      0.136505808,
      0.186298457,
      0.168684161,
      0.086125564,
      0.109923904,
      0.153276164,
      0.012146495,
      -0.011576121,
      0.019068851,
      0.040303446,
      0.062755955,
      0.005296788,
      -0.007993935,
      0.03514004,
      -0.024513006,
      -0.062990348,
      0.066420019,
      0.136553028,
      0.071317974,
      -0.032176676,
      0.007692168,
      0.08380111,
      0.080568743,
      -0.075686897,
      0.077623735,
      0.036792796,
      -0.138437173,
      -0.29357408,
      0.066297137,
      0.270489676,
      0.074217798,
      -0.028421455,
      -0.005733703,
      -0.037872687,
      -0.294651194,
      -0.152159632,
      0.150915437,
      0.072802369,
      -0.06033266,
      -0.103451566,
      0.056030544,
      0.049786939,
      -0.220231971,
      -0.074667104,
      0.043533286,
      0.149660846,
      0.084494879,
      -0.016385281,
      0.066939896,
      0.072157661,
      -0.172130094,
      -0.147069611,
      -0.199905482,
      0.12254359,
      0.212327002,
      -0.006975997,
      0.042976722,
      0.09063609,
      0.019575139,
      -0.098716183,
      -0.126325533,
      0.055387986,
      0.132955103,
      -0.005285076,
      0.043582909,
      0.112119922,
      0.012260303,
      -0.008539016,
      -0.004735359,
      0.090368367,
      0.016038346,
      -0.016994148,
      0.081223057,
      0.02218248,
      0.092726594,
      0.086891062,
      -0.056147351,
      0.034983322,
      0.045903345,
      0.058152565,
      0.124926177,
      0.315569638,
      0.147214276,
      -0.025964667,
      0.005807274,
      0.009706363,
      0.001215609,
      0.039264807,
      0.045143766,
      -0.002607893,
      -0.202423294,
      0.053168643,
      0.26803462,
      0.105900452,
      -0.005928321,
      0.035958052,
      -0.040789387,
      -0.034856811,
      0.146941743,
      0.248031918,
      0.006179661,
      -0.028859413,
      0.070592749,
      0.021274735,
      0.003754633,
      -0.004715359,
      0.121081775,
      -0.089000383,
      0.024598647,
      0.060306481,
      0.048903533,
      0.031198417,
      0.103444186,
      -0.0754229,
      -0.239915061,
      -0.093818792,
      0.051725208,
      0.134006351,
      0.08048846,
      0.029885524,
      0.228054709,
      0.110835802,
      0.038621632,
      0.005237201,
      0.136600572,
      0.057051234,
      0.097848803,
      -0.020050168,
      0.033389253,
      0.142999532,
      0.084698207,
      0.046113672,
      0.087758411,
      0.09051331,
      0.099707111,
      -0.017285616
     ],
     [
      0.001476259,
      -0.013801494,
      0.043563761,
      0.002663556,
      -0.110843377,
      -0.119259283,
      0.07600408,
      -0.00043363,
      -0.049088504,
      -0.005689159,
      0.050113217,
      0.064040905,
      -0.126809215,
      -0.192227164,
      -0.10993745,
      -0.016844055,
      0.018676261,
      0.009962629,
      0.071688943,
      0.177335091,
      -0.019939386,
      -0.011589417,
      -0.02806527,
      -0.095465154,
      -0.04078401,
      -0.052552047,
      0.079736753,
      0.263580289,
      0.015493362,
      0.174696717,
      0.088541686,
      -0.009981863,
      -0.038131804,
      -0.203650997,
      -0.146899128,
      0.11188338,
      -0.126214625,
      0.017219347,
      0.029588306,
      -0.076797688,
      0.024333645,
      -0.060957196,
      -0.181942211,
      -0.325329557,
      -0.183148395,
      -0.066720645,
      -0.064809274,
      -0.053040325,
      -0.027470236,
      0.053899299,
      -0.030812954,
      -0.092734504,
      0.008376819,
      0.039284303,
      -0.007751809,
      -0.064532506,
      0.021965231,
      0.034489236,
      0.073345748,
      0.030631805,
      0.038217635,
      -0.022679655,
      0.033298541,
      0.039908522,
      -0.03381093,
      -0.04651115,
      -0.028678619,
      -0.001432498,
      0.023986234,
      0.047525047,
      0.114605018,
      0.062875811,
      -0.005616489,
      -0.030744309,
      0.145468262,
      0.195606199,
      0.118239367,
      0.098569468,
      0.106794749,
      0.013186533,
      0.029475458,
      0.019173471,
      0.099392552,
      0.07037786,
      0.017064553,
      0.018374557,
      -0.051418969,
      -0.04848186,
      0.04321582,
      -0.04466887,
      0.00557298,
      -0.027537449,
      -0.03386405,
      -0.084574441,
      -0.039840531,
      -0.023889095,
      -0.028432439,
      -0.061129231,
      -0.130722099,
      -0.015607158,
      -0.195928805,
      -0.096976769,
      -0.033720209,
      -0.049513214,
      -0.019981723,
      -0.066466276,
      0.014151204,
      0.017392622,
      -0.044614764,
      0.013102719,
      0.085123476,
      0.042455181,
      -0.016158322,
      0.001834617,
      0.082035544,
      0.061272213,
      -0.003181417,
      -0.005803929,
      -0.048553005,
      -0.045381858,
      0.042438205,
      -0.01166026,
      0.031437332,
      0.009430798,
      0.026520532,
      -0.015250588,
      -0.016644452,
      0.011880797,
      0.016176196,
      -0.059896454,
      -0.112693965,
      -0.392095562,
      -0.279775634,
      0.140279174,
      0.163045243,
      0.079436865,
      -0.04270806,
      -0.154423005,
      -0.115392207,
      -0.464935257,
      -0.427569033,
      0.096385589,
      0.090173561,
      0.010178078,
      -0.079676186,
      0.081099433,
      0.229520136,
      -0.418398369,
      -0.128314081,
      -0.071374931,
      -0.202693395,
      -0.052455222,
      0.092907241,
      0.468101382,
      0.508423716,
      0.05527267,
      0.252169619,
      0.137621605,
      -0.11602459,
      -0.055949694,
      0.082846554,
      0.395612623,
      0.535056867,
      0.390313347,
      0.416582497,
      0.128660054,
      0.016150148,
      -0.064133837,
      -0.120629531,
      -0.320322395,
      -0.286077817,
      0.237128059,
      0.123044727,
      -0.151777734,
      -0.062342815,
      -0.039726969,
      -0.199189323,
      -0.468667977,
      -0.508727304,
      -0.222948684,
      -0.066465759,
      -0.123512765,
      -0.1640827,
      -0.066838866,
      -0.001435795,
      -0.176652247,
      -0.29135986,
      -0.23358228,
      -0.16924327,
      -0.124272133,
      -0.050279228,
      0.031262912,
      0.024218391,
      -0.013175022,
      -0.00157859,
      0.012357829,
      -0.037967695,
      -0.016513522,
      0.031403685,
      0.053679997,
      -0.00376966,
      0.004090856,
      0.054677117,
      0.177334653,
      -0.152474318,
      0.026288811,
      0.113652542,
      0.04151418,
      -0.057706034,
      -0.057737935,
      0.13041684,
      0.154803565,
      -0.205683074,
      0.107316432,
      -0.034796085,
      -0.019018995,
      0.01802994,
      -0.039801964,
      0.237030232,
      0.212527854,
      -0.152716833,
      0.207961928,
      0.018542196,
      -0.07988179,
      -0.052800107,
      -0.063647601,
      0.187294063,
      0.168840001,
      0.102484487,
      0.243383934,
      0.064579143,
      -0.0815382,
      -0.05070795,
      -0.077957366,
      -0.05484656,
      -0.034500831,
      0.131014464,
      0.074518148,
      -0.106758506,
      -0.077435733,
      0.012223923,
      -0.058064133,
      -0.234247137,
      -0.198169687,
      0.036199749,
      0.014476321,
      -0.099165984,
      -0.081453826,
      0.019620116,
      -0.024151856,
      -0.128708448,
      -0.086173387,
      0.004324032,
      0.022990948,
      -0.012242523,
      0.021850334,
      -0.051902167,
      0.011947706,
      -0.026875765,
      -0.06802061,
      -0.064702242,
      0.004998291,
      0.001074013,
      0.007555957,
      -0.009274925,
      -0.07502231,
      -0.00652755,
      -0.185547953,
      -0.124090374,
      0.143196169,
      0.050353295,
      0.038704595,
      -0.090992099,
      -0.129842864,
      0.072754174,
      -0.117258692,
      -0.018272772,
      0.042417487,
      -0.078931923,
      0.019888143,
      0.026319533,
      0.122745745,
      0.144100042,
      -0.098266729,
      0.153024757,
      0.022606107,
      -0.013160214,
      0.044186428,
      0.0237957,
      0.159883371,
      0.103490591,
      0.009919076,
      0.071056109,
      -0.098612508,
      0.003612765,
      -0.047759151,
      -0.015829419,
      -0.164243484,
      -0.113789112,
      0.124218234,
      0.023896837,
      -0.121474447,
      0.003845952,
      -0.027100397,
      -0.055650407,
      -0.193591437,
      -0.108868406,
      -0.023872502,
      -0.071665995,
      -0.149659886,
      -0.058603656,
      -0.080405105,
      -0.046489347,
      -0.053693206,
      -0.042817153,
      -0.034228366,
      -0.004821689,
      -0.07726241,
      -0.00952673,
      -0.066610428
     ],
     [
      -0.004163254,
      0.039371783,
      0.055839333,
      0.069018095,
      -0.00203556,
      -0.020724586,
      0.088831316,
      0.075488145,
      0.027915694,
      -0.00365213,
      -0.057292166,
      0.08988711,
      0.037872165,
      -0.023209877,
      0.025764051,
      0.175003586,
      -0.005763387,
      -0.040686349,
      -0.004183974,
      0.157791091,
      0.208281758,
      0.032788615,
      -0.153538461,
      -0.032996048,
      -0.010698295,
      -0.033316623,
      -0.110487418,
      0.099425223,
      0.24124491,
      0.230416995,
      -0.038239872,
      -0.028701392,
      -0.023389624,
      0.054542041,
      -0.046034353,
      -0.043435047,
      0.06272385,
      0.108320238,
      0.063892631,
      -0.022789066,
      -0.030218018,
      0.19522391,
      0.328247296,
      0.279537617,
      0.065067889,
      0.073760783,
      0.013221465,
      0.005470961,
      0.011571667,
      0.040739064,
      0.184538804,
      0.183356621,
      0.063070981,
      -0.025652383,
      0.023262425,
      -0.028118118,
      -0.023772317,
      -0.050917034,
      -0.101621017,
      -0.053835192,
      -0.062711982,
      0.02897544,
      0.04447866,
      0.024089093,
      0.018898475,
      -0.018956435,
      0.02446501,
      0.0207969,
      -0.008190584,
      -0.022573475,
      0.024464308,
      0.026758825,
      -0.044290873,
      0.004100863,
      -0.047060127,
      0.035088893,
      -0.053632512,
      -0.081572599,
      -0.056733549,
      0.093055357,
      -0.04250207,
      0.017450377,
      0.004476654,
      0.039827186,
      0.037422472,
      0.01121796,
      0.049648666,
      0.104860813,
      0.016406387,
      -0.053987746,
      -0.081296353,
      -0.040201193,
      0.070562326,
      0.075651411,
      -0.072010428,
      -0.002580178,
      0.019529059,
      0.097206224,
      -0.030891018,
      0.132474311,
      0.115746035,
      0.074073812,
      -0.034606947,
      -0.027780683,
      0.015650788,
      0.043308047,
      0.157343185,
      0.180090446,
      0.091238357,
      0.107296202,
      -0.011825914,
      -0.036554981,
      -0.004545737,
      0.06379603,
      0.053453738,
      -0.044902267,
      -0.020097873,
      -0.009497319,
      0.047323451,
      -0.025961566,
      0.017322954,
      -0.014864717,
      0.056318996,
      -0.0114046,
      0.03762491,
      0.060124077,
      0.068572008,
      0.030073013,
      -0.04142997,
      0.043868978,
      0.012061484,
      -0.020071924,
      -0.077148724,
      0.07844557,
      0.089512552,
      0.014388355,
      -0.081041469,
      0.015251483,
      0.096558903,
      0.079645799,
      0.061152695,
      0.066158,
      0.317232668,
      0.375725204,
      -0.019358206,
      0.148939495,
      0.499387423,
      0.305612488,
      -0.225101152,
      -0.455955221,
      0.029117224,
      0.274444673,
      -0.048057917,
      0.180638465,
      0.657608968,
      0.364547649,
      -0.173521391,
      -0.342554255,
      -0.207383269,
      0.014599762,
      0.040048447,
      -0.092399964,
      -0.155217821,
      -0.242939354,
      -0.207343915,
      -0.056258739,
      -0.03603093,
      -0.048840268,
      0.162949524,
      0.189845133,
      -0.158533442,
      -0.24065704,
      -0.039343848,
      0.139811548,
      0.18533354,
      -0.026580584,
      -0.013823997,
      0.229184008,
      0.223948013,
      0.222331176,
      0.189770737,
      0.147516669,
      0.186818862,
      -0.02788986,
      -0.042647432,
      0.030388766,
      0.105259171,
      0.149442238,
      0.119305114,
      0.132820218,
      0.027132026,
      -0.051372385,
      -0.020227139,
      0.030086478,
      0.01386381,
      0.032861769,
      -0.074730291,
      -0.061429356,
      0.004032112,
      0.051197399,
      -0.074238178,
      -0.055136245,
      0.051655767,
      0.054371847,
      -0.038189389,
      -0.124748942,
      0.001383542,
      0.237035717,
      -0.069576852,
      -0.034549867,
      0.023745904,
      0.167374559,
      0.014284832,
      -0.245537564,
      -0.227262649,
      0.164915672,
      -0.001383253,
      0.080732507,
      0.142638542,
      0.272811311,
      0.092022168,
      -0.144205828,
      -0.183955872,
      -0.062455505,
      -0.029997421,
      0.019929484,
      0.01844243,
      0.04399706,
      -0.062710342,
      0.094243083,
      0.071245022,
      -0.012403194,
      -0.049943743,
      0.13289067,
      -0.075720333,
      -0.170325354,
      -0.15192518,
      0.076307361,
      0.122901588,
      0.029739836,
      -0.068064894,
      0.032889454,
      0.098504685,
      0.003309497,
      0.034625493,
      0.074887842,
      0.152746427,
      0.098292751,
      -0.027827365,
      -0.084110176,
      -0.006302347,
      0.037407786,
      0.062544535,
      0.069646656,
      0.080021223,
      -0.00140165,
      -0.000791113,
      -0.072414061,
      -0.00085872,
      -0.002387764,
      -0.134730296,
      -0.0800329,
      0.027811716,
      0.001192742,
      -0.070583267,
      0.025224905,
      0.011154249,
      -0.015047261,
      -0.013941188,
      0.095112121,
      0.130252328,
      0.105249823,
      -0.028628721,
      0.050520023,
      0.146424116,
      0.069391536,
      -0.076293287,
      -0.133098494,
      0.006130494,
      0.208338573,
      -0.037558877,
      0.132417781,
      0.191633715,
      0.072271068,
      -0.157974128,
      -0.200055548,
      -0.096325221,
      0.042435683,
      -0.049455631,
      -0.064616372,
      -0.127792469,
      -0.145749547,
      -0.021941431,
      -0.013433047,
      -0.036596791,
      -0.048223738,
      0.114971887,
      -0.026816602,
      -0.170844987,
      -0.039305011,
      0.003992192,
      0.093634265,
      0.005276362,
      -0.048968567,
      0.025131049,
      0.206971064,
      0.168710711,
      0.039306022,
      0.144764629,
      0.097729008,
      0.034059441,
      -0.028687478,
      -0.008562339,
      0.028499692,
      0.069739876,
      0.064424015,
      0.071099721,
      0.020319371,
      -0.008040766,
      -0.034839051
     ],
     [
      -0.027647351,
      0.009929442,
      -0.06873453,
      -0.189150249,
      -0.199039514,
      -0.081306545,
      0.045104359,
      0.057715029,
      -0.044304941,
      -0.020418144,
      -0.076544502,
      -0.150842286,
      -0.263235995,
      -0.293035621,
      -0.202877196,
      -0.013223393,
      -0.041059557,
      -0.004927294,
      -0.009373186,
      -0.011025555,
      0.108089021,
      0.091630068,
      -0.02795604,
      0.072171234,
      0.059060737,
      -0.016651182,
      -0.036015691,
      -0.02883298,
      0.115131623,
      0.088702931,
      0.088319892,
      0.075980279,
      -0.039418975,
      0.025786277,
      -0.026888388,
      0.170045291,
      0.010592389,
      -0.065656191,
      -0.012655584,
      0.035873845,
      -0.033116419,
      -0.109068678,
      -0.05260359,
      0.181144035,
      0.132463874,
      -0.037768355,
      0.003205592,
      0.013876345,
      -0.027124489,
      0.075190971,
      -0.214170232,
      -0.244735647,
      -0.228013992,
      -0.089614304,
      0.042565055,
      0.039129265,
      0.019185997,
      0.009104764,
      0.11944293,
      0.103495092,
      0.016067725,
      -0.036141496,
      -0.025888209,
      0.045624968,
      0.010442536,
      -0.007702188,
      -0.047430672,
      -0.025303269,
      0.066224474,
      -0.004175547,
      -0.019201962,
      0.019258191,
      -0.033783992,
      -0.011763699,
      -0.044816383,
      0.016253451,
      0.063945573,
      0.048812553,
      0.067827097,
      -0.042615514,
      -0.015797041,
      0.010455028,
      -0.052508926,
      0.033432702,
      0.091523255,
      0.120056002,
      0.058941134,
      -0.059675206,
      0.053254532,
      0.027490045,
      -0.078150824,
      -0.007027741,
      0.084390547,
      0.000490853,
      -0.037460547,
      -0.010983829,
      0.01559911,
      -0.041549603,
      -0.172949184,
      -0.014117854,
      0.099069047,
      0.004468582,
      0.062679031,
      0.027959198,
      0.020300176,
      -0.082187487,
      -0.160807653,
      -0.15577219,
      -0.14056562,
      -0.133640975,
      0.044786556,
      0.023645763,
      -0.018187562,
      0.025244038,
      -0.03687267,
      0.066801922,
      0.017943764,
      0.104066263,
      0.094887923,
      0.046156933,
      -0.038595829,
      -0.024518866,
      0.054332643,
      0.00674655,
      0.012262403,
      0.046490942,
      0.010328973,
      -0.021822691,
      -0.025222964,
      -0.026661291,
      -0.00580719,
      0.102191133,
      0.350515314,
      0.245892402,
      0.125642294,
      0.082915337,
      -0.11581196,
      -0.296822595,
      -0.310735099,
      -0.157565766,
      -0.498062676,
      -0.443296067,
      -0.129144917,
      -0.028191864,
      -0.127434495,
      -0.212600933,
      0.073072398,
      -0.231141193,
      -0.660869207,
      -0.610665008,
      -0.13076006,
      -0.073668275,
      -0.036239627,
      0.1137692,
      0.171560844,
      -0.030520821,
      -0.224086536,
      -0.150633297,
      0.14932281,
      0.023860176,
      -0.066922232,
      0.291918817,
      0.462673983,
      0.118403257,
      -0.053512893,
      0.259654075,
      0.308734839,
      0.08878231,
      -0.169296749,
      0.214726539,
      0.803920448,
      0.503003328,
      0.355999236,
      0.277345408,
      0.119982764,
      0.011946407,
      -0.078808124,
      -0.26738668,
      0.096442852,
      0.164439524,
      0.008289865,
      -0.060616528,
      0.046551937,
      -0.019260125,
      -0.089299155,
      -0.124018751,
      -0.178897267,
      -0.091944548,
      0.011866604,
      -0.079195232,
      -0.113609482,
      -0.072972459,
      -0.041336504,
      -0.022526775,
      0.050112859,
      0.114367576,
      0.164896719,
      0.237030414,
      0.132154346,
      -1.7534e-05,
      -0.001063063,
      0.025730652,
      -0.020064824,
      -0.006700208,
      -0.018852812,
      -0.179310505,
      -0.092963749,
      -0.045576407,
      -0.025821572,
      0.003151323,
      -0.08469922,
      0.039294276,
      -0.030209282,
      -0.402237279,
      -0.257260317,
      -0.09114993,
      0.011982792,
      0.01964909,
      0.050225448,
      0.122704464,
      -0.013455237,
      -0.270948714,
      0.027718582,
      0.126133484,
      0.003449777,
      0.006057251,
      0.158190781,
      0.137915318,
      -0.044443799,
      -0.115584168,
      0.228909003,
      0.158404122,
      -0.004708079,
      -0.054575016,
      0.130416392,
      0.176303666,
      -0.027364338,
      0.055000976,
      0.059026702,
      0.044123093,
      0.01991613,
      -0.022740211,
      0.047462007,
      0.182787489,
      0.081449986,
      -0.018165427,
      0.00264801,
      -0.003757198,
      0.0440648,
      -0.069530505,
      -0.115895335,
      -0.170310011,
      -0.112025991,
      -0.05953466,
      -0.148390531,
      -0.084765578,
      0.051659945,
      0.006138372,
      0.111768478,
      0.182895537,
      0.341281582,
      0.272356668,
      0.010181534,
      0.056036139,
      -0.010634091,
      -0.14717665,
      -0.155041485,
      -0.028501994,
      -0.001419719,
      0.047197304,
      0.03324653,
      0.066494117,
      -0.008484646,
      -0.128360165,
      -0.064651554,
      0.043138966,
      -0.085776784,
      -0.054921019,
      -0.013929378,
      0.006269631,
      -0.001879117,
      -0.032501072,
      0.082757437,
      -0.027716359,
      0.068776301,
      0.019672899,
      0.00256191,
      0.046140845,
      -0.025111301,
      0.035707704,
      0.046624493,
      0.131587875,
      0.122290545,
      0.119438683,
      0.068114875,
      0.067791259,
      -0.022130047,
      0.052566385,
      0.16539978,
      0.018161201,
      0.127357634,
      0.165831998,
      0.109527129,
      0.022073375,
      -0.041365061,
      -0.078357619,
      0.103804708,
      0.13644271,
      0.037164612,
      0.068351611,
      0.117121018,
      0.041367785,
      0.046049826,
      -0.124197533,
      -0.254038732,
      -0.201044165,
      -0.059503493,
      0.023647048,
      0.02630488,
      -0.015483754
     ],
     [
      -0.068781918,
      -0.049533204,
      0.001383526,
      -0.149330266,
      -0.282010794,
      -0.250663613,
      -0.165675948,
      -0.116215772,
      0.06344795,
      0.173616673,
      0.357887972,
      0.400455205,
      0.299070823,
      0.238567289,
      0.168907285,
      -0.017352779,
      0.002335386,
      -0.052355955,
      -0.044591692,
      -0.056902662,
      -0.118614903,
      0.033555297,
      0.065277656,
      0.025062949,
      -0.046797533,
      -0.113900612,
      -0.054734697,
      -0.236870372,
      -0.42803012,
      -0.146360911,
      0.115029845,
      -0.015712685,
      -0.062436003,
      0.024006915,
      0.072900909,
      0.086315779,
      -0.187098187,
      -0.072537035,
      -0.024957338,
      -0.052044006,
      -0.064033721,
      0.028449545,
      -0.063119358,
      -0.166979294,
      -0.134467241,
      -0.084162059,
      -0.110694913,
      -0.049029513,
      -0.06287402,
      0.041877544,
      -0.040048348,
      -0.198512599,
      -0.038004207,
      0.063100536,
      -0.040649692,
      -0.062499099,
      -0.070299117,
      -0.056399952,
      -0.044891454,
      -0.007201222,
      0.100553881,
      0.063101158,
      -0.027110389,
      0.001745464,
      0.045675644,
      0.039737245,
      0.041406106,
      -0.050598862,
      -0.086861167,
      -0.073173313,
      -0.021658599,
      0.004338404,
      -0.005582793,
      -0.010021913,
      0.004779253,
      0.109483975,
      0.047783969,
      0.039010057,
      -0.018690493,
      -0.041142076,
      0.00823433,
      -0.000269016,
      -0.127496081,
      -0.195790334,
      -0.160905877,
      -0.134553128,
      -0.103392387,
      -0.038346106,
      0.035556017,
      -0.022948018,
      0.010525559,
      0.05552081,
      -0.028206,
      -0.09022579,
      0.022375507,
      0.002265504,
      -0.004477367,
      0.021712575,
      0.06276419,
      0.1483156,
      -0.049005615,
      -0.147046022,
      -0.061243069,
      -0.027952164,
      0.029597768,
      -0.009513049,
      0.10080402,
      -0.023470489,
      -0.168060482,
      0.027323095,
      -0.031504039,
      -0.020282303,
      -0.023229742,
      0.004996182,
      -0.043096063,
      -0.093280749,
      0.046799899,
      -0.004916247,
      -0.078588028,
      -0.029162028,
      -0.058852449,
      -0.004033749,
      -0.049183748,
      -0.047626268,
      -0.115429962,
      -0.086356801,
      -0.018777881,
      0.031656658,
      -0.077977698,
      -0.091119063,
      -0.29658979,
      -0.56924383,
      -0.671802298,
      -0.357085646,
      -0.169704618,
      -0.08023608,
      0.216133579,
      0.474133655,
      0.222680298,
      0.112984868,
      0.092242812,
      0.126734623,
      -0.018861021,
      -0.06965982,
      0.300250251,
      0.508861858,
      0.262883967,
      0.135541461,
      0.45862005,
      0.487533086,
      0.061109873,
      -0.039833149,
      0.144602871,
      0.080523059,
      -0.344512273,
      -0.510247884,
      0.547183239,
      0.604426207,
      0.156612778,
      0.008189151,
      -0.007780145,
      -0.232437328,
      -0.573104061,
      -0.241207714,
      0.259311169,
      0.083217482,
      0.037791914,
      -0.025040009,
      -0.180481744,
      -0.441859551,
      -0.349341226,
      0.008959838,
      -0.102966332,
      -0.157437796,
      -0.173794378,
      -0.128396532,
      -0.108611058,
      -0.174657487,
      -0.216812164,
      0.022134332,
      -0.041778133,
      -0.162637707,
      -0.27855685,
      -0.092961841,
      0.041791823,
      0.190799607,
      0.185183758,
      0.248508825,
      0.175156616,
      -0.109404212,
      -0.166895538,
      -0.094292037,
      0.021128342,
      -0.035363744,
      -0.039550598,
      -0.071173852,
      -0.209727967,
      -0.192079475,
      -0.084245983,
      -0.073855741,
      0.006886356,
      -0.004900898,
      0.015801475,
      -0.08079547,
      -0.150731206,
      -0.068005406,
      -0.053274421,
      -0.022506421,
      0.041620307,
      0.03542814,
      0.038799637,
      0.067099416,
      -0.031571482,
      0.249755047,
      0.18391829,
      0.013107256,
      0.071817676,
      0.139824352,
      0.029603161,
      -0.064672771,
      -0.150950696,
      0.308826512,
      0.174427945,
      -0.02061175,
      -0.050070211,
      0.101037836,
      0.017378787,
      -0.255828405,
      -0.153950119,
      0.109802735,
      0.119061796,
      -0.060722547,
      -0.027204972,
      -0.068309168,
      -0.093246265,
      -0.121637497,
      0.058053447,
      -0.02088476,
      -0.075384151,
      -0.116373484,
      -0.059852136,
      -0.023250377,
      -0.152525908,
      -0.074217406,
      0.032241173,
      -0.070347622,
      -0.16612941,
      -0.135587768,
      0.029562582,
      0.044750326,
      -0.012000307,
      0.069538096,
      0.167038643,
      0.032065902,
      -0.092632686,
      -0.093968782,
      0.005055469,
      -0.100982731,
      -0.107593771,
      -0.160821704,
      -0.195388605,
      -0.152433765,
      -0.127527183,
      -0.044419834,
      -0.007533199,
      0.073823769,
      -0.103408299,
      -0.174959984,
      -0.16023365,
      -0.074355266,
      -0.020223127,
      -0.043547261,
      0.150386908,
      0.226177591,
      0.083475795,
      0.045223435,
      0.02050784,
      -0.005577428,
      -0.026026256,
      -0.042792001,
      0.082071067,
      0.032864256,
      -0.113899747,
      -0.276518057,
      0.125915171,
      0.137718484,
      0.014418402,
      -0.023941254,
      0.012460016,
      -0.015563151,
      -0.246346335,
      -0.091305094,
      0.172625815,
      0.045070508,
      0.054969204,
      0.019844095,
      -0.078236115,
      -0.122893987,
      -0.04793513,
      0.096237665,
      -0.059923534,
      -0.0354718,
      0.001937575,
      -0.03670068,
      -0.126740411,
      -0.104213777,
      -0.031790436,
      -0.013472252,
      -0.076391629,
      -0.008276475,
      -0.171523201,
      -0.099725475,
      -0.040765227,
      0.117516185,
      0.002467733,
      -0.00724907,
      -0.056673193,
      -0.112115867,
      -0.084789031,
      -0.066585909
     ],
     [
      0.076743106,
      0.008911034,
      -0.013212999,
      0.097629475,
      0.210361927,
      0.187987905,
      0.133461034,
      0.00155144,
      0.044947159,
      0.047374752,
      0.0454414,
      -0.02692557,
      -0.099743583,
      -0.101945225,
      -0.003485467,
      0.072303025,
      0.020462511,
      0.065964012,
      0.100045978,
      0.23834258,
      0.111059145,
      -0.090154379,
      -0.035337776,
      0.102103838,
      -0.024511443,
      -0.044731142,
      -0.011707092,
      0.078957149,
      0.128752031,
      -0.094066385,
      -0.128845107,
      0.056528186,
      0.012669362,
      0.091443003,
      -0.079678566,
      -0.230641379,
      0.035013813,
      0.117653161,
      -0.058632904,
      0.018225075,
      0.004163369,
      -0.07921908,
      -0.090859282,
      -0.043059063,
      0.051583778,
      0.09745041,
      -0.005962143,
      -0.04337624,
      0.077314883,
      0.027735855,
      0.075195306,
      0.271516207,
      0.192904916,
      0.065345795,
      0.082190513,
      0.012796679,
      0.017111768,
      -0.002312516,
      0.00046937,
      -0.064617904,
      -0.023659139,
      0.033616114,
      0.041932789,
      0.027668783,
      -0.032615547,
      0.06042348,
      -0.023562539,
      0.038164051,
      -0.009452784,
      0.021788518,
      0.035288995,
      -0.036953549,
      0.033246007,
      -0.03646719,
      0.026626261,
      0.011661578,
      0.001870514,
      0.049219378,
      0.033359513,
      0.012190706,
      -0.020322169,
      0.014825466,
      -0.07582281,
      0.029512406,
      -0.001419422,
      0.088223977,
      0.055441489,
      0.047459204,
      0.010684883,
      0.033088079,
      -0.06366238,
      0.072905107,
      -0.07058126,
      -0.018413302,
      0.033603875,
      0.024413416,
      -0.016919306,
      0.067911503,
      -0.028024655,
      -0.062719396,
      -0.003415267,
      0.117521039,
      0.008998809,
      -0.042959195,
      -0.01646983,
      0.064429047,
      -0.066844712,
      0.022696858,
      0.213397203,
      0.123092807,
      -0.026219708,
      -0.049499307,
      0.021883891,
      -0.027902098,
      -0.051391935,
      0.060937804,
      0.031628417,
      -0.022788763,
      -0.024591091,
      0.006559544,
      0.010329935,
      0.011959913,
      0.008508338,
      0.09096678,
      0.005985787,
      0.033038699,
      -0.025525503,
      -0.030659149,
      0.020519027,
      -0.02279045,
      0.087571541,
      0.310715224,
      0.265469155,
      0.085188523,
      0.042055929,
      0.013485553,
      -0.010701268,
      0.19513927,
      0.289873323,
      -0.019440508,
      -0.148801027,
      -0.008212582,
      0.158277437,
      0.133756569,
      0.111123769,
      0.2645385,
      0.204469271,
      -0.072711551,
      -0.147291058,
      0.147289194,
      0.304370138,
      0.13344139,
      -0.052689187,
      -0.118708179,
      0.100655012,
      0.311142401,
      0.032350575,
      -0.155128116,
      0.078777677,
      0.130112969,
      -0.151268071,
      -0.141246923,
      0.200058085,
      0.264822062,
      -0.018377635,
      -0.194651573,
      -0.06122567,
      -0.01994121,
      -0.067041296,
      0.091769168,
      0.062579143,
      -0.37202149,
      -0.31596721,
      -0.07805119,
      -0.074317567,
      -0.055436848,
      0.005484084,
      -0.017781165,
      0.089139258,
      0.137922842,
      0.123184894,
      0.17297233,
      0.014820936,
      0.02722796,
      -0.004592839,
      -0.085710894,
      -0.026466602,
      0.117871471,
      0.213368264,
      0.163010687,
      0.098920155,
      0.061234503,
      0.045684849,
      0.015887814,
      0.012064101,
      0.060952733,
      0.027602504,
      0.107043864,
      0.050024215,
      -0.037130224,
      0.031818417,
      0.05122727,
      0.093342361,
      0.13022912,
      -0.013536734,
      0.003759401,
      0.01442482,
      0.032586042,
      0.059975703,
      0.088015036,
      0.169061556,
      0.120002826,
      -0.143980537,
      -0.10571254,
      0.082187228,
      0.122741885,
      0.034541778,
      0.030271198,
      -0.077505742,
      0.078867576,
      0.078750578,
      -0.168698672,
      -0.036471638,
      0.038226215,
      0.044056377,
      0.023470746,
      -0.244424829,
      0.129350203,
      0.17460592,
      -0.074314339,
      -0.109937402,
      -0.038490571,
      0.063203424,
      -0.036631896,
      0.020320396,
      0.061958436,
      -0.068691526,
      0.070978842,
      -0.009776071,
      -0.023773289,
      0.013080396,
      -0.065528206,
      0.038218478,
      -0.020078338,
      -0.086189773,
      0.093915715,
      0.14337313,
      0.04238778,
      0.047254675,
      0.008475297,
      -0.065769809,
      0.045292768,
      0.063818824,
      0.141063887,
      0.07875704,
      0.003616771,
      0.087562701,
      0.041723276,
      -0.013941545,
      0.043274297,
      0.037185159,
      -0.000900447,
      0.05719279,
      0.004130018,
      0.075301359,
      0.126655674,
      0.204604676,
      0.127466126,
      0.03969189,
      -0.062342774,
      0.067153285,
      0.020678398,
      0.066577004,
      0.106264931,
      0.067369435,
      -0.106143913,
      0.011625669,
      0.176952435,
      0.2346758,
      0.118107651,
      0.091512823,
      0.016688521,
      -0.108092016,
      0.053293289,
      0.104660913,
      0.095585639,
      0.214385495,
      0.120271872,
      -0.009245792,
      -0.059193716,
      0.146844225,
      0.117787471,
      -0.105512191,
      -0.034685673,
      0.036881537,
      0.064686957,
      -0.010052913,
      0.107406926,
      0.280375884,
      -0.105727731,
      -0.057350766,
      -0.004408389,
      -0.023550525,
      -0.043327001,
      0.039252612,
      -0.01763633,
      -0.009645337,
      -0.007572392,
      0.086110747,
      0.05371095,
      -0.005101166,
      0.010458938,
      0.003684758,
      0.044816399,
      0.107249276,
      0.14196384,
      0.134134562,
      0.144631133,
      0.137281772,
      0.035026471
     ],
     [
      0.037933758,
      -0.018269806,
      -0.071301766,
      -0.001337173,
      -0.048476328,
      0.000979689,
      -0.035533758,
      -0.065316126,
      0.015341619,
      0.020084993,
      -0.009712252,
      0.146283171,
      0.372912397,
      0.268735306,
      0.090563347,
      -0.077784993,
      0.051672533,
      -0.019872319,
      -0.049502075,
      -0.170613796,
      -0.176418584,
      0.065602807,
      0.206986461,
      -0.011783675,
      -0.029652168,
      0.010248738,
      0.103198501,
      0.150552925,
      -0.053766502,
      -0.081716222,
      0.017773836,
      -0.049544694,
      0.000499824,
      -0.024546753,
      0.102738246,
      0.046169496,
      -0.210724914,
      -0.058224362,
      -0.078672443,
      -0.105348622,
      0.004427147,
      0.008448015,
      -0.088241278,
      -0.104761104,
      -0.153371954,
      0.01374447,
      -0.02385428,
      -0.014015694,
      -0.008566337,
      0.05679455,
      0.081564857,
      -0.097835328,
      -0.038606606,
      0.015076413,
      -0.022792318,
      0.030003183,
      0.052943977,
      -0.014032828,
      0.027703318,
      0.021365657,
      0.063943032,
      0.079766416,
      0.104057307,
      0.060030543,
      -0.046783753,
      -0.023653378,
      0.015455906,
      -0.053574623,
      0.000793584,
      -0.045136136,
      -0.01562621,
      0.018755067,
      0.018335366,
      0.037810884,
      -0.009202612,
      0.052989851,
      0.023172563,
      -0.031150553,
      -0.06255245,
      0.038733746,
      -0.013688618,
      0.053463824,
      0.093340003,
      0.034530852,
      -0.070620263,
      0.15530704,
      0.01085346,
      -0.008639658,
      -0.022290917,
      0.010502652,
      -0.05499596,
      0.026440033,
      -0.034569027,
      -0.047605909,
      0.030116059,
      -0.032280824,
      -0.046991489,
      0.008523082,
      0.103228612,
      0.07036628,
      -0.139367336,
      -0.079945641,
      -0.01656288,
      -0.005245931,
      0.021260348,
      -0.020187616,
      0.048116531,
      0.068404381,
      0.030621808,
      0.023938991,
      0.034736983,
      -0.058000714,
      -0.018418177,
      -0.022016183,
      0.079137245,
      -0.009563908,
      0.054051651,
      -0.000232476,
      0.016262293,
      -0.012767006,
      -0.046195804,
      0.00952853,
      -0.024806941,
      -0.130146087,
      -0.060186983,
      -0.011898766,
      -0.004864487,
      -0.004103345,
      -0.0248569,
      -0.119153558,
      -0.316592964,
      -0.251102677,
      -0.224465158,
      -0.240461839,
      -0.155367484,
      -0.069745006,
      -0.14216864,
      -0.116023253,
      0.131940872,
      0.17521712,
      0.090108216,
      0.027865817,
      -0.191278295,
      -0.149188134,
      -0.002064878,
      0.270433391,
      0.149646531,
      -0.237778374,
      0.068620838,
      0.39545987,
      0.098309345,
      -0.111203662,
      0.100952946,
      0.335326064,
      0.105800489,
      -0.104145701,
      0.190795013,
      0.271743127,
      0.012662786,
      -0.023074802,
      0.014429444,
      0.149456697,
      0.163090274,
      -0.034759221,
      0.309860085,
      -0.05174556,
      -0.062945687,
      -0.066625846,
      -0.084885124,
      -0.361826523,
      -0.322728635,
      -0.023100779,
      -0.005993968,
      -0.180614374,
      -0.212834322,
      -0.055738527,
      -0.102492857,
      -0.300394636,
      -0.337382378,
      -0.298765147,
      -0.256680609,
      -0.150324964,
      -0.074878914,
      -0.007904031,
      0.022431747,
      0.071343288,
      0.1721092,
      0.099914635,
      0.047343265,
      0.044721673,
      0.034919165,
      -0.006733523,
      -0.007769672,
      -0.051636666,
      -0.071867691,
      -0.098241528,
      -0.167158187,
      -0.228271125,
      -0.093016969,
      0.001226808,
      0.04519422,
      0.0048878,
      -0.114919569,
      -0.02263347,
      -0.016908746,
      0.012419476,
      -0.037173099,
      -0.071269484,
      0.025061491,
      0.026446627,
      0.063973647,
      0.015353997,
      -0.10146936,
      0.202819481,
      0.136210486,
      -0.093300686,
      0.015602137,
      0.078338376,
      0.192938112,
      -0.033919452,
      -0.222888432,
      0.23065138,
      0.223470242,
      -0.050594315,
      0.035173686,
      0.013727986,
      0.096766166,
      0.001445719,
      -0.008642781,
      0.224842186,
      0.01974807,
      -0.106961784,
      0.036863469,
      0.038175364,
      -0.022465524,
      -0.153725899,
      -0.09666465,
      0.098484696,
      -0.130125485,
      -0.069520967,
      0.047412288,
      -0.031792898,
      -0.130931831,
      -0.154545598,
      -0.104399178,
      -0.012115286,
      -0.073519241,
      -0.096490462,
      -0.029723158,
      0.00327145,
      0.042263956,
      0.028202698,
      -0.037296379,
      0.003277894,
      0.10993184,
      0.033542904,
      -0.035212702,
      -0.047896926,
      -0.11733285,
      -0.13391203,
      -0.136631003,
      -0.03487684,
      -0.023847522,
      -0.052743821,
      -0.082560953,
      -0.149423905,
      3.8985e-05,
      0.233467092,
      0.021034592,
      -0.121409778,
      -0.07862398,
      0.026697742,
      -0.049483598,
      0.177555042,
      0.233522678,
      0.050103067,
      0.03822463,
      0.117920126,
      0.03242302,
      -0.071783389,
      0.108712293,
      0.21868369,
      0.001647858,
      0.025976945,
      0.167111848,
      0.180556936,
      -0.017037162,
      -0.014378255,
      -0.014100075,
      0.073066484,
      0.038952181,
      0.074622383,
      0.071685382,
      -0.095155693,
      0.026412948,
      0.037381258,
      -0.058896611,
      -0.078590165,
      -0.019812483,
      0.150070209,
      0.076823107,
      -0.005851018,
      -0.026642018,
      0.008415032,
      -0.036627406,
      -0.170096118,
      -0.101282151,
      -0.025424104,
      -0.089981339,
      -0.087321897,
      -0.039133213,
      -0.082393192,
      0.046301239,
      0.105228812,
      0.128515079,
      -0.011067526,
      -0.023680887,
      -0.03805932,
      -0.058534373,
      -0.038728563
     ]
    ],
    "b": [
     -0.20188195,
     0.413767984,
     -0.026853004,
     -0.164163294,
     0.043448883,
     0.100164144,
     -0.063940552,
     0.144795658,
     -0.221202273,
     -0.09721096
    ]
   }
  },
  {
   "epoch": 0,
   "batch": 241,
   "loss": 0.42950213352079875,
   "accuracy": 66.03856749311295,
   "input": [
    [
     0.0,
     0.0,
     0.0,
     0.0,
     0.0,
     0.0,
     0.0,
     0.0,
     0.0,
     0.0,
     0.0,
     0.0,
     0.0,
     0.0,
     0.0,
     0.0,
     0.0,
     0.0,
     0.0,
     0.0,
     0.0,
     0.0,
     0.0,
     0.0,
     0.0,
     0.0,
     0.0,
     0.0
    ],
    [
     0.0,
     0.0,
     0.0,
     0.0,
     0.0,
     0.0,
     0.0,
     0.0,
     0.0,
     0.0,
     0.0,
     0.0,
     0.0,
     0.0,
     0.0,
     0.0,
     0.0,
     0.0,
     0.0,
     0.0,
     0.0,
     0.0,
     0.0,
     0.0,
     0.0,
     0.0,
     0.0,
     0.0
    ],
    [
     0.0,
     0.0,
     0.0,
     0.0,
     0.0,
     0.0,
     0.0,
     0.0,
     0.0,
     0.0,
     0.0,
     0.0,
     0.0,
     0.0,
     0.0,
     0.0,
     0.0,
     0.0,
     0.0,
     0.0,
     0.0,
     0.0,
     0.0,
     0.0,
     0.0,
     0.0,
     0.0,
     0.0
    ],
    [
     0.0,
     0.0,
     0.0,
     0.0,
     0.0,
     0.0,
     0.0,
     0.0,
     0.0,
     0.0,
     0.0,
     0.0,
     0.0,
     0.0,
     0.0,
     0.0,
     0.0,
     0.0,
     0.0,
     0.0,
     0.0,
     0.0,
     0.0,
     0.0,
     0.0,
     0.0,
     0.0,
     0.0
    ],
    [
     0.0,
     0.0,
     0.0,
     0.0,
     0.0,
     0.0,
     0.0,
     0.0,
     0.0,
     0.0,
     0.0,
     0.0,
     0.0,
     0.0,
     0.019607843,
     0.070588235,
     0.850980392,
     1.0,
     0.054901961,
     0.0,
     0.0,
     0.0,
     0.0,
     0.0,
     0.0,
     0.0,
     0.0,
     0.0
    ],
    [
     0.0,
     0.0,
     0.0,
     0.0,
     0.0,
     0.0,
     0.0,
     0.0,
     0.0,
     0.0,
     0.0,
     0.003921569,
     0.121568627,
     0.603921569,
     0.694117647,
     0.992156863,
     0.992156863,
     0.933333333,
     0.2,
     0.0,
     0.0,
     0.0,
     0.0,
     0.0,
     0.0,
     0.0,
     0.0,
     0.0
    ],
    [
     0.0,
     0.0,
     0.0,
     0.0,
     0.0,
     0.0,
     0.0,
     0.0,
     0.0,
     0.17254902,
     0.407843137,
     0.678431373,
     0.843137255,
     0.992156863,
     0.992156863,
     0.992156863,
     0.643137255,
     0.180392157,
     0.0,
     0.0,
     0.0,
     0.0,
     0.0,
     0.0,
     0.0,
     0.0,
     0.0,
     0.0
    ],
    [
     0.0,
     0.0,
     0.0,
     0.0,
     0.0,
     0.0,
     0.0,
     0.0,
     0.133333333,
     0.898039216,
     0.992156863,
     0.992156863,
     0.992156863,
     0.949019608,
     0.71372549,
     0.57254902,
     0.043137255,
     0.0,
     0.0,
     0.0,
     0.0,
     0.0,
     0.0,
     0.0,
     0.0,
     0.0,
     0.0,
     0.0
    ],
    [
     0.0,
     0.0,
     0.0,
     0.0,
     0.0,
     0.0,
     0.0,
     0.0,
     0.231372549,
     0.960784314,
     0.992156863,
     0.811764706,
     0.184313725,
     0.152941176,
     0.0,
     0.0,
     0.0,
     0.0,
     0.0,
     0.0,
     0.0,
     0.0,
     0.0,
     0.0,
     0.0,
     0.0,
     0.0,
     0.0
    ],
    [
     0.0,
     0.0,
     0.0,
     0.0,
     0.0,
     0.0,
     0.0,
     0.0,
     0.282352941,
     0.992156863,
     0.992156863,
     0.505882353,
     0.0,
     0.0,
     0.0,
     0.0,
     0.0,
     0.0,
     0.0,
     0.0,
     0.0,
     0.0,
     0.0,
     0.0,
     0.0,
     0.0,
     0.0,
     0.0
    ],
    [
     0.0,
     0.0,
     0.0,
     0.0,
     0.0,
     0.0,
     0.0,
     0.0,
     0.505882353,
     0.992156863,
     0.992156863,
     0.97254902,
     0.952941176,
     0.952941176,
     0.952941176,
     0.592156863,
     0.490196078,
     0.066666667,
     0.003921569,
     0.0,
     0.0,
     0.0,
     0.0,
     0.0,
     0.0,
     0.0,
     0.0,
     0.0
    ],
    [
     0.0,
     0.0,
     0.0,
     0.0,
     0.0,
     0.0,
     0.0,
     0.0,
     0.741176471,
     0.992156863,
     0.992156863,
     0.992156863,
     0.992156863,
     0.992156863,
     0.992156863,
     0.992156863,
     0.992156863,
     0.992156863,
     0.329411765,
     0.039215686,
     0.0,
     0.0,
     0.0,
     0.0,
     0.0,
     0.0,
     0.0,
     0.0
    ],
    [
     0.0,
     0.0,
     0.0,
     0.0,
     0.0,
     0.0,
     0.0,
     0.0,
     0.619607843,
     0.831372549,
     0.831372549,
     0.819607843,
     0.368627451,
     0.368627451,
     0.690196078,
     0.956862745,
     0.917647059,
     0.992156863,
     0.992156863,
     0.725490196,
     0.058823529,
     0.0,
     0.0,
     0.0,
     0.0,
     0.0,
     0.0,
     0.0
    ],
    [
     0.0,
     0.0,
     0.0,
     0.0,
     0.0,
     0.0,
     0.0,
     0.0,
     0.0,
     0.0,
     0.0,
     0.0,
     0.0,
     0.0,
     0.0,
     0.231372549,
     0.160784314,
     0.717647059,
     0.988235294,
     0.992156863,
     0.709803922,
     0.066666667,
     0.0,
     0.0,
     0.0,
     0.0,
     0.0,
     0.0
    ],
    [
     0.0,
     0.0,
     0.0,
     0.0,
     0.0,
     0.0,
     0.0,
     0.0,
     0.0,
     0.0,
     0.0,
     0.0,
     0.0,
     0.0,
     0.0,
     0.0,
     0.0,
     0.0,
     0.835294118,
     0.992156863,
     0.992156863,
     0.631372549,
     0.0,
     0.0,
     0.0,
     0.0,
     0.0,
     0.0
    ],
    [
     0.0,
     0.0,
     0.0,
     0.0,
     0.0,
     0.0,
     0.0,
     0.0,
     0.0,
     0.0,
     0.0,
     0.0,
     0.0,
     0.0,
     0.0,
     0.0,
     0.0,
     0.0,
     0.121568627,
     0.992156863,
     0.992156863,
     0.831372549,
     0.078431373,
     0.0,
     0.0,
     0.0,
     0.0,
     0.0
    ],
    [
     0.0,
     0.0,
     0.0,
     0.0,
     0.0,
     0.0,
     0.0,
     0.0,
     0.0,
     0.0,
     0.0,
     0.0,
     0.0,
     0.0,
     0.0,
     0.0,
     0.0,
     0.0,
     0.047058824,
     0.992156863,
     0.992156863,
     0.992156863,
     0.207843137,
     0.0,
     0.0,
     0.0,
     0.0,
     0.0
    ],
    [
     0.0,
     0.0,
     0.0,
     0.0,
     0.0,
     0.0,
     0.0,
     0.0,
     0.0,
     0.0,
     0.0,
     0.0,
     0.0,
     0.0,
     0.0,
     0.0,
     0.0,
     0.0,
     0.309803922,
     0.992156863,
     0.992156863,
     0.862745098,
     0.101960784,
     0.0,
     0.0,
     0.0,
     0.0,
     0.0
    ],
    [
     0.0,
     0.0,
     0.0,
     0.0,
     0.0,
     0.0,
     0.0,
     0.0,
     0.0,
     0.0,
     0.0,
     0.0,
     0.0,
     0.0,
     0.0,
     0.0,
     0.0,
     0.31372549,
     0.984313725,
     0.992156863,
     0.97254902,
     0.439215686,
     0.0,
     0.0,
     0.0,
     0.0,
     0.0,
     0.0
    ],
    [
     0.0,
     0.0,
     0.0,
     0.0,
     0.0,
     0.0,
     0.0,
     0.0,
     0.141176471,
     0.28627451,
     0.054901961,
     0.0,
     0.0,
     0.0,
     0.0,
     0.0,
     0.333333333,
     0.964705882,
     0.992156863,
     0.97254902,
     0.654901961,
     0.0,
     0.0,
     0.0,
     0.0,
     0.0,
     0.0,
     0.0
    ],
    [
     0.0,
     0.0,
     0.0,
     0.0,
     0.0,
     0.0,
     0.0,
     0.054901961,
     0.807843137,
     0.643137255,
     0.0,
     0.0,
     0.0,
     0.0,
     0.0,
     0.2,
     0.874509804,
     0.992156863,
     0.980392157,
     0.439215686,
     0.0,
     0.0,
     0.0,
     0.0,
     0.0,
     0.0,
     0.0,
     0.0
    ],
    [
     0.0,
     0.0,
     0.0,
     0.0,
     0.0,
     0.0,
     0.0,
     0.141176471,
     0.909803922,
     0.431372549,
     0.0,
     0.0,
     0.184313725,
     0.403921569,
     0.788235294,
     0.945098039,
     0.870588235,
     0.666666667,
     0.203921569,
     0.0,
     0.0,
     0.0,
     0.0,
     0.0,
     0.0,
     0.0,
     0.0,
     0.0
    ],
    [
     0.0,
     0.0,
     0.0,
     0.0,
     0.0,
     0.0,
     0.0,
     0.0,
     0.741176471,
     0.784313725,
     0.588235294,
     0.858823529,
     0.933333333,
     0.992156863,
     0.992156863,
     0.992156863,
     0.223529412,
     0.0,
     0.0,
     0.0,
     0.0,
     0.0,
     0.0,
     0.0,
     0.0,
     0.0,
     0.0,
     0.0
    ],
    [
     0.0,
     0.0,
     0.0,
     0.0,
     0.0,
     0.0,
     0.0,
     0.0,
     0.4,
     0.690196078,
     0.992156863,
     0.992156863,
     0.992156863,
     0.917647059,
     0.529411765,
     0.17254902,
     0.011764706,
     0.0,
     0.0,
     0.0,
     0.0,
     0.0,
     0.0,
     0.0,
     0.0,
     0.0,
     0.0,
     0.0
    ],
    [
     0.0,
     0.0,
     0.0,
     0.0,
     0.0,
     0.0,
     0.0,
     0.0,
     0.0,
     0.0,
     0.0,
     0.0,
     0.0,
     0.0,
     0.0,
     0.0,
     0.0,
     0.0,
     0.0,
     0.0,
     0.0,
     0.0,
     0.0,
     0.0,
     0.0,
     0.0,
     0.0,
     0.0
    ],
    [
     0.0,
     0.0,
     0.0,
     0.0,
     0.0,
     0.0,
     0.0,
     0.0,
     0.0,
     0.0,
     0.0,
     0.0,
     0.0,
     0.0,
     0.0,
     0.0,
     0.0,
     0.0,
     0.0,
     0.0,
     0.0,
     0.0,
     0.0,
     0.0,
     0.0,
     0.0,
     0.0,
     0.0
    ],
    [
     0.0,
     0.0,
     0.0,
     0.0,
     0.0,
     0.0,
     0.0,
     0.0,
     0.0,
     0.0,
     0.0,
     0.0,
     0.0,
     0.0,
     0.0,
     0.0,
     0.0,
     0.0,
     0.0,
     0.0,
     0.0,
     0.0,
     0.0,
     0.0,
     0.0,
     0.0,
     0.0,
     0.0
    ],
    [
     0.0,
     0.0,
     0.0,
     0.0,
     0.0,
     0.0,
     0.0,
     0.0,
     0.0,
     0.0,
     0.0,
     0.0,
     0.0,
     0.0,
     0.0,
     0.0,
     0.0,
     0.0,
     0.0,
     0.0,
     0.0,
     0.0,
     0.0,
     0.0,
     0.0,
     0.0,
     0.0,
     0.0
    ]
   ],
   "output": 5,
   "conv_layer": {
    "w": [
     [
      [
       [
        0.093210562,
        0.025512985,
        -0.390443694,
        -0.430177141,
        -0.434966609
       ],
       [
        0.188944436,
        -0.139013729,
        -0.159498158,
        -0.332316469,
        -0.325479835
       ],
       [
        0.149518355,
        -0.120416806,
        -0.466869911,
        -0.389162146,
        -0.372040277
       ],
       [
        0.49812507,
        0.381731871,
        0.264495269,
        -0.06528042,
        -0.091738256
       ],
       [
        0.714182257,
        0.738630428,
        0.498024095,
        0.651601155,
        0.352385211
       ]
      ]
     ],
     [
      [
       [
        0.19443232,
        0.274756317,
        -0.240725811,
        -0.224732861,
        -0.110210986
       ],
       [
        -0.092378281,
        0.092896897,
        -0.23092132,
        -0.199156305,
        -0.206832217
       ],
       [
        -0.314545434,
        -0.264875513,
        0.097999742,
        0.01365991,
        -0.017198255
       ],
       [
        -0.215540029,
        -0.239925518,
        0.007117238,
        -0.244490061,
        -0.296263202
       ],
       [
        -0.30360056,
        0.030635526,
        0.024213785,
        -0.24924583,
        -0.204827238
       ]
      ]
     ],
     [
      [
       [
        0.319515286,
        0.565034312,
        0.514359177,
        0.380915244,
        0.349461376
       ],
       [
        -0.122902275,
        0.194252253,
        0.127398108,
        0.201707009,
        0.265096764
       ],
       [
        0.04347823,
        0.28466409,
        0.319391499,
        0.748594077,
        0.860228763
       ],
       [
        0.000918477,
        0.361606579,
        0.841609921,
        1.327398757,
        1.430315567
       ],
       [
        -0.056785274,
        0.342136113,
        1.115492881,
        1.600320739,
        1.568040356
       ]
      ]
     ],
     [
      [
       [
        0.53061795,
        0.567094466,
        0.294002605,
        0.24442884,
        -0.088037162
       ],
       [
        0.101942623,
        0.707582907,
        0.632560749,
        -0.026808585,
        0.043554284
       ],
       [
        0.187829123,
        0.450768056,
        0.355873653,
        0.254761125,
        -0.087557034
       ],
       [
        0.279691643,
        0.574144531,
        0.60272122,
        0.281742076,
        -0.125465033
       ],
       [
        -0.001302447,
        0.481882154,
        0.431888847,
        0.032140395,
        -0.019891333
       ]
      ]
     ],
     [
      [
       [
        0.10146347,
        0.201603577,
        -0.007154307,
        -0.017044122,
        -0.099988847
       ],
       [
        -0.186672413,
        -0.192044751,
        -0.135991585,
        0.193450226,
        0.440334479
       ],
       [
        -0.203070075,
        0.121285618,
        0.027551348,
        0.707357465,
        0.820296514
       ],
       [
        -0.159753022,
        0.05167327,
        0.314094624,
        0.551250452,
        0.610562941
       ],
       [
        0.164024914,
        0.206462134,
        0.23201246,
        0.457401581,
        0.089435997
       ]
      ]
     ]
    ],
    "b": [
     -0.078316302,
     0.024018251,
     -0.982664698,
     -0.434718281,
     -0.490113837
    ]
   },
   "dense_layer": {
    "w": [
     [
      0.012347094,
      0.017681467,
      -0.067410753,
      -0.011813088,
      0.146615884,
      0.14646937,
      0.061661148,
      -0.005241059,
      0.030178354,
      0.021989968,
      -0.014090612,
      -0.065387808,
      -0.01622564,
      0.062496082,
      0.091059019,
      0.016077577,
      0.060902994,
      0.016176269,
      -0.089144154,
      -0.14688003,
      -0.206191043,
      -0.216398558,
      0.120358137,
      0.161911375,
      0.052646022,
      -0.085182042,
      -0.069719216,
      -0.118309802,
      -0.141023545,
      -0.320540114,
      -0.006074879,
      0.1289804,
      -0.044721363,
      -0.128593971,
      0.145208535,
      0.239074225,
      -0.002541211,
      -0.188224675,
      -0.086831943,
      0.075015206,
      0.05249224,
      -0.118553987,
      0.378076364,
      0.432253787,
      0.024288288,
      -0.13828481,
      -0.044102072,
      -0.019802188,
      0.072481004,
      -0.125138181,
      0.084304622,
      0.173556118,
      -0.007089831,
      -0.057362485,
      0.044953823,
      0.024262138,
      0.014088762,
      0.008975892,
      -0.063567218,
      -0.000745313,
      0.051866973,
      0.068322654,
      -0.029676958,
      0.013386693,
      -0.028818747,
      -0.022592293,
      -0.032829931,
      0.023839453,
      -0.005271073,
      0.028650561,
      0.014292034,
      0.038219097,
      -0.0331796,
      -0.032317347,
      -0.03404232,
      0.020316382,
      -0.112675502,
      -0.058168713,
      0.018907813,
      0.008428872,
      0.009832609,
      0.005643711,
      -0.028746312,
      -0.121755844,
      -0.090840332,
      -0.100463572,
      0.023235785,
      -0.001591278,
      0.05781226,
      -0.059504715,
      -0.099046571,
      0.073959519,
      0.177977193,
      -0.00809916,
      -0.01188783,
      0.084651078,
      -0.034541754,
      -0.100208132,
      -0.05970596,
      0.158540462,
      0.177652871,
      -0.050909299,
      -0.080608004,
      0.084637825,
      0.033250446,
      -0.159240433,
      0.045859398,
      0.084276545,
      -0.013939993,
      -0.14817747,
      -0.014174579,
      0.071329259,
      -0.009514919,
      -0.071940483,
      -0.014918025,
      -0.142036465,
      -0.090271894,
      -0.047417755,
      0.070200538,
      0.001281956,
      -0.01921189,
      0.011093416,
      0.04646184,
      -0.002824048,
      0.006785008,
      0.033942797,
      -0.044765844,
      0.021592248,
      -0.018347078,
      -0.139348934,
      -0.124715616,
      0.229698787,
      0.333905102,
      0.146441519,
      -0.055871258,
      -0.016151811,
      -0.09491808,
      -0.274146587,
      -0.056717244,
      0.171258103,
      0.179635775,
      0.276751629,
      0.003777258,
      -0.037049019,
      -0.11281418,
      -0.150362808,
      0.241569511,
      0.005405644,
      -0.154607914,
      0.295835214,
      0.371666091,
      -0.044606907,
      0.000755946,
      0.249535254,
      0.030540817,
      -0.56091547,
      -0.848503846,
      0.151639087,
      0.342223243,
      0.061958133,
      0.103309989,
      0.394244454,
      -0.092231104,
      -0.989300894,
      -0.675497718,
      0.15222051,
      0.20370396,
      0.042215059,
      0.110776947,
      0.416399796,
      0.22124075,
      -0.370849556,
      -0.190730347,
      0.086324776,
      -0.016074195,
      0.024576919,
      0.008642948,
      0.348868617,
      0.521441146,
      0.159946258,
      -0.045926452,
      -0.078720915,
      -0.015046003,
      -0.007953384,
      0.029033956,
      0.047509785,
      0.072734015,
      0.092022016,
      0.045232712,
      -0.020295165,
      -0.04112373,
      0.002424253,
      -0.027288739,
      0.01396688,
      0.018604492,
      0.027236179,
      0.0520891,
      0.058883637,
      0.020906527,
      -0.035312132,
      -0.031296728,
      -0.085512262,
      -0.102386354,
      -0.05506262,
      -0.022466794,
      0.073436508,
      0.108045602,
      0.030507876,
      0.058486643,
      -0.066747509,
      -0.146520016,
      0.087386369,
      0.109824997,
      -0.023198303,
      0.225460011,
      0.148256244,
      0.025844172,
      -0.082630434,
      0.137487674,
      0.213556443,
      -0.110996879,
      -0.235052454,
      0.26431941,
      0.211444361,
      -0.018958917,
      -0.005663464,
      0.333649655,
      0.133420725,
      -0.488109802,
      -0.303119392,
      0.106361953,
      0.053788016,
      -0.090281256,
      0.002017545,
      0.409246161,
      0.06860162,
      -0.251729913,
      -0.181160189,
      -0.014417752,
      -0.018028207,
      -0.050228418,
      -0.048014786,
      0.160427851,
      0.063223805,
      -0.112123699,
      -0.067829812,
      -0.000296324,
      0.003881058,
      0.050833876,
      0.013164585,
      0.083005906,
      0.061073531,
      0.051004031,
      0.032669181,
      -0.039143049,
      0.035602478,
      0.065563257,
      0.04786586,
      -0.030352571,
      0.082630121,
      0.100327684,
      0.020231383,
      -0.006953244,
      0.003225532,
      -0.038423469,
      -0.072913732,
      -0.014676097,
      0.106433161,
      0.091226101,
      0.030402603,
      -0.044243203,
      0.030205924,
      -0.062064524,
      -0.031148632,
      0.126065431,
      0.025066373,
      0.024504551,
      0.076008914,
      -0.050444704,
      0.025721653,
      -0.027562821,
      0.072647027,
      0.133434343,
      -0.11222088,
      -0.223182565,
      0.006606586,
      -0.049017661,
      -0.006495022,
      0.033153629,
      0.127511547,
      -0.043179412,
      -0.295630165,
      -0.120479164,
      0.115062269,
      -0.03568669,
      0.017218052,
      -0.008016188,
      -0.000827955,
      -0.037622752,
      -0.068860142,
      0.068434643,
      0.101258183,
      0.022279836,
      0.123855553,
      -0.0524529,
      0.029384032,
      0.159976461,
      0.040035958,
      0.086574911,
      -0.061407897,
      0.035489052,
      0.029899375,
      0.00751526,
      0.017926189,
      -0.008208424,
      0.115070729,
      0.009079516,
      0.085867501,
      0.056792383,
      -0.023514845
     ],
     [
      0.003877888,
      -0.0236692,
      -0.029011787,
      -0.05346887,
      -0.046796416,
      0.055552658,
      0.006590682,
      0.002337732,
      -0.090604436,
      -0.07695746,
      -0.160510518,
      -0.181430459,
      -0.032192849,
      -0.135554707,
      -0.136596449,
      -0.059885048,
      -0.032739943,
      -0.063543661,
      -0.076533194,
      -0.170043279,
      0.099291486,
      0.060960349,
      -0.146210799,
      -0.107090251,
      -0.01996613,
      -0.076501875,
      -0.107255703,
      -0.342122065,
      0.039470005,
      -0.001053783,
      -0.240378408,
      -0.136994171,
      -0.089273689,
      0.002755414,
      -0.058947579,
      -0.345896248,
      0.26572715,
      -0.025169555,
      -0.208158644,
      -0.120151708,
      -0.052042586,
      -0.031451823,
      -0.086087252,
      -0.318134352,
      0.269741778,
      -0.071780466,
      -0.190177081,
      -0.114026204,
      0.013010317,
      0.022537434,
      -0.185063277,
      -0.092103236,
      0.174623046,
      0.005464955,
      -0.037995292,
      -0.091843919,
      -0.023684955,
      -0.023958061,
      -0.019419801,
      0.064572349,
      -0.038954069,
      -0.029078325,
      -0.07597157,
      -0.068386747,
      -0.002871742,
      -0.000229404,
      -0.057273251,
      -0.009135785,
      0.094964323,
      0.050442602,
      0.017564689,
      -0.035757757,
      0.001597683,
      -0.062934798,
      -0.062905509,
      -0.037561954,
      0.179903546,
      -0.026962196,
      -0.06066858,
      -0.052517278,
      0.038952855,
      0.049257375,
      -0.025587424,
      -0.066568279,
      -0.028210276,
      -0.124922018,
      -0.040389256,
      -0.064633694,
      -0.034949848,
      0.019264782,
      0.011374328,
      -0.116463487,
      -0.057837496,
      -0.012203384,
      -0.025036318,
      0.004185104,
      -0.05368027,
      0.010392513,
      0.006185046,
      -0.166936511,
      0.029577565,
      -0.031370658,
      0.002312021,
      -0.069325373,
      -0.004994269,
      -0.004205049,
      -0.039063568,
      -0.195231172,
      0.159079567,
      -0.012298302,
      -0.10461846,
      -0.067291031,
      -0.03324572,
      0.008380594,
      -0.12115964,
      0.017460009,
      0.090542549,
      -0.054843123,
      -0.014907828,
      -0.005184109,
      0.031031091,
      0.01197158,
      -0.006543759,
      0.054856999,
      0.069544271,
      0.025571564,
      -0.061246778,
      -0.076805632,
      -0.033896297,
      -0.08791038,
      -0.184679953,
      0.012274757,
      0.116627252,
      0.17404125,
      0.082980545,
      -0.065966677,
      -0.101783159,
      -0.343061519,
      -0.5546449,
      -0.067857023,
      0.214400517,
      -0.222604743,
      -0.093872454,
      -0.010669823,
      -0.114177295,
      -0.457807546,
      -0.791195374,
      0.494689017,
      0.345101073,
      -0.342894286,
      -0.219471257,
      -0.129997388,
      -0.192066016,
      -0.491837062,
      -0.684957196,
      0.573847908,
      0.173502193,
      -0.45211632,
      -0.323206309,
      -0.135848496,
      -0.19748018,
      -0.519482685,
      -0.099478228,
      0.520509251,
      -0.167428793,
      -0.49182492,
      -0.332383758,
      -0.100600691,
      -0.129634723,
      -0.148039062,
      0.056640561,
      0.359722718,
      -0.330891345,
      -0.600582649,
      -0.317899412,
      -0.148584844,
      -0.005803305,
      0.040297389,
      -0.036927091,
      -0.030628591,
      -0.052560359,
      -0.266100938,
      -0.197213471,
      -0.08806094,
      -0.01096681,
      -0.024476898,
      -0.182677917,
      -0.254468987,
      -0.170392329,
      -0.11525723,
      -0.151095369,
      -0.053963379,
      -0.008084044,
      -0.023215368,
      -0.069577051,
      0.070643998,
      0.067123456,
      0.113312548,
      0.015092741,
      -0.017419768,
      0.004369375,
      -0.056858754,
      -0.032188194,
      -0.135108919,
      0.133027623,
      0.082887098,
      0.021669495,
      0.02081329,
      -0.051732107,
      -0.012214782,
      -0.15050369,
      -0.316987259,
      0.4629382,
      -0.02861286,
      -0.114453095,
      -0.030716022,
      -0.031558789,
      0.014928709,
      -0.18561851,
      -0.313429148,
      0.520245278,
      -0.007467429,
      -0.207991507,
      -0.098111867,
      -0.001918199,
      -0.00297276,
      -0.182261713,
      -0.078489066,
      0.541060757,
      -0.170536469,
      -0.228057608,
      -0.138085318,
      -0.029169193,
      -0.044604492,
      -0.054358419,
      0.131115124,
      0.38054133,
      -0.286349638,
      -0.203632208,
      -0.070832253,
      -8.8462e-05,
      -0.011721442,
      0.073807048,
      0.162609013,
      0.231196498,
      -0.173252502,
      -0.094810078,
      -0.106077674,
      -0.010867613,
      0.032125237,
      0.019421008,
      0.002983275,
      -0.039645386,
      -0.030221458,
      -0.10321418,
      -0.046852974,
      -0.057373767,
      -0.028275702,
      -0.095893906,
      0.022981395,
