{
 "begin_epoch": 3,
 "begin_batch": 340,
 "end_epoch": 3,
 "end_batch": 359,
 "weights": [
  {
   "epoch": 3,
   "batch": 340,
   "loss": 1.8403455418565613,
   "accuracy": 94.34604105571847,
   "input": [
    [
     0.0,
     0.0,
     0.0,
     0.0,
     0.0,
     0.0,
     0.0,
     0.0,
     0.0,
     0.0,
     0.0,
     0.0,
     0.0,
     0.0,
     0.0,
     0.0,
     0.0,
     0.0,
     0.0,
     0.0,
     0.0,
     0.0,
     0.0,
     0.0,
     0.0,
     0.0,
     0.0,
     0.0
    ],
    [
     0.0,
     0.0,
     0.0,
     0.0,
     0.0,
     0.0,
     0.0,
     0.0,
     0.0,
     0.0,
     0.0,
     0.0,
     0.0,
     0.0,
     0.0,
     0.0,
     0.0,
     0.0,
     0.0,
     0.0,
     0.0,
     0.0,
     0.0,
     0.0,
     0.0,
     0.0,
     0.0,
     0.0
    ],
    [
     0.0,
     0.0,
     0.0,
     0.0,
     0.0,
     0.0,
     0.0,
     0.0,
     0.0,
     0.0,
     0.0,
     0.0,
     0.0,
     0.0,
     0.0,
     0.0,
     0.0,
     0.0,
     0.0,
     0.0,
     0.0,
     0.0,
     0.0,
     0.0,
     0.0,
     0.0,
     0.0,
     0.0
    ],
    [
     0.0,
     0.0,
     0.0,
     0.0,
     0.0,
     0.0,
     0.0,
     0.0,
     0.0,
     0.0,
     0.0,
     0.0,
     0.0,
     0.0,
     0.0,
     0.0,
     0.0,
     0.0,
     0.0,
     0.0,
     0.0,
     0.0,
     0.0,
     0.0,
     0.0,
     0.0,
     0.0,
     0.0
    ],
    [
     0.0,
     0.0,
     0.0,
     0.0,
     0.0,
     0.0,
     0.0,
     0.0,
     0.0,
     0.0,
     0.0,
     0.0,
     0.0,
     0.0,
     0.0,
     0.0,
     0.0,
     0.0,
     0.0,
     0.0,
     0.0,
     0.0,
     0.0,
     0.0,
     0.0,
     0.0,
     0.0,
     0.0
    ],
    [
     0.0,
     0.0,
     0.0,
     0.0,
     0.0,
     0.0,
     0.0,
     0.0,
     0.0,
     0.0,
     0.0,
     0.0,
     0.0,
     0.0,
     0.0,
     0.0,
     0.0,
     0.0,
     0.0,
     0.0,
     0.0,
     0.0,
     0.0,
     0.0,
     0.0,
     0.0,
     0.0,
     0.0
    ],
    [
     0.0,
     0.0,
     0.0,
     0.0,
     0.0,
     0.0,
     0.0,
     0.101960784,
     0.333333333,
     0.960784314,
     0.996078431,
     0.996078431,
     0.996078431,
     0.921568627,
     0.603921569,
     0.364705882,
     0.121568627,
     0.0,
     0.0,
     0.0,
     0.0,
     0.0,
     0.0,
     0.0,
     0.0,
     0.0,
     0.0,
     0.0
    ],
    [
     0.0,
     0.0,
     0.0,
     0.0,
     0.0,
     0.0,
     0.11372549,
     0.850980392,
     0.992156863,
     0.992156863,
     0.992156863,
     0.992156863,
     0.992156863,
     0.992156863,
     0.992156863,
     0.992156863,
     0.737254902,
     0.325490196,
     0.007843137,
     0.0,
     0.0,
     0.0,
     0.0,
     0.0,
     0.0,
     0.0,
     0.0,
     0.0
    ],
    [
     0.0,
     0.0,
     0.0,
     0.0,
     0.0,
     0.02745098,
     0.733333333,
     0.992156863,
     0.992156863,
     0.992156863,
     0.807843137,
     0.737254902,
     0.737254902,
     0.737254902,
     0.945098039,
     0.992156863,
     0.992156863,
     0.992156863,
     0.117647059,
     0.0,
     0.0,
     0.0,
     0.0,
     0.0,
     0.0,
     0.0,
     0.0,
     0.0
    ],
    [
     0.0,
     0.0,
     0.0,
     0.0,
     0.0,
     0.02745098,
     0.854901961,
     0.992156863,
     0.97254902,
     0.364705882,
     0.039215686,
     0.0,
     0.0,
     0.0,
     0.109803922,
     0.380392157,
     0.890196078,
     0.992156863,
     0.682352941,
     0.168627451,
     0.0,
     0.0,
     0.0,
     0.0,
     0.0,
     0.0,
     0.0,
     0.0
    ],
    [
     0.0,
     0.0,
     0.0,
     0.0,
     0.0,
     0.156862745,
     0.992156863,
     0.992156863,
     0.584313725,
     0.0,
     0.0,
     0.0,
     0.0,
     0.0,
     0.0,
     0.0,
     0.450980392,
     0.992156863,
     0.992156863,
     0.678431373,
     0.0,
     0.0,
     0.0,
     0.0,
     0.0,
     0.0,
     0.0,
     0.0
    ],
    [
     0.0,
     0.0,
     0.0,
     0.0,
     0.0,
     0.062745098,
     0.854901961,
     0.992156863,
     0.545098039,
     0.011764706,
     0.0,
     0.0,
     0.0,
     0.0,
     0.0,
     0.0,
     0.298039216,
     0.992156863,
     0.992156863,
     0.964705882,
     0.070588235,
     0.0,
     0.0,
     0.0,
     0.0,
     0.0,
     0.0,
     0.0
    ],
    [
     0.0,
     0.0,
     0.0,
     0.0,
     0.0,
     0.02745098,
     0.878431373,
     0.992156863,
     0.992156863,
     0.356862745,
     0.0,
     0.0,
     0.0,
     0.0,
     0.0,
     0.0,
     0.450980392,
     0.992156863,
     0.992156863,
     0.992156863,
     0.207843137,
     0.0,
     0.0,
     0.0,
     0.0,
     0.0,
     0.0,
     0.0
    ],
    [
     0.0,
     0.0,
     0.0,
     0.0,
     0.0,
     0.015686275,
     0.721568627,
     0.992156863,
     0.992156863,
     0.941176471,
     0.211764706,
     0.0,
     0.0,
     0.0,
     0.003921569,
     0.403921569,
     0.901960784,
     0.992156863,
     0.992156863,
     0.992156863,
     0.098039216,
     0.0,
     0.0,
     0.0,
     0.0,
     0.0,
     0.0,
     0.0
    ],
    [
     0.0,
     0.0,
     0.0,
     0.0,
     0.0,
     0.0,
     0.062745098,
     0.890196078,
     0.992156863,
     0.992156863,
     0.917647059,
     0.760784314,
     0.466666667,
     0.603921569,
     0.768627451,
     0.992156863,
     0.992156863,
     0.992156863,
     0.996078431,
     0.992156863,
     0.231372549,
     0.0,
     0.0,
     0.0,
     0.0,
     0.0,
     0.0,
     0.0
    ],
    [
     0.0,
     0.0,
     0.0,
     0.0,
     0.0,
     0.0,
     0.0,
     0.231372549,
     0.854901961,
     0.992156863,
     0.992156863,
     0.992156863,
     0.992156863,
     0.992156863,
     0.992156863,
     0.992156863,
     0.992156863,
     0.992156863,
     0.992156863,
     0.992156863,
     0.152941176,
     0.0,
     0.0,
     0.0,
     0.0,
     0.0,
     0.0,
     0.0
    ],
    [
     0.0,
     0.0,
     0.0,
     0.0,
     0.0,
     0.0,
     0.0,
     0.0,
     0.058823529,
     0.439215686,
     0.980392157,
     0.992156863,
     0.992156863,
     0.988235294,
     0.992156863,
     0.980392157,
     0.643137255,
     0.858823529,
     0.992156863,
     0.992156863,
     0.160784314,
     0.0,
     0.0,
     0.0,
     0.0,
     0.0,
     0.0,
     0.0
    ],
    [
     0.0,
     0.0,
     0.0,
     0.0,
     0.0,
     0.0,
     0.0,
     0.0,
     0.0,
     0.0,
     0.125490196,
     0.368627451,
     0.368627451,
     0.223529412,
     0.368627451,
     0.137254902,
     0.0,
     0.509803922,
     0.996078431,
     0.992156863,
     0.619607843,
     0.0,
     0.0,
     0.0,
     0.0,
     0.0,
     0.0,
     0.0
    ],
    [
     0.0,
     0.0,
     0.0,
     0.0,
     0.0,
     0.0,
     0.0,
     0.0,
     0.0,
     0.0,
     0.0,
     0.0,
     0.0,
     0.0,
     0.0,
     0.0,
     0.0,
     0.321568627,
     0.988235294,
     0.992156863,
     0.803921569,
     0.015686275,
     0.0,
     0.0,
     0.0,
     0.0,
     0.0,
     0.0
    ],
    [
     0.0,
     0.0,
     0.0,
     0.0,
     0.0,
     0.0,
     0.0,
     0.0,
     0.0,
     0.0,
     0.0,
     0.0,
     0.0,
     0.0,
     0.0,
     0.0,
     0.0,
     0.184313725,
     0.956862745,
     0.992156863,
     0.901960784,
     0.08627451,
     0.0,
     0.0,
     0.0,
     0.0,
     0.0,
     0.0
    ],
    [
     0.0,
     0.0,
     0.0,
     0.0,
     0.0,
     0.0,
     0.0,
     0.0,
     0.0,
     0.0,
     0.0,
     0.0,
     0.0,
     0.0,
     0.0,
     0.0,
     0.0,
     0.168627451,
     0.949019608,
     0.992156863,
     0.980392157,
     0.380392157,
     0.0,
     0.0,
     0.0,
     0.0,
     0.0,
     0.0
    ],
    [
     0.0,
     0.0,
     0.0,
     0.0,
     0.0,
     0.0,
     0.0,
     0.0,
     0.0,
     0.0,
     0.0,
     0.0,
     0.0,
     0.0,
     0.0,
     0.0,
     0.0,
     0.274509804,
     0.992156863,
     0.992156863,
     0.992156863,
     0.250980392,
     0.0,
     0.0,
     0.0,
     0.0,
     0.0,
     0.0
    ],
    [
     0.0,
     0.0,
     0.0,
     0.0,
     0.0,
     0.0,
     0.0,
     0.0,
     0.0,
     0.0,
     0.0,
     0.0,
     0.0,
     0.0,
     0.0,
     0.0,
     0.0,
     0.023529412,
     0.682352941,
     0.992156863,
     0.996078431,
     0.407843137,
     0.0,
     0.0,
     0.0,
     0.0,
     0.0,
     0.0
    ],
    [
     0.0,
     0.0,
     0.0,
     0.0,
     0.0,
     0.0,
     0.0,
     0.0,
     0.0,
     0.0,
     0.0,
     0.0,
     0.0,
     0.0,
     0.0,
     0.0,
     0.0,
     0.0,
     0.352941176,
     0.992156863,
     0.996078431,
     0.666666667,
     0.015686275,
     0.0,
     0.0,
     0.0,
     0.0,
     0.0
    ],
    [
     0.0,
     0.0,
     0.0,
     0.0,
     0.0,
     0.0,
     0.0,
     0.0,
     0.0,
     0.0,
     0.0,
     0.0,
     0.0,
     0.0,
     0.0,
     0.0,
     0.0,
     0.0,
     0.407843137,
     0.992156863,
     0.996078431,
     0.435294118,
     0.003921569,
     0.0,
     0.0,
     0.0,
     0.0,
     0.0
    ],
    [
     0.0,
     0.0,
     0.0,
     0.0,
     0.0,
     0.0,
     0.0,
     0.0,
     0.0,
     0.0,
     0.0,
     0.0,
     0.0,
     0.0,
     0.0,
     0.0,
     0.0,
     0.0,
     0.062745098,
     0.878431373,
     0.941176471,
     0.309803922,
     0.0,
     0.0,
     0.0,
     0.0,
     0.0,
     0.0
    ],
    [
     0.0,
     0.0,
     0.0,
     0.0,
     0.0,
     0.0,
     0.0,
     0.0,
     0.0,
     0.0,
     0.0,
     0.0,
     0.0,
     0.0,
     0.0,
     0.0,
     0.0,
     0.0,
     0.0,
     0.0,
     0.0,
     0.0,
     0.0,
     0.0,
     0.0,
     0.0,
     0.0,
     0.0
    ],
    [
     0.0,
     0.0,
     0.0,
     0.0,
     0.0,
     0.0,
     0.0,
     0.0,
     0.0,
     0.0,
     0.0,
     0.0,
     0.0,
     0.0,
     0.0,
     0.0,
     0.0,
     0.0,
     0.0,
     0.0,
     0.0,
     0.0,
     0.0,
     0.0,
     0.0,
     0.0,
     0.0,
     0.0
    ]
   ],
   "output": 9,
   "conv_layer": {
    "w": [
     [
      [
       [
        -1.474587098,
        -0.429829709,
        1.546807084,
        2.171402076,
        3.567212565
       ],
       [
        -0.049453687,
        -1.091874158,
        -1.813255086,
        -2.06318388,
        -0.175467781
       ],
       [
        0.267595498,
        -1.889133445,
        -3.902494235,
        -3.501059666,
        -2.035810437
       ],
       [
        1.124318934,
        2.27821634,
        1.443428396,
        0.447144135,
        -1.021224176
       ],
       [
        -1.117170649,
        1.229159084,
        2.124615591,
        1.901522988,
        -0.233683148
       ]
      ]
     ],
     [
      [
       [
        1.558534184,
        2.536941047,
        1.561261085,
        0.924871852,
        -0.8613735
       ],
       [
        -1.338118992,
        -1.610011619,
        -2.305909863,
        -1.457532117,
        -2.024492957
       ],
       [
        -1.549592446,
        -2.704137928,
        -1.9334699,
        0.100175636,
        -0.538904754
       ],
       [
        -0.932501321,
        -0.144937564,
        0.476591283,
        0.903237935,
        -0.812568305
       ],
       [
        -0.938560841,
        2.661285826,
        1.467034923,
        0.08696652,
        -0.755402592
       ]
      ]
     ],
     [
      [
       [
        0.624536975,
        0.143340976,
        -0.431188654,
        0.219167955,
        -0.017457438
       ],
       [
        0.16561485,
        -0.75443295,
        -0.63724859,
        0.476983341,
        1.01214554
       ],
       [
        -0.10062318,
        0.157439525,
        1.316579439,
        0.841269599,
        -0.839363508
       ],
       [
        0.877536285,
        0.004910967,
        1.410975262,
        0.710345623,
        -0.51938644
       ],
       [
        1.279855446,
        -1.536627053,
        -2.145778867,
        -0.47626185,
        2.606595444
       ]
      ]
     ],
     [
      [
       [
        0.27777961,
        -0.205615321,
        -1.004715504,
        -0.235202925,
        0.455725162
       ],
       [
        -0.446713221,
        -0.142871706,
        1.412850442,
        -0.505900131,
        -1.912846898
       ],
       [
        -1.693557535,
        0.122473152,
        2.55401281,
        -0.077291543,
        -3.808892502
       ],
       [
        -1.324303056,
        1.094088245,
        2.275728555,
        -0.647658732,
        -2.349289681
       ],
       [
        -0.040954842,
        0.137409675,
        0.955049227,
        -1.280363222,
        0.128939012
       ]
      ]
     ],
     [
      [
       [
        1.128903586,
        1.18139969,
        0.163514388,
        -0.587859459,
        -0.834944085
       ],
       [
        1.664677148,
        -1.798575923,
        -2.714707177,
        -1.557570364,
        0.180724135
       ],
       [
        -0.265496011,
        -1.987559484,
        -2.209884338,
        1.11725807,
        2.168270637
       ],
       [
        -1.582328701,
        -0.358967216,
        0.727927649,
        2.732566928,
        0.464397432
       ],
       [
        0.669924605,
        0.717592498,
        0.353254154,
        -0.662015287,
        -1.692493152
       ]
      ]
     ]
    ],
    "b": [
     -1.73724676,
     0.207067741,
     -2.205481909,
     -0.362718872,
     -2.776174527
    ]
   },
   "dense_layer": {
    "w": [
     [
      -0.034623871,
      -0.328618439,
      -0.429783473,
      -0.65474937,
      -0.083467244,
      0.190900655,
      0.232127129,
      0.461587075,
      0.017910786,
      -0.002330767,
      -0.815410327,
      -0.413658696,
      0.675868214,
      1.10023479,
      0.51877693,
      0.207617585,
      0.244342703,
      -0.067524244,
      -0.888993096,
      -0.950472955,
      -0.967173611,
      -0.649949477,
      -0.127384731,
      0.843010619,
      0.124718044,
      -0.728999259,
      -1.504505296,
      -0.630290004,
      -1.572425264,
      -2.393286061,
      -1.07055476,
      0.748548447,
      -0.369809223,
      -2.067735986,
      -1.980411092,
      0.263203652,
      -0.259648917,
      -0.59810214,
      -1.307361292,
      -0.28878526,
      -0.448328946,
      -0.959929102,
      -0.098038642,
      1.834540346,
      -1.079983185,
      -0.805546364,
      -1.167276606,
      -0.684636983,
      -0.213910665,
      -1.084158257,
      0.240075044,
      0.803857826,
      0.141889379,
      -0.075182528,
      -0.752134308,
      -0.404285833,
      0.188722804,
      -0.135716838,
      0.257273748,
      0.230352496,
      -0.003781943,
      -0.035883468,
      -0.348963953,
      -0.17426309,
      0.083064063,
      0.043829408,
      0.079674088,
      0.262858085,
      0.621497351,
      0.588714344,
      0.259160162,
      0.109123832,
      0.061347877,
      -0.002885941,
      -0.632298628,
      -0.709132026,
      -0.986095058,
      -1.256888003,
      -0.798756563,
      -0.227311215,
      0.156127091,
      -0.202111575,
      -0.128160844,
      0.274206691,
      -0.940696196,
      -0.85474236,
      -0.056685226,
      -0.010352099,
      0.250451864,
      -0.657736283,
      -0.350337255,
      -0.387632658,
      1.177170875,
      -0.327127732,
      -0.407475622,
      -0.433873985,
      0.013221385,
      -1.208955018,
      -1.093174993,
      -0.020812879,
      0.731489949,
      -1.028533735,
      -0.51532984,
      -0.401771473,
      -0.012525965,
      -1.736084152,
      -0.785396659,
      -0.907862806,
      -1.233949165,
      0.479732812,
      -0.327496676,
      0.243141888,
      0.096512739,
      -1.246326361,
      -0.63896352,
      -0.291034978,
      0.137802997,
      0.496763653,
      0.600932295,
      0.442062568,
      0.090540897,
      0.28024734,
      0.816454242,
      1.011828685,
      1.272386096,
      0.89377083,
      0.356207863,
      0.240680936,
      0.1941266,
      -0.680791594,
      -1.119136154,
      -0.532081727,
      -0.052322162,
      -1.291533614,
      -0.665608738,
      0.265545507,
      -0.283020681,
      -1.772947465,
      -1.41653465,
      1.8567314,
      3.371156544,
      1.802235562,
      -0.431903697,
      0.254876791,
      0.346808683,
      -1.109333516,
      2.239201446,
      1.208140115,
      0.57328321,
      0.785803988,
      1.72505881,
      0.993011892,
      1.646187403,
      1.743257547,
      2.045109508,
      -3.409157461,
      -5.503070635,
      -0.14169929,
      1.404580984,
      1.689868936,
      1.788988328,
      2.040911674,
      0.218346825,
      -7.060737166,
      -4.32955677,
      0.982005053,
      0.93707141,
      1.533064693,
      0.197374178,
      0.848415659,
      1.415318152,
      -2.410559861,
      -0.77542575,
      0.875121047,
      -0.228001225,
      0.880398557,
      -0.803093539,
      -0.354272257,
      1.94718573,
      1.102239845,
      0.356104487,
      -0.659223188,
      -0.613234889,
      0.378130478,
      -0.087600948,
      -0.47508787,
      0.28109613,
      1.143978826,
      -0.020085426,
      -1.144253479,
      -0.729594481,
      0.184406225,
      0.206236329,
      0.01887752,
      -0.049780217,
      -0.465811112,
      -0.559822524,
      -0.438745985,
      -0.677555405,
      0.076990559,
      0.18617734,
      -0.42798054,
      -1.033333292,
      -0.798488592,
      0.198319081,
      0.552453336,
      -0.582161155,
      0.431954583,
      0.246200243,
      -0.42733485,
      -0.581385666,
      1.762393453,
      1.046495768,
      1.960221693,
      1.135353638,
      1.436491589,
      0.146263914,
      0.162224175,
      1.810201778,
      3.422499192,
      -0.294718474,
      -0.074586638,
      0.745687664,
      2.590274327,
      -0.106641736,
      0.484329257,
      2.832095351,
      3.344100968,
      -3.970570394,
      -1.274451617,
      -0.361634234,
      2.211593141,
      -0.549868094,
      -0.160389856,
      2.27388644,
      1.280753389,
      -2.074285245,
      -0.350423983,
      -0.31518776,
      0.684532115,
      -0.358051088,
      -0.573047939,
      0.18695166,
      0.563612687,
      -0.596758373,
      -0.483600405,
      -0.908535792,
      -0.197176938,
      0.135571824,
      -0.407609781,
      -0.694779673,
      0.006065545,
      -0.319484031,
      -1.061763,
      -1.156042237,
      -0.137873984,
      0.42527733,
      0.136572813,
      -0.230776461,
      -0.137793751,
      -0.581116694,
      -0.628416236,
      0.371219016,
      0.524165681,
      0.035730768,
      -0.354853401,
      -0.455292427,
      -0.183003871,
      0.300957458,
      -0.552280143,
      -1.1453305,
      0.104302411,
      0.217049484,
      0.001434717,
      0.204495616,
      0.310692957,
      0.473708057,
      -1.140802618,
      -0.992096366,
      0.194150549,
      1.104740204,
      0.888641952,
      0.896024547,
      -0.332736192,
      -1.853492689,
      -1.02967846,
      -0.177130426,
      0.065732514,
      1.503713046,
      0.736393515,
      0.05097484,
      -2.570033405,
      -0.339582909,
      0.052906937,
      0.924954306,
      0.056723245,
      0.745326287,
      -0.896009094,
      -0.29455394,
      0.099397578,
      0.90337267,
      0.854009394,
      0.84904665,
      0.466044391,
      0.227301643,
      -1.339587531,
      0.791872607,
      0.173715703,
      0.519133243,
      0.55322488,
      0.502250295,
      0.7321781,
      0.18316336,
      -0.989477252,
      -0.601536628,
      0.270246274,
      -0.246342502,
      0.151497423,
      0.422973294,
      0.428524616
     ],
     [
      -0.279951277,
      -0.505750665,
      -1.332836856,
      -2.250639863,
      -1.760959546,
      -0.521884766,
      -0.306283538,
      -0.206107322,
      -0.393486133,
      -0.200801916,
      -0.91207206,
      -2.660240331,
      -2.589599421,
      -2.16407639,
      -1.416118308,
      -1.182839959,
      -0.292200273,
      0.18454768,
      0.336504343,
      -0.132567755,
      -0.65989448,
      -2.120928064,
      -2.269241454,
      -1.046876004,
      -0.309720433,
      -0.03897643,
      -0.394604289,
      -3.560361958,
      -2.221367194,
      -2.630010291,
      -1.936908813,
      -0.950423455,
      -0.647026808,
      -0.532478094,
      -1.043566431,
      -3.978963225,
      -1.299076651,
      -2.116307402,
      -1.234336273,
      -0.631418676,
      0.026349214,
      0.237255836,
      -0.100431629,
      -2.392803573,
      1.926719327,
      0.576439224,
      1.321640253,
      -0.004962577,
      0.013446015,
      0.609904177,
      -0.790265619,
      -0.707106449,
      1.12487852,
      0.309822298,
      0.459562838,
      -0.351269921,
      -0.666467862,
      -1.369286177,
      -0.428323701,
      0.351437657,
      -0.347230323,
      -0.456162455,
      -0.318431588,
      -0.379684238,
      -0.154347722,
      -0.131942237,
      -0.126380927,
      0.24078705,
      0.805916746,
      0.586224194,
      -0.021985668,
      -0.294807905,
      -0.148644601,
      -0.238714679,
      -0.28576095,
      -0.483541116,
      0.47190842,
      0.09901905,
      -0.039734512,
      -0.260417123,
      -0.117196585,
      -0.039789015,
      -0.104564872,
      -0.904654796,
      -0.348865498,
      -1.067591365,
      0.17597274,
      -0.715827994,
      -0.168792985,
      0.087538515,
      0.760854357,
      0.213270386,
      -0.306524721,
      -0.087401224,
      -0.678761693,
      -0.658261464,
      -0.199214715,
      0.106509098,
      1.33903744,
      -0.366144444,
      0.721126348,
      0.363845467,
      -0.444161919,
      -0.322149033,
      -0.109368904,
      0.472004192,
      0.832298124,
      0.017278793,
      1.151975818,
      -0.918275991,
      -0.811469722,
      -0.374395988,
      -0.152283296,
      0.067879145,
      -0.254904014,
      -0.056087166,
      -0.713559686,
      -1.278564516,
      -0.116302263,
      -0.050434261,
      -0.13354363,
      -0.270516987,
      -0.188524972,
      0.820394271,
      0.290321905,
      -0.124293616,
      -0.029123787,
      -0.167984012,
      0.501522969,
      -0.096931155,
      1.272850684,
      1.793495063,
      -0.846728937,
      0.80367397,
      2.69802842,
      0.560619688,
      0.213667618,
      -0.993024241,
      -1.043218093,
      -2.213942164,
      -1.419306665,
      -2.68927507,
      0.582333585,
      -0.042566132,
      -0.036669653,
      -1.217914473,
      -1.90078057,
      2.971611269,
      0.495480945,
      -3.347725198,
      -0.099157831,
      -0.158178085,
      -0.377404435,
      -2.443364951,
      -3.369563844,
      3.495994662,
      0.780585775,
      -1.515747994,
      -0.870763739,
      -0.245316883,
      -1.246755567,
      -2.390861791,
      -2.238858196,
      2.192364423,
      -1.438978757,
      -1.473464389,
      -1.167638631,
      0.127201981,
      0.005260843,
      1.813141258,
      -0.583463722,
      0.087843466,
      -2.254175643,
      1.564284663,
      0.06147445,
      0.258692528,
      2.250405697,
      3.97537606,
      -1.817154668,
      -4.839150467,
      0.763535646,
      3.390686924,
      0.822702798,
      0.459125578,
      1.130961324,
      1.687660228,
      -1.697014949,
      -3.443236928,
      -1.241795204,
      0.89588966,
      0.513716268,
      0.43644224,
      0.342421237,
      0.372495917,
      0.536600485,
      1.531313011,
      1.573216013,
      0.309540902,
      0.863766959,
      0.626283609,
      0.37190993,
      0.493017752,
      0.538676959,
      0.584465036,
      0.065446948,
      -0.209755746,
      0.140186871,
      0.384554711,
      0.340860149,
      0.526690892,
      0.066584711,
      -2.483477626,
      1.505918087,
      -1.256598664,
      -0.402443849,
      -0.051359881,
      0.380270221,
      0.43900297,
      -0.099033091,
      -2.79641585,
      3.611398243,
      0.201486998,
      -0.476946503,
      -0.458589158,
      0.353593929,
      -0.095227626,
      -0.497280634,
      -1.282025896,
      2.536552151,
      -0.697803715,
      -1.23319219,
      -0.244574504,
      0.364010655,
      0.181368051,
      0.074213035,
      -0.264705651,
      0.776904187,
      -1.009526431,
      -0.119215902,
      0.144659851,
      0.515573581,
      1.802566155,
      1.094552418,
      -0.040395176,
      -0.817671698,
      0.864080255,
      1.284626125,
      0.375470121,
      0.447788163,
      1.977377777,
      1.637186169,
      -1.080070785,
      -1.700442574,
      1.310951616,
      0.912211771,
      0.319171845,
      -0.126389807,
      -0.279337538,
      -0.010866829,
      0.728578855,
      -0.607352773,
      0.754181432,
      1.156884272,
      -0.203946677,
      -0.164577104,
      -0.865504107,
      -0.998154034,
      -2.533241591,
      -0.987750642,
      1.190710326,
      1.097548642,
      -0.772683001,
      -0.344544067,
      -0.518019548,
      -0.886079161,
      -0.950274273,
      -0.45688977,
      -0.371547177,
      -0.409264262,
      -1.134465226,
      -0.306089421,
      -0.352194605,
      -1.897696568,
      0.829615912,
      -0.557381368,
      -0.82271972,
      -1.140312012,
      -0.925768499,
      -0.579351214,
      -1.288873784,
      -1.508745567,
      0.608918218,
      -1.845819201,
      -0.659188238,
      -0.927904832,
      -0.313209625,
      -0.641141748,
      0.961505277,
      0.103746209,
      -0.923440194,
      -1.966026709,
      0.925359732,
      -0.184239519,
      -0.19612236,
      0.967790909,
      2.957347932,
      0.27462696,
      -3.785299536,
      -0.425472874,
      0.2690007,
      -0.350371487,
      -0.210624375,
      0.540146149,
      1.318722525,
      -0.916297434,
      -2.626345651,
      0.177118743,
      0.068123894,
      -0.310252947,
      -0.170022009
     ],
     [
      -0.193409845,
      0.225899085,
      0.704220381,
      1.182671247,
      2.177666283,
      1.51092715,
      0.518195821,
      -0.972648126,
      -0.111825063,
      0.034394595,
      -0.329328729,
      0.565088288,
      0.888910296,
      0.230966131,
      -0.100212751,
      -0.962108786,
      -0.348303506,
      0.598849838,
      0.453336986,
      0.87207364,
      0.747468885,
      0.72213009,
      0.232113604,
      -0.567230039,
      0.929587999,
      3.231538808,
      1.782813229,
      1.616325624,
      -0.585971833,
      -3.044843806,
      -1.499489141,
      0.036876178,
      0.756875176,
      1.213409819,
      -0.704878261,
      -0.876898035,
      0.379144364,
      -0.471934867,
      -0.026394794,
      1.413690118,
      -1.243991846,
      -0.789204627,
      -0.677636993,
      0.732931201,
      1.295379074,
      1.922098839,
      2.686370884,
      1.695062924,
      -1.007264499,
      -1.420719992,
      -0.906702821,
      0.078808105,
      -0.085139037,
      1.92952603,
      3.067893393,
      0.863930146,
      -0.209623719,
      0.450448626,
      0.511149615,
      0.279488953,
      0.580484201,
      0.798520869,
      0.258890864,
      -0.352037411,
      -0.010721356,
      0.024221252,
      -0.196875863,
      -0.613171186,
      -1.098166644,
      -0.889776808,
      -0.243798249,
      0.000409257,
      0.016434399,
      0.49580206,
      0.967420124,
      -0.208136254,
      -0.567150773,
      -0.647687317,
      -0.396200872,
      -0.259042325,
      0.004397329,
      1.686335987,
      0.722703153,
      0.107051231,
      1.073643099,
      0.113010178,
      -1.141244032,
      -0.499493071,
      0.228319878,
      3.191681437,
      3.223819154,
      2.266267469,
      2.008776608,
      0.826241018,
      -0.581968603,
      -0.201731203,
      -0.173838396,
      0.478308071,
      -0.008559871,
      -1.18862233,
      -0.669846264,
      -1.083882616,
      -0.041617032,
      0.492917808,
      -0.549654103,
      -1.570001431,
      -2.002095814,
      -2.188563369,
      -1.286977216,
      -1.288233835,
      0.6505522,
      1.098347025,
      -0.205303483,
      -0.139475137,
      -0.457812988,
      -0.089155151,
      0.505147519,
      0.999431718,
      1.771639867,
      0.653496819,
      0.136005056,
      0.467208083,
      0.816821496,
      1.260186106,
      0.109014673,
      0.431770533,
      0.781312451,
      -0.021746212,
      -0.671776326,
      1.483358121,
      0.393462735,
      -0.695919605,
      -1.022171946,
      -0.282772596,
      -1.244002395,
      -1.479545846,
      0.392658572,
      1.94757594,
      1.541331557,
      1.430530088,
      1.152380354,
      0.601675407,
      0.296968614,
      -1.493583408,
      -1.956705656,
      -2.411833373,
      -3.068101801,
      -2.624329007,
      -2.321143622,
      -0.884056139,
      -1.171068418,
      -1.433555868,
      -2.986762087,
      -3.103875191,
      -1.372875996,
      -0.890887281,
      -2.067901924,
      -1.136123916,
      -1.038449457,
      -0.171784751,
      0.422632836,
      0.217431446,
      1.60554183,
      3.542679303,
      1.832584751,
      -0.710212129,
      -0.081531081,
      2.260020014,
      3.442228043,
      2.571499705,
      2.08370666,
      0.974674442,
      0.875278375,
      -0.845389585,
      0.548914217,
      2.309508975,
      1.345011314,
      1.929081775,
      0.576961118,
      -1.273659637,
      -0.484692351,
      1.324573844,
      0.718960208,
      1.503134062,
      -0.910306026,
      -1.223005696,
      -1.196250046,
      -1.131499245,
      -1.305281191,
      -1.145617586,
      -0.929648283,
      -0.175007932,
      -0.514586098,
      -0.526186576,
      -0.707361185,
      -1.157455449,
      -0.656263292,
      0.284331743,
      0.040075838,
      -0.911580517,
      -0.406347184,
      -0.31673329,
      -0.206781372,
      0.459009032,
      0.409352192,
      1.03894189,
      1.450504602,
      -0.645398831,
      -0.353354278,
      -1.092258329,
      -0.59743513,
      -0.413240269,
      0.470583882,
      1.927904811,
      1.788052409,
      -0.436350627,
      -0.659775512,
      -2.641605477,
      -3.008243825,
      -1.163174114,
      -0.155496834,
      1.761453589,
      1.39864169,
      -0.664443627,
      -0.353327971,
      -1.50267548,
      -2.444094816,
      0.817839867,
      1.486071642,
      0.163337896,
      -1.401934521,
      -0.546006669,
      -0.09845227,
      0.429590013,
      -0.501912436,
      0.971979931,
      0.156938739,
      -0.256339792,
      -1.235707526,
      0.7941302,
      -0.238622296,
      0.902392672,
      0.882912554,
      -0.282103739,
      -1.51392354,
      0.590203401,
      -0.085524859,
      0.946811692,
      -0.532244908,
      -0.243668654,
      -0.322670227,
      -0.936010574,
      -1.334715445,
      -0.181277831,
      -0.482731807,
      -0.111506294,
      -0.457375301,
      0.902753601,
      0.915865309,
      0.105755842,
      -0.736995659,
      -1.393594251,
      -1.550561967,
      -1.034850082,
      0.237496953,
      0.152575206,
      0.276094413,
      0.048748917,
      -0.822087579,
      -1.90106068,
      -1.879085229,
      -1.38605828,
      -0.500727315,
      -0.884503318,
      -0.282788234,
      -0.06772306,
      -0.92162808,
      -1.509969774,
      -0.897907682,
      -0.896325293,
      -1.856912756,
      -0.778627477,
      0.234681356,
      0.301283919,
      -0.549904187,
      -1.159540323,
      -0.259060586,
      0.543140324,
      0.338594302,
      1.643856482,
      2.74625113,
      2.627110936,
      0.895859086,
      0.49406383,
      1.112225901,
      1.966205287,
      1.494528807,
      1.006614844,
      2.675903186,
      2.018240869,
      2.614849662,
      0.416249471,
      0.43838845,
      1.44554201,
      0.484371968,
      0.732292145,
      0.314982559,
      0.527486499,
      0.310655115,
      -1.431550692,
      0.2046335,
      0.422670531,
      -1.103189652,
      -1.185331858,
      -1.463558302,
      -1.218756861,
      -1.360128129,
      -0.907689728,
      0.222876059,
      -0.121973882
     ],
     [
      0.427429329,
      0.7243376,
      1.109134604,
      2.395698277,
      1.952510925,
      1.292490498,
      0.609807132,
      -0.820977837,
      0.726389279,
      1.251131106,
      2.041423552,
      2.932981054,
      1.597316523,
      0.198569674,
      0.125686592,
      -0.77311025,
      -0.097188047,
      0.543837354,
      0.38957331,
      -1.135961118,
      0.934510793,
      -0.640271704,
      -0.794925671,
      -0.818121708,
      0.010105416,
      0.177045372,
      -0.79715892,
      -1.042765133,
      2.081802166,
      0.698277348,
      0.096520349,
      -1.204114154,
      0.485084321,
      1.956100422,
      1.584025881,
      1.494035415,
      1.62525177,
      0.461357091,
      1.247351332,
      0.03249544,
      0.30714127,
      2.401453841,
      2.710068299,
      2.425427946,
      1.975416934,
      -0.197591286,
      -1.876246742,
      -0.52248756,
      0.090617205,
      0.664214292,
      0.244079003,
      -0.021260604,
      -0.976926566,
      -1.975000847,
      -1.876246775,
      -0.942564262,
      0.109044709,
      0.37382388,
      0.519997292,
      -0.556359878,
      -0.213787561,
      -0.167392783,
      -0.087771981,
      -0.150235609,
      0.170196058,
      -0.034822211,
      -0.004554648,
      0.099024103,
      -0.406462338,
      -0.535075639,
      -0.238390673,
      0.003869516,
      0.005232292,
      -0.04926626,
      -0.056997456,
      -0.82122962,
      -1.188733938,
      -1.076976521,
      -1.429474125,
      -0.275696445,
      0.118165849,
      1.36882481,
      1.19406299,
      1.053313687,
      0.158024469,
      -1.275200217,
      -0.907703201,
      -0.196267198,
      0.380939074,
      2.031151772,
      1.933595567,
      0.374765333,
      -1.709981102,
      -1.186963302,
      2.02582926,
      0.436042122,
      0.311332242,
      1.312057925,
      1.194024697,
      0.067720877,
      0.339561346,
      2.074806302,
      1.083200909,
      -0.132006731,
      -0.175774694,
      0.129889135,
      -0.591848008,
      -0.363023078,
      0.130071758,
      0.249515242,
      -0.59112919,
      -0.577332232,
      -0.175711055,
      0.549080161,
      -0.015045854,
      -0.112999302,
      0.592217928,
      0.61007148,
      0.439950143,
      0.019558965,
      0.096855076,
      0.592130647,
      0.617187504,
      -0.126273446,
      0.481628029,
      0.753152012,
      0.112242074,
      -0.065647853,
      1.23356462,
      0.764970485,
      0.250907478,
      0.936088873,
      -0.201111955,
      -1.183000475,
      -1.012215856,
      -0.439718941,
      2.55595997,
      1.785531795,
      -0.493634539,
      1.408855936,
      -0.242943908,
      -1.346189263,
      -0.512063811,
      -0.89570272,
      0.238125021,
      -1.906676706,
      -1.512343255,
      3.463630848,
      2.38864633,
      0.130628901,
      -0.991698895,
      -1.343340082,
      -1.831666424,
      -2.799239965,
      1.835906014,
      3.485370809,
      0.977511701,
      0.045699552,
      -1.034412601,
      -0.765591547,
      -0.333883547,
      -3.263363512,
      -1.379895687,
      0.954327148,
      0.537253864,
      -0.422333727,
      -0.26380474,
      -0.615407531,
      2.006863619,
      -1.304759116,
      -2.285719162,
      -0.701807597,
      2.087709138,
      0.494695314,
      0.209321798,
      -0.468813413,
      2.278767748,
      0.728677267,
      0.3764659,
      0.26844414,
      0.800747548,
      -2.193012156,
      -1.009686601,
      -0.565585879,
      1.453659434,
      1.197871733,
      1.641904817,
      1.458280852,
      -0.119128485,
      0.343084522,
      -0.325522623,
      -0.679569633,
      0.132095257,
      0.366093495,
      -0.144964134,
      -0.069642958,
      -0.108124426,
      -0.074105516,
      0.024080537,
      -0.47671668,
      0.47056439,
      0.592624927,
      -0.551798206,
      -0.620425755,
      -0.005495141,
      0.32039046,
      1.886046065,
      -0.711514375,
      0.490156196,
      -0.500308689,
      -2.999259752,
      -3.020594361,
      -0.795726729,
      1.608758782,
      1.173218282,
      -1.013615621,
      0.170280632,
      -1.085834496,
      -2.156813145,
      -1.710192366,
      -0.715795224,
      0.03392148,
      -0.865973776,
      -1.093357098,
      0.649278703,
      -0.243360949,
      -0.883829334,
      0.257253269,
      -0.205430921,
      0.242232602,
      0.591283282,
      -0.588270357,
      1.277701334,
      0.062364555,
      -1.026479708,
      -1.898760986,
      -0.29518375,
      1.102261472,
      1.875491491,
      0.114674281,
      0.828268249,
      -0.142320213,
      -1.109544353,
      -1.945134929,
      -0.576001034,
      0.12549063,
      0.094584086,
      -0.398372948,
      0.28674863,
      -0.398153954,
      -0.861783287,
      -0.258067731,
      -0.185430653,
      -0.030435622,
      -0.679737019,
      -0.680876294,
      0.511257107,
      0.330547494,
      -0.176969552,
      0.061404251,
      -0.611124721,
      -1.021293844,
      -0.352210105,
      -0.130716313,
      1.893518959,
      1.963787396,
      1.586741814,
      0.720329344,
      -0.590636219,
      -2.186879617,
      -1.026297756,
      -0.625998321,
      0.683963139,
      0.37018288,
      0.1214681,
      0.458709129,
      1.1801568,
      2.691637906,
      0.46590572,
      -0.378154615,
      -0.848357825,
      0.338460421,
      2.815821369,
      3.211673606,
      2.269234312,
      1.07129051,
      0.471208945,
      -0.109582869,
      -0.58733895,
      -1.247553125,
      -0.04262369,
      -0.24764306,
      -0.341702609,
      -0.109636199,
      -0.168573069,
      -0.538844928,
      0.119307146,
      -1.769212607,
      -2.052575759,
      -1.90955399,
      0.444968959,
      -0.094569528,
      -0.914975793,
      -0.834950059,
      0.674069917,
      -0.147121328,
      -0.838118473,
      0.515977877,
      1.52896457,
      0.187623067,
      -0.565893967,
      0.106564988,
      0.694540763,
      0.975736315,
      1.495613706,
      1.834558718,
      1.255057991,
      0.407393981,
      0.338743069,
      0.018170996
     ],
     [
      -0.006431143,
      0.877713474,
      0.753443045,
      -0.37670287,
      -1.359382695,
      -2.340394152,
      -0.953810571,
      0.987264742,
      -0.2873625,
      0.096756206,
      -0.621353385,
      -2.360018333,
      -3.14726056,
      -3.024347447,
      -1.596631621,
      0.451870837,
      -0.708050186,
      -1.200996402,
      -0.978565344,
      -0.851913481,
      -2.825398235,
      -1.751556531,
      -1.627508526,
      -0.701587771,
      -0.593090956,
      -0.872471027,
      0.008119072,
      1.529641349,
      -1.603525258,
      -0.273996756,
      0.156375997,
      0.848366567,
      -0.340197712,
      -0.922893654,
      1.416459458,
      1.615789379,
      -0.670525117,
      0.956357491,
      0.44883354,
      -0.17699287,
      0.161287609,
      -0.693518747,
      -0.1779823,
      -1.640464704,
      -0.895976763,
      0.227523072,
      0.061150695,
      -0.294408545,
      -0.163598692,
      0.762181653,
      0.399095029,
      -0.83088497,
      0.488026866,
      0.695630573,
      0.885677937,
      0.196426839,
      -0.295685621,
      -0.615287418,
      -1.365270413,
      -0.187887261,
      0.723243111,
      -0.756038871,
      -0.333913349,
      -0.150296162,
      -0.172052003,
      -0.009650276,
      0.382534112,
      0.671765523,
      0.700128487,
      0.974273971,
      0.719641255,
      0.312393929,
      -0.198917887,
      -0.297117203,
      1.204254761,
      2.529232463,
      1.367124559,
      1.775955381,
      0.957636943,
      0.201680784,
      -0.263185587,
      -0.670906639,
      0.780785814,
      -0.101476778,
      -0.908480836,
      -1.257750865,
      -1.128782854,
      0.110550718,
      -0.273017173,
      -1.956636876,
      -2.519760049,
      -1.213164545,
      -1.307497062,
      -1.173781475,
      -1.693160465,
      0.153149335,
      -0.321204064,
      -2.192115788,
      -1.482670563,
      1.157043509,
      -0.965244495,
      -1.390271981,
      -0.139391364,
      0.657471419,
      -0.034444697,
      0.389362242,
      2.056726071,
      1.479666591,
      1.689124043,
      0.824812775,
      0.980381363,
      0.649091357,
      -0.104611358,
      0.525442455,
      0.452948708,
      0.880366817,
      0.842406469,
      -1.005904257,
      -1.043835515,
      -0.472210947,
      -0.11418886,
      -0.318560181,
      -0.296809398,
      -0.203257482,
      -0.936261275,
      -0.298640299,
      0.092751716,
      0.126766586,
      0.118227908,
      -0.049675633,
      -1.432337916,
      0.137375833,
      -0.033551785,
      0.062734906,
      2.215083804,
      0.796710604,
      0.17458566,
      -0.397243173,
      -0.4141478,
      -2.302938205,
      -2.144061616,
      1.778562839,
      1.314425822,
      0.321199931,
      -0.278292246,
      0.057677342,
      2.087155058,
      -3.479663949,
      -2.187871762,
      0.081796533,
      -1.538220314,
      -1.319016923,
      1.956137212,
      4.231317515,
      2.324672494,
      -2.778025284,
      -0.409555774,
      2.52817731,
      0.750397877,
      -1.565388795,
      2.114246234,
      3.511377383,
      -0.303738566,
      0.668940778,
      3.284637386,
      2.163479307,
      0.666474053,
      -1.056099238,
      -1.654470512,
      -1.710810363,
      -2.444579463,
      0.181992423,
      0.70284744,
      -1.216021064,
      -0.662507763,
      -0.953079126,
      -1.693160261,
      -2.633061262,
      -1.324543037,
      -1.479091962,
      -1.663686444,
      -0.518351465,
      -0.538374624,
      -0.893341537,
      -0.529433749,
      -0.568674508,
      -0.004653128,
      -1.995810565,
      -2.916966524,
      -0.679721805,
      0.609289332,
      -0.066368116,
      -0.21866951,
      -0.02455905,
      -0.01224172,
      0.14694657,
      0.921773148,
      0.209030464,
      0.101581647,
      0.778058712,
      -0.220641407,
      0.829384756,
      2.204806212,
      3.412590388,
      3.580253863,
      1.853730433,
      0.594944879,
      1.681224843,
      -0.422010533,
      0.113908669,
      1.544679671,
      2.788133468,
      1.07473956,
      0.924393906,
      -0.753815038,
      0.181592793,
      -0.38852992,
      -0.127064085,
      0.59157245,
      0.992776166,
      -0.923892451,
      0.97189386,
      0.461668737,
      -0.69417899,
      -0.462487718,
      -0.145700985,
      -1.197178384,
      -1.997103905,
      0.152761884,
      1.206676761,
      1.209821896,
      -0.032646765,
      -0.39209218,
      -0.536035783,
      -2.204275631,
      -1.434615734,
      0.881769524,
      -0.753814617,
      -0.708884124,
      -0.776918891,
      -0.353932135,
      -0.805156859,
      -0.480379766,
      0.046713794,
      0.631749284,
      -0.901164663,
      -0.360059885,
      -0.621739091,
      -0.269788391,
      -0.252428053,
      1.040873548,
      1.496106252,
      0.941977748,
      0.282457411,
      0.978245231,
      0.081170257,
      -0.420133699,
      -0.440225429,
      -0.558065941,
      -0.80570823,
      -0.423689214,
      -0.404819376,
      -0.135242461,
      0.268686619,
      0.071568232,
      0.05583803,
      -0.720851536,
      -0.903689958,
      -0.223965734,
      1.528592943,
      2.747109824,
      0.909959842,
      -0.801699731,
      -1.520577292,
      -0.066013515,
      -0.036280517,
      0.863276158,
      1.527471622,
      1.710201552,
      0.451904236,
      0.162085278,
      0.645608976,
      1.632377993,
      -0.248439983,
      -0.010383208,
      -0.32731048,
      0.888330517,
      0.518399747,
      1.049564916,
      0.899835409,
      -0.297422676,
      -0.831923015,
      -0.587518043,
      -0.493468207,
      1.200664073,
      0.127663405,
      -0.391715436,
      -0.847962829,
      -0.282203688,
      1.137470122,
      -2.117826601,
      -0.84950461,
      0.790209626,
      0.09883119,
      -1.305631075,
      -0.898297826,
      0.645385,
      -0.489195701,
      -1.670943907,
      -0.523587057,
      -0.716674627,
      -0.691122472,
      -0.415857525,
      0.45229853,
      0.578827858,
      -0.363038701,
      -0.69120379,
      -0.260195062,
      -0.581826077,
      -0.387497403
     ],
     [
      -0.733338533,
      -0.90665362,
      -0.560848465,
      0.141046324,
      0.101673742,
      0.860673394,
      -0.41263419,
      -0.323109073,
      -1.014150149,
      -1.062098741,
      0.033745355,
      0.121407579,
      0.026097933,
      0.472336462,
      0.915938651,
      1.826589743,
      -0.351900174,
      -1.079262098,
      -0.89208858,
      0.244980283,
      1.523062719,
      2.389459937,
      0.967027311,
      -0.243656395,
      -0.686998489,
      -1.69550289,
      -1.010859449,
      -0.136399858,
      2.80620193,
      4.024427228,
      2.083566084,
      -0.567522329,
      -0.049479734,
      1.632163823,
      0.433444194,
      1.022572169,
      1.218656726,
      0.94857385,
      0.193289989,
      0.100179876,
      0.27637859,
      2.679518568,
      2.051305091,
      1.567658402,
      -0.410505502,
      -0.631028635,
      -0.551851451,
      0.115003643,
      0.365727403,
      0.953876296,
      -0.529161172,
      1.034888106,
      -0.541978184,
      -0.63718423,
      -0.986346867,
      -0.224081144,
      -0.45162997,
      0.472470398,
      0.152273158,
      -0.329480995,
      -0.98303979,
      -0.722080947,
      -0.535175097,
      -0.283317714,
      -0.164347526,
      -0.088661539,
      0.149562939,
      0.140589568,
      -0.240501261,
      -0.339679869,
      0.051510628,
      0.193859432,
      -0.163196077,
      -0.386886111,
      -1.161413184,
      -1.165771068,
      -0.81771643,
      0.337245248,
      1.465254958,
      0.496420143,
      -0.158287338,
      -1.090440916,
      -1.270103538,
      0.197011149,
      0.53632196,
      1.281067263,
      1.752912166,
      1.318731763,
      -0.137828558,
      -0.795469752,
      -1.236447156,
      -0.628959209,
      1.586358316,
      2.751022987,
      1.752715259,
      1.24512389,
      0.002108132,
      2.083723176,
      1.818743494,
      1.183987529,
      1.777506436,
      1.261766358,
      -0.615451936,
      -0.84743913,
      0.233169679,
      2.241677195,
      1.837291712,
      0.269916772,
      -0.188347923,
      -0.823273886,
      -1.265211726,
      -0.98580914,
      0.006833205,
      1.028115742,
      1.047233105,
      0.264172609,
      -1.011286317,
      -0.97501711,
      -1.25735079,
      -0.225234987,
      -0.177940477,
      -0.267209189,
      -0.018134575,
      -0.417934183,
      -0.234504785,
      0.119130902,
      0.412043593,
      0.275501971,
      -1.118237991,
      -0.945995232,
      0.05287525,
      0.561218395,
      1.631829582,
      1.558682516,
      -1.516102529,
      -0.367238794,
      -1.736941217,
      0.58960258,
      1.234443415,
      -0.400185827,
      -0.316758313,
      2.379445434,
      1.290461792,
      3.559648082,
      -0.154606077,
      0.972723708,
      0.396494785,
      -0.753381467,
      -2.021192967,
      0.929219419,
      0.644714324,
      4.433666958,
      -0.777104232,
      -0.047523559,
      2.694326803,
      2.784340134,
      -1.483217117,
      -1.631444807,
      -1.952359845,
      -0.142712904,
      -0.231487338,
      -1.487976329,
      0.459027958,
      -0.622956217,
      -1.312925542,
      -2.042209935,
      -1.413093708,
      -1.370491657,
      0.886511404,
      -0.44273835,
      -0.831113392,
      -0.421909412,
      0.009358933,
      -0.692581834,
      1.075566555,
      -0.094335511,
      -0.570492212,
      -0.701677783,
      1.471908327,
      1.95433904,
      1.586483146,
      1.378474107,
      1.900770937,
      0.28626543,
      -0.801679589,
      -1.233679573,
      1.026954657,
      2.820454143,
      2.089292756,
      1.001118525,
      0.418708658,
      -0.00206595,
      -0.086158108,
      -0.242502314,
      -0.170310399,
      0.039057446,
      0.447246213,
      0.58651091,
      -0.569229069,
      0.024243773,
      -0.361359627,
      -0.128455824,
      1.042362528,
      -0.257126369,
      -2.136903586,
      -0.750355841,
      -2.265009288,
      0.615919605,
      -0.270240321,
      0.576743094,
      0.667195537,
      0.440855364,
      -1.167357033,
      -1.927682133,
      -3.386212691,
      0.249488131,
      0.049152958,
      0.405470608,
      0.325737407,
      1.930449259,
      -0.131440436,
      -1.132707794,
      -1.963839397,
      -1.474768905,
      -0.043856478,
      0.088089378,
      -0.158379786,
      0.216676148,
      -0.002790527,
      0.098914884,
      -0.55073973,
      -0.927970572,
      -0.161690175,
      -0.1462029,
      -0.301825763,
      0.218497171,
      0.285317651,
      0.375048273,
      0.459639667,
      0.739704516,
      0.079097986,
      -0.871874441,
      -0.641335263,
      -0.055979644,
      0.061669353,
      0.199300492,
      0.592331696,
      1.085956539,
      0.052980299,
      -0.974394195,
      -1.545667607,
      -0.622649625,
      -0.305706747,
      0.214810423,
      0.611512571,
      0.585086152,
      -0.507930112,
      -1.060086061,
      -1.061973673,
      -0.624407003,
      1.288646756,
      1.251658377,
      -0.409017127,
      0.080330791,
      -1.141997713,
      -0.550904429,
      -0.009252246,
      -0.161382745,
      0.834855536,
      2.082111999,
      1.565462374,
      2.281219685,
      -0.515340379,
      -0.207447422,
      -1.172750688,
      -0.689082063,
      -1.75045457,
      -1.239085722,
      -0.356875704,
      2.553855066,
      0.145890173,
      -0.499558701,
      0.747232813,
      -0.113324654,
      -2.967491971,
      -2.465725797,
      -2.613869323,
      0.235080653,
      -0.674225116,
      -0.690228041,
      0.064778843,
      -0.223592753,
      -1.169742615,
      -1.304317743,
      -2.336419216,
      -1.114271206,
      0.552364624,
      -0.242860931,
      -0.827654859,
      -0.660625278,
      0.239723445,
      -0.385087828,
      -0.584205972,
      -0.613455992,
      0.008634966,
      1.282906919,
      1.187191881,
      0.806077971,
      1.767327377,
      1.080094757,
      1.121006257,
      -0.148739421,
      -0.346806534,
      -0.075860519,
      1.041522905,
      2.147105305,
      1.492421028,
      0.883148739,
      0.507615303,
      0.038398965
     ],
     [
      0.516700387,
      -0.028846149,
      -1.132149812,
      -2.315203846,
      -2.52308503,
      -1.613385389,
      0.149800398,
      1.029091314,
      0.31996638,
      -0.348673583,
      -0.934904441,
      -2.144856988,
      -2.824065019,
      -1.409603341,
      -0.814001328,
      -0.264587721,
      0.370907909,
      0.121560875,
      -0.229644574,
      -2.066936693,
      -0.982057647,
      1.922322225,
      2.452215521,
      1.618009296,
      0.158634087,
      -0.539269358,
      -1.656340224,
      -0.618019882,
      3.225893907,
      3.493190508,
      1.982638059,
      1.627419516,
      -0.080643621,
      -1.50554884,
      -2.97652617,
      -0.584560287,
      2.010184924,
      1.087110366,
      -0.047493197,
      0.095875102,
      0.568553669,
      -1.469776134,
      -1.448837241,
      0.567064997,
      0.630999804,
      -0.162591831,
      0.219586888,
      0.187661948,
      0.685782816,
      0.458467399,
      -0.683638488,
      -0.603288498,
      -0.787333006,
      0.183900631,
      0.797275237,
      0.535916025,
      0.655303444,
      0.865388045,
      1.388168226,
      1.523357371,
      1.028511371,
      0.523566109,
      0.337241201,
      0.621710344,
      -0.319066837,
      -0.333805804,
      -0.485215209,
      -0.592307256,
      -0.166587383,
      -0.635215213,
      -0.744513471,
      -0.481853034,
      -0.355257016,
      -0.398692158,
      -0.39069964,
      0.25343107,
      1.019627924,
      1.048765211,
      0.923067478,
      0.085622537,
      -0.358816096,
      -0.456772267,
      0.071059476,
      0.829240205,
      2.053344297,
      2.028892444,
      1.303514561,
      -0.064222358,
      -0.236870071,
      -0.737613126,
      -0.535634817,
      -1.518292455,
      1.036251703,
      0.370445215,
      -0.348025797,
      -1.126585446,
      -0.172055572,
      -0.996496226,
      -2.377941184,
      -2.088217869,
      -0.080739346,
      -0.128994321,
      -0.555179252,
      -0.564960554,
      -0.080298059,
      -0.713943353,
      -2.143050984,
      -1.001488959,
      -1.108503048,
      -0.082343168,
      0.022267528,
      -0.384241052,
      -0.280178611,
      -0.241822366,
      -0.60396892,
      0.302038166,
      0.681603666,
      0.928696531,
      0.324339503,
      -0.305669206,
      -0.385271207,
      -0.442518264,
      -0.500113204,
      -1.050844085,
      -0.709575723,
      -0.300503368,
      -0.451884684,
      -0.488407755,
      -0.106254431,
      1.203217545,
      1.958662275,
      0.608833923,
      2.209676344,
      2.881052141,
      2.118540013,
      0.773565828,
      -1.256916302,
      -0.784457802,
      -2.069165985,
      -2.546572978,
      -3.927558979,
      -2.085793688,
      -0.813748514,
      -0.342127166,
      -0.43506852,
      0.779377652,
      0.592424392,
      -3.595808687,
      -2.573243023,
      -2.612699637,
      0.247689506,
      -0.439310284,
      0.233992886,
      1.851182597,
      0.548456982,
      0.1081079,
      0.43334377,
      -2.41428511,
      1.581857714,
      1.287577096,
      -1.076927686,
      1.546115214,
      2.024658558,
      1.074800141,
      -1.822866891,
      -1.366017703,
      0.247721698,
      0.595453131,
      -2.598802173,
      0.724585402,
      4.960936383,
      3.239499645,
      3.211106859,
      2.555403492,
      0.720402836,
      0.054652706,
      -1.787568409,
      -1.241321532,
      2.839505292,
      5.19466279,
      3.543920077,
      1.72972609,
      0.624871211,
      -0.406634125,
      -0.43749458,
      -1.390420425,
      -1.423883298,
      -0.579029075,
      0.102898544,
      -0.634684629,
      -1.184348875,
      -0.512545467,
      0.196100003,
      0.530857443,
      1.852176041,
      1.882419863,
      1.305368561,
      1.381777999,
      1.716783544,
      0.892524939,
      0.148061722,
      0.464389564,
      0.842961891,
      -0.730478593,
      -1.403017073,
      -2.182135106,
      -1.012124882,
      -0.425035385,
      0.11518365,
      0.969562125,
      0.471480976,
      0.19579872,
      -1.933022838,
      -3.340312782,
      -2.196862829,
      -0.31267975,
      0.190451696,
      1.834108517,
      1.294236305,
      0.968025675,
      -0.359394133,
      -2.738222678,
      -0.53445613,
      2.016885747,
      -0.125178055,
      1.239008452,
      1.907903246,
      1.585242272,
      -0.06938326,
      -1.413396589,
      0.294006305,
      1.907236228,
      -0.240966709,
      0.20904638,
      1.457838397,
      1.444062442,
      0.075549577,
      0.518160053,
      0.141344571,
      0.36292387,
      -0.037574722,
      -0.568752744,
      1.182033557,
      2.08143401,
      1.311556468,
      1.354423345,
      1.134798653,
      -0.162240141,
      0.229729595,
      -0.15974888,
      0.086400377,
      0.006153829,
      -0.059410407,
      -0.340573488,
      -0.713034991,
      -0.366412835,
      0.371362946,
      1.100736616,
      1.652525364,
      1.531859996,
      2.746431226,
      2.666370482,
      1.132794074,
      0.424116589,
      -0.261470362,
      -0.413387477,
      -0.903564274,
      0.057174083,
      1.193773873,
      1.622129064,
      0.696484972,
      0.362885489,
      -0.256364249,
      0.108533138,
      0.089740005,
      0.305186826,
      0.804694642,
      0.142678109,
      -0.141255583,
      -0.070826816,
      0.38821307,
      0.306187982,
      -0.069122276,
      -0.118053761,
      1.92731673,
      0.267017756,
      0.13678044,
      -0.67360071,
      -0.309489653,
      -0.210487605,
      -0.105376162,
      1.411327502,
      1.43847212,
      0.304089953,
      0.157730282,
      -0.426003696,
      -0.695497469,
      -0.368613215,
      -0.40676113,
      -1.539421542,
      0.223157157,
      1.02622632,
      0.631985715,
      0.17125034,
      -0.49204272,
      -0.656771757,
      0.032084701,
      -0.350169208,
      -0.376316169,
      0.338978477,
      0.652541573,
      0.403076255,
      0.196878342,
      -0.760059265,
      -2.070807315,
      -1.883284408,
      -0.982393118,
      -0.079111452,
      0.116898977,
      0.158259596
     ],
     [
      -0.425655162,
      -0.75974073,
      -0.824617208,
      -0.253895839,
      -0.252198467,
      -0.990118761,
      -1.443181413,
      -0.85525852,
      0.249883822,
      0.762454414,
      2.368089244,
      3.051537494,
      1.756080089,
      0.661001494,
      0.102496512,
      -0.594749503,
      1.061139264,
      2.363878206,
      1.697184188,
      0.667421877,
      -0.06382973,
      -0.189715123,
      -0.904671215,
      -0.774052188,
      0.292286134,
      0.279053254,
      -1.384707089,
      -1.97101806,
      -3.020759472,
      -0.448520116,
      0.461056497,
      -0.10461669,
      -0.800517018,
      -1.382241757,
      -0.997331273,
      -1.255533242,
      -1.523129127,
      0.276134234,
      1.080254838,
      -0.60186785,
      -0.660746156,
      -0.430991131,
      -0.65429645,
      -1.619121062,
      -2.096259792,
      -1.598239336,
      -1.473542995,
      -1.619621958,
      -0.248421158,
      0.068699307,
      -0.339430697,
      -0.811943241,
      0.017225674,
      -0.320825639,
      -1.420167121,
      -1.107796077,
      -0.503554193,
      -1.142744214,
      -0.701108693,
      -0.168012114,
      0.707221365,
      0.501672238,
      -0.483564887,
      -0.438254984,
      0.034717475,
      0.03625206,
      0.012336186,
      -0.169113111,
      -0.33587033,
      -0.465363009,
      -0.232873298,
      -0.0943159,
      0.072494407,
      0.416360281,
      0.603858031,
      0.768669643,
      0.201268132,
      0.18377463,
      0.227795522,
      -0.060161173,
      -0.080460596,
      0.085320949,
      -0.213172928,
      -0.71747867,
      -1.0246385,
      -0.878351975,
      -0.447319725,
      -0.016094772,
      -0.20028691,
      0.504552997,
      0.338719746,
      3.368546621,
      0.668657663,
      -0.426018035,
      0.355408534,
      0.041124062,
      0.068598148,
      0.947593965,
      2.716691241,
      3.151452882,
      -1.923715382,
      -1.092024681,
      -0.373810658,
      -0.02184703,
      0.089470754,
      1.289091779,
      2.600771556,
      1.170202104,
      -0.907814179,
      1.053950024,
      2.220162795,
      0.846694365,
      0.023749388,
      0.025165983,
      -0.008266655,
      -0.513352341,
      -0.626138536,
      0.572802784,
      0.513477486,
      -0.175118204,
      -0.132435698,
      -0.449504143,
      -0.861313573,
      -1.815549973,
      -1.098007689,
      -0.774208944,
      -0.751254728,
      -0.318502044,
      0.356558208,
      -0.152316739,
      -0.358303092,
      -0.983409629,
      -1.253647993,
      -1.181851323,
      -0.448407111,
      0.241008497,
      0.992563504,
      0.728368871,
      1.583231049,
      1.142101996,
      1.524141128,
      0.112032657,
      -0.392737306,
      -0.377522831,
      0.825639006,
      0.720554984,
      -1.265750147,
      -0.047307513,
      3.047707474,
      0.381059206,
      -0.75809857,
      -0.6016882,
      0.712735902,
      -0.00381949,
      -3.109097438,
      -4.039536484,
      2.718172294,
      1.606691234,
      0.186083748,
      -0.006692372,
      -0.270531943,
      0.879919318,
      -1.942839026,
      -3.464532648,
      -0.111778807,
      2.01331185,
      1.603798325,
      0.103331643,
      -1.036885639,
      -1.682711628,
      -1.475912719,
      -0.207148806,
      -2.53628621,
      -0.703174906,
      -0.438874195,
      -0.181052579,
      0.563801098,
      -0.019429291,
      -1.955560964,
      -1.913726891,
      -2.584491906,
      -2.488948578,
      -2.54782052,
      -0.730336617,
      1.17262118,
      3.097923166,
      1.788389764,
      0.810345928,
      1.516972927,
      -0.977639808,
      -1.167125107,
      -0.078534307,
      0.25138376,
      0.17054406,
      0.105185994,
      0.167790977,
      -0.375610314,
      -0.982825491,
      -0.512149111,
      -0.062265405,
      0.365552225,
      0.084635056,
      0.125162322,
      0.205319635,
      0.746849132,
      0.670495806,
      0.827286875,
      -0.151596856,
      0.447848624,
      -0.944264164,
      0.141923521,
      0.465931196,
      0.845074053,
      1.978194032,
      1.508908078,
      -0.40897542,
      0.378681391,
      -1.078156089,
      -0.211683589,
      -1.201785926,
      0.010084541,
      2.274685986,
      0.783405715,
      -0.350834657,
      0.363858117,
      0.248200305,
      1.627221391,
      -1.38484508,
      -1.327522505,
      0.953394073,
      1.399362052,
      -0.227805761,
      0.32356418,
      0.238652382,
      0.435619633,
      -0.347478172,
      0.324124446,
      -0.054747832,
      -0.016468373,
      -0.847500484,
      0.249738817,
      0.351121128,
      -0.413757939,
      -0.342581599,
      1.353692182,
      -0.885184842,
      -2.216061227,
      -1.289225916,
      0.271143375,
      0.998080716,
      1.187651814,
      1.462928463,
      2.435659886,
      0.291654499,
      -1.04289409,
      -0.374706652,
      -0.076759926,
      -0.423869526,
      -0.787944471,
      -1.005381867,
      -0.799323118,
      -0.727268948,
      -0.503852341,
      -0.225104251,
      -0.145697447,
      -1.302274122,
      -1.085166571,
      -2.052360154,
      -1.952682295,
      -0.110219016,
      0.695715785,
      -0.247860575,
      0.463026235,
      -0.6354456,
      -0.704397836,
      -0.590831401,
      -0.207469422,
      0.111058688,
      -0.027762997,
      -0.427681876,
      0.064869199,
      -0.39413365,
      -1.675617243,
      -2.519763479,
      0.99569495,
      1.337728177,
      0.719430142,
      0.268612873,
      -0.044833226,
      0.823255893,
      0.078861524,
      -0.771653705,
      1.119864114,
      1.782194976,
      0.702969087,
      -0.15058187,
      -0.801985243,
      -0.516002122,
      -0.040409579,
      1.21611445,
      -0.868661223,
      -0.372360638,
      0.236965882,
      0.280978628,
      -0.430761573,
      -0.31856738,
      0.21679771,
      1.042250298,
      -1.391590161,
      -1.008048115,
      -0.786338793,
      -0.437050181,
      0.525325771,
      1.666406079,
      1.966203801,
      0.928009297,
      0.012585721,
      -0.640563321,
      -1.012704372,
      -0.48742535
     ],
     [
      0.215380748,
      0.435377912,
      0.949641204,
      1.543476115,
      1.076488572,
      0.31987469,
      0.953736182,
      0.460195131,
      0.308388853,
      -0.035532706,
      -0.444824506,
      -0.428049801,
      0.250061434,
      0.388315172,
      1.097138548,
      1.104482846,
      0.05913995,
      -0.863415921,
      0.163621427,
      1.41943938,
      1.15448806,
      -0.182247157,
      1.480205018,
      1.127690596,
      -0.002044704,
      -0.308100405,
      3.076935643,
      2.487355596,
      1.579863508,
      0.108736479,
      -0.106844021,
      -0.351364464,
      0.525769404,
      1.334248444,
      0.881579447,
      0.247519474,
      1.938828639,
      1.694193926,
      1.13137522,
      0.470527556,
      0.141089254,
      -1.62757624,
      -2.247486096,
      -1.049748701,
      1.969732365,
      2.588136582,
      0.936051055,
      0.624841669,
      -0.246370524,
      -2.432652017,
      0.177298587,
      0.084652209,
      0.562055493,
      -0.420104789,
      -0.863681946,
      0.002291311,
      0.425108901,
      0.254712331,
      -0.051381229,
      -0.293669353,
      -1.104899605,
      -0.962846184,
      -0.016694252,
      0.145582788,
      0.214016796,
      0.27011581,
      -0.01199326,
      0.079942942,
      0.307893682,
      0.646283976,
      0.549863841,
      0.224989899,
      0.28492016,
      -0.023555026,
      -0.191067544,
      0.882112188,
      0.868177599,
      0.305262342,
      0.020530775,
      0.222366691,
      0.166938989,
      -0.656732482,
      -1.107468463,
      -0.815943376,
      -0.391223036,
      0.497292141,
      0.309564529,
      0.003227971,
      0.199847176,
      -0.206235683,
      -0.647246843,
      -0.641453408,
      -1.84036187,
      -0.657322631,
      0.343954565,
      0.554027171,
      0.27952585,
      0.564763679,
      -1.518177856,
      -1.362483599,
      -0.588280638,
      0.988428558,
      1.802853559,
      0.823305185,
      0.28473668,
      -1.01817927,
      -1.853176172,
      -0.593071933,
      -0.280725216,
      0.294500351,
      -0.094615366,
      -0.294527281,
      0.379538388,
      -0.903924772,
      -0.251968165,
      -0.909924828,
      -0.9845636,
      -0.070138152,
      -0.339837803,
      0.298747911,
      0.279428154,
      0.426973017,
      0.542162827,
      0.677473275,
      0.606156865,
      0.70055491,
      0.47813662,
      0.505851811,
      -0.646432644,
      -0.794026562,
      -0.254765441,
      0.379337926,
      0.613665403,
      -1.378750755,
      -1.655837048,
      -0.409387265,
      -0.375825415,
      0.041519671,
      -0.471011658,
      -0.251651051,
      1.073479115,
      0.481795281,
      -0.65554349,
      0.454232384,
      0.271343033,
      2.245760109,
      0.610974109,
      1.40159208,
      -0.13464273,
      2.207281157,
      0.739568637,
      0.817005085,
      -1.101294038,
      0.250627901,
      0.203810634,
      1.251739426,
      1.699101113,
      0.867753232,
      0.303697439,
      0.853463517,
      -1.596246138,
      0.301727254,
      2.005148063,
      1.881668399,
      0.67608789,
      -0.035540052,
      0.141181327,
      -0.552207363,
      -0.078822733,
      1.293897245,
      0.991934416,
      -1.477232527,
      -1.81164867,
      -1.581943059,
      -0.666708663,
      -1.06307611,
      -1.246864805,
      -0.519084202,
      -0.358942743,
      2.173455625,
      -0.380821693,
      -0.896017199,
      -0.227460107,
      -0.398573404,
      -1.646399949,
      -2.227065261,
      -1.951237461,
      0.741904439,
      2.010981538,
      1.086001297,
      0.424954196,
      -0.127299166,
      -0.256497587,
      -0.523181628,
      -0.99121293,
      -1.023611322,
      -1.046868224,
      -0.157082428,
      -0.300853213,
      -0.641312516,
      -0.296354389,
      -0.483876572,
      -1.022505312,
      -0.777724601,
      -0.580571547,
      -1.090145496,
      -0.894549628,
      0.050258997,
      -0.340332523,
      0.515119215,
      0.590345815,
      0.646563673,
      -0.617087512,
      -1.34167923,
      0.047678387,
      0.954337465,
      -0.338041249,
      0.323235752,
      0.133445148,
      0.734334477,
      -0.444302614,
      -1.181170886,
      -0.671426633,
      0.651250365,
      -0.398899483,
      -0.731190271,
      -1.627567049,
      -0.005483063,
      0.443677766,
      -0.767503186,
      -0.505454688,
      -0.430380577,
      -0.595134677,
      0.162909064,
      0.386969736,
      1.688830075,
      -0.431302945,
      0.288040942,
      0.101937155,
      -0.184893925,
      -0.729286681,
      0.304846055,
      0.153162264,
      -0.130555352,
      0.019799475,
      0.222956328,
      0.644157632,
      0.12788705,
      -0.521604917,
      -0.778776083,
      -0.878974284,
      -1.047034975,
      0.207591799,
      -0.385726585,
      -0.016026832,
      -0.274058845,
      -0.106212662,
      -0.41838192,
      0.138071563,
      0.808430525,
      0.547231675,
      -1.039131727,
      -0.635758978,
      -0.148931658,
      -0.230410561,
      1.105053388,
      2.102022466,
      2.296299214,
      0.293917247,
      -0.655183574,
      -1.107650594,
      -0.102655653,
      0.496539551,
      1.638042674,
      -0.597029104,
      -0.824469524,
      -0.46255286,
      0.974147307,
      1.380120196,
      0.67115468,
      0.080129304,
      -0.986027217,
      -2.47907445,
      -2.032897555,
      0.288496638,
      3.29512128,
      2.530496278,
      0.59606113,
      -0.98293443,
      0.026138958,
      1.127744385,
      0.613444419,
      0.436402311,
      0.311998887,
      -0.029182213,
      0.165307696,
      0.223315308,
      3.032499418,
      3.312716416,
      0.406427412,
      -0.426007224,
      -0.993725944,
      -0.865833825,
      -0.965839539,
      0.05254724,
      -1.206365182,
      -1.361178924,
      0.880805264,
      0.370903371,
      0.754837544,
      -0.448637898,
      -0.71492945,
      -1.080820999,
      -2.387912197,
      -1.305725856,
      0.50580503,
      1.002164781,
      0.776257764,
      -0.42768853,
      -0.144856375
     ],
     [
      0.57158513,
      0.324643893,
      0.874723708,
      0.791464967,
      0.71426047,
      1.351832712,
      0.919740463,
      0.047972374,
      0.270137183,
      -0.357678894,
      -0.36793858,
      1.444823951,
      3.466081926,
      3.443559339,
      1.005934406,
      0.193746118,
      0.086787115,
      -0.803717635,
      -0.192496793,
      1.819791259,
      1.039266955,
      0.480356583,
      0.611224154,
      0.64155979,
      -0.026146683,
      0.146805847,
      1.80799133,
      2.071341044,
      -0.881793841,
      0.38957319,
      -0.272556212,
      -0.196008236,
      0.297669332,
      0.257553468,
      3.316775347,
      2.109681577,
      -3.451187337,
      -2.23712654,
      -1.624191381,
      -0.583969351,
      0.747721907,
      0.647010301,
      0.868094851,
      -0.457191595,
      -3.284000583,
      -1.991248914,
      -0.317505884,
      0.485576522,
      0.798806661,
      1.590467732,
      2.221032953,
      0.894614834,
      0.040625153,
      0.166518711,
      0.844353548,
      1.32902038,
      0.774349291,
      0.676465128,
      -0.211185017,
      -0.748890586,
      -0.223551718,
      1.359103922,
      1.578434113,
      1.32383141,
      0.25362733,
      0.194363397,
      0.111597623,
      -0.117871334,
      -0.149753323,
      0.086030651,
      -0.037809505,
      0.129860256,
      0.339392242,
      0.410592744,
      -0.118404017,
      -0.915094482,
      -0.232454637,
      -0.680289649,
      -0.932392186,
      0.056633627,
      0.516853683,
      0.247574761,
      -0.047490851,
      -0.042985804,
      -0.322837156,
      1.474144772,
      0.149843553,
      -0.065514296,
      0.153987135,
      -1.519643455,
      -1.07736259,
      -1.694649066,
      -1.242172277,
      -0.25317601,
      -0.822299789,
      -0.056982716,
      0.045307041,
      -0.946451607,
      -0.749416849,
      -0.392753576,
      0.63735987,
      -0.040344937,
      -0.331279537,
      0.263374974,
      0.438494914,
      0.301403838,
      0.203741378,
      2.088983272,
      2.060031537,
      0.196078992,
      -0.767800007,
      -0.28885161,
      0.307502929,
      0.305162971,
      0.663918738,
      0.45514436,
      0.656772434,
      -0.369356899,
      -0.778054,
      -0.140785045,
      0.229067637,
      0.016930059,
      -0.721159326,
      -0.164614137,
      0.091692661,
      -1.33766456,
      -1.042265029,
      -0.041217301,
      0.072616075,
      -0.617054906,
      -0.71349362,
      -2.031120088,
      -0.914334257,
      0.254173193,
      -0.501473563,
      -0.022747408,
      -0.799196721,
      -1.022307125,
      1.587046195,
      1.850437619,
      0.946078193,
      -0.986034335,
      -0.759668529,
      -1.34670637,
      1.2627571,
      1.785978091,
      1.809132171,
      1.299433379,
      2.73106405,
      2.165973562,
      1.273054519,
      -1.149894638,
      2.280914537,
      0.296004166,
      -1.817000858,
      -0.178280649,
      2.800824429,
      1.593897908,
      0.567465581,
      -0.976010633,
      0.405470594,
      -1.415748111,
      -0.302146035,
      0.713675309,
      2.816650847,
      0.89793267,
      -0.463169357,
      -1.239984319,
      -0.988395468,
      -2.165375396,
      -1.896469738,
      0.771173189,
      0.332717626,
      -0.505616501,
      -0.612802634,
      -0.915497199,
      -0.295927969,
      -1.192508807,
      -1.750252874,
      -1.208597376,
      -2.010927103,
      -1.134120557,
      0.797941182,
      0.28588548,
      0.803666997,
      1.299601665,
      1.48297322,
      0.153956916,
      0.049851672,
      1.263306078,
      2.13467862,
      0.963928365,
      0.003993596,
      -0.242307005,
      -0.476751687,
      -0.829797399,
      -1.548008935,
      -1.042897881,
      -0.64688692,
      -0.422767693,
      -0.195246759,
      -1.042443027,
      -1.787600234,
      -1.320232081,
      -1.055462124,
      -0.174180619,
      0.008186661,
      -1.100056911,
      -0.248368424,
      0.335258714,
      0.567057247,
      -0.455179054,
      -0.274986721,
      -0.433855695,
      1.112613602,
      -0.515178549,
      0.16655284,
      1.92079345,
      1.309602162,
      -1.060765336,
      -0.528516051,
      -0.06070245,
      1.243314368,
      -0.641008646,
      0.144830525,
      0.764608777,
      0.432900989,
      -1.470286461,
      1.043257088,
      1.540303924,
      0.754811377,
      -1.384137521,
      -0.017010779,
      -0.535570281,
      -0.556223839,
      -1.654696192,
      0.122777183,
      0.052697854,
      -0.28922238,
      -1.149875166,
      0.010309776,
      -0.483863607,
      -0.817380239,
      -0.003036319,
      0.031137968,
      -1.196098491,
      0.042849338,
      0.071900878,
      0.035470501,
      0.299296028,
      0.215152342,
      0.853453702,
      0.27058315,
      0.115070561,
      1.535195745,
      0.852446064,
      0.50664584,
      0.116549509,
      0.074196661,
      -0.408950651,
      -0.873942921,
      0.573573884,
      0.815944841,
      0.339216733,
      -0.293215983,
      0.321028805,
      0.212086171,
      2.681512589,
      1.832325,
      -0.9355442,
      -1.598563002,
      -0.336000854,
      0.490671241,
      1.63566654,
      3.309493754,
      2.065940387,
      0.685641769,
      -1.102811001,
      -0.786703841,
      -0.785982117,
      1.104961606,
      0.987237178,
      -0.230572458,
      0.964634549,
      0.465146305,
      -0.050391658,
      -0.543854485,
      -0.421071632,
      0.234397422,
      -0.637144389,
      -2.176778289,
      -0.674262216,
      0.47663597,
      -0.398278141,
      -0.611843783,
      0.348997842,
      -0.535766368,
      -0.63253083,
      -2.146096909,
      0.387912105,
      0.942595895,
      -0.338449345,
      -0.220644149,
      0.165738474,
      -0.115789588,
      -0.559870323,
      -1.150523029,
      0.649277953,
      -0.447625694,
      -0.384264106,
      0.368077912,
      0.32606232,
      0.765813137,
      1.241772081,
      1.24822101,
      0.427922231,
      -0.596227324,
      -0.415298998,
      0.770227391,
      0.402160682
     ]
    ],
    "b": [
     -1.940625424,
     2.563196405,
     0.717362039,
     -0.521126976,
     0.58237935,
     1.575730001,
     -1.195729037,
     1.300951299,
     -2.261922224,
     -0.893290797
    ]
   }
  },
  {
   "epoch": 3,
   "batch": 341,
   "loss": 1.449177790838416,
   "accuracy": 94.34307992202729,
   "input": [
    [
     0.0,
     0.0,
     0.0,
     0.0,
     0.0,
     0.0,
     0.0,
     0.0,
     0.0,
     0.0,
     0.0,
     0.0,
     0.0,
     0.0,
     0.0,
     0.0,
     0.0,
     0.0,
     0.0,
     0.0,
     0.0,
     0.0,
     0.0,
     0.0,
     0.0,
     0.0,
     0.0,
     0.0
    ],
    [
     0.0,
     0.0,
     0.0,
     0.0,
     0.0,
     0.0,
     0.0,
     0.0,
     0.0,
     0.0,
     0.0,
     0.0,
     0.0,
     0.0,
     0.0,
     0.0,
     0.0,
     0.0,
     0.0,
     0.0,
     0.0,
     0.0,
     0.0,
     0.0,
     0.0,
     0.0,
     0.0,
     0.0
    ],
    [
     0.0,
     0.0,
     0.0,
     0.0,
     0.0,
     0.0,
     0.0,
     0.0,
     0.0,
     0.0,
     0.0,
     0.0,
     0.0,
     0.0,
     0.0,
     0.0,
     0.0,
     0.0,
     0.0,
     0.0,
     0.0,
     0.0,
     0.0,
     0.0,
     0.0,
     0.0,
     0.0,
     0.0
    ],
    [
     0.0,
     0.0,
     0.0,
     0.0,
     0.0,
     0.0,
     0.0,
     0.0,
     0.0,
     0.0,
     0.0,
     0.0,
     0.0,
     0.0,
     0.0,
     0.0,
     0.0,
     0.0,
     0.0,
     0.0,
     0.0,
     0.0,
     0.0,
     0.0,
     0.0,
     0.0,
     0.0,
     0.0
    ],
    [
     0.0,
     0.0,
     0.0,
     0.0,
     0.0,
     0.0,
     0.0,
     0.0,
     0.0,
     0.0,
     0.0,
     0.0,
     0.0,
     0.0,
     0.0,
     0.0,
     0.0,
     0.0,
     0.0,
     0.0,
     0.0,
     0.0,
     0.0,
     0.0,
     0.0,
     0.0,
     0.0,
     0.0
    ],
    [
     0.0,
     0.0,
     0.0,
     0.0,
     0.0,
     0.0,
     0.0,
     0.0,
     0.0,
     0.0,
     0.0,
     0.0,
     0.0,
     0.0,
     0.0,
     0.0,
     0.0,
     0.0,
     0.0,
     0.0,
     0.0,
     0.0,
     0.0,
     0.0,
     0.0,
     0.0,
     0.0,
     0.0
    ],
    [
     0.0,
     0.0,
     0.0,
     0.0,
     0.0,
     0.0,
     0.0,
     0.0,
     0.0,
     0.0,
     0.0,
     0.0,
     0.0,
     0.0,
     0.0,
     0.0,
     0.0,
     0.0,
     0.050980392,
     0.223529412,
     0.223529412,
     0.666666667,
     0.662745098,
     0.662745098,
     0.466666667,
     0.0,
     0.0,
     0.0
    ],
    [
     0.0,
     0.0,
     0.0,
     0.0,
     0.0,
     0.0,
     0.0,
     0.0,
     0.0,
     0.0,
     0.0,
     0.0,
     0.0,
     0.384313725,
     0.478431373,
     0.333333333,
     0.333333333,
     0.576470588,
     0.819607843,
     0.988235294,
     0.988235294,
     0.992156863,
     0.988235294,
     0.729411765,
     0.658823529,
     0.0,
     0.0,
     0.0
    ],
    [
     0.0,
     0.0,
     0.0,
     0.0,
     0.0,
     0.0,
     0.0,
     0.0,
     0.0,
     0.0,
     0.0,
     0.0,
     0.788235294,
     0.992156863,
     0.988235294,
     0.988235294,
     0.988235294,
     0.992156863,
     0.988235294,
     0.988235294,
     0.592156863,
     0.305882353,
     0.109803922,
     0.023529412,
     0.0,
     0.0,
     0.0,
     0.0
    ],
    [
     0.0,
     0.0,
     0.0,
     0.0,
     0.0,
     0.0,
     0.0,
     0.0,
     0.0,
     0.0,
     0.02745098,
     0.407843137,
     0.992156863,
     1.0,
     0.917647059,
     0.733333333,
     0.443137255,
     0.447058824,
     0.149019608,
     0.0,
     0.0,
     0.0,
     0.0,
     0.0,
     0.0,
     0.0,
     0.0,
     0.0
    ],
    [
     0.0,
     0.0,
     0.0,
     0.0,
     0.0,
     0.0,
     0.0,
     0.0,
     0.0,
     0.0,
     0.51372549,
     0.988235294,
     0.988235294,
     0.525490196,
     0.109803922,
     0.0,
     0.0,
     0.0,
     0.0,
     0.0,
     0.0,
     0.0,
     0.0,
     0.0,
     0.0,
     0.0,
     0.0,
     0.0
    ],
    [
     0.0,
     0.0,
     0.0,
     0.0,
     0.0,
     0.0,
     0.0,
     0.0,
     0.0,
     0.039215686,
     0.77254902,
     0.988235294,
     0.988235294,
     0.0,
     0.0,
     0.11372549,
     0.525490196,
     0.333333333,
     0.109803922,
     0.0,
     0.0,
     0.0,
     0.0,
     0.0,
     0.0,
     0.0,
     0.0,
     0.0
    ],
    [
     0.0,
     0.0,
     0.0,
     0.0,
     0.0,
     0.0,
     0.0,
     0.0,
     0.0,
     0.11372549,
     0.988235294,
     0.988235294,
     0.203921569,
     0.447058824,
     0.737254902,
     0.917647059,
     0.988235294,
     0.992156863,
     0.819607843,
     0.098039216,
     0.0,
     0.0,
     0.0,
     0.0,
     0.0,
     0.0,
     0.0,
     0.0
    ],
    [
     0.0,
     0.0,
     0.0,
     0.0,
     0.0,
     0.0,
     0.0,
     0.0,
     0.0,
     0.603921569,
     0.992156863,
     0.992156863,
     0.992156863,
     0.996078431,
     0.992156863,
     0.956862745,
     0.882352941,
     0.949019608,
     0.992156863,
     0.658823529,
     0.0,
     0.0,
     0.0,
     0.0,
     0.0,
     0.0,
     0.0,
     0.0
    ],
    [
     0.0,
     0.0,
     0.0,
     0.0,
     0.0,
     0.0,
     0.0,
     0.0,
     0.0,
     0.992156863,
     0.988235294,
     0.988235294,
     0.988235294,
     0.870588235,
     0.474509804,
     0.219607843,
     0.0,
     0.552941176,
     0.988235294,
     0.658823529,
     0.0,
     0.0,
     0.0,
     0.0,
     0.0,
     0.0,
     0.0,
     0.0
    ],
    [
     0.0,
     0.0,
     0.0,
     0.0,
     0.0,
     0.0,
     0.0,
     0.0,
     0.0,
     0.992156863,
     0.988235294,
     0.988235294,
     0.694117647,
     0.098039216,
     0.0,
     0.0,
     0.0,
     0.407843137,
     0.988235294,
     0.768627451,
     0.039215686,
     0.0,
     0.0,
     0.0,
     0.0,
     0.0,
     0.0,
     0.0
    ],
    [
     0.0,
     0.0,
     0.0,
     0.0,
     0.0,
     0.0,
     0.0,
     0.0,
     0.0,
     0.796078431,
     0.694117647,
     0.403921569,
     0.011764706,
     0.0,
     0.0,
     0.0,
     0.0,
     0.501960784,
     0.988235294,
     0.988235294,
     0.109803922,
     0.0,
     0.0,
     0.0,
     0.0,
     0.0,
     0.0,
     0.0
    ],
    [
     0.0,
     0.0,
     0.0,
     0.0,
     0.0,
     0.11372549,
     0.184313725,
     0.0,
     0.0,
     0.0,
     0.0,
     0.0,
     0.0,
     0.0,
     0.0,
     0.0,
     0.0,
     0.603921569,
     0.992156863,
     0.807843137,
     0.050980392,
     0.0,
     0.0,
     0.0,
     0.0,
     0.0,
     0.0,
     0.0
    ],
    [
     0.0,
     0.0,
     0.0,
     0.0,
     0.0,
     0.847058824,
     0.329411765,
     0.0,
     0.0,
     0.0,
     0.0,
     0.0,
     0.0,
     0.0,
     0.0,
     0.0,
     0.2,
     0.992156863,
     0.988235294,
     0.658823529,
     0.0,
     0.0,
     0.0,
     0.0,
     0.0,
     0.0,
     0.0,
     0.0
    ],
    [
     0.0,
     0.0,
     0.0,
     0.0,
     0.0,
     0.992156863,
     0.329411765,
     0.0,
     0.0,
     0.0,
     0.0,
     0.0,
     0.0,
     0.0,
     0.074509804,
     0.482352941,
     0.964705882,
     0.992156863,
     0.91372549,
     0.243137255,
     0.0,
     0.0,
     0.0,
     0.0,
     0.0,
     0.0,
     0.0,
     0.0
    ],
    [
     0.0,
     0.0,
     0.0,
     0.0,
     0.0,
     0.992156863,
     0.521568627,
     0.0,
     0.0,
     0.0,
     0.0,
     0.0,
     0.0,
     0.494117647,
     0.905882353,
     0.988235294,
     0.988235294,
     0.992156863,
     0.376470588,
     0.0,
     0.0,
     0.0,
     0.0,
     0.0,
     0.0,
     0.0,
     0.0,
     0.0
    ],
    [
     0.0,
     0.0,
     0.0,
     0.0,
     0.0,
     0.949019608,
     0.992156863,
     0.847058824,
     0.552941176,
     0.552941176,
     0.552941176,
     0.698039216,
     0.992156863,
     0.996078431,
     0.992156863,
     0.956862745,
     0.68627451,
     0.2,
     0.0,
     0.0,
     0.0,
     0.0,
     0.0,
     0.0,
     0.0,
     0.0,
     0.0,
     0.0
    ],
    [
     0.0,
     0.0,
     0.0,
     0.0,
     0.0,
     0.235294118,
     0.917647059,
     0.988235294,
     0.988235294,
     0.992156863,
     0.988235294,
     0.988235294,
     0.988235294,
     0.77254902,
     0.474509804,
     0.219607843,
     0.0,
     0.0,
     0.0,
     0.0,
     0.0,
     0.0,
     0.0,
     0.0,
     0.0,
     0.0,
     0.0,
     0.0
    ],
    [
     0.0,
     0.0,
     0.0,
     0.0,
     0.0,
     0.0,
     0.149019608,
     0.219607843,
     0.219607843,
     0.415686275,
     0.219607843,
     0.219607843,
     0.219607843,
     0.0,
     0.0,
     0.0,
     0.0,
     0.0,
     0.0,
     0.0,
     0.0,
     0.0,
     0.0,
     0.0,
     0.0,
     0.0,
     0.0,
     0.0
    ],
    [
     0.0,
     0.0,
     0.0,
     0.0,
     0.0,
     0.0,
     0.0,
     0.0,
     0.0,
     0.0,
     0.0,
     0.0,
     0.0,
     0.0,
     0.0,
     0.0,
     0.0,
     0.0,
     0.0,
     0.0,
     0.0,
     0.0,
     0.0,
     0.0,
     0.0,
     0.0,
     0.0,
     0.0
    ],
    [
     0.0,
     0.0,
     0.0,
     0.0,
     0.0,
     0.0,
     0.0,
     0.0,
     0.0,
     0.0,
     0.0,
     0.0,
     0.0,
     0.0,
     0.0,
     0.0,
     0.0,
     0.0,
     0.0,
     0.0,
     0.0,
     0.0,
     0.0,
     0.0,
     0.0,
     0.0,
     0.0,
     0.0
    ],
    [
     0.0,
     0.0,
     0.0,
     0.0,
     0.0,
     0.0,
     0.0,
     0.0,
     0.0,
     0.0,
     0.0,
     0.0,
     0.0,
     0.0,
     0.0,
     0.0,
     0.0,
     0.0,
     0.0,
     0.0,
     0.0,
     0.0,
     0.0,
     0.0,
     0.0,
     0.0,
     0.0,
     0.0
    ],
    [
     0.0,
     0.0,
     0.0,
     0.0,
     0.0,
     0.0,
     0.0,
     0.0,
     0.0,
     0.0,
     0.0,
     0.0,
     0.0,
     0.0,
     0.0,
     0.0,
     0.0,
     0.0,
     0.0,
     0.0,
     0.0,
     0.0,
     0.0,
     0.0,
     0.0,
     0.0,
     0.0,
     0.0
    ]
   ],
   "output": 5,
   "conv_layer": {
    "w": [
     [
      [
       [
        -1.475471003,
        -0.431574526,
        1.54583005,
        2.168413033,
        3.563335547
       ],
       [
        -0.046711463,
        -1.092863062,
        -1.817889376,
        -2.070767827,
        -0.181550052
       ],
       [
        0.270568294,
        -1.892433371,
        -3.910382899,
        -3.509101857,
        -2.039477552
       ],
       [
        1.125098192,
        2.277962568,
        1.440140968,
        0.443797934,
        -1.022651229
       ],
       [
        -1.119101735,
        1.226688722,
        2.121788144,
        1.897523839,
        -0.239035353
       ]
      ]
     ],
     [
      [
       [
        1.557246917,
        2.536426952,
        1.562151143,
        0.927388117,
        -0.861639149
       ],
       [
        -1.341170019,
        -1.612726518,
        -2.306892174,
        -1.455751638,
        -2.024936422
       ],
       [
        -1.550471727,
        -2.706071804,
        -1.933953096,
        0.102268058,
        -0.539812183
       ],
       [
        -0.932372756,
        -0.144594305,
        0.476084987,
        0.90182123,
        -0.816882368
       ],
       [
        -0.941579928,
        2.660823571,
        1.463853803,
        0.082748124,
        -0.759505597
       ]
      ]
     ],
     [
      [
       [
        0.624640384,
        0.144841662,
        -0.431265347,
        0.219327762,
        -0.01916839
       ],
       [
        0.164343423,
        -0.755650916,
        -0.64016247,
        0.475363591,
        1.009380091
       ],
       [
        -0.098508104,
        0.159174962,
        1.315681325,
        0.839821267,
        -0.841831816
       ],
       [
        0.884145971,
        0.009469104,
        1.412607831,
        0.709902142,
        -0.521596394
       ],
       [
        1.286199936,
        -1.533854278,
        -2.144749046,
        -0.475083809,
        2.607742408
       ]
      ]
     ],
     [
      [
       [
        0.280945604,
        -0.203302295,
        -1.006855512,
        -0.239262145,
        0.454309868
       ],
       [
        -0.44346135,
        -0.142350635,
        1.408535579,
        -0.511016647,
        -1.916496946
       ],
       [
        -1.690545152,
        0.122319404,
        2.552118143,
        -0.078695062,
        -3.813086848
       ],
       [
        -1.322845613,
        1.09170932,
        2.273991606,
        -0.647946733,
        -2.350271534
       ],
       [
        -0.041587347,
        0.132775228,
        0.951909571,
        -1.282028378,
        0.12998098
       ]
      ]
     ],
     [
      [
       [
        1.12334484,
        1.178107334,
        0.162266634,
        -0.588473718,
        -0.837275895
       ],
       [
        1.665533184,
        -1.800075508,
        -2.715668118,
        -1.557032296,
        0.18099122
       ],
       [
        -0.26673764,
        -1.99092145,
        -2.212027633,
        1.118315487,
        2.169581369
       ],
       [
        -1.586150959,
        -0.3619661,
        0.725700939,
        2.733531616,
        0.461714113
       ],
       [
        0.665643953,
        0.714901474,
        0.35102194,
        -0.664836983,
        -1.69625525
       ]
      ]
     ]
    ],
    "b": [
     -1.737454258,
     0.20214924,
     -2.205985225,
     -0.367258961,
     -2.778664623
    ]
   },
   "dense_layer": {
    "w": [
     [
      -0.034981517,
      -0.329336408,
      -0.429836661,
      -0.654418608,
      -0.083347134,
      0.191432795,
      0.233589361,
      0.462238391,
      0.017475682,
      -0.002712288,
      -0.815962777,
      -0.413253496,
      0.677463054,
      1.10145904,
      0.519646848,
      0.20812721,
      0.24408607,
      -0.067885825,
      -0.889179204,
      -0.950459899,
      -0.966534595,
      -0.648787211,
      -0.126942164,
      0.843305866,
      0.124321411,
      -0.729622233,
      -1.505463768,
      -0.63010984,
      -1.572407238,
      -2.394058851,
      -1.07130586,
      0.748815973,
      -0.370403113,
      -2.069555197,
      -1.982499574,
      0.263195899,
      -0.258781379,
      -0.59732629,
      -1.308246444,
      -0.289693284,
      -0.448708173,
      -0.959839048,
      -0.099773954,
      1.83493047,
      -1.080962348,
      -0.805455906,
      -1.168447295,
      -0.685652285,
      -0.21384767,
      -1.084478324,
      0.240388298,
      0.804557216,
      0.142504481,
      -0.075215945,
      -0.753214001,
      -0.405025416,
      0.189405621,
      -0.135112145,
      0.25772383,
      0.230406275,
      -0.00396893,
      -0.036391527,
      -0.349538931,
      -0.174741613,
      0.083170737,
      0.043844947,
      0.080006244,
      0.263479673,
      0.621955734,
      0.5893415,
      0.259825196,
      0.109326916,
      0.061419133,
      -0.002790557,
      -0.632772235,
      -0.709854779,
      -0.986683828,
      -1.258706954,
      -0.800180546,
      -0.227596374,
      0.156315837,
      -0.202281787,
      -0.128265953,
      0.275135849,
      -0.941527298,
      -0.855989083,
      -0.057205771,
      -0.010023362,
      0.250668154,
      -0.658435477,
      -0.350336613,
      -0.387770935,
      1.178517306,
      -0.328195918,
      -0.408338953,
      -0.434500442,
      0.013208131,
      -1.21044069,
      -1.094502247,
      -0.020761984,
      0.732017882,
      -1.029886879,
      -0.514883316,
      -0.402292898,
      -0.0127622,
      -1.738290814,
      -0.787134486,
      -0.910069753,
      -1.236326397,
      0.48179079,
      -0.327226595,
      0.243275476,
      0.096530072,
      -1.248215023,
      -0.640100684,
      -0.290488783,
      0.139564724,
      0.498064707,
      0.601488318,
      0.442726067,
      0.090641383,
      0.281224053,
      0.818222829,
      1.013329278,
      1.273960442,
      0.894597364,
      0.356849874,
      0.241082524,
      0.193864036,
      -0.681511502,
      -1.119886197,
      -0.533105685,
      -0.053155831,
      -1.292490586,
      -0.666129278,
      0.265498638,
      -0.283494899,
      -1.774072592,
      -1.417601122,
      1.857878667,
      3.37369459,
      1.803904538,
      -0.431537032,
      0.25512445,
      0.346925982,
      -1.109818113,
      2.240737238,
      1.208874394,
      0.57470395,
      0.787095461,
      1.726538536,
      0.993829433,
      1.647551673,
      1.745138454,
      2.046650576,
      -3.411059127,
      -5.505351853,
      -0.141206854,
      1.405805674,
      1.69116599,
      1.791013271,
      2.043218923,
      0.218933821,
      -7.065133868,
      -4.331882515,
      0.982808374,
      0.937980088,
      1.534252223,
      0.198479461,
      0.849739743,
      1.416456906,
      -2.41163195,
      -0.775471599,
      0.876068098,
      -0.227959538,
      0.880954737,
      -0.803207895,
      -0.353908412,
      1.947899784,
      1.102868755,
      0.356074021,
      -0.659855148,
      -0.61371774,
      0.378128396,
      -0.087893299,
      -0.47557759,
      0.280643729,
      1.143898656,
      -0.020663305,
      -1.145556203,
      -0.730523494,
      0.184193989,
      0.206322546,
      0.018674323,
      -0.049879275,
      -0.466094071,
      -0.560979086,
      -0.439507464,
      -0.677774578,
      0.077109906,
      0.186243527,
      -0.428405364,
      -1.033594464,
      -0.799304586,
      0.19722434,
      0.552364012,
      -0.582054229,
      0.432452365,
      0.246301975,
      -0.42744077,
      -0.581147437,
      1.762651205,
      1.046065055,
      1.962160771,
      1.136952506,
      1.437544669,
      0.146304612,
      0.163034926,
      1.811898964,
      3.424633556,
      -0.295121342,
      -0.072488944,
      0.746993771,
      2.592653844,
      -0.106645386,
      0.48548819,
      2.834444444,
      3.346533942,
      -3.972132601,
      -1.273171234,
      -0.361889668,
      2.21408899,
      -0.550267689,
      -0.159705509,
      2.274899328,
      1.28135424,
      -2.074815691,
      -0.350013197,
      -0.315167641,
      0.68557655,
      -0.35840165,
      -0.573064972,
      0.186239685,
      0.562769217,
      -0.597828555,
      -0.484275976,
      -0.909292084,
      -0.197390409,
      0.135619803,
      -0.407993845,
      -0.695784444,
      0.005005126,
      -0.320466937,
      -1.063143247,
      -1.157174055,
      -0.138116008,
      0.425165841,
      0.13621667,
      -0.230979446,
      -0.138167894,
      -0.582251263,
      -0.629002408,
      0.371498344,
      0.524376726,
      0.035363892,
      -0.355019724,
      -0.455321068,
      -0.183535989,
      0.300804136,
      -0.552967916,
      -1.146778038,
      0.104082112,
      0.216983058,
      0.001637224,
      0.204306671,
      0.310963066,
      0.473417341,
      -1.142619353,
      -0.993696634,
      0.194404703,
      1.105581591,
      0.889667485,
      0.896907373,
      -0.332989003,
      -1.854050666,
      -1.030778433,
      -0.177917636,
      0.065701938,
      1.505195567,
      0.737536921,
      0.050983707,
      -2.570590917,
      -0.338754104,
      0.052420456,
      0.926307151,
      0.056337485,
      0.746234367,
      -0.896751683,
      -0.294899345,
      0.101096887,
      0.903826985,
      0.855312755,
      0.85026731,
      0.465910282,
      0.227525048,
      -1.341459532,
      0.791692681,
      0.173774284,
      0.520269744,
      0.554277083,
      0.502169532,
      0.732587202,
      0.182941399,
      -0.990890619,
      -0.602529698,
      0.269894351,
      -0.247365102,
      0.15078637,
      0.422901323,
      0.428652949
     ],
     [
      -0.280277937,
      -0.506301441,
      -1.334319461,
      -2.25301903,
      -1.762342167,
      -0.522163342,
      -0.307463413,
      -0.207127448,
      -0.393806177,
      -0.200906369,
      -0.912975784,
      -2.662670622,
      -2.591727373,
      -2.164657533,
      -1.416926898,
      -1.184352249,
      -0.292511876,
      0.184708506,
      0.336717348,
      -0.13282506,
      -0.660850028,
      -2.122643277,
      -2.270899826,
      -1.047795008,
      -0.310036618,
      -0.038955493,
      -0.395023248,
      -3.563224101,
      -2.223401683,
      -2.6325793,
      -1.938446078,
      -0.951192078,
      -0.647735787,
      -0.533417791,
      -1.044869245,
      -3.982188521,
      -1.300665931,
      -2.118057705,
      -1.235028677,
      -0.631741547,
      0.02627557,
      0.237072026,
      -0.100846803,
      -2.394076309,
      1.928350059,
      0.57743569,
      1.323581008,
      -0.004600393,
      0.013247766,
      0.610350781,
      -0.790386412,
      -0.706489102,
      1.126635516,
      0.310459592,
      0.460216382,
      -0.351483854,
      -0.667319752,
      -1.370932197,
      -0.42876936,
      0.351220099,
      -0.347626818,
      -0.456522919,
      -0.318704504,
      -0.379993431,
      -0.154414861,
      -0.131990432,
      -0.126409642,
      0.241093893,
      0.806887475,
      0.586915935,
      -0.021906604,
      -0.29506415,
      -0.148690804,
      -0.238767986,
      -0.285948499,
      -0.483848143,
      0.471405909,
      0.09993337,
      -0.038668279,
      -0.26055895,
      -0.117262232,
      -0.039848275,
      -0.10442537,
      -0.905599698,
      -0.349542945,
      -1.067748105,
      0.176425111,
      -0.716767079,
      -0.168840031,
      0.087761551,
      0.762106943,
      0.21409742,
      -0.306572105,
      -0.087405771,
      -0.679545496,
      -0.658993554,
      -0.199287834,
      0.106734292,
      1.34106799,
      -0.365516402,
      0.721179189,
      0.364511342,
      -0.4443538,
      -0.322235605,
      -0.109335657,
      0.47293143,
      0.834205568,
      0.01772575,
      1.15276745,
      -0.919419241,
      -0.812099171,
      -0.374530264,
      -0.152258261,
      0.068905562,
      -0.253820615,
      -0.055689227,
      -0.714910548,
      -1.279642555,
      -0.115825733,
      -0.050176834,
      -0.133601238,
      -0.270773147,
      -0.189002171,
      0.820527116,
      0.289929717,
      -0.124684271,
      -0.029055255,
      -0.16795202,
      0.501928112,
      -0.097122416,
      1.273758367,
      1.794641549,
      -0.847049531,
      0.80430146,
      2.699844005,
      0.560983052,
      0.213933098,
      -0.993772307,
      -1.04356106,
      -2.215139303,
      -1.420082772,
      -2.690927238,
      0.582486855,
      -0.042873171,
      -0.036652051,
      -1.218683058,
      -1.901211298,
      2.973683581,
      0.495479371,
      -3.349728452,
      -0.099005694,
      -0.158270069,
      -0.377619615,
      -2.445160631,
      -3.371016231,
      3.498254795,
      0.780906542,
      -1.51637186,
      -0.870961916,
      -0.24540481,
      -1.247817401,
      -2.392751417,
      -2.240304765,
      2.193874046,
      -1.439888935,
      -1.474176183,
      -1.168102571,
      0.127394287,
      0.005094657,
      1.814057321,
      -0.583627075,
      0.087986607,
      -2.255718534,
      1.566172052,
      0.062039218,
      0.259190102,
      2.251948321,
      3.978176711,
      -1.817562476,
      -4.842120659,
      0.763623317,
      3.393350807,
      0.823588662,
      0.459628381,
      1.131742878,
      1.688930703,
      -1.697354825,
      -3.444576131,
      -1.243051833,
      0.896166038,
      0.514088396,
      0.43680396,
      0.342819198,
      0.372926648,
      0.537206912,
      1.532454082,
      1.575260554,
      0.31015386,
      0.864370274,
      0.626693118,
      0.372332248,
      0.493605905,
      0.538852431,
      0.585129505,
      0.065896384,
      -0.208660501,
      0.140302053,
      0.384652036,
      0.341308514,
      0.527242026,
      0.066218904,
      -2.484650262,
      1.506739406,
      -1.256269407,
      -0.402499292,
      -0.051367603,
      0.380763087,
      0.439473164,
      -0.098937077,
      -2.7966926,
      3.614275687,
      0.202382007,
      -0.476820024,
      -0.458759226,
      0.353993882,
      -0.09531034,
      -0.497281044,
      -1.281651831,
      2.537950552,
      -0.698152259,
      -1.233620951,
      -0.244485431,
      0.364447596,
      0.181365522,
      0.074284914,
      -0.263576348,
      0.776626759,
      -1.010161896,
      -0.118907547,
      0.145127476,
      0.516142359,
      1.804191797,
      1.095971198,
      -0.038500838,
      -0.818583059,
      0.86455802,
      1.285864717,
      0.376076359,
      0.448293332,
      1.979091616,
      1.639044219,
      -1.07953315,
      -1.701265327,
      1.311885719,
      0.913189581,
      0.319611265,
