{
 "begin_epoch": 1,
 "begin_batch": 140,
 "end_epoch": 1,
 "end_batch": 159,
 "weights": [
  {
   "epoch": 1,
   "batch": 140,
   "loss": 1.1102388227260476,
   "accuracy": 85.96690307328605,
   "input": [
    [
     0.0,
     0.0,
     0.0,
     0.0,
     0.0,
     0.0,
     0.0,
     0.0,
     0.0,
     0.0,
     0.0,
     0.0,
     0.0,
     0.0,
     0.0,
     0.0,
     0.0,
     0.0,
     0.0,
     0.0,
     0.0,
     0.0,
     0.0,
     0.0,
     0.0,
     0.0,
     0.0,
     0.0
    ],
    [
     0.0,
     0.0,
     0.0,
     0.0,
     0.0,
     0.0,
     0.0,
     0.0,
     0.0,
     0.0,
     0.0,
     0.0,
     0.0,
     0.0,
     0.0,
     0.0,
     0.0,
     0.0,
     0.0,
     0.0,
     0.0,
     0.0,
     0.0,
     0.0,
     0.0,
     0.0,
     0.0,
     0.0
    ],
    [
     0.0,
     0.0,
     0.0,
     0.0,
     0.0,
     0.0,
     0.0,
     0.0,
     0.0,
     0.0,
     0.0,
     0.0,
     0.0,
     0.0,
     0.0,
     0.0,
     0.0,
     0.0,
     0.0,
     0.0,
     0.0,
     0.0,
     0.0,
     0.0,
     0.0,
     0.0,
     0.0,
     0.0
    ],
    [
     0.0,
     0.0,
     0.0,
     0.0,
     0.0,
     0.0,
     0.0,
     0.0,
     0.0,
     0.0,
     0.0,
     0.0,
     0.0,
     0.0,
     0.0,
     0.0,
     0.0,
     0.0,
     0.0,
     0.0,
     0.0,
     0.0,
     0.0,
     0.0,
     0.0,
     0.0,
     0.0,
     0.0
    ],
    [
     0.0,
     0.0,
     0.0,
     0.0,
     0.0,
     0.0,
     0.0,
     0.0,
     0.0,
     0.0,
     0.0,
     0.0,
     0.0,
     0.0,
     0.0,
     0.0,
     0.0,
     0.0,
     0.0,
     0.0,
     0.0,
     0.0,
     0.0,
     0.0,
     0.0,
     0.0,
     0.0,
     0.0
    ],
    [
     0.0,
     0.0,
     0.0,
     0.0,
     0.0,
     0.0,
     0.0,
     0.0,
     0.0,
     0.0,
     0.0,
     0.0,
     0.0,
     0.0,
     0.0,
     0.0,
     0.0,
     0.0,
     0.0,
     0.0,
     0.0,
     0.0,
     0.0,
     0.0,
     0.0,
     0.0,
     0.0,
     0.0
    ],
    [
     0.0,
     0.0,
     0.0,
     0.0,
     0.0,
     0.0,
     0.0,
     0.0,
     0.0,
     0.0,
     0.0,
     0.0,
     0.458823529,
     1.0,
     0.62745098,
     0.0,
     0.0,
     0.0,
     0.0,
     0.0,
     0.0,
     0.0,
     0.0,
     0.0,
     0.0,
     0.0,
     0.0,
     0.0
    ],
    [
     0.0,
     0.0,
     0.0,
     0.0,
     0.0,
     0.0,
     0.0,
     0.0,
     0.0,
     0.0,
     0.0,
     0.254901961,
     0.949019608,
     0.996078431,
     0.988235294,
     0.647058824,
     0.156862745,
     0.0,
     0.0,
     0.0,
     0.0,
     0.0,
     0.0,
     0.0,
     0.0,
     0.0,
     0.0,
     0.0
    ],
    [
     0.0,
     0.0,
     0.0,
     0.0,
     0.0,
     0.0,
     0.0,
     0.0,
     0.0,
     0.0,
     0.250980392,
     0.952941176,
     0.996078431,
     0.925490196,
     0.996078431,
     0.996078431,
     0.956862745,
     0.894117647,
     0.894117647,
     0.458823529,
     0.0,
     0.0,
     0.0,
     0.0,
     0.0,
     0.0,
     0.0,
     0.0
    ],
    [
     0.0,
     0.0,
     0.0,
     0.0,
     0.0,
     0.0,
     0.0,
     0.0,
     0.0,
     0.019607843,
     0.835294118,
     0.996078431,
     0.960784314,
     0.309803922,
     0.490196078,
     0.91372549,
     0.996078431,
     0.996078431,
     0.996078431,
     0.733333333,
     0.0,
     0.0,
     0.0,
     0.0,
     0.0,
     0.0,
     0.0,
     0.0
    ],
    [
     0.0,
     0.0,
     0.0,
     0.0,
     0.0,
     0.0,
     0.0,
     0.0,
     0.0,
     0.470588235,
     0.996078431,
     0.996078431,
     0.462745098,
     0.0,
     0.0,
     0.145098039,
     0.996078431,
     0.996078431,
     0.878431373,
     0.121568627,
     0.0,
     0.0,
     0.0,
     0.0,
     0.0,
     0.0,
     0.0,
     0.0
    ],
    [
     0.0,
     0.0,
     0.0,
     0.0,
     0.0,
     0.0,
     0.0,
     0.0,
     0.215686275,
     0.925490196,
     0.996078431,
     0.776470588,
     0.019607843,
     0.0,
     0.0,
     0.333333333,
     0.996078431,
     0.996078431,
     0.596078431,
     0.0,
     0.0,
     0.0,
     0.0,
     0.0,
     0.0,
     0.0,
     0.0,
     0.0
    ],
    [
     0.0,
     0.0,
     0.0,
     0.0,
     0.0,
     0.0,
     0.0,
     0.0,
     0.788235294,
     0.996078431,
     0.996078431,
     0.250980392,
     0.0,
     0.0,
     0.0,
     0.423529412,
     0.996078431,
     0.996078431,
     0.266666667,
     0.0,
     0.0,
     0.0,
     0.0,
     0.0,
     0.0,
     0.0,
     0.0,
     0.0
    ],
    [
     0.0,
     0.0,
     0.0,
     0.0,
     0.0,
     0.0,
     0.0,
     0.0,
     0.470588235,
     0.984313725,
     0.360784314,
     0.003921569,
     0.0,
     0.0,
     0.035294118,
     0.82745098,
     0.996078431,
     0.796078431,
     0.011764706,
     0.0,
     0.0,
     0.0,
     0.0,
     0.0,
     0.0,
     0.0,
     0.0,
     0.0
    ],
    [
     0.0,
     0.0,
     0.0,
     0.0,
     0.0,
     0.0,
     0.0,
     0.0,
     0.007843137,
     0.066666667,
     0.0,
     0.0,
     0.0,
     0.0,
     0.203921569,
     0.996078431,
     0.996078431,
     0.6,
     0.0,
     0.0,
     0.0,
     0.0,
     0.0,
     0.0,
     0.0,
     0.0,
     0.0,
     0.0
    ],
    [
     0.0,
     0.0,
     0.0,
     0.0,
     0.0,
     0.0,
     0.0,
     0.0,
     0.0,
     0.0,
     0.0,
     0.0,
     0.0,
     0.0,
     0.474509804,
     0.996078431,
     0.992156863,
     0.274509804,
     0.0,
     0.0,
     0.0,
     0.0,
     0.0,
     0.0,
     0.0,
     0.0,
     0.0,
     0.0
    ],
    [
     0.0,
     0.0,
     0.0,
     0.0,
     0.0,
     0.0,
     0.0,
     0.0,
     0.0,
     0.0,
     0.0,
     0.0,
     0.0,
     0.08627451,
     0.843137255,
     0.996078431,
     0.68627451,
     0.0,
     0.0,
     0.0,
     0.0,
     0.0,
     0.0,
     0.0,
     0.0,
     0.0,
     0.0,
     0.0
    ],
    [
     0.0,
     0.0,
     0.0,
     0.0,
     0.0,
     0.0,
     0.0,
     0.0,
     0.0,
     0.0,
     0.0,
     0.0,
     0.0,
     0.450980392,
     0.996078431,
     0.996078431,
     0.482352941,
     0.0,
     0.0,
     0.0,
     0.0,
     0.0,
     0.0,
     0.0,
     0.0,
     0.0,
     0.0,
     0.0
    ],
    [
     0.0,
     0.0,
     0.0,
     0.0,
     0.0,
     0.0,
     0.0,
     0.0,
     0.0,
     0.0,
     0.0,
     0.0,
     0.0,
     0.529411765,
     0.996078431,
     0.945098039,
     0.078431373,
     0.0,
     0.0,
     0.0,
     0.0,
     0.0,
     0.0,
     0.0,
     0.0,
     0.0,
     0.0,
     0.0
    ],
    [
     0.0,
     0.0,
     0.0,
     0.0,
     0.0,
     0.0,
     0.0,
     0.0,
     0.0,
     0.0,
     0.0,
     0.0,
     0.0,
     0.874509804,
     0.996078431,
     0.811764706,
     0.0,
     0.0,
     0.0,
     0.0,
     0.0,
     0.0,
     0.0,
     0.0,
     0.0,
     0.0,
     0.0,
     0.0
    ],
    [
     0.0,
     0.0,
     0.0,
     0.0,
     0.0,
     0.0,
     0.0,
     0.0,
     0.0,
     0.0,
     0.0,
     0.0,
     0.31372549,
     0.992156863,
     0.996078431,
     0.57254902,
     0.0,
     0.0,
     0.0,
     0.0,
     0.0,
     0.0,
     0.0,
     0.0,
     0.0,
     0.0,
     0.0,
     0.0
    ],
    [
     0.0,
     0.0,
     0.0,
     0.0,
     0.0,
     0.0,
     0.0,
     0.0,
     0.0,
     0.0,
     0.0,
     0.0,
     0.576470588,
     0.996078431,
     0.968627451,
     0.207843137,
     0.0,
     0.0,
     0.0,
     0.0,
     0.0,
     0.0,
     0.0,
     0.0,
     0.0,
     0.0,
     0.0,
     0.0
    ],
    [
     0.0,
     0.0,
     0.0,
     0.0,
     0.0,
     0.0,
     0.0,
     0.0,
     0.0,
     0.0,
     0.0,
     0.0,
     0.756862745,
     0.996078431,
     0.568627451,
     0.0,
     0.0,
     0.0,
     0.0,
     0.0,
     0.0,
     0.0,
     0.0,
     0.0,
     0.0,
     0.0,
     0.0,
     0.0
    ],
    [
     0.0,
     0.0,
     0.0,
     0.0,
     0.0,
     0.0,
     0.0,
     0.0,
     0.0,
     0.0,
     0.0,
     0.22745098,
     0.980392157,
     0.996078431,
     0.694117647,
     0.02745098,
     0.0,
     0.0,
     0.0,
     0.0,
     0.0,
     0.0,
     0.0,
     0.0,
     0.0,
     0.0,
     0.0,
     0.0
    ],
    [
     0.0,
     0.0,
     0.0,
     0.0,
     0.0,
     0.0,
     0.0,
     0.0,
     0.0,
     0.0,
     0.0,
     0.423529412,
     0.996078431,
     0.996078431,
     0.925490196,
     0.137254902,
     0.0,
     0.0,
     0.0,
     0.0,
     0.0,
     0.0,
     0.0,
     0.0,
     0.0,
     0.0,
     0.0,
     0.0
    ],
    [
     0.0,
     0.0,
     0.0,
     0.0,
     0.0,
     0.0,
     0.0,
     0.0,
     0.0,
     0.0,
     0.0,
     0.631372549,
     0.996078431,
     0.996078431,
     0.521568627,
     0.0,
     0.0,
     0.0,
     0.0,
     0.0,
     0.0,
     0.0,
     0.0,
     0.0,
     0.0,
     0.0,
     0.0,
     0.0
    ],
    [
     0.0,
     0.0,
     0.0,
     0.0,
     0.0,
     0.0,
     0.0,
     0.0,
     0.0,
     0.0,
     0.0,
     0.0,
     0.0,
     0.0,
     0.0,
     0.0,
     0.0,
     0.0,
     0.0,
     0.0,
     0.0,
     0.0,
     0.0,
     0.0,
     0.0,
     0.0,
     0.0,
     0.0
    ],
    [
     0.0,
     0.0,
     0.0,
     0.0,
     0.0,
     0.0,
     0.0,
     0.0,
     0.0,
     0.0,
     0.0,
     0.0,
     0.0,
     0.0,
     0.0,
     0.0,
     0.0,
     0.0,
     0.0,
     0.0,
     0.0,
     0.0,
     0.0,
     0.0,
     0.0,
     0.0,
     0.0,
     0.0
    ]
   ],
   "output": 7,
   "conv_layer": {
    "w": [
     [
      [
       [
        -0.241112474,
        -0.480016994,
        -0.744379013,
        -0.544369767,
        -0.464344529
       ],
       [
        -0.161613789,
        -0.81292392,
        -0.794642533,
        -0.768126113,
        -0.843945975
       ],
       [
        0.066976048,
        -0.633624026,
        -0.993803246,
        -0.803925359,
        -1.007951719
       ],
       [
        0.704049224,
        0.295451572,
        0.259126855,
        -0.030376364,
        -0.303601365
       ],
       [
        0.57632632,
        0.619278654,
        0.79576112,
        1.156986931,
        0.672340073
       ]
      ]
     ],
     [
      [
       [
        0.535415982,
        0.571034681,
        -0.220983053,
        -0.27762921,
        -0.125412349
       ],
       [
        -0.1719029,
        0.005695835,
        -0.332595865,
        -0.331647742,
        -0.281020072
       ],
       [
        -0.675336632,
        -0.57645947,
        0.032852581,
        -0.03349215,
        -0.174744025
       ],
       [
        -0.666478181,
        -0.484323582,
        0.050583478,
        -0.264418851,
        -0.558218229
       ],
       [
        -0.533451676,
        0.068884661,
        0.073681784,
        -0.424259601,
        -0.52001527
       ]
      ]
     ],
     [
      [
       [
        0.444498305,
        0.791099708,
        0.572517541,
        0.061006316,
        -0.148736436
       ],
       [
        -0.224545975,
        0.208046877,
        0.072178839,
        -0.340465564,
        -0.452073193
       ],
       [
        -0.345847385,
        0.081396934,
        -0.144056273,
        -0.413649452,
        -0.436549432
       ],
       [
        -0.58217099,
        -0.324776054,
        -0.172006941,
        -0.142564674,
        0.255738989
       ],
       [
        -0.604721464,
        -0.617814924,
        0.069305522,
        0.585953034,
        1.114986113
       ]
      ]
     ],
     [
      [
       [
        0.396552968,
        0.44973522,
        0.195198302,
        -0.014678586,
        -0.520269229
       ],
       [
        -0.355272198,
        0.288888084,
        0.367814374,
        -0.393848859,
        -0.458542007
       ],
       [
        -0.344894187,
        0.120216961,
        0.24152589,
        -0.009239319,
        -0.506199673
       ],
       [
        -0.339455081,
        0.265580296,
        0.498983568,
        0.088792927,
        -0.395466439
       ],
       [
        -0.580213256,
        0.307032502,
        0.575889931,
        0.04157256,
        -0.083683261
       ]
      ]
     ],
     [
      [
       [
        0.245256787,
        0.158421604,
        -0.379961822,
        -0.64265256,
        -0.376727294
       ],
       [
        -0.490392562,
        -0.651167856,
        -0.803725877,
        -0.347265157,
        0.54943264
       ],
       [
        -0.584829016,
        -0.270517426,
        -0.41273761,
        0.805106774,
        1.182488729
       ],
       [
        -0.205125995,
        0.012984404,
        0.393466323,
        0.577660108,
        0.417185761
       ],
       [
        0.573439557,
        0.541517495,
        0.412818759,
        0.110309927,
        -0.658840118
       ]
      ]
     ]
    ],
    "b": [
     0.012584941,
     0.644829603,
     -1.246755747,
     -1.065365288,
     -0.219807712
    ]
   },
   "dense_layer": {
    "w": [
     [
      0.047799446,
      0.002134104,
      -0.197890976,
      -0.261963055,
      -0.009210614,
      0.058556318,
      -0.041765019,
      0.026261454,
      0.075179857,
      0.036590589,
      -0.125280349,
      -0.146245513,
      0.11052653,
      0.361554806,
      0.300895656,
      0.083594002,
      0.137337388,
      0.076764843,
      -0.222500529,
      -0.389604631,
      -0.563983418,
      -0.451086923,
      0.172015507,
      0.333096675,
      0.111600284,
      -0.152581976,
      -0.375727279,
      -0.299421619,
      -0.520683897,
      -0.855722541,
      -0.127488589,
      0.265574778,
      -0.060993589,
      -0.434917741,
      0.038789511,
      0.549796218,
      -0.021037635,
      -0.378404377,
      -0.214872432,
      0.082262352,
      0.021489465,
      -0.385487799,
      0.594501675,
      1.09994231,
      0.028101745,
      -0.41524716,
      -0.189489501,
      -0.101512236,
      0.098045463,
      -0.252124819,
      -0.040003654,
      0.389592946,
      -0.153876071,
      -0.200459291,
      -0.011252841,
      -0.008911542,
      0.0624894,
      0.039423945,
      -0.063069809,
      -0.070289592,
      0.065464013,
      0.118985086,
      -0.044573418,
      0.018721936,
      -0.014032029,
      -0.011016103,
      -0.032812496,
      0.050565462,
      0.091251106,
      0.117633554,
      0.040892244,
      0.04091234,
      -0.020783083,
      -0.02262621,
      -0.039091589,
      0.018728883,
      -0.204713367,
      -0.163399699,
      -0.026431751,
      -0.01394622,
      0.0239322,
      0.004493886,
      -0.095525528,
      -0.368471104,
      -0.401558718,
      -0.293103125,
      0.076115548,
      -0.010250681,
      0.074908714,
      -0.153090913,
      -0.312364622,
      -0.005416333,
      0.413853474,
      0.03755673,
      -0.004385593,
      0.111442198,
      -0.023952809,
      -0.310981843,
      -0.198284386,
      0.362507719,
      0.437896834,
      -0.218492795,
      -0.280720361,
      0.110953267,
      0.03577463,
      -0.378031917,
      0.069837548,
      0.227460812,
      -0.060698288,
      -0.38359172,
      -0.077114641,
      0.121918652,
      0.009295337,
      -0.169540795,
      -0.047294253,
      -0.240597219,
      -0.287972253,
      -0.000340039,
      0.186762658,
      0.011897833,
      -0.003710469,
      0.016939028,
      0.055910271,
      0.008152297,
      0.081283891,
      0.125489354,
      -0.047941066,
      0.00786607,
      0.015642894,
      -0.314482146,
      -0.402527968,
      0.213261035,
      0.369254002,
      -0.260342439,
      -0.322603127,
      0.017155612,
      -0.195539358,
      -0.775113731,
      -0.368454929,
      0.55997401,
      0.809471764,
      0.615912971,
      -0.327155059,
      -0.036855902,
      -0.132955325,
      -0.456562312,
      0.749779987,
      0.419041582,
      0.093537302,
      0.558514709,
      0.592510414,
      0.109538085,
      0.2103419,
      0.510297988,
      0.50476892,
      -1.224139598,
      -2.141441619,
      0.116524708,
      0.54167359,
      0.311749063,
      0.232965083,
      0.780216281,
      0.077698559,
      -2.52732471,
      -1.661609614,
      0.444743087,
      0.233577979,
      0.238497069,
      -0.143029955,
      0.503789766,
      0.614314333,
      -0.898971044,
      -0.273902697,
      0.207377783,
      -0.224264178,
      0.116241082,
      -0.326023547,
      0.060412527,
      1.117823649,
      0.520471453,
      0.088722133,
      -0.249589501,
      -0.243514867,
      0.010284635,
      -0.030792873,
      -0.164271053,
      0.147723894,
      0.386393425,
      0.084823592,
      -0.219790264,
      -0.205710198,
      0.017861989,
      0.021323507,
      0.036611843,
      -0.00942258,
      -0.063169415,
      -0.023701521,
      -0.042340836,
      -0.161026936,
      -0.034680556,
      0.01372828,
      -0.144500393,
      -0.387493899,
      -0.201695016,
      0.106941475,
      0.153733257,
      -0.080979377,
      0.035362109,
      0.090300388,
      -0.215093281,
      -0.392496407,
      0.435935782,
      0.45525936,
      0.18934607,
      0.498698249,
      0.344334032,
      0.031986969,
      -0.212333727,
      0.499040339,
      0.758649894,
      -0.169861649,
      -0.578144911,
      0.527918867,
      0.528560227,
      -0.085802009,
      -0.104114495,
      1.017165029,
      0.621969674,
      -1.418501204,
      -0.784588579,
      0.196407467,
      0.255213405,
      -0.216908802,
      -0.305327693,
      0.952759966,
      0.22690339,
      -0.747259296,
      -0.283976157,
      -0.041699065,
      -0.027764463,
      -0.121685836,
      -0.464854358,
      0.26446454,
      0.262239831,
      -0.119354458,
      -0.053973105,
      -0.184887754,
      -0.084520448,
      0.061296333,
      -0.147215424,
      -0.082452011,
      0.221307885,
      0.163983851,
      -0.047282181,
      -0.237321612,
      -0.005043627,
      0.137832334,
      0.072963631,
      -0.087566137,
      0.030823423,
      0.003475957,
      -0.166839541,
      0.007450064,
      0.085333838,
      -0.026953876,
      -0.255867681,
      -0.212468976,
      0.194663149,
      0.309806159,
      -0.041168675,
      -0.231484295,
      0.093470975,
      -0.062967066,
      -0.174695932,
      0.359286113,
      0.263621896,
      0.218643205,
      0.009026387,
      -0.230390716,
      0.074944546,
      0.094319972,
      0.246111443,
      0.4336993,
      -0.198384455,
      -0.602310079,
      -0.079198489,
      -0.123139202,
      0.081564175,
      0.163729474,
      0.229865451,
      0.039178418,
      -0.822505507,
      -0.281075091,
      0.290734518,
      -0.066409285,
      0.153875884,
      -0.060684573,
      -0.144257333,
      -0.014224598,
      -0.199771393,
      0.364467518,
      0.252757886,
      -0.021337444,
      0.28837694,
      -0.170893126,
      -0.191629227,
      0.372108602,
      0.17887594,
      0.174662147,
      -0.167238368,
      0.124658807,
      0.159722839,
      0.017769487,
      -0.123805684,
      0.041508553,
      0.31379085,
      0.015572594,
      0.119055596,
      0.124002713,
      0.033837343
     ],
     [
      -0.056609566,
      -0.093002011,
      -0.124442445,
      -0.209916874,
      -0.365038855,
      -0.273664929,
      -0.026531815,
      0.066188761,
      -0.153855167,
      -0.120614825,
      -0.311638613,
      -0.529404368,
      -0.397430772,
      -0.705503015,
      -0.496511858,
      -0.174889008,
      -0.092244113,
      -0.058648101,
      -0.066418836,
      -0.22639328,
      0.137329398,
      -0.158092643,
      -0.548118235,
      -0.273556697,
      -0.081706621,
      -0.094969461,
      -0.217610811,
      -1.021130769,
      -0.161548618,
      -0.20794173,
      -0.543941976,
      -0.292105328,
      -0.168876981,
      -0.039919868,
      -0.211484279,
      -1.139963288,
      0.302716719,
      -0.207734518,
      -0.437697888,
      -0.240182093,
      -0.059980703,
      -0.006412451,
      -0.184159028,
      -0.942045506,
      0.578101799,
      0.058859893,
      -0.069818942,
      -0.16098222,
      0.004065642,
      0.0428833,
      -0.426227189,
      -0.586262763,
      0.137220326,
      0.099339708,
      0.03627765,
      -0.157119819,
      -0.092187966,
      -0.152568938,
      0.0022363,
      0.162858829,
      -0.269256904,
      -0.150988015,
      -0.13581507,
      -0.138608652,
      -0.035390005,
      -0.037601426,
      -0.109233987,
      -0.042121905,
      0.165891236,
      0.137168351,
      0.020640193,
      -0.07616068,
      -0.032597636,
      -0.107674132,
      -0.13967898,
      -0.124729983,
      0.479645878,
      -0.033018648,
      -0.235058309,
      -0.100406863,
      0.005899822,
      0.025041386,
      -0.058727689,
      -0.18015321,
      0.073748812,
      -0.471685451,
      -0.092076522,
      -0.103119072,
      -0.065053676,
      0.020036421,
      0.043989499,
      -0.281050778,
      -0.168581365,
      -0.065548437,
      -0.076974592,
      -0.066055222,
      -0.084628176,
      0.011903402,
      0.029311946,
      -0.453704921,
      0.120872491,
      -0.024329006,
      -0.078982893,
      -0.125473191,
      -0.0358249,
      -0.022440136,
      -0.14355938,
      -0.309068819,
      0.272698924,
      -0.146889081,
      -0.213338623,
      -0.128073199,
      -0.066065051,
      -0.113463029,
      -0.296980114,
      0.126702059,
      0.120071115,
      -0.239960431,
      -0.101632296,
      -0.05043256,
      -0.001551972,
      -0.022692255,
      0.071812895,
      0.20702132,
      0.082718238,
      0.008162137,
      -0.091321519,
      -0.113587194,
      0.013182778,
      -0.111183742,
      0.188043835,
      0.44924468,
      -0.318347937,
      0.131567376,
      0.589173217,
      0.029769268,
      -0.114866144,
      -0.573683153,
      -0.736426485,
      -0.574895031,
      -0.287437791,
      -0.952809066,
      0.061794357,
      -0.027804144,
      -0.173682608,
      -0.775947785,
      -1.222506503,
      1.016374453,
      0.442098998,
      -1.152126502,
      -0.297576491,
      -0.213920598,
      -0.299062097,
      -1.026228087,
      -1.538192866,
      1.249808849,
      0.403268355,
      -0.857208414,
      -0.596563574,
      -0.238340792,
      -0.448416276,
      -1.001269082,
      -0.660800787,
      1.01541461,
      -0.419357746,
      -0.94175363,
      -0.657659282,
      -0.130749329,
      -0.168047889,
      0.222645397,
      -0.215069053,
      0.380084908,
      -0.768769669,
      -0.374708294,
      -0.379975003,
      -0.150810857,
      0.396714963,
      0.812592121,
      -0.723353397,
      -1.206912887,
      0.219157818,
      0.441015244,
      -0.132374348,
      -0.063252545,
      0.196782446,
      0.289520708,
      -0.836417093,
      -1.317873131,
      -0.33392406,
      0.161367509,
      -0.081078286,
      -0.015814631,
      0.010896153,
      0.003816538,
      0.014981538,
      0.382685563,
      0.238441657,
      0.008881288,
      0.193625667,
      0.107921067,
      0.024554509,
      -0.011721936,
      0.068910319,
      0.046601004,
      0.097727583,
      -0.226937731,
      0.10131503,
      0.129145613,
      -0.030268036,
      0.041122765,
      -0.095596085,
      -0.736612935,
      0.865468045,
      -0.413998485,
      -0.199996087,
      -0.062330486,
      -0.008635227,
      0.048237908,
      -0.24728125,
      -0.89610132,
      1.306228456,
      -0.004459778,
      -0.368751339,
      -0.233935986,
      0.017460627,
      -0.055970849,
      -0.366155823,
      -0.388486442,
      1.142241607,
      -0.234453383,
      -0.541838024,
      -0.217871079,
      -0.006705161,
      -0.014418663,
      -0.07828454,
      -0.083533606,
      0.753744041,
      -0.354396812,
      -0.30554269,
      -0.099670057,
      0.042221874,
      0.288094827,
      0.190641988,
      -0.168237787,
      0.261632506,
      0.164037141,
      0.077789029,
      -0.082843576,
      0.028830414,
      0.350744463,
      0.204170791,
      -0.567124094,
      -0.355282995,
      0.332421359,
      0.040674729,
      -0.027667376,
      -0.095109486,
      -0.065954152,
      0.041250072,
      0.250319059,
      -0.238114828,
      -0.004355728,
      0.131091927,
      -0.127525711,
      -0.082192877,
      -0.288318886,
      -0.266590567,
      -0.574157151,
      -0.333395217,
      0.03356097,
      0.139657689,
      -0.218877621,
      -0.184841609,
      -0.353175422,
      -0.560064756,
      -0.256060206,
      -0.25802579,
      -0.341419718,
      -0.115806645,
      -0.23563783,
      -0.174866535,
      -0.298633001,
      -0.696129087,
      0.24402166,
      -0.374691925,
      -0.16455653,
      -0.263416312,
      -0.278629082,
      -0.209962177,
      -0.43025243,
      -0.50458816,
      0.135397108,
      -0.501763553,
      -0.181882755,
      -0.314949192,
      -0.137415079,
      -0.188360344,
      0.069408774,
      -0.164583553,
      -0.164123905,
      -0.610328861,
      0.016240946,
      -0.203783766,
      -0.144763468,
      0.091681645,
      0.420646039,
      -0.350227886,
      -0.92776485,
      -0.076855429,
      -0.076710303,
      -0.296419127,
      -0.161590635,
      0.008540548,
      0.198614712,
      -0.498689055,
      -0.496629706,
      0.112232351,
      -0.087390676,
      -0.268721532,
      -0.159251699
     ],
     [
      0.059952926,
      0.184069945,
      0.414497961,
      0.372296825,
      0.452165421,
      0.313303643,
      0.221843027,
      -0.109557459,
      0.144136855,
      0.207330796,
      0.172424216,
      0.152062824,
      0.061328326,
      0.104337078,
      0.130832913,
      -0.039830069,
      0.003856383,
      0.01358947,
      -0.021132279,
      0.110855334,
      0.062236004,
      0.018019466,
      0.128748897,
      -0.004069874,
      0.101727043,
      0.424458048,
      0.642232205,
      0.877253431,
      0.332406224,
      -0.340060805,
      -0.127316754,
      0.011970604,
      0.175606941,
      0.158254237,
      -0.08480355,
      0.226639079,
      0.401366916,
      0.186100057,
      0.383750416,
      0.489642739,
      -0.139165995,
      -0.132899175,
      -0.340735109,
      -0.198272554,
      0.021465581,
      0.44621459,
      0.604640787,
      0.62258011,
      -0.104154193,
      -0.195261098,
      -0.075103133,
      0.104883445,
      0.243002484,
      0.255152504,
      0.324003048,
      0.244480263,
      0.00622312,
      0.007031839,
      0.061135665,
      0.062688153,
      -0.086026803,
      -0.162776092,
      0.019516774,
      0.025573535,
      -0.023360535,
      0.049780138,
      0.045446284,
      -0.002256408,
      -0.063008544,
      -0.049369111,
      -0.039132314,
      0.035913752,
      0.021670465,
      0.00619377,
      -0.075395537,
      -0.178819931,
      -0.103299623,
      0.099125096,
      0.031320888,
      -0.019019034,
      0.01817872,
      0.14989466,
      0.066183983,
      0.174287503,
      0.35210989,
      0.158481717,
      -0.024839127,
      -0.079948008,
      0.082430402,
      0.323849491,
      0.465612481,
      0.38479929,
      0.254912558,
      0.083228171,
      0.057433698,
      -0.026114287,
      0.017615381,
      0.183738539,
      0.033113975,
      -0.196874128,
      -0.125650113,
      -0.121694887,
      0.002613966,
      0.08639593,
      -0.027363771,
      -0.105377089,
      -0.241901596,
      -0.317307079,
      -0.22308129,
      0.049990387,
      0.094551287,
      0.110697368,
      -0.056299195,
      -0.036907149,
      -0.131262662,
      -0.046428577,
      0.145610691,
      -0.071412121,
      0.115596284,
      0.350940237,
      -0.009585422,
      0.095000953,
      0.140729112,
      0.205865085,
      -0.098016591,
      -0.103314983,
      0.111826558,
      0.182793204,
      -0.017905023,
      0.612356489,
      0.553144652,
      0.279089731,
      0.099014736,
      0.111079666,
      -0.186771389,
      -0.268625877,
      0.306874527,
      0.894462132,
      0.78363506,
      0.548991767,
      0.378432927,
      0.205700786,
      0.104788723,
      -0.266561845,
      -0.21880047,
      -0.540074388,
      -0.93235806,
      -0.707463499,
      -0.575373386,
      -0.120055094,
      -0.066282353,
      -0.28418174,
      -0.81485233,
      -1.045344681,
      -0.718472395,
      -0.6070239,
      -0.485422139,
      -0.487300058,
      -0.167027045,
      0.065531735,
      0.139653736,
      0.064828947,
      0.643816735,
      1.283432337,
      0.543855912,
      -0.080726284,
      0.318803404,
      0.637678324,
      1.128334513,
      0.97543753,
      1.328707442,
      1.076360428,
      0.692878026,
      0.667912304,
      0.842680949,
      0.778046128,
      0.604971902,
      0.776434315,
      0.270101857,
      -0.444446043,
      -0.246366949,
      0.510327862,
      0.595245259,
      0.574905935,
      -0.041656506,
      -0.063144254,
      -0.277211035,
      -0.548209329,
      -0.578192692,
      -0.256001568,
      0.082381103,
      0.184016964,
      -0.031319807,
      -0.117713484,
      -0.167259716,
      -0.235243284,
      -0.050529261,
      0.039133579,
      -0.009545626,
      -0.133736161,
      -0.033837516,
      0.082188496,
      0.263651655,
      0.160199145,
      0.12835959,
      0.203607717,
      0.242861224,
      -0.069976688,
      -0.095657087,
      -0.042666789,
      0.018206608,
      -0.243527506,
      -0.054199696,
      0.163685341,
      0.168587714,
      -0.108927475,
      -0.152747271,
      -0.421770003,
      -0.60785165,
      -0.501430565,
      -0.446328068,
      0.049156313,
      -0.035401211,
      -0.166590563,
      -0.021840775,
      -0.286677654,
      -0.511312909,
      0.086022255,
      0.188487774,
      -0.171503326,
      -0.341798407,
      0.015891588,
      0.022779843,
      0.036290365,
      -0.123829963,
      0.602289819,
      0.29697551,
      -0.280628271,
      -0.015786372,
      0.515596966,
      0.010576854,
      0.339019346,
      0.296879084,
      0.093862809,
      -0.383054237,
      -0.221858013,
      0.246372402,
      0.461797224,
      -0.095694482,
      0.041675722,
      0.06843929,
      -0.189722516,
      -0.515961727,
      -0.282985323,
      0.006374179,
      0.061493076,
      -0.07278563,
      0.177840521,
      0.214402251,
      0.132786757,
      -0.042580877,
      -0.145935407,
      -0.166343092,
      -0.112106004,
      0.199609081,
      0.571207214,
      0.458408695,
      0.106725597,
      -0.155461604,
      -0.108221714,
      -0.13184879,
      -0.093687661,
      0.05434932,
      -0.014877425,
      -0.241995941,
      -0.171621401,
      -0.131180652,
      -0.043138133,
      -0.035727918,
      -0.113290006,
      -0.372365474,
      -0.528323675,
      -0.200158602,
      -0.009667978,
      0.006493522,
      0.057351057,
      0.072905087,
      0.083012975,
      0.051644985,
      0.334821689,
      0.791821407,
      0.638584651,
      0.251152464,
      0.063754298,
      0.086752063,
      0.34290399,
      0.459423845,
      0.500662084,
      0.768232401,
      0.595020674,
      0.200222219,
      -0.014556378,
      0.231217012,
      0.313133331,
      0.388200202,
      0.23521876,
      0.014576887,
      -0.035916644,
      0.040700843,
      0.119462885,
      0.223467752,
      0.272448297,
      -0.086767799,
      -0.221116265,
      -0.196942645,
      -0.142132698,
      -0.239911024,
      -0.324983596,
      0.022014097,
      0.14693044
     ],
     [
      0.052729594,
      0.116991148,
      0.116446231,
      0.358639694,
      0.16973682,
      -0.081326673,
      -0.140759207,
      -0.174105339,
      0.104750529,
      0.159007753,
      0.090575806,
      0.015300017,
      0.102470166,
      -0.046809566,
      -0.247897893,
      -0.087730422,
      -0.022193898,
      0.186143825,
      0.360362551,
      -0.069470791,
      0.11271827,
      -0.120432898,
      -0.205232599,
      -0.071306106,
      0.014016029,
      0.202490152,
      0.201605792,
      -0.265270113,
      0.227098191,
      0.44835716,
      0.08517544,
      -0.133434303,
      0.11935544,
      0.443531802,
      0.005397364,
      -0.063155878,
      0.278892222,
      0.355019261,
      0.331289807,
      0.034226649,
      0.064654856,
      0.633166122,
      0.655269835,
      0.604207824,
      0.335199087,
      0.088214551,
      -0.019622121,
      -0.027229127,
      0.036411318,
      0.064034772,
      0.231207824,
      0.244999859,
      -0.253564974,
      -0.297039813,
      -0.15173146,
      -0.144804694,
      0.017930116,
      0.016535984,
      0.294023058,
      0.188665752,
      0.152787641,
      0.044546638,
      0.007815328,
      0.011891882,
      0.058865817,
      -0.026427989,
      0.028364152,
      0.109644047,
      -0.015748224,
      -0.005866998,
      -0.074139088,
      -0.027518305,
      -0.016014592,
      0.084044895,
      0.049952422,
      -0.23494927,
      -0.133477121,
      -0.016686258,
      -0.109039772,
      -0.07570779,
      -0.010255564,
      0.123356528,
      0.101292524,
      0.105241449,
      0.032036526,
      -0.033791776,
      -0.075480877,
      -0.068893154,
      0.014928716,
      0.172397059,
      0.201573771,
      -0.124506422,
      -0.207400589,
      0.193334486,
      0.164020171,
      -0.05517066,
      0.026301593,
      0.244341309,
      0.112624557,
      -0.116370071,
      0.073594262,
      0.547156642,
      0.172257478,
      1.8367e-05,
      0.024060915,
      0.186692714,
      0.302271627,
      0.267703151,
      0.147347379,
      0.138796647,
      0.146525035,
      0.023518272,
      0.041550084,
      0.110456091,
      0.195312924,
      0.065834564,
      -0.205307919,
      0.08056954,
      0.151742428,
      -0.031452084,
      -0.013347546,
      0.026271351,
      0.024773391,
      -0.170436075,
      -0.040837361,
      0.132277958,
      0.079548031,
      -0.006756571,
      0.288437925,
      0.508412191,
      0.452068888,
      0.275908707,
      -0.12207729,
      -0.292426044,
      -0.210372337,
      -0.081661929,
      0.733477982,
      0.736594742,
      -0.140374496,
      0.311686354,
      0.528002719,
      -0.080230263,
      -0.02105058,
      -0.216937462,
      0.241615793,
      -0.707225441,
      -1.142796913,
      0.709642063,
      1.214234426,
      0.192241019,
      -0.044170368,
      -0.157763156,
      -0.293866227,
      -0.811056695,
      0.369064251,
      1.011406969,
      0.375387465,
      -0.152205698,
      -0.202120717,
      -0.144462789,
      0.093985847,
      -0.795748076,
      -0.50443005,
      0.052960999,
      0.176240075,
      0.208647782,
      0.18545468,
      -0.120614411,
      0.780354407,
      -0.313247066,
      -1.168222886,
      -0.642326231,
      0.517965405,
      0.527012029,
      0.402436276,
      -0.005860718,
      0.84211273,
      0.385151707,
      -0.01164304,
      -0.006827834,
      0.345308708,
      -0.075478393,
      -0.031004312,
      -0.073627177,
      0.375233956,
      0.287675435,
      0.341794792,
      0.321580321,
      0.166110243,
      0.168147841,
      -0.05543552,
      -0.105921381,
      0.046256754,
      0.085985918,
      -0.003307092,
      -0.065769524,
      -0.015057901,
      -0.012778552,
      -0.039863345,
      -0.134677874,
      0.158460248,
      0.278812714,
      -0.043201378,
      -0.263818936,
      0.186275278,
      0.189779968,
      0.218742753,
      -0.156372849,
      0.178462339,
      0.083399227,
      -0.682383497,
      -1.011954121,
      0.271220435,
      0.529147564,
      0.10917672,
      -0.104664174,
      0.038426251,
      -0.142745483,
      -0.703843676,
      -0.332164188,
      0.505028439,
      -0.023057965,
      -0.253530514,
      -0.177943035,
      0.167935532,
      0.057408205,
      -0.348318741,
      0.168693039,
      0.179451129,
      0.073585011,
      0.133339261,
      0.017233821,
      0.28950656,
      0.220121476,
      -0.323353767,
      -0.29349372,
      -0.326130545,
      0.311282027,
      0.499311579,
      0.10969321,
      0.218958757,
      0.158986367,
      -0.187458749,
      -0.306888847,
      -0.170601014,
      0.177003685,
      0.13122347,
      -0.030685605,
      0.11191109,
      0.091195423,
      -0.137343922,
      -0.105995606,
      -0.012846503,
      0.019555765,
      -0.114642224,
      -0.120414004,
      0.154304723,
      0.043919908,
      -0.009563919,
      -0.02212213,
      -0.201388101,
      -0.118197583,
      -0.069557188,
      0.031438172,
      0.38308647,
      0.543763159,
      0.229458116,
      -0.034142965,
      -0.051638603,
      -0.214632544,
      -0.096144227,
      -0.024778701,
      0.184035748,
      -0.054659087,
      -0.319478083,
      0.541656544,
      0.769820743,
      0.338816851,
      0.136142761,
      -0.002064841,
      -0.12475258,
      -0.009046541,
      0.764728728,
      1.002375119,
      -0.016534768,
      -0.144112009,
      0.166333464,
      0.026908786,
      0.005809276,
      -0.03415778,
      0.190506901,
      -0.225027763,
      -0.148177633,
      0.023912634,
      0.100024832,
      0.007665443,
      0.219066288,
      -0.338710763,
      -0.645015065,
      -0.335440825,
      0.20859957,
      0.244723908,
      0.173195418,
      -0.037001617,
      0.358274792,
      0.10951395,
      -0.045282327,
      0.087993565,
      0.443130615,
      0.000465915,
      0.09880702,
      -0.009802275,
      0.122268162,
      0.201130554,
      0.229697557,
      0.230484715,
      0.136787837,
      0.196605606,
      0.190304973,
      -0.015007089
     ],
     [
      0.019416375,
      0.071815336,
      0.150586358,
      0.151314711,
      -0.0731694,
      -0.208770247,
      0.160562031,
      0.18744769,
      -0.043930264,
      0.05072413,
      0.161361079,
      0.088893956,
      -0.394477934,
      -0.518887493,
      -0.170755223,
      -0.048277533,
      -0.023325314,
      -0.001176861,
      0.178956806,
      0.263255228,
      -0.402991269,
      -0.192503517,
      -0.155316649,
      -0.299129497,
      -0.043535591,
      0.004420841,
      0.082265319,
      0.684252562,
      -0.019468821,
      0.346652085,
      0.371438044,
      0.067013909,
      -0.089072038,
      -0.489018672,
      -0.372422856,
      0.219623774,
      -0.329733336,
      0.028408193,
      0.120541379,
      -0.124207114,
      0.010129829,
      -0.405574843,
      -0.430791528,
      -0.784771788,
      -0.68879015,
      -0.107335008,
      0.012995851,
      -0.073653745,
      -0.016390726,
      0.190995678,
      0.084552969,
      -0.1573447,
      0.108568955,
      0.28491358,
      0.238852844,
      -0.005082388,
      0.023067177,
      0.044760288,
      0.051154987,
      0.173153153,
      0.139521618,
      -0.147738361,
      0.036382629,
      0.053651051,
      -0.031415255,
      -0.031103267,
      0.028293773,
      0.069591171,
      0.015522333,
      0.118479487,
      0.224923529,
      0.107284713,
      -0.009690559,
      -0.026196191,
      0.318461468,
      0.437842079,
      0.239499568,
      0.358461225,
      0.226720002,
      0.024330049,
      0.02149313,
      -0.005172584,
      0.253168707,
      0.220598097,
      0.074629512,
      -0.123082737,
      -0.152314537,
      -0.024005037,
      0.032442861,
      -0.185013143,
      -0.096931375,
      0.025521498,
      -0.15368058,
      -0.358993959,
      -0.103537876,
      -0.042398092,
      -0.036600919,
      -0.302489887,
      -0.263293117,
      0.076732524,
      -0.538117687,
      -0.273701941,
      0.014069974,
      0.005539376,
      -0.012254059,
      -0.094729172,
      0.089308929,
      0.005054188,
      -0.101856556,
      0.055940102,
      0.179375557,
      0.089413652,
      -0.00912965,
      0.056125678,
      0.104429545,
      -0.046207345,
      0.099211497,
      -0.089803616,
      -0.151876365,
      -0.084756734,
      0.044372255,
      -0.016951767,
      -0.006987266,
      0.081033905,
      0.13222296,
      0.032437059,
      0.029049295,
      0.026215213,
      0.035045097,
      -0.137091313,
      -0.326130436,
      -0.254641598,
      -0.214616436,
      0.326695638,
      0.606857663,
      0.224453193,
      0.010037647,
      -0.26240504,
      0.098412224,
      -0.636495686,
      -0.783391928,
      0.710922504,
      0.263812371,
      -0.06754153,
      -0.113696196,
      0.244825054,
      1.030116372,
      -1.042323808,
      -0.377529546,
      0.257665308,
      -0.685700254,
      -0.439931484,
      0.559850456,
      1.499981669,
      1.251255346,
      -0.405970288,
      0.603520372,
      1.101487563,
      0.040019138,
      -0.408617088,
      0.53553022,
      1.131319521,
      0.726437224,
      0.769061916,
      1.326716876,
      0.847286002,
      0.224957003,
      -0.297197876,
      -0.42473197,
      -0.856293329,
      -0.89993592,
      0.388277421,
      0.264361713,
      -0.308059252,
      -0.161165649,
      -0.214204068,
      -0.505338021,
      -1.092840088,
      -0.702571244,
      -0.315728946,
      -0.174055088,
      0.034230962,
      -0.130940563,
      -0.19439951,
      -0.08641842,
      -0.248911625,
      -0.076747009,
      -0.437142851,
      -0.663572131,
      -0.16362344,
      0.090044253,
      0.029109336,
      -0.000297812,
      -0.033319541,
      -0.090076723,
      0.07575522,
      0.148471109,
      0.057862349,
      0.156835872,
      0.161399097,
      -0.013002624,
      0.0879629,
      0.174751985,
      0.768856934,
      0.173536689,
      0.387081493,
      0.379808894,
      0.1865833,
      -0.086440406,
      -0.049593825,
      0.363564419,
      0.677043831,
      -0.42273598,
      0.494129508,
      -0.055350348,
      -0.158174018,
      -0.016395323,
      0.063613051,
      0.591791792,
      0.506189646,
      -0.641279629,
      0.870125217,
      0.17689663,
      -0.297580652,
      -0.092624688,
      0.172608462,
      0.362112086,
      0.088041165,
      0.10577625,
      0.917133199,
      0.34422644,
      -0.136571152,
      -0.108468542,
      -0.037992251,
      -0.407098259,
      -0.285734472,
      0.399709413,
      0.254863425,
      -0.184741599,
      -0.21711823,
      -0.043614244,
      -0.246541774,
      -0.448536771,
      -0.27467502,
      0.109472603,
      -0.014047854,
      -0.108512035,
      -0.181990535,
      -0.014794841,
      -0.076331369,
      -0.014341503,
      0.238928445,
      0.023231521,
      0.077094905,
      0.209844363,
      0.048967971,
      -0.068000154,
      -0.069801142,
      -0.142581924,
      0.008247434,
      0.003455125,
      0.042461243,
      0.106343234,
      0.062483299,
      0.028788179,
      -0.08502195,
      0.086838493,
      -0.014608196,
      0.028437153,
      0.712905274,
      0.455309457,
      0.063873149,
      -0.148031603,
      -0.222187085,
      0.390177911,
      -0.168800364,
      0.074849186,
      0.393429219,
      -0.050619122,
      -0.066197902,
      0.136667368,
      0.466684793,
      0.420914808,
      -0.493056553,
      0.427262715,
      0.267840756,
      0.090066787,
      -0.024926171,
      0.314342423,
      0.49194381,
      0.080462823,
      -0.009829134,
      0.372898187,
      -0.017561687,
      0.133733509,
      -0.125923138,
      -0.081613148,
      -0.377237371,
      -0.330018129,
      0.389157427,
      -0.023468582,
      -0.367798475,
      0.034601731,
      -0.064476917,
      -0.225999648,
      -0.44939367,
      -0.017596077,
      0.085172145,
      -0.285328076,
      -0.135561919,
      -0.142696373,
      -0.163498969,
      -0.077157197,
      0.027140264,
      0.279103347,
      -0.038940897,
      -0.054045135,
      -0.005542507,
      -0.002464117,
      -0.091315849
     ],
     [
      -0.082683867,
      -0.09774298,
      -0.036470648,
      0.065625791,
      0.10617094,
      0.3314531,
      0.266397669,
      0.024871095,
      -0.063048936,
      -0.084074848,
      0.042367527,
      0.18768236,
      0.127250689,
      0.278172811,
      0.505012753,
      0.563875121,
      -0.029024655,
      -0.218393931,
      -0.264665306,
      0.382306461,
      0.722202075,
      0.640651042,
      0.129184796,
      0.056241457,
      -0.073631287,
      -0.215767818,
      -0.069931638,
      0.466703884,
      0.534452478,
      0.632533374,
      0.14710367,
      -0.156131539,
      0.030630165,
      0.329572252,
      0.145017509,
      0.592925472,
      0.571838229,
      0.152557686,
      0.113253789,
      -0.009697433,
      0.058710743,
      0.870379085,
      0.921436779,
      0.642257326,
      0.006520347,
      -0.073997764,
      -0.049832287,
      0.059246622,
      0.046783426,
      0.222871779,
      0.133072685,
      0.271233691,
      0.030343814,
      -0.109623186,
      -0.082594914,
      -0.003265911,
      -0.057680486,
      -0.043709417,
      -0.117291262,
      -0.136568702,
      -0.166285677,
      -0.017929693,
      0.008771142,
      0.008023568,
      0.006943984,
      -0.026736753,
      0.034804674,
      0.028642119,
      -0.065738377,
      -0.077907922,
      0.053169263,
      0.068719675,
      -0.05048587,
      -0.01033449,
      -0.102505572,
      -0.035118947,
      -0.157000314,
      -0.106401015,
      0.040364459,
      0.210142917,
      -0.050273536,
      -0.064653674,
      -0.110406596,
      0.173078964,
      0.160687059,
      0.013924809,
      0.176836489,
      0.30135887,
      0.003148599,
      -0.121306969,
      -0.147250741,
      0.063521365,
      0.276085777,
      0.236962163,
      -0.061768432,
      0.074059977,
      0.012278932,
      0.271968938,
      0.0782634,
      0.297888011,
      0.430135851,
      0.235166771,
      -0.06787836,
      -0.09097218,
      0.015456814,
      0.305425867,
      0.452254837,
      0.375558918,
      0.287069678,
      0.198483394,
      -0.010215209,
      -0.096500709,
      -0.011106705,
      0.21040332,
      0.345323174,
      0.117018354,
      0.004903232,
      -0.058431273,
      -0.045917914,
      -0.048102064,
      0.00528588,
      -0.002548553,
      0.072980285,
      -0.127890821,
      -0.031585011,
      0.063656324,
      0.083823034,
      0.039319058,
      -0.291037397,
      -0.12883606,
      0.100854405,
      0.032434252,
      0.147756778,
      0.288133546,
      -0.316177651,
      -0.100847859,
      -0.462978533,
      -0.003825964,
      -0.007978344,
      -0.498611441,
      -0.184639377,
      0.627369778,
      0.652016321,
      1.071362744,
      -0.124963148,
      0.195278034,
      0.671949753,
      0.35148115,
      -0.673887225,
      -0.558150878,
      -0.128793695,
      0.953874708,
      -0.181336589,
      0.173897212,
      1.493697099,
      0.762802149,
      -1.033103027,
      -0.896096701,
      -0.691139947,
      -0.080542992,
      0.093090894,
      -0.462329999,
      -0.283188734,
      -0.623624239,
      -0.725193873,
      -0.565837727,
      -0.355830841,
      -0.307462181,
      0.430675438,
      0.151116475,
      -0.441223997,
      -0.367474042,
      -0.164179593,
      -0.177255651,
      0.308795135,
      -0.042621993,
      -0.135594961,
      0.05193089,
      0.352610799,
      0.538630166,
      0.292564716,
      0.154765553,
      0.437395954,
      -0.042221026,
      -0.250577471,
      -0.328876872,
      0.151316171,
      0.517549375,
      0.293679394,
      0.129339616,
      0.018515366,
      -0.128863094,
      -0.090681208,
      -0.066381031,
      -0.040393365,
      0.017215278,
      -0.112122574,
      -0.051691275,
      -0.115386427,
      -0.035443471,
      -0.179750958,
      -0.110425611,
      0.223247732,
      -0.08187884,
      -0.618612757,
      -0.306749546,
      -0.159263401,
      0.288069714,
      -0.169406518,
      -0.003954663,
      0.10457732,
      0.335544684,
      -0.251861241,
      -0.60595555,
      -0.618929866,
      0.173157916,
      -0.058818266,
      0.135251408,
      0.244321245,
      0.710726149,
      -0.180544477,
      -0.353073262,
      -0.432026016,
      -0.281549892,
      -0.069607137,
      0.099335248,
      -0.071658874,
      0.040964521,
      -0.390633896,
      0.037602324,
      -0.009456849,
      -0.208892484,
      -0.088703667,
      0.168335832,
      -0.342511779,
      -0.277780548,
      -0.165011704,
      0.09471122,
      0.223244175,
      0.109688367,
      -0.109817328,
      -0.031163781,
      -0.060109755,
      0.156410884,
      0.191376612,
      0.109681738,
      0.21089878,
      0.216898037,
      -0.080887586,
      -0.338695591,
      -0.266191494,
      0.028261171,
      0.037568517,
      0.052971848,
      0.114104566,
      0.030547173,
      -0.129067511,
      -0.249795467,
      -0.171440316,
      -0.094778227,
      -0.083184419,
      -0.069464868,
      -0.139087929,
      -0.06305155,
      -0.275177868,
      -0.046648482,
      -0.023505673,
      -0.141599313,
      0.023196932,
      0.33436754,
      0.22384069,
      0.369607746,
      -0.13639179,
      0.035530077,
      -0.014011348,
      -0.216457072,
      -0.499701126,
      -0.399868077,
      -0.087688368,
      0.576942211,
      -0.061622576,
      0.030971469,
      0.32661863,
      -0.045180646,
      -0.729810808,
      -0.741832365,
      -0.587804661,
      -0.026643692,
      -0.13098812,
      -0.289657992,
      -0.293014036,
      -0.378641746,
      -0.209908836,
      -0.164467873,
      -0.324382699,
      -0.214631202,
      0.23075278,
      -0.270729062,
      -0.530444029,
      -0.091389328,
      -0.007463735,
      -0.140583045,
      -0.044794726,
      -0.150819908,
      0.01736265,
      0.293579278,
      0.356855793,
      0.091717836,
      0.173300919,
      0.112666415,
      0.185733181,
      -0.10311496,
      -0.139443023,
      -0.128849259,
      0.181706973,
      0.379058688,
      0.26806666,
      0.06739348,
      -0.02312292,
      -0.102692884
     ],
     [
      -0.013410767,
      -0.008574735,
      -0.122593276,
      -0.388801199,
      -0.513079346,
      -0.16995201,
      0.148850062,
      0.160527375,
      -0.056236588,
      -0.121472469,
      -0.238615252,
      -0.465656962,
      -0.754423657,
      -0.671519956,
      -0.462989272,
      -0.116510812,
      -0.009069471,
      0.04031781,
      0.171652195,
      -0.06548539,
      0.211869128,
      0.416500392,
      0.285632577,
      0.303804015,
      0.045424316,
      -0.098354237,
      -0.163835699,
      -0.048941798,
      0.546537781,
      0.483100503,
      0.3154768,
      0.405614967,
      -0.091523081,
      -0.172495489,
      -0.252946553,
      0.179484355,
      0.082354498,
      -0.121879199,
      -0.190653075,
      0.045468714,
      -0.013783553,
      -0.323796306,
      -0.14804258,
      0.789637895,
      0.765130318,
      0.292025506,
      0.042839977,
      -0.001417948,
      0.015771398,
      0.076014767,
      -0.350342487,
      -0.35112994,
      -0.40617093,
      -0.208084896,
      0.046967161,
      0.021764509,
      0.045266261,
      0.065169378,
      0.247174364,
      0.203205346,
      0.021952038,
      -0.07584889,
      -0.072767048,
      0.040418964,
      0.027855558,
      0.004820611,
      -0.061027531,
      -0.030831635,
      0.131515932,
      0.007427356,
      -0.056818631,
      0.014285294,
      -0.017888493,
      -0.027927609,
      -0.127213428,
      0.016646314,
      0.079404359,
      0.034910299,
      0.156644909,
      0.001646397,
      0.000207869,
      -0.025831252,
      -0.085095005,
      0.100743585,
      0.293649429,
      0.339329175,
      0.159452092,
      -0.039775994,
      0.075249603,
      -0.054937712,
      -0.190592802,
      -0.202417303,
      0.248986162,
      0.057236199,
      -0.104234738,
      -0.060226052,
      0.046512365,
      -0.114797567,
      -0.383065165,
      -0.130221326,
      0.156134836,
      0.006142065,
      0.082543491,
      0.063457735,
      0.05953739,
      -0.126244285,
      -0.486490137,
      -0.398141831,
      -0.450284694,
      -0.416373505,
      0.009460012,
      0.071362272,
      0.00735484,
      0.056699123,
      -0.078732656,
      0.047747369,
      -0.096342806,
      0.300607819,
      0.309932947,
      0.081386031,
      -0.022153249,
      -0.009676834,
      0.051753248,
      0.001480975,
      0.090931388,
      0.128293213,
      0.000733887,
      -0.036355685,
      -0.089694199,
      0.252534672,
      0.403538505,
      0.095473185,
      0.807238752,
      0.944097883,
      0.563372755,
      0.165147049,
      -0.408528889,
      -0.408872468,
      -0.783396769,
      -0.729023668,
      -1.276435605,
      -0.936824294,
      -0.302836643,
      -0.142200783,
      -0.233437283,
      0.021699526,
      0.247888443,
      -0.864450469,
      -1.258563696,
      -1.279279337,
      -0.075667531,
      -0.135245868,
      0.009690364,
      0.569724455,
      0.414332951,
      0.015650029,
      -0.266784913,
      -0.755865958,
      0.581982546,
      0.338365983,
      -0.294354812,
      0.663247393,
      1.021146358,
      0.381285253,
      -0.570108899,
      -0.055958632,
      0.456595808,
      0.223250512,
      -0.722970246,
      0.436802428,
      2.179973936,
      1.536438368,
      1.330626418,
      0.898344136,
      0.280088971,
      -0.013621266,
      -0.507355085,
      -0.49478642,
      0.938948331,
      1.421518558,
      0.751229276,
      0.164995887,
      0.087092388,
      -0.132968842,
      -0.229070255,
      -0.453714214,
      -0.431030825,
      -0.076053997,
      0.088098231,
      -0.199684414,
      -0.352171144,
      -0.206042836,
      -0.076883488,
      0.003752177,
      0.392101337,
      0.392463935,
      0.337237241,
      0.621511589,
      0.438234954,
      0.098765148,
      -0.055528049,
      0.022911499,
      0.07353809,
      -0.24603336,
      -0.286267601,
      -0.466818604,
      -0.271368926,
      -0.124059471,
      -0.08986156,
      0.09749247,
      -0.035707338,
      0.037385009,
      -0.30373211,
      -0.938236581,
      -0.640166846,
      -0.121996811,
      -0.045959931,
      0.241171816,
      0.343027385,
      0.311225895,
      0.064873171,
      -0.907247475,
      -0.031870862,
      0.539999026,
      -0.106767946,
      0.062035795,
      0.527899412,
      0.383897478,
      -0.063871758,
      -0.566659908,
      0.305846003,
      0.546324655,
      -0.14493103,
      -0.196431336,
      0.357021423,
      0.554367887,
      0.033735242,
      0.116544281,
      0.089698419,
      0.079003035,
      -0.077271222,
      -0.219190637,
      0.212942597,
      0.787659658,
      0.466773875,
      0.229592622,
      0.127977182,
      -0.083832963,
      0.00020989,
      -0.178115864,
      -0.191213919,
      -0.126129436,
      -0.042714065,
      -0.139315653,
      -0.334782114,
      -0.210375164,
      0.058515532,
      0.217365814,
      0.471959349,
      0.440211756,
      0.942034968,
      0.866075974,
      0.235289887,
      0.076702026,
      -0.104136367,
      -0.157072086,
      -0.335174731,
      -0.085277047,
      0.189057452,
      0.282675733,
      0.111019126,
      0.052541158,
      -0.080108659,
      -0.060750799,
      -0.009019367,
      0.122536326,
      0.08278062,
      -0.146317333,
      -0.034183463,
      -0.04116665,
      0.075662451,
      0.161382425,
      0.211395188,
      0.182038386,
      0.362419706,
      -0.029477905,
      0.106315331,
      0.031725702,
      -0.083957349,
      0.087045141,
      0.069842669,
      0.540680997,
      0.22476176,
      0.006802592,
      0.193260143,
      0.026429941,
      -0.208091245,
      0.079634371,
      0.38320983,
      0.043642838,
      0.442084224,
      0.599771942,
      0.310367066,
      0.067813803,
      -0.210067882,
      -0.095549671,
      0.483456014,
      0.667575823,
      0.40325757,
      0.26447442,
      0.267892253,
      0.067547293,
      0.012890497,
      -0.29195383,
      -0.625699613,
      -0.571085948,
      -0.200276296,
      0.01670376,
      -0.043839604,
      -0.065075581
     ],
     [
      -0.096084326,
      -0.061763652,
      0.059685927,
      -0.040457882,
      -0.225362431,
      -0.313925887,
      -0.332357595,
      -0.21376939,
      0.038865099,
      0.161769688,
      0.597169822,
      0.809841368,
      0.538076921,
      0.41445463,
      0.166166308,
      -0.110002093,
      -0.01099187,
      -0.116304384,
      -0.282726077,
      -0.446401862,
      -0.581571656,
      -0.159476873,
      -0.158731389,
      -0.13639461,
      -0.046060064,
      -0.117939187,
      -0.268596699,
      -0.960291405,
      -1.294549398,
      -0.247238712,
      0.118487046,
      -0.076698173,
      -0.104269512,
      -0.07545887,
      0.122120056,
      0.106901603,
      -0.519504592,
      0.011572738,
      0.104594182,
      -0.153013738,
      -0.098202398,
      -0.023557548,
      -0.257376279,
      -0.615982985,
      -0.58900283,
      -0.405291949,
      -0.375584709,
      -0.254571792,
      -0.057978234,
      0.106319758,
      -0.125949051,
      -0.500130091,
      -0.009200644,
      0.090984893,
      -0.210812993,
      -0.177862268,
      -0.100559216,
      -0.144855153,
      -0.145502572,
      -0.038621419,
      0.24518217,
      0.189501045,
      -0.080435394,
      -0.045438976,
      0.024057467,
      0.021751412,
      0.020418622,
      -0.108215032,
      -0.199929127,
      -0.183850717,
      -0.089137503,
      -0.032429588,
      -0.012342626,
      0.036368252,
      0.078012243,
      0.145548504,
      0.030819152,
      0.029747766,
      -0.008845854,
      -0.067353459,
      0.002185933,
      0.058146535,
      -0.157369572,
      -0.307697029,
      -0.316808713,
      -0.13948313,
      -0.148722673,
      -0.082586219,
      -0.00445649,
      -0.023494062,
      0.028567339,
      0.390006693,
      0.068329068,
      -0.002339482,
      0.042368794,
      -0.021570589,
      -0.026642462,
      0.070356164,
      0.321515815,
      0.443389051,
      -0.097007568,
      -0.280327656,
      -0.083338704,
      -0.056879153,
      0.008519581,
      0.049463473,
      0.262382673,
      0.046571816,
      -0.192960056,
      0.108879841,
      0.03395704,
      -0.033449675,
      -0.039285952,
      0.000392575,
      -0.064391263,
      -0.095658982,
      0.144042834,
      0.001714708,
      -0.152756781,
      -0.099653473,
      -0.081252675,
      -0.054836042,
      -0.145599632,
      -0.143589624,
      -0.202930922,
      -0.234360358,
      -0.116990312,
      -0.01580303,
      -0.057297492,
      -0.111183823,
      -0.361209746,
      -0.853508475,
      -0.965988144,
      -0.65773944,
      -0.303492497,
      -0.087600309,
      0.307804674,
      0.555012945,
      0.492264473,
      0.302593432,
      0.465692293,
      0.267020229,
      -0.103323331,
      -0.191778719,
      0.265694769,
      0.467125196,
      0.009815875,
      0.248274565,
      1.189079423,
      0.754548011,
      -0.108151962,
      -0.201798998,
      0.139906206,
      -0.004093884,
      -1.408899492,
      -1.553753557,
      0.974968552,
      1.049654697,
      0.141233091,
      -0.061183956,
      -0.129720761,
      -0.259023732,
      -1.139813375,
      -0.835903172,
      0.256506534,
      0.355607691,
      0.108300761,
      -0.13500187,
      -0.419990927,
      -0.885267024,
      -0.643439433,
      -0.087631059,
      -0.680627209,
      -0.640927361,
      -0.531944807,
      -0.261436626,
      -0.069644068,
      -0.151061921,
      -0.634424385,
      -0.355737596,
      -0.508896523,
      -0.781109479,
      -0.828067536,
      -0.2601234,
      0.207620667,
      0.783267879,
      0.457739697,
      0.408780204,
      0.479212863,
      -0.314270568,
      -0.417453835,
      -0.140219373,
      0.042395422,
      -0.006464362,
      0.001219094,
      -0.042617653,
      -0.290352915,
      -0.348617667,
      -0.206138645,
      -0.091729526,
      0.018166177,
      -0.099490332,
      -0.063589269,
      -0.186659128,
      -0.170269886,
      0.074174068,
      0.002163136,
      -0.05440679,
      0.069834676,
      -0.239858129,
      -0.026840625,
      0.118522159,
      0.179834128,
      0.685941604,
      0.334343655,
      -0.065680957,
      0.120661914,
      -0.029234234,
      -0.232710902,
      -0.544576577,
      -0.381584694,
      0.594411226,
      0.238007031,
      -0.110593922,
      0.008197113,
      0.097860689,
      0.060431808,
      -0.631586169,
      -0.575101729,
      0.028650248,
      0.152519977,
      -0.163865371,
      0.010518236,
      -0.092390856,
      -0.006816554,
      -0.167601822,
      0.062211367,
      -0.178845024,
      -0.14830733,
      -0.262030489,
      -0.021112781,
      0.05641939,
      -0.20231942,
      -0.305020353,
      -0.004747631,
      -0.384724475,
      -0.55224961,
      -0.330344671,
      0.062167039,
      0.220248065,
      0.179798973,
      0.127110176,
      0.301100268,
      0.022935055,
      -0.271564623,
      -0.141429843,
      -0.011914686,
      -0.131197792,
      -0.151571979,
      -0.248381562,
      -0.277076309,
      -0.222417124,
      -0.190998996,
      -0.08329751,
      -0.058202018,
      -0.070083491,
      -0.275128135,
      -0.565339133,
      -0.336727872,
      -0.112498468,
      -0.011594327,
      -0.096477562,
      0.110702351,
      0.110999912,
      -0.152343476,
      -0.041367848,
      0.086178504,
      -0.248691887,
      -0.17755801,
      -0.153535892,
      -0.001945224,
      -0.11384173,
      -0.457068276,
      -0.635017711,
      0.256834683,
      0.119669559,
      -0.006262994,
      -0.015596962,
      -0.054260581,
      0.073518506,
      -0.356438793,
      -0.327268472,
      0.308320483,
      0.213336148,
      0.156624425,
      -0.018342161,
      -0.199862202,
      -0.225911933,
      -0.023282927,
      0.202524433,
      -0.416236086,
      -0.174697997,
      -0.124782605,
      -0.108366395,
      -0.179297432,
      -0.133143164,
      -0.087889079,
      -0.144563778,
      -0.409126413,
      -0.226596961,
      -0.405867283,
      -0.190393507,
      0.041901104,
      0.419420311,
      0.126780639,
      -0.075323981,
      -0.008801807,
      -0.294503433,
      -0.236182724,
      -0.119883956
     ],
     [
      0.105611217,
      0.011842531,
      -0.065260796,
      0.158136467,
      0.51817958,
      0.377356388,
      0.075107552,
      0.00361178,
      0.07239197,
      -0.00092501,
      -0.067260973,
      -0.128690838,
      -0.030329032,
      0.19829762,
      0.173795671,
      0.169050835,
      0.053914597,
      0.079584439,
      0.379070011,
      0.688677702,
      0.474306995,
      0.008253934,
      0.126935251,
      0.224870391,
      -0.005074062,
      -0.086469282,
      0.086248174,
      0.173057253,
      0.507314157,
      -0.045534634,
      -0.266501083,
      -0.007070504,
      0.06902174,
      0.274700575,
      -0.057821127,
      -0.623901951,
      0.225417633,
      0.549789268,
      0.012778674,
      -0.012529872,
      0.043384145,
      -0.249557469,
      -0.44413789,
      -0.363402984,
      0.291854845,
      0.407074347,
      0.031318569,
      -0.020996401,
      0.044237775,
      -0.272122854,
      0.320019834,
      0.685484984,
      0.43754018,
      0.07230478,
      -0.025300191,
      0.01189209,
      0.060292141,
      0.016200473,
      -0.15092244,
      -0.329782099,
      -0.0308082,
      0.129223444,
      0.097989503,
      0.054867585,
      -0.017027289,
      0.071143388,
      -0.017255862,
      0.041341835,
      0.022372089,
      0.057444716,
      0.059032303,
      -0.014122445,
      0.047407778,
      -0.024418295,
      0.072521701,
      0.084047333,
      -0.107475995,
      0.004066939,
      0.065949896,
      0.014274824,
      -0.008363275,
      -0.02008542,
      -0.210055773,
      -0.168967873,
      -0.292725749,
      0.066421624,
      -0.007775907,
      0.033745877,
      0.027752778,
      0.045528283,
      -0.127897196,
      -0.097360041,
      -0.446358643,
      -0.215493955,
      0.110983608,
      0.126370635,
      0.002634758,
      0.14445867,
      -0.081852675,
      -0.311567949,
      -0.297643082,
      0.295218033,
      0.186699251,
      0.012453816,
      0.007076773,
      -0.008697422,
      -0.209661706,
      -0.216165748,
      0.258655792,
      0.348755967,
      -0.064874807,
      -0.08240766,
      0.050502379,
      -0.11997102,
      -0.195006029,
      -0.139403662,
      0.046816138,
      0.006919219,
      -0.082396106,
      -0.004208704,
      0.031172947,
      0.029425824,
      0.038796644,
      0.175346736,
      0.079743004,
      0.093769073,
      -0.003163692,
      -0.016603593,
      0.005984487,
      -0.210015493,
      -0.11798558,
      0.442631218,
      0.686044242,
      -0.12156621,
      -0.193366234,
      0.062343085,
      -0.025288198,
      0.217327019,
      0.234723299,
      0.003729415,
      0.071414344,
      -0.096247011,
      -0.014614338,
      0.369599278,
      0.233594009,
      0.901144712,
      0.446533291,
      0.268946134,
      -0.053067666,
      0.537204086,
      0.590048355,
      0.541808082,
      -0.134696166,
      -0.026642813,
      0.104941276,
      1.080234653,
      0.92881311,
      -0.025798426,
      0.155413434,
      0.390867545,
      -0.384453918,
      -0.122201682,
      0.546550024,
      0.896615247,
      0.396234876,
      -0.337474397,
      -0.176412087,
      -0.060020152,
      -0.05449929,
      0.436770413,
      0.211671103,
      -0.883465206,
      -0.798081284,
      -0.45355036,
      -0.230444852,
      -0.166950524,
      -0.158774648,
      0.09963939,
      0.190323942,
      0.613507603,
      0.138610179,
      0.012700903,
      0.01545463,
      0.018475538,
      -0.211030949,
      -0.343283447,
      -0.146567301,
      0.53727992,
      0.622896949,
      0.293390953,
      0.148838249,
      0.106468365,
      0.062029044,
      -0.007438151,
      -0.11603665,
      -0.096430282,
      0.08226832,
      0.190185159,
      -0.067677662,
      -0.057545602,
      0.040132247,
      0.009249741,
      0.002895601,
      0.099697761,
      0.170475337,
      0.082610163,
      -0.218589976,
      0.115548466,
      0.069616487,
      0.217597324,
      0.390874801,
      0.369784595,
      -0.194456439,
      -0.168603929,
      0.082337083,
      0.359615655,
      0.05011898,
      0.146349194,
      -0.162966228,
      0.427854902,
      0.52843605,
      -0.175868348,
      -0.190576127,
      0.175813264,
      0.033464317,
      -0.029069472,
      -0.638509169,
      0.202190607,
      0.921401023,
      -0.105705812,
      -0.277198551,
      -0.121628561,
      0.027205907,
      0.115479272,
      0.148036111,
      0.379439727,
      -0.017109607,
      0.051669655,
      -0.069446813,
      -0.102441716,
      -0.049531039,
      0.045807705,
      0.097719584,
      -0.000935709,
      -0.092628759,
      0.088479484,
      0.242519531,
      0.066197041,
      0.005519106,
      -0.05082358,
      -0.14660104,
      0.144056466,
      0.339428885,
      0.121587173,
      0.092778956,
      0.010434214,
      0.13245497,
      0.014820282,
      -0.092584897,
      0.015504751,
      0.08816581,
      -0.155925579,
      -0.036722205,
      0.051090071,
      0.081518264,
      0.131660548,
      0.286243712,
      0.41206193,
      0.176154218,
      -0.231958226,
      -0.044397976,
      0.106376406,
      0.150192196,
      0.377199915,
      -0.056503347,
      -0.153727584,
      0.01430758,
      0.481399074,
      0.563159052,
      0.337576365,
      0.145642858,
      0.014324514,
      -0.446248527,
      -0.090471728,
      0.433008068,
      0.522633122,
      0.540803823,
      0.319662461,
      -0.116832746,
      -0.137670567,
      0.338162759,
      0.336583519,
      -0.139967741,
      -0.046617639,
      0.055863698,
      0.105446492,
      0.051935824,
      0.617673899,
      0.919551166,
      -0.323334769,
      -0.309622148,
      -0.157562424,
      -0.135570954,
      -0.096116755,
      0.061064267,
      -0.079783001,
      -0.283988123,
      0.112807143,
      0.073763138,
      0.021110755,
      -0.051668976,
      -0.002508934,
      -0.091663129,
      -0.135587606,
      0.152989211,
      0.502887385,
      0.249483138,
      0.275486459,
      0.215182943,
      0.095284707
     ],
     [
      0.020964731,
      -0.067407325,
      -0.083631208,
      -0.001709337,
      -0.016885106,
      0.02788633,
      -0.063849294,
      -0.163466208,
      -0.032400896,
      -0.150716088,
      -0.303677142,
      0.125231373,
      0.73650018,
      0.482858968,
      -0.059541423,
      -0.232369108,
      0.016415707,
      -0.204119458,
      -0.374166669,
      -0.361884333,
      -0.271671817,
      -0.022231203,
      0.243935856,
      -0.054809559,
      -0.125429631,
      -0.214163168,
      0.011034643,
      0.139597293,
      -0.343639448,
      -0.290596977,
      -0.078628558,
      -0.197573031,
      -0.102154969,
      -0.011670583,
      0.597725025,
      0.008497493,
      -1.023811379,
      -0.575173099,
      -0.361656872,
      -0.282236119,
      -0.011781823,
      0.017982948,
      -0.141206986,
      -0.263276281,
      -0.717059064,
      -0.362565653,
      -0.149071527,
      -0.059434181,
      0.008022693,
      0.186669307,
      0.28115402,
      -0.178990111,
      -0.15053885,
      -0.130388069,
      -0.008222367,
      0.116497227,
      0.060727238,
      -0.01771464,
      -0.107345305,
      -0.11497313,
      0.090639213,
      0.155483267,
      0.213166626,
      0.13393444,
      -0.061411434,
      -0.044710149,
      -0.026312588,
      -0.113855271,
      -0.044033437,
      -0.104742119,
      -0.078624973,
      -0.013355475,
      0.004530413,
      0.018207716,
      -0.09617123,
      0.001345815,
      0.012553263,
      -0.118625333,
      -0.143897053,
      0.006134682,
      -0.018468561,
      0.026113548,
      0.194184885,
      0.129623155,
      -0.091175444,
      0.54375891,
      0.098878023,
      -0.061787919,
      -0.044602077,
      -0.082378909,
      0.025493757,
      -0.0143995,
      -0.215467729,
      -0.130023104,
      -0.077689391,
      -0.088306144,
      -0.079738611,
      -0.049560452,
      0.190221206,
      0.16939119,
      -0.180998001,
      -0.240342812,
      -0.077430913,
      -0.058598531,
      0.008822231,
      -0.02084186,
      0.060818408,
      0.29037198,
      0.087995523,
      0.032471283,
      -0.082684452,
      -0.144361641,
      -0.030767242,
      -0.024896974,
      0.101771768,
      0.140161627,
      0.109370344,
      -0.021078576,
      -0.114495934,
      -0.081204872,
      -0.060712802,
      -0.025751324,
      -0.097597928,
      -0.245574766,
      -0.220678838,
      -0.183341375,
      -0.087398126,
      -0.021791347,
      0.031555919,
      -0.245756443,
      -0.439074356,
      -0.506073771,
      -0.356976411,
      -0.227092012,
      -0.238615404,
      -0.041320364,
      -0.273458721,
      -0.256877431,
      0.465935456,
      0.685417663,
      0.295496506,
      -0.312360812,
      -0.394907353,
      -0.399533075,
      0.339961151,
      0.566051222,
      0.129983943,
      -0.555605103,
      -0.002440725,
      0.646720472,
      0.295625654,
      -0.373679176,
      0.559761208,
      0.134031408,
      -0.488750792,
      -0.499349533,
      0.586587475,
      0.709726405,
      0.094627184,
      -0.215955045,
      0.137225761,
      -0.059507024,
      -0.282170232,
      -0.531688769,
      0.807823829,
      0.132417053,
      -0.130778127,
      -0.263498732,
      -0.225232519,
      -0.726610176,
      -1.03213811,
      -0.46476858,
      -0.278789013,
      -0.401367766,
      -0.299421464,
      -0.211382329,
      -0.100190604,
      -0.475692552,
      -0.792244431,
      -0.785559366,
      -0.980102862,
      -0.278071215,
      0.159382989,
      0.080995855,
      0.217903498,
      0.406860901,
      0.617678416,
      0.187041356,
      0.007608219,
      0.408607108,
      0.537177715,
      0.202790916,
      0.072600313,
      0.001281955,
      -0.040465593,
      -0.143680211,
      -0.361747932,
      -0.386610918,
      -0.149443044,
      0.003186658,
      0.089393928,
      -0.050424275,
      -0.16075934,
      0.061638534,
      0.030606037,
      -0.061041667,
      -0.061378358,
      -0.219583021,
      0.069362501,
      0.184671579,
      0.226987732,
      -0.054936935,
      -0.390165985,
      0.163889179,
      0.347789714,
      -0.171583554,
      0.136668874,
      0.323635397,
      0.265494544,
      -0.324622658,
      -0.517041032,
      0.58421045,
      0.489409272,
      -0.094949107,
      0.170754799,
      0.092664929,
      -0.039861847,
      -0.490338011,
      -0.002626272,
      0.857645257,
      0.234282233,
      -0.248798178,
      0.12576794,
      0.012065478,
      -0.138112774,
      -0.650990383,
      -0.468255054,
      0.180131596,
      -0.153003483,
      -0.223520256,
      0.116796452,
      -0.010666877,
      -0.127008205,
      -0.352441733,
      -0.353619414,
      -0.203785173,
      0.03203477,
      -0.011403258,
      0.057237207,
      0.147293077,
      0.249124008,
      0.11018161,
      0.012114973,
      0.058185036,
      0.441232121,
      0.245926994,
      0.013511624,
      -0.044902044,
      -0.11824053,
      -0.258823293,
      -0.246022769,
      0.005858406,
      0.012733523,
      -0.028099198,
      -0.145393245,
      -0.232259054,
      0.056582843,
      0.672058955,
      0.029278026,
      -0.572652789,
      -0.368962831,
      -0.064937145,
      0.04563502,
      0.344482613,
      0.620091232,
      0.062088171,
      -0.149189546,
      0.039540956,
      -0.022966539,
      -0.199941413,
      0.322788572,
      0.185965163,
      -0.383697078,
      -0.014663734,
      0.244564398,
      0.307474088,
      0.016218165,
      -0.100074661,
      0.008571912,
      -0.270262516,
      -0.41826965,
      0.053719269,
      0.206628185,
      -0.207644181,
      0.004103043,
      -0.01802402,
      -0.153831316,
      -0.183104757,
      -0.321315147,
      0.116236379,
      0.141891911,
      -0.07014934,
      -0.042414668,
      -0.049761931,
      -0.05983378,
      -0.263493627,
      -0.328892811,
      -0.144970061,
      -0.352470443,
      -0.075763383,
      -0.023314489,
      -0.080722851,
      0.150854164,
      0.311301243,
      0.28200878,
      -0.079887173,
      -0.216054919,
      0.020738551,
      0.069688338,
      0.010914403
     ]
    ],
    "b": [
     -0.601249221,
     0.944152225,
     0.046630956,
     -0.299164778,
     0.160279511,
     0.463014405,
     -0.178412101,
     0.388314373,
     -0.686855209,
     -0.309785525
    ]
   }
  },
  {
   "epoch": 1,
   "batch": 141,
   "loss": 0.840479364220129,
   "accuracy": 85.94366197183099,
   "input": [
    [
     0.0,
     0.0,
     0.0,
     0.0,
     0.0,
     0.0,
     0.0,
     0.0,
     0.0,
     0.0,
     0.0,
     0.0,
     0.0,
     0.0,
     0.0,
     0.0,
     0.0,
     0.0,
     0.0,
     0.0,
     0.0,
     0.0,
     0.0,
     0.0,
     0.0,
     0.0,
     0.0,
     0.0
    ],
    [
     0.0,
     0.0,
     0.0,
     0.0,
     0.0,
     0.0,
     0.0,
     0.0,
     0.0,
     0.0,
     0.0,
     0.0,
     0.0,
     0.0,
     0.0,
     0.0,
     0.0,
     0.0,
     0.0,
     0.0,
     0.0,
     0.0,
     0.0,
     0.0,
     0.0,
     0.0,
     0.0,
     0.0
    ],
    [
     0.0,
     0.0,
     0.0,
     0.0,
     0.0,
     0.0,
     0.0,
     0.0,
     0.0,
     0.0,
     0.0,
     0.0,
     0.0,
     0.0,
     0.0,
     0.0,
     0.0,
     0.0,
     0.0,
     0.0,
     0.0,
     0.0,
     0.0,
     0.0,
     0.0,
     0.0,
     0.0,
     0.0
    ],
    [
     0.0,
     0.0,
     0.0,
     0.0,
     0.0,
     0.0,
     0.0,
     0.0,
     0.0,
     0.0,
     0.0,
     0.0,
     0.0,
     0.0,
     0.0,
     0.0,
     0.0,
     0.0,
     0.0,
     0.0,
     0.0,
     0.0,
     0.0,
     0.0,
     0.0,
     0.0,
     0.0,
     0.0
    ],
    [
     0.0,
     0.0,
     0.0,
     0.0,
     0.0,
     0.0,
     0.0,
     0.0,
     0.0,
     0.0,
     0.0,
     0.0,
     0.0,
     0.0,
     0.0,
     0.0,
     0.0,
     0.043137255,
     0.701960784,
     0.717647059,
     0.0,
     0.0,
     0.0,
     0.0,
     0.0,
     0.0,
     0.0,
     0.0
    ],
    [
     0.0,
     0.0,
     0.0,
     0.0,
     0.0,
     0.0,
     0.0,
     0.0,
     0.0,
     0.0,
     0.0,
     0.0,
     0.0,
     0.0,
     0.0,
     0.0,
     0.0,
     0.68627451,
     0.996078431,
     0.670588235,
     0.0,
     0.0,
     0.0,
     0.0,
     0.0,
     0.0,
     0.0,
     0.0
    ],
    [
     0.0,
     0.0,
     0.0,
     0.0,
     0.0,
     0.0,
     0.0,
     0.0,
     0.0,
     0.0,
     0.0,
     0.0,
     0.0,
     0.0,
     0.0,
     0.0,
     0.360784314,
     0.980392157,
     0.968627451,
     0.090196078,
     0.0,
     0.0,
     0.0,
     0.0,
     0.0,
     0.0,
     0.0,
     0.0
    ],
    [
     0.0,
     0.0,
     0.0,
     0.0,
     0.0,
     0.0,
     0.0,
     0.0,
     0.0,
     0.0,
     0.0,
     0.0,
     0.0,
     0.0,
     0.0,
     0.015686275,
     0.752941176,
     0.996078431,
     0.588235294,
     0.0,
     0.0,
     0.0,
     0.0,
     0.0,
     0.0,
     0.0,
     0.0,
     0.0
    ],
    [
     0.0,
     0.0,
     0.0,
     0.0,
     0.0,
     0.0,
     0.0,
     0.0,
     0.0,
     0.0,
     0.0,
     0.0,
     0.0,
     0.0,
     0.0,
     0.415686275,
     0.996078431,
     0.882352941,
     0.164705882,
     0.0,
     0.0,
     0.0,
     0.0,
     0.0,
     0.0,
     0.0,
     0.0,
     0.0
    ],
    [
     0.0,
     0.0,
     0.0,
     0.0,
     0.0,
     0.0,
     0.0,
     0.0,
     0.0,
     0.0,
     0.0,
     0.0,
     0.0,
     0.0,
     0.066666667,
     0.874509804,
     0.996078431,
     0.450980392,
     0.0,
     0.0,
     0.0,
     0.0,
     0.0,
     0.0,
     0.0,
     0.0,
     0.0,
     0.0
    ],
    [
     0.0,
     0.0,
     0.0,
     0.0,
     0.0,
     0.0,
     0.0,
     0.0,
     0.0,
     0.0,
     0.0,
     0.0,
     0.0,
     0.0,
     0.494117647,
     0.996078431,
     0.933333333,
     0.070588235,
     0.0,
     0.0,
     0.0,
     0.0,
     0.0,
     0.0,
     0.0,
     0.0,
     0.0,
     0.0
    ],
    [
     0.0,
     0.0,
     0.0,
     0.0,
     0.0,
     0.0,
     0.0,
     0.0,
     0.0,
     0.0,
     0.0,
     0.0,
     0.0,
     0.149019608,
     0.968627451,
     0.996078431,
     0.521568627,
     0.0,
     0.0,
     0.0,
     0.0,
     0.0,
     0.0,
     0.0,
     0.0,
     0.0,
     0.0,
     0.0
    ],
    [
     0.0,
     0.0,
     0.0,
     0.0,
     0.0,
     0.0,
     0.0,
     0.0,
     0.0,
     0.0,
     0.0,
     0.0,
     0.0,
     0.584313725,
     0.996078431,
     0.996078431,
     0.321568627,
     0.0,
     0.0,
     0.0,
     0.0,
     0.0,
     0.0,
     0.0,
     0.0,
     0.0,
     0.0,
     0.0
    ],
    [
     0.0,
     0.0,
     0.0,
     0.0,
     0.0,
     0.0,
     0.0,
     0.0,
     0.0,
     0.0,
     0.0,
     0.0,
     0.074509804,
     0.980392157,
     0.996078431,
     0.658823529,
     0.019607843,
     0.0,
     0.0,
     0.0,
     0.0,
     0.0,
     0.0,
     0.0,
     0.0,
     0.0,
     0.0,
     0.0
    ],
    [
     0.0,
     0.0,
     0.0,
     0.0,
     0.0,
     0.0,
     0.0,
     0.0,
     0.0,
     0.0,
     0.0,
     0.0,
     0.243137255,
     0.996078431,
     0.996078431,
     0.329411765,
     0.0,
     0.0,
     0.0,
     0.0,
     0.0,
     0.0,
     0.0,
     0.0,
     0.0,
     0.0,
     0.0,
     0.0
    ],
    [
     0.0,
     0.0,
     0.0,
     0.0,
     0.0,
     0.0,
     0.0,
     0.0,
     0.0,
     0.0,
     0.0,
     0.066666667,
     0.760784314,
     0.996078431,
     0.996078431,
     0.188235294,
     0.0,
     0.0,
     0.0,
     0.0,
     0.0,
     0.0,
     0.0,
     0.0,
     0.0,
     0.0,
     0.0,
     0.0
    ],
    [
     0.0,
     0.0,
     0.0,
     0.0,
     0.0,
     0.0,
     0.0,
     0.0,
     0.0,
     0.0,
     0.0,
     0.274509804,
     0.996078431,
     0.996078431,
     0.615686275,
     0.015686275,
     0.0,
     0.0,
     0.0,
     0.0,
     0.0,
     0.0,
     0.0,
     0.0,
     0.0,
     0.0,
     0.0,
     0.0
    ],
    [
     0.0,
     0.0,
     0.0,
     0.0,
     0.0,
     0.0,
     0.0,
     0.0,
     0.0,
     0.0,
     0.0,
     0.6,
     0.996078431,
     0.996078431,
     0.133333333,
     0.0,
     0.0,
     0.0,
     0.0,
     0.0,
     0.0,
     0.0,
     0.0,
     0.0,
     0.0,
     0.0,
     0.0,
     0.0
    ],
    [
     0.0,
     0.0,
     0.0,
     0.0,
     0.0,
     0.0,
     0.0,
     0.0,
     0.0,
     0.0,
     0.098039216,
     0.97254902,
     0.996078431,
     0.996078431,
     0.054901961,
     0.0,
     0.0,
     0.0,
     0.0,
     0.0,
     0.0,
     0.0,
     0.0,
     0.0,
     0.0,
     0.0,
     0.0,
     0.0
    ],
    [
     0.0,
     0.0,
     0.0,
     0.0,
     0.0,
     0.0,
     0.0,
     0.0,
     0.0,
     0.0,
     0.341176471,
     0.996078431,
     0.996078431,
     0.647058824,
     0.007843137,
     0.0,
     0.0,
     0.0,
     0.0,
     0.0,
     0.0,
     0.0,
     0.0,
     0.0,
     0.0,
     0.0,
     0.0,
     0.0
    ],
    [
     0.0,
     0.0,
     0.0,
     0.0,
     0.0,
     0.0,
     0.0,
     0.0,
     0.0,
     0.0,
     0.494117647,
     0.996078431,
     0.996078431,
     0.301960784,
     0.0,
     0.0,
     0.0,
     0.0,
     0.0,
     0.0,
     0.0,
     0.0,
     0.0,
     0.0,
     0.0,
     0.0,
     0.0,
     0.0
    ],
    [
     0.0,
     0.0,
     0.0,
     0.0,
     0.0,
     0.0,
     0.0,
     0.0,
     0.0,
     0.0,
     0.717647059,
     0.996078431,
     0.968627451,
     0.188235294,
     0.0,
     0.0,
     0.0,
     0.0,
     0.0,
     0.0,
     0.0,
     0.0,
     0.0,
     0.0,
     0.0,
     0.0,
     0.0,
     0.0
    ],
    [
     0.0,
     0.0,
     0.0,
     0.0,
     0.0,
     0.0,
     0.0,
     0.0,
     0.0,
     0.050980392,
     0.862745098,
     0.996078431,
     0.960784314,
     0.149019608,
     0.0,
     0.0,
     0.0,
     0.0,
     0.0,
     0.0,
     0.0,
     0.0,
     0.0,
     0.0,
     0.0,
     0.0,
     0.0,
     0.0
    ],
    [
     0.0,
     0.0,
     0.0,
     0.0,
     0.0,
     0.0,
     0.0,
     0.0,
     0.0,
     0.023529412,
     0.643137255,
     0.996078431,
     0.494117647,
     0.0,
     0.0,
     0.0,
     0.0,
     0.0,
     0.0,
     0.0,
     0.0,
     0.0,
     0.0,
     0.0,
     0.0,
     0.0,
     0.0,
     0.0
    ],
    [
     0.0,
     0.0,
     0.0,
     0.0,
     0.0,
     0.0,
     0.0,
     0.0,
     0.0,
     0.0,
     0.0,
     0.0,
     0.0,
     0.0,
     0.0,
     0.0,
     0.0,
     0.0,
     0.0,
     0.0,
     0.0,
     0.0,
     0.0,
     0.0,
     0.0,
     0.0,
     0.0,
     0.0
    ],
    [
     0.0,
     0.0,
     0.0,
     0.0,
     0.0,
     0.0,
     0.0,
     0.0,
     0.0,
     0.0,
     0.0,
     0.0,
     0.0,
     0.0,
     0.0,
     0.0,
     0.0,
     0.0,
     0.0,
     0.0,
     0.0,
     0.0,
     0.0,
     0.0,
     0.0,
     0.0,
     0.0,
     0.0
    ],
    [
     0.0,
     0.0,
     0.0,
     0.0,
     0.0,
     0.0,
     0.0,
     0.0,
     0.0,
     0.0,
     0.0,
     0.0,
     0.0,
     0.0,
     0.0,
     0.0,
     0.0,
     0.0,
     0.0,
     0.0,
     0.0,
     0.0,
     0.0,
     0.0,
     0.0,
     0.0,
     0.0,
     0.0
    ],
    [
     0.0,
     0.0,
     0.0,
     0.0,
     0.0,
     0.0,
     0.0,
     0.0,
     0.0,
     0.0,
     0.0,
     0.0,
     0.0,
     0.0,
     0.0,
     0.0,
     0.0,
     0.0,
     0.0,
     0.0,
     0.0,
     0.0,
     0.0,
     0.0,
     0.0,
     0.0,
     0.0,
     0.0
    ]
   ],
   "output": 1,
   "conv_layer": {
    "w": [
     [
      [
       [
        -0.24156092,
        -0.479925447,
        -0.742341016,
        -0.540948542,
        -0.460759624
       ],
       [
        -0.161390932,
        -0.812940783,
        -0.794070999,
        -0.767055331,
        -0.844012351
       ],
       [
        0.068520046,
        -0.633134461,
        -0.99311795,
        -0.803655019,
        -1.010612043
       ],
       [
        0.705650076,
        0.295945392,
        0.259804584,
        -0.030875709,
        -0.307252965
       ],
       [
        0.574636224,
        0.617167277,
        0.794702056,
        1.155408363,
        0.669375316
       ]
      ]
     ],
     [
      [
       [
        0.538549902,
        0.573935972,
        -0.219867676,
        -0.277345854,
        -0.125177868
       ],
       [
        -0.172012642,
        0.00534096,
        -0.333421517,
        -0.332740107,
        -0.281670626
       ],
       [
        -0.677258013,
        -0.578252367,
        0.032209278,
        -0.033926419,
        -0.175564407
       ],
       [
        -0.668419721,
        -0.48530752,
        0.051046463,
        -0.264087437,
        -0.559046864
       ],
       [
        -0.533916978,
        0.0698473,
        0.074759843,
        -0.424210882,
        -0.520912929
       ]
      ]
     ],
     [
      [
       [
        0.441505079,
        0.78933231,
        0.572359947,
        0.062026425,
        -0.146348169
       ],
       [
        -0.223786137,
        0.212055784,
        0.079176393,
        -0.334382572,
        -0.446702931
       ],
       [
        -0.343591207,
        0.087322036,
        -0.138169301,
        -0.411559978,
        -0.436725519
       ],
       [
        -0.579965988,
        -0.32195412,
        -0.170821103,
        -0.145779498,
        0.251447404
       ],
       [
        -0.602248963,
        -0.617513558,
        0.067692347,
        0.581977116,
        1.112067583
       ]
      ]
     ],
     [
      [
       [
        0.393450061,
        0.446918563,
        0.193332622,
        -0.016504474,
        -0.522735387
       ],
       [
        -0.356665027,
        0.288741138,
        0.368983352,
        -0.394050309,
        -0.460463795
       ],
       [
        -0.343930528,
        0.122844954,
        0.244234241,
        -0.009622009,
        -0.508751923
       ],
       [
        -0.338983184,
        0.26657677,
        0.498501519,
        0.085696324,
        -0.399748336
       ],
       [
        -0.581089311,
        0.305670731,
        0.574092138,
        0.037906428,
        -0.087913423
       ]
      ]
     ],
     [
      [
       [
        0.247175894,
        0.159292611,
        -0.380585674,
        -0.644132663,
        -0.376823361
       ],
       [
        -0.489844344,
        -0.65203398,
        -0.805866615,
        -0.349145184,
        0.550096704
       ],
       [
        -0.585496788,
        -0.271852667,
        -0.41482135,
        0.804459511,
        1.182723954
       ],
       [
        -0.205857945,
        0.012291603,
        0.393103554,
        0.576761087,
        0.41473195
       ],
       [
        0.575005476,
        0.542635194,
        0.413223883,
        0.108017526,
        -0.663125272
       ]
      ]
     ]
    ],
    "b": [
     0.01000469,
     0.648060805,
     -1.243492259,
     -1.06820889,
     -0.219933899
    ]
   },
   "dense_layer": {
    "w": [
     [
      0.047926991,
      0.00205661,
      -0.198532643,
      -0.26353085,
      -0.010750898,
      0.057672153,
      -0.041839138,
      0.026761012,
      0.075407257,
      0.036900273,
      -0.125451322,
      -0.146099518,
      0.11134537,
      0.36260606,
      0.30184047,
      0.084445822,
      0.137808811,
      0.077313848,
      -0.222604933,
      -0.390190799,
      -0.564940883,
      -0.452059149,
      0.171889494,
      0.334398993,
      0.112006664,
      -0.152666156,
      -0.376639835,
      -0.300118991,
      -0.522043307,
      -0.857708315,
      -0.128546909,
      0.266460746,
      -0.060877831,
      -0.436025454,
      0.03795223,
      0.550440399,
      -0.02079466,
      -0.378819092,
      -0.216046661,
      0.082265094,
      0.021380895,
      -0.386082734,
      0.595339633,
      1.101956555,
      0.0276792,
      -0.416192161,
      -0.190360483,
      -0.101897826,
      0.098000533,
      -0.25273921,
      -0.040373951,
      0.38935897,
      -0.15493834,
      -0.200850366,
      -0.01164455,
      -0.009025547,
      0.06266951,
      0.039374395,
      -0.063002096,
      -0.070083183,
      0.065719576,
      0.119216711,
      -0.044625486,
      0.018753502,
      -0.01399741,
      -0.010990179,
      -0.032811934,
      0.050692786,
      0.091654961,
      0.117960798,
      0.040957942,
      0.040902752,
      -0.020755009,
      -0.022603204,
      -0.039130277,
      0.018918499,
      -0.204700107,
      -0.16371549,
      -0.026858997,
      -0.014121969,
      0.023959834,
      0.004319516,
      -0.095863643,
      -0.369213003,
      -0.402813508,
      -0.293901033,
      0.075758722,
      -0.010520567,
      0.074926794,
      -0.153803682,
      -0.313084085,
      -0.005630027,
      0.414868839,
      0.037801743,
      -0.004991109,
      0.111342348,
      -0.023977983,
      -0.312206766,
      -0.198760705,
      0.363212756,
      0.438717069,
      -0.219218988,
      -0.281650872,
      0.111013212,
      0.035677512,
      -0.379394074,
      0.069881892,
      0.227841836,
      -0.061103239,
      -0.384077206,
      -0.077363822,
      0.122207024,
      0.009321898,
      -0.170240417,
      -0.047502413,
      -0.240599334,
      -0.287988477,
      -1.0802e-05,
      0.18720716,
      0.011991264,
      -0.003672309,
      0.016943427,
      0.056099647,
      0.008327085,
      0.08151512,
      0.125673458,
      -0.047993509,
      0.007805906,
      0.015815234,
      -0.315014577,
      -0.403801741,
      0.212179182,
      0.368485627,
      -0.261706036,
      -0.323072282,
      0.017356129,
      -0.195686484,
      -0.776389942,
      -0.369781078,
      0.560940986,
      0.81139319,
      0.616832165,
      -0.327551221,
      -0.036638695,
      -0.132428976,
      -0.457052263,
      0.751311188,
      0.420315174,
      0.094115079,
      0.559036302,
      0.594084913,
      0.110555732,
      0.212034848,
      0.511784866,
      0.506394599,
      -1.226174268,
      -2.145396425,
      0.116370491,
      0.54306527,
      0.313167572,
      0.234648066,
      0.78169647,
      0.077784959,
      -2.532065226,
      -1.664409629,
      0.445526951,
      0.234439523,
      0.239687285,
      -0.142810029,
      0.504167985,
      0.615138402,
      -0.900616975,
      -0.274505007,
      0.207890027,
      -0.22437139,
      0.116936882,
      -0.326635574,
      0.0597252,
      1.118983859,
      0.521120313,
      0.0889388,
      -0.250036752,
      -0.244072749,
      0.010570267,
      -0.030900238,
      -0.164642632,
      0.148014512,
      0.387207351,
      0.084692859,
      -0.220745879,
      -0.20624431,
      0.017988284,
      0.021541619,
      0.036729452,
      -0.009460259,
      -0.063643681,
      -0.024251728,
      -0.042846022,
      -0.161521403,
      -0.03457,
      0.01393985,
      -0.144586752,
      -0.388311603,
      -0.202392151,
      0.107170347,
      0.153589363,
      -0.081443076,
      0.035860171,
      0.090476501,
      -0.215295375,
      -0.393239698,
      0.436957642,
      0.456314548,
      0.189831977,
      0.499845202,
      0.345887833,
      0.032073051,
      -0.212230236,
      0.500203399,
      0.760436567,
      -0.169957661,
      -0.579632408,
      0.528808802,
      0.530639737,
      -0.085919495,
      -0.103746471,
      1.0191937,
      0.623658261,
      -1.421555301,
      -0.786677175,
      0.196563843,
      0.256713887,
      -0.217229447,
      -0.305481808,
      0.954265081,
      0.227281127,
      -0.749089297,
      -0.284567638,
      -0.041755723,
      -0.027358446,
      -0.121880033,
      -0.465485286,
      0.264491314,
      0.262624649,
      -0.119510055,
      -0.054083315,
      -0.185465078,
      -0.084648223,
      0.061382399,
      -0.147465749,
      -0.082916527,
      0.221721496,
      0.164080188,
      -0.047859902,
      -0.23801013,
      -0.005131116,
      0.138111918,
      0.073064976,
      -0.08789149,
      0.030124154,
      0.002587116,
      -0.167562106,
      0.007720301,
      0.085768557,
      -0.026869359,
      -0.25630176,
      -0.213324064,
      0.194355919,
      0.310444055,
      -0.041222014,
      -0.231714187,
      0.093783496,
      -0.062686108,
      -0.174579349,
      0.360083893,
      0.264426671,
      0.219480752,
      0.008554586,
      -0.230407928,
      0.075231608,
      0.095408852,
      0.247332196,
      0.434718489,
      -0.198503398,
      -0.603875593,
      -0.079272068,
      -0.122406735,
      0.082005379,
      0.16518148,
      0.230668325,
      0.03935427,
      -0.824205918,
      -0.281096198,
      0.291766557,
      -0.065551923,
      0.154424675,
      -0.059824707,
      -0.144741528,
      -0.014173458,
      -0.199683949,
      0.365601292,
      0.253314682,
      -0.020868294,
      0.288938725,
      -0.170598679,
      -0.192502939,
      0.37281386,
      0.178984322,
      0.174189329,
      -0.167512431,
      0.12509285,
      0.160216628,
      0.017912008,
      -0.124377809,
      0.041303828,
      0.31421474,
      0.01547634,
      0.119105952,
      0.124258756,
      0.034076465
     ],
     [
      -0.056781921,
      -0.093296288,
      -0.125203511,
      -0.211391115,
      -0.366544148,
      -0.273988514,
      -0.025678494,
      0.066785856,
      -0.154020967,
      -0.120601014,
      -0.311995278,
      -0.530836479,
      -0.399155744,
      -0.707299038,
      -0.497111111,
      -0.175030808,
      -0.092404012,
      -0.058431405,
      -0.066046365,
      -0.226128021,
      0.137143903,
      -0.159539328,
      -0.549624561,
      -0.274075043,
      -0.081891808,
      -0.094905011,
      -0.21762371,
      -1.023310807,
      -0.163106438,
      -0.209396358,
      -0.54497043,
      -0.292579996,
      -0.169117876,
      -0.039808085,
      -0.211736205,
      -1.142523551,
      0.301776176,
      -0.208859716,
      -0.438297833,
      -0.240481765,
      -0.059763511,
      -0.005701119,
      -0.183700117,
      -0.944023334,
      0.579244301,
      0.05937153,
      -0.068968533,
      -0.160991338,
      0.004229617,
      0.043280053,
      -0.427079295,
      -0.587800605,
      0.136978072,
      0.099344278,
      0.036496779,
      -0.157358789,
      -0.092392807,
      -0.153167928,
      0.001933894,
      0.163095176,
      -0.269875462,
      -0.151365507,
      -0.135956266,
      -0.13881626,
      -0.035416282,
      -0.037640667,
      -0.109274513,
      -0.042091516,
      0.166192482,
      0.137516799,
      0.020712159,
      -0.076214757,
      -0.032629968,
      -0.107726492,
      -0.139806519,
      -0.124822579,
      0.480711698,
      -0.033480681,
      -0.235875954,
      -0.100487234,
      0.005866707,
      0.025032882,
      -0.058824605,
      -0.180388615,
      0.07383134,
      -0.473436533,
      -0.092086023,
      -0.103092055,
      -0.065076317,
      0.020116858,
      0.044185774,
      -0.281419311,
      -0.169325575,
      -0.065667168,
      -0.076935133,
      -0.066182297,
      -0.084649492,
      0.011991824,
      0.0294323,
      -0.454781216,
      0.12129046,
      -0.024058262,
      -0.079118222,
      -0.125574275,
      -0.035845673,
      -0.022477457,
      -0.144221961,
      -0.309371406,
      0.273383431,
      -0.147282202,
      -0.213700832,
      -0.12820477,
      -0.066107398,
      -0.114044977,
      -0.297961765,
      0.127058833,
      0.120378466,
      -0.240516301,
      -0.101768897,
      -0.050459952,
      -0.001580254,
      -0.022695802,
      0.072272367,
      0.207810383,
      0.082866638,
      0.0081367,
      -0.091316337,
      -0.113630127,
      0.013336192,
      -0.11136284,
      0.188916292,
      0.450308799,
      -0.319643917,
      0.131947815,
      0.591165975,
      0.030078742,
      -0.114888283,
      -0.574297711,
      -0.73719833,
      -0.577373157,
      -0.289385426,
      -0.955041761,
      0.062382841,
      -0.027883013,
      -0.173852554,
      -0.776676564,
      -1.223766631,
      1.017796502,
      0.442011615,
      -1.154874155,
      -0.297547902,
      -0.214102458,
      -0.299420386,
      -1.027757068,
      -1.540643457,
      1.251651089,
      0.403445656,
      -0.85824115,
      -0.597185187,
      -0.238654346,
      -0.449280509,
      -1.002437553,
      -0.662661478,
      1.01619524,
      -0.420781252,
      -0.942749908,
      -0.658570341,
      -0.130830827,
      -0.167835625,
      0.224757402,
      -0.215816444,
      0.379157394,
      -0.770608575,
      -0.373272887,
      -0.380045068,
      -0.150789226,
      0.398556909,
      0.815982745,
      -0.725613002,
      -1.211831597,
      0.219850054,
      0.443693198,
      -0.131933486,
      -0.06309297,
      0.197538694,
      0.290849601,
      -0.838276025,
      -1.321390021,
      -0.334733274,
      0.162201303,
      -0.080806814,
      -0.015703787,
      0.010913322,
      0.003856776,
      0.015169894,
      0.383517289,
      0.23899254,
      0.008689016,
      0.194406418,
      0.108347688,
      0.024585236,
      -0.011580841,
      0.069254162,
      0.046868125,
      0.097081899,
      -0.228059916,
      0.101759641,
      0.129563329,
      -0.030230001,
      0.041294822,
      -0.095339973,
      -0.738511796,
      0.866047039,
      -0.415493844,
      -0.200059498,
      -0.062373274,
      -0.008596136,
      0.048325593,
      -0.247368646,
      -0.898534454,
      1.308352388,
      -0.004384149,
      -0.369090366,
      -0.234416331,
      0.017481353,
      -0.056198843,
      -0.366664529,
      -0.389937198,
      1.143712118,
      -0.234628017,
      -0.542833043,
      -0.218167889,
      -0.006664716,
      -0.014287806,
      -0.078245019,
      -0.084572394,
      0.754350518,
      -0.354734414,
      -0.305816138,
      -0.099785985,
      0.042337388,
      0.289216482,
      0.191276065,
      -0.16945472,
      0.261107107,
      0.165039917,
      0.078539159,
      -0.082745421,
      0.028926938,
      0.3520077,
      0.205150145,
      -0.569001888,
      -0.356823393,
      0.3334964,
      0.041176678,
      -0.027652937,
      -0.095142824,
      -0.066101578,
      0.041546157,
      0.25104498,
      -0.238680086,
      -0.003765274,
      0.132339513,
      -0.127356882,
      -0.082290467,
      -0.288672416,
      -0.266947098,
      -0.576104211,
      -0.334102978,
      0.034669163,
      0.140699522,
      -0.219111855,
      -0.184997083,
      -0.353305835,
      -0.560607616,
      -0.256647226,
      -0.258091794,
      -0.341120483,
      -0.115887879,
      -0.235928592,
      -0.175018679,
      -0.298823333,
      -0.697156774,
      0.244861448,
      -0.374662028,
      -0.164823178,
      -0.263751484,
      -0.278941537,
      -0.210294819,
      -0.430630993,
      -0.505105822,
      0.136016517,
      -0.502820375,
      -0.182024315,
      -0.315348874,
      -0.137579187,
      -0.188564833,
      0.070875893,
      -0.164293383,
      -0.164448387,
      -0.61162607,
      0.017223202,
      -0.203799353,
      -0.14492502,
      0.092728526,
      0.423154651,
      -0.350434976,
      -0.930674285,
      -0.076850563,
      -0.076048234,
